# Shape: (3, 3, 3, 32)
-0.108875
-0.126259
0.143401
-0.086330
0.118804
0.064296
0.049961
0.111107
0.224771
-0.041549
0.144359
-0.051826
-0.018274
0.009618
-0.040389
-0.203851
0.113945
-0.102576
0.175004
-0.059396
-0.004309
0.143964
0.035504
-0.153645
0.050921
0.244346
0.137778
0.140967
-0.036158
-0.103342
-0.061210
0.067529
-0.188622
0.059883
0.167246
0.015958
-0.059817
-0.055820
-0.206409
-0.078151
-0.034699
-0.084766
-0.003939
0.019724
-0.010620
0.041576
0.118277
-0.019223
0.126416
0.119691
0.124276
-0.158253
-0.085684
-0.078447
0.098582
-0.036149
-0.093761
-0.015750
-0.194188
-0.160901
0.162159
0.072368
0.216471
-0.023104
-0.242249
0.024624
0.066459
-0.031654
0.086503
0.030411
-0.184256
0.155016
-0.162373
0.036212
0.101870
0.088093
-0.050772
0.284067
0.125487
0.115076
-0.086401
0.170797
-0.108946
-0.018611
-0.221007
0.059192
0.141708
-0.105639
-0.040489
-0.015072
-0.043365
-0.000410
-0.004058
0.030556
0.089750
-0.005205
0.056895
-0.157994
0.123655
0.030642
-0.134354
-0.139941
0.069454
-0.087804
0.091191
0.030180
-0.124327
-0.129706
-0.037615
-0.038535
-0.055037
0.109699
0.009939
-0.218850
0.143668
-0.115044
0.106084
0.178256
0.151935
-0.102542
-0.036190
-0.013476
-0.018803
0.129072
0.082082
-0.144018
-0.096813
-0.149015
-0.213338
0.084041
0.139097
-0.035941
-0.112178
0.066142
-0.069000
0.027832
-0.079384
0.150235
-0.171949
0.090759
0.178760
-0.066762
-0.144539
0.088525
-0.149618
-0.110043
-0.085360
-0.030083
0.044928
0.186819
-0.129606
-0.060347
-0.454352
0.098447
0.026050
-0.128216
-0.101504
-0.017497
0.139280
-0.050634
0.051032
-0.120287
-0.118212
0.029074
0.068665
0.202931
0.051941
-0.103730
-0.099306
0.044976
-0.106506
0.211096
0.017739
-0.028630
-0.037651
0.075499
0.027501
-0.186468
-0.234636
0.153870
-0.178659
0.118918
0.079888
-0.095037
-0.095890
-0.028012
0.091411
0.060848
0.045106
-0.149193
-0.043427
-0.198768
0.085774
0.188305
0.144731
-0.089175
-0.168006
-0.115004
0.040682
-0.003838
-0.122943
-0.238928
-0.090301
-0.016649
0.203232
-0.081510
-0.042397
0.208337
-0.050961
0.055409
0.236439
0.032766
-0.131492
-0.062260
0.050576
0.193506
-0.063886
-0.040140
0.192787
-0.121623
0.144881
0.188315
-0.109357
-0.024015
-0.043924
-0.039573
0.117123
0.011664
0.169891
-0.008643
-0.144532
0.062302
-0.029770
-0.092027
-0.115172
0.126093
0.171789
-0.087290
0.052918
0.103266
-0.045361
0.162887
-0.047378
0.156642
-0.100596
0.152355
-0.087072
-0.052265
-0.174248
0.001029
0.150612
-0.003909
-0.106783
-0.093683
0.127539
-0.129963
0.079340
-0.007111
0.094938
0.145767
0.134091
0.124634
0.030598
-0.185125
0.139119
-0.069731
-0.085186
0.151155
0.019952
0.067937
-0.076111
-0.077555
0.009667
0.022692
0.025734
0.170957
-0.072132
0.074760
0.119614
0.226591
0.007753
-0.274605
0.032501
-0.006058
-0.204581
-0.154880
-0.023334
-0.116096
-0.091611
-0.148592
0.079124
0.229976
0.239823
-0.118496
0.124932
0.158641
-0.148923
-0.044491
-0.076998
-0.010913
-0.219407
0.040877
0.077724
-0.114176
0.175592
0.052163
-0.087855
-0.156701
0.067844
-0.036604
-0.094322
0.035250
-0.071509
0.021517
0.004510
0.013394
0.080091
0.014863
-0.063995
-0.057296
-0.208640
-0.013967
-0.024631
0.234104
0.121509
-0.149762
0.051454
0.137972
-0.066096
-0.038030
0.208928
-0.161822
0.026941
0.204655
0.000590
0.074725
0.187406
-0.051653
0.052924
-0.227252
0.059395
0.036066
-0.146442
0.141863
-0.221420
-0.177003
-0.024402
-0.213410
0.154469
-0.039696
0.011281
-0.003415
0.026278
0.123691
-0.119805
0.174425
-0.099556
-0.003892
-0.091559
0.154772
-0.156667
-0.070533
0.166504
-0.135485
0.016872
0.005734
-0.036087
0.067968
0.155099
-0.137664
-0.083359
-0.042445
-0.122270
-0.145149
0.019014
-0.085553
-0.084149
0.036072
0.066796
0.148171
0.214030
0.172220
-0.122895
0.033243
-0.015230
-0.112054
-0.106503
-0.184026
-0.042391
0.162162
0.073029
0.090261
-0.072885
0.099677
-0.071202
0.021046
-0.183430
-0.034107
0.126105
-0.057596
-0.008395
0.006206
-0.128972
0.044148
0.177456
-0.169664
0.025368
-0.133459
-0.096644
0.052084
-0.241304
0.226957
-0.206196
-0.039184
-0.220431
-0.107035
0.069637
0.030053
-0.234088
-0.283195
-0.181127
-0.140674
0.057079
-0.072556
0.015321
-0.084863
-0.134956
-0.202582
-0.041116
-0.001648
-0.083272
-0.206853
-0.044929
0.012517
0.076407
0.076607
0.105199
-0.012244
-0.195768
-0.024324
-0.285701
0.036095
-0.171627
0.005135
-0.106538
0.081876
-0.067830
0.078365
-0.027613
-0.172576
-0.069689
-0.169069
0.042800
0.007701
-0.094717
0.034373
0.102071
-0.076059
0.016809
0.007723
-0.087394
-0.048220
-0.195710
-0.062794
-0.102704
0.105976
-0.082895
-0.118748
0.126141
-0.010354
0.211291
-0.103439
-0.061011
0.114682
-0.158015
0.094976
-0.163976
-0.084195
-0.028133
-0.086581
-0.143836
0.215611
-0.176337
-0.012763
-0.092156
0.177811
-0.032974
-0.159965
0.103791
-0.034806
-0.025321
0.086548
-0.096092
-0.016994
0.046955
0.079588
-0.163220
0.055190
-0.041793
0.047110
-0.071117
-0.165735
-0.066460
-0.157973
0.146251
-0.032156
0.036769
0.136417
0.127764
-0.088803
0.033535
0.264277
0.105704
0.034018
0.000122
0.001772
0.043432
0.071521
0.036055
-0.068970
0.175592
-0.076665
-0.068762
-0.148375
-0.032734
0.186557
0.195890
0.074930
-0.011533
0.001714
-0.156309
-0.025623
-0.061579
-0.132890
0.061410
0.015755
-0.178156
0.116278
0.074671
-0.116499
-0.096117
-0.107884
0.135267
0.200533
0.042244
0.037483
-0.052915
0.009985
-0.071869
-0.033517
-0.039545
-0.068973
0.205250
0.062020
-0.027756
0.001530
0.108933
0.180743
-0.097935
-0.210936
-0.128133
0.144509
0.033234
-0.097878
0.146332
-0.032833
-0.035760
-0.057462
-0.026255
0.006638
0.007563
-0.068323
0.104901
-0.113705
-0.123820
0.276202
0.069275
-0.127831
0.063228
0.077225
0.279834
0.020411
-0.098228
-0.052383
0.017144
0.175057
0.022607
0.011563
-0.201215
0.097166
0.086518
0.034098
0.000550
0.149493
-0.164159
0.008192
-0.127561
0.204903
-0.192810
0.151049
0.188035
-0.099190
0.023637
0.195274
-0.096711
-0.146374
-0.022677
-0.037900
-0.056718
0.132411
-0.179542
-0.086759
0.027543
0.082301
-0.111034
0.114650
0.203044
-0.039520
0.052272
0.020874
-0.094069
0.041618
0.178169
-0.118164
0.039140
-0.191503
0.135250
-0.178864
0.072057
-0.137601
0.010727
0.158524
0.009731
-0.120981
0.070740
-0.159128
-0.006675
0.127493
0.138119
-0.042384
0.038368
0.141933
0.045741
-0.085530
-0.129062
-0.197505
-0.158058
0.156424
0.086819
0.023964
0.108726
-0.047247
-0.113015
0.088671
-0.116081
0.152508
-0.013949
-0.035165
0.036775
-0.136458
0.029421
-0.126633
0.110797
0.101442
-0.088889
0.062808
0.138194
-0.020489
0.060395
0.186720
-0.005716
-0.012752
0.066089
0.060923
-0.076641
-0.051100
-0.064126
0.221341
0.029092
0.021430
-0.034757
0.188352
0.172318
0.118377
-0.091252
0.008842
-0.019183
0.007872
-0.009619
0.180821
0.019403
0.137882
0.023857
0.000166
-0.182082
0.133698
-0.054825
-0.195488
-0.181881
-0.058764
-0.172126
0.074897
0.041081
0.085076
0.176426
-0.040087
0.099782
-0.000552
-0.021293
0.108659
-0.000247
-0.128364
-0.053623
-0.116795
0.197625
-0.019158
-0.047291
-0.153939
0.108017
0.101943
-0.124686
-0.005844
-0.038681
0.144226
0.052019
-0.175210
-0.023147
0.027082
0.043552
-0.078098
0.071301
-0.161580
-0.128592
0.026397
0.134887
-0.162895
0.183722
0.137849
0.124383
-0.048164
-0.057890
-0.036471
0.048082
0.133372
-0.022470
-0.017441
-0.037088
-0.094711
-0.013314
-0.188882
-0.243026
0.066690
0.109783
-0.098314
0.194916
0.141126
0.136981
-0.086128
0.125870
-0.111614
0.045728
0.094633
-0.149266
0.044304
0.020142
0.094059
-0.117985
-0.065120
-0.014138
0.021574
-0.177165
0.135406
-0.114557
0.108899
-0.065243
-0.027925
-0.045454
0.216017
0.111634
0.067933
-0.079396
0.111155
0.074542
-0.010827
-0.110103
-0.139718
-0.132534
0.142263
-0.023016
-0.063368
0.037504
-0.065068
0.130716
0.058944
-0.001662
-0.095121
0.136122
0.016736
-0.088513
-0.069959
0.105550
0.008872
-0.005722
0.051559
-0.017904
-0.090927
0.271812
-0.155144
-0.207363
0.018531
-0.074470
-0.079554
0.164317
0.014948
0.120651
-0.108941
0.024045
0.054350
-0.059793
0.089904
-0.152358
0.138302
-0.011190
0.020319
0.054273
0.091531
0.062999
-0.035242
0.157314
-0.047247
0.195166
0.123706
0.152043
-0.230266
-0.056253
0.045339
0.059619
-0.053733
0.203863
-0.175033
-0.042237
0.133582
-0.095099
0.045698
0.080362
-0.105892
-0.185739
-0.137904
-0.104307
-0.042246
0.219103
-0.047288
-0.057117
0.118995
-0.045739
0.175245
0.074397
0.066289
0.000143
0.089533
-0.071590
0.127671
-0.062091
0.138841
