# Shape: (1, 1, 128, 10)
-0.143615
0.136856
0.103048
0.046028
0.078826
-0.304421
-0.196267
-0.078175
-0.304119
0.208379
-0.273646
-0.354220
0.030413
-0.123722
0.091298
0.245361
0.002010
-0.280935
-0.034922
-0.213341
0.130891
-0.192875
-0.168898
-0.021715
-0.039039
0.067371
0.327148
0.160027
-0.049780
0.110911
-0.167202
-0.222100
0.122532
0.026752
-0.342845
-0.150972
-0.282482
0.083286
0.274802
-0.228115
0.006441
0.092799
0.215394
0.052870
0.144476
0.183211
0.059656
-0.074504
-0.067937
-0.290339
0.100898
-0.008535
-0.194817
-0.022521
0.020311
-0.065170
0.302621
0.177825
0.155861
0.070357
0.213453
-0.065506
-0.086569
0.226106
0.057936
0.150783
-0.183242
-0.089295
-0.117160
-0.170814
-0.075475
-0.172772
0.340700
0.108668
0.134861
-0.102660
0.050495
0.060334
-0.071748
0.041846
0.005507
-0.087593
0.231233
0.124739
-0.194058
-0.193817
0.180562
-0.042518
0.205124
0.108953
0.001516
0.099154
0.214152
-0.068033
-0.181433
0.141832
0.291497
-0.057150
0.049009
0.067687
-0.150268
0.084646
0.008514
0.143710
-0.124094
-0.192407
0.175051
-0.129747
0.296319
0.199919
0.018823
-0.434229
-0.237017
0.173613
0.166139
0.152076
-0.108961
0.096502
-0.158530
-0.163731
0.192699
-0.115185
-0.030069
-0.039649
0.210273
-0.053809
-0.139436
0.160208
-0.100195
-0.062900
-0.180459
-0.283253
-0.109557
0.079465
-0.059827
-0.170243
-0.139391
-0.333593
0.126227
-0.032624
-0.107342
0.129273
0.001849
-0.080865
-0.270174
-0.278703
-0.339649
-0.117767
-0.351002
0.074496
-0.038155
0.240973
-0.136910
-0.189890
-0.138709
0.225518
-0.193580
-0.217905
0.263822
0.060353
-0.102425
-0.406725
0.111165
-0.142114
-0.123651
-0.201209
-0.169427
-0.343895
-0.307296
-0.258673
-0.237888
0.166409
-0.272532
0.226252
-0.344302
0.082769
-0.259185
-0.188856
-0.348444
-0.213794
-0.043745
0.359886
0.009235
-0.114443
0.055393
0.017235
0.130967
0.079604
-0.198654
0.054099
0.126531
-0.140637
0.003926
-0.084199
-0.313050
-0.018662
0.249330
-0.220089
-0.004972
-0.301927
-0.206761
-0.091838
-0.282964
0.179841
0.201330
0.166290
-0.146636
0.000447
-0.195763
-0.012267
0.234388
-0.137616
0.195955
-0.028617
0.104534
-0.058003
-0.197950
-0.044399
0.043403
-0.013033
-0.012228
0.054578
-0.050985
0.306316
-0.017639
-0.137809
0.102437
0.066392
0.133346
-0.063200
0.164585
-0.232523
0.193729
0.122466
-0.143096
0.070695
-0.112908
0.246558
-0.289884
-0.043164
-0.046233
-0.086738
-0.049933
-0.048209
-0.132498
0.108782
0.198801
-0.119354
0.300372
-0.219736
0.075619
0.046038
0.065313
0.096983
0.102945
-0.050223
-0.252422
0.254715
-0.003911
-0.048319
-0.244606
0.215366
-0.100675
-0.071575
-0.230917
-0.131722
0.310319
-0.241508
0.070184
-0.103898
-0.181022
0.143724
0.147033
0.094580
-0.009343
-0.059174
-0.013948
0.224514
-0.200321
0.125391
-0.078090
-0.251003
-0.048496
-0.082884
-0.048972
0.124800
-0.256736
0.357154
0.008245
-0.391767
-0.314251
-0.197537
-0.309351
-0.145135
-0.198883
0.180162
-0.082113
0.204342
-0.362971
-0.166612
0.140129
-0.244158
0.139248
-0.188149
-0.080754
-0.279655
-0.264949
-0.318896
0.121787
-0.106727
0.068795
0.084938
0.019211
-0.086620
0.255942
0.167086
-0.037132
0.302395
-0.021481
-0.045740
-0.254282
-0.124287
-0.065346
0.007565
0.176117
-0.070287
0.036139
0.256199
0.328500
-0.303818
-0.142687
-0.238505
0.022085
0.185500
0.196468
-0.203711
-0.136328
-0.304871
-0.048474
-0.141772
0.156399
-0.096551
-0.141441
-0.076934
0.128660
-0.012032
-0.009689
0.227097
-0.165053
0.297063
0.304063
-0.129604
0.131828
0.187062
0.033292
0.116521
0.185742
-0.057339
-0.191967
-0.355442
0.209273
0.063391
-0.269684
0.005649
0.178998
-0.112238
-0.348433
-0.187390
0.260578
0.080305
0.171779
0.156369
-0.088099
-0.070687
0.031652
-0.042750
0.295737
-0.090396
0.378151
0.033311
0.267274
0.294876
-0.104720
0.258623
-0.066837
0.163363
0.062578
-0.212343
-0.121323
0.078718
-0.255429
-0.367243
0.106330
0.184761
-0.074309
-0.043633
-0.050421
-0.034538
0.114007
0.007052
-0.228709
0.022783
0.190098
0.053728
0.087186
0.175145
-0.032605
0.118372
0.302063
-0.126623
-0.207216
0.030092
0.061155
0.104954
-0.215408
0.201332
0.296376
-0.269132
0.093721
-0.199414
0.015850
-0.459469
-0.096627
-0.013188
0.041754
0.035872
0.239971
-0.023845
-0.212371
-0.303369
0.015106
-0.128952
0.036347
0.041159
-0.006952
-0.076107
0.259780
0.212638
0.162622
-0.146163
0.053843
0.224630
0.164654
0.187006
-0.124555
0.140437
-0.058755
0.236808
0.081110
-0.121251
0.176282
-0.247985
0.108994
-0.285770
-0.214923
-0.172111
0.083161
-0.178177
-0.110856
-0.366911
0.105930
-0.354564
-0.134265
0.139916
-0.218012
0.111401
-0.097824
-0.002656
0.292758
-0.070744
0.128858
-0.207489
0.006855
0.042744
-0.120579
0.114782
-0.138049
-0.030278
0.138759
0.210855
0.057405
-0.353409
0.216796
0.188402
0.208475
0.034500
0.209773
-0.058672
-0.357586
-0.194016
-0.231724
-0.158725
0.047265
0.077123
-0.045267
-0.224831
-0.051384
-0.280765
-0.444403
-0.413135
-0.252931
-0.041472
0.310323
-0.024110
-0.164277
0.119925
-0.015382
0.079286
-0.189792
-0.127124
0.151760
0.149657
-0.253425
-0.112495
-0.193495
-0.304168
0.147897
-0.141600
-0.066626
0.248706
-0.080196
-0.124821
-0.078951
-0.060558
-0.018740
0.173744
0.185883
0.028623
-0.064567
0.249529
0.085270
-0.022993
-0.102728
-0.427631
-0.261056
-0.396085
0.111690
-0.309337
0.032995
-0.296597
0.208354
-0.008009
-0.071896
-0.097384
0.032857
-0.085314
-0.185056
0.233352
0.023947
-0.136467
0.142691
0.042856
0.291980
-0.033252
-0.104573
0.009799
-0.249731
0.001480
-0.170241
0.010989
0.024549
-0.036538
0.126033
0.008212
0.081465
0.081535
-0.001815
0.092307
0.025620
0.307438
0.304649
0.210913
0.067855
0.037736
0.137187
-0.037798
-0.111519
0.307982
-0.184088
-0.116685
0.123250
0.077121
0.288128
0.076675
-0.053942
0.155073
0.073244
0.058715
0.000147
-0.164571
-0.157233
0.293846
-0.194657
-0.021613
-0.076418
-0.203419
0.098133
-0.136569
-0.004938
0.282947
-0.205689
0.220347
-0.015158
-0.042863
-0.187911
0.223813
-0.320842
-0.164635
0.108917
-0.206350
-0.207699
-0.027661
-0.146024
-0.089767
-0.311518
-0.133658
0.154185
-0.142044
-0.211656
-0.174638
0.183919
-0.331223
0.193662
-0.187257
-0.082275
0.017417
-0.084844
-0.164616
-0.052282
-0.036226
-0.152456
-0.297144
-0.240464
0.223275
0.140853
0.052849
0.160743
0.002427
-0.393815
-0.113620
0.099887
-0.070140
-0.108863
0.191473
0.160887
0.132793
0.196300
-0.297144
0.070081
0.075973
0.186061
-0.192383
0.089459
-0.227308
-0.022126
0.100582
-0.272341
0.134486
0.160886
0.118363
-0.073579
-0.043578
-0.022428
-0.450574
0.090183
-0.439038
-0.201483
-0.139429
0.111236
-0.190379
0.138618
0.071414
0.030312
-0.067604
0.229636
-0.186931
0.050297
-0.036434
0.198664
0.150228
-0.118173
-0.284027
0.143511
-0.218292
0.041848
-0.191199
-0.346189
-0.106492
-0.103456
-0.286224
-0.214647
-0.048090
0.102175
-0.160757
-0.074094
0.197660
0.249296
0.151352
-0.187288
-0.032164
0.188469
0.011165
-0.326988
-0.295413
0.164671
-0.222435
-0.229035
-0.349801
0.006819
-0.008149
0.040949
0.312294
-0.253215
0.024335
-0.343004
-0.038373
-0.330356
-0.243205
0.209452
-0.020351
0.028358
0.067708
-0.209088
-0.118745
0.204376
-0.226360
0.168079
0.149785
0.105220
0.041949
-0.257587
0.285002
0.037701
0.081320
0.221612
0.084928
0.251963
-0.193709
0.118486
0.070251
-0.164165
-0.393897
0.153086
-0.097782
0.006337
-0.112796
0.161300
-0.086462
-0.213402
-0.382091
-0.107274
-0.008932
0.031620
-0.087877
0.056777
-0.231886
0.181729
-0.420709
-0.431239
-0.156260
0.275412
-0.160410
0.170755
0.033205
0.154726
0.113222
-0.240977
-0.104824
0.026581
-0.139177
0.051910
0.159531
0.175957
0.123962
-0.020773
0.100084
0.164967
0.337703
-0.183733
-0.017774
0.258646
0.090656
-0.047375
-0.237698
-0.112896
-0.103575
0.297528
0.121618
-0.032254
0.143182
-0.199146
-0.095032
-0.265840
0.111878
-0.153662
0.104839
-0.225567
0.063916
0.194064
0.217028
0.283646
0.219299
0.240500
-0.005382
-0.125280
-0.234704
0.274304
-0.114572
-0.082389
0.060247
0.263126
0.131143
-0.175077
-0.075789
-0.148638
-0.128080
-0.093744
0.145833
-0.333100
-0.215508
0.008211
-0.076343
0.202106
-0.005059
0.242846
-0.123619
-0.055460
-0.284661
-0.099797
0.064996
-0.166265
0.150962
0.055281
0.161897
0.106558
-0.031193
-0.036566
-0.035941
0.248759
0.203329
-0.343591
-0.171809
0.013230
0.044252
-0.094896
0.065580
-0.248686
-0.045506
-0.257309
0.084102
0.162693
0.135305
-0.007348
0.201453
-0.069926
-0.099454
-0.060916
0.267559
0.018138
0.196296
-0.029988
-0.139153
0.225052
-0.061450
-0.161672
-0.210060
0.003019
0.126609
-0.143610
0.127646
0.034473
-0.211923
-0.018033
0.066012
0.037840
-0.006593
-0.051270
0.267306
0.296513
0.106645
-0.014271
-0.164377
0.269966
-0.066174
0.203904
-0.202434
0.095767
-0.045656
-0.210636
0.133972
0.232837
-0.138735
0.176665
0.135160
-0.185574
0.009492
-0.109077
0.020491
-0.112329
0.272922
0.070542
0.037537
0.254869
-0.011681
-0.228936
-0.035269
-0.175991
-0.395460
0.152801
-0.182326
-0.261545
0.257176
-0.036577
0.092140
-0.090733
0.163727
-0.114672
0.011093
-0.091379
0.145209
0.228619
0.016470
-0.082353
-0.088018
-0.158410
0.156504
-0.014816
-0.036222
0.065723
0.246631
-0.092814
0.172128
0.054336
0.263645
-0.269029
0.121738
0.029013
-0.200618
-0.124428
0.219729
-0.155832
0.317858
-0.125769
-0.065445
0.142454
-0.303915
-0.122979
-0.019745
-0.086112
0.031540
-0.064786
0.106055
0.060340
-0.118412
-0.040551
-0.049066
0.201134
0.324513
0.245840
0.264311
0.228800
0.123886
-0.139429
0.162085
0.136252
0.128586
0.202022
-0.022847
0.086512
-0.187762
-0.140795
-0.264368
0.217331
0.053751
0.280855
0.096719
-0.008892
0.036682
0.192954
-0.050582
-0.099130
-0.080024
-0.046470
0.201319
-0.301957
0.214087
-0.181261
0.191765
0.189709
0.021843
-0.268775
0.141235
0.091091
0.200476
0.039461
-0.037984
0.034810
-0.190227
-0.031262
-0.152152
0.049304
-0.171772
-0.204585
-0.119488
-0.265031
0.172670
-0.378483
-0.193259
-0.264051
0.229033
-0.134153
0.097136
0.014151
0.056866
0.189862
0.103238
-0.224789
0.207406
0.128489
0.186111
-0.056856
0.250195
-0.178096
-0.033196
0.104043
0.158564
-0.231410
0.095229
-0.130994
0.145303
0.203848
-0.438515
0.051866
0.017014
-0.027824
0.069449
-0.009193
-0.110243
0.030728
0.049623
-0.026796
0.249616
0.270472
-0.137762
0.204779
-0.138825
-0.121332
-0.189159
-0.097897
0.035353
-0.165805
-0.174813
-0.105331
-0.004022
0.173652
-0.122490
-0.347794
-0.074551
-0.056011
-0.374136
0.029209
0.115860
0.192459
-0.073101
0.239552
0.168879
0.007080
-0.131486
0.103705
-0.104888
-0.352906
-0.223953
-0.263254
0.021111
0.180104
0.018218
0.018558
-0.124669
-0.176329
-0.251776
-0.282036
-0.398153
-0.207241
-0.019094
-0.330073
0.057296
-0.395344
-0.271664
-0.507443
-0.282865
0.253196
-0.207557
-0.070882
0.150406
0.133258
-0.216326
-0.158489
-0.203287
-0.017025
0.240204
-0.487741
0.132930
-0.105244
0.101150
0.234200
0.063753
0.127714
0.209077
-0.281324
-0.289647
-0.184277
-0.357414
-0.260662
0.130892
-0.050052
-0.058275
-0.353117
-0.243725
-0.121726
0.084628
0.002001
0.198896
-0.045408
-0.115514
0.253709
-0.074949
-0.075742
0.226640
0.107274
-0.012521
0.095308
-0.064664
-0.114442
0.209745
0.304362
0.130945
0.158814
0.001877
-0.065133
-0.007074
0.056746
-0.007782
-0.205207
-0.078589
0.260474
-0.064675
0.036903
-0.161076
0.194727
-0.298488
0.033536
-0.429850
-0.208738
-0.189839
0.279749
-0.125684
-0.128503
0.052241
-0.303348
-0.137639
0.193732
0.237016
0.047198
-0.078587
-0.201946
-0.248353
-0.175913
0.047873
0.283142
0.177788
-0.211126
0.025271
-0.173556
-0.290331
0.140750
-0.149150
-0.162497
-0.255356
-0.221413
0.110161
-0.101691
0.188256
0.195449
-0.181737
-0.174238
-0.350688
-0.206856
-0.239922
-0.092499
0.289580
-0.148210
-0.142832
0.020899
0.081987
-0.166221
0.262550
0.191355
0.214107
-0.157271
0.244683
0.082311
-0.314621
-0.211694
-0.071341
-0.291800
-0.271856
-0.313216
0.168667
-0.167247
-0.274472
0.000376
0.143974
0.130845
-0.015005
0.195250
0.312212
0.049310
-0.192804
-0.099603
0.178184
-0.260839
-0.277742
0.107451
-0.002997
0.158617
0.146053
-0.014207
-0.035605
0.060787
0.067785
0.177553
0.003851
-0.281765
0.068505
-0.181654
0.198554
-0.115079
0.107896
0.030962
-0.070037
-0.209845
0.059213
0.015287
-0.154504
-0.284795
0.105578
0.006178
-0.128189
0.094715
-0.071944
-0.044099
-0.197217
-0.181722
0.133714
0.093067
-0.146307
0.073628
0.116666
-0.151700
-0.284694
-0.101460
-0.266689
0.192034
-0.095623
0.148847
0.092057
-0.261092
-0.042617
-0.039029
-0.343021
-0.063344
-0.325241
-0.248834
0.117710
-0.243783
0.172261
-0.180464
-0.038414
-0.107673
-0.017697
