# Shape: (128,)
-0.000685
0.001860
-0.000535
0.000051
0.001133
-0.000054
-0.002774
0.000744
-0.000580
0.000202
0.000030
-0.000455
0.000570
0.000905
-0.000635
0.000722
-0.000269
-0.001120
-0.000269
-0.001317
0.000015
0.000734
0.000251
0.000682
-0.000193
-0.000306
0.001330
0.001343
0.000307
-0.000068
-0.000565
-0.000937
-0.000119
0.000015
0.000174
-0.000014
-0.000249
0.000025
0.000013
-0.000671
0.000316
0.000115
0.000026
0.000325
0.000611
-0.001229
-0.000576
0.000403
-0.001435
0.000458
0.000004
-0.000223
-0.000983
-0.000188
-0.001500
0.000292
-0.000400
0.000319
0.000121
-0.001592
-0.000378
-0.000230
-0.000094
-0.000414
-0.000265
0.000281
-0.001203
0.000009
-0.000372
0.000213
0.000400
-0.000127
0.000088
-0.000011
-0.000005
0.000048
-0.000201
0.000936
0.000713
-0.000534
-0.000048
-0.000036
0.000220
0.000414
0.000481
0.000680
0.000369
0.000421
-0.000644
0.000113
0.000469
-0.000705
-0.000819
0.000259
-0.000131
-0.000337
-0.001029
-0.000249
0.000374
0.000553
0.000263
-0.000626
-0.000009
0.000038
0.000150
-0.000653
0.000265
0.001009
-0.000780
-0.000059
0.000159
-0.000108
-0.000245
-0.000440
-0.000376
0.000163
-0.000106
0.000323
-0.000095
-0.000455
0.000223
0.000859
0.000472
0.000101
0.000052
-0.000137
-0.001596
0.000111
