# Shape: (3, 3, 32, 32)
-0.077672
0.062573
0.074757
0.048242
0.150411
0.077314
-0.045279
-0.081184
-0.096277
-0.055903
-0.114113
0.058312
-0.128623
-0.008391
0.000279
-0.027161
-0.040417
0.057753
-0.076568
-0.056001
0.057032
0.053563
-0.102352
0.084156
0.033030
-0.002130
-0.057660
0.113826
-0.068347
-0.061794
0.181090
0.022669
0.060540
0.063863
-0.108434
-0.016207
-0.067909
0.089517
0.099818
-0.054052
0.102776
-0.037905
0.099891
0.182387
-0.004215
0.015767
0.052017
0.127228
0.107941
-0.024578
0.088287
-0.025719
0.123661
0.032260
0.250865
-0.042997
0.073230
0.001841
0.085962
-0.077714
-0.171833
-0.034125
0.039839
-0.102669
-0.004411
0.103561
0.098451
0.023988
-0.021652
-0.038033
-0.125278
-0.121328
-0.112598
-0.208810
-0.031335
0.004847
0.165781
0.056114
0.064612
-0.014692
-0.077873
0.028938
0.091241
0.142786
0.108859
0.089132
-0.009801
-0.111391
-0.119758
0.038072
-0.168356
0.005785
0.081214
-0.009925
-0.022167
0.020540
-0.077769
0.108693
-0.041243
0.193290
-0.113065
0.012199
-0.073261
0.024014
0.097355
0.257785
-0.165292
-0.003104
0.011796
0.002958
-0.205632
-0.191746
0.173069
0.009796
0.082357
0.251968
-0.008046
0.203503
0.057896
0.018094
-0.146924
0.028619
-0.111874
0.141513
0.123374
-0.130258
-0.007864
-0.138331
-0.102141
-0.028283
0.199276
0.043666
-0.050919
0.013890
-0.084802
0.046556
0.127677
-0.038064
-0.060414
0.137704
0.032178
-0.034586
0.062229
-0.076170
0.061090
-0.011242
0.119397
0.075732
-0.095444
0.054533
-0.060115
-0.040645
-0.104125
0.075929
-0.199257
-0.051036
0.198844
0.059276
0.005455
0.024355
-0.146009
0.091746
-0.110089
0.053791
0.053065
-0.041105
-0.080684
0.064318
0.219978
-0.017749
-0.062287
0.099555
-0.003984
0.030328
-0.066963
-0.120588
-0.062532
0.034182
-0.263303
-0.013673
0.003838
-0.077550
0.003781
-0.068284
0.107260
0.014846
-0.026854
0.077339
0.065722
0.092272
-0.027208
0.047006
-0.015559
0.091958
0.171971
0.094783
0.118713
-0.034552
-0.090949
0.034018
0.002877
-0.001843
0.032802
0.076430
0.024212
0.173598
-0.086252
-0.129290
0.017549
0.038608
0.086753
0.164698
0.048573
0.048820
-0.028398
0.124974
-0.044115
0.036439
-0.044599
0.202041
-0.021515
-0.001378
0.078300
-0.050784
0.046665
-0.002013
0.092961
-0.031520
0.024160
-0.031649
0.047406
-0.154650
0.101770
-0.152426
-0.030133
0.091529
-0.121944
0.013772
0.111269
0.164391
-0.025299
-0.149524
-0.070440
-0.108887
0.038554
-0.039818
0.016521
-0.134072
-0.183104
-0.047550
0.071642
-0.112438
0.016227
-0.097328
-0.187335
-0.075605
-0.003135
-0.202321
0.166693
0.051020
0.137525
0.024624
-0.188993
0.045320
-0.030273
-0.142848
0.106275
0.172539
0.102400
0.064423
0.144411
-0.226335
-0.122356
0.016706
-0.155090
-0.302950
-0.000592
-0.069988
-0.065976
-0.006296
0.101695
0.038528
-0.015773
-0.101758
0.142769
-0.016020
0.174957
0.100737
-0.176737
-0.007021
0.053624
-0.022675
-0.061922
-0.134473
-0.093074
0.012366
0.122524
0.021196
-0.013767
-0.074529
-0.011843
-0.080847
-0.117806
-0.106627
-0.108376
0.029811
-0.134863
0.007844
0.146409
0.091566
-0.080404
0.068983
0.127869
-0.137593
0.043493
-0.098818
0.176940
-0.012395
0.047953
0.145121
-0.106452
-0.039751
-0.001814
-0.073819
0.015239
0.046473
0.096908
-0.218674
0.028355
0.069477
0.010249
0.115881
-0.051707
-0.321075
-0.008595
0.145223
0.211296
0.095046
0.118188
-0.127317
0.060049
0.025499
0.023868
0.055065
-0.154251
0.039957
0.005447
0.009046
-0.014225
-0.128007
-0.000932
-0.089511
0.045256
0.026410
-0.091323
0.060813
-0.061565
0.157874
0.032627
-0.075512
-0.006594
-0.034633
-0.108350
-0.014245
0.002580
0.078895
0.029890
-0.202778
0.094899
0.152719
-0.083466
-0.123798
0.094689
0.020728
-0.039668
0.061774
-0.023526
0.088013
0.056069
-0.030032
0.011798
-0.107032
0.134683
0.189906
0.266039
-0.065700
-0.059031
0.048060
-0.100493
-0.092038
0.050492
-0.047924
0.130656
-0.048248
-0.009754
0.001273
-0.016099
-0.009633
-0.040449
-0.064025
-0.037744
0.116500
-0.006688
0.077240
-0.024111
0.025493
-0.041809
0.083667
-0.020670
0.096655
0.056802
0.024254
-0.064958
0.022592
0.011850
-0.061601
-0.127184
-0.016283
0.058604
0.070083
0.067125
-0.040357
-0.080237
-0.060905
-0.016871
-0.034287
-0.037801
-0.004468
0.009007
-0.033370
-0.010168
-0.002583
-0.225844
0.086625
0.047389
-0.056141
-0.044066
0.011993
-0.072511
-0.047042
0.126763
0.111898
-0.123442
-0.121743
-0.062801
0.009532
-0.011542
-0.106660
-0.068959
-0.075759
-0.308880
-0.026442
-0.195765
-0.108769
0.081011
-0.020596
0.041988
0.038615
-0.096580
-0.085066
-0.004010
-0.058676
0.052084
0.033590
-0.013770
-0.046965
0.041052
-0.003060
0.023377
-0.094825
0.025300
-0.134016
0.008021
-0.152779
-0.165693
-0.027474
-0.097317
-0.058653
0.084967
-0.053116
0.001716
0.187896
0.006065
0.051749
-0.148125
0.026158
-0.018962
-0.089916
-0.090128
-0.107506
-0.065302
0.023442
0.172142
0.149689
0.003581
-0.008093
-0.138086
0.046113
0.116390
-0.068513
0.146502
-0.027832
0.164228
0.004547
-0.065467
-0.087810
0.026746
-0.044827
-0.100040
0.115749
-0.151757
-0.012347
-0.033842
-0.100740
0.054701
-0.142547
0.166953
0.064271
-0.029483
-0.132656
-0.022635
-0.059479
0.013784
0.083791
0.030371
-0.072547
-0.034808
0.108950
0.140635
-0.028764
0.029852
0.140286
-0.019664
0.079773
0.135502
-0.059640
-0.125746
-0.001262
-0.031061
-0.023836
-0.050870
-0.005688
-0.087533
0.081776
-0.060970
-0.096679
0.029320
0.018050
-0.111845
-0.034619
0.083544
0.077636
0.039013
0.144930
-0.037008
-0.156648
-0.038022
0.158569
0.216325
-0.209727
0.075825
0.069022
0.009213
-0.113818
-0.109336
-0.140231
-0.024316
-0.095608
-0.079290
0.078756
0.007158
-0.096930
0.245677
0.074034
-0.020227
0.096463
-0.059075
0.287858
0.002902
-0.019713
0.189652
0.219312
-0.191279
-0.053623
-0.001527
-0.184313
-0.035444
0.088569
0.060103
0.084842
0.072730
-0.025650
0.131719
-0.313659
-0.053187
-0.022314
0.026869
0.077205
0.051537
0.147500
-0.191245
0.010704
-0.008663
-0.011045
0.013715
0.061415
-0.009638
-0.101561
0.063788
0.050353
-0.041835
-0.021827
-0.042392
-0.062592
0.047774
0.059531
0.012278
0.072161
-0.120877
-0.078604
-0.019778
0.035950
-0.043846
0.029459
-0.033958
-0.016255
-0.130083
-0.006650
-0.023575
-0.074612
0.075199
0.089642
0.003196
0.014706
-0.055542
0.146708
0.026413
-0.084002
-0.094419
0.065394
-0.012208
0.045730
0.154389
-0.008779
0.092163
0.030826
-0.093898
-0.046267
-0.186799
-0.105641
-0.050102
0.220327
0.067358
-0.040820
0.128826
0.007347
0.054898
-0.007885
-0.055919
-0.067597
-0.109005
0.090673
0.035606
0.011795
-0.050311
-0.077629
0.012563
-0.164676
0.125868
0.037328
0.051260
0.052528
0.150990
0.087871
0.034279
-0.027053
0.029500
-0.090301
-0.139726
-0.066003
-0.068194
-0.081285
-0.108401
-0.117402
-0.021441
0.150569
-0.093545
-0.014480
0.077829
0.207715
-0.036880
0.128733
0.020564
0.300748
-0.144975
-0.007416
0.038125
0.108649
0.042199
0.093938
0.113277
-0.039460
-0.009451
0.139067
0.024888
-0.022161
0.024940
-0.022417
-0.021290
0.090920
-0.067776
-0.081261
-0.036432
0.138909
0.090210
-0.117195
-0.034692
0.063243
-0.000260
-0.130176
-0.119382
0.007196
-0.023573
-0.047464
-0.113700
0.086010
-0.051527
0.062164
0.012738
-0.036414
-0.028948
0.049129
-0.062979
0.019702
0.080869
0.006267
0.032540
0.134763
0.029256
0.099416
0.163340
0.040006
0.038430
-0.171246
0.016555
0.096602
-0.296225
0.017250
0.051872
-0.023238
-0.070160
-0.079155
0.206510
-0.007358
0.089894
-0.024773
-0.000020
-0.133823
0.088366
0.115879
-0.199819
-0.034723
-0.157865
0.080641
0.048862
-0.064152
0.137817
-0.132612
-0.048875
0.099830
0.084696
0.135463
-0.019911
-0.013704
0.120238
0.024834
-0.119387
-0.022392
0.036012
-0.139639
0.076976
-0.054617
-0.159147
-0.128627
0.146027
-0.102437
0.085446
0.036388
0.061670
0.086867
-0.056327
0.169851
-0.075821
0.009000
-0.030198
0.066184
0.112251
-0.077370
-0.133878
-0.046608
-0.038433
-0.120103
0.030243
0.063993
0.146051
-0.047968
-0.148507
0.076592
0.063085
-0.031307
0.147213
-0.043239
-0.164521
0.166088
-0.025999
-0.065031
-0.141226
-0.177734
-0.060717
0.012700
0.073779
0.109103
-0.187439
-0.069142
0.182917
0.086259
0.024557
0.055945
-0.115140
-0.127650
-0.055228
0.146503
0.036046
0.179210
0.144863
0.195141
0.005028
-0.076949
0.009233
0.051368
0.022229
0.054570
-0.114355
-0.043827
0.034063
0.159568
-0.094487
-0.205718
0.092779
-0.117300
-0.115900
-0.050616
0.055280
0.075290
-0.031269
-0.093326
0.000815
0.114404
-0.070838
0.075382
-0.181995
-0.253874
0.053339
-0.128870
-0.018854
-0.127840
-0.055116
-0.094564
0.086385
-0.097611
-0.019751
-0.067281
0.012549
-0.144183
0.060977
-0.034508
-0.112900
-0.050748
0.044895
0.005159
-0.220618
-0.030774
-0.044364
-0.120183
-0.117872
0.076853
-0.041629
0.007333
0.063582
-0.076028
-0.083328
0.016837
0.124599
0.122967
-0.051327
0.072899
-0.063933
-0.068808
-0.000779
0.227804
-0.055392
0.114584
-0.023471
0.031630
0.026476
0.093023
0.063204
0.011145
-0.086364
0.026931
-0.081352
-0.022061
-0.125120
-0.141082
-0.005083
0.059406
-0.020179
0.085709
0.120747
-0.031665
0.060111
0.084600
0.030392
-0.058930
-0.146081
-0.090038
-0.105125
-0.340979
-0.018432
0.189772
-0.093036
-0.048624
0.074907
0.011003
0.034905
0.008922
0.021941
0.009248
-0.083278
0.122310
-0.078364
-0.238375
0.004306
-0.021333
0.216761
-0.114663
-0.043179
-0.192222
-0.012403
-0.029705
0.024632
0.046555
-0.086166
-0.007991
0.012433
0.008554
0.029356
-0.040872
0.058421
0.005268
0.040146
0.015945
-0.160525
0.010442
-0.042386
-0.121514
0.139519
-0.074948
0.098988
0.101198
-0.119353
0.045328
0.014808
-0.065206
-0.097074
-0.147213
0.060381
0.058521
0.021234
0.035189
-0.055702
0.013028
-0.192035
-0.064259
-0.064957
0.054690
-0.072771
0.001332
-0.016127
-0.165384
0.034075
-0.042708
-0.063157
0.022053
0.084055
0.067264
0.027186
-0.051422
0.008315
0.097998
0.016679
0.181836
0.043178
-0.103757
0.008717
0.085286
0.150248
-0.153661
-0.209140
0.015778
0.013725
0.098875
-0.028830
-0.122702
-0.075824
-0.004916
0.073516
-0.009808
-0.086492
0.032170
0.022269
-0.046507
-0.003191
-0.001851
0.056260
0.034180
0.100116
-0.018942
0.140404
-0.061358
-0.115678
-0.076259
-0.017565
0.090003
-0.031995
-0.134570
-0.008020
0.004311
0.050989
-0.104985
-0.051371
-0.058271
0.078333
-0.011833
-0.000880
-0.008827
-0.027401
0.085919
-0.158088
0.183897
-0.049617
0.015703
-0.047840
-0.042020
0.103712
0.139613
-0.016831
-0.047578
-0.170290
0.007627
0.008426
0.050155
-0.040661
-0.020825
0.117020
0.019072
-0.036659
0.063997
-0.123276
-0.041283
0.016471
-0.116108
0.044947
0.031392
0.032904
0.008168
0.065321
0.011990
-0.224553
-0.026880
-0.095533
0.030420
0.056707
-0.090223
-0.220244
-0.034274
0.109576
0.057788
0.037749
0.133198
0.029950
-0.065332
-0.059036
-0.080209
-0.016120
-0.060914
-0.149957
0.000594
-0.095026
0.164153
-0.062011
0.141317
-0.033393
-0.036154
-0.188895
0.084998
-0.026177
0.014233
0.165671
0.014952
0.091154
-0.019167
0.043795
-0.070049
-0.117854
-0.019985
0.057635
0.174340
-0.176303
0.015822
-0.090291
0.065782
0.118749
-0.377569
-0.100288
0.122952
0.035152
-0.083179
0.148653
-0.420574
-0.040749
0.044496
-0.203909
-0.135052
-0.079726
0.075583
0.028752
0.104307
0.096145
-0.277119
0.146349
0.192443
0.118736
0.060911
-0.036702
-0.198474
-0.028386
-0.138684
0.026144
0.008711
-0.074176
-0.077687
-0.123346
0.050766
0.101649
-0.225630
-0.025175
-0.138133
0.075756
-0.002658
0.225676
-0.028146
0.006417
0.082611
0.012021
-0.218751
0.031109
0.067744
0.142352
0.125879
-0.034784
-0.098106
0.100430
0.066152
0.090976
0.029057
-0.068944
0.015201
0.093826
-0.066133
0.108090
0.125105
-0.112419
0.063477
-0.105319
-0.001506
-0.035231
-0.013446
-0.093782
0.036944
0.070901
0.055096
0.229390
0.150979
-0.092348
-0.115760
-0.039884
0.112060
-0.105162
-0.172865
-0.016329
0.021476
-0.149581
-0.109138
-0.059812
0.021747
-0.052951
0.047679
-0.087066
-0.018006
-0.020740
0.050107
-0.154588
-0.023877
-0.022213
0.111363
0.010011
-0.005200
-0.008002
-0.028911
0.017000
0.039553
0.023167
0.016642
0.099751
-0.050673
-0.097511
-0.061009
0.022635
-0.027341
0.040634
-0.153689
-0.071879
-0.110282
-0.059774
0.016733
-0.034475
-0.088323
0.136523
-0.000423
-0.006057
0.178166
-0.138348
0.017672
-0.022726
0.162509
-0.054217
0.097249
0.087095
0.059025
0.100623
-0.074834
0.079954
0.103237
-0.032833
0.119889
0.118964
-0.055967
0.175783
0.053593
-0.174776
-0.001413
-0.000409
-0.007436
-0.065851
-0.146036
-0.056489
0.035432
-0.053066
-0.182918
-0.023567
-0.008833
0.077959
0.131275
0.076389
-0.085795
-0.024442
0.024646
0.005540
0.042030
-0.030345
-0.149277
0.014819
-0.050665
0.248693
-0.024957
-0.053556
-0.071777
-0.087777
0.199724
-0.092817
-0.067522
0.066572
-0.043436
-0.129163
-0.050895
0.135553
-0.090775
0.043146
0.086517
0.036347
0.002716
-0.064765
-0.109041
-0.338872
0.101496
-0.100800
0.076800
-0.041779
-0.066443
0.127541
-0.165480
-0.154846
0.042821
-0.016722
0.019723
-0.134939
0.040153
-0.076481
-0.018114
0.066359
-0.009414
-0.008950
0.016681
0.002322
0.066670
-0.067375
-0.005297
-0.068622
0.042764
-0.037858
-0.082449
0.126626
0.101071
0.040978
0.074548
-0.084106
-0.160924
-0.030721
-0.153810
0.004503
-0.056507
-0.070431
-0.139176
-0.108749
0.129869
0.103219
0.021952
-0.102258
-0.066667
-0.126366
-0.020845
0.016663
-0.093488
-0.076198
0.085142
-0.033864
-0.209376
-0.188315
0.097551
0.009343
-0.018602
-0.099972
-0.113973
-0.030867
0.122738
-0.136009
0.019677
0.057271
0.071147
-0.027880
-0.052232
-0.061970
-0.165783
0.100738
-0.027038
-0.063327
0.002908
0.054034
-0.061715
-0.135023
-0.001530
-0.070514
-0.119142
0.078826
0.097863
0.024187
-0.045460
-0.135189
-0.001371
-0.035787
-0.002009
0.186945
0.142275
-0.077227
-0.062169
0.157440
0.036595
-0.058577
0.094482
-0.091401
-0.030298
0.012260
-0.107681
0.032551
-0.110847
0.087763
-0.029024
0.065268
0.025016
-0.022702
-0.013740
0.093939
0.031854
0.116279
-0.049026
0.187044
-0.007684
-0.084210
0.017750
0.018477
0.032129
-0.057812
-0.180002
-0.080751
-0.072603
0.020474
0.033419
0.002161
0.002553
-0.217996
0.176580
0.023399
0.075185
-0.000283
-0.102305
-0.041637
-0.004489
-0.023979
-0.077654
-0.170136
-0.045162
0.087662
-0.049734
0.150671
-0.067706
0.045338
0.029010
0.098430
-0.205633
-0.027893
0.035201
0.113681
0.107327
-0.031886
-0.100519
-0.239966
0.106145
-0.007824
-0.146874
0.118040
0.088395
-0.086340
-0.054864
0.016575
-0.131415
-0.142134
-0.116018
0.112224
0.103724
0.079796
-0.016512
-0.168188
0.047125
-0.350963
-0.155358
-0.224850
0.041663
-0.174450
0.022947
-0.125617
-0.126402
-0.026454
0.004663
0.092213
-0.017456
-0.020860
0.055999
-0.097149
0.084205
0.074656
0.013716
0.070566
-0.048414
0.097504
-0.004733
0.103768
-0.237529
-0.158064
0.114571
-0.027341
-0.031231
0.065158
-0.093574
0.013683
0.190805
0.032887
-0.030530
-0.277028
0.092209
-0.147676
-0.041532
-0.142301
0.139258
-0.071203
0.124367
-0.136025
-0.026053
0.018645
-0.024875
0.121094
-0.138124
0.066443
-0.098707
0.111938
-0.051034
0.046406
-0.072871
-0.042813
0.087361
-0.104683
0.104843
-0.030953
-0.082328
-0.013797
0.054428
-0.042879
0.058787
0.021322
-0.069644
0.127976
0.059707
-0.044051
0.054865
0.118438
0.034245
0.024331
0.115041
-0.066782
-0.182782
0.070548
-0.086927
-0.115436
-0.164132
0.003503
0.034148
0.004310
-0.024054
-0.050242
-0.104726
0.103610
0.041138
-0.086757
0.020042
0.099836
0.107999
-0.047143
-0.006605
-0.050685
0.003408
-0.148243
-0.022323
-0.235847
-0.142684
-0.105997
0.015341
0.107417
0.227069
-0.020761
-0.128482
0.053326
0.052474
-0.035669
-0.064178
-0.027108
0.123483
-0.201971
0.025471
-0.004542
-0.066465
-0.046774
-0.029266
0.007506
-0.104218
-0.064297
-0.028710
0.100516
-0.162563
-0.057017
0.025451
0.026347
0.133414
0.094869
-0.018369
0.101503
-0.072036
0.019139
-0.111409
-0.035687
-0.017895
-0.003838
-0.057199
-0.145023
0.000627
-0.028501
0.007585
-0.080412
-0.315181
-0.254008
0.210507
-0.001351
-0.134714
0.066022
0.010331
0.156452
0.102686
-0.048925
0.064104
0.130736
0.048999
0.000714
-0.077014
0.055536
0.033126
-0.120701
0.038427
-0.020393
0.008654
-0.143273
0.038894
0.095953
0.121375
-0.062312
-0.179707
-0.098277
0.045525
-0.176706
-0.056520
-0.040046
-0.151031
-0.006025
-0.002773
0.145939
0.000002
0.066166
0.001204
0.056365
0.108915
-0.077464
-0.001332
-0.022412
-0.228102
-0.082234
0.001682
0.153453
0.004250
0.098107
0.014852
0.145725
-0.002770
0.112256
-0.008862
-0.105706
0.009623
0.087263
0.064188
-0.049720
0.110135
-0.029020
-0.053817
-0.063595
-0.148368
0.073548
0.140641
0.016845
0.079233
-0.264778
0.057085
-0.041762
0.044290
-0.210523
0.139775
-0.020081
0.023226
0.132195
-0.026924
-0.063364
0.025651
0.148482
0.031753
-0.145729
-0.040205
0.006219
0.036027
-0.060298
-0.037937
-0.169694
-0.040946
0.151614
0.023269
0.116941
0.025190
0.099902
0.118204
-0.047382
-0.082437
-0.040069
0.047023
0.001770
0.006555
0.054164
0.004613
-0.040069
-0.079475
0.043288
0.085801
-0.075069
0.041527
-0.002589
0.084413
0.059439
-0.035005
0.018642
0.043378
-0.057916
-0.057888
0.011448
0.064887
0.045736
-0.048042
-0.152528
0.079953
-0.098313
-0.185574
-0.200411
0.179502
-0.061140
-0.083435
-0.099228
0.136443
-0.105985
0.145003
0.003686
0.018594
-0.100599
-0.020158
-0.108930
0.049086
0.194733
-0.048728
0.027078
0.045314
0.071450
-0.159247
-0.037997
-0.003072
0.079181
-0.168756
0.061371
0.015138
-0.170635
0.016403
-0.161233
-0.169497
0.093415
-0.012208
0.245738
0.043397
0.069809
-0.024039
-0.035165
-0.317788
0.118608
0.110026
-0.055271
-0.093618
-0.041535
0.059171
0.010855
-0.099803
-0.021050
0.020727
-0.040806
0.055182
-0.054000
-0.079692
-0.062586
0.019653
0.113489
0.072993
-0.070534
-0.094680
-0.001210
0.012235
0.081688
0.077139
-0.051536
-0.080211
0.132918
-0.071414
0.016142
0.071122
0.077069
0.144609
0.114470
0.051062
0.048537
-0.048151
0.021335
-0.022493
0.056532
-0.021842
-0.199866
0.051147
-0.024149
-0.190976
0.048770
-0.105708
0.000189
0.126041
-0.101925
-0.119831
0.033619
0.011439
0.104264
-0.156314
0.142189
0.057978
-0.086617
-0.125619
-0.137604
-0.235202
-0.047929
0.030934
0.157665
0.210702
-0.005117
-0.101186
-0.014071
0.091042
-0.101566
-0.039673
0.054943
-0.104429
0.043335
-0.130626
0.031819
-0.012199
0.071597
-0.209077
0.054036
0.047137
-0.034097
-0.073801
0.029428
-0.068073
-0.077744
0.016500
-0.071203
0.105698
0.007240
0.043748
0.117449
0.003535
0.161344
-0.114950
0.033846
-0.086366
-0.094402
0.085470
-0.244832
0.093774
-0.118043
0.108318
0.050535
-0.132756
0.093118
-0.035578
-0.030540
-0.108376
-0.204844
-0.006205
-0.106398
0.016328
0.014765
0.045658
-0.038416
-0.043676
0.122475
0.032841
0.059186
-0.042271
0.080360
0.000029
-0.166318
-0.028122
-0.025041
-0.162207
0.100594
0.000756
-0.003985
-0.149903
-0.019900
-0.077874
-0.034856
-0.128369
0.079306
0.013581
0.042347
-0.154837
0.175046
-0.161645
0.084241
-0.314262
0.020713
0.068942
-0.196585
-0.086143
-0.001450
-0.304720
0.041228
-0.019876
-0.076430
-0.169912
-0.027558
0.019208
-0.056173
0.008071
-0.022270
-0.185146
-0.036292
0.200923
0.058055
-0.023166
-0.044148
0.108376
0.013289
-0.128547
-0.053823
0.026925
0.095095
0.080389
-0.106365
-0.015702
0.020778
0.070548
-0.034632
0.050109
-0.008090
-0.013594
0.024647
-0.112266
0.024456
-0.053611
-0.013200
-0.117974
-0.063920
-0.101552
0.203933
-0.060960
-0.041289
-0.043489
-0.067235
-0.000091
-0.122033
0.115222
0.191097
-0.010944
-0.023429
-0.011783
0.067021
0.004796
0.204154
0.104959
0.135223
0.180782
-0.097883
-0.106554
-0.085932
0.066162
0.119526
-0.228288
0.095557
-0.031211
-0.162262
-0.059481
-0.023101
-0.129735
-0.226814
-0.257110
-0.137816
0.071463
0.129952
0.016944
-0.069130
-0.064625
-0.069194
0.109598
0.050478
-0.106036
0.117563
-0.035816
0.057091
-0.064438
-0.068775
0.082078
0.072938
-0.162980
0.050169
-0.084668
0.008991
0.050140
-0.141805
-0.018239
-0.001331
0.053628
0.089242
-0.020738
0.101092
0.079290
0.027360
-0.093776
0.034727
0.009262
-0.013469
0.015943
-0.022498
0.004231
0.206558
-0.008232
-0.077704
0.014141
0.010141
0.028946
0.114547
-0.135077
-0.122216
-0.136570
-0.032238
-0.042191
0.011675
0.056271
0.060943
-0.018786
-0.017384
-0.096306
0.130150
0.056687
-0.088265
-0.170126
0.045629
-0.113147
-0.135053
-0.059807
-0.003992
0.024162
0.094519
-0.041868
-0.005134
-0.007912
-0.001634
0.218327
-0.086279
0.051133
0.082539
-0.008691
0.054865
0.029159
0.061481
-0.019044
0.036782
-0.012617
-0.140933
-0.008317
0.155608
0.062769
-0.044772
-0.010828
0.115308
-0.058451
0.034604
-0.122640
0.058442
-0.089464
-0.132279
-0.164414
-0.171952
-0.068487
-0.137646
-0.010375
-0.136112
0.114742
-0.204724
0.010115
0.215096
-0.020424
0.077579
0.019197
0.097026
-0.071182
0.057619
0.177525
-0.160771
0.051061
-0.002771
-0.128976
-0.001405
0.046440
-0.077228
-0.029913
-0.097329
-0.177507
0.070610
0.122250
-0.045323
0.033202
0.089936
0.051960
-0.058742
0.000096
-0.152540
-0.191836
0.032364
-0.116272
0.101057
-0.166522
0.121767
0.112482
0.052936
-0.141781
0.000255
0.152652
-0.063843
0.069461
-0.045916
0.003849
0.068132
0.250258
0.062602
-0.261220
0.059433
-0.022118
0.032661
0.070099
0.017514
-0.044310
-0.061557
-0.105102
0.188785
0.172086
-0.005143
0.069235
-0.167230
-0.122157
0.156747
-0.143493
-0.085673
0.058254
0.177334
0.085867
-0.137940
-0.062952
-0.159733
0.154131
0.030110
0.072280
-0.204378
-0.047728
-0.065766
0.158657
0.051410
-0.152758
0.097667
0.003297
0.054572
-0.050086
0.013943
0.023252
-0.023453
-0.110914
-0.010596
0.186002
0.049860
0.074350
-0.113612
-0.020990
0.148025
-0.065276
0.116935
-0.093787
0.081717
0.021705
0.077823
-0.085259
-0.133889
0.022190
-0.199565
-0.153586
0.021905
0.028179
-0.123636
-0.106438
0.064327
-0.009027
0.133191
-0.109874
0.047419
-0.105962
-0.088185
-0.126198
-0.155831
0.061279
-0.093155
0.044069
-0.095452
-0.055232
0.044951
-0.001089
-0.011919
0.017538
-0.130271
-0.058683
-0.058644
-0.050102
-0.142850
0.016572
-0.208754
-0.021461
0.006248
-0.157062
-0.144880
0.045004
-0.019992
-0.016168
-0.014161
-0.044133
0.008823
-0.091912
-0.109325
0.030523
0.056547
-0.085336
0.017455
0.018426
0.118174
0.087922
0.114904
-0.104462
-0.087781
0.070436
0.062281
-0.172102
0.089185
0.136409
-0.079523
-0.016222
-0.045702
0.118774
-0.105113
-0.019290
-0.267482
-0.144212
0.018453
-0.007044
0.048937
-0.062759
0.124975
0.057289
-0.123485
0.186424
0.051952
-0.058905
0.054253
-0.009549
-0.083158
0.095101
-0.154854
-0.106569
-0.139864
0.026651
-0.167266
-0.071660
0.075226
-0.097187
-0.108489
-0.008678
0.062572
-0.061651
-0.053471
-0.006489
-0.033923
0.094312
-0.013707
-0.002539
0.046423
-0.019946
-0.025422
0.052080
0.128256
-0.149617
0.141656
-0.070820
-0.108863
0.002332
0.028661
-0.217557
-0.132385
-0.180187
-0.157464
0.026375
0.097618
-0.069381
0.033683
0.014280
-0.009969
-0.015939
0.116834
-0.218185
0.223644
-0.050749
-0.203291
0.297383
-0.149515
0.030761
-0.075177
-0.057688
-0.286419
0.146915
0.004393
0.043920
-0.069769
-0.049797
-0.004386
0.039216
0.027491
0.064342
-0.119192
-0.027134
-0.065654
0.141143
-0.158750
0.007423
-0.018491
-0.056860
-0.017952
0.093488
0.150617
-0.085034
-0.008268
0.118251
0.050123
-0.160818
-0.055454
-0.009796
-0.154304
-0.098923
-0.073424
-0.014109
-0.211901
0.026212
0.154089
0.104906
-0.024542
-0.024267
-0.020478
0.109902
0.044963
-0.028701
-0.139086
0.082185
-0.080295
0.039830
0.045911
0.041305
0.093914
-0.018354
0.149655
-0.104121
-0.046318
0.033754
-0.314425
0.120510
0.062673
0.055331
-0.087490
-0.011043
-0.008192
0.017126
0.148302
0.128128
0.027664
0.131005
0.032211
-0.018795
-0.027233
-0.015378
-0.020298
-0.114355
-0.070118
-0.017756
0.018961
-0.101490
0.029690
-0.035648
0.037291
0.093821
0.127849
0.188336
0.059655
0.031320
0.123831
0.147491
-0.075729
-0.025144
-0.095402
-0.072384
-0.032744
-0.091880
-0.203040
0.073479
-0.016596
-0.117933
0.038041
0.010370
-0.002102
-0.022649
0.065382
-0.111095
-0.013391
-0.201513
0.054341
-0.019029
0.060255
-0.038319
0.117193
-0.071719
0.034405
-0.232593
-0.023712
-0.096846
0.057808
-0.038576
-0.098353
0.043500
-0.131327
0.186569
-0.053823
0.032540
0.103400
-0.071787
0.065081
0.156363
-0.031797
-0.064463
-0.074298
0.039575
-0.000937
0.074995
0.109400
-0.014157
-0.033323
0.053379
-0.018868
0.038291
0.026756
-0.020374
-0.135035
0.086147
0.011594
-0.026444
-0.125165
-0.047170
-0.033304
-0.050374
0.166231
0.076707
-0.139867
-0.050881
-0.010615
0.049389
-0.075036
0.047495
0.009145
0.139045
0.027186
0.140555
0.042795
0.039323
-0.143430
0.079190
-0.179129
-0.010260
-0.203032
-0.080377
-0.027536
-0.104925
-0.152185
0.099238
0.017199
0.043291
0.001181
-0.079513
-0.166595
0.066630
0.047799
0.001287
0.084430
0.023225
0.002970
-0.003684
0.091323
-0.156211
-0.026061
0.040123
-0.003969
-0.128078
0.077300
-0.019477
0.064951
-0.074356
0.021889
-0.072494
0.082421
0.174945
-0.004631
-0.120717
0.011010
0.018888
0.131229
0.092973
0.089408
-0.121628
0.032935
-0.088196
0.032073
0.047165
-0.186702
-0.041569
-0.058969
0.093696
-0.134662
-0.000992
0.224405
-0.057413
0.153642
-0.131969
0.078989
0.007133
0.191082
0.099341
-0.104268
-0.088628
0.047222
0.066515
-0.037106
-0.173455
0.017104
0.152980
0.048044
0.041570
0.168612
0.060688
-0.081443
-0.048895
0.052441
0.054193
-0.030084
-0.134027
-0.074492
0.002293
0.018555
-0.197047
-0.185231
-0.066255
0.086559
0.022010
0.060751
-0.025877
0.088921
0.063988
-0.046898
0.110468
-0.102849
-0.067757
-0.133655
-0.087624
-0.135679
0.020230
-0.028635
-0.194491
0.036928
-0.238069
-0.089763
-0.127870
0.176231
-0.073630
-0.127551
0.129586
-0.107672
0.097214
0.044225
0.038575
0.222412
0.010813
0.153082
0.070355
-0.059729
-0.143887
0.130839
-0.095118
-0.052461
0.007091
-0.150901
-0.135700
-0.025307
0.035632
0.200948
-0.061937
-0.095839
-0.095317
0.103619
0.066552
-0.111988
-0.003595
-0.050154
-0.000730
0.043130
-0.155433
-0.093141
-0.121113
0.049121
-0.323234
0.060283
0.089718
-0.300758
-0.159035
-0.018629
-0.099114
0.013727
0.125471
-0.228710
0.112472
-0.020972
0.140908
0.061532
0.060433
0.036609
0.104444
-0.086906
-0.229782
-0.000710
0.143232
-0.190260
-0.305195
0.105224
-0.073036
0.028322
-0.218322
-0.007786
0.011461
0.043170
-0.020241
-0.013100
-0.000091
0.111114
-0.104767
0.102172
-0.069940
0.064576
0.136431
-0.161788
-0.068202
-0.022522
0.024496
-0.075424
-0.127707
0.052275
-0.124043
-0.010015
0.068776
0.113779
-0.115867
-0.073399
0.022493
-0.035735
0.148410
-0.265723
0.021314
0.008870
0.155194
0.080491
0.054818
-0.013906
-0.025108
-0.094186
0.029934
0.133169
0.179687
-0.048109
0.079564
0.060624
-0.078943
0.077259
0.005001
0.012339
0.048645
0.132671
-0.017346
-0.010919
0.043484
-0.286461
-0.006757
-0.103558
0.124707
-0.103573
-0.104225
-0.087116
-0.057544
-0.036501
0.046671
0.002026
0.019028
0.016520
0.001549
0.167459
0.095309
0.009527
0.023688
0.098798
0.009117
0.154594
0.002763
0.044767
-0.040290
-0.083607
0.056097
0.087075
-0.180388
-0.056861
0.128643
-0.153025
-0.129948
-0.158401
-0.012175
0.097903
-0.017593
0.057119
-0.084168
0.026259
-0.128874
-0.081126
0.009434
-0.089352
0.077415
-0.045225
-0.053105
-0.021377
-0.068359
-0.078997
0.200157
0.002819
-0.091980
-0.065397
0.084569
-0.167699
-0.010742
-0.044737
0.196860
0.078476
0.065795
0.175831
0.042819
0.108516
-0.022985
-0.014516
0.116514
-0.012270
0.044547
-0.004366
-0.065724
-0.054497
-0.036075
0.102248
0.018346
-0.151275
-0.166179
-0.117454
-0.192293
-0.091309
-0.027641
-0.159747
0.012948
-0.082124
0.014405
0.065439
0.076748
-0.084206
0.123834
0.290063
-0.079032
-0.031958
0.066228
-0.027258
-0.078913
0.051749
-0.065234
0.008667
0.069217
0.131968
0.059899
-0.048471
-0.076767
0.041661
0.085739
-0.175646
-0.054609
-0.134908
0.109709
0.036850
-0.055671
-0.046970
-0.005186
0.153427
-0.122350
-0.055524
-0.012912
0.110908
0.036058
0.107262
0.148076
-0.061901
-0.039322
0.059597
0.098870
-0.092561
0.194088
-0.120472
0.042366
0.100478
-0.166674
0.012024
-0.003744
-0.015699
-0.028646
-0.071000
-0.133603
-0.060557
-0.149041
-0.092754
-0.155224
0.011454
-0.050540
0.082509
-0.023068
0.037799
-0.190669
0.058903
0.013703
0.130227
-0.019620
0.052083
-0.036085
-0.257663
0.012166
0.152485
-0.041251
0.163750
0.196936
0.146510
-0.032885
-0.015755
0.007250
-0.051036
0.214491
0.009658
-0.052456
-0.099439
-0.188265
-0.052333
0.002422
0.032160
-0.069839
-0.056156
-0.142209
0.010809
-0.096016
-0.038031
0.044584
-0.071672
0.060706
-0.055288
0.102806
0.031511
-0.042798
0.245521
0.131897
0.021391
0.046369
0.118331
0.085765
-0.093931
0.056613
-0.090541
-0.140337
-0.222275
0.077469
-0.077967
0.039411
-0.069154
-0.067830
0.019494
0.184832
0.187842
-0.063833
0.009020
-0.076857
0.017748
-0.070094
-0.029640
-0.079076
0.070083
-0.016733
0.208987
-0.115225
0.044542
-0.161847
-0.054409
-0.085535
0.004315
-0.154883
0.029813
0.046597
-0.029197
-0.116099
0.090293
-0.047879
0.055868
0.144859
0.031660
-0.028756
-0.032471
-0.017307
0.029900
0.029158
0.039712
0.062361
0.044053
-0.101006
0.143590
-0.080724
0.034320
-0.025551
-0.027019
-0.100694
-0.066776
-0.062502
-0.239924
-0.056872
0.015607
0.127941
-0.073687
0.058038
0.243510
0.033549
0.102645
0.245854
-0.001650
0.033225
0.246724
0.000151
0.103348
-0.107792
0.024543
0.116503
0.053693
0.039614
-0.004263
0.064079
0.032436
-0.062082
0.037602
-0.139221
-0.010175
-0.139180
-0.026449
-0.015060
-0.009605
-0.049825
-0.063494
0.065135
0.006109
0.113312
-0.031481
-0.049120
0.183503
0.005688
0.203378
0.152389
-0.066734
0.190186
0.027871
0.077009
-0.036998
0.037466
0.007729
0.019481
0.132419
0.069843
-0.214420
0.059953
-0.013418
-0.107203
-0.055420
-0.190209
-0.263567
-0.021398
0.107187
-0.091708
0.065825
-0.011561
-0.099674
-0.069304
0.052929
0.063233
0.247236
-0.130578
0.225174
-0.125546
-0.169875
0.132925
0.116936
-0.104137
-0.036199
0.135086
-0.022180
-0.046030
-0.076204
-0.171153
-0.112231
-0.113174
-0.062419
-0.055230
0.005110
0.158075
-0.181919
0.085157
0.066291
0.063871
0.097218
-0.019244
-0.016676
0.156188
0.074011
0.165278
0.035555
0.217792
0.123351
-0.015815
0.077004
-0.055113
-0.093272
0.057886
-0.018581
0.072398
0.017993
-0.076647
-0.020677
-0.067848
-0.032499
-0.124204
-0.056803
0.056290
-0.046520
-0.093862
0.034205
0.031643
-0.013169
0.087251
0.060730
-0.039117
-0.104809
0.054426
-0.076602
-0.041054
0.074815
-0.005750
0.017663
-0.047173
0.033895
0.010586
-0.158446
0.076407
0.095023
-0.045187
0.055667
0.050118
-0.166961
0.061310
0.137071
-0.029908
0.053229
-0.128843
0.044169
0.124777
-0.166388
-0.083705
-0.025935
0.071916
-0.147701
0.253278
-0.020522
-0.083402
-0.128506
0.079697
0.078067
-0.025659
0.159361
0.059918
0.066957
-0.078162
-0.030777
0.025856
-0.162477
-0.094650
-0.024985
-0.050047
0.002806
-0.282232
0.061598
0.062094
0.077266
-0.039569
-0.093415
0.063674
0.021567
-0.120076
0.080484
-0.100344
0.113636
0.147267
0.061591
0.051616
-0.097727
-0.037216
-0.086648
0.062200
0.004550
-0.079863
0.034476
-0.073208
0.064327
0.048853
-0.217829
0.042226
0.003824
0.123721
-0.147987
-0.051751
0.076280
-0.104652
-0.058634
0.316868
-0.092461
-0.055682
-0.302816
-0.016576
0.021868
-0.061187
-0.091989
0.119462
0.102332
0.073813
0.120361
-0.196543
-0.125797
-0.051723
-0.005354
-0.171074
-0.048952
0.165327
0.082696
-0.093089
0.186999
0.113498
-0.015452
-0.163538
0.129326
0.007685
0.098978
-0.130020
0.103515
-0.114466
0.200281
0.097382
0.025503
0.105762
-0.119891
-0.089152
-0.087692
-0.132133
-0.035855
0.139362
0.078947
-0.044750
-0.012976
-0.066625
0.066671
0.043671
0.087976
0.028353
-0.215661
-0.073009
-0.052363
0.007885
-0.076764
0.128904
-0.219627
0.138084
0.205996
0.034526
-0.012640
0.134700
-0.004974
-0.053995
-0.086390
-0.010905
0.001043
0.110598
0.057202
0.072947
0.273604
0.029877
-0.108394
0.029949
0.046828
0.020615
-0.058328
-0.148040
0.036990
0.016493
-0.205406
-0.066814
-0.031503
0.075326
-0.031461
0.021913
-0.071659
-0.052762
-0.048184
-0.124584
0.064684
0.108683
-0.003935
0.031358
-0.069983
-0.021772
0.071589
-0.093069
-0.091888
-0.068375
-0.085837
0.046623
-0.164527
0.075184
-0.037974
-0.007047
0.033885
0.045260
0.043284
-0.072917
0.036202
-0.016846
0.043830
0.043761
-0.045561
0.048026
0.117359
0.007712
-0.035863
-0.097174
-0.088150
-0.019857
0.043561
0.054777
0.088776
-0.105774
-0.002457
-0.045507
0.021111
-0.072888
0.121221
0.082165
0.078167
-0.121030
0.054868
-0.063159
-0.041509
0.287825
0.005845
0.063457
-0.070985
0.038516
0.095055
-0.180227
-0.001391
-0.093316
-0.024613
-0.010120
0.095204
0.055707
-0.011446
-0.065097
0.034753
-0.019627
0.033369
-0.061286
-0.300588
0.066291
-0.078644
0.164399
0.115889
0.023300
0.199567
-0.000136
-0.140106
-0.060056
0.180228
0.076990
0.087596
-0.077189
-0.225963
0.057805
-0.234077
0.026171
-0.016977
-0.015771
-0.219698
0.176367
-0.049309
-0.009312
-0.166936
-0.045809
0.105543
-0.109437
0.024384
0.074741
0.131483
0.079089
0.045571
0.215887
0.117039
0.043021
0.026460
-0.092083
0.003510
-0.058151
-0.088691
-0.176332
0.158432
-0.102783
-0.203185
-0.050989
0.104308
-0.053423
0.078193
0.046810
0.044478
-0.191113
0.039640
-0.103544
-0.116905
-0.007551
-0.006358
0.132957
-0.135994
0.067447
0.076509
-0.012980
0.092977
0.034975
0.063074
0.131774
-0.047486
0.090914
0.036151
-0.021265
0.094209
0.059452
0.067786
-0.251995
0.175633
0.054518
-0.295969
0.078989
0.039903
-0.127099
-0.061795
0.151862
0.047516
-0.126727
0.104502
-0.095883
0.041223
0.033753
0.051474
0.011911
-0.090760
0.033603
-0.017046
0.100917
-0.075066
-0.012453
0.037101
-0.105377
0.116111
-0.243544
-0.027789
-0.021219
0.039782
-0.023340
-0.012263
0.001826
0.093735
0.100951
0.031181
-0.012574
-0.095383
0.103279
0.119778
-0.158357
-0.107549
0.042570
-0.143067
-0.105300
-0.143512
0.008495
0.029183
0.070619
0.059619
0.125660
-0.014897
-0.190788
-0.032132
-0.172212
0.130070
0.101220
0.171726
-0.124422
-0.166894
0.081597
0.101093
-0.061641
0.081300
0.010654
0.183524
-0.111978
0.084076
-0.003543
0.056977
-0.050198
0.051909
-0.069977
-0.017942
-0.023002
-0.056210
-0.064485
-0.064838
-0.106180
0.107124
0.095005
0.000477
0.109961
-0.056203
-0.107719
-0.082867
-0.073351
-0.050098
-0.089647
-0.102821
0.041211
0.105164
-0.020168
0.091358
0.024301
-0.002162
0.090328
0.074896
-0.012705
-0.086480
0.033000
-0.072131
-0.076745
0.038604
-0.015999
-0.087431
-0.078590
0.074489
0.013365
-0.073817
-0.058481
-0.074672
0.027781
0.049033
-0.025462
-0.093773
-0.017638
-0.040099
0.007579
0.123760
-0.019381
-0.054367
0.016554
-0.241141
0.058846
-0.138718
-0.100856
-0.053550
-0.015399
0.026951
0.078453
-0.093034
-0.102415
-0.013008
-0.065567
-0.064166
0.009989
0.084176
0.101767
0.113162
-0.093515
0.085253
-0.087763
0.069667
-0.059988
-0.003774
0.043293
-0.080453
0.139423
0.052561
-0.099550
0.031341
-0.008156
-0.104101
-0.119180
-0.107945
0.035369
-0.060723
-0.180888
0.133455
-0.022247
0.081579
-0.041613
-0.000910
0.054620
-0.074471
0.204901
0.070148
-0.119346
-0.325039
-0.014338
-0.183894
-0.145410
0.063788
0.033650
0.044534
-0.240547
0.159667
0.059631
-0.024184
0.077621
-0.248156
0.051261
-0.151478
-0.039678
-0.089416
0.086945
0.070450
0.006894
0.123021
0.003010
-0.049210
-0.066344
0.114685
-0.074351
0.059495
0.225925
0.035852
-0.108907
0.079801
0.046028
-0.023582
0.019885
0.003304
-0.078523
-0.038584
-0.076199
0.050242
-0.096461
-0.113053
0.011057
-0.075114
0.114414
-0.081848
0.157491
-0.034855
-0.039911
0.122902
0.016003
-0.027067
0.209250
-0.030272
-0.140888
0.062098
0.128942
0.052055
0.214479
-0.145379
-0.159101
-0.037942
0.091213
-0.150348
-0.177509
-0.045665
0.016471
0.061047
0.154470
-0.040236
-0.116826
0.053938
0.046722
-0.124967
-0.060630
-0.090827
0.109439
0.024128
-0.007407
0.106861
-0.072027
-0.072909
-0.098162
-0.080496
-0.095989
0.044554
0.152941
0.111945
-0.051119
-0.019176
0.030057
0.121515
-0.044582
0.053252
0.221981
0.071915
0.089317
-0.097563
0.003104
-0.224151
0.246222
0.252835
-0.164900
0.043132
-0.029320
0.071172
-0.268463
0.046608
-0.253715
0.132380
0.130361
0.047147
-0.086153
-0.011091
-0.218644
0.006799
-0.062605
0.033124
0.083771
-0.044763
0.145411
0.059468
0.215244
0.016065
-0.025021
0.002066
0.118429
0.059504
0.062641
0.059242
0.079446
0.018707
-0.002809
0.047422
0.018257
-0.019603
0.059202
0.043091
0.072617
0.035904
-0.072602
0.024186
-0.113237
-0.057257
-0.003857
-0.185491
0.032764
0.044173
-0.062019
0.007069
0.147869
-0.113449
0.063502
0.044573
-0.107108
-0.183239
0.081135
-0.040836
-0.153053
-0.131266
0.043461
0.035906
-0.017506
-0.063204
-0.036730
0.062328
-0.030315
-0.009913
-0.121484
-0.052323
-0.054258
0.038802
-0.108835
0.104688
0.183662
0.028022
0.122654
0.019796
-0.341422
0.188455
0.001975
0.105752
0.066543
0.060753
0.087091
-0.110197
-0.045838
0.140735
-0.042787
-0.064095
0.094309
0.289279
-0.154933
-0.056875
0.186960
0.096675
-0.120436
-0.016425
-0.084757
-0.023456
-0.140004
-0.083104
0.040328
-0.252688
-0.018900
0.168080
0.037090
0.043023
0.051397
-0.036952
0.057058
0.072184
-0.052360
-0.085309
0.058626
-0.004002
-0.068310
0.059373
-0.065668
-0.068885
0.016670
-0.060239
-0.133539
0.054758
-0.055284
-0.036714
-0.079913
0.159976
-0.039177
0.029238
-0.048868
-0.105894
-0.044353
-0.049491
-0.018948
0.072074
0.031438
-0.094546
-0.097990
0.065971
-0.070463
0.069462
-0.102299
0.043182
0.100730
-0.009373
-0.035451
0.133743
-0.122606
-0.129961
0.023914
-0.063232
-0.159870
0.117706
-0.059257
0.034546
-0.032918
-0.125355
-0.167553
-0.247668
-0.125955
-0.026813
-0.049715
0.082701
0.135882
0.148308
0.068978
-0.240717
-0.135653
0.062146
-0.070192
0.011299
-0.060795
0.155526
0.062667
-0.165193
0.028486
-0.063949
-0.000955
0.054000
-0.011895
0.016745
0.030168
0.080937
-0.074130
0.170864
-0.012546
-0.062025
-0.212477
0.005913
-0.044317
-0.081003
0.016694
0.117368
0.126174
0.110804
0.161021
0.116965
-0.126932
0.045469
-0.102465
-0.012368
0.012867
-0.092702
0.031628
-0.103558
0.190353
-0.035349
-0.038249
0.104514
-0.141630
-0.136250
0.070555
0.107229
-0.048517
-0.023202
-0.082343
0.008572
-0.037326
-0.043707
-0.052395
0.182158
-0.070593
0.147981
0.062603
-0.162048
0.182571
-0.054380
-0.148081
-0.058613
-0.106600
-0.028042
0.133256
-0.200819
-0.009657
-0.080759
0.055576
-0.066671
-0.073267
0.032064
0.210525
0.110794
-0.128133
-0.021631
0.028610
-0.106604
-0.043898
0.148303
-0.069553
-0.054597
0.238847
0.140789
-0.154132
-0.063833
-0.041970
0.012823
-0.175688
0.052016
-0.044753
-0.067174
-0.102795
0.133351
-0.009079
-0.229689
-0.027098
-0.166654
-0.145220
0.036005
-0.080910
-0.049587
0.116805
-0.103541
0.028387
-0.026701
-0.032537
-0.112342
-0.119262
0.101645
-0.025605
-0.051510
0.078314
-0.008158
-0.131518
-0.050869
-0.025688
-0.014009
-0.067070
0.004064
-0.108761
-0.078321
-0.081447
0.004655
-0.121393
-0.081257
-0.118800
0.115650
-0.120852
0.213221
0.181881
-0.070272
0.166020
-0.157280
0.079460
-0.079755
0.269199
-0.037042
-0.126755
-0.096797
-0.041589
-0.072994
0.001917
0.061784
0.209110
-0.062211
-0.042949
0.010960
0.122706
-0.053579
-0.047081
0.036486
-0.052347
0.205288
0.216413
0.282791
-0.078791
0.045335
0.025014
0.156444
0.058519
-0.229777
-0.072808
-0.065340
-0.385976
-0.034912
0.081088
-0.110433
-0.068888
0.062622
0.063964
0.015935
-0.132906
-0.015927
0.010880
-0.173957
0.007845
0.135826
0.051988
-0.031972
0.072157
-0.007045
-0.137011
-0.015788
-0.096514
0.032183
-0.073363
0.025805
0.054464
-0.082710
0.038747
0.033443
-0.131785
-0.178029
0.101584
-0.156573
-0.018144
0.115923
-0.104903
-0.077705
0.093134
0.018031
-0.001757
0.113106
-0.071515
0.145928
0.157890
0.009100
-0.046904
-0.010916
-0.001296
0.111198
-0.051060
0.138295
0.070867
0.041225
0.109471
0.063698
-0.051464
-0.112312
0.049444
-0.043133
-0.052227
-0.163018
0.077675
-0.145199
-0.044207
-0.078790
-0.142457
0.110444
0.106080
-0.000690
0.076928
-0.026572
-0.169240
-0.033174
0.083991
0.091445
0.205359
-0.148627
-0.253412
-0.003297
-0.006322
-0.212021
-0.030172
-0.119003
-0.045765
0.150804
0.176347
-0.015740
0.057792
0.054484
-0.047478
-0.069227
-0.001731
-0.086991
0.045638
0.099914
0.012425
0.048779
-0.112468
0.093249
-0.096889
0.067556
-0.037029
-0.036071
-0.052655
-0.039452
-0.106927
-0.000542
-0.023848
-0.168010
-0.056125
-0.074499
-0.126559
0.049168
-0.043796
-0.183448
-0.070092
-0.090401
0.028069
0.012562
-0.024880
-0.007474
0.104311
-0.156730
0.084207
0.024802
-0.060416
0.025499
0.074564
0.029550
0.051648
0.106313
-0.086605
-0.159388
-0.131285
0.070454
0.194583
-0.151663
-0.040003
0.073732
-0.052795
-0.128991
0.005823
0.072815
-0.005154
-0.042937
-0.045738
0.117223
-0.100154
0.050667
-0.171135
0.161794
0.058723
-0.141439
0.017197
-0.191859
-0.004691
-0.044508
-0.024236
-0.048509
-0.084674
0.144500
0.048844
-0.133382
-0.206925
0.069201
-0.103865
0.031785
-0.058449
-0.089876
-0.048548
-0.046798
-0.068864
0.075819
-0.072334
0.055877
-0.013324
0.036372
-0.102264
-0.165550
-0.060794
0.168407
-0.152374
0.072781
-0.127291
-0.001380
-0.047351
-0.147276
0.077226
-0.170550
-0.034523
0.033003
0.187465
-0.121814
0.044847
0.008008
0.011842
-0.018281
-0.467028
0.133157
0.151211
0.062620
-0.179815
0.077774
-0.288499
-0.145225
-0.016602
0.109473
-0.241875
0.265731
0.012276
0.080060
-0.043200
0.121264
-0.196411
-0.014030
-0.195945
0.154724
0.025961
-0.367247
0.007960
0.152548
-0.098221
0.193320
0.246233
0.022806
0.121453
-0.150660
-0.082304
-0.003256
-0.248067
-0.030567
-0.020589
0.054154
-0.067923
0.130667
-0.077574
-0.065906
0.055456
0.037248
-0.155888
0.035552
-0.026605
0.002383
0.074074
0.107319
-0.014870
-0.164073
-0.195853
0.147140
-0.124515
-0.120777
0.062626
-0.051528
0.004258
0.170929
0.202573
-0.016250
-0.029086
-0.120369
-0.079461
-0.055275
0.068811
-0.059665
0.022848
-0.001238
0.002937
0.263488
-0.015815
-0.106631
-0.105842
0.055794
-0.064452
0.102525
-0.234595
0.035724
0.101749
-0.069481
-0.023977
-0.070214
0.150488
-0.026471
-0.015822
0.052571
-0.085477
-0.049178
-0.141274
-0.018526
0.032502
0.033154
-0.081816
0.047649
-0.079353
-0.036614
-0.063850
-0.091431
-0.035766
0.061609
0.116534
0.027551
-0.047360
-0.056531
-0.027526
-0.079636
-0.108756
0.105022
-0.040394
-0.156997
-0.125086
0.095593
0.057618
0.123208
0.056997
0.086291
-0.058067
-0.054722
0.086793
-0.126892
0.000814
0.129630
0.082329
-0.173059
0.071476
0.050843
-0.042504
-0.029441
-0.006738
0.040291
0.104522
-0.166892
0.081892
0.055285
0.059517
-0.020549
0.075896
0.070288
-0.026493
-0.034719
-0.029722
0.106229
-0.162239
-0.029376
0.011568
0.116708
-0.126497
0.012139
-0.076537
-0.019144
-0.000258
0.078913
0.099373
-0.057905
-0.034166
-0.135893
0.118749
-0.160510
0.085267
-0.095161
0.040350
0.078051
-0.044607
0.055621
-0.070426
0.090625
0.112814
-0.029333
0.002528
0.066748
0.180992
-0.084104
-0.114481
-0.144192
-0.008164
-0.027392
0.028398
-0.059868
0.159086
0.065805
-0.175215
0.031570
-0.077968
0.024580
-0.030275
0.155426
0.040946
-0.073619
-0.152420
-0.200769
-0.093850
-0.097142
0.091316
-0.044394
-0.107984
0.115760
0.084189
0.143506
-0.037366
-0.238157
-0.179875
-0.005007
-0.169634
-0.021665
0.104809
-0.109616
-0.151759
-0.169424
0.015579
0.139818
-0.070607
-0.080867
0.184011
0.096199
0.045131
0.022754
-0.051432
-0.040003
-0.061957
0.132331
-0.107787
-0.107646
0.084208
0.044832
-0.080339
0.040292
-0.068208
-0.121194
-0.024722
0.035835
-0.059011
-0.044721
0.086466
0.123566
-0.143978
0.144099
0.169897
0.034513
-0.203573
0.023667
-0.216118
0.141358
-0.029684
-0.085564
0.068225
-0.151816
0.131800
0.102968
0.051482
-0.171136
-0.053284
0.074527
0.075550
-0.099806
-0.200046
0.051206
-0.023905
0.068128
0.038537
-0.097350
0.076796
0.065593
0.045318
-0.094225
-0.071210
0.113766
0.138703
0.008487
-0.186470
0.076722
0.115970
-0.088863
0.033813
-0.159834
0.029768
-0.042352
0.030040
0.048388
0.047259
0.059591
-0.170724
0.010991
-0.173406
-0.026134
-0.009352
0.241275
-0.056141
0.022235
-0.080738
0.057348
0.102129
0.124697
0.001318
0.051898
-0.124383
-0.004601
-0.115385
0.031579
-0.051822
0.075502
-0.015711
0.010610
-0.020035
0.016548
-0.092547
0.065081
-0.119582
0.010829
-0.017425
-0.089967
0.130970
-0.053237
0.015881
-0.099403
0.093996
-0.115637
-0.099151
-0.125918
-0.032651
-0.030228
-0.035963
0.089995
0.098174
0.007682
0.081821
0.096111
-0.099984
-0.152017
0.006931
-0.014214
0.112857
-0.027341
-0.034534
-0.159787
0.035199
0.073848
-0.118500
-0.058517
-0.005752
-0.020166
-0.000812
0.044050
-0.070793
0.017291
-0.010297
0.099927
-0.037149
0.208375
0.070663
-0.178744
-0.077697
-0.365136
-0.058056
-0.047001
0.027916
-0.168869
-0.044039
0.096430
-0.108062
-0.122692
0.098223
-0.135034
-0.087972
-0.055318
0.067870
-0.040383
0.041222
-0.059508
-0.122328
0.125824
0.069328
-0.023603
-0.060699
-0.007711
-0.155251
-0.076854
-0.102304
-0.046026
0.046207
0.184782
-0.087724
0.074115
-0.288779
-0.178733
0.021242
0.100150
0.061115
-0.095863
-0.028736
0.029098
0.103071
0.011047
-0.026761
0.305167
0.054404
0.039723
-0.096571
-0.057627
-0.015460
0.153000
-0.074893
0.061128
0.046632
-0.060418
-0.128957
-0.224712
0.123864
0.022808
-0.155663
-0.207891
-0.034364
-0.023739
-0.000477
-0.055182
-0.071971
0.120013
-0.149677
-0.085105
-0.005531
0.062919
0.012135
0.064634
0.049418
-0.007249
0.187128
0.015642
-0.267542
-0.045921
0.048604
0.136320
-0.035600
0.006831
-0.083263
0.038231
-0.183166
-0.061266
-0.186781
-0.148223
-0.026515
0.038337
0.079103
-0.041434
0.158691
-0.136579
0.081844
0.040385
-0.048151
-0.066377
-0.176753
-0.115169
-0.103214
-0.177080
0.044824
0.231540
0.047480
-0.064637
-0.033250
-0.103896
0.125322
-0.119518
-0.089644
-0.011808
-0.040725
0.057871
-0.073227
-0.050764
0.202213
0.131762
-0.078178
-0.029240
0.008803
0.030317
0.043239
0.018129
-0.094631
-0.050399
-0.049675
0.074219
0.036538
-0.058515
0.030554
-0.276915
-0.199544
0.082782
-0.149274
-0.085510
0.133425
0.191151
0.063020
0.075732
0.071165
0.129181
-0.026072
-0.002077
-0.086254
0.026962
-0.005166
0.202118
-0.076193
-0.012741
-0.128123
-0.197130
-0.145512
-0.080687
-0.172892
0.059520
0.138709
-0.035777
-0.085202
-0.049998
-0.057021
0.058924
-0.025108
-0.028269
-0.032890
-0.103535
0.112250
0.241433
-0.032528
-0.109717
-0.020836
-0.093279
0.188673
0.044467
0.132401
0.019558
-0.102662
-0.031639
0.006993
-0.002515
0.046411
0.075056
0.088771
-0.011077
0.111002
-0.014853
0.022821
-0.003652
-0.100682
-0.006001
0.128121
0.029051
-0.001244
-0.011204
0.080105
-0.063886
-0.116929
0.061813
-0.052054
-0.042432
0.011508
0.111346
-0.127490
0.057335
-0.073685
-0.035098
0.052722
0.015613
-0.210021
0.109091
-0.005575
0.208238
0.064784
-0.075166
-0.055515
-0.072952
-0.055459
-0.094043
0.023066
-0.096236
-0.064571
-0.007825
-0.169706
0.045917
-0.324074
0.129465
0.028372
-0.003181
-0.145923
0.149324
-0.004896
0.003476
-0.006778
0.097899
-0.026183
0.086263
0.107067
0.182941
-0.045280
0.008448
0.040706
-0.073251
-0.123646
-0.244393
-0.306137
0.070873
-0.211479
0.021655
0.094994
-0.024177
-0.030175
0.036652
0.189179
-0.006901
0.058561
-0.119851
0.037920
0.046947
0.077940
0.018391
-0.020875
-0.087404
-0.128359
0.058155
-0.159541
0.058012
-0.037276
-0.124917
0.025077
0.062510
-0.103163
-0.147164
-0.103811
0.011735
0.038392
0.063206
-0.126245
-0.218257
-0.077250
0.117935
-0.106028
0.041868
-0.096806
-0.097597
-0.064956
0.245844
-0.112133
-0.015135
-0.142234
0.095911
-0.124834
0.052312
-0.036194
0.061799
-0.128563
-0.019975
0.182844
-0.197304
-0.113281
0.212284
-0.106238
-0.138974
0.097810
0.160149
-0.167146
0.063191
0.173399
0.078073
0.025337
0.017770
0.158823
-0.210431
0.125775
-0.138805
-0.101231
-0.030873
-0.148292
-0.099487
-0.139727
0.108506
0.052626
-0.248154
-0.003166
0.053865
0.014689
0.107633
-0.048890
-0.036647
-0.065484
0.000409
0.018716
-0.033404
0.027809
0.048164
0.011135
0.107733
0.017595
0.078358
-0.024165
0.176850
0.123799
0.035862
0.167702
-0.003259
-0.095758
0.030360
-0.047853
-0.054216
0.187025
-0.190520
-0.077300
0.031478
0.201318
0.032275
-0.009777
-0.093629
-0.026521
-0.144139
0.027986
0.071325
-0.183334
0.190523
-0.019559
-0.317169
0.138768
0.094094
-0.080914
0.023107
-0.047660
-0.045187
-0.120986
-0.046870
-0.100999
-0.043616
-0.118310
0.224596
-0.083270
-0.130090
0.064255
0.074832
-0.030859
-0.061288
0.075430
0.061425
-0.225297
-0.002679
-0.335447
0.091572
0.123730
-0.204347
-0.152263
-0.144138
-0.070800
0.098269
-0.065733
0.122146
0.080994
0.158764
-0.039649
-0.033205
-0.021064
0.034437
-0.009683
0.055691
0.004905
0.021821
-0.127880
-0.174001
-0.022848
-0.003723
-0.111463
0.010086
0.045437
0.036863
-0.092930
-0.089232
0.054836
-0.250737
0.079262
-0.066411
-0.141505
0.046387
-0.020240
0.184112
0.116498
0.165378
0.001238
-0.161427
0.012352
-0.155267
-0.078937
-0.120514
-0.059133
-0.118361
-0.016660
0.001107
-0.062228
-0.195930
-0.053977
0.160598
-0.059602
0.126993
-0.149248
0.002655
0.033272
0.037966
-0.052372
0.009547
0.134381
0.100660
-0.241009
0.012572
0.354536
-0.064069
-0.172346
0.092620
-0.062956
0.067550
0.181447
-0.007304
-0.036047
0.178555
0.088973
0.096985
-0.015523
0.002956
-0.197752
0.063571
-0.169339
-0.037570
-0.107323
0.007445
-0.043644
-0.041671
-0.063455
-0.172263
0.112210
0.098235
0.101716
0.028332
-0.033510
0.069353
0.073931
-0.059363
0.019684
-0.052973
-0.090703
-0.036053
-0.063172
-0.125794
0.006942
0.034154
0.074284
-0.021773
-0.095568
0.045601
-0.177605
-0.026670
0.073561
0.112890
-0.005866
-0.080200
0.143303
0.008502
0.032937
0.065931
0.055923
-0.063921
0.040965
-0.047280
0.005357
0.011379
-0.085546
-0.046287
-0.109018
0.069823
-0.041172
0.078176
-0.063784
0.137598
-0.021857
-0.009280
0.071714
0.025812
-0.121827
0.154200
-0.227758
-0.079356
0.023884
0.207988
-0.203310
-0.118917
-0.104228
-0.198200
-0.004897
0.005600
0.064418
0.080864
-0.165617
-0.044711
0.080946
-0.017973
-0.073182
0.029818
0.135111
-0.067041
-0.125057
0.012172
0.161255
-0.059156
-0.107484
0.011285
-0.032166
-0.125936
-0.073684
-0.115891
0.002457
-0.037802
-0.105183
-0.087824
-0.092671
0.050120
-0.183326
-0.025018
0.016320
0.118251
-0.035037
0.047385
-0.078541
-0.007444
0.079200
-0.005345
-0.083111
0.062311
-0.216219
-0.043897
0.015243
-0.028101
-0.034257
-0.118091
-0.050223
-0.098972
-0.162065
-0.110128
-0.081472
-0.099316
-0.155877
-0.015811
-0.068583
0.103529
-0.002396
-0.026411
0.026150
0.073530
0.035027
-0.057052
-0.079296
0.063807
0.096288
-0.110232
-0.010878
-0.016684
-0.091150
0.115945
0.071110
-0.087670
-0.142773
0.157945
-0.025123
0.047360
-0.046296
0.008861
-0.083054
0.016938
-0.105493
-0.058253
-0.102983
-0.129360
-0.118973
-0.015226
0.028487
0.053285
-0.159530
-0.101857
-0.086754
-0.053061
-0.036365
-0.034580
-0.151044
-0.101781
0.104676
-0.004245
0.022919
-0.023354
0.003380
0.065548
0.011074
0.088781
0.093526
-0.098088
-0.143458
-0.178526
0.069955
-0.116614
-0.096141
-0.043002
-0.032555
-0.009047
0.031881
-0.007619
0.019373
-0.014616
0.054617
-0.019889
-0.016345
-0.080943
0.004495
-0.010223
-0.042586
0.126350
-0.230011
-0.054344
-0.163877
0.065685
0.051992
-0.052442
-0.176224
-0.091377
0.000222
-0.112630
-0.034602
-0.000771
-0.040180
-0.075738
0.247240
-0.022815
-0.272813
0.002048
-0.037882
0.142384
0.174882
-0.033513
-0.028164
-0.252839
-0.230545
-0.002851
0.163910
-0.054523
0.058835
-0.029920
0.264881
0.104089
-0.131069
-0.171454
-0.024630
0.045979
-0.074210
-0.076679
0.189245
-0.107029
0.034379
-0.044299
0.078354
-0.252013
-0.127842
-0.116274
0.217359
0.085150
-0.260018
0.188298
0.071192
0.187268
0.094146
-0.009371
-0.004227
0.004339
-0.202725
-0.059989
0.082608
0.075291
0.026008
-0.142753
0.027806
0.114347
-0.123931
-0.069150
-0.179720
-0.032787
-0.040335
0.164638
-0.062218
-0.000125
-0.023090
-0.261292
-0.077927
-0.105591
-0.132131
-0.034942
0.016328
0.134958
0.008961
0.055557
-0.133395
0.076888
-0.106794
-0.196063
-0.084778
0.081419
-0.089563
0.077828
-0.023735
0.037448
-0.142818
-0.042973
-0.015587
-0.052755
0.049224
-0.023478
0.032398
0.003995
-0.119954
-0.006641
-0.083121
-0.158224
0.042355
0.002554
-0.132738
-0.013242
-0.059631
-0.053912
0.039716
-0.155099
0.027463
0.111420
0.076765
-0.055941
-0.031800
-0.027060
-0.122749
-0.057343
-0.046741
-0.095778
0.023914
0.069331
-0.011535
-0.048971
-0.032971
0.151776
-0.084379
0.008760
0.081770
-0.012975
-0.224800
-0.015392
-0.028602
-0.086508
0.051942
-0.148866
-0.191836
0.083376
-0.021026
0.113545
-0.047191
-0.025850
-0.066308
-0.010541
0.022737
0.128488
-0.017879
0.079786
0.117955
-0.126770
-0.128341
-0.144562
0.045676
-0.037849
0.037306
-0.067879
-0.029354
-0.036063
0.019715
-0.071208
-0.047072
-0.044298
-0.131999
-0.152175
-0.108271
-0.019031
-0.115128
0.096452
-0.009390
-0.068193
0.039872
-0.101759
0.025853
-0.251477
-0.099523
0.187558
-0.102476
-0.208208
-0.175695
0.089516
-0.154936
0.125017
0.010942
0.103583
-0.011961
0.047137
-0.031558
0.217711
-0.148785
0.020050
-0.078583
0.270609
-0.028680
-0.140003
-0.140397
-0.101782
-0.150209
-0.137627
0.036313
-0.083772
-0.158246
-0.218717
-0.156797
-0.043900
0.011171
0.080917
0.027460
-0.023255
0.139389
0.046342
0.117817
-0.117990
-0.090795
0.085117
-0.021542
0.123221
-0.021683
0.003229
-0.142731
-0.105290
0.025616
0.027896
0.040663
0.015710
0.112332
-0.040483
0.027777
-0.033185
-0.063124
0.022794
-0.061806
0.148634
-0.071417
-0.184026
-0.076822
0.109770
0.170767
-0.013566
0.029337
-0.059451
-0.005029
0.034378
0.046442
-0.108157
0.118500
0.049626
-0.127232
0.053275
-0.022111
0.073890
-0.096826
-0.052175
-0.025947
0.148885
-0.101497
-0.152060
-0.035616
0.108483
0.108383
-0.075098
-0.041339
0.100838
0.154233
0.185768
0.056016
-0.022920
-0.220256
0.108307
0.026255
0.163745
0.044907
-0.049615
-0.154481
0.063085
0.061598
-0.043971
-0.095556
0.062507
-0.071335
-0.020738
0.081783
0.080080
0.029289
0.141320
-0.090927
-0.038361
0.074153
0.061987
-0.013942
-0.088906
-0.019983
0.056788
-0.006664
-0.022057
0.028705
-0.031916
-0.280922
0.207693
0.017908
-0.006083
0.117977
-0.036943
0.012571
0.211658
-0.081630
-0.018476
0.101325
0.084639
0.056911
0.000627
-0.037538
0.085922
0.028609
0.074437
-0.208185
0.151979
0.028469
-0.019888
0.005484
-0.073436
0.069548
0.016256
0.011071
0.133130
0.028936
0.068229
0.240999
-0.156061
-0.104507
-0.121206
-0.022679
-0.015596
0.096723
0.177205
0.023090
0.077511
-0.024059
0.048883
0.065071
0.015690
-0.061642
0.128466
0.091906
-0.088582
-0.036731
-0.138259
0.083178
-0.001481
0.008744
0.040632
0.031373
-0.003040
0.002908
0.012546
-0.118825
0.024124
0.026701
0.018687
0.094569
0.094264
0.052145
-0.019811
0.029704
-0.250774
0.090704
-0.009655
0.008118
-0.099978
0.053137
-0.004408
0.084598
-0.168412
0.086536
0.070285
0.006553
0.097615
-0.051093
-0.011388
0.057676
-0.009523
-0.084917
-0.031157
0.146038
-0.165465
-0.009417
-0.021158
-0.046877
0.050589
-0.093711
-0.116295
-0.081580
0.136595
0.117020
0.198015
-0.192068
0.026819
-0.079822
0.084611
0.241923
0.007646
-0.075675
-0.084255
-0.020717
0.090325
0.007095
0.039716
0.032254
-0.014889
0.025306
0.031261
-0.095983
-0.023795
0.015625
-0.024499
0.055441
-0.205455
0.014375
-0.077769
-0.010981
0.022174
-0.069181
0.009484
-0.036684
0.107182
0.186687
0.009555
0.098691
0.032644
0.131743
-0.015296
-0.069620
0.042119
0.117734
0.112469
0.126072
-0.007859
0.060019
-0.150931
-0.104404
-0.000462
0.055149
0.137781
0.023491
-0.188241
0.050329
0.016518
-0.083338
-0.143340
-0.205102
0.090957
-0.045610
0.013984
0.091973
-0.087104
0.047113
0.023029
-0.022466
0.011713
0.017603
-0.018932
-0.005194
0.165537
0.064533
0.110249
-0.230071
0.171241
-0.311391
-0.124156
-0.045931
-0.007702
-0.029764
-0.011914
0.096229
-0.048996
0.008641
-0.190900
-0.024253
0.028036
-0.011259
0.014335
0.091674
0.147800
-0.036060
0.176743
-0.036436
-0.012432
-0.012431
-0.003277
-0.092200
0.066536
-0.017934
-0.061337
0.074322
-0.208376
-0.203324
0.054081
0.060242
-0.028849
0.036139
0.055671
-0.049596
0.022431
-0.117769
0.051333
-0.151452
-0.036267
-0.194471
0.009103
-0.121134
-0.061171
-0.121435
-0.092059
-0.097322
0.031109
-0.131506
-0.211079
0.071298
-0.008159
0.075482
-0.106661
0.067068
-0.008315
-0.195685
0.168478
-0.092384
0.033460
0.162654
-0.177167
-0.257868
0.180052
-0.269891
-0.056852
-0.111589
-0.164395
0.038322
-0.030548
0.048969
-0.038945
0.038061
-0.148850
0.100925
0.006339
0.107444
0.069125
0.069483
0.032053
-0.134173
0.129085
-0.026398
0.017093
-0.023188
-0.055162
-0.179943
-0.098865
0.110373
0.051386
-0.037724
-0.132997
0.093189
-0.057977
-0.021980
-0.233567
-0.081833
0.041458
0.072294
-0.094219
0.044977
-0.072358
0.062378
-0.129997
0.033147
0.153985
-0.121668
0.104537
0.030432
-0.024968
-0.022182
-0.067845
-0.035007
-0.147211
0.048462
-0.077416
0.003632
-0.010104
-0.090982
-0.160110
-0.281232
0.082384
-0.036391
-0.029779
-0.059874
-0.021648
-0.140666
0.004423
0.164427
0.030778
-0.001025
0.174930
0.127110
-0.014096
0.080409
-0.049668
0.093957
0.093851
0.004603
0.016673
-0.228798
0.133364
-0.156317
-0.050479
0.053278
0.100856
0.039436
0.041877
-0.009864
-0.158282
-0.189909
-0.063631
-0.130346
0.198547
0.087535
-0.003670
-0.117156
0.087879
-0.030501
-0.116909
-0.074178
-0.014458
-0.063258
0.020906
0.080088
-0.024565
-0.089646
-0.101010
-0.058506
-0.073633
0.021684
-0.035891
0.048200
-0.001436
0.007936
-0.069537
-0.105683
-0.011138
-0.008272
0.020340
0.090617
0.310256
-0.091334
-0.012278
0.039659
0.036254
0.115464
0.052245
-0.280504
-0.018309
-0.080863
0.118521
-0.054723
-0.182416
-0.182094
-0.044641
-0.192965
0.038277
-0.039874
0.019598
-0.127082
0.006233
-0.207757
0.084779
0.067410
0.048843
0.099169
-0.065318
0.152797
-0.021999
0.118883
0.016229
-0.038668
-0.061040
0.057722
0.001860
0.065204
-0.268498
0.063106
-0.076449
0.009676
0.203868
0.017825
-0.016948
-0.016813
-0.024546
0.074243
0.058425
-0.072457
0.068927
-0.121764
0.073831
-0.098119
-0.058687
-0.172696
0.179378
0.066001
0.114817
0.074195
-0.102186
-0.047033
-0.092658
-0.039643
-0.215260
0.059828
-0.078557
-0.012546
-0.008018
0.136526
-0.006384
-0.083774
-0.149979
0.116585
0.103524
-0.065491
0.050826
0.138070
0.143261
-0.054189
0.155444
0.073051
0.054901
-0.002894
0.037133
-0.034739
-0.051910
-0.019029
0.043922
-0.185513
0.114085
0.040752
-0.090249
-0.185509
0.116616
-0.147168
0.133325
0.036535
0.137968
-0.020319
0.173205
-0.104151
0.098777
0.125109
-0.154325
-0.133159
-0.093874
-0.239902
-0.196587
-0.023157
0.083808
-0.087664
-0.053493
-0.039683
0.000518
-0.039190
0.004359
-0.001833
0.160652
0.026935
0.015863
0.065319
0.204954
-0.095052
-0.034333
-0.021089
0.008146
-0.075845
0.157437
0.087250
-0.014773
-0.042027
-0.007002
0.066265
-0.098399
-0.070430
0.081068
0.076292
-0.049186
0.044471
0.081394
0.026586
0.128356
-0.047603
-0.049361
0.003589
-0.117510
0.017089
-0.111729
0.035442
-0.000110
0.108229
0.034299
0.066858
0.020606
-0.029011
-0.125473
-0.033652
0.184287
-0.288672
-0.115331
-0.210739
-0.015493
0.005750
0.028432
-0.005389
0.037710
0.076990
-0.041679
-0.270027
0.039891
0.039434
-0.078036
0.315821
0.021327
-0.060786
-0.083988
0.038849
-0.045768
-0.019161
0.046007
-0.169917
-0.030639
0.126306
-0.213842
-0.066485
-0.318038
-0.064159
-0.083450
-0.125198
-0.123232
0.065458
0.091592
-0.078025
0.081438
0.140525
-0.073114
0.046912
0.045741
0.099179
-0.004187
-0.097808
-0.096328
-0.055184
-0.003269
-0.081767
-0.095654
0.038305
0.014477
0.000466
0.123728
-0.098566
0.001366
-0.159486
-0.103613
-0.081781
-0.014852
-0.013337
-0.068760
-0.012990
0.087801
-0.023120
0.010804
-0.042072
0.101414
0.091972
0.085453
0.077428
-0.030012
-0.184252
0.052718
0.102177
0.053351
-0.040373
-0.006264
-0.144404
0.078153
-0.028466
-0.058865
0.008900
-0.027515
-0.092024
0.093124
-0.193831
-0.155189
0.064524
0.126708
-0.025894
-0.151521
0.070735
-0.096197
-0.026129
-0.021150
0.166937
0.008141
-0.038449
0.178251
0.092393
-0.032906
0.090408
0.062970
-0.066198
0.098281
0.048691
0.015890
-0.082553
0.000109
-0.062347
0.034930
-0.049565
-0.118739
-0.178048
-0.080174
0.074403
-0.030778
0.110417
-0.039838
-0.154777
-0.008149
0.076695
-0.087343
-0.043800
0.045842
0.023773
-0.047594
0.043257
-0.128747
0.047599
-0.064615
0.037405
0.011256
-0.026730
0.075451
0.043897
-0.010515
0.015747
-0.141418
0.050746
-0.042211
-0.061588
-0.057797
0.003419
0.035649
0.097193
-0.028569
-0.004180
-0.014356
0.056604
0.166950
0.004539
-0.082878
0.103703
-0.073763
-0.001227
-0.091356
0.214543
-0.016553
0.001784
0.010422
0.051860
-0.026876
-0.089859
0.142086
-0.008032
-0.008777
-0.143946
-0.094501
-0.032271
0.037911
-0.096215
0.086135
0.013357
-0.096333
0.029426
0.032981
-0.008127
-0.070851
0.169115
0.135964
0.213012
0.061359
-0.119692
0.062801
-0.103327
0.093046
-0.002941
0.101675
0.087615
-0.018323
0.082960
0.082026
0.049500
-0.232882
-0.072805
-0.141608
0.031904
-0.178418
0.048473
0.131284
0.090349
-0.119036
0.031562
0.071243
-0.053237
-0.052977
-0.053850
0.145362
-0.001417
-0.235139
0.080584
-0.110681
-0.124178
-0.100242
-0.000345
-0.141282
-0.081692
-0.099994
-0.035446
-0.010860
-0.077219
0.102150
-0.043414
-0.099235
0.156781
0.004954
0.052947
0.043204
-0.170467
0.094920
0.058668
0.022769
0.119330
0.117377
0.030580
-0.183829
0.074091
0.031930
-0.162948
0.180889
0.207083
-0.099724
0.039448
0.067182
-0.149428
0.054229
0.127416
-0.027363
-0.026376
-0.208693
-0.089360
0.072867
0.039365
0.174727
0.107043
0.048260
0.122731
0.024538
-0.076980
-0.005076
-0.017035
0.170200
0.102988
0.075051
0.155637
-0.075043
0.008609
-0.150205
-0.169375
-0.006475
-0.007642
0.020461
0.289976
-0.023253
0.033603
-0.065686
-0.148416
-0.035130
0.119246
0.003986
-0.060376
-0.166133
-0.055521
-0.143331
-0.086365
0.094985
0.144162
-0.108732
0.073810
0.103222
0.090582
0.072830
0.073045
-0.032692
0.110757
-0.183329
-0.076859
0.028860
0.062638
0.067764
0.061637
0.073263
0.028361
0.065930
0.129296
0.090233
0.128030
0.092184
-0.089591
0.062182
-0.114619
-0.011997
-0.069385
-0.029927
0.031275
-0.055920
0.038284
0.035823
0.052909
0.059628
-0.059614
0.040206
0.124889
0.138561
0.078360
-0.146793
-0.053443
-0.020334
0.003763
-0.143343
-0.033498
-0.030008
0.105480
0.040445
-0.020184
0.167515
0.179159
0.009812
-0.068632
-0.024746
-0.011644
-0.000868
-0.014658
-0.124448
0.130578
-0.071028
0.081546
0.039927
0.108973
-0.056187
-0.056729
0.031759
-0.039473
0.116532
0.120017
-0.051707
0.109173
-0.085875
-0.096807
0.099918
-0.020587
-0.043323
0.109829
0.051079
0.039561
0.164372
-0.067534
0.042287
0.228714
-0.066244
-0.061357
-0.036049
0.108424
0.080375
-0.095005
-0.052252
0.000070
0.081392
-0.085139
0.051607
0.062047
0.086634
0.088773
-0.073246
-0.010643
-0.126239
-0.145317
-0.308749
-0.033359
0.134456
-0.071350
-0.027919
-0.013526
-0.090261
0.055172
0.086505
0.173382
0.156885
0.095364
-0.095037
-0.149968
0.092239
-0.070883
0.023683
0.031091
0.049984
0.088065
0.084483
0.099691
-0.188652
-0.004264
-0.175857
0.121560
-0.195498
0.035013
0.121675
-0.290630
0.191908
-0.043458
-0.072658
-0.029857
0.124077
-0.060831
0.008058
-0.142278
-0.049627
0.015556
0.056458
-0.155093
-0.041025
-0.040024
0.076726
-0.048330
0.191609
-0.031122
0.151147
-0.176582
-0.061727
-0.178728
0.075306
-0.055565
-0.275191
-0.089000
-0.024474
0.136580
-0.126576
-0.024847
0.108642
0.126431
0.023297
-0.022576
-0.118133
0.091862
-0.125807
-0.167709
-0.009450
0.012293
0.028429
-0.004204
0.018754
-0.251527
0.147547
-0.031735
0.046195
0.188575
-0.008535
-0.019633
0.113061
-0.032954
-0.092943
-0.214916
-0.056046
-0.003919
0.068583
-0.044588
0.105520
0.116736
0.140148
0.057695
0.022477
-0.026825
-0.009662
-0.001157
-0.106382
-0.120923
0.151759
0.113912
-0.054641
-0.018226
0.109049
-0.080446
0.042294
0.085423
0.210666
0.020173
0.006067
0.010916
-0.155827
0.022183
-0.055095
-0.007951
-0.079554
0.075580
-0.073096
-0.058216
-0.230304
-0.000025
0.057400
-0.046305
0.058182
-0.129512
0.137145
0.084496
-0.107239
-0.124241
0.024071
-0.035896
0.261586
0.017673
-0.152167
0.153084
0.032900
-0.000447
-0.032364
-0.066750
0.031563
-0.083132
0.057202
-0.002650
-0.149886
0.085173
-0.040789
0.007773
-0.056709
0.036346
-0.070528
-0.006137
-0.001092
0.018242
0.028204
-0.084468
-0.011387
-0.043172
-0.008744
0.053679
-0.167409
0.096412
-0.127091
0.020778
-0.086086
-0.065159
-0.023819
0.114690
0.064576
-0.107505
-0.044169
0.028120
0.106907
0.000538
-0.004855
0.045162
0.156339
-0.233043
-0.006366
-0.034462
-0.087402
-0.081068
0.079624
0.023661
-0.004974
0.102624
-0.033355
-0.103252
-0.034386
0.153498
-0.132080
0.079506
-0.031873
-0.105903
0.123342
-0.027444
-0.219972
-0.034488
-0.243482
-0.021446
0.159809
0.024903
-0.038549
-0.094867
0.151969
-0.033319
-0.132850
-0.111026
0.081555
0.024565
-0.010017
-0.092046
0.116304
0.088190
-0.027928
-0.042390
0.042493
0.097526
0.134068
0.021927
-0.014062
0.090818
0.009550
0.022375
0.023695
0.010062
0.132203
0.102032
-0.124531
0.090311
-0.019570
0.011038
0.001900
-0.151490
0.075893
-0.031735
0.066440
-0.013222
-0.140805
0.128967
-0.341384
0.188158
-0.177067
-0.007176
0.115905
0.182500
0.097374
-0.110768
0.018157
0.061820
-0.017063
-0.133986
-0.001864
-0.162590
0.108887
0.252302
-0.252882
0.042565
-0.041846
-0.072130
-0.030193
0.012521
0.066383
0.021972
-0.057866
0.030165
0.050271
-0.042953
0.112149
-0.136787
0.042103
0.051809
0.031478
0.002706
-0.016912
0.038388
-0.028164
0.033578
-0.009318
-0.037770
0.000412
-0.108015
0.052215
-0.006859
0.142501
0.107991
0.047238
0.000062
0.055077
0.150499
-0.150582
-0.009825
0.230737
0.034970
0.052618
0.107268
-0.032976
-0.151085
-0.038058
0.059009
-0.008929
0.077398
0.055935
0.021204
-0.090516
0.052589
0.020470
-0.284474
-0.129641
0.046056
0.005216
0.061645
-0.115924
0.057493
0.037583
0.090003
0.216981
0.103186
-0.148340
-0.033874
0.006564
-0.260536
-0.049240
0.043162
0.009263
-0.063492
-0.014801
0.025907
-0.215556
0.038357
0.087346
-0.018683
0.237860
0.065173
0.160632
-0.056952
-0.196909
0.158283
-0.028648
0.040137
-0.054494
0.077786
-0.225594
0.069927
0.111885
-0.197358
0.135994
0.031549
0.234679
-0.329300
0.170268
0.066909
0.172851
-0.029116
-0.044140
-0.085500
0.081165
-0.107774
0.026559
0.034883
0.096355
-0.019020
0.053183
0.194461
0.132868
0.110615
0.152421
0.041364
-0.052125
0.002173
-0.013219
-0.081676
0.006412
0.075978
0.042000
-0.021005
-0.038185
0.162314
-0.027380
0.000254
0.134587
0.045761
-0.009169
0.146547
-0.037278
-0.134376
0.072430
-0.062645
-0.137235
-0.038600
0.051529
0.063213
-0.225834
0.081087
0.043835
-0.041167
0.146926
-0.021044
-0.065490
0.027007
0.011423
-0.228649
-0.063067
-0.042295
-0.009997
-0.089360
-0.014717
-0.101571
-0.068704
-0.044702
-0.136078
0.142716
0.008380
-0.046394
-0.033408
-0.088317
0.063132
-0.039741
-0.053099
-0.005455
0.151153
0.167029
0.112082
-0.028015
0.138252
-0.021028
0.217690
0.038454
0.013160
-0.066704
0.045123
0.051281
-0.222324
-0.024330
-0.047584
-0.222084
-0.031593
0.065881
0.043102
-0.062399
-0.174106
-0.197301
0.025780
-0.274063
-0.055221
-0.222547
-0.137501
0.194002
-0.019069
0.142841
-0.056025
0.060455
-0.051968
0.015399
-0.045453
-0.017619
-0.062539
0.003389
-0.114268
-0.077520
-0.021289
-0.086065
-0.109023
-0.055041
0.116157
-0.045003
0.060097
0.119411
0.000468
-0.315441
-0.046806
-0.066829
-0.050826
0.003877
-0.011131
-0.130403
0.100555
-0.103255
0.152419
0.013824
0.018184
-0.054703
-0.033510
0.065535
0.102749
-0.141177
-0.007455
0.049693
-0.117278
0.038436
0.145373
0.010567
-0.047804
0.047123
-0.002744
-0.034262
-0.137848
0.128012
0.007834
-0.010060
-0.088361
-0.133105
-0.156908
0.075813
-0.014957
0.050687
-0.032651
0.103113
0.031912
-0.090172
-0.047116
0.031776
0.035995
-0.098784
0.082387
-0.018508
0.162473
-0.140488
-0.184980
-0.016276
0.140023
-0.013889
0.106966
0.042336
0.113459
0.022517
0.079546
-0.051535
0.018589
0.111359
0.023451
-0.203368
-0.053188
-0.022229
0.000428
-0.041938
-0.024386
0.098357
0.127593
0.115123
0.112149
-0.043377
-0.027144
-0.005022
-0.061997
0.115427
-0.034348
-0.047042
-0.020465
-0.079223
0.012476
0.024704
-0.044122
0.082854
0.021431
0.086453
0.005560
-0.101616
-0.086005
0.086134
0.170231
-0.219524
-0.051657
0.050429
-0.105412
0.061249
0.070603
0.032029
-0.095716
-0.067932
-0.001427
0.003724
-0.098605
-0.133036
0.019384
-0.012775
-0.103960
0.125411
-0.034930
-0.008964
0.031091
0.039596
-0.122279
0.040301
-0.030433
-0.085664
-0.072600
0.073068
0.092409
-0.032459
-0.033522
-0.079979
-0.278816
0.072699
-0.121526
-0.119418
0.102081
0.038306
0.126649
-0.114292
0.093945
-0.031865
-0.044397
0.027219
-0.150106
-0.318770
0.037673
0.138249
-0.096073
-0.063677
-0.114384
-0.160838
0.108041
0.058999
-0.111401
-0.034299
0.065740
-0.026039
0.019270
-0.089454
-0.078795
0.009635
-0.034103
0.012192
0.194604
-0.051677
-0.035403
-0.077335
-0.073966
-0.064693
0.038591
0.119615
-0.219708
-0.116264
0.008261
0.145699
-0.005172
0.017241
0.116865
-0.056165
0.084027
0.145195
-0.060896
0.115999
-0.128752
-0.082501
-0.158571
0.080563
-0.097398
-0.006742
-0.103388
-0.046003
-0.019734
-0.160155
-0.033475
0.160208
0.194681
-0.074947
0.032838
0.027134
-0.046034
0.139657
-0.062977
0.058537
0.117486
0.040150
0.118220
-0.017946
-0.032320
-0.111830
0.232306
-0.113060
-0.115735
0.036232
-0.090891
-0.077215
-0.029724
-0.066215
-0.052182
-0.008536
-0.083396
0.096551
0.141916
0.065135
0.056792
0.013445
0.030692
0.159368
-0.134174
-0.012450
0.047354
0.003335
-0.037972
-0.039188
-0.060341
0.012222
0.151928
0.066247
-0.015363
0.169866
0.150957
-0.107185
0.108976
-0.042741
-0.179746
-0.044775
-0.246930
-0.043599
0.011072
0.075775
0.019807
0.088021
-0.042268
0.035710
-0.132313
0.008904
-0.072995
-0.036142
0.021065
0.136473
-0.111090
-0.132811
0.066669
0.049495
0.288137
-0.120199
0.129715
-0.187430
0.085657
-0.136324
-0.021417
-0.011606
-0.103109
-0.012246
-0.232487
0.003570
-0.128911
0.055693
0.073551
-0.146997
0.095308
-0.049498
0.005965
0.089801
-0.157214
-0.213034
-0.097057
0.117601
0.021473
-0.117165
-0.085914
-0.214050
0.173741
-0.080776
0.184737
-0.132051
-0.025984
-0.224957
0.016499
-0.073179
0.066728
-0.016731
0.065625
0.185065
-0.112910
0.113235
0.068799
-0.236570
-0.024382
-0.154653
-0.106291
0.033163
0.166121
0.037615
0.081842
-0.085964
-0.049093
-0.023281
-0.051928
0.034997
0.011520
-0.151602
0.079289
-0.074227
-0.103496
0.103499
-0.077098
0.044754
-0.133940
-0.209420
-0.049006
-0.029271
-0.037393
0.086924
0.101289
0.099642
0.035998
0.017742
-0.001398
-0.043869
-0.061695
-0.012435
-0.127719
0.051916
-0.016023
0.024830
-0.051293
-0.017959
0.087881
0.243568
-0.041431
0.105364
-0.177289
-0.127638
0.031774
0.100462
-0.069267
0.062442
0.068542
0.025218
-0.031973
0.022522
0.041028
-0.048525
0.059096
-0.034479
-0.131738
0.086484
0.038839
0.006456
-0.127296
-0.027970
-0.128194
-0.024883
0.054686
0.120379
-0.139000
0.039733
-0.030994
-0.050362
0.023082
-0.133259
0.067454
-0.099731
0.174913
-0.005690
-0.026277
0.063203
-0.136750
0.037979
-0.108588
-0.154337
-0.046840
0.122842
-0.074172
-0.067573
-0.044293
-0.056358
-0.047444
-0.054922
-0.058799
-0.074883
-0.110056
0.156205
0.018226
0.146800
0.030728
-0.139056
0.041983
-0.024087
0.034495
-0.186859
0.017261
0.143323
0.205869
-0.091609
-0.003749
0.101015
0.178593
0.017943
0.049574
0.073699
-0.226908
-0.019073
0.005768
0.010214
-0.136399
0.374326
-0.125759
-0.204257
-0.041186
0.031338
0.076005
0.108677
0.015282
-0.032027
0.018424
-0.006865
-0.107886
0.013162
0.032500
0.055154
0.070142
-0.213030
-0.117105
0.037670
0.086504
0.028057
0.063595
-0.008597
0.061571
0.037258
-0.012091
-0.164858
-0.100677
-0.052659
-0.078918
0.006949
-0.043398
-0.144958
-0.228946
-0.151537
0.040538
-0.081009
0.010804
0.007363
0.001520
0.017882
0.214199
0.022384
0.048077
0.085195
-0.129373
-0.084307
-0.216325
-0.105139
0.137975
0.153492
-0.112676
0.133561
0.012431
-0.042340
0.005951
-0.108468
0.040603
-0.060689
0.042113
-0.107522
0.053483
0.039978
-0.138574
-0.058805
-0.139293
0.045572
-0.071389
0.093326
0.057036
0.131296
0.082983
0.029128
0.021580
0.085175
0.054526
0.010524
-0.130420
-0.124301
0.001934
-0.017657
-0.164473
0.040118
-0.050127
0.015929
0.041550
-0.006975
0.067150
-0.043257
0.108765
-0.125672
-0.149596
0.066658
-0.188418
-0.073021
-0.065673
-0.029135
-0.023122
0.160416
0.044976
-0.047023
-0.039264
0.006400
-0.040643
-0.149531
0.126045
-0.017755
-0.031490
0.028038
0.039574
-0.012454
0.171615
-0.242646
0.066914
0.123536
-0.070056
0.090063
0.126670
0.011195
0.003658
0.120976
0.012591
0.090689
-0.008257
-0.002860
0.022356
-0.187501
0.059970
0.136657
-0.121773
0.087237
0.010772
0.026669
0.005945
0.041520
-0.131929
-0.155712
0.013450
-0.100739
-0.097335
0.051844
0.163758
0.057159
-0.057087
-0.028513
-0.155908
0.047842
0.023159
0.101273
0.062776
-0.119235
-0.013988
-0.088924
-0.255974
0.116608
0.278993
-0.110058
0.062674
-0.031022
0.057201
-0.104710
0.087199
-0.163346
0.086213
0.052688
0.045439
-0.047322
0.017337
0.009926
0.101298
0.044712
-0.108471
0.062321
0.090155
-0.061434
-0.161132
0.169814
-0.066785
-0.122466
-0.010914
0.118749
0.104740
0.085646
0.058350
-0.106893
0.129687
-0.055035
0.030505
-0.039073
-0.094532
-0.196518
-0.103981
0.044343
-0.140047
0.061841
0.032214
0.168354
-0.087104
0.139497
0.161241
0.151704
0.007612
0.022785
-0.082917
0.072051
0.052247
-0.176617
-0.029154
-0.002935
0.033991
-0.035044
0.046781
-0.167215
0.147872
0.007474
0.124908
0.112902
0.038436
-0.220806
0.145967
0.021895
-0.045837
-0.371458
0.013042
0.189734
-0.039015
-0.064872
-0.052150
-0.020138
-0.140070
0.067429
0.087114
0.137581
-0.050049
0.083680
-0.088850
0.048850
0.170783
0.039849
-0.083451
0.009897
0.140526
0.014933
0.009008
-0.057888
0.171934
-0.051155
0.046128
-0.042789
-0.025353
-0.031010
-0.124906
0.044010
-0.172790
0.055874
-0.102883
-0.010125
-0.100993
-0.078836
0.090304
-0.093814
-0.000236
-0.009481
0.045255
0.163859
0.075861
0.029330
0.072493
0.002756
0.206864
0.096705
0.053753
-0.111683
-0.000691
0.028059
0.000057
-0.098802
0.138388
-0.075293
0.056776
-0.016948
-0.085869
-0.005384
0.012194
-0.024126
0.046956
-0.063346
-0.047563
-0.076143
-0.188394
0.021910
-0.034013
-0.012175
0.044258
-0.068533
-0.118603
0.169088
-0.027706
0.121715
-0.066990
-0.014973
-0.150933
-0.039455
-0.160460
-0.067729
0.133818
0.020787
-0.092634
0.022156
0.057194
-0.144277
-0.061341
-0.088394
0.075787
-0.003681
0.088368
0.017029
-0.116684
0.078580
-0.034513
-0.007737
-0.121828
-0.055684
0.092140
-0.061126
0.140312
0.056795
0.005565
-0.067207
0.068702
-0.022053
0.083666
-0.021453
-0.128144
-0.122011
-0.350986
0.037714
0.018718
0.068666
-0.160439
-0.127037
0.165176
-0.111254
-0.025301
-0.047874
0.027296
-0.060278
0.045650
0.049985
0.121461
-0.057096
-0.066343
0.083333
-0.067247
0.075738
-0.034380
-0.012989
-0.065132
0.082909
-0.010284
-0.007842
-0.087423
0.053018
0.127714
-0.050741
-0.048632
0.188646
-0.063162
0.002580
0.230915
0.128835
-0.263849
-0.093227
0.044541
0.053070
0.072164
-0.066167
-0.212691
0.082886
-0.057221
-0.017081
-0.147734
0.071258
-0.182742
-0.002469
0.056811
0.143938
-0.116192
-0.025379
0.054176
-0.114359
-0.125424
0.095152
-0.105896
-0.098802
-0.003617
0.019740
-0.022375
-0.010583
0.076348
-0.153765
0.002108
0.041679
0.036606
-0.082758
0.023692
0.126702
0.008521
0.040959
0.073796
-0.125317
-0.167284
0.098852
0.127615
0.029453
0.096225
-0.033034
0.054215
-0.169998
-0.066991
-0.188420
-0.034073
0.116133
0.018422
-0.051610
0.083554
0.141960
-0.093799
0.101124
0.080093
-0.154874
-0.055536
-0.231565
0.142140
0.195224
-0.109986
0.035027
0.147345
-0.146098
0.005948
-0.013849
0.118310
0.136763
0.155896
0.007177
0.018872
0.011701
0.136374
-0.234825
-0.205385
0.038781
0.010729
0.093358
-0.061058
0.181050
-0.016297
0.034821
-0.062779
-0.080751
0.035248
-0.044705
-0.036730
0.071629
-0.026978
-0.059474
-0.240887
-0.063594
-0.105498
-0.149166
0.093117
0.068775
0.126722
0.014736
-0.005932
0.028634
-0.157143
0.129674
0.023488
0.028549
0.075310
-0.085094
0.269063
-0.246023
0.083156
-0.067175
-0.128401
-0.348777
0.032050
0.060137
-0.015197
-0.004683
0.129355
-0.082057
0.044931
-0.006130
-0.084610
-0.012708
0.104520
0.011535
-0.273985
0.010882
0.078251
-0.114159
0.081371
-0.147299
-0.066716
0.138273
0.022143
0.088993
-0.095084
0.046354
0.013308
-0.093563
-0.109473
0.156954
0.099221
0.139549
0.111673
0.058483
-0.001831
0.061757
0.020763
-0.076806
0.030547
0.007033
-0.001271
-0.248975
0.009448
0.088484
-0.139558
-0.196768
0.112445
-0.021735
0.069397
0.136538
0.009918
-0.004806
0.107215
-0.057139
0.020743
0.142572
-0.007282
-0.003306
-0.100471
-0.070324
0.078474
-0.135818
-0.041288
0.148003
-0.009791
0.094267
-0.020780
-0.012276
-0.060751
-0.145003
-0.063317
-0.049071
0.101505
0.136401
0.067082
0.037081
0.018273
-0.037151
0.256957
0.038750
0.094766
-0.019486
0.139597
-0.066221
-0.284056
0.087295
-0.357853
-0.101196
0.007525
0.102823
-0.058957
0.056297
-0.342283
-0.197572
0.133807
-0.224238
0.049087
-0.194454
-0.089147
0.132590
0.047405
-0.039922
-0.059522
-0.074102
0.034604
0.048546
-0.024136
-0.033118
0.012479
-0.011208
-0.007346
-0.163446
0.102619
-0.131560
0.082821
0.049903
0.044445
0.034574
-0.039778
-0.128393
0.103260
-0.180092
0.006332
-0.015579
-0.085499
-0.144942
-0.140473
-0.115050
0.067336
-0.230664
-0.053154
0.012593
-0.002370
-0.051854
0.149064
-0.061985
0.078667
-0.092237
0.079316
-0.101243
-0.106351
-0.020647
0.076509
-0.146047
0.026565
0.038519
0.053474
-0.099722
-0.051117
-0.042341
0.024466
0.075524
0.013036
-0.161706
0.091588
-0.156685
-0.046825
0.021438
0.043173
0.106489
0.027313
-0.121376
-0.024701
0.107879
0.013995
-0.117766
0.026531
-0.046200
-0.015625
-0.168337
-0.129291
-0.021044
0.107039
0.027009
0.047600
0.064771
0.027392
-0.034622
0.179062
0.009769
0.072374
0.081219
0.085029
-0.109169
-0.051991
0.106621
0.108130
-0.049498
0.152056
0.047283
0.167765
-0.039214
-0.004166
-0.001576
0.054765
0.056850
-0.031035
0.188000
-0.108778
0.101608
-0.041952
0.100799
-0.104192
-0.006687
-0.154781
0.049925
0.180087
0.165454
0.021651
0.009072
-0.130769
0.037157
0.111955
-0.061898
0.079787
-0.027649
-0.043367
0.127657
0.051190
0.078045
0.063389
-0.102602
-0.003447
0.083932
-0.077052
-0.029638
-0.020810
-0.130032
0.051740
0.063818
-0.027996
0.011062
0.020468
0.121158
0.084554
-0.151437
0.003050
0.291994
-0.162504
-0.120699
0.046658
-0.007282
-0.007787
-0.109560
-0.139131
0.268074
-0.021945
-0.125596
0.037944
0.062141
-0.040431
0.046729
0.042853
0.142090
0.096012
-0.136250
0.183347
-0.196053
-0.100333
-0.071127
0.019219
0.149369
-0.007598
0.017549
0.151051
0.045868
-0.149273
0.043015
0.125946
-0.073828
0.079126
0.115985
0.004580
0.052245
0.075940
0.047826
0.018315
-0.073732
0.141450
-0.011449
0.051138
-0.079744
-0.027624
0.108056
-0.078609
-0.047623
-0.131727
0.053620
0.004680
0.098658
0.236804
-0.035758
-0.023491
-0.119880
-0.089623
-0.088825
-0.050456
0.087971
-0.020420
-0.149479
0.028680
0.216868
0.120782
-0.075822
-0.053735
0.027066
-0.026815
0.082046
0.076815
-0.149016
-0.036528
0.037253
-0.005176
0.096641
-0.038294
0.246268
0.162794
-0.080805
-0.110108
0.054270
0.003080
-0.050524
0.077255
-0.059077
-0.129902
0.051133
-0.081881
0.067075
-0.095004
-0.018221
0.099505
0.030552
-0.089550
0.099315
-0.056331
-0.010128
0.050545
0.028794
0.044390
-0.036043
0.079557
0.016149
-0.046550
-0.033567
0.041805
-0.122230
0.010621
-0.015660
-0.056575
-0.129406
0.011437
0.187196
0.076099
-0.160504
0.001569
0.066321
-0.050727
0.042822
-0.017092
0.097147
-0.046902
-0.046383
0.047359
-0.110163
0.086946
-0.071513
-0.118367
-0.172942
0.064177
0.135685
0.045031
-0.104507
-0.281293
-0.070471
0.109191
-0.034084
0.047853
-0.105907
0.034243
-0.062070
0.106034
-0.059466
-0.086976
-0.089520
-0.125804
-0.148531
-0.129437
0.200356
-0.045348
0.080620
-0.035088
0.049874
0.089661
0.082949
0.059014
-0.067622
-0.017362
0.162093
0.028619
-0.111630
-0.068327
-0.223661
-0.116176
-0.158499
0.082866
-0.043960
0.170492
-0.074077
-0.050406
-0.151270
-0.148317
-0.014756
-0.014345
-0.064719
0.103389
0.125584
-0.020632
-0.007610
-0.069618
-0.127213
0.019406
0.000346
-0.006670
-0.010108
0.041783
0.032156
0.158411
0.031678
-0.185186
0.009209
-0.114188
0.071489
0.032105
0.010464
0.048786
-0.156517
-0.010272
0.147757
-0.081179
0.056722
-0.068786
-0.072910
-0.003449
0.025408
-0.171753
-0.139335
0.112844
0.110212
-0.036864
-0.077592
0.112339
-0.150196
0.018821
0.119758
-0.114158
-0.113199
-0.002835
-0.023312
0.116261
0.072346
-0.064772
0.038220
-0.036107
-0.064807
-0.181894
-0.039491
-0.033337
-0.019109
0.004259
0.066867
0.018147
-0.122293
0.117689
-0.138744
0.076526
0.169551
0.053646
-0.023951
-0.110839
0.139673
-0.005546
-0.028724
0.023178
0.060199
0.109083
0.142554
0.046569
0.084776
-0.143837
0.167939
-0.041052
0.118815
0.018334
-0.088039
-0.023213
-0.039495
0.114140
0.129076
0.030679
-0.008808
-0.005404
0.063131
-0.354878
0.027948
-0.205552
0.100094
-0.005215
-0.012097
-0.018082
-0.045064
-0.046728
0.050897
-0.069094
-0.127438
0.163951
0.094830
-0.032525
-0.058270
-0.126153
0.003322
0.016717
-0.064606
0.083940
-0.006422
0.003345
-0.170127
0.022969
-0.081740
-0.008556
0.105649
-0.061827
-0.008623
0.213048
-0.207921
-0.133714
0.001356
0.075170
-0.045084
0.114443
-0.246428
-0.036063
-0.023891
0.020448
-0.133416
-0.160003
-0.020857
0.048429
-0.079945
-0.125306
-0.161875
0.055113
0.049108
-0.084379
0.053548
-0.113353
0.112396
0.112793
-0.353779
0.065313
0.103742
0.135372
0.067056
-0.073572
-0.041283
0.152380
-0.209352
0.068709
0.189578
0.051509
-0.053539
0.071831
-0.008348
-0.041242
0.035666
-0.046911
-0.118288
-0.143038
0.127702
0.152458
0.047561
0.148809
0.021022
-0.078402
-0.036133
-0.160053
0.001143
-0.002331
-0.010855
0.052169
-0.028637
0.015432
0.043109
0.036386
-0.170743
0.051782
-0.245617
0.024948
0.047333
-0.062379
0.098461
0.052644
-0.094397
0.013468
0.225827
-0.113538
-0.106812
-0.082577
0.011437
0.081481
-0.019610
-0.046402
-0.013804
-0.039877
0.027831
-0.005428
-0.100001
0.013723
-0.061589
0.002960
-0.007353
0.033499
-0.019879
-0.015986
-0.048816
0.162699
-0.050773
0.028847
-0.191813
-0.081429
-0.064981
-0.008020
0.033376
-0.111913
0.007782
0.050513
-0.218765
0.172596
0.099664
-0.043515
0.147343
-0.014870
-0.183718
0.163418
-0.143097
-0.019682
-0.158120
-0.217787
-0.194455
0.028417
0.014577
0.152109
0.008519
0.092938
-0.165077
0.003767
-0.055928
0.034581
-0.011703
-0.111314
0.041767
0.014012
-0.061257
0.044819
0.176594
-0.007333
0.005397
-0.039745
0.114150
-0.080620
0.072618
-0.070708
-0.058073
0.031995
-0.075083
0.012736
-0.043558
0.015945
0.024170
-0.027566
-0.020646
0.072409
-0.054337
-0.022796
-0.035630
-0.246978
-0.063198
0.144515
-0.085941
0.039270
-0.054899
0.026459
-0.082318
0.018567
0.113188
-0.020517
0.139811
-0.005172
-0.016741
-0.091300
0.164215
0.100522
-0.089619
0.080007
0.101057
0.076100
0.013508
-0.065792
0.129549
-0.068063
-0.080709
-0.123143
-0.115898
0.023115
0.025066
0.069253
-0.089361
0.019861
0.164592
-0.154200
0.081008
0.026180
-0.138469
0.031222
0.081386
-0.015972
0.088889
0.005881
0.065795
-0.035185
0.017495
0.043867
-0.039225
-0.004623
-0.100137
-0.071738
0.075850
0.112554
0.003166
0.088254
0.043139
-0.003030
-0.071286
-0.018217
-0.086703
-0.026467
-0.039506
0.075753
0.043878
0.005544
0.003178
0.013380
0.093292
-0.088448
0.176316
0.037215
0.116190
0.049108
-0.134680
0.024093
0.046360
0.071213
-0.293111
-0.029989
0.103253
0.052163
-0.087620
-0.287084
-0.049543
-0.022221
-0.058605
0.005800
-0.044945
-0.152815
-0.065388
0.002014
0.053532
-0.033939
0.086333
-0.029244
0.035165
0.144794
-0.078492
0.063417
-0.164115
0.113217
-0.106798
-0.036752
-0.124954
-0.045768
0.109707
-0.118371
0.016520
-0.133685
0.002642
-0.053199
0.053949
-0.205986
-0.103976
0.101920
-0.070666
0.069676
0.011274
0.011151
0.186773
-0.055814
0.003880
-0.174092
-0.076642
0.248447
0.063384
-0.023970
0.085286
0.055308
0.022996
0.140007
-0.077787
0.065009
0.113792
0.070498
0.033963
-0.037179
-0.001731
-0.035238
-0.059246
-0.100150
0.043695
-0.008531
-0.083238
-0.016303
-0.058262
-0.047779
-0.091242
-0.138958
-0.172152
0.035995
0.038520
0.042488
0.201794
-0.211497
-0.115438
-0.215030
-0.034793
-0.118201
0.088693
0.097511
0.049768
-0.124668
0.064055
0.180409
-0.012739
0.078309
-0.101953
0.039788
-0.061440
-0.001706
-0.017211
-0.161190
-0.016840
-0.011438
0.033105
0.003378
-0.053992
0.098978
-0.039185
0.102889
0.091601
-0.013980
-0.032433
-0.117941
0.113509
0.071784
-0.048647
-0.104952
-0.036348
-0.148486
0.000524
0.208356
0.010220
-0.088920
0.052215
0.143800
0.007891
-0.103511
0.107202
-0.101697
0.075211
0.055797
-0.076593
-0.030876
0.018265
-0.011041
0.109643
-0.063039
0.002822
-0.149439
-0.005391
-0.054366
0.000082
-0.089926
0.027525
-0.121692
0.000248
0.080154
0.019504
0.143460
-0.024577
-0.049921
0.060309
0.143339
0.191447
0.011641
0.028528
-0.043958
0.000551
0.105914
0.075385
0.103832
0.034010
-0.006781
-0.033768
-0.006074
0.087944
0.153552
0.118980
-0.046989
0.026222
-0.169371
-0.057696
-0.009998
-0.104917
0.053702
0.051018
0.011994
-0.017592
0.163968
0.174987
-0.086867
-0.026104
0.039995
0.057458
-0.020642
-0.070864
-0.045953
-0.009225
-0.014075
0.132065
-0.016886
0.064000
0.074899
-0.104155
-0.026681
0.091984
-0.017554
0.056373
0.075268
-0.020528
-0.035689
0.033163
-0.143149
-0.135958
-0.119595
0.045219
0.058546
-0.024697
-0.038733
0.029376
-0.061064
-0.070793
0.103790
-0.005588
0.086119
0.167952
0.335429
0.017435
0.044318
-0.137087
0.160737
-0.018760
0.004700
-0.157796
-0.064016
0.091752
0.151205
0.051165
0.096877
0.022957
-0.010543
0.169393
-0.134539
-0.075912
0.019069
0.031814
-0.107178
0.139193
0.056878
0.059871
-0.107194
0.096215
-0.155815
0.088087
-0.079189
0.091677
0.026042
0.055539
-0.145771
-0.064464
-0.075874
-0.110492
-0.040779
0.066869
-0.049512
-0.028735
-0.141497
-0.077432
-0.161711
0.029854
0.070352
0.071991
0.111362
0.013983
0.183872
0.042043
-0.254709
0.129469
-0.046409
-0.440616
-0.161107
0.181054
-0.139572
-0.018894
-0.050583
0.060448
0.139045
-0.122575
0.051336
-0.102664
0.011387
0.061791
-0.037386
-0.145194
0.031695
-0.121348
0.116891
-0.286458
-0.113667
0.151055
0.026664
0.163636
0.086738
0.051139
-0.076960
0.101846
-0.118553
-0.149859
0.060038
0.086064
-0.010951
-0.128123
-0.009402
-0.074583
-0.088881
0.108745
-0.265663
-0.038697
-0.131208
-0.058043
-0.095240
0.055776
-0.125162
0.002138
-0.042213
-0.066468
-0.067289
0.052031
-0.026823
0.083300
0.079394
0.119459
0.026213
0.051632
0.027533
-0.029087
-0.062066
0.058047
0.067850
0.003924
-0.033941
0.042984
0.021551
-0.012334
-0.049008
0.036744
-0.155728
0.019271
-0.066704
-0.105134
0.031755
0.161806
-0.116667
-0.055903
-0.048923
-0.062027
0.007669
-0.030329
0.049242
0.063452
0.052171
0.031283
-0.192220
0.095162
-0.318804
0.001215
-0.107024
0.077859
0.008404
-0.148197
-0.157174
0.008771
0.122699
-0.180570
0.122677
-0.102656
0.049741
0.128150
0.098849
-0.054016
-0.069280
-0.185764
0.118985
0.119896
-0.004717
0.049749
0.007995
-0.154279
0.087045
-0.053375
0.169020
-0.125183
-0.065821
-0.028632
-0.008114
-0.097817
0.088382
-0.066227
-0.071379
-0.139769
0.031462
0.126386
-0.052519
-0.013441
-0.095610
-0.143415
0.023072
-0.073311
-0.006498
0.007109
0.006587
-0.025452
0.251895
-0.017210
-0.050735
-0.016307
0.025577
0.117594
-0.087726
-0.197923
-0.083262
-0.109969
0.081341
-0.059467
0.145087
-0.032539
0.139389
-0.081974
0.062566
-0.009529
-0.016419
-0.173750
0.258816
-0.110345
-0.106540
0.043553
0.069414
-0.032427
-0.129585
0.001427
-0.023341
-0.061062
0.186057
0.115107
0.039770
-0.063296
0.012105
-0.007316
-0.194920
0.128262
0.243544
0.073929
0.191470
0.004782
0.043382
0.114481
0.199424
0.172124
0.114221
-0.048746
0.032987
-0.030537
0.050603
0.067637
0.072120
-0.066826
0.146288
-0.046389
0.074410
-0.052736
-0.000956
-0.020382
0.132642
0.091825
-0.055769
0.104877
0.075860
0.058997
0.112506
0.149828
0.071513
-0.058918
-0.200033
0.140231
0.116819
-0.095412
0.038110
0.104371
-0.107148
-0.076961
-0.076731
0.212569
-0.058963
0.014828
-0.160553
0.037820
-0.236478
-0.160354
0.079286
0.004229
0.034993
0.202714
0.108821
-0.280707
0.102420
0.033087
0.013472
0.070047
-0.008494
-0.096465
-0.025789
0.159734
0.059900
0.059409
-0.221890
-0.078111
0.049024
-0.256122
0.090956
0.113229
-0.048142
-0.035050
0.098092
0.050022
-0.007321
0.146671
-0.085814
-0.138793
0.012466
-0.037958
0.043019
0.138215
0.116517
0.001347
-0.094612
-0.119528
0.125425
-0.006767
0.066825
0.177484
0.058789
-0.027300
0.012544
0.000209
-0.253398
-0.034882
0.017073
0.010712
0.083482
0.104950
0.109876
-0.031903
-0.055866
-0.018304
-0.152470
0.086999
0.167950
0.014385
-0.037582
0.118636
-0.183560
0.010577
-0.082926
-0.021366
-0.090996
0.093710
0.071601
0.060166
0.149662
-0.112159
-0.092465
-0.103468
-0.066309
-0.097310
0.157107
0.016073
0.079180
0.019463
0.096668
-0.118460
-0.058847
-0.048067
-0.031120
0.088150
-0.066535
-0.004361
0.118328
-0.034558
-0.120559
0.037170
0.074748
-0.100186
0.058226
-0.110686
0.030614
0.000897
-0.170778
-0.035809
-0.058576
-0.096634
-0.089860
0.126494
0.042802
-0.047404
0.036290
-0.016808
-0.148735
-0.086212
-0.011653
-0.048337
-0.127936
-0.030704
0.017628
0.020521
-0.152718
-0.044906
0.014991
0.043975
0.019326
0.062147
-0.045582
-0.158602
0.094998
-0.096907
0.036617
0.123781
0.093807
-0.019944
-0.052331
-0.003265
-0.070455
-0.108205
-0.006131
0.017672
0.014327
-0.014241
-0.013588
0.063074
-0.022959
0.008688
-0.045342
-0.018537
0.115744
-0.147339
-0.063275
-0.145891
0.079545
0.017904
-0.039311
-0.080367
-0.105322
-0.112317
-0.165058
-0.130871
0.015541
-0.129136
0.115894
0.034144
-0.032996
0.033929
0.012725
-0.079106
0.057176
0.027045
-0.031241
0.200977
0.114311
0.016417
-0.076277
0.036158
0.058780
-0.030043
-0.012160
-0.004656
-0.064438
-0.026878
-0.006281
-0.125194
0.096629
-0.070751
-0.091672
-0.108912
-0.094411
0.110854
0.075554
0.112060
0.007956
-0.048740
-0.203167
-0.031890
-0.066435
0.109977
0.076650
0.132853
0.089628
0.092829
0.068712
-0.003328
-0.000988
-0.051580
-0.072877
0.034967
