# Shape: (3, 3, 64, 64)
0.048885
-0.115807
-0.058640
-0.051509
-0.069839
0.008478
-0.045184
-0.005440
0.007543
-0.111847
0.080932
-0.076243
-0.038461
0.107501
0.004022
0.015273
-0.009592
0.055392
-0.071209
-0.032255
0.103374
0.051525
0.050740
0.057228
-0.091279
-0.044756
0.022339
0.032168
0.068413
-0.050949
-0.024518
0.038603
0.020396
0.000871
0.015701
0.110463
0.043001
0.031099
-0.025780
-0.073546
-0.026010
-0.083508
0.034071
0.023138
0.033899
0.085895
-0.058358
-0.004641
-0.060775
-0.107866
0.054309
0.039973
-0.062394
0.017616
0.093368
0.033890
-0.023575
0.004434
-0.070906
0.096637
0.012414
-0.031035
0.089702
-0.018702
-0.050733
0.020928
0.097924
0.016553
-0.036489
0.004512
0.103323
0.003097
0.014962
0.016103
0.007903
-0.071802
0.032955
-0.015455
-0.031977
0.061934
-0.071950
-0.061661
0.051748
0.092558
-0.026419
-0.031639
-0.040807
-0.010340
0.014707
0.016510
-0.004981
-0.019135
-0.121239
0.025191
0.016648
0.055840
0.018469
-0.021805
-0.011932
0.071041
-0.022256
-0.043439
-0.122546
-0.057532
-0.028859
0.043617
-0.004929
0.015712
-0.030537
0.097424
0.047890
0.108992
0.086976
-0.057923
-0.036820
-0.036358
-0.023251
0.083823
-0.035995
0.011905
-0.015230
-0.010762
0.000228
-0.140245
-0.014649
-0.021917
-0.038434
0.003385
0.002183
0.044324
0.029636
-0.032248
0.006531
0.058622
-0.100191
0.068868
0.010561
0.081622
-0.053801
-0.103444
0.016876
-0.058216
0.060127
-0.001770
0.013630
0.040937
-0.006628
0.057951
0.017581
-0.020547
-0.068056
0.138696
0.098183
0.010058
0.089938
0.106467
-0.019744
-0.011106
0.072616
0.092730
0.013845
-0.005289
0.066581
-0.131261
0.046846
0.047085
0.054640
-0.028826
-0.020461
0.034707
0.016480
-0.062577
0.034900
0.015357
-0.030378
-0.026472
0.000284
0.070717
-0.011435
0.060183
-0.018268
0.076995
0.111650
0.037781
-0.008940
0.042197
-0.051655
-0.085426
0.007501
-0.105228
0.016220
0.004228
0.054928
-0.048374
-0.057671
0.025131
0.041877
-0.084969
-0.008289
-0.023604
-0.052154
-0.055875
-0.170500
0.035037
-0.020800
-0.083778
-0.031985
0.071880
0.006319
-0.033897
0.062292
0.034738
-0.039049
-0.062835
0.083824
-0.024701
-0.050653
-0.076970
0.062983
0.055663
-0.022846
0.060325
0.034216
-0.002580
-0.027334
0.053674
-0.033449
-0.047853
0.016139
0.083542
-0.068378
-0.074681
0.041045
0.062126
-0.038501
-0.004912
0.039218
-0.019035
-0.025799
-0.051441
0.084600
-0.137227
-0.031504
0.011330
-0.034522
-0.019306
-0.054536
0.091470
-0.035575
-0.056968
-0.026576
-0.049055
-0.070678
-0.043836
-0.066622
-0.058377
0.011105
0.004802
0.003283
0.037082
0.101442
-0.025200
0.021068
-0.100167
-0.044634
-0.045991
0.072233
-0.014783
0.030164
-0.022277
0.059928
0.148322
0.046542
-0.013347
0.069088
-0.047193
-0.021342
0.062823
-0.028253
-0.071676
-0.004889
-0.060826
0.071567
-0.069091
-0.118426
0.079689
0.036934
-0.095571
0.093027
0.074602
-0.078851
0.075387
-0.059176
-0.013551
0.061140
0.087737
-0.062525
-0.060166
0.046783
-0.095616
-0.088536
-0.040243
-0.008669
0.019070
-0.097313
-0.133472
0.020704
0.015350
-0.018725
-0.000001
-0.048305
0.026578
-0.041263
0.080833
-0.013922
-0.158848
-0.042446
-0.008802
-0.078109
0.089964
0.011654
-0.019033
-0.030833
-0.034795
-0.000738
-0.026964
0.004866
-0.028122
0.050179
0.016261
0.068486
-0.090528
-0.046101
-0.054836
-0.035120
-0.031156
-0.019143
0.057378
-0.033306
-0.132094
0.053002
0.082888
0.102349
-0.071675
0.033705
-0.034107
0.073458
-0.111939
0.030422
0.030444
-0.041043
-0.034441
0.060709
-0.049118
-0.032279
0.034423
-0.033721
0.015133
-0.028548
0.032444
0.035129
-0.079257
-0.040593
-0.082631
-0.032229
0.042152
-0.003991
-0.124851
0.041604
0.078919
-0.101165
0.011176
0.044311
0.000858
-0.082271
-0.000362
-0.069155
0.029055
0.019696
-0.082541
-0.105189
0.071767
-0.020674
-0.101518
-0.017314
0.049862
-0.042522
0.063565
-0.047356
0.022885
0.038616
-0.006780
0.035875
-0.056514
0.023478
-0.049482
0.047296
-0.042044
-0.012639
0.019922
0.081638
0.045098
-0.087712
-0.028681
-0.005034
0.000642
0.062075
0.022794
-0.055269
0.006877
-0.083346
-0.037356
0.052462
0.017676
0.030474
-0.072037
0.067542
0.052019
0.084615
0.043425
0.054271
0.066095
-0.003812
0.029473
0.004525
0.029788
0.025720
0.036686
-0.060665
-0.018959
0.062845
0.010941
-0.023119
0.042409
0.055023
-0.012631
0.062036
0.037509
-0.006163
-0.024840
-0.058000
0.049071
-0.014150
-0.029543
0.002583
0.123260
-0.023781
-0.069758
-0.017227
0.068182
0.065766
-0.021166
0.000681
0.038697
-0.089378
-0.018574
-0.066324
-0.059182
-0.014437
-0.080153
0.087535
0.027480
0.006105
-0.001631
0.025519
0.098442
-0.019895
-0.014736
0.068716
-0.080882
-0.048715
0.001167
0.029488
-0.009486
0.008420
0.033966
0.023367
0.040892
-0.009100
0.033061
0.038625
-0.060897
0.056895
0.016780
-0.011191
0.074368
-0.015536
-0.031474
-0.066644
-0.079084
-0.027106
0.068996
0.029911
-0.019048
0.020749
-0.053068
0.014302
0.062504
-0.038171
-0.051284
-0.054768
0.002761
0.033235
0.073433
-0.059127
0.075520
-0.026670
0.070387
-0.039069
0.092072
0.049000
-0.012755
-0.033311
-0.070675
0.098813
-0.013492
0.109078
-0.029601
-0.069879
0.006550
-0.003381
0.001513
-0.122396
-0.136281
0.062135
-0.059325
0.005453
0.141492
-0.035033
-0.003093
-0.043246
-0.049639
0.052262
0.071885
0.022005
0.042293
-0.043647
-0.059304
0.002991
-0.178462
-0.077493
-0.046771
0.007008
-0.098319
-0.118344
-0.071592
0.051794
-0.040845
-0.098308
-0.086329
0.013910
-0.011051
-0.027060
-0.019281
-0.077001
0.004370
0.037529
0.066953
0.006288
-0.057706
-0.090837
-0.080321
0.007789
0.011220
-0.035728
0.039671
0.060888
-0.018330
-0.095804
0.046418
-0.059618
-0.124411
0.017532
0.027473
-0.070061
-0.050671
-0.078851
-0.004527
-0.097628
0.017246
-0.013453
0.074870
-0.001799
-0.097933
-0.008893
-0.062648
0.012832
-0.016081
-0.001669
-0.019553
-0.011840
-0.067765
-0.045612
-0.009413
-0.058776
-0.025517
-0.052969
-0.024499
0.034449
0.003617
-0.011366
-0.037959
0.078265
0.040062
0.084336
0.056684
0.060841
0.035285
0.041279
0.041843
-0.050076
-0.107138
0.011877
-0.006898
-0.026493
-0.063836
0.009425
-0.083333
0.070216
-0.117115
0.079279
0.027875
0.013301
0.014780
0.046046
0.060465
-0.068259
0.012976
-0.058403
-0.058725
0.000324
-0.010058
-0.003580
-0.081191
-0.025846
0.028435
-0.008343
-0.005076
0.066438
-0.096314
0.019776
-0.006843
0.016853
-0.105053
0.034676
-0.051929
0.044197
0.003797
-0.045241
-0.003539
-0.033529
-0.002606
0.057880
-0.090844
0.025170
0.049667
0.045405
0.043000
-0.020127
0.010431
0.084078
-0.087118
0.088799
0.002009
-0.071827
-0.114280
-0.011524
-0.013744
-0.008995
-0.059847
0.080798
-0.030582
-0.025395
0.062112
0.093434
-0.016461
0.052640
-0.005080
0.008293
-0.041533
-0.077131
-0.045663
-0.013255
0.008079
0.050875
-0.034187
0.012174
0.052451
0.043507
-0.113580
-0.069840
-0.111597
0.055942
0.032734
-0.028676
0.095118
0.024292
0.105360
0.051733
0.027614
0.032672
-0.034837
-0.104361
-0.087738
-0.078620
-0.000747
-0.129092
-0.039206
-0.013259
-0.042735
-0.052987
-0.013125
0.082587
-0.016444
0.043047
-0.012560
0.100494
0.014910
-0.000498
-0.012173
-0.031652
0.080033
0.010561
0.043644
0.003896
-0.010596
-0.022698
-0.038416
-0.042629
0.047995
-0.067331
-0.055170
0.018902
0.037089
-0.040650
-0.039523
0.015617
-0.008716
0.004124
-0.050143
0.045873
0.011534
-0.006584
-0.053361
-0.041560
0.128020
0.009903
-0.041706
-0.030309
-0.058854
0.056485
-0.003577
-0.022498
0.031989
-0.089957
-0.005668
-0.030801
-0.036871
-0.025635
0.109792
-0.075412
-0.071866
-0.065318
0.073264
0.001309
0.045220
0.015796
0.025454
-0.012669
0.026355
0.085453
-0.084670
0.034880
0.056590
0.038425
0.032010
-0.010191
-0.022576
0.031544
-0.042534
0.009132
-0.031776
0.061481
0.068096
-0.022561
-0.046053
0.026342
-0.101622
-0.033607
-0.048485
0.064262
-0.053403
0.006509
0.055484
0.058561
-0.045346
-0.048066
0.070927
0.010166
0.080692
0.029964
0.036491
0.058009
-0.098531
0.059806
-0.060445
0.001255
-0.030394
-0.035100
-0.089298
0.043243
0.020305
0.059255
-0.054784
-0.082151
-0.037902
-0.004650
0.026068
-0.021575
-0.084051
-0.085180
0.085453
-0.061173
-0.030348
-0.079648
0.031631
-0.004375
-0.016212
-0.084754
-0.007008
0.012328
-0.054479
0.044837
0.022325
-0.025941
0.029279
-0.048847
-0.079931
-0.021587
0.005292
0.043678
-0.056515
0.015088
-0.094643
-0.008110
-0.052545
-0.101183
0.030669
-0.003955
-0.086522
0.033459
0.061643
-0.047112
-0.084841
0.100079
0.051110
-0.008373
-0.066003
0.001591
0.110596
0.035593
0.040911
0.052980
-0.014718
-0.055319
-0.090518
0.066621
-0.094735
-0.020200
-0.086885
-0.052045
-0.064495
0.009941
-0.075751
0.007061
-0.003105
0.047948
0.016731
0.003299
0.042904
-0.047175
0.076096
-0.052607
0.035781
0.091062
0.012447
-0.089290
0.009306
-0.043264
-0.063268
0.050179
0.028901
-0.068591
0.014846
0.012916
-0.051501
0.019443
-0.087178
-0.053644
-0.048803
-0.052411
0.031409
0.006073
0.053262
-0.042645
-0.004533
0.051957
-0.026282
0.090297
0.100793
-0.067016
-0.012711
0.083523
-0.040128
0.035520
-0.046537
0.043338
0.037764
0.033928
0.046654
-0.003759
-0.001784
-0.054882
-0.078208
0.057134
-0.064256
0.085632
0.020879
-0.031971
-0.087354
-0.052135
0.068388
0.042998
0.037337
-0.100168
0.017867
0.060248
0.041692
-0.013908
0.113254
-0.118130
-0.065627
-0.038599
0.021422
-0.007444
-0.058960
-0.055000
0.063568
0.003472
-0.027732
-0.031656
0.144002
-0.022643
0.075752
0.023042
-0.029270
0.056435
-0.017816
-0.047765
-0.068890
-0.009122
0.025974
-0.100156
0.108716
0.065565
0.058998
0.056753
0.081911
0.025587
0.071557
0.083056
-0.022301
-0.066960
-0.084228
0.026231
0.001900
-0.002465
0.058838
-0.000351
0.075101
-0.100922
0.102161
0.000445
-0.000292
-0.058572
-0.018297
-0.018592
-0.026460
-0.103810
0.021862
0.008816
-0.003295
0.019319
0.013299
0.018696
-0.006571
0.026303
0.054650
0.000300
0.012807
0.067668
0.110115
0.065135
0.000799
0.082231
0.085372
0.020556
-0.022599
0.059161
-0.044152
-0.017900
0.049262
-0.069065
-0.045531
0.004929
-0.067797
-0.035437
-0.055287
-0.009580
-0.079649
-0.018621
0.032478
-0.105948
0.035689
0.026764
-0.008147
-0.002394
0.017143
-0.076383
-0.035016
-0.163007
0.037930
-0.005825
-0.063863
0.122489
-0.089330
0.009479
0.080695
0.003400
-0.086000
0.029693
-0.034651
-0.022146
-0.062831
0.043039
-0.006260
0.059512
-0.136538
-0.018365
-0.102884
0.071904
0.002517
0.090811
0.011286
0.086797
-0.021378
0.052525
0.102670
0.006759
-0.015822
-0.020328
0.011248
-0.034529
0.092963
0.045149
-0.017683
-0.099230
0.004028
0.051096
-0.015960
-0.094798
-0.067906
-0.042570
-0.052323
0.063376
0.022290
0.004460
-0.061218
0.089291
-0.041177
0.108868
0.019043
-0.045066
0.053725
0.046662
0.015678
0.000620
0.013993
0.015249
-0.113337
-0.072279
0.046564
-0.008496
0.080897
-0.038743
-0.110844
-0.070040
-0.051003
0.059072
-0.077204
0.001604
-0.024381
-0.049397
-0.074614
0.012655
-0.087871
-0.070481
-0.072586
-0.051712
-0.004857
0.088492
-0.097356
-0.006071
0.108107
-0.101393
0.083520
-0.014213
-0.017550
0.068455
-0.046042
0.040938
0.079402
0.053755
-0.084776
-0.089673
-0.098380
0.075044
-0.008999
0.092689
-0.112957
0.039316
-0.013178
0.067451
-0.063050
-0.099131
0.125468
-0.057852
-0.084478
-0.017723
-0.102722
0.053769
-0.058332
-0.045476
-0.134017
-0.031790
-0.025913
-0.021515
0.103732
-0.087856
0.008952
-0.111334
-0.096507
-0.068253
0.047946
0.054838
-0.042731
0.069544
-0.069715
-0.022332
0.034126
-0.011508
0.027103
-0.063847
-0.010842
0.025612
-0.008957
-0.026833
0.000237
0.057901
-0.034258
0.053113
-0.034633
-0.009855
0.019473
-0.066021
-0.021017
-0.003441
0.021212
-0.009596
0.085993
0.018601
0.052013
-0.012695
-0.068857
-0.009027
0.085472
-0.047575
0.010879
-0.115825
-0.038097
0.014049
0.049748
0.034490
0.016137
-0.053207
0.070888
-0.103771
0.019989
0.066145
-0.052905
0.006318
-0.023294
-0.017226
-0.005966
-0.019634
-0.073115
-0.008580
-0.002432
0.047066
-0.073610
-0.026355
-0.042377
-0.030913
-0.055859
0.105582
0.054175
0.070782
-0.041429
-0.066111
-0.018492
0.061560
-0.074264
-0.051857
0.036166
-0.041206
0.018963
-0.039274
0.018564
-0.119211
0.000223
0.057223
-0.023394
-0.071278
-0.030222
0.056155
0.063140
-0.035508
-0.068469
-0.013922
0.058455
-0.006030
0.081250
-0.006819
-0.031516
-0.014886
0.021039
-0.043636
-0.107477
-0.091863
0.078898
0.007841
-0.120263
-0.067141
0.054055
-0.009744
-0.034257
-0.031567
0.011011
0.068216
0.004242
0.059754
-0.101909
-0.050853
-0.034096
0.060595
-0.001641
0.024975
0.143268
-0.019046
0.011250
0.038278
-0.064716
0.025908
0.053263
-0.009450
0.028509
-0.066003
-0.071171
-0.066572
-0.019229
-0.057086
0.002177
0.043676
0.014974
-0.026412
0.047452
-0.078552
-0.025175
-0.103667
0.128057
-0.049548
0.033345
-0.024836
-0.054157
-0.005564
-0.068366
0.017650
-0.046869
0.061668
0.008432
0.024234
-0.015409
0.050059
0.029499
-0.066349
0.047266
-0.039328
-0.064009
-0.020325
-0.060864
-0.005764
0.089154
-0.026041
0.100737
-0.039999
0.046308
0.011333
0.114983
0.013538
0.050272
0.067985
0.024451
0.047340
0.049441
0.026178
-0.021723
0.014440
0.018283
-0.050401
0.003933
-0.008770
0.074416
-0.033732
0.039503
-0.086537
-0.039499
-0.045435
-0.012070
0.133173
0.012308
0.026673
-0.044884
-0.086162
0.011799
-0.149118
0.015347
-0.046073
-0.038030
0.019666
0.032587
-0.075281
0.070937
0.121563
0.013881
0.027649
0.007669
0.036757
-0.035244
-0.012806
0.048155
0.062836
-0.047713
0.043759
-0.088616
-0.022233
-0.015132
-0.061035
-0.025252
-0.022581
0.076235
0.050116
0.083276
-0.066143
0.032452
0.008948
0.027087
0.023295
-0.010852
0.037258
0.038215
-0.050152
0.073453
0.013399
-0.032491
0.013999
0.040744
0.038030
-0.072369
-0.050272
-0.020784
-0.077924
-0.094526
-0.018962
-0.046367
-0.102381
0.052008
-0.016027
-0.079628
0.011629
-0.022010
-0.049376
-0.087997
-0.001571
0.067250
-0.068431
-0.008736
0.009653
-0.040866
-0.046819
0.122643
0.022197
-0.120452
-0.064021
0.123120
0.034663
-0.010933
-0.008901
0.008041
-0.008129
0.002539
0.073233
0.042569
-0.050340
0.004860
-0.061253
-0.072492
0.105632
-0.020395
-0.013005
0.005610
-0.027175
-0.037584
-0.008804
-0.113593
0.020253
0.020130
0.109590
-0.062757
0.068099
0.032860
0.089595
-0.099066
0.061617
0.032346
0.000598
0.054002
-0.068282
-0.076286
-0.003608
-0.028436
0.043973
0.120356
-0.081925
0.015570
-0.025086
-0.071454
-0.034251
-0.051472
0.021222
0.061662
0.013598
-0.048885
0.000543
0.068181
0.033640
-0.023955
0.020320
-0.010067
-0.072473
0.095107
0.114626
0.020381
0.089753
-0.006128
-0.004128
0.004396
-0.010856
0.023770
-0.000186
-0.060700
-0.022388
-0.053143
-0.016548
0.072712
-0.039811
0.047934
0.036052
0.012292
-0.086111
0.086533
0.055616
-0.026152
0.033206
-0.080906
0.083533
0.010126
0.017958
0.011676
0.070457
-0.091181
-0.032163
-0.018303
0.042892
-0.073099
-0.064023
0.083549
0.023571
-0.081683
-0.001817
-0.029564
-0.018893
-0.072177
-0.049379
-0.010744
0.078593
-0.005341
-0.042444
-0.015781
0.028519
-0.025081
0.082824
0.042193
-0.024446
-0.056342
-0.032868
0.080891
0.008981
-0.077375
-0.072270
0.017649
0.059638
-0.029321
0.007498
0.058525
0.035720
-0.048353
-0.016516
0.055902
-0.014605
0.054633
-0.062346
-0.021518
0.070572
-0.029727
-0.023733
-0.025176
0.074338
-0.006787
-0.010871
-0.017972
0.008760
-0.033834
0.032545
0.028571
-0.076140
0.108436
-0.024285
-0.092241
-0.029662
-0.027515
0.059158
0.031338
0.006773
0.051594
0.013650
-0.053569
0.110963
0.048430
-0.049054
0.038491
-0.006289
0.013897
0.064572
-0.088245
-0.015952
-0.028424
-0.021015
0.120606
0.115301
-0.035613
0.071436
-0.071017
0.001365
0.086541
0.045582
0.024807
0.056746
-0.017884
-0.060781
0.022286
0.008595
-0.059654
0.046080
-0.064665
-0.101940
0.052070
0.033006
-0.011938
0.095408
-0.017577
0.038444
0.096502
0.006165
-0.020082
0.005151
-0.014925
0.019253
0.000428
-0.016361
-0.032037
-0.055063
-0.004334
0.013901
-0.022429
-0.029838
-0.042875
-0.155778
0.069619
-0.071473
0.050738
0.042253
-0.045387
-0.030580
0.029441
-0.016510
-0.029781
-0.041371
-0.059969
0.013144
0.021613
0.085768
0.129508
-0.088069
0.035060
-0.050989
0.065790
-0.055191
-0.045293
0.023227
-0.095876
0.015553
0.161337
0.014037
-0.032751
0.118982
-0.092377
-0.049828
-0.008556
0.068550
0.064122
0.044156
0.064838
-0.128513
0.080821
-0.044468
-0.055306
0.022755
0.020195
0.079113
-0.054407
0.009252
0.015016
-0.037606
0.004502
0.008100
-0.070578
0.039589
0.115333
-0.107367
0.071577
0.075139
0.011366
-0.084369
0.014677
0.017493
-0.056063
-0.069779
0.055906
0.067031
0.072628
-0.068556
-0.024084
-0.069556
-0.087708
0.002056
0.092964
0.106679
-0.037830
0.059598
0.010596
0.037770
-0.056292
0.051647
-0.016325
0.027172
-0.031193
0.052363
0.083168
-0.034367
0.064030
-0.076708
-0.075937
-0.017913
-0.111695
0.030197
-0.002115
0.026095
-0.108041
0.001660
-0.010919
-0.063817
-0.065329
0.014121
-0.016945
-0.004188
-0.114282
0.051219
-0.032453
0.044517
-0.135730
-0.033562
-0.067048
0.063197
-0.044058
0.025883
0.049613
-0.010698
-0.002473
0.032155
0.006064
-0.065079
-0.034187
0.024074
-0.098234
-0.011067
0.056301
0.027259
-0.033363
0.124829
-0.087637
-0.017834
0.041067
-0.103732
-0.047288
-0.122370
0.051097
0.004904
-0.022201
0.026382
-0.059493
-0.042978
-0.045619
0.021850
-0.053763
-0.053083
-0.083902
0.054147
-0.109275
0.118626
-0.044881
-0.022189
-0.094544
-0.026973
-0.141031
-0.040172
0.017166
-0.062447
-0.058285
-0.027988
0.080830
0.048572
-0.098064
0.024362
-0.133561
-0.116571
0.021644
-0.028716
0.017334
0.041830
-0.029157
-0.013957
-0.012428
0.066839
-0.040976
-0.064684
0.015059
-0.015968
-0.000752
-0.082275
-0.009737
0.003510
-0.021315
-0.034377
0.084452
-0.033619
0.037475
-0.033178
0.054181
-0.004905
-0.083621
-0.045048
0.114328
0.026344
0.039854
-0.035799
0.021089
0.069454
-0.002269
0.006162
-0.047512
-0.021694
-0.074130
0.086890
-0.034949
-0.029804
-0.083702
-0.041921
0.021492
0.059651
0.071039
-0.039054
-0.000968
-0.069744
0.058142
0.019349
0.102644
0.037417
0.023465
-0.072860
0.089272
-0.032614
0.068425
-0.025014
0.045101
0.028290
0.011798
0.042605
-0.030104
0.081505
-0.076535
0.071989
-0.045686
-0.027999
0.093956
0.012718
0.065491
-0.026059
-0.061638
0.075605
-0.005184
-0.029298
0.047593
0.119572
0.014513
0.032145
0.138547
0.027625
-0.047824
-0.060294
-0.071559
-0.021675
0.030144
-0.018600
0.107732
0.033236
-0.115866
-0.040093
0.009498
-0.023282
-0.004635
-0.011005
-0.024964
-0.033432
-0.011373
0.010471
-0.149013
-0.063931
0.000661
0.033783
-0.036017
0.002751
-0.049547
0.033248
-0.050192
0.043541
-0.033775
0.035822
-0.073870
-0.012492
-0.064278
0.054321
0.021093
-0.059603
-0.023546
-0.094377
-0.029023
0.003994
-0.011507
-0.082292
-0.116133
-0.097812
-0.015891
-0.031569
0.072390
0.011915
-0.109269
-0.031600
0.034998
-0.124454
0.023298
0.066740
-0.080855
0.027245
0.086909
-0.074153
0.061976
0.013115
-0.026843
-0.008752
0.021323
0.019692
-0.011116
0.073287
0.076605
-0.017410
-0.001046
-0.089484
-0.062402
-0.017270
-0.025286
-0.033330
0.016674
0.064204
0.074361
0.039372
0.063036
0.071924
0.009671
-0.014035
-0.089463
-0.050656
0.050388
-0.024475
-0.000115
-0.038339
-0.009255
-0.056055
0.039049
-0.068323
-0.073529
-0.021316
0.081239
-0.031476
0.052138
0.053590
-0.069711
-0.096819
-0.047856
-0.037836
-0.128486
0.020937
-0.009599
0.016369
0.096831
-0.019464
-0.028623
-0.040120
-0.015844
-0.093119
-0.045104
-0.000807
-0.019378
0.021132
-0.045263
-0.018603
-0.099111
-0.102302
0.037582
0.071843
0.048685
-0.011760
0.000556
0.044324
0.062094
0.039395
0.023135
0.109621
-0.042415
0.035495
0.004231
0.088397
0.130619
0.087929
0.074699
0.056611
0.026504
0.053307
0.034376
-0.021406
-0.006350
-0.005617
0.087270
0.111835
0.122315
-0.055042
0.000236
-0.023350
-0.041228
-0.059573
-0.029782
0.106101
0.012526
-0.040484
-0.029450
0.082587
0.050681
0.029497
-0.052342
0.013589
0.128061
0.041122
0.019004
-0.037962
0.007880
0.050537
0.088913
-0.026002
0.104898
-0.013694
-0.047468
0.040385
0.003262
0.069782
0.042019
-0.031146
-0.077109
-0.047121
0.033833
0.031073
-0.019588
-0.035502
-0.028048
-0.002518
0.037708
0.117980
-0.094486
-0.001558
-0.000756
0.059989
-0.022902
-0.016362
-0.039744
0.050489
-0.033858
-0.054142
0.018793
-0.091274
0.057154
0.062860
0.008928
0.043634
0.021183
-0.021308
-0.025014
-0.030569
0.085038
-0.030388
0.037333
0.048208
0.086129
-0.008282
-0.019198
0.031776
-0.082714
0.038625
-0.027009
0.071694
-0.028062
0.041056
0.013223
-0.035016
-0.030778
-0.022701
0.023503
0.037943
0.001938
-0.077730
0.101987
-0.026934
-0.033714
0.065110
0.056731
0.023517
-0.155478
-0.033074
-0.022514
-0.026049
0.122889
0.006601
0.074051
-0.077818
-0.038715
-0.022192
-0.027529
0.098035
0.050772
-0.000726
0.034529
-0.044142
0.000745
0.060662
0.109406
-0.033348
-0.077193
0.048588
-0.072081
0.052864
-0.049661
-0.038490
0.011118
0.030623
0.009340
-0.018302
0.048245
0.104553
-0.121197
-0.073112
-0.027869
0.015536
-0.089927
0.062403
-0.090577
0.066376
0.064558
0.048033
0.001100
-0.083055
-0.041849
-0.009557
0.040719
0.032248
0.069445
-0.049127
-0.055821
0.028183
0.051418
-0.018454
-0.106654
-0.064619
0.017015
-0.104425
-0.034957
-0.007523
-0.123612
0.035695
0.057529
-0.101999
0.005803
-0.008255
0.090131
-0.072060
-0.058979
-0.101242
-0.014568
0.027874
-0.070734
-0.041223
-0.062124
-0.027409
-0.029028
-0.037127
-0.034011
-0.051373
-0.012054
0.013009
0.036052
0.046079
0.038218
-0.036380
-0.028287
-0.030095
0.006123
0.011718
0.028190
0.008914
0.019477
-0.063636
-0.050745
-0.036498
0.070719
-0.058481
-0.011386
0.041771
0.042555
-0.010335
-0.040632
-0.047026
-0.016197
0.047710
-0.074855
0.037439
-0.011310
0.038964
0.070585
0.016370
-0.013524
0.005360
-0.004391
-0.059986
0.066092
-0.013343
-0.008446
0.062969
-0.027019
-0.042061
-0.070962
0.020917
-0.014245
-0.049240
0.053678
0.065178
-0.105423
-0.015459
-0.013050
0.073012
0.041518
-0.101441
-0.010827
-0.037263
0.035521
0.046240
-0.033196
-0.107808
0.008122
-0.033939
0.017375
-0.114441
0.079967
-0.027492
-0.047486
0.028452
0.027951
0.089092
-0.059325
-0.095717
0.055158
0.045805
0.014002
0.033297
-0.026784
0.025503
-0.058110
0.082019
-0.045342
-0.065581
0.047689
-0.076543
0.055883
0.016342
0.010452
0.018656
-0.015772
-0.005550
-0.141089
0.100843
-0.069205
-0.015722
-0.094951
-0.039037
-0.116136
0.043642
-0.050225
-0.049177
-0.058125
0.109491
0.026053
-0.037042
-0.045722
-0.009935
-0.001971
0.051386
-0.035587
0.009379
0.040264
0.109365
-0.022194
0.007049
-0.006409
-0.023569
0.009984
-0.051570
-0.048746
-0.045767
0.079550
-0.019877
-0.029338
-0.107199
-0.071003
-0.033066
-0.037163
-0.024692
-0.013288
-0.007823
-0.020650
-0.010105
-0.107781
0.114176
-0.008485
-0.093996
0.027204
0.039819
-0.086977
0.003056
-0.050231
-0.085485
-0.093170
-0.044161
0.032685
-0.037371
0.062999
-0.014094
-0.042084
-0.027266
-0.038073
0.103483
0.030193
0.016292
-0.009040
-0.082729
-0.069394
-0.054398
-0.036154
0.051970
-0.043348
-0.004647
0.021118
0.048975
0.013830
0.032361
0.050517
-0.080503
0.048079
-0.019882
-0.052092
-0.043751
-0.024618
-0.057692
0.032176
-0.025711
0.117311
0.055869
0.036491
-0.032344
-0.003352
0.017283
-0.021067
0.047501
-0.088367
-0.020177
-0.079996
0.002946
-0.029847
0.021370
-0.019075
0.073454
0.051563
-0.016094
-0.028817
0.038748
-0.118536
0.040053
-0.091104
0.054935
-0.042781
-0.016296
0.116629
-0.000667
-0.039453
-0.006879
-0.046475
-0.031692
-0.019449
0.105830
0.069080
0.001411
-0.090303
-0.093277
-0.034729
-0.055146
0.044050
-0.015075
-0.069628
-0.078523
-0.110838
0.003419
-0.064623
-0.003126
-0.045509
-0.091356
0.046490
0.072355
0.024970
-0.020515
0.037569
0.049304
-0.028164
-0.083597
0.002321
-0.030276
-0.000575
0.022626
0.044999
-0.059341
-0.005844
-0.007590
-0.004151
0.077206
-0.061212
-0.008357
-0.090662
-0.142105
-0.059285
0.054140
0.132185
-0.067851
0.044267
0.014086
0.033852
-0.023765
-0.049544
-0.031023
-0.066449
-0.022875
0.046148
0.014154
-0.010877
-0.080241
0.032017
0.003197
-0.044134
-0.061547
-0.062753
0.010943
-0.012110
-0.004107
-0.101538
-0.047035
0.045682
0.033524
-0.070581
-0.033590
0.044320
-0.028916
-0.038000
-0.043915
0.083139
0.019439
0.017871
0.047336
0.030615
0.107811
-0.079246
-0.009111
-0.005171
-0.140169
-0.030186
0.087615
0.055629
0.059484
-0.009790
-0.062504
-0.091505
-0.054405
-0.074290
0.059829
0.045374
-0.067345
0.013383
-0.064775
0.039352
-0.076918
-0.033778
0.095788
-0.001855
-0.004333
-0.037153
0.023092
0.029567
0.038601
-0.004689
0.018387
-0.016077
-0.013805
-0.066907
-0.056546
0.075306
-0.038731
-0.073167
-0.021608
0.014095
0.015501
0.071517
0.020354
-0.021192
0.034179
0.022842
-0.024620
-0.012407
0.048891
0.083842
-0.075099
-0.048682
0.006947
-0.045719
0.030032
-0.118533
-0.043069
-0.027941
0.068632
-0.054390
0.079762
-0.135490
0.020767
-0.031704
0.030055
0.007716
-0.052246
-0.119780
0.002253
-0.020944
0.064100
-0.063414
0.003741
-0.038813
0.001913
-0.045445
0.034620
-0.065611
0.058230
-0.005371
0.052579
0.003580
-0.044818
-0.005177
0.044746
0.081623
-0.031689
-0.120340
-0.113734
-0.055543
-0.064590
0.048474
-0.090090
0.090675
-0.023307
0.029093
-0.061314
-0.055631
-0.060109
-0.009987
-0.042123
-0.086275
0.057662
0.113099
0.013296
0.003121
0.065123
-0.002308
0.047889
0.007953
0.019253
-0.091965
-0.038111
-0.109819
-0.013787
-0.024717
0.107374
0.098373
-0.105217
-0.029537
-0.101211
0.083741
0.071690
0.029497
0.061451
-0.026751
-0.026970
0.051849
-0.100425
0.065454
-0.014833
-0.030431
0.010999
0.054084
0.010825
-0.027289
0.019163
0.080273
-0.017789
0.016988
-0.072511
-0.068394
-0.080396
0.022042
0.008168
0.074889
-0.052489
-0.022247
0.039853
-0.043634
-0.004089
0.041297
0.035043
0.039985
0.032249
-0.046110
-0.053549
-0.008996
-0.058415
-0.048004
0.010181
-0.108447
-0.008686
0.002882
0.011474
-0.012469
-0.041820
0.035131
-0.003956
0.028156
-0.117644
-0.003466
-0.014701
0.087973
-0.036403
0.037066
0.019014
-0.102846
-0.027094
-0.032461
0.011403
-0.108640
0.006491
-0.029802
0.061304
0.023185
0.057159
-0.002043
-0.031828
0.077491
0.003762
0.051136
0.001185
-0.051627
0.056374
0.014167
0.079764
0.001797
0.049418
-0.111853
-0.055593
-0.043416
-0.032521
0.003676
0.070578
-0.033346
0.022475
-0.034213
0.068753
0.002604
-0.107384
-0.014920
0.088605
0.014321
0.010581
0.099817
0.022184
0.022545
-0.068037
-0.041198
-0.063485
0.020339
-0.039991
-0.023369
-0.113107
-0.022530
-0.040711
-0.077984
-0.054967
-0.126524
0.001683
-0.001559
0.035562
-0.006391
-0.041185
-0.080659
-0.080446
-0.002569
-0.025608
-0.011173
-0.064983
0.177698
-0.051640
0.080420
0.085003
-0.015480
-0.071146
-0.112618
0.061879
-0.023748
0.006585
-0.017116
-0.061249
0.061943
-0.034751
-0.095085
0.000044
0.019858
0.047999
-0.101462
-0.061131
-0.029996
-0.019539
0.076175
-0.107599
-0.068317
0.050810
-0.059193
-0.056703
-0.061801
-0.018407
0.008200
0.129947
0.009827
-0.060299
0.055563
-0.079207
-0.074508
0.051142
-0.063126
-0.012798
-0.015410
-0.027764
-0.045074
-0.043806
0.081999
0.010760
0.139385
-0.144908
-0.001336
0.000115
-0.032028
-0.091598
-0.087699
0.002072
0.048780
0.040835
-0.089236
0.011461
0.010173
0.053688
-0.048188
0.126935
0.020539
0.007801
0.072252
-0.020274
0.029544
-0.016570
0.096768
-0.005694
-0.046821
0.040228
0.041186
0.002162
-0.005058
0.099133
-0.108000
-0.055352
0.073809
-0.029708
-0.073655
-0.054215
0.012531
0.045224
-0.032209
-0.091018
-0.033104
-0.016610
-0.026974
0.003483
-0.042404
-0.054554
-0.047111
0.027110
-0.159877
-0.040500
0.029049
0.011737
-0.026951
0.021714
0.081365
0.073500
-0.033913
-0.016859
-0.035336
-0.018743
0.009988
0.004664
0.006478
-0.112631
-0.003608
0.023392
0.053961
0.045936
-0.053347
-0.031336
-0.026523
0.065398
-0.088690
0.038958
0.064964
-0.033977
-0.005260
-0.008697
-0.018013
0.061911
0.025267
0.064267
-0.052467
0.097096
0.111447
0.089585
-0.047202
0.021071
-0.064715
0.007748
0.012108
0.021496
-0.071966
0.017399
-0.071751
0.090296
-0.017896
0.087277
-0.099809
-0.054868
-0.015588
0.022426
0.038499
0.016378
-0.056419
-0.058793
0.082363
0.002076
-0.031181
-0.028688
-0.099397
-0.085719
0.035436
-0.007256
-0.024716
-0.093406
-0.021969
-0.052937
0.030756
0.023689
0.079802
-0.057193
0.003800
0.063461
0.063444
0.016993
0.007267
0.128138
0.089521
-0.003177
0.107298
-0.013177
-0.002623
0.021864
0.002121
0.032866
-0.057201
0.046283
-0.003388
-0.077943
0.059262
0.021794
0.065929
0.148488
-0.005455
-0.025227
0.128114
0.028169
0.100440
-0.008165
0.026510
0.076626
-0.043647
-0.000622
-0.025253
-0.068261
-0.025715
-0.081409
0.043134
-0.075771
0.023563
-0.048281
-0.009949
-0.002036
-0.029695
-0.025168
-0.019889
0.061131
0.133088
0.024450
-0.070858
0.017547
0.097364
0.067884
0.088723
-0.011986
-0.013226
-0.045283
-0.033115
0.007837
-0.023996
-0.040481
0.013419
-0.041003
0.052925
-0.132426
0.081951
0.005640
-0.026846
-0.071872
0.031176
0.112280
0.036688
0.114414
-0.036023
0.085666
-0.003497
-0.032588
-0.066912
0.092973
0.021796
-0.050743
-0.069793
-0.083305
-0.088316
-0.055597
0.109428
-0.063408
-0.057456
-0.014852
-0.009534
-0.117405
0.064367
0.073461
0.070095
0.059546
-0.045297
-0.031629
0.035737
0.023870
-0.086864
0.073050
-0.065153
-0.068295
0.035830
-0.056963
0.047085
0.063218
-0.114061
-0.028519
-0.024857
-0.025919
-0.053716
0.005183
0.073428
0.026870
0.054966
0.014669
-0.040676
0.013730
-0.106641
-0.005018
0.094380
-0.067979
-0.079662
0.008626
0.009552
-0.040151
0.039904
-0.055459
0.050369
0.083663
0.092777
-0.112043
-0.065186
0.102288
0.033197
-0.091450
0.007221
-0.006707
-0.102428
0.056401
-0.062977
-0.036319
0.066337
0.079986
0.025577
-0.086711
-0.054362
-0.009704
-0.036841
0.005440
-0.044152
0.021780
0.000833
0.012775
0.014730
-0.063622
0.033655
-0.110707
-0.044651
0.030663
-0.019353
-0.011139
0.026049
-0.008518
-0.079036
-0.086586
0.048963
0.000092
-0.028541
-0.081414
-0.040952
-0.050616
0.003889
-0.042368
-0.099272
0.013057
-0.098598
0.004416
-0.015982
-0.047156
0.086939
-0.018387
-0.010636
-0.088667
-0.091520
-0.008184
-0.079743
-0.008681
0.039710
0.093220
-0.025324
-0.059160
-0.086054
0.070095
-0.035012
0.022114
-0.003469
-0.041674
0.014219
0.037529
-0.008629
0.065186
0.015229
0.082428
0.041955
0.063928
0.031789
-0.107306
0.057208
0.005117
0.110003
0.108031
0.053967
0.029652
-0.073625
0.010368
0.017940
-0.034075
0.010523
0.026853
0.117840
-0.005400
-0.035976
-0.074773
0.060285
0.016801
-0.004479
0.024427
0.087563
0.070292
-0.043756
0.014657
0.055287
0.054670
-0.001616
0.007003
-0.002329
0.019052
0.071771
0.034056
0.047807
-0.014723
0.001942
-0.007547
-0.004797
-0.068833
0.057983
-0.091919
-0.039184
0.034744
-0.009798
0.022794
-0.026863
-0.041227
0.042829
-0.075659
-0.012456
0.023112
-0.040807
0.025400
-0.072445
0.143040
0.054325
0.100964
0.049526
0.106562
0.021119
0.018345
0.088290
-0.103768
-0.049142
0.024652
0.033732
0.013978
0.059996
0.035664
0.113204
0.020489
-0.025086
0.121369
0.055693
0.025495
0.027420
-0.004907
-0.040035
0.049797
0.043535
-0.090631
0.044131
-0.068180
0.055457
-0.079120
-0.056128
0.020050
-0.002340
-0.059759
0.004495
0.055593
-0.055300
0.029803
-0.067295
0.013054
-0.052328
0.110741
0.036151
-0.131894
0.026548
0.031841
-0.045510
-0.014767
0.083158
0.002509
-0.074397
-0.043419
0.068941
0.082422
-0.028467
-0.075090
0.105195
0.020623
-0.020385
0.024375
0.068652
-0.000907
-0.013425
0.117739
-0.033989
0.008937
-0.032443
-0.023258
-0.002470
0.077577
0.040557
-0.010663
0.063753
0.053365
-0.054098
-0.085354
-0.096317
-0.028765
0.063743
-0.009918
-0.035620
-0.003581
0.006549
-0.016883
0.033679
0.079861
0.083017
-0.031589
0.006061
-0.035419
0.058468
-0.087993
-0.089061
-0.034959
-0.045196
-0.105141
-0.000552
-0.001720
-0.058732
0.008186
-0.074315
-0.061849
0.076847
0.002311
0.046393
-0.022939
-0.043068
-0.046588
0.070579
0.018368
0.124503
-0.009154
0.037638
-0.017678
-0.110881
0.115800
-0.083736
-0.072552
-0.053107
0.025321
0.037203
-0.068393
-0.050975
-0.077291
-0.020092
-0.019386
0.083061
0.029892
0.107457
0.095297
0.038237
0.008465
0.117483
0.053292
-0.040104
-0.000995
-0.022550
-0.037870
0.002238
0.078875
0.004757
-0.046279
0.048884
-0.030314
0.060828
-0.049678
-0.113163
-0.005376
0.018259
-0.007543
-0.109637
0.022191
0.022286
0.030807
0.047356
0.056279
-0.030572
0.036835
-0.134488
-0.078662
0.030921
0.034975
-0.011094
0.035945
0.036727
0.052246
-0.110156
0.010972
-0.078915
0.029935
-0.060059
0.018658
-0.079564
0.030631
-0.086297
0.057254
-0.070814
-0.022356
-0.067391
-0.103693
-0.050015
-0.040037
-0.035128
-0.051674
-0.014751
0.014518
-0.108941
-0.066155
-0.023466
-0.064193
0.005337
-0.006703
0.029532
-0.050543
-0.063822
-0.075727
-0.060064
0.102311
0.066921
-0.054538
-0.027064
-0.088474
0.000115
0.002749
-0.011902
-0.001221
0.021692
0.098819
-0.022977
-0.018440
0.011919
0.040721
-0.050610
-0.064439
-0.015820
-0.046918
0.057133
0.031545
-0.039293
0.003296
-0.099405
0.019472
-0.066132
-0.049097
0.016016
0.051602
0.002240
-0.055288
-0.099884
0.031433
-0.044094
0.062534
-0.080139
0.032617
-0.064848
-0.070936
0.001884
-0.051104
-0.004183
0.059209
-0.031982
-0.051986
-0.025285
-0.064605
0.079111
0.049406
0.103614
0.007175
0.028164
0.020341
-0.029351
-0.032783
-0.088611
0.059599
0.067475
-0.017703
0.074435
0.008007
0.028694
0.018577
0.064816
0.064593
0.017312
0.049784
-0.017830
-0.092445
0.006629
0.009810
-0.042052
-0.074136
-0.012764
-0.047911
-0.027298
0.042928
0.040148
-0.011316
-0.087173
0.038487
0.094134
-0.092401
0.009566
-0.079024
0.032905
-0.038585
0.070558
0.010025
0.098347
-0.080355
-0.070610
-0.087714
0.038163
-0.062860
0.054864
0.064843
-0.030741
-0.099885
0.030270
0.051312
0.033570
0.035470
0.007151
0.055299
0.011078
0.070072
0.010369
0.020935
-0.009294
0.043439
-0.067410
-0.040607
0.054921
0.037654
0.035627
-0.036756
0.032048
0.017258
0.029290
-0.049109
0.055550
-0.002023
0.089162
0.012556
-0.075938
0.066011
-0.068599
0.024929
0.068523
0.036222
-0.107803
-0.054369
0.014621
-0.044908
0.063843
-0.052721
-0.085459
-0.049426
0.057145
0.102139
-0.046632
-0.048620
0.042677
0.004406
-0.060681
-0.000034
0.025974
-0.068959
-0.066793
-0.013688
-0.019659
-0.037420
0.044486
0.045958
-0.105902
-0.096972
-0.053887
-0.042826
-0.027581
0.035617
0.022264
-0.028064
-0.074346
-0.027703
-0.020178
-0.063311
-0.113310
0.002098
-0.013839
0.036208
0.086418
0.013264
-0.029223
0.035452
-0.034629
0.032987
-0.102441
-0.033487
-0.031173
-0.038943
-0.063200
0.023158
-0.034047
-0.090955
0.131642
-0.058582
0.015367
0.043632
0.010677
-0.064784
0.021749
-0.086217
0.068265
0.089294
0.045333
-0.045026
-0.088425
0.098344
0.010368
0.012744
-0.003477
-0.053908
-0.028734
0.012114
-0.030471
0.050920
0.096112
0.048566
0.082577
-0.021885
0.036969
-0.073892
-0.002634
-0.056851
-0.043591
-0.018974
-0.016850
0.003053
0.004323
-0.079305
0.041837
0.005571
0.035299
0.061422
0.009114
0.029259
0.012023
0.051348
0.064223
-0.050574
0.031721
0.028228
-0.020465
-0.040171
0.035943
0.023889
0.037403
0.005628
0.114620
0.024020
-0.082307
-0.020180
-0.013006
0.030849
0.051910
-0.018633
0.040082
-0.022642
-0.020495
-0.017877
-0.018830
-0.033457
0.070867
-0.024028
-0.014304
0.002489
0.051753
0.021642
0.022326
0.045760
0.053787
0.038094
-0.041674
0.047367
-0.018536
0.089213
0.021089
0.077700
0.035486
-0.011039
0.071165
0.036541
-0.081525
0.075519
-0.014739
-0.051219
-0.013473
-0.026923
-0.013480
0.079618
0.004476
0.014041
-0.070089
-0.011000
-0.065263
0.042097
0.012763
-0.033473
0.065558
-0.072005
0.012389
-0.034333
-0.072787
0.022068
0.018983
0.099569
0.009883
-0.067294
-0.076366
-0.034422
-0.073283
-0.012467
0.016939
0.035958
-0.011872
-0.097436
-0.141175
0.035295
0.029389
-0.028281
0.034065
0.048860
0.005884
-0.039495
-0.015658
-0.010324
-0.021991
-0.019130
-0.022108
-0.002787
0.044091
-0.019179
-0.040058
-0.015893
-0.021882
0.030707
-0.062989
-0.009956
-0.069584
-0.010644
0.041365
-0.030479
-0.051413
0.036221
0.069399
-0.073198
-0.063438
-0.042832
0.065143
0.076891
0.063745
-0.045653
0.002121
-0.009818
-0.071601
0.078571
0.036395
0.023445
-0.078532
0.014280
0.057769
-0.024218
-0.084758
-0.025021
0.045541
0.068860
0.113655
-0.000408
-0.062322
0.035621
0.159313
0.079941
-0.027218
0.023245
-0.110384
0.035805
-0.054317
-0.040014
0.024672
-0.070040
0.072027
-0.029552
-0.015111
-0.120147
-0.067813
0.077769
-0.029566
0.017176
0.004974
-0.014962
0.045356
0.008963
0.079412
-0.015197
-0.016452
-0.059894
-0.087165
0.001754
0.033216
0.028078
-0.092924
-0.060228
-0.057741
-0.113337
-0.068714
-0.017003
-0.113700
-0.103074
-0.029492
0.133776
0.013640
-0.034191
-0.020769
-0.078702
-0.017897
0.038981
-0.087625
-0.011228
-0.029021
-0.077342
0.022499
0.002337
0.008037
-0.016478
0.058162
-0.033708
-0.098732
0.019038
-0.040335
0.097809
0.025384
-0.084803
-0.129016
0.040112
-0.034745
0.054991
-0.058189
0.134182
-0.026135
0.006775
0.051439
-0.055541
-0.101332
-0.041173
-0.101187
-0.069867
-0.038321
-0.077462
0.021198
-0.042543
0.028579
-0.056045
-0.006020
-0.052160
-0.048347
-0.028425
-0.060157
0.014102
0.085598
0.044312
0.026139
0.048970
-0.003781
-0.065264
-0.013071
0.024332
0.031603
0.046296
-0.038457
-0.002649
0.000461
0.044949
-0.075842
-0.091355
-0.076387
-0.014888
-0.039205
0.027692
-0.003898
-0.097670
0.057034
0.023329
-0.062932
0.020548
0.007328
-0.008236
0.058723
0.063514
-0.092005
-0.007385
-0.078067
0.040173
-0.004786
0.070992
-0.033274
-0.039672
-0.093454
-0.028404
0.088303
0.000461
0.003453
0.051388
-0.075597
-0.097150
-0.018180
0.018636
0.052831
-0.081016
0.021343
-0.023445
0.023919
0.013578
-0.102308
0.046193
-0.013176
0.087179
0.077880
0.005814
0.058417
0.039823
-0.007759
-0.029330
0.011366
-0.012610
0.001042
0.017379
-0.063884
-0.007362
-0.026606
0.097375
-0.024690
0.007782
-0.044856
-0.026471
0.010294
0.088617
-0.009591
0.050799
0.059065
-0.065167
-0.067378
0.010790
0.093391
0.085109
0.028489
0.073901
-0.083402
0.065235
-0.003809
-0.087464
-0.094999
-0.011411
-0.019941
-0.091392
-0.020604
0.069180
-0.052991
0.030999
-0.018348
0.017534
-0.041463
0.029598
0.045637
-0.013788
0.068483
-0.060244
0.009138
-0.049985
0.041890
-0.026257
0.006271
0.073135
0.004312
-0.029746
0.010134
0.012947
0.034600
-0.040904
-0.026486
-0.079904
-0.123850
-0.036718
0.008079
-0.061699
0.025704
-0.045179
0.014652
-0.049139
0.106862
0.013450
0.018204
-0.009497
-0.025774
0.025115
-0.108340
-0.008260
0.001721
0.069388
-0.126383
0.038598
0.007057
0.005905
-0.155357
-0.045368
0.055110
-0.053246
-0.028417
-0.096951
0.000073
-0.023333
-0.071253
-0.112380
0.010697
0.047232
0.001450
0.071130
0.080527
-0.113081
0.008405
0.000188
-0.034524
0.122794
-0.040190
-0.078425
-0.098068
-0.008058
-0.010312
0.004709
0.109076
0.146057
0.013627
0.002663
-0.046409
0.064998
0.060205
0.000656
0.011752
0.061427
-0.048519
-0.080260
0.072939
0.008161
0.037464
-0.020388
-0.001641
-0.050644
0.007799
0.054700
-0.063525
0.006554
-0.006316
-0.019371
-0.160662
-0.005499
0.051620
-0.086488
0.009495
0.075518
-0.038494
0.114432
-0.081003
-0.035582
0.026843
0.042327
-0.000304
-0.001917
0.018360
-0.029528
-0.036571
-0.051581
0.061204
-0.055044
-0.081762
0.075046
-0.128674
0.050731
-0.080965
-0.002327
0.018591
-0.028163
-0.003978
0.009939
-0.118031
-0.093373
-0.016434
-0.031997
0.002401
0.043241
0.065425
-0.070797
0.022501
-0.066820
-0.045056
-0.128665
-0.002004
-0.049501
0.007388
0.010933
-0.011196
-0.043401
0.126771
0.000090
0.097665
0.080918
0.052625
-0.067002
-0.065721
0.051199
0.041401
-0.016958
0.057700
-0.050294
-0.031977
0.081633
0.007009
0.015001
-0.063022
-0.055355
-0.077438
0.002438
-0.060106
-0.094425
0.001796
0.099686
-0.101611
-0.172105
0.083888
0.043653
0.017032
-0.118392
0.044406
-0.074348
-0.067507
0.112203
-0.014253
0.076503
-0.005295
-0.021887
0.066953
0.019579
-0.059656
0.180251
-0.020848
0.047682
-0.025043
0.050490
0.098882
0.094361
-0.034213
-0.147655
-0.104733
-0.056020
-0.004883
-0.013029
-0.064011
-0.026677
-0.046685
-0.067895
0.018571
-0.094350
0.024071
-0.070371
-0.045731
-0.022313
0.003861
-0.054388
0.005000
0.019795
-0.047007
0.160555
-0.012107
-0.080853
0.130729
-0.091512
0.023517
-0.062294
-0.009046
-0.035912
0.035369
-0.001884
-0.088235
-0.016031
-0.043602
-0.006583
-0.040521
0.032759
-0.046708
0.028293
0.021071
0.070302
0.096952
-0.021607
-0.026085
-0.019487
0.061067
0.058610
0.033041
0.107719
-0.006106
0.068147
-0.040434
-0.005918
-0.001691
-0.057380
-0.040893
0.077366
0.044897
-0.011218
0.054186
0.016380
0.064897
0.033334
0.037152
0.127425
-0.029712
-0.079950
-0.022337
0.065010
0.030472
-0.015022
-0.010768
-0.119808
0.083089
0.067762
0.063729
-0.044597
-0.067429
0.010242
-0.031737
0.017301
0.004383
-0.021674
0.046345
-0.031988
0.090652
-0.002793
0.123408
-0.026093
-0.009752
-0.038416
0.058393
-0.067606
-0.071075
0.006199
0.015810
-0.034980
0.018483
0.149103
0.100678
0.016659
-0.062010
-0.104433
-0.057220
-0.013143
-0.104619
-0.038031
-0.032202
0.044842
-0.086649
0.007341
0.082340
0.027174
0.002135
0.095279
0.046320
-0.125718
0.043612
-0.008554
0.023060
-0.081183
0.028497
0.004362
0.054610
-0.014250
-0.052890
-0.015960
-0.067873
0.038315
-0.015001
-0.052070
-0.002686
-0.076082
0.052106
0.029608
-0.003332
-0.028968
0.051559
0.056198
0.010692
0.086692
-0.029243
-0.077963
-0.012114
-0.062342
-0.041494
-0.003480
0.022145
-0.057459
0.098388
-0.065384
-0.000015
0.018319
-0.084370
-0.106759
-0.027364
-0.013543
-0.003214
-0.049028
-0.062024
0.015222
0.123876
0.012132
0.024703
-0.046373
-0.028348
-0.108937
0.063485
0.006166
-0.015834
0.042288
0.054860
0.026683
0.013071
0.009582
0.054968
0.026864
-0.004372
0.082392
0.125212
-0.022230
-0.052519
-0.067357
0.044040
-0.023844
0.058496
0.037767
0.042712
0.008135
0.036891
0.043913
-0.104137
-0.051051
0.088218
-0.061527
-0.091604
-0.062553
0.045331
0.074042
-0.041232
-0.087690
0.039369
-0.009556
-0.056990
-0.015318
-0.012324
-0.077241
0.013107
0.048387
-0.062681
0.101834
-0.042237
0.024137
-0.043017
-0.015206
-0.019707
0.031196
0.022198
0.106149
-0.068323
-0.079366
0.063011
0.040743
-0.006783
0.015672
0.071785
-0.043974
-0.084122
0.021604
0.034915
-0.120752
0.068259
-0.050660
-0.031571
-0.020840
-0.034980
0.002946
-0.033963
0.015649
-0.069179
0.075302
-0.139401
-0.094005
0.033408
-0.019026
-0.035913
-0.048744
-0.009947
0.103358
-0.041774
0.119056
0.078562
-0.082032
-0.034406
0.036959
-0.079894
0.052775
-0.021410
-0.083073
-0.095767
0.098471
0.010467
-0.106868
-0.020619
0.055048
0.083111
-0.031324
-0.070373
0.059600
-0.053816
0.031574
0.018851
0.063488
-0.053965
-0.084996
0.023807
-0.037465
-0.077010
-0.022397
0.024313
-0.114837
0.046879
-0.017113
-0.055498
-0.005324
-0.016969
-0.002319
0.042628
-0.040531
0.028161
-0.008756
-0.041386
0.003852
-0.000437
-0.109541
-0.031195
-0.011285
-0.074390
0.052530
0.097754
0.017914
-0.003589
-0.008611
-0.004837
-0.009919
0.044264
0.009154
-0.068729
-0.120214
-0.022600
0.036023
-0.009292
-0.109026
0.087424
0.032270
0.042992
-0.028163
-0.021765
-0.015259
-0.079215
0.008063
0.025599
0.053084
0.074241
0.027422
0.046439
-0.005590
0.007540
-0.026359
-0.003483
0.005855
0.026165
-0.120110
-0.100141
-0.037939
-0.019476
-0.084365
0.000049
-0.106051
0.056936
-0.144023
0.034265
0.053754
-0.134183
0.086182
0.032426
-0.030003
0.072866
-0.004931
0.006694
-0.015796
-0.023375
0.066518
-0.045240
-0.004501
0.052481
-0.020730
-0.038349
-0.020688
-0.095767
-0.099599
0.021978
-0.070736
0.098039
0.004531
-0.039495
-0.055958
-0.093316
-0.054236
0.076167
0.063009
-0.069843
0.099916
-0.045821
-0.005971
-0.034366
-0.001880
0.009017
-0.063269
-0.059971
0.001014
-0.016030
-0.028979
0.088661
0.037132
-0.082694
-0.041133
0.027294
0.105200
-0.026457
-0.012065
-0.067400
-0.011041
0.053011
0.003159
-0.111407
0.005508
0.025346
-0.064281
-0.010836
-0.065641
-0.009479
-0.053841
0.078123
-0.032755
-0.046079
0.057396
-0.124433
-0.064863
0.069663
-0.081599
-0.050040
0.057603
-0.035100
0.019558
0.014405
-0.032030
0.023618
0.022382
-0.120029
0.110659
0.020253
0.017897
0.008118
0.071401
0.015947
0.002499
-0.035964
-0.026880
-0.048545
-0.057859
0.003299
0.056844
-0.027375
0.063821
0.033777
-0.043206
0.030412
-0.049046
-0.052638
0.021996
-0.061851
0.092709
-0.019895
-0.029590
0.066775
-0.048330
0.064787
-0.069092
0.057421
-0.048236
-0.067423
0.005346
0.099067
-0.059323
0.051404
0.001683
0.000118
0.068387
-0.036880
0.072953
-0.026015
0.047992
-0.043035
-0.014887
0.009846
-0.030508
0.017296
-0.040136
-0.015227
0.065802
0.080698
-0.028173
0.118138
-0.021968
-0.007976
-0.068684
-0.036405
0.050715
-0.131706
-0.064339
0.009451
-0.073328
-0.015888
-0.011471
-0.057005
-0.102826
0.058713
-0.025595
-0.009194
0.081287
0.027178
-0.051085
0.013852
-0.010819
0.019997
0.135578
-0.000684
-0.033771
0.003313
0.060768
-0.036324
0.111645
-0.039136
0.016087
-0.044164
0.016062
-0.048276
-0.010514
-0.001249
-0.050766
-0.036558
0.096117
0.054029
-0.000800
-0.058853
0.017106
0.081569
0.103035
-0.052597
-0.014512
-0.044115
-0.047551
-0.068939
-0.012279
0.013514
-0.039443
-0.009021
-0.038929
0.012410
0.055957
0.007594
-0.023248
-0.006980
0.001601
0.011562
0.004827
0.004728
-0.053217
0.079940
0.059190
0.081902
0.032880
0.050030
-0.052129
-0.007400
0.017012
-0.044922
-0.054902
0.042091
-0.137190
-0.109134
-0.073225
-0.087423
-0.025554
0.083762
0.029907
-0.056783
-0.068296
-0.030328
-0.017853
-0.068313
0.036188
0.059508
-0.040939
-0.064221
-0.040397
-0.037943
0.027389
-0.016795
0.041012
-0.060539
-0.079966
0.051853
0.040533
-0.051661
-0.063335
-0.065930
0.081034
-0.001801
-0.012645
0.064355
-0.005633
0.054455
0.038375
0.034673
0.018879
-0.018759
-0.072635
-0.022713
0.003896
-0.003562
-0.096721
0.020138
0.060239
-0.063424
-0.016785
0.103776
-0.057522
-0.149960
-0.043404
0.022127
-0.054717
0.005211
-0.081629
0.043163
-0.029409
-0.077236
-0.004314
-0.064350
0.020834
-0.105732
-0.081162
-0.059499
0.048920
-0.098066
-0.076369
0.004332
0.020642
0.020156
-0.015939
0.024149
-0.087608
-0.002625
0.012430
-0.040445
0.081272
-0.006688
0.060741
-0.010954
0.050719
-0.065995
0.024202
0.102260
-0.022387
0.097661
0.020023
0.014075
0.029337
-0.132097
-0.123832
0.006821
0.045235
-0.108256
-0.031115
-0.012101
0.040443
-0.140162
0.027021
-0.071770
-0.033215
0.087807
0.016755
0.102547
0.040629
-0.056796
0.056880
0.136246
0.032604
-0.065940
0.039244
-0.124510
-0.105028
-0.024557
-0.067996
0.106640
0.046026
-0.005777
-0.061692
-0.081048
0.017301
-0.000583
-0.030872
-0.049416
-0.005153
0.016687
-0.026314
-0.050182
0.015463
0.030828
0.003894
-0.078825
-0.050070
-0.037149
-0.025383
-0.088865
-0.053873
0.065165
0.063209
0.029583
0.065162
0.071509
-0.029384
-0.069035
0.029986
-0.011100
0.037389
0.072381
-0.049778
-0.023366
-0.112891
-0.005702
0.033918
0.062393
0.040610
0.086821
0.037460
-0.024359
-0.063229
0.014176
-0.071641
0.022747
-0.065275
0.071537
-0.030357
0.067494
-0.048252
0.018294
0.072604
-0.043328
-0.023428
0.004268
0.014729
0.048835
-0.007853
0.031466
-0.042817
0.014222
-0.034416
0.074609
-0.068459
0.053961
-0.050869
0.038829
-0.060017
-0.062270
-0.053571
-0.107806
-0.022617
0.043254
-0.006001
0.090683
0.006285
0.040237
0.049592
0.064961
0.058656
-0.022598
-0.096068
0.028295
0.110425
-0.016800
0.036738
-0.068405
-0.006222
-0.066888
0.061300
-0.025115
0.046837
-0.037670
-0.044934
-0.014033
-0.006290
-0.098826
-0.065481
-0.029768
0.042764
0.091169
0.004748
-0.033790
-0.051046
0.005673
0.004201
0.092616
-0.007471
0.008392
-0.066860
0.035996
-0.055623
-0.067480
0.000635
-0.052250
-0.043943
0.018763
0.044235
-0.069720
-0.041670
-0.025880
-0.084579
-0.031578
0.015365
0.128014
0.022113
-0.033103
0.062810
0.025321
0.033528
-0.016375
0.043261
0.028075
0.058981
0.074215
0.014119
0.040843
-0.127808
-0.029021
0.023248
-0.037958
-0.056424
-0.105475
-0.014809
-0.001037
0.042442
-0.090916
0.042590
0.008517
0.041171
0.041376
0.074165
-0.072962
0.018214
-0.000623
-0.036587
-0.033573
-0.005931
-0.063857
0.025283
0.072006
-0.006677
0.022350
0.008725
-0.081701
-0.005990
0.018075
0.053406
-0.136645
-0.007451
-0.080272
0.021398
0.027287
-0.003058
-0.044527
-0.143001
-0.059162
-0.041371
-0.005854
-0.001188
-0.016681
-0.016431
0.028204
0.081323
0.050447
0.071973
0.106730
-0.026630
-0.062732
-0.052531
-0.026694
-0.119055
0.019890
0.003854
-0.029228
-0.036571
-0.018867
0.073208
-0.043017
-0.010799
-0.010939
-0.028340
0.040383
-0.023503
0.041806
0.061682
-0.094016
0.066712
0.043563
-0.072849
0.005283
-0.000727
0.000942
-0.050033
0.006408
-0.033546
-0.054788
0.051425
0.015433
0.006253
0.072776
0.076250
0.030683
0.037470
0.053437
-0.018662
-0.029385
0.002489
-0.058421
-0.004340
-0.005289
-0.013211
-0.014459
0.042211
0.003078
0.015437
-0.027752
-0.109852
-0.069982
-0.044956
0.026398
0.009677
0.009322
0.026763
0.147910
0.100822
-0.034305
-0.012852
-0.017431
0.001321
0.020197
-0.085247
0.006872
-0.046072
-0.012356
0.027329
-0.007111
-0.079265
-0.065244
0.058032
-0.099529
-0.034765
0.027827
-0.053697
0.009604
-0.077701
-0.004504
-0.023989
-0.084384
0.129338
0.049962
0.033764
-0.024636
-0.013530
-0.011442
0.027856
-0.026228
-0.005525
-0.013513
0.065341
-0.084333
-0.006293
-0.013844
-0.029521
-0.003823
-0.010716
-0.034940
-0.075525
0.033036
0.015761
-0.035396
-0.021156
0.114276
0.136781
-0.022421
-0.042479
0.101667
-0.066318
-0.097513
0.081052
0.141890
-0.154293
-0.045034
-0.037753
0.009845
-0.074995
-0.039630
-0.009084
0.109750
-0.104440
-0.071473
-0.015533
0.032092
0.029375
-0.042640
0.119416
-0.074551
-0.034254
-0.060971
0.016293
-0.093921
0.060339
0.013424
-0.071829
-0.051880
-0.014810
0.082405
0.068584
-0.042457
0.024527
-0.014331
0.022431
-0.002086
-0.027241
-0.014794
0.014551
0.047033
0.100364
0.015524
-0.065468
0.036804
0.030371
0.066598
-0.024652
-0.076008
-0.035918
-0.076159
0.062280
-0.008879
-0.051805
-0.015121
0.113118
-0.084560
-0.040872
-0.032204
0.002597
0.018313
-0.106077
-0.078456
-0.080287
0.052983
0.058740
-0.029482
0.078785
-0.004461
-0.030954
0.028510
0.032351
-0.096780
0.108306
-0.076341
-0.008453
0.077835
0.003472
0.049167
-0.015272
-0.012664
-0.094612
0.044800
-0.065221
-0.066124
0.049011
0.005343
0.054422
0.048678
-0.005810
-0.085857
0.034261
-0.168024
-0.070314
-0.025717
0.022085
0.078369
-0.038818
-0.082211
0.098091
-0.087313
0.038812
0.093968
-0.009354
0.046122
0.035261
0.010678
-0.091105
-0.036274
0.061901
-0.038576
-0.014266
0.003246
0.007116
-0.001885
0.004840
-0.001647
0.030756
-0.037132
-0.102121
-0.039165
0.060238
0.038271
-0.026447
0.068119
0.028267
0.060287
0.028477
0.098847
0.103729
0.016565
-0.045906
0.057331
-0.020383
0.057916
0.031781
-0.019240
0.031023
0.016476
0.056454
0.054952
0.054013
-0.077506
-0.009522
0.022865
0.052843
-0.085685
-0.022695
0.016892
-0.048780
-0.022745
0.022587
0.088716
-0.030312
0.021532
-0.044636
-0.062228
-0.039387
-0.043378
-0.053672
-0.066883
0.061580
0.041341
0.155704
-0.143477
0.008007
-0.019433
-0.065669
0.092479
-0.034865
-0.030810
0.006216
-0.029230
0.083270
-0.001147
0.104545
-0.021958
-0.082043
0.025550
-0.066787
0.048946
-0.042841
-0.056122
0.101655
-0.028012
0.011272
0.038048
0.102813
0.042031
-0.159114
-0.116572
-0.020650
0.007406
0.114560
0.044293
0.058443
0.014486
0.067270
0.031353
-0.002264
-0.001862
-0.000524
-0.054576
-0.030200
-0.089492
-0.004934
-0.018908
-0.038627
-0.016404
0.039826
0.018863
0.025158
0.074515
-0.129916
-0.068538
0.017396
0.040978
0.027623
0.024677
0.122333
-0.007687
0.063937
-0.010088
-0.003105
-0.020845
0.070287
-0.036611
-0.024712
-0.036520
-0.081008
0.020678
0.020622
0.038455
0.012578
0.076216
0.007857
-0.048157
-0.057257
0.069770
-0.046278
-0.052340
0.089095
0.012454
0.097969
-0.018141
-0.070043
-0.036354
-0.083584
0.071574
0.002288
0.008172
-0.118988
-0.025743
0.046016
-0.006173
-0.033717
0.000158
0.008289
-0.061615
0.095653
-0.060347
-0.049760
-0.009253
-0.037247
-0.040374
-0.047841
-0.021775
-0.028951
-0.025334
0.045261
0.020127
-0.055872
0.012450
0.065015
0.040444
-0.020588
0.025263
0.038388
-0.001963
0.046156
-0.025952
0.004315
0.041931
0.048342
0.000289
0.011017
0.098666
0.036956
0.055609
0.045979
-0.015427
-0.106715
0.013788
-0.133788
-0.036416
-0.040764
0.066411
-0.013357
0.026220
0.046569
0.037029
-0.025723
-0.031328
0.070487
0.050324
-0.020339
-0.066012
-0.037215
0.011480
-0.022481
-0.079797
-0.076647
0.081765
0.031765
-0.017929
0.087507
-0.049469
0.097326
-0.000892
-0.006367
-0.058685
-0.076562
0.019276
0.015219
-0.055308
0.095002
-0.112111
-0.084555
0.120833
0.107765
-0.084576
0.003119
0.052530
0.065920
-0.094529
-0.086880
-0.034479
-0.048521
-0.017684
-0.017060
-0.080363
0.017822
0.022643
0.013494
-0.071400
-0.003939
-0.001302
0.082857
0.009136
0.065186
0.057039
-0.017378
0.053119
0.021383
-0.044628
-0.002973
-0.005465
-0.032462
-0.053727
0.005109
0.013339
-0.029298
0.052620
-0.016876
-0.049500
0.018974
0.051490
0.029371
-0.015078
-0.119188
0.001184
-0.048981
0.066881
-0.033554
-0.010989
0.051408
0.021948
0.030551
-0.036699
-0.062223
-0.083431
0.068886
0.045807
0.033750
-0.032273
0.000205
-0.029717
-0.050728
-0.049433
0.011960
0.039534
-0.052597
-0.053611
-0.101046
0.005540
-0.092115
-0.003620
0.010088
-0.144693
-0.117380
-0.000169
-0.071323
-0.055791
0.034254
0.025311
0.016282
0.062790
0.025888
-0.125545
-0.028456
-0.051892
-0.052577
-0.012960
-0.025563
-0.004322
-0.111617
0.054742
-0.011207
0.146609
0.048153
-0.047027
0.065986
-0.002604
-0.038776
-0.073880
0.117548
0.031577
0.041689
-0.003452
0.095052
-0.097428
-0.013282
-0.009568
-0.045838
-0.015342
-0.021083
0.076792
-0.068666
-0.011445
0.065299
-0.055750
0.040638
0.090826
0.021861
0.081321
0.022413
0.021494
0.035714
-0.027032
0.003883
-0.156967
-0.014636
-0.013111
-0.046802
-0.033893
-0.094763
0.042828
-0.061457
0.018467
0.020489
-0.074122
-0.043978
-0.027801
-0.075074
-0.000957
0.012369
-0.011855
0.032804
0.053623
-0.093359
0.050363
-0.090272
-0.017117
-0.013840
0.010374
-0.061959
-0.110865
-0.024666
-0.008219
-0.015105
-0.103102
-0.010499
-0.020880
0.047958
0.064943
0.066145
0.006577
-0.049814
-0.023779
-0.008688
0.042412
-0.015304
-0.086205
0.005121
0.026272
0.137553
-0.032495
-0.005779
0.032829
-0.023321
0.062475
-0.051677
0.040393
-0.066799
0.077277
-0.037311
-0.026439
0.069943
-0.066650
-0.058074
0.006980
-0.027780
-0.025566
0.011285
-0.061287
-0.039786
0.060958
-0.133052
-0.059358
-0.041734
0.072820
-0.025471
-0.096058
0.010411
-0.031475
0.092834
0.015405
0.101262
0.005240
0.014314
0.039171
0.034036
-0.116907
-0.032230
0.060219
0.082200
-0.058429
0.029498
0.014100
0.025449
0.091188
-0.070740
-0.073267
0.070978
0.011772
-0.014407
-0.055658
0.066432
0.044093
0.008522
0.078573
0.104465
-0.038251
0.006894
0.071362
0.010624
0.035665
0.000661
-0.116949
-0.039407
-0.001708
0.055445
0.099493
0.021559
-0.098875
-0.083638
-0.085103
-0.050239
-0.007626
-0.034542
0.025034
0.029931
-0.055888
-0.018036
0.017095
-0.005436
-0.076259
-0.079958
0.091997
-0.005208
0.092334
0.063753
-0.093785
-0.058739
0.084474
0.008282
0.076904
-0.014911
-0.102308
-0.090601
0.052694
-0.083850
0.011309
-0.106225
0.028468
0.036922
0.143038
0.066181
-0.008817
0.069434
-0.015848
0.010592
0.113132
-0.031431
0.066245
0.040424
-0.118316
0.119017
0.040706
0.061327
-0.033789
0.076911
-0.002725
-0.072104
-0.097620
-0.029227
0.033511
-0.159392
-0.047625
-0.032607
0.095039
-0.017025
-0.083078
0.082149
0.027297
0.056081
-0.038766
-0.054439
-0.018787
-0.011565
0.022768
-0.028366
0.076275
-0.062262
0.073396
-0.012193
0.094765
0.053730
0.012893
-0.019035
0.003120
0.007262
0.119517
0.025467
-0.029630
0.022311
-0.114225
0.007762
0.044889
0.093887
0.110343
0.057132
-0.023974
-0.054765
0.048937
0.029496
-0.006778
-0.034387
-0.029617
-0.080715
0.012985
0.007955
0.031105
0.042815
-0.004864
-0.002583
0.066096
0.006397
-0.092758
0.023829
0.065697
0.003397
0.035866
-0.054517
0.014697
-0.055413
0.016900
-0.058391
0.022822
-0.071865
0.036253
-0.094365
0.067209
-0.044091
0.039520
0.023486
-0.038819
-0.021342
0.134753
-0.091588
-0.064913
0.048059
0.040638
0.004817
-0.094733
0.014958
0.055358
0.011360
-0.028085
-0.021227
-0.022529
-0.034899
0.036027
0.110370
-0.182868
0.004194
0.074555
0.019819
0.029312
0.022537
-0.028855
0.019985
-0.067798
0.061637
0.068412
-0.025213
-0.029599
-0.026560
-0.028673
-0.012295
-0.034812
0.087656
-0.084428
-0.088499
-0.041132
0.015527
-0.009303
-0.011995
-0.045738
-0.015034
-0.025149
0.009026
0.105850
-0.076252
-0.000203
0.014116
0.083884
0.053360
-0.012938
-0.034593
-0.036826
0.070103
0.045005
0.016667
0.040821
0.072006
0.083828
-0.086955
-0.037177
0.022732
-0.017115
0.064244
-0.000232
-0.000789
0.098414
0.026827
-0.079927
-0.029639
0.002251
0.073829
0.027820
0.044509
0.065936
-0.015588
0.055695
-0.020875
-0.040968
0.016290
0.023588
0.079107
0.061279
0.030594
-0.055181
0.046743
0.011243
0.009021
0.022278
0.084299
-0.009850
0.010953
-0.037582
-0.048292
0.092061
0.076592
-0.061017
-0.044476
-0.028698
-0.019229
-0.043984
-0.038892
0.003670
-0.041778
0.091669
-0.035628
0.051518
-0.000200
-0.068081
-0.019639
-0.064159
0.012323
-0.004106
0.003935
-0.064423
0.093712
-0.027301
0.001593
-0.043581
-0.050890
0.070202
-0.033071
0.034782
-0.109598
-0.018116
0.042770
-0.047147
0.108997
0.031350
0.018543
-0.047747
0.066959
-0.049364
-0.015457
-0.068937
0.059820
0.067864
-0.090116
-0.019658
0.027996
0.014712
0.061731
0.070909
-0.048816
-0.015297
-0.019260
0.125851
-0.062713
0.007321
-0.050278
-0.013081
0.024996
0.043515
0.099218
0.032779
0.042696
-0.057555
-0.110361
0.051399
0.040564
-0.032098
0.028060
-0.093022
0.041867
-0.042028
-0.060613
-0.025359
0.080329
0.052361
-0.041833
0.000824
-0.041036
-0.026830
-0.067088
-0.013034
0.012475
-0.100387
-0.030494
0.038671
-0.085832
-0.036273
-0.041333
0.059928
-0.037458
0.074821
0.137114
0.027130
0.060627
-0.016879
0.026240
0.020056
0.042431
-0.027100
-0.121934
0.033680
0.013248
0.009771
-0.017305
0.019343
0.026385
-0.026618
0.117026
-0.015972
-0.101092
0.057726
-0.030942
-0.019682
0.029403
-0.002873
0.023545
-0.046411
0.012732
0.029570
0.015410
0.055028
0.012541
0.026048
0.036885
-0.028158
-0.053479
-0.059447
-0.116544
-0.144911
0.077137
-0.113081
0.079872
0.008660
0.059685
0.063859
-0.008511
-0.054353
-0.007032
0.014051
0.074030
-0.054165
0.033481
-0.112473
0.027923
-0.096399
-0.043653
-0.064677
-0.045290
-0.017248
-0.079431
-0.019175
0.070376
0.009038
-0.111388
-0.099987
-0.038783
-0.062734
0.002314
-0.082542
-0.047908
-0.087347
0.054399
-0.018803
-0.048497
0.006894
-0.085572
-0.052111
-0.018445
-0.044344
-0.076067
-0.036204
-0.023547
0.033130
0.048706
0.068740
0.033030
-0.049871
0.008049
0.052964
0.086808
0.012073
-0.032492
0.049850
-0.161603
-0.057906
0.035956
-0.016047
-0.029278
-0.007019
-0.047614
0.019455
-0.048767
-0.156671
-0.106232
0.074038
-0.028925
0.049605
-0.033974
-0.055494
0.032186
-0.013902
0.066702
0.002029
0.012325
-0.047850
-0.005549
-0.000831
-0.028875
0.010502
-0.103481
-0.040398
0.046451
0.050781
0.072301
-0.048072
-0.022232
0.099569
0.014980
-0.048199
0.076836
0.042588
0.052588
0.084584
0.007125
-0.048977
0.002300
0.011788
0.103874
-0.049851
0.081570
-0.037076
-0.021005
-0.119531
-0.044639
-0.080561
0.044583
-0.007095
0.040244
0.024265
0.019161
-0.026734
-0.118561
-0.050511
0.043885
-0.080464
-0.103245
-0.019203
0.017982
-0.033215
-0.039950
-0.036336
0.000496
0.025366
0.080024
-0.069039
0.003463
0.037990
-0.009816
-0.017532
-0.072364
-0.002340
0.023413
0.085423
0.041660
0.039294
-0.010973
0.068021
-0.030424
0.000373
0.096607
-0.113491
0.022080
-0.004772
-0.009586
0.137494
0.085210
-0.002406
-0.069845
0.007815
-0.006763
-0.117886
0.026384
-0.080085
0.028861
0.044770
0.049787
0.010267
-0.025697
-0.013512
-0.003591
0.098391
0.071740
-0.021347
0.012740
-0.036376
-0.004181
-0.086431
0.058658
0.022221
0.029035
-0.036360
-0.011248
-0.034070
0.045981
0.127692
-0.136474
0.003649
0.012066
-0.034121
0.013793
-0.019807
-0.029998
0.061828
0.071812
-0.064112
-0.001966
-0.019491
-0.012598
-0.030274
0.024374
-0.038424
0.086111
-0.003696
-0.067001
0.006192
-0.049848
0.018415
0.145950
-0.000911
0.002664
-0.033142
0.037369
0.047182
0.035774
-0.070858
0.030233
-0.019003
-0.081216
-0.023255
0.090522
0.038351
0.076470
-0.053783
-0.018286
-0.008384
-0.002484
0.028116
-0.018905
-0.004789
0.000054
0.097282
0.059170
0.012489
0.063805
0.070717
0.040067
-0.062796
0.076878
-0.092412
0.114493
0.056249
0.040681
0.053414
0.032663
-0.042239
0.045840
0.057286
0.116296
0.046927
0.035832
0.144833
0.090480
-0.021268
0.029322
-0.015500
-0.119834
-0.159886
-0.018234
-0.048888
0.060547
0.070446
0.045587
0.118723
-0.073399
-0.024040
-0.043136
-0.024257
-0.019363
0.039772
-0.012504
-0.071858
0.075943
0.020157
0.123131
0.076565
-0.042764
-0.110192
0.035888
0.045863
0.036967
0.049782
0.009702
-0.107761
-0.070143
0.038400
-0.050071
-0.013690
0.065815
-0.069039
-0.106820
-0.018518
0.027096
-0.022749
0.038181
0.013560
-0.061200
0.015687
0.065256
0.023213
0.068514
-0.025106
0.012633
-0.000906
-0.003521
0.051846
0.054649
0.033204
0.059021
0.063855
0.011279
-0.022341
-0.047288
-0.072691
-0.116097
-0.000190
-0.061139
0.015421
-0.037207
-0.044016
-0.049868
0.033101
-0.053633
0.015517
-0.108713
-0.043333
0.007483
0.066022
0.018582
0.019630
0.023040
0.055340
-0.005032
0.005964
-0.057264
0.007103
-0.000413
0.026816
0.007883
-0.069843
0.067680
0.081277
-0.029146
0.043481
0.025838
-0.010484
0.086171
-0.077960
-0.058373
0.002224
-0.070998
0.006109
0.005722
-0.050296
0.056379
-0.018496
0.019200
-0.010218
-0.001940
0.002651
0.003624
-0.080126
0.031422
0.037984
-0.013250
-0.000070
-0.095024
-0.032423
-0.017742
-0.050025
0.014528
0.073521
0.020878
-0.057362
0.034650
-0.034014
-0.082309
-0.000187
0.084124
-0.047064
0.080668
-0.036824
-0.028663
-0.042227
-0.016536
0.014899
0.009145
-0.011310
0.048367
0.078010
-0.066818
0.030318
0.003651
-0.015817
-0.075025
-0.105336
0.070706
-0.114331
0.017183
0.007486
-0.111844
0.064636
-0.036185
-0.054613
-0.071136
0.010090
0.068714
-0.035356
0.066480
0.018633
0.103832
0.127233
0.027714
-0.103619
-0.043168
-0.052983
-0.002967
0.013152
-0.077612
-0.037302
-0.013057
-0.055857
-0.066249
-0.041035
-0.097387
-0.063030
-0.046453
0.060921
-0.011074
0.025530
0.134716
-0.102300
-0.004256
0.002645
-0.013013
-0.045753
0.031623
-0.027176
0.046172
-0.076475
-0.117539
0.067314
0.044909
-0.047068
0.058314
0.022730
0.014403
0.093967
0.033637
-0.057136
-0.011497
-0.106463
0.052601
-0.028836
0.024959
0.050237
0.010557
0.004164
-0.014108
0.006519
-0.036039
0.033126
0.061363
-0.024700
-0.009176
0.038376
-0.028619
0.028325
0.017718
-0.073580
0.134853
-0.050505
-0.055789
-0.072981
0.158221
-0.068455
0.034799
0.029792
-0.064016
0.012608
-0.051167
0.016046
0.018757
-0.068253
0.039799
0.053746
0.042433
-0.024209
0.103245
0.045024
0.076090
-0.044738
-0.121287
0.009545
0.007729
-0.004569
-0.002809
-0.009217
-0.054542
0.003808
0.139217
0.018039
-0.061099
0.056920
0.013657
0.069378
-0.130618
-0.049987
-0.032504
0.000468
-0.074452
-0.001151
-0.098894
0.133186
-0.028825
0.016232
0.024747
0.003762
0.043062
0.011661
0.095868
-0.058193
-0.025441
0.030892
-0.079886
0.029902
0.087953
0.059559
-0.035055
0.110540
-0.125667
0.013004
0.011131
-0.136747
0.010210
-0.004562
0.119122
-0.053584
0.020114
-0.018243
0.035473
-0.078576
-0.063495
-0.078786
-0.006547
-0.074562
-0.069277
0.054007
0.088153
-0.130161
-0.116739
-0.020089
0.045317
-0.024831
0.094810
-0.045505
-0.081379
-0.025565
-0.009825
-0.030940
-0.048655
-0.045645
-0.011900
-0.051880
0.011860
0.059153
0.031311
0.063146
0.047306
0.008929
0.105765
-0.053111
0.105317
-0.017471
-0.041855
-0.012125
0.039460
0.000527
0.018611
-0.067514
-0.002628
-0.108969
0.065264
-0.031011
0.071518
0.012184
-0.023440
0.051131
0.038643
0.106472
0.061476
0.054708
-0.036301
-0.018933
0.039862
-0.083419
0.044561
-0.080756
0.034777
-0.096362
0.044599
0.087323
-0.103376
-0.084858
-0.099381
0.013889
-0.006998
0.083490
0.024838
-0.109187
-0.032787
-0.056563
0.018787
-0.038519
0.049856
0.050222
0.055332
-0.081477
0.063558
0.023261
0.010073
0.038867
0.030024
0.003387
-0.081058
0.048259
-0.077847
0.026886
-0.090287
0.061605
0.024353
0.021333
0.102625
0.026125
-0.084354
-0.049391
-0.002172
-0.111153
0.065129
0.003826
-0.014499
-0.004596
-0.099078
0.074746
-0.061505
0.034890
0.010164
-0.060667
0.012084
-0.011225
-0.045748
0.062423
-0.064039
-0.026967
-0.096379
-0.040683
-0.059153
0.022517
0.046655
0.012096
-0.000200
-0.066646
-0.092883
0.002974
0.071274
-0.076757
-0.011598
-0.119136
0.081057
-0.047696
-0.065713
-0.053047
0.020658
0.082911
0.004045
0.017856
0.052797
-0.055645
0.019745
-0.030407
-0.016901
0.017085
-0.077340
0.020168
-0.009371
-0.070972
0.051986
-0.050663
0.025460
-0.102919
-0.099829
-0.021499
-0.004265
-0.028075
0.054614
0.005603
0.034812
-0.106597
-0.041445
0.072227
0.047436
0.008785
-0.019228
-0.052488
0.048973
0.009034
0.008613
-0.040649
-0.034299
-0.031142
-0.093951
-0.002047
-0.075932
-0.008547
0.017359
0.047801
-0.024546
-0.023477
0.016065
0.030754
-0.098672
0.039641
-0.023021
0.009276
-0.021386
-0.041759
0.032975
0.090680
-0.027587
-0.026264
-0.010356
-0.025568
0.067501
0.038155
0.092917
0.012768
-0.026728
-0.010014
0.007993
-0.024348
0.056285
0.041642
0.044371
-0.036346
-0.079366
0.077841
0.060979
-0.043165
0.009178
0.070745
0.087200
-0.075566
-0.095798
-0.024154
-0.062261
-0.016037
0.000590
0.052669
-0.016909
0.016428
-0.015071
0.023936
0.010946
0.068690
-0.055456
-0.062601
0.016060
-0.050514
-0.038220
0.047254
-0.061199
0.019019
-0.114061
-0.048437
0.066264
0.009395
-0.031803
-0.045114
-0.032304
0.090154
0.009303
-0.000980
-0.014436
0.072438
-0.065990
-0.117517
-0.052275
-0.098580
-0.030291
-0.096688
-0.020861
0.111525
-0.122914
-0.064669
-0.006410
-0.077265
0.032108
-0.047366
-0.005342
0.023260
-0.055630
0.027718
-0.008656
-0.044866
0.026692
-0.000735
-0.074295
-0.084864
-0.009434
0.024528
0.045151
0.015967
0.085372
0.074532
-0.070817
0.094620
0.010453
-0.020100
-0.001218
0.050534
-0.025570
0.019234
-0.018076
-0.072493
0.016957
-0.076101
-0.056356
-0.052180
0.004224
-0.092700
0.110460
0.007093
0.144474
-0.049900
-0.187662
0.031812
-0.063594
0.028770
-0.017882
-0.046285
-0.003797
-0.021323
0.101049
-0.016246
-0.012986
-0.042770
-0.087343
-0.035755
-0.047130
-0.039428
-0.025666
0.000049
-0.017764
-0.046018
0.104989
0.020019
0.048375
-0.060336
0.010850
0.050835
-0.002249
0.025533
0.039932
0.045574
-0.066742
0.157066
-0.053026
0.025032
0.010415
0.006243
-0.050257
0.048972
-0.003549
0.025158
-0.090259
-0.005634
-0.077465
0.081105
-0.057037
0.046716
0.009960
-0.033606
0.071800
-0.119243
0.007751
0.003541
-0.009193
0.040315
-0.059270
-0.147988
-0.038549
-0.060410
0.028277
-0.035691
-0.062021
-0.022143
0.007115
0.079980
-0.001602
0.084232
0.026512
-0.007051
-0.018835
-0.039072
-0.090468
-0.069827
-0.046729
0.000825
-0.035436
0.055289
0.098176
0.037149
-0.011359
0.051404
-0.016533
-0.105427
-0.070760
-0.027230
-0.013744
-0.038236
0.012988
-0.000209
0.064325
0.038468
-0.002577
-0.076721
0.011500
-0.077647
-0.010457
-0.046571
0.018233
-0.001258
-0.011477
0.042362
0.025080
-0.028904
-0.040718
0.040890
0.070919
-0.092720
0.048822
-0.024452
0.062962
0.030192
-0.008164
0.013997
-0.057685
-0.040603
-0.018854
0.028990
-0.020366
0.024090
-0.089871
-0.089757
0.041298
0.063600
0.137225
0.000512
-0.034425
-0.138083
-0.075773
-0.058883
0.040757
-0.021517
0.109803
-0.045605
0.009532
-0.020511
-0.047984
0.051287
-0.018062
0.049285
-0.057107
-0.111985
0.008576
-0.050707
-0.007153
0.018810
-0.091146
-0.000126
-0.008895
-0.054160
0.001366
0.001250
0.029247
0.045813
-0.039049
0.071743
-0.033027
-0.003164
-0.055227
0.047528
0.118150
-0.045433
-0.043712
0.064103
0.052140
-0.070923
-0.019485
-0.047761
0.055477
-0.064881
0.054782
-0.042215
0.008286
0.008301
-0.071761
-0.026606
0.104780
0.021815
-0.042260
-0.005351
-0.029548
0.055821
0.046481
0.084885
0.019038
0.035034
-0.029679
-0.082805
-0.048344
-0.082129
-0.035164
0.111863
-0.081537
0.034774
0.018515
-0.034196
0.015422
-0.011242
-0.011981
-0.020606
0.059777
0.083473
-0.012888
0.062214
-0.098006
0.018906
0.047341
-0.021252
-0.005927
0.036542
-0.099974
0.068427
0.049792
-0.077923
-0.013085
-0.007352
0.084857
-0.028996
0.009862
-0.079876
-0.065312
0.096096
0.076897
-0.054068
0.004409
0.105258
-0.080141
0.035441
0.030224
0.071845
0.017160
-0.023952
-0.006412
-0.008678
-0.030168
0.025445
-0.038538
-0.066530
-0.075623
0.002334
0.012363
-0.035605
-0.087330
0.049976
-0.027242
0.066259
-0.039697
-0.016115
0.002730
-0.014189
0.083117
0.070196
0.072924
0.003694
-0.070938
-0.003445
-0.036580
-0.052207
0.107843
-0.052636
-0.032502
0.010983
0.056428
0.037123
0.006967
0.043563
0.036488
-0.057487
0.035706
-0.047906
0.093066
-0.038749
0.083685
-0.094021
0.045559
-0.064965
-0.043276
-0.062526
-0.012041
-0.033335
0.022360
-0.015918
-0.047176
0.091854
-0.000251
-0.030597
-0.018489
-0.093991
-0.049120
-0.075699
-0.088461
0.133350
0.069817
-0.008256
-0.063112
0.023800
-0.066441
0.043805
0.022580
0.003822
0.007845
-0.045784
0.049098
0.088281
0.043449
0.017489
-0.103471
-0.099713
-0.063076
-0.117989
-0.067725
-0.006363
-0.145614
-0.031702
-0.036980
0.060328
0.021221
-0.083096
-0.016477
-0.072547
0.010992
0.047512
0.055726
-0.014670
-0.044443
0.089144
-0.062806
0.066852
-0.119780
0.013774
0.062958
0.021333
-0.095499
0.008047
0.013935
-0.101458
-0.028837
-0.073063
-0.048606
0.048852
0.101224
-0.005315
-0.065197
-0.020939
-0.049792
-0.047717
-0.044560
0.051912
0.000360
-0.003662
0.094347
-0.029357
0.035751
-0.018550
-0.081578
0.003286
-0.112362
0.043947
-0.035352
-0.003380
-0.023070
-0.049317
0.009016
-0.031763
-0.005014
-0.026379
-0.017381
-0.047022
0.058890
0.033528
-0.049103
0.078015
0.028544
0.061185
0.078475
-0.014550
0.046976
-0.029485
0.051297
-0.042000
0.013208
0.032850
0.002334
0.000984
0.054966
-0.087464
0.058332
-0.005098
0.013281
0.025908
0.029398
-0.045555
-0.016830
-0.049598
-0.080854
-0.016267
0.005862
0.090279
-0.106663
0.015447
-0.018783
-0.029591
0.001615
0.003652
-0.080458
0.021914
0.109233
-0.064968
0.012440
-0.074888
0.041023
0.110308
0.067968
0.038916
0.023411
-0.022566
0.073195
-0.016383
0.026631
0.074373
-0.067222
0.039439
0.032799
-0.055532
0.037930
0.002912
0.020197
0.053949
0.096268
0.072660
0.050743
-0.072621
-0.072797
0.065678
-0.113089
0.069354
0.071753
0.096247
0.060587
0.020582
-0.076225
0.045171
-0.038964
-0.045469
0.037219
0.018411
-0.086597
0.040770
0.018546
-0.050237
-0.014104
-0.058499
-0.008105
-0.060712
-0.008396
0.053577
0.047670
-0.002252
0.091409
-0.020356
-0.048380
0.065014
0.076979
-0.023492
0.014224
-0.020151
0.015740
0.047219
-0.085400
-0.044994
-0.080850
0.071690
0.053053
-0.005085
0.019994
0.020540
0.077771
0.003960
0.010420
-0.065124
0.077588
0.042243
-0.084132
-0.033449
-0.103938
0.005813
-0.077545
0.051309
-0.024550
0.047189
-0.014034
-0.105091
0.050575
0.043641
-0.070986
-0.087388
-0.029769
-0.013435
-0.024341
-0.062215
0.007943
-0.070148
0.005265
0.051882
-0.012019
-0.011573
0.053193
0.002361
-0.061562
0.028850
0.026691
0.055562
0.062925
-0.080417
-0.101235
-0.097894
-0.064925
-0.006559
0.075207
0.039692
-0.114478
-0.010694
-0.003066
-0.014132
-0.030011
-0.007210
-0.026502
-0.097060
-0.038511
-0.088992
-0.066349
-0.013901
0.042699
0.017087
0.022746
-0.045633
0.015206
0.070562
0.105007
-0.014044
-0.049531
-0.034985
-0.034556
-0.054295
-0.032284
-0.004979
-0.123280
0.007041
0.002118
0.023484
0.037829
-0.029559
0.089380
0.059172
0.013614
0.038715
0.071324
-0.032938
-0.030517
0.057641
0.061299
0.061486
-0.062815
0.051738
0.036082
0.039291
0.053858
0.074197
-0.062377
0.056341
0.019661
-0.054767
0.022125
0.045570
-0.025336
0.025684
-0.015268
0.009484
0.017682
-0.047953
0.040514
0.038721
0.001268
0.024864
0.023676
-0.090393
-0.017938
0.000415
0.003607
-0.014585
0.117702
0.120467
0.107962
-0.005116
0.075779
-0.018479
0.016351
-0.097363
-0.060035
-0.120177
-0.067999
0.114812
0.008440
0.031800
0.009888
0.086228
-0.061177
0.034079
-0.005295
-0.019612
0.073150
0.031962
-0.028147
-0.023386
-0.008056
0.019922
0.002948
-0.044740
0.112504
-0.083151
-0.017494
-0.062973
-0.054947
0.020340
0.025051
0.004916
-0.116363
-0.041371
0.040018
-0.034611
-0.002511
0.005935
0.034056
0.077047
-0.037488
-0.074397
-0.041533
-0.091750
0.100318
0.052026
-0.122459
-0.053447
-0.136882
-0.016560
-0.044906
-0.105697
0.001452
0.009658
-0.049631
-0.075149
-0.075465
0.058492
0.022242
-0.010685
0.007839
0.010825
-0.050276
0.033979
-0.106330
-0.125481
0.075767
-0.065999
-0.087132
0.055102
0.010480
-0.025042
0.011912
0.011152
0.102837
-0.053750
0.087646
0.030743
0.040961
-0.046913
0.034485
-0.087382
-0.061298
0.000263
0.004108
0.049368
-0.084052
-0.034429
-0.027972
0.045058
0.092874
0.008299
0.046006
-0.021132
-0.012363
-0.030799
-0.026521
0.030358
0.042950
0.052231
-0.026588
0.057979
0.066880
0.016850
0.022380
0.002310
-0.032749
0.064716
-0.029926
0.014915
-0.012821
-0.001254
0.070480
-0.010689
0.027511
0.131376
0.054347
0.047582
-0.063969
0.002178
0.034899
-0.124952
0.045370
-0.057519
-0.101980
0.103221
0.034733
-0.055955
-0.023559
0.029143
0.000079
0.001718
-0.009912
-0.013905
-0.139574
-0.034629
0.116803
-0.040097
-0.044100
-0.052843
-0.093828
0.034744
0.038293
0.028116
0.061502
-0.040260
-0.012654
0.053607
-0.075363
0.038374
0.004646
0.087364
-0.049546
0.068519
0.020343
0.035298
-0.086686
-0.046429
-0.093733
0.011845
-0.066741
0.057890
0.026001
0.097538
-0.082535
0.070738
0.071926
0.048223
-0.058603
0.057726
-0.041522
0.007013
0.075024
0.113651
0.004476
-0.068350
-0.044012
0.039206
0.048502
-0.029019
-0.100960
-0.076650
-0.115808
-0.014863
-0.041631
-0.027396
-0.100313
0.070932
-0.054747
0.018083
-0.012736
-0.027988
0.058164
-0.058335
-0.058746
0.033082
0.027345
-0.033569
0.043249
-0.089409
0.035467
0.063282
0.035606
0.061313
-0.028554
0.013234
0.016186
-0.017350
-0.012526
0.040650
0.102648
-0.007725
-0.021109
0.012261
-0.024062
-0.028346
0.020370
-0.030739
0.018148
-0.055617
-0.020792
-0.035159
-0.099509
-0.032995
0.015147
0.019434
0.020717
0.014607
0.050401
-0.115672
0.041033
0.052465
-0.018228
0.043968
0.023881
0.023925
0.039937
0.046543
-0.024331
0.007134
0.028196
-0.033660
0.023545
-0.055436
0.027169
-0.013928
-0.041245
0.032065
0.026158
0.021205
-0.108984
0.064049
-0.074427
0.034633
-0.104910
0.014384
-0.063972
-0.008510
-0.053478
-0.029953
0.138391
0.033923
0.101854
-0.125177
-0.001055
0.038094
0.070220
0.034881
-0.032646
0.018608
0.050796
-0.041267
0.057994
0.055486
0.086562
0.070548
-0.067607
-0.045956
-0.079888
0.150576
0.088611
0.026845
0.038080
0.081178
-0.014375
-0.002393
-0.102106
0.130704
0.030280
-0.042403
0.040249
0.117343
-0.006398
-0.035351
0.018770
0.006251
-0.107664
0.036548
-0.060826
0.039160
0.072668
0.006862
-0.018419
0.074780
0.077726
0.073198
0.000214
-0.082616
-0.003383
-0.023693
-0.019994
-0.022180
0.023577
-0.033719
-0.042627
-0.057418
-0.043956
-0.118031
-0.064225
-0.053981
0.003669
-0.078660
0.035399
-0.012067
-0.005483
0.006550
-0.103351
0.091263
-0.027698
-0.000771
0.034697
-0.011706
-0.056211
-0.091668
0.031789
0.006839
-0.087448
-0.001980
-0.030698
-0.003728
0.060361
-0.011757
0.053132
0.023031
0.056061
-0.048157
0.030478
-0.110011
-0.029392
0.013247
-0.122782
0.021711
0.035641
-0.087101
0.032523
-0.071901
-0.017279
0.087717
-0.125963
-0.082329
0.108776
0.014971
0.133587
0.008955
-0.025223
-0.009490
0.002542
0.024827
-0.041533
-0.076371
-0.042536
0.015482
-0.009488
-0.056815
-0.096557
0.080652
-0.065584
-0.098443
-0.020740
-0.033638
0.064208
0.036239
-0.101434
-0.093590
-0.118523
-0.022031
0.050373
0.086069
0.049017
-0.106234
0.060969
-0.017954
0.083680
0.022284
-0.098785
-0.021131
0.013970
0.081621
0.041651
0.094332
-0.064186
0.017312
-0.035996
-0.027935
0.018678
0.051557
0.047891
-0.045573
-0.035338
0.010438
-0.000698
-0.013066
0.083263
0.067867
-0.015679
-0.088494
-0.015026
0.171355
-0.034420
0.077516
-0.049756
-0.066786
0.114974
0.044069
0.103051
-0.127519
-0.054392
-0.039308
0.082049
0.044771
0.043178
0.028204
-0.039203
0.040513
0.082954
-0.007698
-0.066289
0.010930
0.005606
-0.122148
-0.121510
-0.050394
0.172795
0.029732
-0.004680
-0.038226
-0.012023
0.100479
0.052274
-0.103134
-0.098873
-0.029648
-0.082035
-0.103604
0.046615
0.036192
-0.043763
-0.044218
0.024364
-0.057886
0.083185
-0.004121
0.026628
-0.039318
0.017995
-0.003441
-0.074407
-0.027726
0.086203
-0.071911
-0.055697
0.006762
-0.005637
-0.059105
0.027021
0.010953
-0.039042
0.049519
0.117995
-0.081873
-0.033064
-0.024945
0.052348
-0.092206
0.064216
-0.127379
-0.008688
0.006483
-0.046255
0.015322
-0.064329
0.023420
0.072312
-0.030781
0.020175
-0.078138
-0.106398
0.029351
-0.017332
0.053745
0.046691
-0.024830
-0.058540
-0.097370
-0.081110
0.000991
-0.093611
-0.002222
-0.063185
-0.051211
0.051724
-0.008577
-0.089493
-0.084577
-0.029997
0.012729
-0.033574
-0.078259
0.070825
0.030497
-0.022846
0.022571
-0.006658
0.012200
0.043927
0.022452
-0.054442
-0.066800
0.048354
-0.068676
-0.030484
-0.025652
0.094029
-0.099779
0.043517
-0.045923
0.029820
-0.036541
0.070515
-0.082494
-0.012298
0.069214
0.052050
0.033459
0.009147
0.005221
0.079674
-0.048166
0.112957
-0.031581
0.062848
0.146895
0.008618
0.016464
-0.019371
0.088830
0.051641
-0.053641
-0.073791
-0.074283
0.014864
0.027543
-0.077018
-0.014758
-0.020884
0.130318
-0.038074
-0.065018
-0.041330
-0.083989
-0.029078
-0.018408
0.047972
0.019168
-0.108326
0.032553
0.062111
-0.063583
0.066170
0.086146
-0.030463
-0.000940
0.016697
-0.033781
-0.012675
-0.000646
0.038410
0.004516
-0.049490
0.018217
0.006515
-0.052521
-0.024587
0.021695
0.079812
-0.053531
-0.032033
0.069791
-0.005815
-0.008227
0.016068
0.056742
0.113079
-0.059504
0.045350
-0.029012
-0.057435
0.018267
-0.085501
0.030267
-0.029317
-0.034224
0.010223
-0.044334
0.088306
0.008248
-0.014958
0.019969
0.067925
0.025949
0.098600
0.096607
-0.097577
-0.050072
-0.000167
0.008351
0.076760
-0.033515
0.011446
-0.010051
-0.044728
0.041133
-0.056766
0.012069
-0.118274
-0.026747
-0.029018
-0.025428
-0.072830
0.023406
-0.012937
-0.033348
0.004529
-0.050622
0.077893
-0.043059
0.001229
-0.050987
-0.075153
0.072933
-0.051293
0.050996
0.077774
0.015569
0.032918
-0.087302
0.023551
-0.058056
-0.109652
-0.082810
-0.009282
0.037778
-0.070261
-0.025529
0.077119
0.052540
0.048372
-0.036766
0.088204
0.070669
0.041173
-0.003891
0.061067
0.005445
-0.020553
-0.050513
-0.046811
-0.064394
-0.087221
0.025672
0.065944
-0.177038
0.025086
-0.001502
-0.027951
0.058346
0.055630
-0.051311
-0.107246
-0.039600
-0.076457
0.082875
0.082003
0.001633
0.126119
0.085799
0.012374
0.006569
-0.066777
0.067194
0.053745
-0.090040
0.041240
-0.070812
-0.017057
-0.003821
-0.045590
-0.035225
0.021099
-0.105243
-0.042203
-0.114002
0.036443
0.092180
0.052827
-0.051975
-0.058991
0.005172
-0.050286
0.022112
0.046473
0.018948
-0.024348
0.012930
-0.001326
0.006416
-0.102567
-0.000202
-0.043140
-0.008550
-0.012708
-0.091234
-0.013583
-0.034428
0.047197
-0.096388
-0.051019
-0.102941
0.031554
0.008819
-0.048775
-0.000581
-0.007578
-0.036900
0.028188
-0.007761
-0.022233
0.050670
-0.054034
-0.096502
-0.141691
-0.007104
0.044983
0.032138
0.001686
0.000715
0.007710
0.104650
-0.042446
0.019342
-0.049591
0.019017
-0.096800
-0.048055
-0.001596
-0.097066
-0.012822
0.031195
-0.021161
0.083694
0.000549
-0.034095
-0.037284
-0.072882
0.029121
-0.057348
0.022148
-0.089937
-0.019883
0.006666
0.023548
0.036752
-0.100692
0.039772
-0.087212
-0.086747
0.028904
-0.046286
-0.022488
-0.071454
0.063188
-0.033526
0.019482
0.027678
0.000614
0.044949
0.064675
-0.042243
0.062703
-0.048143
-0.014759
-0.032367
-0.039438
0.025551
0.085685
0.098748
-0.106115
-0.052457
-0.028393
0.051298
0.012411
0.000575
-0.032687
-0.026168
0.004410
-0.010186
0.023969
-0.019001
-0.041497
0.048338
-0.023126
-0.085268
0.045026
-0.121440
0.061017
-0.008419
0.100983
0.041623
-0.039952
0.051391
-0.024488
-0.022464
0.044730
0.136203
-0.007457
0.047423
-0.004347
-0.004929
0.037265
0.018155
-0.005601
0.031917
0.009836
0.086846
0.094437
-0.007470
-0.002549
0.123138
0.134871
0.045885
-0.052544
-0.052953
0.062908
0.036911
0.017778
-0.030166
0.004108
-0.022897
0.079129
-0.044707
-0.074776
-0.060550
0.141798
0.026795
-0.030086
0.058329
-0.010712
-0.005383
-0.026193
0.099868
0.104621
-0.004544
-0.062913
0.033864
-0.077449
-0.045896
-0.084427
0.107772
0.012308
-0.003794
-0.023243
-0.045967
0.004096
0.003642
0.037090
-0.039977
0.028242
-0.005404
-0.105576
0.045249
0.030423
0.050582
0.056258
0.089697
0.013564
0.070004
0.023577
0.008846
-0.018128
-0.020730
-0.026641
0.048947
0.011386
-0.018187
0.057003
0.022617
-0.025164
-0.073813
-0.016056
-0.102553
-0.036794
-0.066684
-0.066063
-0.025962
-0.000732
-0.062553
-0.033064
0.028099
-0.023956
0.016978
0.052111
0.000166
0.058398
-0.041691
0.078397
-0.019801
-0.029907
-0.048930
0.028776
0.042238
-0.008860
-0.005739
0.012426
-0.076927
-0.117767
0.006501
-0.094332
-0.093144
-0.021524
-0.041154
0.023698
0.034595
0.068487
0.051587
-0.060608
-0.029492
-0.051673
-0.078435
-0.083263
-0.021559
0.025184
-0.127912
0.004192
-0.061999
-0.057687
-0.010191
-0.094409
-0.061933
-0.008258
-0.088463
-0.022759
-0.140362
-0.003292
-0.029382
-0.065541
0.017550
-0.160678
0.033384
-0.047929
-0.007536
0.018354
0.006713
-0.110876
0.064447
-0.044979
-0.009212
-0.069860
-0.037700
0.093193
-0.002401
0.004598
-0.046454
0.057416
-0.086783
0.131604
0.092841
-0.016558
0.025350
-0.052955
0.085068
0.055758
-0.043386
0.089418
0.045999
-0.040747
0.040047
0.001954
-0.097085
-0.024253
-0.008733
-0.027651
-0.063955
0.077444
-0.004625
-0.042252
0.012040
-0.026654
0.033494
-0.000324
-0.036038
-0.015833
0.019437
0.002904
0.059838
0.085138
-0.042386
0.029309
-0.046431
0.083145
-0.067227
-0.126402
0.067443
-0.055734
-0.080738
0.039084
-0.068881
-0.044411
-0.112301
0.056362
0.002963
0.040480
0.058800
-0.112298
-0.042485
-0.028447
-0.049528
0.088888
0.057183
0.036892
-0.103524
0.045725
0.038630
-0.000674
0.024686
0.048987
0.012911
-0.000369
-0.069461
-0.017435
-0.043998
0.013128
-0.025313
-0.043378
-0.041241
0.012522
0.095360
0.025167
0.025896
-0.005884
-0.022181
0.069723
-0.063731
0.028935
-0.055709
-0.016453
-0.123671
0.095687
-0.119916
-0.107780
-0.074020
-0.015615
-0.031122
-0.085734
0.035941
0.043059
0.048063
-0.045698
-0.068333
0.042670
0.086136
0.061567
0.051131
0.066570
-0.126060
-0.032162
0.015583
-0.060379
0.074724
-0.031718
0.023706
0.023013
-0.101041
0.043679
-0.076648
0.049262
-0.051489
0.049620
-0.108596
-0.048257
-0.004631
-0.052962
-0.053564
0.004769
-0.071972
0.015347
0.060074
-0.008659
-0.030141
-0.002636
-0.088851
-0.017252
-0.062080
-0.017374
-0.072542
-0.004701
0.030873
0.090514
-0.063946
-0.010756
-0.040158
-0.027220
0.057212
-0.004912
-0.059620
-0.043976
-0.033842
0.056137
0.043449
0.048131
0.026091
-0.029711
-0.065755
-0.047585
0.028976
-0.067241
-0.044686
0.019215
0.068289
-0.094611
-0.042403
0.053857
0.028852
-0.069648
-0.043084
-0.019467
-0.003584
0.062262
0.028070
0.007002
-0.071644
-0.039005
-0.024335
0.013416
-0.025145
0.002857
-0.025030
-0.011364
-0.018115
0.031446
-0.075645
0.057651
0.067111
0.110815
0.039055
0.027129
-0.025675
0.027213
0.068978
0.018313
-0.027787
0.041006
-0.013258
-0.037128
-0.063547
-0.030737
0.075274
0.059248
-0.018230
0.007306
-0.102298
0.067739
0.013414
0.053701
-0.093655
-0.091265
-0.124002
0.051322
-0.156988
-0.100415
0.100325
0.016093
-0.002993
-0.030066
-0.013781
-0.043249
-0.056404
-0.022463
-0.053325
-0.005328
-0.012464
0.032371
-0.117282
-0.039262
0.018327
0.031165
0.116976
-0.084340
0.026549
-0.077378
-0.050835
0.009440
-0.020913
0.066301
0.056023
-0.000332
-0.039663
-0.044491
0.007501
0.085986
-0.060473
0.041300
-0.005010
0.095743
-0.021091
-0.005423
-0.032978
0.015165
0.028131
0.070330
0.013176
0.032126
0.084712
0.055110
-0.020131
0.022547
0.015866
0.004248
-0.035709
0.054708
-0.043632
0.109786
0.036870
-0.027781
0.100151
-0.051640
0.024623
0.000335
-0.039030
0.034236
0.027892
0.079905
0.070208
0.038574
0.028763
0.052353
-0.006876
-0.011019
-0.004926
0.072032
-0.040605
-0.103451
0.074475
-0.012387
-0.030934
0.064213
-0.023234
-0.022097
-0.010893
-0.017392
-0.024300
-0.061434
0.054426
-0.018955
-0.024934
-0.012229
-0.019210
0.002891
0.109001
-0.013611
0.003866
0.009742
-0.022916
-0.043242
-0.058464
0.014644
-0.020581
-0.002738
0.057003
-0.021245
0.073136
-0.045460
0.017809
0.085067
0.020600
-0.044142
-0.035584
0.057161
-0.031126
-0.013524
-0.062690
-0.027701
0.005924
0.116879
0.017101
-0.060395
-0.017589
-0.055931
-0.003995
-0.036239
-0.050052
0.098275
0.006762
0.094573
-0.078397
-0.060627
-0.015151
0.020906
-0.080814
0.045738
0.086499
-0.042193
-0.047873
-0.045959
-0.059054
-0.016579
0.033471
-0.032610
0.032941
-0.017254
-0.029255
0.044959
-0.015979
-0.108838
0.030682
0.084650
-0.042914
-0.038540
-0.027549
0.068234
-0.010772
-0.080654
0.009407
-0.059863
0.006044
-0.049697
0.054901
0.003762
0.053485
-0.011156
0.008325
-0.114318
-0.067848
0.054997
-0.005996
-0.007086
0.081564
-0.036015
-0.091493
-0.054170
-0.104937
-0.116748
0.004915
0.050765
-0.034043
-0.054598
0.023333
0.023428
0.057598
-0.024651
-0.004121
-0.060720
-0.068783
-0.020002
-0.069932
0.027745
-0.019774
-0.009919
-0.003871
-0.018314
-0.017513
-0.054813
-0.065734
-0.070984
-0.068765
-0.021842
-0.029625
0.016289
0.036010
0.072796
-0.048808
0.041303
-0.015474
0.077689
0.071481
0.006400
0.004011
-0.059790
-0.020645
-0.075695
-0.010740
-0.007589
-0.100263
0.003751
0.062600
-0.049311
-0.050715
-0.043729
-0.065579
0.038692
-0.024750
-0.048925
-0.033664
-0.072696
-0.091739
-0.017913
-0.065623
-0.072493
-0.081349
-0.027488
0.012713
0.053854
-0.049958
0.001754
-0.035971
0.003835
-0.062673
0.041996
-0.009367
-0.066351
-0.087224
-0.043849
0.022316
0.142151
0.055140
0.105050
-0.017142
0.090224
0.056203
0.044940
0.111002
0.076836
0.023395
0.011839
-0.056935
-0.005627
0.058687
-0.075224
-0.074747
-0.032309
-0.008922
-0.031928
0.034065
-0.102561
-0.005028
-0.013736
-0.037100
-0.071641
0.034653
-0.043090
0.094151
0.011157
-0.015299
-0.049576
0.184678
-0.017122
-0.058933
-0.035736
-0.079663
-0.097937
-0.061546
-0.088750
-0.035758
-0.038179
0.110397
-0.073687
0.002200
0.027939
-0.091376
-0.001939
0.087589
0.053687
-0.011631
-0.060130
0.033237
0.051844
-0.020362
-0.031747
-0.041964
0.092921
-0.002904
-0.061263
-0.077232
0.091498
-0.002011
0.052349
-0.105743
0.089235
-0.045583
-0.022694
0.002081
0.088620
0.017743
0.014683
0.075504
-0.056671
-0.066716
-0.029491
0.045181
0.014315
-0.009805
-0.008459
0.062814
-0.076251
0.030225
-0.111553
-0.051192
0.009477
-0.035173
-0.016285
-0.032739
0.013177
-0.049665
0.049916
0.011490
0.023248
0.030210
-0.071050
-0.042197
-0.035817
0.023776
-0.079406
0.051851
-0.054871
0.081752
0.020151
-0.016886
-0.077373
-0.011914
-0.000424
0.003308
0.072762
-0.035962
0.089528
0.007120
-0.018983
0.015938
0.014583
0.064619
-0.067187
0.018225
-0.042074
0.024492
0.079881
0.006622
-0.100608
0.025954
-0.030067
-0.026778
0.046573
0.047862
0.043002
-0.058319
-0.021071
-0.034023
0.024272
-0.098662
0.034821
0.021051
-0.095414
0.024257
0.054611
0.027836
0.029622
0.070217
-0.062437
-0.070781
0.076379
-0.056358
0.098518
-0.049733
-0.052446
0.101734
0.024960
-0.025170
-0.037409
0.014636
-0.084472
-0.044919
0.012089
-0.070763
0.045673
-0.104210
-0.069314
0.050751
-0.027782
-0.089266
0.027178
0.069800
-0.009949
-0.018103
0.081464
0.014098
-0.024673
-0.020928
-0.067521
0.013439
-0.051695
0.097078
0.000983
-0.052655
-0.141722
-0.015662
-0.034262
0.019670
-0.098550
-0.003173
-0.057430
0.031837
-0.050825
0.020407
0.004242
-0.040202
0.013654
0.046484
0.100088
0.096945
-0.088750
-0.050121
-0.046797
-0.005757
0.050827
0.003613
-0.041116
-0.011128
-0.011703
0.054106
-0.025351
0.016107
0.048393
-0.058026
0.030115
-0.007130
0.019979
0.011588
0.136398
0.024176
-0.022348
0.044442
-0.094425
0.013904
-0.068181
-0.078506
0.039320
-0.052260
-0.000426
0.073515
0.055324
-0.000559
0.029242
0.090180
-0.064421
-0.079135
0.002093
0.072135
-0.077919
-0.095807
0.085641
-0.099885
-0.008274
-0.065803
-0.075664
0.024495
0.037613
-0.041136
-0.065815
0.067312
-0.061091
0.067500
0.054829
0.023974
-0.079093
0.091811
0.119323
0.051072
-0.085494
0.033101
-0.013409
0.020340
0.029570
-0.000857
0.021292
-0.012900
-0.077099
0.072734
-0.019755
0.076320
-0.021434
-0.095680
-0.073107
-0.022394
-0.004342
0.044278
-0.067201
-0.025781
0.039795
0.006723
0.068538
0.085277
0.021388
-0.007116
-0.064972
-0.016011
0.022479
0.045817
0.036607
0.027906
0.003065
-0.043575
-0.015549
0.008106
0.101451
0.050126
-0.008668
0.082167
-0.042643
-0.005685
0.026417
-0.014318
-0.090313
-0.011288
-0.083305
-0.021900
0.030093
0.030515
-0.043433
0.096897
-0.045584
0.065341
0.040661
0.048938
0.051904
-0.011271
0.056873
0.103864
-0.048106
-0.072878
-0.018327
0.012868
0.056127
-0.039360
0.033702
-0.008630
0.014294
-0.109216
-0.024189
0.003663
0.008279
-0.137471
-0.011232
0.040329
-0.011143
-0.031418
-0.006339
-0.113426
-0.047411
-0.007072
0.018730
0.030518
-0.022029
0.044812
0.019548
-0.060390
0.069690
-0.002400
-0.043922
-0.035334
-0.099749
-0.017107
0.003903
-0.013894
0.004220
-0.068875
0.003355
-0.037313
-0.001092
0.027841
-0.010113
-0.011313
0.110507
-0.028819
-0.009089
0.066971
-0.044563
0.011341
0.022951
-0.025051
0.032294
-0.067511
-0.053243
-0.068731
0.086236
0.082028
0.116028
-0.016066
0.038104
-0.007509
0.018329
0.057841
-0.058250
0.056627
0.045079
0.102196
-0.076188
0.016347
-0.053911
-0.017254
-0.064226
-0.047281
0.041989
0.067617
0.019286
-0.024406
-0.027864
0.072840
0.131880
0.000198
0.023191
-0.143443
-0.056949
-0.065176
-0.066703
0.003481
0.019992
-0.037435
0.069443
-0.022321
0.030223
-0.065347
-0.066761
-0.005964
-0.033188
0.024092
0.055832
-0.034623
-0.083314
-0.020589
0.029987
-0.023773
-0.031325
-0.081709
0.037211
0.028062
0.022722
-0.031680
-0.017498
0.026512
-0.117494
-0.053699
0.002719
-0.076809
0.032242
-0.082417
-0.077099
-0.057655
0.067507
0.084277
0.121918
0.035250
0.051966
0.018702
0.120029
0.045072
-0.054694
0.090062
-0.131684
0.056142
0.104999
0.032454
0.049695
-0.060844
0.069402
0.005517
0.031692
-0.066616
0.014975
-0.013614
0.118359
-0.008517
-0.028654
-0.076714
-0.066075
0.083276
0.067329
0.001923
0.011484
0.056689
-0.018191
0.028609
0.050951
-0.067655
-0.124378
0.079575
-0.002554
0.103474
0.065767
-0.054452
0.062090
-0.065632
0.043184
0.031347
-0.027544
-0.056600
-0.030623
0.055501
-0.070027
-0.000498
0.011591
-0.021721
-0.086941
0.012678
0.072056
0.031677
0.091283
0.032218
-0.103647
-0.013048
0.068350
-0.076961
-0.040420
-0.116134
-0.006957
0.014360
0.071955
0.037346
0.015693
0.039234
-0.045187
0.059350
0.068064
-0.075116
0.031809
0.029517
0.043189
-0.043632
0.023348
-0.043463
-0.058353
0.083502
-0.058052
-0.022502
0.030561
0.011594
0.030242
-0.001413
0.016685
0.058947
0.048096
0.080988
-0.085122
-0.077280
0.060327
-0.054787
0.119985
0.081244
0.026895
-0.023482
-0.019495
0.016173
-0.084207
-0.005442
-0.061796
-0.011722
0.026447
-0.047301
-0.058404
0.043911
-0.024626
-0.077197
0.081903
-0.119940
0.016406
-0.081893
-0.010306
0.054853
0.023901
-0.003497
0.009486
-0.023606
0.079493
0.045687
0.026334
-0.088937
-0.028128
0.028594
0.067309
-0.054842
0.008198
-0.016330
-0.025868
-0.057503
0.028589
0.002309
-0.037007
0.070608
-0.042732
-0.017329
0.030694
0.062901
0.023075
0.111597
0.104679
0.031046
-0.056201
-0.041641
0.000227
-0.018435
-0.019198
-0.034838
0.071701
0.056092
-0.071738
-0.015756
0.028293
-0.048753
0.039402
-0.020344
-0.043017
-0.043375
0.046810
-0.015599
0.016202
-0.005420
-0.033673
0.035967
-0.017748
-0.078394
0.009906
-0.006563
-0.001638
0.104586
0.088936
-0.038293
0.100174
0.066421
-0.056042
-0.013560
-0.030514
-0.044089
0.047570
-0.051572
0.040226
0.078732
0.023602
-0.027710
-0.101213
0.035211
-0.004595
0.004524
-0.094099
-0.079542
-0.107878
0.004199
0.001622
-0.026923
-0.044155
-0.105802
-0.039415
0.067140
-0.119131
0.007308
-0.033151
-0.122378
0.075842
-0.069606
0.072039
-0.042666
-0.069001
-0.069602
0.044344
-0.076439
0.033723
-0.007844
0.053901
-0.044081
-0.049694
0.020848
0.105233
-0.007453
0.022870
-0.071186
-0.063542
0.048014
0.057320
-0.069333
0.008028
-0.052150
-0.089525
0.132602
0.070896
-0.021109
-0.008515
-0.013300
0.055341
-0.028584
0.058285
-0.030965
0.024253
0.084346
-0.067050
-0.066901
-0.000837
-0.026435
-0.035861
-0.026994
0.044066
-0.152263
-0.020005
-0.064969
0.087139
0.022911
0.029188
0.002938
0.005431
-0.096798
-0.020871
-0.058254
0.029569
-0.107974
-0.002249
-0.037715
0.075090
0.019865
-0.064657
0.033404
0.041744
0.065139
0.098799
-0.085245
-0.037659
-0.162815
0.054837
-0.067268
0.107589
0.009422
0.076181
-0.126044
-0.007798
-0.055901
-0.008790
-0.156694
0.015094
-0.042113
-0.009578
-0.007163
-0.020905
-0.029403
0.067713
-0.029688
-0.019084
0.108569
-0.125169
0.077934
-0.091440
0.010333
-0.058040
-0.075996
-0.064395
-0.021460
-0.030282
-0.030536
-0.008227
-0.017058
0.014470
-0.041300
-0.042652
-0.012511
-0.005104
-0.065849
0.045691
-0.084708
0.125324
-0.048737
0.015436
-0.021243
-0.033909
-0.038656
-0.060470
0.037506
0.067074
-0.053457
0.005427
-0.050797
0.024613
0.000183
0.135906
0.036533
-0.083898
-0.062532
0.062807
0.027072
0.066908
-0.030288
0.027108
0.000621
0.011744
0.067554
-0.048277
0.040995
-0.028889
-0.132057
-0.008608
-0.025279
-0.064755
0.056126
-0.006766
0.044957
0.042451
0.122426
-0.018308
-0.029051
-0.012816
0.037650
0.031407
-0.043021
-0.074432
-0.002466
-0.048063
0.035011
0.024149
-0.042507
-0.103937
-0.085799
0.035052
0.007334
-0.084778
0.004849
0.006399
-0.086577
-0.015374
0.049666
-0.173348
-0.077440
-0.063203
-0.002730
-0.123909
-0.014190
-0.026191
-0.020013
-0.074969
0.023364
-0.004493
0.082298
0.092032
0.018503
-0.033966
-0.081553
0.028517
-0.110788
0.121988
-0.039498
-0.071589
-0.012234
0.002610
-0.017470
0.073320
0.001250
0.018828
-0.088193
-0.028493
0.022947
0.034529
0.060835
0.047599
-0.058944
-0.010108
-0.099794
0.077887
0.039566
-0.109388
-0.013943
0.011052
-0.050077
-0.041344
-0.086676
-0.085205
0.011935
-0.055994
-0.077375
0.025098
0.085921
0.050514
-0.017502
-0.008477
-0.106563
0.089030
0.014252
0.031464
0.001055
-0.064374
-0.045005
-0.047990
0.012652
0.000890
0.008597
-0.050947
0.037767
-0.037794
0.102128
-0.046067
0.023887
-0.022502
-0.068601
-0.011036
-0.073450
-0.033648
-0.049179
0.075509
0.078375
-0.056934
-0.008496
-0.066578
-0.023965
-0.006851
0.078950
-0.007523
0.045015
0.021510
-0.143675
0.041497
0.036891
0.022745
0.078254
-0.011585
-0.019674
0.052066
0.055677
0.058415
0.057513
0.042249
0.047525
-0.039581
-0.024659
0.018912
0.049088
-0.039519
-0.014871
-0.049015
0.030862
-0.059454
-0.030213
-0.001844
0.064237
-0.025856
-0.028989
0.008308
0.113342
0.015765
0.042418
-0.047284
0.023115
-0.009547
-0.089643
-0.067204
-0.023402
0.013549
0.074994
-0.044293
0.041986
0.008547
-0.006279
-0.023678
0.104988
0.041017
-0.015743
-0.005176
-0.017627
0.005894
0.102154
0.032834
0.055822
0.063571
0.077143
-0.097875
0.014921
0.020309
-0.006448
-0.062214
-0.049071
-0.091588
0.036907
0.029857
-0.016092
-0.023650
0.042067
-0.009837
-0.001323
-0.060434
-0.075975
0.033963
0.017747
0.120204
0.061805
-0.063735
-0.019828
0.019709
-0.026510
-0.120051
-0.028857
-0.096378
-0.126038
0.073272
0.013097
0.010073
-0.037486
0.012869
-0.041769
-0.118489
-0.008059
0.075152
0.008756
-0.042773
0.002789
-0.052833
0.043130
-0.122578
-0.063887
-0.044121
-0.038655
-0.109206
0.039575
-0.034419
0.067247
0.015878
0.043119
-0.019314
0.028521
0.079549
0.017555
-0.004181
-0.087560
-0.043832
-0.001694
0.010445
0.038395
-0.086686
-0.036283
0.029289
0.003056
-0.031969
-0.033927
0.000387
0.080053
0.025174
0.022035
0.077975
-0.095475
-0.051748
0.062571
0.000787
0.013107
0.027074
0.044938
-0.045074
-0.046694
0.100108
-0.033680
0.003500
0.067245
0.076791
-0.052796
-0.073861
-0.053163
0.033361
-0.175259
-0.122732
0.054469
0.068762
-0.045026
0.040110
0.085635
-0.012158
-0.045026
0.056171
-0.041142
0.080850
-0.037341
0.018743
-0.033402
-0.032350
-0.055375
0.070315
0.049483
-0.116842
-0.078216
-0.029356
-0.101600
-0.066326
-0.119027
0.090373
-0.079765
0.021074
-0.005052
-0.073875
-0.000601
0.081856
0.068877
-0.035991
-0.027826
0.001598
0.042614
0.048241
0.031561
0.074592
-0.016766
0.078243
-0.101972
-0.025750
0.047036
0.059165
0.103024
0.018674
0.043741
-0.044682
0.064881
0.106960
-0.027962
0.042313
-0.115026
-0.011242
-0.062536
0.041162
-0.055858
-0.017470
0.057829
-0.074639
-0.062937
0.038244
-0.039927
-0.026308
-0.068537
-0.023288
0.094090
0.077922
0.045542
0.009043
0.014239
0.053561
0.039600
-0.013893
-0.047576
-0.089901
0.074873
-0.058991
-0.009297
-0.055167
-0.092110
-0.077677
-0.082390
-0.074943
-0.008476
-0.071638
0.075296
0.044670
0.092749
-0.029390
-0.108019
0.013348
-0.069070
0.138520
0.012994
0.047209
0.044022
0.103116
-0.109686
-0.009595
-0.018879
0.013156
0.016655
-0.078499
0.010254
-0.103901
0.015021
0.050686
-0.005301
0.042546
0.057499
-0.026815
0.006856
-0.066800
-0.117106
0.015095
-0.048922
0.026139
0.034173
0.029806
-0.084038
0.034166
-0.068759
-0.029632
-0.005772
-0.019490
-0.028597
0.058695
0.008447
-0.033429
0.085645
-0.049387
0.038443
-0.048779
-0.048526
0.072580
0.047829
-0.062023
0.052759
-0.105232
0.045332
-0.064011
-0.147296
0.072981
-0.015734
0.010292
-0.041984
-0.097393
0.048640
0.038888
0.031550
0.023685
-0.061471
0.053188
-0.047742
-0.068246
-0.094002
-0.094199
-0.058287
-0.024266
-0.017892
-0.010534
-0.005266
0.057031
-0.022136
-0.093290
-0.012167
0.056149
0.127690
0.037821
0.048705
0.076814
0.073493
0.025232
0.044470
-0.064086
-0.061717
-0.069127
0.053698
-0.045051
-0.057167
0.040640
-0.120425
0.039977
0.093795
0.005966
0.063303
-0.023376
0.092135
-0.057666
0.026980
0.049531
-0.040365
0.034830
0.038536
0.050468
-0.054701
0.078604
0.037993
-0.011336
0.076662
0.058310
0.035564
-0.125873
-0.132058
0.026341
-0.007721
-0.069270
0.090503
-0.057591
0.009143
0.005091
-0.018469
-0.042738
-0.120967
-0.035838
-0.063921
0.015998
-0.015024
0.022051
-0.052725
-0.074471
-0.028014
-0.026113
0.020856
-0.006427
-0.078628
-0.019385
-0.030957
-0.008429
0.033529
0.060591
0.055452
0.016442
-0.034000
-0.063568
-0.076601
0.101313
0.041070
-0.044907
-0.103742
-0.034108
0.056812
-0.025958
0.013039
-0.162753
-0.032062
0.096585
-0.039291
0.064891
-0.056111
0.074901
0.013707
0.006517
-0.036338
0.079094
0.054076
-0.076702
0.107088
-0.129895
-0.061166
0.046513
-0.078669
-0.036835
-0.054462
-0.087744
-0.017571
0.085041
-0.006282
-0.049486
0.078278
-0.001597
0.060839
0.013973
0.013879
-0.052400
0.005038
0.090548
-0.107961
-0.025412
0.070907
0.082258
0.008157
-0.042789
0.009869
0.038279
-0.029677
0.035118
0.036483
0.087268
-0.040011
0.106090
-0.003077
-0.016035
-0.060649
0.038127
-0.030732
-0.029471
0.102410
0.000344
-0.037288
0.013841
0.094583
0.027421
0.022886
-0.057769
0.026541
-0.043128
0.071302
-0.035840
-0.029322
-0.022134
-0.044634
0.028843
-0.007603
-0.037692
-0.052100
0.032646
0.010014
0.032474
0.155736
0.041720
-0.043418
-0.027492
-0.089994
0.049902
0.035816
0.032386
0.019172
-0.014608
0.051737
-0.092586
-0.018318
0.022035
-0.006932
-0.068955
-0.060133
0.067397
-0.029910
-0.036494
0.084798
0.079292
-0.003048
-0.073359
-0.009533
0.070047
-0.026821
-0.012126
0.056147
0.014939
-0.004426
0.012381
-0.023453
-0.071213
0.022158
0.003895
-0.115200
-0.008509
-0.043678
-0.037129
-0.075048
0.048714
0.042381
-0.069586
0.088438
0.115812
0.125391
0.064227
-0.067403
0.047722
-0.017116
-0.039183
-0.012312
0.092368
0.028914
0.015170
0.064688
0.064992
-0.179960
-0.048946
0.127632
-0.106996
0.012811
0.044891
-0.102568
0.069386
-0.008036
-0.096474
0.006008
-0.086352
-0.019624
0.025083
-0.070144
-0.066934
0.018362
0.120081
-0.138825
0.000874
-0.037038
-0.076355
0.087033
0.021587
-0.069049
0.058540
-0.063437
0.064323
-0.045905
0.020917
0.034833
-0.013313
-0.083810
-0.039313
0.004186
-0.023298
0.070861
0.004507
0.032115
0.027719
-0.029458
0.009122
-0.030837
-0.006254
0.023742
0.029408
0.039178
-0.006423
0.116928
0.067995
-0.004872
-0.003116
0.100481
0.082609
-0.046975
0.077324
0.043049
0.110182
0.026156
-0.077980
0.032831
-0.032007
0.029747
0.012648
0.008699
0.075215
0.043697
-0.073682
0.088283
-0.012413
0.105342
-0.047233
0.013974
-0.065497
-0.134277
-0.052278
0.062145
0.066684
0.021774
-0.082828
0.167252
0.005718
0.022939
-0.086569
0.029497
-0.058834
-0.069661
0.008447
-0.096783
0.056368
0.056543
0.156301
0.037042
0.049232
-0.003057
-0.028390
-0.055449
-0.000099
-0.039938
0.075632
-0.051353
-0.068878
0.019452
0.043137
-0.056972
0.043094
-0.086537
-0.027323
-0.016908
-0.030125
-0.058912
0.037087
0.038389
0.048395
0.109488
0.007520
0.029020
-0.055456
0.034518
0.034380
-0.042283
0.069852
0.045923
0.022167
0.059089
-0.044771
0.020062
-0.088932
0.031162
-0.007143
-0.020683
0.033109
0.044552
-0.048201
-0.039375
-0.002214
0.000532
0.025808
0.007690
-0.026108
0.017780
-0.153497
-0.039202
-0.063389
-0.033888
-0.013778
0.078869
-0.011994
0.053846
-0.035939
-0.090407
-0.044695
0.035183
-0.015562
-0.051276
-0.065111
0.038245
-0.029621
0.077609
-0.022139
0.052861
-0.032435
-0.040045
-0.019963
-0.116553
-0.071733
0.051170
-0.010605
-0.046791
0.043079
-0.048148
0.010284
0.071792
0.079427
0.042881
-0.132904
0.039207
-0.010072
-0.103924
0.026179
-0.040999
-0.002967
-0.073830
-0.052195
-0.038668
-0.041326
0.007231
-0.028377
-0.032296
-0.068079
-0.035966
0.074443
-0.062806
0.036805
-0.053845
0.037484
0.004433
0.032071
-0.021625
0.020197
0.057485
-0.101386
0.032165
-0.029295
0.068654
-0.023112
0.028172
-0.099667
-0.010763
-0.092172
-0.021364
-0.048660
-0.062813
-0.023633
-0.062467
-0.027882
-0.068628
-0.160628
0.009880
-0.097621
0.020106
-0.023601
0.099300
0.105886
-0.025285
0.052362
-0.015013
0.024213
-0.042500
-0.051368
-0.049942
-0.085643
0.024628
-0.025360
-0.055213
-0.038094
0.018089
-0.047210
-0.004826
-0.047064
0.012993
-0.074367
-0.013343
0.062767
0.099174
0.030915
0.036673
0.010011
-0.112504
0.083256
-0.086030
0.126486
-0.076689
-0.023980
-0.035995
-0.046835
-0.059529
-0.121082
-0.030693
-0.043307
-0.065533
0.059673
-0.017149
-0.102871
-0.001591
-0.032912
0.074783
-0.064786
-0.099714
0.068089
0.036270
-0.054507
-0.066766
-0.017347
0.032045
0.024848
-0.017932
0.005389
0.024566
