# Shape: (3, 3, 32, 32)
-0.061632
-0.069293
0.031164
0.046753
-0.008067
0.042486
0.020042
-0.009287
0.007572
-0.048429
0.102456
-0.135570
0.009628
-0.032183
-0.055584
-0.137312
0.044568
0.038649
-0.080394
-0.056301
0.077585
-0.000220
-0.096555
-0.062677
-0.033269
0.093859
0.023581
-0.027523
-0.106934
0.030753
-0.009156
-0.020229
-0.035290
0.045467
0.016594
0.121005
0.082298
-0.026631
-0.108958
-0.022894
0.011808
-0.026296
0.085339
-0.133988
0.011993
-0.037756
-0.012402
-0.037045
-0.062392
0.068565
0.055775
0.072251
-0.058417
0.036691
0.027974
0.123090
-0.047398
0.076593
0.093926
0.023217
-0.032287
0.006425
-0.120819
-0.020817
-0.050417
0.105415
-0.097719
-0.037144
-0.035676
-0.106723
0.131473
0.111912
0.096506
0.003900
0.041964
-0.035593
0.010598
-0.057591
-0.100718
0.060986
0.057416
-0.089919
0.008271
0.056101
-0.049751
0.001770
-0.140105
0.049085
-0.020418
0.028383
0.031895
0.072012
0.011097
0.104210
0.042570
-0.063655
-0.063790
0.033209
0.026001
-0.100305
-0.058821
-0.031863
0.054537
-0.130974
-0.082042
0.045820
0.058456
-0.099920
0.000900
-0.082875
-0.096350
0.058864
-0.157231
0.100864
-0.044164
0.060669
-0.076820
-0.073025
-0.012180
-0.000322
0.095667
-0.033491
-0.099561
-0.032012
0.057542
-0.092925
0.065945
0.001125
0.125804
0.044638
-0.046196
0.065284
0.096089
0.042944
-0.023613
0.042586
-0.125104
-0.076415
-0.017616
0.001989
-0.087287
0.124160
-0.037972
-0.068232
-0.055514
-0.069224
-0.112340
-0.113269
-0.087387
0.070142
-0.100240
-0.072565
0.122885
0.062597
-0.163220
-0.040513
0.031797
0.041732
0.116039
0.048469
-0.116187
-0.019755
0.030899
-0.056141
-0.111527
0.012767
0.065808
0.069755
0.131941
0.078331
0.006231
0.131133
0.019819
-0.143719
0.009374
-0.014821
0.144244
-0.046105
0.066533
-0.019258
0.011979
0.060618
0.040435
-0.003122
0.055487
0.000417
0.057769
-0.031179
0.025740
-0.041664
0.034366
-0.054655
0.014764
0.090017
0.060484
-0.101630
0.087283
-0.104643
0.165626
-0.071837
-0.094982
0.013972
0.036751
-0.032631
0.104092
0.083150
-0.119561
0.044754
-0.052789
0.046346
-0.040375
0.009576
-0.044547
-0.012001
-0.089998
-0.156890
0.037074
-0.048053
-0.025863
0.041727
0.041770
-0.068359
0.080290
-0.065177
-0.077277
-0.126570
0.100485
-0.005206
0.013735
0.017822
-0.036864
0.066740
0.088945
-0.092003
-0.094931
0.071931
-0.058819
0.027875
-0.006011
0.084433
0.095028
-0.018279
0.066765
0.061328
-0.116592
-0.150853
0.074644
-0.070816
-0.040894
0.137619
-0.054971
-0.082116
0.026031
-0.070496
-0.009313
-0.033356
0.036502
0.061494
-0.110645
0.030128
-0.120806
0.005207
0.061642
-0.084227
0.045486
-0.034845
0.084204
-0.083578
0.114957
0.060959
-0.032969
-0.057446
0.037529
-0.007473
-0.026175
0.038809
-0.079772
-0.041493
-0.081816
0.058508
0.022894
0.064213
0.028129
-0.092460
0.049179
0.022183
0.090076
-0.019427
-0.109795
0.015716
-0.098049
-0.076722
-0.016224
0.021833
-0.089488
-0.009687
0.047565
-0.084040
-0.050657
0.122104
0.121154
0.021686
0.070382
-0.022389
-0.055125
-0.051160
0.144912
0.014666
0.017291
-0.034764
-0.028242
0.055204
0.064624
-0.072088
-0.032843
0.045530
0.049352
-0.076930
-0.032802
-0.208805
0.063265
-0.019230
0.167368
0.008483
0.047252
-0.066864
0.098255
0.104744
0.098015
0.057312
0.046698
0.065990
0.043107
-0.056286
0.059060
-0.049478
-0.025768
-0.022478
-0.047793
0.048052
-0.001509
0.060048
0.007710
-0.059621
0.003439
0.122932
-0.020001
-0.044064
0.000247
0.068086
-0.012531
0.095534
-0.040406
0.014330
-0.176167
0.036890
0.131793
0.029335
-0.041845
-0.054681
-0.084704
-0.035888
-0.091341
0.031704
-0.029249
0.019612
0.045190
0.063667
-0.122308
-0.096668
-0.075486
-0.061361
-0.057368
0.011002
-0.035343
0.123927
0.010395
-0.020708
0.060527
0.044164
-0.079090
0.048546
-0.112994
0.064762
-0.072154
-0.073331
-0.154662
-0.049140
0.006134
0.187919
0.008651
-0.147095
0.053361
0.126770
0.050187
-0.086486
0.017873
0.020666
0.054413
-0.051523
-0.087070
-0.033964
-0.054215
-0.018079
-0.006543
-0.004042
0.029383
-0.115256
-0.020537
-0.129855
0.036760
-0.169833
-0.019003
-0.009815
-0.077467
-0.143868
0.100946
-0.046532
0.013602
-0.069404
-0.116246
-0.052531
0.041668
-0.161068
-0.020195
-0.039035
-0.116622
0.150908
-0.064976
0.000884
0.051235
-0.002634
-0.091888
0.097807
0.039741
0.025673
-0.045308
-0.008764
-0.200666
0.028564
0.107743
0.121570
-0.185660
0.009494
0.018255
-0.100126
0.001857
-0.057862
-0.055653
0.097010
0.045723
0.087847
0.060826
0.043894
-0.015307
-0.089475
0.059237
-0.007681
-0.090348
-0.021842
-0.023469
-0.141104
-0.024536
0.019738
-0.023475
-0.019052
0.067598
-0.050370
-0.021631
0.041455
-0.091336
0.112280
0.046272
0.080484
-0.048436
0.013282
-0.005546
0.017387
0.062336
-0.140134
0.067548
-0.008796
0.026470
-0.053674
-0.041672
0.052469
-0.073957
0.071338
0.054561
-0.171827
-0.182019
-0.154787
0.106220
0.011261
-0.125219
-0.066232
0.006379
-0.019676
-0.040911
0.111647
-0.088300
-0.091960
0.083505
-0.116497
0.115145
-0.075862
0.046051
-0.016498
-0.020800
0.052985
0.000468
-0.037470
-0.024105
0.008943
0.005101
0.065889
-0.001961
0.066834
0.067424
-0.096392
-0.039573
0.003745
-0.003717
-0.075253
-0.050837
0.057979
0.055558
0.003216
-0.013974
-0.009126
0.096753
0.069052
-0.023241
0.066447
-0.066450
0.156268
0.013236
-0.082292
0.063909
-0.056109
0.032800
-0.099339
0.029330
-0.013757
0.025836
-0.066905
-0.135435
-0.145657
0.095544
0.096538
-0.013648
0.047207
0.076989
0.155261
-0.029139
-0.147171
0.042513
-0.119411
-0.080140
-0.152310
0.045861
-0.123844
0.058431
0.001972
0.011067
0.054578
-0.065740
0.012032
0.003344
-0.147681
0.151947
0.111553
-0.118413
-0.009596
0.069873
0.098572
-0.046022
-0.093891
-0.035882
-0.198490
0.044056
0.220531
-0.099792
0.117627
0.129528
0.091098
0.065570
-0.002206
0.130149
0.006308
-0.010164
0.130184
0.094078
-0.188814
-0.080698
0.079360
0.025472
-0.017578
0.083111
-0.105268
0.026700
-0.295403
0.081196
0.034772
-0.016717
-0.015621
0.004069
0.072418
0.047871
-0.041957
0.045609
-0.070511
0.047661
-0.276321
0.041827
0.053558
-0.130422
-0.024173
-0.008893
-0.004085
0.073001
0.119734
-0.074237
0.008432
-0.130187
0.065959
0.060273
-0.036230
-0.217642
0.001903
-0.006172
-0.005495
0.119186
0.147230
-0.204792
-0.033313
0.219723
-0.094218
-0.072215
-0.004921
-0.062704
0.073039
0.105393
-0.028527
0.083378
-0.060176
0.014422
-0.008817
-0.046367
0.007031
0.020042
-0.003303
0.020613
-0.037511
-0.087789
0.025138
0.084384
-0.013338
0.028445
-0.082096
-0.081019
0.035984
-0.101790
0.055485
0.070948
-0.001126
-0.076024
0.028890
0.063512
0.093809
0.021494
0.005557
-0.061712
-0.081442
0.068177
-0.098881
0.019027
-0.042584
0.017953
-0.041262
0.070050
0.083039
-0.011751
0.066457
-0.044238
0.023333
-0.044402
-0.080883
0.086223
-0.005102
0.042711
0.125502
-0.053611
0.044241
0.026652
-0.020665
0.043882
-0.087148
0.089376
-0.000043
0.046581
-0.024596
0.044297
-0.135760
-0.130820
-0.095679
0.002632
0.087299
0.156876
-0.003382
-0.085281
-0.102810
-0.103408
0.039056
-0.154875
0.022533
-0.082595
0.189133
-0.088527
-0.054320
0.041968
0.054354
-0.099870
-0.046603
0.052421
0.094666
-0.046283
0.031091
0.045365
-0.036156
0.002541
-0.040601
0.077924
0.087657
0.005405
0.065325
-0.059294
0.007965
-0.066985
-0.088021
-0.105581
0.156025
0.084104
0.096274
-0.018591
0.066954
-0.036005
0.044830
0.023371
-0.028147
0.053548
0.003542
0.100515
-0.064298
0.058771
-0.029348
0.053318
0.108019
-0.076049
-0.078252
-0.074380
-0.049039
-0.024496
0.134164
-0.005551
0.075168
0.060766
0.030571
-0.099531
0.029662
-0.022929
-0.004012
-0.011753
-0.042314
-0.056719
-0.050978
-0.008007
-0.021274
0.081103
-0.059232
-0.073770
-0.142837
-0.060270
0.021617
-0.073149
0.109115
0.077874
0.042629
-0.073415
0.104606
-0.032760
0.071859
0.032915
-0.060607
-0.055074
0.050030
-0.016507
-0.065787
-0.018847
0.084673
0.073667
-0.094214
-0.055617
0.087799
-0.029073
-0.041508
-0.070129
-0.007896
-0.028453
-0.082613
-0.031850
-0.024957
0.102897
-0.004079
0.141922
-0.107022
0.054079
-0.022976
0.003571
-0.065076
0.018647
-0.084991
0.017837
-0.089467
-0.146549
0.122942
0.026968
-0.018969
-0.126148
-0.022905
0.101690
0.143316
-0.057835
-0.041299
-0.000214
0.015390
0.093539
0.006638
0.115765
-0.010736
-0.006628
-0.132368
-0.013210
0.003838
0.092124
0.114403
-0.115114
-0.056194
0.001802
0.070829
0.001022
-0.054471
-0.009528
-0.158447
0.001641
0.087251
0.094082
-0.000579
-0.064169
0.037903
-0.084677
0.026245
0.137628
0.063121
-0.041770
0.082116
-0.035169
0.036455
0.046630
0.015871
-0.015056
0.079090
-0.008996
-0.076469
-0.113213
0.106073
0.107542
-0.022910
0.103500
0.146247
0.070572
-0.126905
-0.056073
-0.086367
0.010351
-0.000308
-0.017356
-0.014716
-0.040740
-0.011894
-0.020216
0.033556
0.078381
0.048379
0.042375
0.001035
-0.196301
0.061720
-0.037194
0.095563
-0.005038
0.031170
0.024782
-0.031486
0.021720
0.165625
0.065569
-0.068716
-0.084851
-0.046327
-0.141854
-0.035294
0.094821
0.019616
0.011947
-0.066218
0.040745
0.161083
-0.002263
0.044151
-0.122899
-0.160837
0.114930
0.025573
-0.086135
-0.037164
0.009102
0.019834
0.107125
0.027934
-0.022999
-0.027935
0.151322
0.011122
0.075478
0.131245
0.048590
0.028734
0.104850
-0.000306
0.062909
0.018488
-0.029739
0.064003
-0.026873
-0.087483
-0.019421
0.074838
-0.006788
0.029453
0.004892
0.131422
-0.040203
0.025795
-0.036374
0.122163
0.061956
0.093285
-0.082994
0.091724
-0.177265
0.078172
-0.196363
-0.068116
-0.118007
0.106635
0.097528
0.026162
0.010017
0.126665
-0.006983
0.117904
-0.034362
-0.096175
0.028582
0.113303
0.009416
-0.069904
0.106923
-0.021915
-0.009586
0.114286
0.087271
0.051164
0.004890
-0.049833
0.044557
-0.074239
-0.056149
0.020185
-0.050476
0.063046
0.045032
0.067931
-0.008730
0.069114
0.016410
-0.078278
-0.050055
0.038273
-0.016398
0.002655
-0.036790
0.017186
0.177616
-0.086620
-0.044581
-0.036595
0.070542
-0.039268
0.078262
0.034977
-0.093427
0.108726
0.079254
0.032902
-0.030197
0.139484
-0.043791
-0.053061
-0.006821
0.085905
-0.017268
-0.012720
0.021015
-0.135740
-0.046582
0.071152
-0.052526
0.098658
-0.068740
-0.023886
-0.005509
0.016159
-0.015826
0.043877
0.086607
0.128445
-0.058129
-0.178600
-0.024560
0.039863
-0.105796
-0.127613
0.049591
-0.069986
-0.041008
-0.066289
-0.055789
-0.044031
0.049834
-0.105924
0.070306
0.018436
0.039540
0.017768
-0.096047
0.115882
0.109913
0.024330
0.071165
0.074615
0.040991
0.026424
-0.108826
0.051615
-0.022540
0.010871
0.066432
0.027280
-0.125032
0.096553
-0.113886
-0.026137
0.042972
-0.003462
0.022925
-0.009835
-0.058926
0.054438
-0.127830
-0.052826
-0.084370
0.024668
0.065734
-0.051546
-0.080366
0.081658
-0.007972
0.106392
0.044459
-0.012897
0.018656
-0.049278
0.010730
0.133654
-0.044648
0.005738
0.132960
-0.090758
0.123462
0.021200
-0.156278
0.046095
0.026918
0.005152
0.007233
-0.032674
-0.066099
0.063613
-0.091866
-0.017434
0.042834
0.052758
0.037380
0.004490
0.017300
-0.093305
-0.084434
-0.024229
0.016830
-0.021324
0.048631
0.080948
0.073376
0.051199
-0.035755
0.076887
0.099450
-0.197024
0.021102
-0.176414
-0.001936
0.127436
-0.038326
-0.037488
-0.040516
0.051284
-0.009590
0.000262
0.047524
-0.053517
-0.068197
-0.065946
0.061761
0.038817
0.053409
-0.080156
-0.059146
-0.121745
0.005683
-0.025192
0.004054
0.084320
-0.050868
-0.051580
0.012961
-0.034236
0.154981
0.046060
0.143899
0.009076
-0.073314
0.140460
-0.086748
-0.202131
-0.077028
-0.006662
0.044608
-0.039057
0.096961
0.014763
-0.105497
0.068181
-0.082963
0.068032
-0.013856
0.082705
-0.009525
0.088945
0.050224
-0.088139
0.002195
-0.052653
0.049278
-0.014980
-0.025269
-0.097655
-0.057930
0.046974
-0.051278
0.088012
-0.035855
0.048801
-0.044959
0.080590
-0.100742
0.035310
-0.096209
0.022778
0.089601
0.028303
-0.113403
0.095957
-0.026329
-0.035902
0.058388
-0.035081
0.061592
-0.006014
-0.070379
0.126943
-0.109946
0.010495
0.089872
0.011284
-0.075963
-0.026045
-0.009567
0.056619
0.083595
0.056519
0.122973
-0.026921
-0.053367
0.023523
0.008912
-0.052806
0.007571
-0.081127
0.058237
0.132771
-0.014796
0.007949
0.100792
-0.018267
-0.021760
-0.037528
-0.079357
-0.092725
0.034471
-0.093599
0.072735
0.103592
-0.041385
0.034990
0.038502
0.014575
-0.101769
-0.024387
-0.103249
-0.130577
-0.098166
-0.026981
0.023312
-0.009202
-0.034380
-0.057525
0.071120
0.073875
0.015607
-0.053939
0.114063
0.005475
0.018097
-0.022270
0.065471
0.003573
-0.098755
-0.061206
0.027688
-0.040475
-0.035411
-0.015536
-0.061133
0.015829
0.062782
-0.122755
-0.076150
0.065155
0.106225
-0.003709
0.044214
0.031695
-0.007231
-0.011275
0.030319
0.049346
-0.086990
0.083601
-0.010496
0.026610
0.049660
0.039238
0.031847
0.063813
-0.014039
-0.083853
-0.013001
0.100438
0.036155
0.119680
0.007527
-0.004335
0.075267
-0.000928
0.019960
-0.066851
-0.063221
0.011175
0.060439
-0.060188
-0.194195
-0.165893
-0.058314
-0.007600
-0.016640
0.033661
-0.111742
-0.018276
-0.015978
0.087527
-0.097587
-0.026450
0.043456
0.096495
0.014195
0.083545
0.040587
0.040272
0.065270
0.090577
0.032200
-0.135498
-0.126326
0.018624
0.039502
-0.034004
0.083330
-0.056836
-0.041383
0.008849
0.015931
-0.173936
0.012558
-0.085923
0.015711
0.031750
-0.009997
-0.110773
0.002957
0.075966
0.094711
0.022726
0.124672
0.011038
0.055627
-0.029234
0.039340
-0.015327
-0.050206
-0.090628
0.162129
0.069096
0.069659
-0.147720
-0.045914
-0.117953
0.130577
0.006125
0.107283
-0.085418
0.190252
-0.051829
-0.021776
0.015807
0.110900
0.043424
-0.044662
0.101345
-0.055597
0.126709
-0.062185
-0.126481
0.015490
-0.138204
0.007293
0.018945
-0.046848
0.030330
0.071174
0.005967
-0.158648
-0.003572
-0.052649
0.016148
-0.084736
0.069100
-0.020089
0.035633
-0.079922
0.016289
-0.008126
-0.120652
-0.091830
0.060204
-0.047186
-0.015984
0.096485
-0.043412
0.088650
-0.064121
0.038743
0.040073
0.137066
-0.061922
0.161543
0.027394
0.058685
-0.088258
-0.116157
-0.013402
0.080541
-0.064582
0.102967
0.044644
-0.038270
-0.006012
0.047032
-0.116792
0.131198
-0.083659
0.001203
0.023996
0.013122
-0.123600
0.090412
-0.015896
0.016314
-0.087902
0.101917
0.092915
-0.047119
-0.103938
0.016276
0.020111
0.042302
0.077845
0.116312
0.132080
0.058298
0.100542
-0.047194
0.004049
0.088625
0.012788
0.090770
0.009151
0.044269
-0.018590
-0.016683
-0.028426
-0.043633
-0.040673
0.036949
-0.029169
0.081029
-0.105721
0.112115
-0.087009
0.064127
-0.061358
0.067258
0.147792
0.049567
-0.072207
-0.037902
0.114793
0.005219
-0.000254
0.028815
0.028126
-0.035228
-0.023770
0.060459
0.044615
-0.129703
0.055125
-0.143318
-0.106804
0.029520
0.008967
-0.074042
0.126567
-0.111567
0.111687
0.043013
0.135571
0.012851
-0.173542
0.073874
-0.046263
0.037920
0.095368
-0.025815
0.078045
-0.007972
-0.186199
-0.097172
0.028589
0.084225
-0.043550
0.140779
-0.114724
-0.096565
0.040838
0.023056
0.027688
0.051408
-0.178885
0.022055
-0.165592
0.100093
-0.019131
-0.093965
-0.026249
-0.006122
0.008705
0.048358
0.126112
-0.074385
-0.087000
0.047705
-0.121651
-0.067276
-0.036451
0.025256
0.066783
0.049060
0.039554
0.008859
-0.017744
-0.031416
0.131884
0.055847
-0.108574
0.099160
0.027492
0.121309
0.127076
0.044686
0.044452
-0.136277
0.046139
-0.144918
0.053544
-0.030990
0.120780
0.034159
0.043003
0.045514
0.014003
-0.056366
-0.006795
0.010446
0.062793
-0.005765
-0.024426
0.096556
0.050728
-0.040168
0.084608
-0.034054
-0.035302
0.049650
0.004083
-0.122345
-0.124109
0.096321
-0.099567
-0.088025
-0.043662
-0.148483
-0.180961
-0.091935
0.037905
0.108342
0.079464
-0.061650
-0.051932
-0.045727
0.061090
0.071536
0.093107
-0.017093
0.150000
-0.079817
0.061054
0.042036
0.092348
-0.046160
-0.119148
0.061289
-0.066826
-0.070487
-0.054599
-0.038559
0.183261
-0.012180
-0.069711
0.128875
-0.023352
0.182983
-0.100033
0.024364
0.180116
0.015859
-0.029254
0.016947
-0.005625
0.101992
-0.051974
-0.029282
-0.036971
0.028295
-0.001592
-0.007947
0.044696
-0.152590
-0.057282
0.077472
-0.085732
-0.090841
-0.053703
-0.220692
-0.146280
-0.044761
0.105497
-0.086958
-0.031468
0.090760
0.086573
0.079842
-0.078704
-0.092025
0.011314
0.134537
0.002977
-0.071810
-0.036479
0.049546
-0.130010
-0.081788
0.023813
-0.118703
-0.052185
0.097991
0.055024
0.089671
-0.020759
0.069701
-0.069347
0.056046
-0.022363
0.005887
0.040762
-0.096883
-0.002285
0.118780
-0.036869
0.107804
0.000400
-0.072036
-0.018578
-0.084594
-0.061376
0.002871
-0.090293
-0.063674
0.128562
-0.067594
-0.040547
0.098570
0.011527
0.021336
-0.096405
-0.006108
0.012411
0.129320
-0.103310
-0.003501
-0.068363
-0.008725
-0.045408
-0.128588
-0.099047
-0.106993
-0.094140
-0.047931
-0.009819
0.024219
0.004131
0.006294
-0.068355
-0.030476
0.094736
-0.167224
-0.025331
0.125674
-0.095572
0.050293
0.011426
0.074541
0.024287
-0.041147
-0.007154
0.072533
0.125861
-0.019745
-0.083414
0.104148
-0.049682
0.096745
-0.004156
-0.031461
-0.074594
0.090312
0.077306
0.021496
-0.039245
-0.104052
0.074751
0.185616
0.128697
-0.074488
-0.205687
0.042864
-0.006335
-0.159489
0.041578
-0.054251
0.192837
0.045615
0.030194
-0.114149
-0.000616
-0.019859
-0.158014
-0.008699
-0.082931
-0.048184
0.044883
-0.009646
-0.064935
0.066439
-0.063760
0.022530
0.002722
0.124030
0.045151
0.033414
0.037447
-0.081790
-0.030493
-0.128686
-0.004307
-0.042607
0.122333
0.045276
-0.094443
0.004165
-0.065525
0.144582
-0.210438
0.008078
0.113696
0.107579
-0.146589
0.001681
0.061258
0.140443
0.079130
0.114388
-0.003897
-0.029638
-0.071188
-0.036633
-0.046573
-0.046138
-0.060140
-0.058281
0.150188
-0.006190
-0.192981
-0.075621
0.108935
0.041417
0.024488
0.126445
-0.117032
-0.161905
-0.049620
-0.070707
-0.108277
-0.060177
0.132784
-0.136588
0.028077
-0.172865
0.071303
0.045217
-0.063121
-0.055597
-0.069595
-0.009383
-0.078659
0.111751
-0.033611
-0.124943
-0.028443
-0.062257
0.095727
-0.007530
-0.048925
0.044777
-0.008349
-0.108879
0.083465
-0.014057
-0.036996
0.098216
-0.013985
-0.091870
-0.023957
-0.036100
0.078057
-0.072854
0.007165
0.035748
-0.029502
0.111786
-0.010048
0.167835
-0.049951
-0.112905
-0.167088
-0.004034
0.069104
-0.002475
0.116247
-0.077411
-0.077043
0.125531
-0.066690
0.039351
-0.078933
0.007456
-0.071937
0.018279
0.110189
0.085010
-0.039191
0.132925
-0.015293
0.021970
-0.117909
-0.096935
-0.035341
-0.051427
-0.035056
0.004877
-0.006968
-0.037934
-0.079540
0.032559
0.125616
0.024335
-0.056893
0.052907
-0.031373
0.082431
0.046901
0.078948
-0.023015
-0.072121
-0.094279
0.148515
-0.089828
-0.032069
0.004307
0.030779
0.062179
0.007091
-0.048703
-0.021481
0.008331
0.098047
0.006682
0.052238
0.101961
-0.082217
0.029172
0.056946
-0.005490
-0.009328
-0.170936
0.000048
-0.027108
-0.015487
-0.021774
0.024763
-0.040509
-0.034193
0.057404
0.002373
0.018540
0.004939
0.077753
0.112532
0.125370
0.013398
-0.124677
-0.134273
-0.012237
-0.112230
-0.102265
0.057503
-0.035839
-0.178718
-0.071663
-0.142458
0.032405
0.043102
-0.050796
-0.110824
-0.068331
0.128403
0.100526
-0.148705
0.022062
-0.111568
-0.003235
0.015934
0.010580
-0.118843
-0.047563
-0.168818
0.118178
-0.042412
0.006433
0.035939
-0.012770
-0.028758
0.051206
0.015721
-0.062053
0.032875
0.024855
0.044671
0.051440
-0.036184
-0.026034
0.097685
-0.024193
0.099529
-0.085623
0.021881
0.087923
-0.048584
-0.048960
0.038287
-0.067858
-0.036264
-0.059750
-0.040589
-0.046941
-0.007421
0.020507
0.056066
-0.042080
0.083609
0.032678
-0.073595
0.069278
-0.056093
-0.100271
-0.129848
-0.063794
-0.060989
0.180184
0.088230
-0.086759
-0.123528
0.047849
-0.170962
0.120503
0.010040
0.058936
-0.118272
-0.113423
-0.108331
-0.021211
0.064972
0.031594
0.023329
0.062730
0.137121
0.094439
-0.078345
-0.046262
-0.059298
0.053271
-0.090087
-0.103361
0.068998
0.009978
0.039337
-0.125081
0.100489
-0.016397
-0.019164
-0.135180
-0.051618
0.026572
-0.060741
-0.075936
0.002648
-0.003451
0.136956
-0.104304
0.014604
-0.119897
-0.063203
0.045054
0.080607
0.106623
-0.072140
0.038996
-0.118468
0.047214
0.008866
-0.059198
0.034592
0.035317
0.168105
-0.065332
0.056521
0.016116
0.003035
0.054605
0.025913
0.054941
-0.089645
-0.072365
-0.061866
-0.155746
0.127540
-0.085157
0.134655
-0.023255
0.132118
0.028999
-0.070484
-0.052541
0.002718
0.050809
-0.145515
-0.051573
-0.003565
0.004711
0.094989
0.061698
0.109717
0.036160
0.051692
-0.188091
0.119831
0.040635
0.039139
-0.044097
-0.047372
0.017585
0.034117
-0.018966
0.106735
-0.046287
-0.008281
0.096102
-0.050037
-0.006846
0.068950
0.076208
0.092938
0.049996
-0.083154
0.084785
-0.157202
0.016106
-0.064969
-0.046560
0.025824
-0.007668
-0.097695
0.023351
-0.035137
-0.110502
0.086065
-0.086659
0.108815
0.056969
-0.168157
-0.045223
0.060880
-0.045307
-0.066862
0.063006
0.079887
0.063373
0.126607
0.060658
-0.061593
-0.039001
0.124729
-0.046234
-0.049593
-0.092188
-0.148735
-0.033755
-0.006405
0.117479
-0.061845
0.034183
0.027934
-0.006223
0.014354
0.087617
-0.000885
-0.089319
-0.025094
0.110224
-0.003003
0.003451
-0.155492
-0.005036
0.010383
-0.010456
-0.028824
0.062322
-0.072056
-0.040844
-0.122456
0.081901
0.053460
0.014002
0.014788
-0.157170
-0.029518
0.125295
-0.098294
-0.053405
-0.030300
-0.018208
-0.079970
-0.020581
-0.010384
-0.098138
0.001985
-0.014849
-0.018912
0.022055
-0.020656
-0.017899
0.089569
-0.125981
0.086922
0.026254
-0.012192
0.011659
-0.058634
0.052685
-0.120367
-0.098823
0.138105
-0.036274
-0.021823
-0.076761
0.109049
0.160250
-0.123068
-0.212417
0.073047
-0.040720
0.023053
-0.069750
0.067098
0.109540
0.048484
0.063991
-0.038709
0.073472
0.033002
-0.062823
0.088283
-0.013700
0.149540
0.032317
0.002800
-0.010475
0.137474
0.023892
-0.083085
0.029950
-0.092344
-0.051902
-0.076702
-0.030184
-0.086751
0.081078
0.057284
-0.046512
-0.081280
0.017718
-0.051091
0.078250
-0.049034
-0.099172
-0.043794
0.077607
-0.002398
-0.056564
-0.057911
0.082065
-0.095996
0.133542
-0.019563
0.074018
-0.062587
0.085102
0.018403
0.052838
-0.050261
0.050187
-0.037982
-0.063927
-0.059269
0.103253
0.068792
0.080463
0.085144
0.010267
0.020621
-0.020756
0.110457
0.023059
-0.004073
-0.026278
-0.044393
-0.012100
-0.033286
0.010328
0.004069
0.087944
0.021559
0.051810
-0.081442
0.067789
0.007553
0.031339
0.009422
0.073129
0.084039
0.063704
0.046536
0.086636
0.071320
-0.041564
0.005498
-0.005577
0.033117
0.047601
0.003247
-0.123744
0.068130
0.032302
0.113574
0.074864
0.028230
0.117800
0.013340
-0.049735
-0.023325
0.112309
0.075407
-0.030569
-0.066299
0.070169
0.030194
-0.151877
0.188916
-0.058126
0.032202
0.013350
0.041865
-0.109306
0.131497
0.119549
-0.057926
-0.028941
0.091304
0.000402
0.110695
-0.124866
0.091191
0.019324
-0.035179
-0.121278
0.077836
-0.059093
0.039696
0.087517
-0.075180
0.029470
-0.049166
-0.052766
-0.106192
0.108410
0.082254
0.047951
-0.063150
0.045737
-0.122770
-0.096057
0.079203
0.023586
0.075204
0.061783
0.038630
-0.014408
-0.074148
-0.119653
0.149454
-0.149351
-0.113277
-0.087730
0.083503
0.048444
-0.209599
-0.072520
-0.015276
0.028026
0.092289
-0.046340
0.077847
-0.004513
0.062396
0.006073
-0.057122
-0.008162
-0.032200
0.044258
-0.025146
-0.093249
0.185373
-0.144734
-0.050504
-0.037886
0.086616
-0.069730
-0.124120
0.015613
-0.061058
-0.047948
-0.010728
-0.078055
0.155261
0.079739
0.127870
0.023479
0.011586
0.036743
0.057909
-0.003789
-0.001167
0.077918
0.059208
0.009458
0.162620
0.066033
-0.070891
-0.026817
-0.145647
-0.036353
-0.036693
0.012290
0.053074
0.055183
0.086615
-0.027067
-0.083732
0.066609
0.064013
0.044398
0.071400
-0.005821
0.007415
-0.023236
0.008360
-0.044902
0.067535
0.033097
0.134034
-0.103273
-0.011710
-0.045964
-0.086402
0.116025
-0.035869
0.005054
-0.026663
-0.034574
-0.059130
-0.008869
-0.061672
0.026071
0.093127
-0.028642
-0.061454
-0.182347
-0.007718
0.067377
0.070048
0.022358
0.109525
0.056501
0.008101
0.064553
0.026837
-0.225510
0.133019
-0.050575
0.006701
-0.029070
-0.009432
-0.039497
-0.113847
-0.023317
-0.055298
-0.078210
0.067397
0.008515
0.081088
0.040814
-0.059937
0.039094
-0.080713
0.001656
-0.070648
0.078631
0.054361
0.090314
0.015687
-0.018653
-0.020658
0.069735
0.013100
0.048321
-0.073032
0.091562
0.033558
-0.031957
0.102099
0.030170
0.100807
-0.018445
0.063222
-0.030685
0.065886
-0.285898
-0.029822
0.081601
0.140266
0.003488
-0.112160
0.041409
-0.058107
-0.052704
0.085842
-0.101973
-0.067918
-0.133571
0.238130
0.068616
-0.035007
0.075160
-0.117424
0.144744
-0.019616
-0.129592
-0.057899
-0.091425
-0.023386
-0.033438
-0.022211
0.061181
0.036725
-0.057351
0.004144
-0.082388
0.005570
-0.062831
0.001904
0.116546
-0.148116
0.097986
-0.107878
-0.085935
0.020506
-0.083124
-0.085604
0.056534
-0.049929
0.064340
0.036874
-0.060044
0.124613
0.062765
-0.014316
0.007194
-0.057210
-0.073104
-0.053628
-0.203663
0.034854
-0.030703
-0.052387
0.096165
0.002744
0.001744
0.008824
-0.080361
0.064037
0.026540
-0.037019
-0.105318
0.122922
-0.011816
0.023991
0.062855
0.005892
0.104993
0.051807
0.026498
0.076511
-0.068836
0.060542
0.011051
-0.001784
-0.038344
0.099224
-0.117380
-0.056709
-0.035956
0.032336
0.007506
0.003856
-0.023650
0.067084
0.173551
0.010796
0.079834
0.066828
0.079835
-0.020406
0.024212
-0.069954
0.109528
-0.099277
0.050514
0.051101
0.067948
0.069038
-0.004733
-0.034984
0.083484
-0.061699
-0.095325
0.057431
-0.073068
0.070305
-0.056623
0.009571
-0.050584
-0.041626
-0.013265
-0.046608
-0.000701
0.016745
-0.019106
-0.010454
-0.167692
-0.095814
-0.039226
0.002185
-0.028323
-0.037692
0.071674
0.005956
-0.110685
-0.016751
-0.116917
0.079199
0.002683
-0.165738
0.041964
-0.039939
0.036565
-0.051087
0.041526
-0.097829
-0.043561
0.007592
-0.086401
-0.037692
-0.093341
-0.065604
-0.051937
-0.037924
0.047904
-0.179854
-0.072689
-0.119517
0.027976
-0.037815
0.101106
-0.113360
0.150168
0.165583
-0.138411
0.133529
0.000818
0.045976
-0.053346
0.035767
-0.059767
0.150941
-0.057682
-0.069055
-0.114329
0.026969
0.133796
-0.059313
0.050200
-0.056666
0.023245
0.078145
-0.095376
0.124488
0.064712
-0.040622
-0.066921
0.028954
0.109602
0.080089
-0.095481
0.228148
0.047999
-0.016963
-0.138148
-0.105019
-0.122866
-0.004845
-0.033430
0.164929
-0.072447
-0.056076
-0.163696
0.121624
-0.016199
0.114410
0.037361
0.035965
-0.187281
0.208011
0.105452
-0.199198
0.051456
-0.025129
-0.010910
0.067790
0.142479
-0.043285
0.015685
0.137339
-0.201649
-0.007980
0.004296
0.011943
-0.058081
-0.048730
-0.001802
0.022915
-0.107721
-0.033311
0.032292
0.081148
-0.139562
0.072069
-0.031651
0.014767
0.099675
-0.125793
-0.011752
0.116522
-0.083901
-0.006411
-0.055324
0.054940
0.004317
-0.073230
0.002873
0.019908
0.014680
-0.036800
-0.121180
-0.066213
-0.038359
-0.064886
-0.036898
0.003629
-0.057557
-0.055099
-0.075998
-0.036795
-0.007652
-0.131247
-0.078729
0.075784
0.011136
-0.009599
-0.104154
-0.041795
-0.028480
0.112148
-0.055672
0.036553
0.038628
-0.063668
-0.076252
-0.095375
-0.022345
-0.048603
0.099590
0.060713
0.051220
0.150122
0.053352
-0.014909
0.046778
0.045666
-0.155069
-0.031863
-0.087446
-0.235645
-0.103928
-0.040932
0.028840
0.087960
-0.063407
0.055217
-0.089030
-0.150507
-0.193425
0.023317
0.095840
0.167622
-0.018170
0.085597
0.006882
-0.083311
-0.099563
0.025646
-0.011877
0.110338
0.065895
0.009839
-0.077920
-0.078907
-0.057595
-0.093481
-0.147230
-0.040856
0.129443
-0.103595
-0.206972
0.005291
0.037943
0.091125
-0.024813
0.059242
0.012570
-0.070759
0.044969
-0.047314
-0.041579
-0.021663
-0.000913
-0.108056
0.035104
-0.108226
0.057463
-0.084409
-0.063890
-0.065863
-0.028375
0.140455
0.011733
0.176685
-0.136869
0.062310
-0.009313
0.021461
-0.036781
0.115789
0.090711
0.134849
-0.024061
-0.038602
-0.008388
0.056684
0.065313
0.108030
0.002004
-0.071926
-0.015426
-0.008586
-0.097385
0.012609
-0.024467
0.010509
0.029290
0.014363
0.035793
0.091932
-0.081018
-0.077737
-0.001763
-0.018615
-0.071360
-0.015695
0.059670
-0.046561
0.011658
-0.139485
0.078022
0.161158
0.103113
0.105579
0.117164
0.027417
0.093825
-0.000594
-0.037510
0.045679
-0.109240
-0.068046
0.046854
0.134237
0.001853
0.007350
-0.010582
-0.089929
0.093730
-0.041346
-0.054549
0.027237
-0.003189
0.146809
-0.132517
0.006517
0.012695
0.094052
0.078347
0.013476
-0.041613
0.008339
0.070021
0.140693
-0.058602
0.026377
0.036868
-0.032277
-0.095520
0.060748
-0.032162
0.069844
0.087610
0.034955
0.039764
0.029073
-0.063975
0.084075
-0.095612
-0.041625
-0.046175
-0.022267
0.000020
-0.064137
0.043134
-0.058017
-0.041509
-0.056771
-0.056867
0.058788
-0.074969
0.058710
-0.076629
-0.007523
-0.026174
0.092119
0.062281
-0.108937
0.017225
-0.101062
0.003152
0.086080
-0.072205
-0.000175
0.072197
0.047982
-0.088714
-0.097500
-0.102698
-0.050916
-0.036684
0.093447
0.035157
-0.051280
0.017910
-0.112704
0.129696
-0.033521
0.063048
0.104788
-0.009589
-0.006185
-0.064271
0.020405
-0.074507
-0.057405
0.056484
0.105825
0.032104
-0.090913
0.001716
-0.065652
-0.025489
-0.050361
0.132697
-0.023986
-0.057133
-0.003442
-0.049231
-0.058743
-0.115397
-0.052493
-0.025005
-0.036296
0.031493
0.009857
0.036587
-0.090978
0.066613
-0.082265
0.071325
-0.051717
0.039242
0.028154
0.007066
-0.099759
0.085317
0.083378
-0.096064
0.022956
-0.003395
-0.114721
0.056969
0.140251
-0.012972
0.041692
-0.078556
-0.152223
-0.063511
-0.163946
-0.076627
-0.106912
-0.032159
-0.081396
0.120697
-0.027367
0.017615
-0.035681
-0.121582
0.011354
0.121411
0.043786
0.018324
0.014063
-0.069081
0.037968
-0.140726
-0.044460
-0.098307
-0.147971
0.059733
-0.084355
-0.056450
0.072614
0.005931
-0.043982
0.102814
-0.061099
0.011709
0.046378
0.086317
0.053263
0.082248
0.031966
-0.071883
-0.112896
-0.173309
0.025394
0.005964
-0.076736
0.081536
-0.026581
-0.082798
-0.124210
0.127668
0.116961
0.069470
-0.083823
-0.089307
-0.068611
0.040882
-0.074224
0.011837
0.023521
-0.004797
0.074569
-0.002230
0.104407
0.009769
0.039759
0.002443
-0.083674
0.035918
0.111879
-0.142312
0.123655
-0.039741
0.025360
-0.116659
-0.120499
-0.104132
0.085470
0.014695
0.131674
0.032122
0.084733
0.026682
-0.098959
0.012077
-0.026704
-0.024844
-0.089205
0.048930
-0.027437
-0.013650
0.058387
-0.038082
-0.049633
-0.089833
0.151436
-0.004517
0.127563
0.056241
-0.052104
-0.158423
-0.083387
-0.039577
0.078604
0.055504
-0.047381
-0.020850
0.092590
0.057961
-0.037614
0.001673
-0.092796
-0.063802
-0.058637
0.095925
-0.084950
-0.009005
-0.051067
0.008004
0.096179
-0.112483
0.014240
0.090841
-0.010568
0.024465
0.019505
0.041257
-0.076721
-0.128872
-0.024652
-0.015018
-0.059572
0.029667
-0.013533
-0.060174
-0.056651
-0.105295
-0.042857
-0.157369
0.059334
-0.046625
-0.031603
0.045110
-0.090864
0.072188
0.081958
-0.001663
-0.130534
-0.094715
0.008369
-0.074763
0.000029
-0.153046
0.011146
0.022443
0.119991
0.069494
0.030472
0.013392
-0.010319
-0.048712
-0.001906
0.063355
0.013498
-0.017390
-0.042351
0.077378
0.128571
-0.054715
-0.015224
-0.074628
-0.036160
-0.135702
-0.018437
0.031450
-0.013022
0.055030
0.113179
0.034233
0.057233
-0.039245
-0.017279
-0.051388
-0.066476
-0.001739
0.043222
0.011967
-0.002965
-0.092585
0.033069
0.023762
-0.026963
-0.049664
-0.002018
-0.100486
0.045297
0.077471
0.036086
-0.022865
-0.080944
0.139875
-0.115564
-0.059176
0.089269
0.092772
-0.119602
0.018097
-0.006265
-0.007130
-0.040566
-0.029851
-0.129344
-0.014905
0.101903
-0.114634
0.025862
-0.068383
-0.030118
0.019864
0.128004
-0.109656
-0.079711
0.002539
-0.079522
0.100150
-0.013883
0.096721
-0.033865
-0.054951
-0.088562
0.146117
-0.019240
0.052675
-0.063080
0.064618
-0.079946
-0.053690
-0.047028
0.116880
-0.138856
-0.032813
-0.019894
-0.089393
0.104112
0.114108
-0.183629
-0.022148
-0.180895
0.125743
-0.053409
-0.013226
0.051790
-0.131820
-0.006821
0.049167
0.016331
0.154716
0.071257
0.036286
0.075303
-0.047096
-0.034592
-0.051982
0.033226
0.083692
0.052656
0.121626
0.013784
-0.123101
0.068397
-0.130274
-0.045545
-0.033974
-0.005633
-0.153641
-0.068397
-0.119902
-0.062916
0.056437
-0.111750
-0.035657
-0.031138
-0.026951
0.058717
0.008229
-0.000479
-0.036978
0.044634
0.069407
0.132638
0.004689
0.001579
-0.049978
0.005491
-0.040723
0.009468
0.097850
-0.114644
0.055425
0.068557
-0.156221
0.103817
0.074273
0.049266
-0.020634
0.068899
0.095845
0.026631
0.030589
0.037439
-0.119349
0.015019
-0.048669
0.105616
-0.040885
0.006548
0.032502
-0.079827
0.048735
-0.004599
-0.051321
0.094144
0.104905
-0.060318
-0.036550
-0.090126
0.017075
-0.030726
-0.026605
-0.004014
0.041947
0.000608
0.032958
0.074471
0.008530
-0.048490
0.051317
0.089150
-0.121208
-0.097876
0.048141
-0.044691
0.077632
-0.063685
0.108344
0.071476
-0.032851
-0.013726
0.048571
0.051208
-0.073773
-0.062014
-0.075851
-0.061024
-0.102792
0.075683
-0.078573
-0.082862
-0.032542
-0.046107
0.098876
0.013565
-0.060797
-0.024640
0.039093
0.007775
-0.013614
0.143334
0.075859
-0.061258
-0.001143
0.095508
0.013088
-0.097591
-0.007895
-0.044339
-0.063649
0.055362
0.057891
0.041042
-0.125741
-0.076252
-0.031161
0.116237
0.106912
-0.025229
-0.058872
0.080408
0.114862
0.032591
0.070351
0.101849
0.112434
0.030493
-0.037127
0.100378
-0.063128
0.049871
0.059720
-0.094624
0.035732
0.063625
-0.045169
-0.010909
-0.123807
0.147670
-0.087248
0.065290
-0.149654
0.018495
-0.013535
-0.009663
-0.102892
-0.065647
-0.080316
0.059929
0.087236
0.039699
-0.026409
-0.025624
-0.086135
-0.037230
0.104422
-0.094887
-0.031854
-0.069062
0.043473
-0.002052
-0.140535
0.139649
0.064995
-0.010072
0.079103
0.157171
-0.156983
-0.086304
0.123484
-0.085846
-0.088367
0.077592
0.097186
0.055398
0.033331
-0.008494
-0.006131
-0.088306
-0.125225
0.012266
-0.155720
-0.010437
0.022073
0.043807
0.025600
0.050455
-0.010647
0.025929
0.018389
-0.051522
-0.053528
-0.055044
-0.057627
-0.004360
-0.021173
-0.069749
-0.023214
-0.023553
0.064122
-0.052511
-0.034735
0.062651
-0.015817
0.078533
0.099003
0.089933
0.020319
0.064823
0.079872
-0.159734
-0.024176
-0.080899
-0.159093
-0.048262
-0.074723
-0.071061
-0.108978
-0.081877
0.117743
0.020054
0.046912
0.083707
-0.134151
-0.010650
-0.064255
0.017097
-0.006188
-0.069302
0.009704
0.027590
0.130402
-0.056739
0.019712
0.014540
-0.006374
-0.013888
-0.024070
-0.047595
0.073721
-0.022214
0.079157
-0.115826
-0.088073
-0.020097
0.170096
0.025847
0.102884
0.046494
0.137182
0.049267
0.076131
-0.025665
0.078683
-0.058448
0.029844
-0.070185
0.074615
-0.023047
0.141738
-0.189745
-0.088783
-0.057284
-0.124133
-0.002519
0.214737
-0.077902
0.073459
0.046131
0.056115
-0.005928
-0.042433
-0.041713
-0.033685
0.007265
-0.100528
0.048256
0.063991
0.071838
0.000005
0.085860
-0.023766
-0.004658
-0.121906
0.067185
0.013975
-0.142565
-0.023555
-0.045291
0.030440
-0.141183
0.033798
-0.030381
0.073688
0.054778
0.057689
-0.194028
0.013010
0.000334
-0.099118
0.097865
-0.105262
0.056871
-0.114304
-0.094333
-0.042280
-0.005817
-0.086570
-0.065714
-0.060775
0.096899
0.087055
-0.145307
-0.222786
0.111845
-0.028861
0.054763
0.142370
0.018043
0.059639
0.102655
-0.033049
-0.097656
0.100189
-0.024495
0.002944
0.053895
-0.077065
-0.003201
0.100900
-0.027736
-0.033978
-0.046788
-0.046964
-0.000445
0.102634
0.134146
-0.001662
0.080759
0.029832
0.081132
-0.035806
0.047714
0.019171
0.019200
0.036387
0.047588
0.013418
0.079941
0.080086
-0.155106
-0.031741
0.039622
0.089031
0.036632
-0.066057
-0.015558
0.030649
0.059406
0.108538
-0.121876
-0.082007
-0.103088
-0.017586
-0.029280
-0.128708
0.004619
0.002727
-0.028264
-0.140021
0.075468
-0.016236
-0.027929
-0.087052
-0.066861
-0.141447
-0.080925
-0.110506
0.076938
-0.130765
0.052496
-0.024410
0.071977
0.019157
0.009853
-0.006915
0.014187
-0.064311
0.102685
-0.114661
-0.108288
-0.043157
-0.076894
0.006238
-0.165486
0.037658
0.070810
-0.043438
-0.052235
-0.012589
-0.037399
-0.193927
0.112196
0.033935
-0.027753
0.031830
0.141845
0.199683
-0.009870
0.086059
-0.059676
-0.121654
-0.158697
-0.054966
0.151369
0.104957
0.137299
0.035755
-0.003649
-0.160846
0.079406
-0.222138
-0.119086
-0.100438
0.141531
-0.110055
0.011467
0.005903
-0.206397
0.059449
-0.076141
0.103406
-0.006375
0.057668
-0.158046
0.055876
-0.070136
0.057627
0.105899
0.008302
-0.136513
-0.015947
-0.049439
0.025152
0.007127
0.044116
-0.187336
-0.041513
-0.134268
-0.065617
0.157276
0.190646
-0.211590
-0.146883
-0.042775
-0.154955
0.105888
0.086616
-0.048059
-0.031519
0.127887
-0.125782
0.093081
0.022575
0.049663
-0.123408
0.026883
0.014823
0.059412
-0.084428
-0.023253
0.018623
0.072311
0.036798
0.059657
-0.057972
-0.017995
0.063886
0.046180
0.070977
-0.006633
-0.160315
0.156469
0.037560
-0.046601
-0.102456
0.090697
0.054220
0.026435
-0.029120
-0.048038
-0.036665
-0.116148
-0.008406
0.036506
0.010350
-0.026963
-0.036070
0.018986
0.119400
-0.084179
-0.088150
-0.029460
-0.013713
0.024939
-0.041944
-0.009698
-0.074048
0.012981
0.121359
0.102888
0.024226
-0.102012
-0.098592
0.099050
-0.121627
0.015281
-0.033903
0.003517
-0.148748
0.083449
0.010949
0.016518
-0.047881
-0.046323
0.071292
-0.085948
0.054385
0.051871
0.068026
0.047140
0.023641
-0.099984
-0.084801
-0.101053
-0.143145
0.046057
-0.025559
-0.002380
-0.030178
-0.022050
0.133352
0.125632
0.048883
0.075087
-0.142312
0.096099
-0.115002
-0.020589
0.054906
-0.038200
0.065395
0.139030
0.044456
0.045683
0.034954
0.020978
-0.029941
-0.019282
0.042143
-0.091347
-0.140378
0.008579
0.089641
-0.074753
-0.038511
0.070710
0.171548
0.040445
0.112630
0.037146
-0.032713
0.067416
0.019560
0.115892
0.035164
0.094503
0.014944
0.042298
-0.062430
0.058615
-0.115847
-0.131272
0.028398
-0.059167
-0.101561
-0.158393
0.173616
-0.143005
0.050610
0.091690
-0.048156
0.062399
-0.076519
0.109146
0.070709
-0.034797
0.002423
0.078019
-0.155338
-0.060969
-0.047436
-0.008438
-0.141703
0.083365
0.079970
-0.198265
0.122144
-0.123714
0.044657
0.047159
0.016011
-0.062270
0.079037
-0.004870
-0.020402
-0.113515
-0.033338
0.069612
-0.136214
0.107584
-0.064645
-0.058606
-0.083877
0.124855
0.063235
0.016995
0.047226
0.086271
0.089313
-0.063517
-0.070056
-0.062508
-0.080260
-0.005851
0.060988
0.059498
0.112437
-0.155613
-0.022234
-0.047357
0.061986
-0.168274
0.018248
-0.090941
0.059145
0.072459
-0.114263
-0.122521
0.140069
0.033171
-0.136381
0.078643
0.077425
-0.021310
0.021664
0.113296
0.060531
-0.020240
0.049257
0.028650
0.030544
-0.079053
0.061068
0.013225
0.037673
0.059501
-0.035466
-0.108543
0.137214
0.056618
-0.104315
-0.003726
0.003322
0.055334
-0.028948
-0.102972
-0.031204
0.005826
-0.011219
0.117896
0.026197
-0.027109
-0.054650
-0.142356
-0.072926
-0.061379
0.026835
0.088934
-0.155240
-0.006032
-0.066796
-0.067464
0.092150
-0.065049
0.109290
0.132860
0.151975
-0.082745
-0.103089
-0.009048
-0.005416
0.034677
-0.073771
-0.036108
-0.114446
0.067299
0.013110
0.017873
-0.123732
-0.064658
0.059288
-0.002755
-0.027020
-0.154948
-0.007190
-0.130455
0.018794
0.027731
0.105432
-0.007431
-0.056059
0.060974
0.041891
-0.029857
0.060492
0.004684
-0.139400
0.121123
0.079846
-0.002424
-0.146340
0.119329
0.042178
-0.074434
0.169440
0.092781
0.103538
0.001877
-0.128663
0.142987
0.043632
0.006980
0.051708
-0.117841
-0.131870
0.051000
-0.002216
-0.024650
-0.053667
0.005117
0.092519
-0.090782
-0.010764
0.055896
0.014829
-0.069462
-0.006741
0.033261
0.106675
-0.048845
-0.092044
-0.030805
0.000130
0.046234
0.032722
-0.136041
-0.015408
0.048007
0.009682
-0.020124
0.077898
-0.147786
-0.052005
-0.029915
-0.095793
0.018790
-0.127049
0.022603
0.075624
-0.009574
-0.048446
-0.151435
-0.011603
0.029231
0.056934
0.076516
0.026316
-0.130180
0.128428
0.095866
-0.062732
0.026281
0.014037
0.053189
0.030582
0.027774
-0.024025
-0.005600
0.084509
-0.001225
0.061757
-0.168083
0.128151
-0.007127
0.106174
-0.157803
-0.017434
-0.049607
0.079929
0.023883
0.128120
0.093394
-0.137052
-0.100436
-0.099545
0.077250
0.032091
-0.043399
-0.140335
0.006615
0.021471
0.074835
-0.039455
-0.125482
0.027590
-0.062514
-0.119930
-0.067146
0.004495
-0.160758
-0.077532
-0.121861
0.068380
0.034414
-0.003980
0.020439
-0.037329
0.174139
-0.003099
-0.147458
-0.061758
0.060388
0.018369
0.107824
-0.032174
0.006170
-0.022042
0.012668
-0.025502
0.037877
0.061536
0.130734
0.068440
0.134650
0.084183
-0.012705
-0.084638
-0.081865
0.063691
0.067273
0.025555
0.050613
-0.072202
-0.072996
0.106222
-0.069549
-0.093580
0.041408
0.117761
-0.018238
0.101444
-0.079064
0.008478
0.035022
0.109996
0.064503
-0.150725
0.019760
-0.035417
0.057470
-0.018320
0.049573
-0.043181
0.027903
-0.100961
0.081332
0.060445
0.034784
0.098645
0.052750
-0.102895
0.025050
0.101311
0.037170
-0.066406
0.091772
0.015706
0.028247
0.037977
0.031689
0.003127
-0.008965
0.021710
0.010151
0.002303
0.022039
0.044174
0.058964
-0.157653
-0.096388
0.017832
0.162769
-0.088837
0.043487
0.049236
-0.040172
0.003354
0.006796
-0.044815
-0.063300
0.061792
0.048435
-0.044314
0.006119
0.031065
-0.164178
0.092170
-0.000477
0.090763
-0.036748
-0.075274
-0.034548
-0.031966
0.000367
-0.096552
0.000244
0.012878
-0.025758
0.025616
0.010939
0.021122
-0.016567
0.025658
0.065869
0.099932
-0.004607
-0.056705
0.098420
-0.045680
0.078080
-0.031515
0.057313
-0.020727
-0.078379
0.087361
-0.024338
-0.042665
-0.055040
-0.023705
0.064780
0.008970
-0.121439
0.012719
0.018166
0.037654
0.050201
0.048203
-0.066179
0.039277
0.048132
-0.050256
0.116221
0.111000
0.034812
-0.010356
-0.025295
-0.000819
0.031355
-0.015202
-0.011567
0.088545
0.006875
0.132281
0.108763
0.105016
0.040389
-0.005846
0.117694
-0.111555
-0.010655
0.040159
-0.049612
-0.071776
-0.024999
-0.013911
0.042552
-0.058736
-0.051949
-0.057503
0.017110
-0.120886
0.077104
-0.006193
-0.065849
-0.055958
-0.070269
0.015781
0.082304
-0.129088
0.115929
0.043398
-0.128801
0.021815
-0.055826
-0.008359
-0.029143
0.004476
0.051943
0.084301
0.017185
0.025772
-0.084866
0.117018
0.093056
-0.095769
-0.055957
0.063548
0.049764
-0.032813
-0.113009
0.000556
0.060012
-0.048495
-0.023843
0.056201
0.036347
-0.082764
-0.040514
-0.045437
0.011327
-0.015531
0.013088
-0.155031
0.127139
-0.053342
0.153924
0.103951
-0.085960
-0.003230
-0.005383
-0.083754
0.056190
0.080054
-0.003231
0.035315
0.011723
-0.058965
0.111578
-0.071440
0.044976
0.035072
0.070461
-0.043581
0.093092
0.018871
-0.028138
0.022524
0.006206
-0.015379
0.037404
0.154221
0.011477
-0.030220
-0.036660
-0.047502
0.051046
-0.064327
0.004929
-0.074136
0.035916
0.068016
-0.025184
0.063561
0.126178
0.155201
-0.000873
-0.088045
-0.139845
0.040851
0.058053
-0.027830
0.087246
0.019175
0.042223
-0.088957
0.105945
0.069774
-0.029844
-0.049201
0.006113
0.009873
0.011464
-0.013457
0.124964
0.100435
-0.022389
0.019867
0.000245
0.033097
-0.057714
-0.087321
0.107745
-0.017222
0.089957
-0.061083
-0.022149
0.091808
0.111438
0.054144
-0.061854
0.074467
-0.064401
0.081045
0.100758
0.122261
-0.049056
-0.038703
0.026782
-0.086088
-0.055467
-0.064407
0.085508
0.044379
0.121711
0.052757
0.001109
0.066237
-0.060042
-0.076461
-0.042515
0.111043
0.016606
-0.060066
-0.016733
0.032210
0.066804
-0.001542
-0.070591
0.063667
0.002575
-0.121177
0.034422
0.058039
-0.162386
-0.102948
0.011670
0.054316
-0.114730
-0.037254
-0.026645
-0.026692
-0.003075
0.051477
-0.154540
-0.161902
-0.010896
0.025831
-0.084969
0.059568
0.044349
0.130299
0.107973
-0.008919
0.120167
-0.039433
-0.068344
0.040515
0.006382
-0.082667
0.111798
-0.026834
0.082245
-0.020421
-0.084159
-0.124979
0.179920
-0.020495
0.069087
0.039120
-0.054276
-0.008941
0.091215
-0.020328
0.134167
-0.027184
0.042432
0.003684
0.137787
-0.130036
0.090318
-0.022186
0.032763
-0.117731
0.121020
-0.037627
-0.045823
-0.011658
0.098667
-0.039124
0.042970
0.024556
-0.103102
-0.003088
-0.075877
0.009219
-0.040604
-0.003086
0.026142
0.114358
-0.033561
0.006645
0.233172
0.058612
-0.063776
0.008027
0.074587
0.010178
0.104718
-0.041992
-0.061956
-0.182390
-0.046722
0.133401
-0.069366
0.015544
-0.027255
0.036197
-0.156849
0.018319
-0.041671
-0.068651
0.015531
0.038335
0.039995
0.027856
0.121752
-0.167412
0.139609
-0.073819
-0.006324
0.005017
0.048603
0.062128
0.056483
-0.121450
0.023522
-0.082525
0.094688
0.028934
-0.032538
0.070657
-0.089071
0.117793
-0.011535
0.020573
-0.056208
0.000025
0.033092
0.096132
-0.011683
0.058847
-0.002669
0.097696
-0.084592
0.069576
0.064924
-0.118874
0.001866
-0.032193
-0.083701
0.016729
0.016732
-0.127340
0.019804
0.034452
-0.053963
0.074948
-0.011489
-0.131588
-0.116514
0.075488
-0.057898
-0.002292
0.033101
-0.005522
-0.043378
0.136152
-0.033669
0.062856
0.078504
-0.076892
0.024618
0.029276
0.062593
0.128385
-0.078940
-0.063901
-0.066316
-0.035957
-0.113298
0.062010
-0.031718
0.076982
-0.023180
-0.051929
-0.061793
0.028311
0.055938
-0.083704
-0.032384
0.068936
0.111639
0.091814
0.030007
-0.017105
0.023666
-0.092873
-0.071067
-0.043130
-0.004775
0.044349
0.002649
-0.060062
0.121763
-0.048515
-0.005029
-0.037323
-0.035752
-0.120715
-0.019449
0.117625
-0.097042
0.048577
-0.116920
0.004939
0.014718
-0.073023
-0.065473
0.050735
0.043474
0.057779
0.001919
0.039269
0.085974
0.017398
0.051004
0.075774
0.054029
-0.017667
0.000135
0.073326
-0.097519
-0.089421
-0.006006
-0.113540
-0.026650
0.010090
-0.051464
-0.007697
-0.043942
0.049255
0.067154
-0.017949
0.113041
0.068933
0.010607
0.103791
0.019010
-0.047270
0.080893
0.035385
0.017071
0.006650
-0.077870
-0.083114
0.080167
0.044943
0.150714
-0.101991
-0.050574
-0.020757
0.005116
-0.056966
0.129753
-0.137585
-0.090122
0.018923
-0.082545
-0.054481
-0.054213
-0.177674
0.014681
0.011818
0.069719
-0.009249
-0.019231
-0.043311
-0.023287
-0.055455
-0.036040
0.098659
-0.122181
-0.225207
0.177808
-0.003283
-0.033982
-0.005525
0.088468
0.106696
-0.038811
-0.124950
-0.176706
-0.100337
-0.052842
-0.145480
-0.006968
-0.087222
-0.076665
0.044347
0.076126
0.041522
0.040939
-0.041717
0.113103
-0.146049
0.038920
0.006755
0.170604
-0.022485
0.010887
-0.058067
-0.151160
0.122222
-0.094621
-0.133944
-0.036414
0.037354
0.070534
0.120270
0.063634
-0.105375
-0.165812
0.082965
0.052495
0.277089
-0.098685
-0.113467
-0.086701
-0.035091
-0.124220
0.018187
0.123738
0.172665
-0.072391
0.129315
-0.160418
0.084570
0.069728
-0.053665
-0.076610
0.006081
-0.080188
-0.221886
-0.036730
-0.188074
-0.134031
-0.210649
-0.168062
-0.003076
0.043101
0.020559
-0.128325
0.116225
-0.043025
-0.083705
-0.042320
-0.054066
0.056700
0.096352
0.059008
-0.066682
-0.007716
0.000925
-0.096813
-0.069229
-0.137207
0.039137
-0.070504
-0.125504
0.122572
0.133433
-0.074223
0.002348
0.063052
0.015651
0.028150
-0.023163
0.067964
-0.126874
0.081854
-0.030434
0.077059
0.037579
-0.000289
-0.037471
-0.004342
-0.073389
0.009521
0.086708
-0.024074
-0.109753
-0.024788
-0.069212
-0.043694
-0.095160
0.022170
-0.061264
-0.073289
-0.101196
0.053233
0.032399
0.103107
0.148901
0.010346
0.038705
0.048932
-0.189273
0.092095
-0.023696
0.094232
-0.036247
0.014232
-0.088582
-0.004214
0.046371
0.013545
-0.190656
0.070710
-0.047132
0.083128
0.097769
-0.071843
0.021990
0.023419
-0.141039
-0.158092
-0.068054
-0.035572
0.112498
-0.043364
-0.126072
0.032560
-0.017100
-0.051803
0.147952
-0.048350
-0.053099
-0.023379
-0.047906
0.070381
-0.095642
-0.082237
-0.099374
-0.062230
0.075292
0.036655
0.112911
0.038645
0.062169
0.003123
-0.112919
-0.055620
-0.024746
0.064073
-0.110910
0.107041
-0.013701
-0.106154
0.014872
0.149067
0.007204
-0.055514
0.063158
0.038073
-0.078620
0.019843
-0.091364
0.097697
0.030638
0.109436
-0.083393
-0.011253
0.049984
0.088197
0.021014
-0.043461
-0.087951
-0.041564
0.066992
0.004690
0.022872
0.059182
0.018935
0.117400
0.031962
0.004156
0.086282
-0.091457
0.015355
0.082577
0.022733
0.002372
-0.077825
-0.128679
0.086736
0.090109
0.118183
0.055799
-0.066105
-0.083055
-0.030085
-0.068087
0.073709
0.036381
-0.123241
0.044197
-0.061607
-0.046839
0.036215
-0.066400
0.140950
-0.051585
-0.013105
0.013637
0.089359
-0.090151
-0.111972
0.019653
0.017259
-0.021761
0.051239
0.102343
0.002649
0.078381
0.045660
0.121234
-0.069614
0.098459
-0.046675
0.026922
0.121280
-0.108179
-0.182418
0.033380
0.060053
-0.095733
-0.018335
-0.013059
0.046463
0.130435
0.002486
-0.080565
0.017060
-0.059034
0.030241
0.019988
0.143679
0.072485
-0.025893
0.177016
-0.022730
-0.108291
-0.018414
0.063631
-0.025368
0.009728
0.045599
-0.031482
0.044202
-0.084263
-0.106161
0.113250
0.011045
-0.054736
-0.030983
0.019398
0.067078
0.088838
-0.026747
0.053253
0.130181
0.087317
0.091102
0.009911
0.112086
-0.003633
0.109399
-0.048980
0.071021
-0.032156
-0.017768
0.005212
-0.146221
0.031322
0.048729
-0.195545
0.004612
0.006127
0.009757
0.077978
0.076014
0.054433
-0.116214
-0.015433
0.024761
0.020591
0.079566
0.084947
-0.090450
-0.040236
-0.079563
0.105445
0.000532
-0.069005
0.025227
0.108821
-0.083620
0.021971
-0.066181
-0.014464
0.038521
0.034662
0.031524
0.002907
-0.097268
0.126849
0.002815
-0.045636
0.054202
-0.031983
-0.033668
-0.118028
-0.071762
0.099684
-0.070185
0.081640
0.066865
0.018025
0.024707
0.001988
0.063742
0.070584
0.096249
0.028902
-0.074754
-0.174101
0.102827
-0.017289
0.117554
-0.013148
0.029062
-0.123165
-0.106582
-0.054772
-0.026822
-0.017390
-0.153292
0.170489
0.116049
-0.090821
-0.147885
0.152781
-0.061898
0.091938
0.054533
0.103303
-0.102467
-0.019054
0.031688
0.086106
-0.101155
-0.109229
0.101559
0.027640
-0.034396
-0.011060
-0.020383
0.039271
-0.068168
-0.097277
0.031724
0.025199
0.103701
-0.015160
0.053268
-0.123779
-0.033850
0.137107
0.068067
-0.053194
0.016279
-0.019712
0.062837
-0.087939
-0.137996
-0.094710
-0.003773
0.042033
-0.130539
0.022522
0.023493
-0.154064
0.141174
0.053777
0.019304
-0.147739
0.097215
-0.065027
0.085249
0.054567
0.158100
-0.108755
0.063832
-0.109440
-0.091251
-0.096929
-0.024852
-0.084123
0.092903
-0.061874
-0.009135
0.085374
-0.019676
0.074599
-0.049925
0.113323
-0.021782
0.050355
-0.053256
0.019031
0.090246
-0.047016
-0.038410
0.056194
-0.021021
-0.000988
-0.005278
0.135471
-0.095578
0.065104
-0.036614
-0.048959
0.024042
-0.062707
0.012233
-0.004016
-0.082372
-0.002045
0.054430
0.029121
-0.093579
0.046292
0.104385
0.016642
0.020029
0.153483
0.023977
0.069047
0.078358
0.073905
-0.111998
-0.040537
-0.031436
0.008322
0.019649
-0.053685
0.040943
-0.019297
-0.008467
0.040619
0.014212
-0.070516
0.047654
0.009951
0.003891
-0.005637
-0.033801
-0.123124
0.119915
-0.097622
-0.052127
0.106928
-0.024507
0.022829
-0.017430
0.045723
-0.039648
0.028473
0.019475
0.130236
-0.135774
-0.019079
0.016251
0.018025
-0.085551
0.100860
-0.045983
-0.046783
0.063757
-0.023122
-0.005478
-0.028862
-0.142284
-0.021714
0.031682
-0.068427
0.017957
-0.166548
0.097717
0.004638
-0.004876
-0.076930
-0.029620
0.043168
-0.016664
-0.008041
-0.065403
0.025602
0.071456
-0.051163
0.051471
-0.014521
0.081522
-0.006414
-0.047751
0.025952
0.059718
0.035392
0.056377
-0.060832
0.090364
-0.021736
0.088096
0.028018
0.042502
0.079580
0.065575
-0.090293
-0.060425
0.056180
0.086608
-0.029211
-0.043875
0.005810
0.048231
-0.068018
0.105971
-0.126824
-0.016144
0.019430
0.029396
-0.021594
-0.080121
0.073526
0.033014
0.098268
-0.032166
0.025893
0.068035
-0.014162
-0.020348
0.140141
-0.094573
0.004192
0.021382
-0.017145
0.033494
0.094671
-0.005959
-0.025256
0.056161
-0.101413
0.011682
-0.015381
0.101628
0.085734
-0.080801
-0.105590
-0.090204
0.156358
-0.080926
0.100093
-0.035356
-0.081154
0.015010
0.009772
-0.163925
0.027109
0.013869
0.039168
-0.116897
0.137191
-0.069040
0.078732
0.026265
-0.091953
-0.104270
-0.010730
-0.116468
0.179554
-0.032153
0.050814
-0.024207
-0.014758
0.086609
0.076675
-0.074852
-0.053840
-0.019269
-0.105940
-0.048392
-0.070487
-0.168142
-0.017255
-0.032791
-0.083227
0.045634
-0.020241
0.113242
0.118715
0.024677
0.081993
-0.001124
-0.057004
-0.034361
-0.114513
-0.092447
0.004120
0.013730
0.056536
0.126597
0.018261
-0.104241
-0.040215
0.064518
0.038992
0.087427
0.083748
-0.040228
0.090962
0.030029
0.109645
0.074837
0.116864
-0.026749
0.133383
0.011494
-0.018179
0.053730
0.080146
0.018055
-0.025211
0.139304
-0.134786
0.052849
0.026046
0.007263
0.064957
-0.077158
0.114268
-0.073392
-0.031466
0.058210
-0.024472
0.003720
0.001943
0.041440
0.063936
-0.109838
-0.039959
-0.030563
-0.071384
-0.054818
-0.086059
0.135198
0.030011
0.110337
-0.049036
-0.111615
0.030763
-0.066428
0.055218
-0.077752
0.191284
-0.026808
-0.037355
-0.087312
0.150164
0.098511
-0.055520
-0.014893
-0.061653
-0.059023
-0.100269
-0.095547
0.069053
-0.074291
0.070704
0.133994
-0.039025
0.017340
0.133646
0.035036
-0.065682
0.133061
0.068114
-0.096859
0.139429
-0.100654
-0.023064
0.037016
-0.124834
0.075881
-0.046316
-0.016473
0.032307
0.047685
0.125457
0.010231
-0.044885
-0.012360
0.035446
0.107370
0.083549
-0.091957
-0.124465
-0.055632
-0.049720
-0.005264
0.069430
0.036570
0.004069
-0.072678
0.027380
0.051836
0.049980
0.023271
-0.016837
-0.132054
-0.064647
-0.019699
0.117701
0.116763
0.055468
-0.063362
0.080021
0.087223
0.111895
0.091054
0.091730
-0.055092
0.016481
0.105292
0.049119
0.008028
0.108609
-0.085097
-0.136174
0.003992
0.134374
0.049510
0.017324
0.089141
-0.120548
-0.092044
0.005319
0.080998
-0.013371
-0.023027
-0.120360
0.040481
0.031403
0.069696
-0.010865
-0.052100
0.098290
-0.011542
0.088336
-0.048582
0.026562
0.131383
0.126209
-0.059351
0.037290
-0.015861
0.020570
0.107943
-0.039214
-0.098474
-0.018807
-0.076936
0.013875
-0.029861
-0.095076
0.034182
-0.028127
-0.033412
-0.006381
0.073559
0.031427
-0.111468
0.124229
0.075190
0.075159
0.020915
0.033044
-0.053433
0.019332
-0.115300
-0.003428
0.008344
-0.053321
-0.018907
0.043844
-0.040578
0.010433
-0.042017
-0.052631
0.064490
-0.024664
-0.025731
0.084805
-0.164914
0.066920
-0.052198
0.058555
-0.094352
-0.095729
0.028314
-0.060905
0.115724
-0.023335
-0.071556
0.012641
0.022972
0.047157
0.049551
0.083891
0.066647
-0.046965
0.061215
-0.037905
0.013276
0.046615
0.007527
0.011302
-0.030745
-0.023899
0.171236
-0.040766
0.018931
-0.035463
-0.096600
-0.043280
0.024120
-0.020723
-0.058593
0.072643
-0.003361
0.095725
-0.058381
0.117960
0.061490
-0.064429
-0.014752
0.039467
0.032035
0.046461
0.020832
-0.019485
-0.159764
-0.039204
-0.011470
-0.046608
-0.021441
0.081317
0.029018
-0.000094
-0.071693
-0.034832
-0.043932
0.036302
-0.093959
0.056112
0.027848
0.032913
-0.047888
0.094143
-0.095037
-0.033792
0.130783
0.046419
-0.004545
0.137507
0.031759
0.019285
-0.153830
0.021617
-0.031583
-0.042599
0.045171
-0.028817
0.052655
0.088214
-0.177030
-0.016847
-0.029510
0.053863
-0.019753
0.069219
0.077915
-0.093002
-0.032300
0.014983
0.020184
0.042898
0.135218
0.048737
-0.110514
-0.093071
0.070753
-0.041666
0.039016
-0.132114
-0.062821
0.090335
0.101778
-0.040821
-0.127086
-0.055588
0.055007
0.082223
0.067366
0.077004
0.050908
0.030096
-0.023440
0.039912
-0.047373
-0.042852
-0.128118
-0.050447
-0.105989
0.081111
0.117775
-0.005978
0.078347
0.042360
-0.150331
-0.047273
0.031198
-0.059695
0.053951
0.092476
-0.016816
0.069656
0.033651
0.045470
-0.014026
-0.107389
-0.019353
-0.080385
0.052783
-0.082510
0.013891
-0.058572
0.105590
-0.021200
-0.037486
-0.014782
-0.008813
-0.040822
0.019957
-0.083120
0.115547
-0.046242
-0.052945
-0.083254
-0.052724
0.075812
0.128390
-0.001472
-0.045353
-0.099309
0.107601
-0.061673
0.017536
-0.132873
0.052936
0.019424
0.014112
-0.049985
0.084828
-0.041332
0.051519
0.076795
-0.016273
-0.003447
0.162731
-0.021170
-0.045050
0.051779
0.075920
0.058422
-0.113508
-0.140155
-0.039889
0.019662
0.003524
-0.012219
-0.204519
-0.184430
0.028905
0.011763
-0.098435
0.017024
0.105927
0.028824
0.038830
0.070615
-0.035702
-0.093388
-0.005785
0.026920
-0.043361
-0.159889
-0.001798
0.045384
0.060732
-0.104073
0.036851
-0.060037
0.111060
0.130270
-0.000455
-0.014686
0.090501
0.036235
-0.002330
0.132282
0.106806
0.095240
-0.173833
-0.080295
0.117805
-0.056543
0.150256
-0.000412
-0.050397
0.013957
0.043245
0.054797
-0.157636
0.200883
-0.130165
0.210547
-0.116189
-0.057790
-0.043381
-0.088010
-0.182019
-0.027078
0.010313
-0.095820
0.012694
0.077687
0.120834
-0.005515
0.127432
-0.087499
0.059423
0.011171
-0.000524
0.086811
-0.003332
0.078848
-0.199888
-0.079376
-0.058819
0.134169
-0.219860
-0.009096
0.060090
0.135987
0.013788
0.082928
0.101402
-0.110032
-0.025800
-0.009937
-0.042749
0.087862
0.101325
-0.045358
-0.078444
0.031635
0.014946
0.011001
-0.023806
-0.086319
0.072237
0.046291
-0.023054
-0.016578
-0.069309
-0.121166
0.029268
-0.154237
0.029080
-0.029776
0.090886
0.030632
-0.128469
-0.005659
-0.082982
-0.008116
0.048780
0.039580
-0.026849
-0.041596
-0.037966
-0.078878
-0.088798
0.022053
0.090000
0.044468
-0.119136
-0.098544
-0.041168
0.131672
0.024659
0.012601
-0.101455
-0.009084
-0.099162
0.035337
0.031737
0.002238
0.041329
0.143280
-0.161911
-0.011103
0.043706
-0.041530
0.035380
-0.048128
-0.009822
0.082484
-0.033069
0.030700
-0.138394
0.151254
0.100683
-0.099164
-0.133201
-0.084854
0.080811
-0.016329
-0.185865
-0.152265
0.096845
0.033780
0.178452
-0.025776
0.060799
0.060430
-0.001711
0.002882
0.033546
-0.057305
-0.084487
-0.056475
-0.188485
-0.138564
-0.080834
-0.043775
0.030561
-0.085734
0.054680
0.102545
-0.109797
-0.000266
-0.041443
0.001262
-0.033123
-0.170076
-0.078153
-0.048213
0.036041
0.036646
-0.113197
-0.135605
-0.051373
0.106773
-0.010657
-0.103086
-0.094961
0.047464
-0.114638
-0.080164
0.061361
-0.026923
0.109161
-0.121908
-0.033836
-0.009215
0.145042
0.000692
0.002574
-0.035121
0.007557
0.055077
0.113884
0.225298
-0.131711
-0.089008
0.085450
0.067242
0.056140
0.046336
0.066307
-0.082699
0.013893
-0.056670
-0.160367
-0.076807
0.008685
0.032189
0.021343
-0.178463
0.134831
0.037751
0.044667
-0.098145
-0.065839
0.063528
-0.051411
0.080995
0.075675
0.024791
-0.010918
-0.075703
0.013158
0.063606
-0.048018
0.049638
-0.071747
-0.042270
0.005813
0.034984
0.100755
0.080663
-0.028805
-0.095944
0.084216
0.022902
0.006283
0.026221
0.059514
-0.047029
-0.006372
0.006321
0.044379
0.119912
0.116384
-0.150217
-0.106017
-0.096034
0.128857
0.063823
0.036686
0.117299
0.002719
-0.024594
-0.044872
-0.028194
0.060668
0.056952
0.030821
0.084492
0.098558
0.089650
0.067286
0.070934
0.062501
0.056661
-0.118241
-0.026846
0.074480
0.028822
-0.041919
-0.060298
-0.054350
0.070518
-0.112291
0.025475
0.016336
0.120431
0.053194
0.103014
-0.078641
-0.069973
-0.099629
0.053974
0.089806
-0.054608
0.031419
-0.064147
0.008047
0.053294
0.084512
0.117429
-0.128993
0.041976
-0.062515
0.121139
-0.137395
-0.090934
-0.071926
-0.065460
-0.016520
0.045570
-0.060559
-0.030744
0.014224
-0.052951
-0.111585
-0.064118
0.084069
-0.107557
0.062219
0.023839
-0.102783
0.038419
0.132155
0.037469
-0.022883
0.028514
-0.087247
0.125623
0.044899
0.148651
-0.029302
-0.034053
0.124968
0.096413
-0.076224
0.053128
-0.100515
-0.076198
0.003238
0.024209
-0.114818
0.022103
0.066461
-0.012529
-0.040044
0.026495
0.049699
0.026630
0.046017
-0.041898
-0.052739
0.001343
0.051091
-0.060262
0.137880
-0.056117
0.084278
-0.032949
0.125673
0.129284
-0.059124
0.079211
-0.065120
0.004198
-0.169037
-0.101285
-0.103209
-0.092659
0.079959
-0.055422
0.029091
-0.089674
-0.012544
0.085600
-0.051772
-0.036199
-0.001644
0.011065
0.026475
-0.096114
0.027446
-0.011659
-0.020635
0.054735
0.078700
0.063231
0.039137
0.015559
-0.072867
-0.144524
-0.031872
-0.107560
0.090994
0.118718
0.005577
0.046177
-0.007121
-0.070783
-0.059407
-0.020122
-0.040548
-0.078122
-0.112091
-0.087409
-0.079614
0.073358
-0.002990
0.058276
0.044581
-0.047724
0.049072
0.073943
-0.063883
-0.041485
0.005268
-0.018877
0.014322
-0.025236
0.131062
0.009320
0.008692
0.039570
-0.060413
-0.085472
-0.047010
-0.013175
-0.135271
-0.066690
-0.175621
-0.052018
0.113583
-0.128603
-0.042138
-0.016665
0.110996
0.006442
-0.116683
0.113638
-0.073576
0.037812
0.141829
0.121946
0.022751
0.084742
-0.014366
0.016529
-0.065366
-0.045136
-0.084712
0.036936
-0.040972
0.083912
0.017367
-0.051938
-0.005563
-0.084222
-0.093388
-0.076213
-0.097752
0.093662
0.010918
-0.081329
-0.008993
-0.027731
-0.036881
-0.000007
0.077452
-0.046228
-0.126236
0.089268
-0.053976
0.001633
-0.217511
-0.120205
-0.064856
0.015244
0.064319
-0.099524
-0.038898
0.082898
-0.016242
0.051814
0.009725
-0.061674
0.054265
0.109162
0.038900
-0.017378
-0.106657
0.081077
-0.077995
-0.050732
-0.032836
-0.095759
0.084965
-0.044465
-0.078996
-0.013861
-0.005012
0.044497
0.007107
0.067891
-0.085099
0.036374
0.029996
-0.075914
0.081589
0.123299
0.052669
-0.098822
0.006537
-0.048537
0.003178
0.134439
0.001346
-0.142123
0.012274
-0.031200
-0.026180
-0.009816
0.018500
0.071200
-0.026775
0.017143
-0.047046
-0.015068
0.076389
-0.042037
0.108684
-0.106606
0.057777
-0.041166
-0.057819
0.056769
0.033557
-0.022998
-0.102774
-0.160529
-0.057763
0.152884
0.035425
-0.035192
-0.094609
-0.108239
-0.158141
-0.001972
-0.010885
-0.098730
-0.014771
0.001378
-0.163562
-0.017827
0.067703
-0.019258
0.074470
0.033207
-0.001737
-0.005771
0.016485
0.024412
-0.114674
0.147124
-0.059711
-0.102781
-0.060358
-0.084196
-0.075298
-0.131372
-0.036148
0.092491
-0.110335
0.119640
0.074128
0.084714
-0.083862
0.015089
-0.092255
-0.094168
-0.041763
0.042679
-0.017561
-0.021813
0.002410
-0.130976
0.037332
-0.008639
0.016057
-0.074437
0.002360
0.016843
-0.035792
0.132975
0.156168
0.087394
0.031680
-0.039108
-0.038849
-0.021701
-0.055877
-0.047050
0.098858
0.071690
0.192297
-0.105322
0.116384
0.045465
0.013527
-0.137924
-0.044201
-0.041074
-0.000112
-0.066545
0.019964
-0.104705
-0.028789
0.082938
0.094001
0.045772
0.067856
-0.102714
0.087864
0.020977
-0.014435
0.075988
0.018963
-0.023880
0.000045
-0.148812
-0.020957
-0.078524
0.029683
0.009789
0.004249
0.063746
-0.117230
0.027772
0.077937
0.070170
0.090957
0.055388
-0.110624
0.031190
-0.075893
-0.074577
0.053856
-0.127700
0.003193
-0.076161
-0.001992
-0.114433
0.049005
-0.086681
0.080466
0.059351
-0.001651
0.159515
0.076020
-0.082228
-0.122433
-0.000220
-0.064029
0.020923
-0.101571
0.001296
0.102414
0.005135
0.017590
-0.144083
0.137856
-0.066015
-0.005742
0.040038
0.026033
-0.007667
0.006095
-0.094726
0.019502
-0.096005
0.101512
0.025677
0.079077
-0.020773
-0.111990
-0.106047
0.046145
0.043410
-0.034687
-0.011867
-0.008278
-0.027196
0.052295
-0.029492
0.038026
-0.092542
-0.016469
-0.101183
0.154841
-0.120841
0.096650
0.073806
0.005493
-0.077332
0.024181
-0.023233
-0.016591
-0.046048
0.050988
-0.022040
0.093215
0.001153
-0.021574
-0.084321
0.045839
-0.012596
-0.053949
-0.063483
0.104546
-0.075750
0.023122
0.102444
-0.065711
0.031329
0.047193
-0.036324
0.017625
0.016122
-0.084158
-0.044204
0.008428
-0.038654
-0.059210
-0.123911
0.006735
0.067479
0.030892
0.126958
-0.096909
-0.004729
-0.088989
0.089048
0.058519
-0.120642
-0.016413
-0.032395
-0.088842
-0.052974
-0.038261
0.002464
-0.017381
-0.084833
0.023453
0.114267
-0.013391
-0.013595
0.018247
-0.107202
-0.026359
0.044270
0.009161
-0.000126
-0.019756
-0.017586
-0.041115
0.015443
-0.073962
-0.049540
-0.111965
-0.001317
0.073565
-0.054726
0.011089
0.033231
-0.090248
-0.039134
0.096888
0.058260
-0.045400
-0.001617
-0.014161
-0.122539
0.084171
0.067748
0.068885
-0.022388
-0.090521
0.012550
-0.102847
0.099344
0.001139
-0.058223
0.160668
-0.133220
0.035398
-0.018094
-0.039617
-0.060077
0.080574
-0.070825
0.024166
-0.171993
0.006694
0.087437
0.108471
-0.050297
-0.092581
0.063356
-0.060769
0.032175
0.094476
-0.066563
0.073093
0.158650
-0.062616
-0.058319
0.013826
0.044868
0.121752
0.046353
0.005648
0.069983
-0.111412
0.135121
-0.003985
-0.108842
-0.076443
-0.143351
0.034281
0.141040
-0.025427
-0.224586
-0.093386
-0.048569
0.015587
0.100021
-0.024303
-0.026193
0.056578
0.028026
-0.112961
-0.046383
-0.083514
-0.043724
0.002442
0.069612
0.005519
0.013100
-0.000969
-0.036099
0.093487
-0.046486
0.045735
-0.054682
-0.108096
-0.010860
-0.129053
-0.053103
-0.008175
-0.108910
-0.122781
0.111415
0.048748
-0.089881
-0.013153
0.069409
-0.142886
0.082508
0.010781
-0.030734
0.025938
0.097681
0.025468
0.065824
-0.090628
0.091528
0.061115
-0.094651
0.049581
-0.004700
0.046703
0.174347
-0.084098
-0.056280
-0.073506
0.017672
0.000962
0.035566
-0.037822
-0.089497
0.083385
0.207141
0.141808
0.012061
-0.021728
-0.001709
-0.025923
-0.065154
-0.022846
-0.096073
-0.017846
-0.171154
0.016867
-0.087553
-0.095064
-0.027199
0.192876
0.045040
-0.087716
-0.174043
-0.188465
0.010510
-0.077150
0.109150
-0.028061
-0.056683
0.007075
-0.008298
0.065007
0.050394
-0.016368
0.110553
0.106007
-0.043825
0.078705
0.100040
-0.022802
-0.194096
-0.118190
-0.102695
-0.046942
0.003427
-0.010290
-0.147044
-0.101144
0.056780
-0.158574
-0.027546
-0.073788
0.114220
0.042163
-0.088230
-0.020270
0.011132
0.010484
0.113332
0.113148
-0.050091
-0.050322
-0.026923
-0.046194
0.159289
0.042493
-0.097530
-0.058891
-0.088067
0.125876
-0.038678
0.028326
-0.095341
-0.034365
0.020422
0.019803
0.091363
0.087828
-0.062734
0.052076
-0.004851
0.026010
0.016820
0.053012
0.082859
-0.041369
0.010738
-0.050671
-0.037013
-0.092533
-0.016950
0.078278
0.105454
0.006271
-0.039051
-0.009929
0.044971
0.080665
-0.064855
-0.105725
-0.080603
-0.001414
0.062099
0.071962
-0.069416
-0.041276
-0.080714
-0.089148
-0.038392
-0.108277
-0.031727
-0.008313
0.066044
-0.113313
0.041404
-0.154810
-0.071438
-0.017176
0.133012
0.021465
0.012813
-0.025441
-0.055302
0.149250
-0.124385
0.018049
0.103904
0.031053
0.070149
-0.060121
0.034945
-0.004164
-0.011041
0.012937
0.062076
-0.047743
-0.010124
0.079567
-0.002570
0.001401
0.034181
-0.050554
0.033194
-0.065524
0.061906
0.075222
0.060973
-0.193066
0.011370
-0.033617
0.031215
0.164853
-0.075298
-0.114480
-0.026860
0.108502
-0.166665
0.020711
-0.018097
-0.044247
-0.000658
0.059130
-0.077341
-0.026214
-0.087119
-0.097812
-0.051079
0.113862
0.139860
0.060835
0.123007
0.076097
-0.086009
-0.067897
0.076337
0.014842
0.138419
0.020266
-0.081470
0.057615
0.060765
0.048978
0.007008
-0.065014
0.121872
0.100229
0.053815
0.005169
-0.060661
-0.066447
0.036842
0.084451
-0.100588
-0.188768
-0.102514
0.016537
0.007256
0.010617
-0.070256
-0.004066
-0.148341
0.090022
-0.041985
0.017589
0.060084
0.026198
-0.004887
-0.012944
-0.189705
-0.019617
0.050541
0.107177
0.008332
-0.012340
0.059429
0.046135
-0.073016
-0.023730
0.105136
0.058606
0.032613
-0.074813
-0.028378
-0.034999
-0.045578
-0.087899
-0.117891
-0.005349
0.033991
0.061815
-0.005136
-0.069915
0.007058
0.137698
0.036448
0.004462
0.151165
0.030794
0.059067
0.005801
-0.015427
-0.060126
0.132219
-0.092647
-0.058847
0.053940
-0.111331
0.135065
-0.066612
-0.034453
-0.072942
-0.047387
0.080054
0.114404
0.022247
-0.124956
-0.082973
-0.011607
-0.068224
-0.056939
-0.015532
-0.117451
0.052499
0.102951
-0.068286
-0.106545
0.031694
-0.007060
-0.048625
-0.061641
-0.027387
0.097620
0.040311
-0.049522
0.050361
-0.070739
-0.032659
0.016756
0.037439
0.020301
0.082204
-0.038075
0.096786
0.047082
0.106095
0.076503
0.007323
0.084115
0.055082
0.019677
-0.244828
-0.079583
0.029835
-0.133779
0.119788
0.098659
0.124784
0.005559
0.080796
0.052331
-0.076613
-0.069770
0.068839
0.013777
-0.044057
-0.030910
-0.078542
0.045402
-0.119274
-0.009908
0.056999
0.085351
-0.038341
0.000752
0.025980
-0.042427
-0.148487
-0.010737
0.017615
-0.061905
0.045731
0.089084
0.121362
0.043860
0.038361
-0.002477
-0.076667
-0.008347
0.002392
0.001963
0.128707
-0.033877
-0.204917
-0.059784
-0.099925
0.037858
0.066665
0.169672
-0.025233
0.031859
-0.119299
0.100961
-0.043954
-0.090385
0.010608
0.015334
0.148846
-0.013306
0.014594
0.024576
0.030448
-0.012322
0.114857
0.058948
-0.006085
-0.061804
-0.026339
-0.122994
-0.004282
-0.006612
-0.075395
0.078364
-0.012400
-0.061652
0.062765
0.007060
0.074043
-0.134095
0.011740
0.016333
-0.147171
-0.119640
0.005140
-0.007781
0.078350
0.030823
-0.029509
-0.066116
0.150812
-0.034380
-0.032398
0.117075
0.003079
-0.004677
-0.008609
-0.042137
0.012617
-0.090255
0.056813
0.092802
-0.010786
0.026511
-0.184458
0.057545
-0.152845
-0.050565
-0.001663
0.054724
-0.039521
0.027785
0.023653
0.049682
0.032093
0.045604
0.080628
0.002211
-0.097237
0.093531
0.096386
-0.054294
0.054090
0.020032
0.000452
-0.095219
-0.032083
0.031076
-0.008489
0.016940
-0.034675
0.040756
0.031964
-0.021811
-0.024028
0.003864
-0.082504
-0.065656
-0.023224
0.070476
0.086477
-0.119862
-0.013081
0.104687
0.088367
0.072938
-0.005784
0.110402
0.005561
0.136764
-0.052968
0.027379
-0.058851
-0.130879
-0.090212
0.046264
-0.061926
-0.100177
0.036461
-0.056116
0.014062
0.033617
-0.016487
-0.043997
0.038600
-0.092375
0.141656
0.086698
-0.008977
0.094288
0.005192
0.055365
-0.082192
-0.085091
-0.109571
0.058369
-0.000428
0.088968
-0.041827
-0.067319
-0.029879
0.079750
0.053040
0.029892
-0.059133
0.022609
0.022635
0.109896
0.063572
0.031959
-0.117874
-0.033019
0.139464
0.001774
0.068794
0.003106
-0.113733
-0.125823
0.017354
-0.056510
0.025762
0.023289
-0.026689
-0.087911
0.080271
-0.134084
0.108693
0.089303
-0.149249
0.037957
-0.039365
-0.219333
-0.029282
-0.055873
-0.135886
0.057390
-0.040316
0.063518
0.038458
-0.160573
-0.050020
-0.025378
-0.017847
-0.047183
-0.067301
0.069559
0.042565
0.016626
-0.061525
-0.038531
-0.052283
0.088212
0.041133
0.031942
0.074781
-0.071345
0.087324
0.072047
-0.050533
-0.054277
-0.085312
-0.148435
0.041302
0.027116
-0.011896
0.054011
0.051928
0.056150
-0.050526
-0.154719
-0.057188
-0.015174
0.080613
0.087391
0.050596
-0.034248
0.083316
0.047132
-0.004630
-0.132096
-0.100451
-0.025784
0.127852
0.020022
-0.052098
0.053742
0.027385
-0.046430
-0.154083
0.079790
-0.043513
0.044034
-0.126689
0.066186
-0.093305
0.068258
0.078506
0.016056
-0.024546
-0.105953
-0.004268
-0.084406
0.022480
-0.007855
-0.126099
0.018493
-0.129284
-0.043985
-0.106603
0.066110
0.035514
-0.033963
-0.036380
-0.000762
-0.077320
0.089199
-0.153915
0.058613
-0.096057
-0.040165
0.097136
0.131171
-0.147342
0.093546
-0.090951
-0.173977
-0.027033
0.019935
0.049367
0.002348
-0.060072
-0.115350
-0.023664
-0.082242
-0.069650
-0.071105
-0.022258
0.094742
-0.030129
-0.014075
0.090619
-0.090569
-0.122657
-0.159490
-0.091427
0.035265
0.077104
0.106970
0.046557
-0.066859
0.036307
0.108909
0.111002
-0.080183
0.041680
-0.092545
-0.023164
-0.032553
-0.146390
0.003838
0.080526
-0.110147
-0.123116
-0.065211
0.049161
0.060435
0.047985
0.013410
0.094779
0.016716
0.079559
0.068987
-0.075049
0.077432
-0.004461
-0.034168
-0.076905
-0.137752
0.142291
0.116233
0.014353
0.016892
0.020734
-0.030853
0.160441
0.059683
0.023434
-0.072805
-0.084555
-0.177606
0.094610
-0.004492
-0.072675
-0.049708
-0.073079
-0.004557
0.001868
0.062432
0.079755
-0.068710
-0.095048
-0.077554
0.113640
0.032339
-0.087432
0.004688
-0.060213
-0.070965
-0.141294
0.020039
0.069592
0.124750
0.002217
-0.050628
0.042685
-0.003585
0.031604
-0.063844
-0.002838
-0.048040
-0.017213
-0.104793
-0.062562
-0.008796
0.032290
0.094135
0.035344
-0.080477
-0.016046
0.071111
0.014883
-0.006100
0.006729
-0.102644
0.003846
-0.114334
0.105365
-0.057797
-0.108053
0.024141
-0.019715
-0.024486
-0.006604
-0.013261
0.141745
0.080906
-0.090231
0.040732
0.035299
-0.063113
0.034889
0.002915
-0.084385
-0.100609
0.047413
-0.041131
0.101515
-0.028075
0.066949
0.076081
-0.058665
0.021828
0.102657
0.128906
-0.116149
0.094310
0.034346
0.077032
0.054672
0.102690
-0.043677
0.095873
-0.011186
0.042381
0.022594
0.107266
0.137180
-0.053320
-0.070462
-0.011401
0.020904
-0.061831
0.022385
0.057231
-0.002665
0.024931
0.164012
-0.028248
0.108272
-0.002822
0.138009
0.120904
-0.004641
-0.070148
0.028219
-0.060769
-0.015766
0.072986
-0.063774
0.108425
0.067502
-0.012947
0.042795
0.083781
0.000358
-0.125661
-0.059084
0.165429
-0.074820
0.131687
-0.034314
0.042770
-0.156428
0.071230
-0.009357
-0.030814
0.024649
0.053403
-0.074852
0.018682
-0.048710
-0.040508
-0.052216
0.025024
0.027931
0.013995
0.060848
-0.105726
0.000508
-0.112311
-0.047539
-0.111165
0.049156
0.070710
-0.062928
-0.026469
0.012898
-0.068686
-0.074827
0.131297
0.047864
0.049660
-0.010218
-0.126657
-0.045915
0.007218
-0.087776
-0.054840
-0.085937
-0.073339
-0.071130
0.131673
-0.127455
-0.062717
0.048019
-0.102345
0.101777
0.096878
-0.030857
-0.021984
-0.023393
-0.105691
-0.073094
0.085342
0.007021
0.002609
0.015195
-0.032204
-0.032661
-0.032358
0.015010
0.086949
0.066473
-0.083113
0.032291
0.090672
-0.135975
-0.049454
-0.033045
-0.035120
-0.105609
0.099329
-0.009029
0.083889
0.121293
-0.035419
0.046028
-0.009101
0.000441
-0.133066
0.007694
-0.007583
0.051716
0.036645
-0.079247
-0.011609
-0.056254
-0.092289
-0.072761
-0.093709
0.040328
-0.026835
0.015321
0.071878
-0.014542
0.024277
0.078680
-0.007414
0.016303
0.019119
0.015473
-0.051819
0.092636
0.039226
-0.045210
-0.063751
-0.042808
0.105896
0.007638
0.072984
-0.040504
0.031368
0.144042
-0.008729
-0.042286
0.012247
-0.055464
0.014305
0.080267
-0.017293
-0.106252
-0.052434
0.077929
0.054662
-0.005818
0.069160
0.145515
-0.079646
0.009610
0.131785
-0.054891
0.064639
0.035732
-0.035138
0.069444
0.004969
0.061246
0.082148
-0.072457
0.029927
-0.008298
0.024276
0.018259
0.062530
-0.054167
0.001086
-0.066108
0.115685
0.107048
0.037892
0.151043
-0.037938
-0.054630
0.153069
0.005749
0.083985
0.039122
0.112197
-0.037461
-0.076110
0.076577
-0.060916
-0.012353
0.030960
-0.079999
-0.078523
-0.165776
-0.037942
0.142930
0.098860
0.151834
-0.053691
-0.009917
0.022715
-0.024966
0.010053
0.101959
-0.143920
0.039426
-0.154903
-0.072761
-0.058497
0.097004
0.088149
-0.005399
0.057440
0.001409
-0.157247
-0.035346
-0.032829
0.004147
-0.037819
-0.116674
-0.086662
0.140692
-0.024553
-0.070950
-0.081027
-0.037910
-0.064318
0.047910
-0.016622
0.099615
-0.052023
-0.015109
-0.157978
0.104987
-0.013800
-0.032624
-0.103317
-0.045176
-0.002430
-0.116492
0.060795
-0.120233
0.005710
0.038950
0.007364
-0.007907
-0.020930
0.013201
0.102381
0.074149
-0.125253
-0.040732
-0.057154
0.009673
-0.002869
0.130191
-0.048721
0.066013
-0.170680
-0.014328
0.053685
-0.019001
-0.049077
0.058463
0.050250
0.068068
-0.025936
0.010984
0.116312
-0.113584
0.069046
-0.015746
-0.057378
-0.057440
-0.036310
-0.115394
0.001658
-0.053653
0.072066
-0.062126
0.016630
-0.081377
-0.149735
-0.002886
0.077738
-0.058342
-0.029982
-0.157056
0.119894
-0.076702
-0.030239
0.008149
0.142332
0.024564
-0.011292
-0.179848
-0.076910
-0.128759
0.151089
0.084132
-0.026856
0.197722
-0.000472
-0.088480
-0.096069
-0.023833
0.118928
0.025355
0.015138
-0.024758
-0.056664
0.072258
0.040345
-0.097492
0.002885
-0.068866
0.026798
0.065171
-0.098426
0.011230
-0.065109
-0.037105
-0.254153
-0.071012
-0.175702
-0.010455
-0.095457
-0.014516
0.018432
0.040705
-0.040833
-0.030264
-0.054449
-0.035553
-0.098717
-0.119198
-0.026040
0.052859
-0.064045
-0.002678
-0.040204
0.038632
0.011912
-0.001215
0.034191
-0.027711
-0.002524
0.030682
0.001898
0.129987
-0.065124
0.057314
-0.123769
0.039504
-0.088800
-0.037296
-0.098406
0.142450
0.058177
-0.018588
0.043686
-0.093960
-0.094103
0.121906
-0.060237
0.029919
-0.060153
0.040222
0.040991
-0.050690
0.082182
-0.005418
0.028950
-0.087944
-0.038571
-0.018076
0.035151
0.097187
-0.026504
-0.039387
0.122401
0.091377
0.090057
0.035680
-0.049098
-0.087046
-0.077604
0.022848
0.006742
0.015962
-0.001602
-0.081186
-0.114407
0.053774
-0.046250
-0.068161
0.016767
0.060430
0.006454
0.106246
0.029451
-0.001455
-0.004528
0.024559
-0.010003
0.031262
-0.050682
0.080362
0.025780
0.123905
-0.000677
0.012950
-0.106116
0.024508
0.066054
0.012261
-0.118993
0.145732
-0.126591
-0.097236
-0.077976
-0.077590
0.083190
-0.057309
-0.006023
-0.171323
0.012847
-0.078777
-0.000186
-0.064323
-0.051000
0.065091
0.005943
-0.040645
-0.016388
0.065036
-0.057605
-0.038887
-0.003888
0.044270
-0.015424
0.128267
0.104838
0.010884
0.082007
-0.063838
0.013244
-0.072422
0.080553
0.057622
-0.024057
-0.105204
0.010201
0.028286
-0.069320
0.268423
0.073516
-0.092183
-0.079660
0.123061
0.197492
-0.059992
0.000918
0.039411
0.079463
-0.120522
-0.097090
-0.015136
0.133820
-0.115236
0.009983
0.056086
0.178221
0.064571
0.017582
0.031918
-0.013685
-0.069069
-0.047160
-0.120263
0.058466
-0.072649
0.158370
0.112707
0.172490
-0.046549
-0.113302
-0.054156
0.114813
-0.048172
0.064776
-0.006349
-0.003400
-0.028380
-0.014987
-0.099774
-0.001808
0.012488
0.041010
-0.017163
0.145638
-0.012678
-0.025786
-0.054692
-0.035703
0.052134
-0.001541
0.031892
-0.105594
0.168616
-0.028387
0.026601
-0.090475
-0.047999
-0.045579
-0.002040
-0.101604
0.009340
-0.063411
-0.002537
-0.059784
-0.006054
0.140607
0.071982
0.045150
0.059832
-0.097538
0.073653
-0.039521
0.081159
-0.042606
0.051353
-0.029226
-0.055866
-0.008204
-0.038703
0.092294
-0.038828
0.120009
0.113394
-0.125885
-0.051869
-0.102306
0.070716
0.053940
-0.033773
-0.010214
0.079802
0.075255
-0.000617
-0.137853
0.059252
-0.125008
0.105711
-0.006424
0.056082
0.107251
-0.090168
-0.017035
0.073790
-0.042929
-0.075042
-0.055281
-0.213089
-0.005744
0.071475
0.057887
0.070016
0.102013
-0.020129
0.052535
0.108638
-0.044082
-0.093752
0.040849
-0.115061
-0.058083
0.081175
-0.044588
0.034157
0.038681
0.052158
-0.046910
-0.002551
0.074146
-0.097507
-0.082503
-0.000239
-0.016492
-0.045300
-0.142756
0.049393
0.051148
-0.025385
0.039477
-0.023096
-0.049391
0.069146
-0.198150
0.026641
0.084758
-0.066934
-0.050457
0.034721
-0.016848
-0.082978
-0.031658
0.098365
-0.005893
0.028172
0.104413
-0.071970
-0.093100
-0.003500
0.104149
0.042231
0.011143
-0.017987
0.014405
0.046899
-0.022020
0.136070
-0.065335
-0.012548
-0.124327
0.005135
-0.034829
-0.113108
0.064242
0.039029
-0.099267
-0.014600
0.031195
0.087122
-0.005392
0.065341
-0.025946
0.095259
-0.065433
0.019263
-0.078514
0.003967
-0.068871
-0.060889
-0.059389
0.006028
-0.118917
0.020906
0.115054
-0.036463
0.107069
0.085371
-0.057386
-0.063181
-0.022573
0.000718
-0.098264
0.031682
-0.030920
-0.070806
0.017954
0.085028
-0.030646
0.181952
0.067689
0.033125
-0.130628
-0.090417
0.058355
0.033608
0.071459
-0.126480
0.062468
-0.079374
0.058966
0.050381
-0.017194
-0.100345
-0.136508
0.073876
-0.060438
-0.037052
0.101982
0.094734
-0.011494
0.054697
0.001452
-0.028469
0.083157
-0.013957
0.038667
-0.093623
0.054362
-0.085110
0.100347
0.057550
0.131159
0.134430
-0.075589
0.135493
-0.064479
-0.095191
-0.060826
-0.099231
-0.061628
-0.027324
0.072634
-0.014501
0.105932
0.032601
-0.062963
0.109103
-0.014916
0.001731
-0.148844
-0.084499
0.177588
-0.090045
-0.152897
-0.030178
-0.051047
0.083462
0.074836
0.053871
0.020777
0.017334
-0.129270
0.055644
0.007284
-0.085088
-0.000221
0.084956
0.089659
-0.059339
-0.026105
-0.025158
0.016567
0.075177
0.098502
0.031129
-0.070330
0.144262
0.089942
0.064575
-0.084504
0.126540
-0.059737
0.036535
0.066152
0.059352
-0.104687
0.068111
0.084176
0.026023
-0.086936
-0.124902
-0.006914
0.162300
-0.125372
0.109566
0.110251
-0.083802
0.142056
-0.026271
0.110409
-0.058154
0.057012
0.063665
-0.005058
0.143061
0.087414
0.023579
-0.070164
-0.134611
0.048506
-0.079680
0.060899
0.099759
-0.006826
-0.019073
0.093152
0.056385
-0.005755
-0.071876
-0.073433
-0.055032
0.096475
0.088946
-0.029605
0.038266
0.025870
0.032885
0.012080
0.148558
-0.086665
-0.037314
-0.113746
0.070139
-0.007553
-0.013953
-0.066751
0.060039
0.060412
0.100823
-0.166351
0.091178
-0.014445
-0.014799
0.062581
-0.086544
-0.059306
0.076829
-0.041071
-0.061700
-0.077157
0.017576
0.088230
-0.009935
-0.084767
-0.162105
-0.157276
-0.101244
-0.068388
-0.007699
0.058639
-0.258251
0.046937
0.056240
0.168778
-0.081497
0.029844
-0.192991
-0.023171
0.120224
0.026775
-0.098047
0.068756
-0.082333
0.124778
-0.027850
0.043394
-0.170107
0.135530
0.021152
-0.049304
0.080134
0.007828
-0.110289
-0.084496
-0.057462
0.114121
0.036886
-0.045210
0.122880
0.011205
-0.063259
0.054522
0.043686
-0.069719
-0.063864
-0.048319
0.062289
-0.115660
-0.103568
0.030840
-0.095231
0.040247
0.130234
0.022758
-0.025924
-0.012761
-0.177915
0.006741
-0.031963
0.076932
0.001816
-0.079591
-0.069491
-0.035358
0.037715
0.044017
0.166166
-0.046458
0.007262
-0.077258
-0.020886
-0.023031
0.084747
0.075712
-0.102563
0.011640
0.122666
0.019727
0.030396
-0.074156
-0.044663
-0.025913
-0.070389
-0.072473
0.043148
-0.007851
-0.131300
0.016779
-0.076982
0.018706
-0.067640
-0.022282
0.005007
0.055921
0.108652
-0.109644
0.073539
-0.074258
0.118032
0.016130
0.007103
0.045664
0.003462
-0.151056
0.102881
-0.082501
0.019617
0.102513
-0.087013
0.062888
-0.052195
-0.080215
0.068238
-0.123273
-0.101341
-0.059132
0.053001
-0.070526
0.061726
0.047747
-0.034642
-0.014488
0.069946
0.024012
0.150873
0.071861
0.067658
0.012371
-0.075125
-0.104899
-0.046347
-0.016430
0.074519
0.023541
0.007203
-0.103449
-0.074927
0.014140
0.014792
-0.023053
0.078763
0.059199
0.029971
-0.113044
0.082152
-0.032675
-0.087123
0.040071
0.058894
-0.060516
-0.068891
-0.113927
-0.043398
0.017870
0.001785
-0.019203
0.014773
0.003804
0.017444
-0.044603
0.009641
-0.080643
0.065397
-0.038059
-0.059891
-0.013032
-0.046920
-0.054983
-0.076691
0.073415
0.067168
0.082684
-0.050263
-0.104664
0.112887
-0.068208
0.076544
0.109558
-0.037872
0.056079
-0.108033
-0.038456
0.020068
-0.013641
-0.083886
-0.077366
-0.116302
0.064599
0.147390
-0.068317
-0.146074
-0.012356
-0.009714
-0.036155
-0.011391
-0.058812
-0.032761
-0.009752
-0.009596
-0.166343
0.033429
-0.098457
-0.052974
0.046578
0.061442
-0.147457
0.088707
0.101740
0.135986
-0.142555
-0.040805
-0.060962
0.034235
-0.108899
0.024684
-0.072070
-0.080456
0.020963
0.079816
0.113005
-0.030305
0.028995
0.051334
0.050015
-0.022626
-0.015960
0.061896
-0.079938
-0.022471
0.055742
-0.065030
0.029418
0.075996
0.047752
0.084011
0.073007
-0.021025
0.021155
0.060859
0.031111
-0.056754
0.112711
0.125124
-0.005394
0.000462
0.009084
-0.038042
0.076699
0.089828
0.037535
-0.045093
-0.102730
0.110358
-0.076581
-0.032357
-0.090303
0.098405
0.061445
-0.015346
0.011623
-0.022171
0.053651
-0.036710
-0.089461
0.056676
0.011829
0.037242
-0.058540
0.060059
0.028516
-0.075053
-0.048512
0.015855
-0.049513
-0.029713
0.105320
0.038055
-0.013699
0.009368
-0.024033
-0.045087
-0.163523
-0.031123
-0.099673
0.097497
-0.018641
-0.089648
-0.051808
-0.108872
-0.063822
0.039990
0.063270
-0.006858
0.034359
-0.001416
-0.094283
-0.044351
-0.030690
0.059078
-0.117280
-0.026826
0.026091
-0.049505
-0.087249
0.145047
0.078521
0.007834
0.126296
0.074170
0.105244
0.129606
0.085608
-0.050940
0.122147
0.106066
-0.031728
0.181828
0.006766
0.046210
0.026967
0.068251
0.066827
-0.067705
-0.047288
0.056112
-0.081836
0.113236
0.053617
-0.076164
0.089951
0.094929
-0.058470
-0.009906
0.063096
-0.077563
0.065592
0.017679
0.100547
0.062608
-0.024847
-0.076298
-0.038039
0.014428
0.146542
0.015942
0.023494
0.003329
0.088888
0.124907
0.002365
-0.104184
0.034847
0.055117
-0.103284
-0.010145
-0.110972
0.045570
-0.027080
0.116851
-0.056041
-0.058016
0.094753
0.067875
-0.015117
0.164488
0.082211
-0.147329
0.113584
0.043033
0.091435
-0.117074
0.141544
0.052393
-0.060726
0.083378
0.044550
-0.030397
-0.044161
-0.117647
-0.009901
-0.034724
0.001151
0.002008
0.036527
-0.002879
-0.006824
0.019321
0.010810
0.040743
0.071390
0.001011
-0.067849
0.096763
0.064057
-0.043897
0.082987
-0.065490
-0.043976
-0.042119
-0.056075
0.013335
-0.101651
-0.073867
0.072430
0.119697
-0.036403
-0.093893
0.082410
-0.009060
-0.025718
-0.059757
0.183733
0.007260
-0.085572
0.186756
-0.089824
-0.025746
-0.155261
0.049629
-0.017162
0.021818
0.023302
-0.035424
-0.107550
0.108852
-0.010892
0.112111
-0.039234
-0.010395
0.105094
0.072650
-0.141620
-0.057974
0.002702
-0.161471
-0.209029
-0.015865
-0.196226
-0.022310
-0.030902
-0.192769
-0.026771
0.056312
0.115090
-0.014746
-0.061604
0.073512
0.141968
-0.053109
-0.073526
0.056422
0.087903
-0.025384
-0.052176
0.143863
-0.079774
0.137224
0.099641
0.044987
0.011220
0.035714
-0.006669
-0.037648
-0.060432
0.124925
0.137414
-0.144184
-0.124093
0.073140
-0.017595
0.061753
-0.053191
0.042745
0.095467
-0.039934
-0.098295
0.041603
-0.060621
-0.120967
-0.110292
-0.020231
0.006172
-0.043403
0.154496
-0.084933
0.036712
-0.057498
-0.067459
0.064709
-0.013325
-0.073636
0.018364
0.124345
-0.006351
-0.136465
0.029375
0.075924
-0.024999
0.066049
0.057183
0.079527
-0.159754
0.048998
-0.020911
-0.122136
-0.156653
-0.032325
-0.054020
0.012515
-0.128907
0.175545
-0.038910
0.053860
-0.137576
0.097422
-0.037972
-0.137531
-0.037432
0.072844
-0.013887
0.038717
-0.081336
-0.046863
0.050866
0.120066
-0.033246
0.051816
-0.082361
-0.010456
-0.112039
-0.190790
-0.215938
0.063133
-0.003005
0.045316
-0.080387
-0.035618
-0.133282
-0.030199
0.096619
0.064820
0.036262
0.055173
0.011233
-0.109854
0.022884
-0.012391
0.106871
-0.044346
0.040858
-0.004302
-0.028424
-0.072869
0.090658
-0.073071
-0.072574
0.024365
-0.021257
-0.054171
0.057075
-0.061104
-0.077856
-0.022223
-0.023028
-0.027133
0.058180
-0.093425
-0.110430
-0.028451
-0.081743
0.083150
0.035401
0.058695
0.128596
-0.049300
-0.065040
-0.023946
-0.091497
0.105383
0.018448
-0.126720
-0.125937
0.031304
0.045140
0.002771
0.069485
-0.054097
0.015463
-0.034112
0.015430
0.114333
0.056369
0.004301
-0.103994
-0.072410
-0.116300
0.056214
-0.140766
-0.092390
0.007372
-0.035254
-0.083387
-0.019194
0.066024
-0.134209
-0.013906
0.160782
0.105541
-0.057660
-0.114366
0.014495
0.117711
0.057813
0.123447
0.097025
0.060141
0.082299
0.012381
-0.044763
-0.110177
-0.036841
-0.034610
-0.031053
-0.097835
0.045087
-0.041856
-0.051318
0.018336
0.060755
0.003952
-0.118615
0.125469
0.003956
0.013046
-0.198577
-0.176488
0.006878
0.009379
-0.063577
0.056889
0.052789
0.092929
-0.081004
0.020593
-0.032296
0.085614
0.070417
-0.000114
0.132919
-0.008667
-0.032470
-0.001116
0.017597
0.024699
-0.078691
0.023017
-0.178621
0.002178
0.008645
-0.004747
0.066018
-0.117440
0.100849
-0.199108
0.001751
-0.118605
0.065904
-0.316077
-0.085983
0.178536
-0.129294
-0.115763
0.068189
0.114680
-0.059687
0.006857
0.068238
-0.000932
-0.041669
-0.013657
0.035740
0.094803
0.007930
-0.146819
0.107141
0.021776
-0.149442
-0.056241
0.093121
0.134176
0.131776
-0.023865
0.062981
-0.052851
-0.093470
0.073690
0.054897
0.029892
0.041380
-0.134657
-0.052367
0.108715
0.077827
-0.017394
0.059525
0.104156
-0.042380
-0.021382
-0.056543
0.157774
-0.080845
-0.055062
0.130456
0.080653
-0.047621
0.089450
0.054337
-0.013350
-0.078386
0.063845
0.007188
0.045590
0.129913
0.129813
-0.064908
-0.119477
0.040050
-0.072639
0.121110
-0.108886
-0.064948
-0.050808
0.128889
0.026355
0.029016
-0.121351
0.022107
-0.038466
0.081048
-0.117411
-0.053093
-0.121703
0.107045
0.045730
0.035511
-0.005292
-0.065510
0.120366
0.046919
-0.044315
-0.061755
-0.080016
-0.023514
-0.122663
0.012010
-0.031680
0.059149
0.011354
-0.070618
-0.079280
0.003975
0.062960
-0.024912
-0.031183
0.020152
0.082780
-0.042421
0.085146
0.065084
0.018084
0.029706
0.053862
-0.233717
-0.000255
-0.089518
0.008894
-0.063942
0.052992
0.033765
-0.023568
0.018266
-0.075587
-0.028881
-0.030985
-0.080060
-0.032529
0.019504
-0.037512
0.098764
0.089332
-0.059914
0.049540
0.005332
-0.071888
0.023269
0.113515
-0.017290
-0.029387
0.026099
-0.153077
0.085592
0.103684
0.145545
-0.019536
-0.071369
0.017791
0.110287
-0.004708
0.000242
0.034885
-0.067762
0.009267
-0.148466
0.024020
-0.062168
0.031135
0.011056
-0.040304
0.113758
-0.038620
0.028452
0.095433
0.107852
-0.081677
-0.130012
-0.026618
-0.014128
0.024628
-0.092702
0.030336
0.010840
-0.034976
0.051429
-0.042248
0.060763
-0.173878
-0.041299
-0.057741
-0.001388
0.067277
0.007237
-0.011342
0.065975
0.074841
0.041506
0.019653
0.081941
-0.018361
0.085262
0.071793
0.044169
0.017886
0.047312
0.012252
-0.023986
-0.046954
-0.040112
0.112624
0.026408
-0.021824
0.072213
0.004684
-0.099344
-0.030079
-0.099741
-0.086999
0.068601
0.097887
-0.004014
-0.010086
-0.007201
-0.070625
0.045699
-0.059600
-0.183338
0.001681
-0.084352
0.047864
0.011956
0.071424
0.023993
-0.055745
-0.011654
0.093770
-0.073416
-0.105068
-0.028184
-0.004036
0.030373
-0.025245
0.072389
0.067596
0.100496
-0.066326
0.017107
0.040473
-0.025855
0.049305
-0.028739
0.054047
-0.087190
0.021322
-0.007519
-0.090316
0.057885
-0.061425
0.112396
-0.032001
0.084331
-0.091447
-0.049671
-0.113365
0.003142
-0.038061
0.077461
0.087829
0.001014
0.059239
0.038543
0.055375
-0.021188
0.047266
0.073162
-0.137631
0.022653
0.033349
-0.140768
-0.170359
0.082902
0.094408
-0.026585
0.059627
-0.067647
-0.031704
0.037728
-0.219512
0.126159
-0.036151
-0.096520
0.064301
0.045706
-0.076695
-0.184983
0.115822
0.061561
0.030160
0.034502
0.005542
0.053702
0.022619
0.104390
0.054639
-0.013788
0.004651
0.130040
0.034330
0.042758
0.062669
0.052206
0.030310
0.063631
0.011374
0.058307
0.024307
-0.056123
-0.010104
-0.047545
-0.014069
0.077744
-0.061933
-0.074624
-0.015095
0.026977
0.148310
-0.001421
0.057438
0.022596
0.022758
0.067837
-0.027794
-0.081622
0.061391
-0.062003
-0.005219
0.157635
0.015433
-0.002698
-0.012725
-0.051626
-0.040766
0.037350
-0.083858
0.078343
0.128178
-0.005262
0.025147
0.022562
-0.011540
0.109932
-0.087552
-0.067274
-0.007002
-0.002172
0.087305
-0.057943
-0.005862
-0.042438
0.016709
-0.021525
-0.076520
0.172030
-0.054424
0.042005
0.060062
0.143681
0.098945
0.037903
-0.021685
0.068029
0.027348
0.142363
-0.028763
0.122486
-0.095716
-0.010694
0.012793
-0.057788
-0.031457
-0.042365
0.016830
-0.086213
-0.036815
-0.109162
0.005933
0.022333
-0.109442
-0.005284
0.151779
0.075997
-0.104596
-0.018210
0.016957
0.000878
-0.057746
0.074479
-0.019237
-0.028459
-0.043587
-0.005823
0.025514
-0.000164
-0.043323
-0.133759
0.155568
0.010439
0.001364
-0.091574
0.129567
0.075257
-0.012791
0.051647
-0.015970
-0.058860
-0.018270
0.037460
0.025859
0.107992
0.031102
0.019454
0.074062
0.014788
-0.066379
0.089485
0.018655
0.032769
0.031560
0.025473
0.135485
