# Shape: (3, 3, 3, 32)
0.078110
0.126156
0.121096
-0.023175
0.030121
-0.163600
0.115008
-0.075559
0.036854
0.047294
-0.013925
-0.079102
-0.061017
-0.135923
0.026097
-0.081828
-0.008102
-0.120042
-0.099450
0.181822
0.130148
0.126980
-0.034540
0.052388
-0.064513
0.066240
-0.028289
-0.167169
-0.054985
-0.024871
-0.092573
0.048812
-0.014552
-0.079494
0.016810
0.027753
-0.068507
-0.109102
-0.006819
-0.027293
0.021283
0.073518
-0.187749
-0.065049
0.041096
0.000838
-0.077600
0.164661
-0.140882
-0.102140
-0.158133
0.043604
-0.091429
0.129086
0.037473
-0.092842
0.105387
-0.064886
0.060788
0.031471
-0.003829
0.089827
-0.131662
0.008954
-0.040606
0.020192
-0.119761
-0.006222
0.048881
-0.002480
0.145132
-0.012738
-0.012512
0.119616
-0.003360
-0.007854
-0.138867
0.068639
-0.019307
-0.067715
-0.146158
-0.014765
0.060942
0.039706
0.081987
0.016734
-0.178345
-0.007828
0.115682
0.188941
-0.089886
0.047466
-0.053594
-0.023204
-0.097616
-0.048852
0.180173
0.088571
0.197782
-0.086347
0.017101
-0.006938
-0.037052
0.014775
0.130662
-0.121790
0.050908
0.095830
-0.066051
-0.044091
0.107945
-0.058465
0.022262
-0.153233
0.023955
-0.011405
-0.102382
0.075068
0.118258
0.052017
-0.188671
-0.082687
-0.036239
-0.192933
-0.018929
-0.170091
-0.066182
-0.000222
0.158736
-0.152502
0.063275
0.095248
-0.065347
-0.076428
-0.036821
-0.116257
0.045656
-0.074854
-0.029591
-0.121237
-0.118643
0.016594
-0.079110
0.059407
0.119985
-0.112174
-0.135240
-0.115042
-0.124673
-0.117076
0.163853
-0.115717
0.048031
0.047267
-0.163210
0.034610
0.147971
-0.097347
0.100651
-0.109662
0.024829
-0.026790
0.075903
0.009668
-0.006934
0.008477
-0.073285
-0.107826
-0.082807
0.161541
0.065878
-0.077805
-0.071858
-0.071781
0.158542
0.029965
0.141974
0.051115
-0.052058
-0.097176
-0.078031
-0.039631
0.076312
-0.095652
-0.071159
0.038164
0.031805
0.003670
-0.014610
0.102884
-0.043497
-0.011824
0.016317
0.028056
0.044726
-0.066886
0.008638
0.173715
0.076669
-0.047493
-0.087879
0.070725
-0.023035
-0.109545
0.119892
-0.132411
0.041250
0.026074
0.043446
0.151851
0.159577
0.066532
0.011452
-0.044134
0.103464
0.034110
-0.045625
-0.133345
0.097749
0.163636
-0.123553
-0.007997
-0.092513
-0.035088
0.094290
-0.103132
0.064224
-0.115608
-0.096608
0.059643
-0.171999
0.228162
0.027678
0.031306
0.016162
-0.069540
0.098080
-0.101506
-0.006572
-0.008258
0.214941
0.131417
0.136579
-0.003687
-0.043824
-0.020719
0.072198
0.067429
0.112001
0.125428
-0.093488
0.061844
-0.000749
0.000002
0.161539
0.086133
-0.114519
-0.103970
0.043761
-0.036106
0.093065
0.059951
-0.053525
0.111527
0.025749
0.167509
-0.103183
-0.137298
0.115528
-0.118289
0.082287
0.088846
-0.044927
-0.073704
-0.042194
0.080036
0.072647
-0.069767
0.092821
-0.053301
-0.096728
0.037264
0.052879
-0.124999
0.131631
0.119913
-0.018767
-0.071719
-0.075855
0.128695
-0.038194
-0.178560
0.085947
-0.125029
0.071749
-0.138487
-0.121743
0.098970
0.061282
0.005551
0.016377
0.007073
0.096144
-0.169635
0.167397
-0.162938
0.046417
0.130698
0.207510
0.051852
-0.094715
0.007746
0.130319
0.119552
-0.046445
0.098302
0.193314
0.101639
-0.069335
0.043604
-0.068907
0.017408
-0.154712
-0.037297
0.046337
0.058631
-0.076745
0.042757
-0.113015
0.053470
-0.198272
-0.141552
-0.080040
0.034292
0.138669
0.152224
-0.030030
0.084811
-0.190232
-0.141787
0.061186
0.068680
0.083443
-0.066105
0.074666
0.111936
0.111516
-0.062489
-0.008801
0.107650
-0.067747
-0.108908
-0.140797
-0.005295
-0.072282
-0.022236
0.041186
0.095432
0.076216
-0.064463
-0.125769
0.017776
0.058637
0.064079
-0.043626
0.088439
-0.003285
0.085942
-0.004598
0.021413
0.130330
0.110817
0.153225
-0.003836
-0.121017
0.030856
-0.139192
0.004797
0.158563
-0.024654
-0.000633
-0.112692
-0.071620
0.029627
-0.050228
0.230681
-0.004497
-0.173652
0.102086
0.000686
-0.067296
-0.017508
0.084109
-0.031994
0.087570
0.080834
0.180173
-0.060625
-0.036338
0.058436
-0.082624
0.015051
0.005225
-0.148104
-0.136024
-0.093896
-0.000018
-0.080219
-0.165593
-0.149027
0.086777
-0.097138
0.167661
0.007593
0.108120
0.020966
-0.196142
0.120199
0.009942
0.090235
0.064587
0.100623
-0.080049
-0.155112
-0.099693
-0.100179
-0.071536
0.052678
0.051123
-0.142005
0.146397
0.084074
-0.106186
-0.185453
0.084925
-0.183155
-0.132352
0.025853
-0.106733
0.020681
-0.065189
0.070560
-0.013483
-0.088950
-0.021921
0.081152
0.126510
-0.137189
-0.107019
0.051099
0.102399
0.153691
0.154798
0.028210
0.108752
-0.036867
-0.047393
0.010607
0.005188
-0.089773
0.129299
0.047522
0.122737
-0.068337
-0.006103
0.014223
0.065585
0.090549
-0.085145
0.140546
-0.164564
-0.161856
-0.076159
0.018687
0.122333
0.050097
0.027567
0.038759
-0.092983
-0.019311
-0.136201
0.124781
-0.111694
-0.075564
0.107504
0.149641
0.122046
0.169824
-0.113811
-0.011257
0.202800
0.162884
-0.135696
-0.021587
0.120742
-0.121590
-0.138542
0.030355
0.143787
0.143268
-0.138926
0.060185
0.132388
-0.138998
0.074199
-0.088978
-0.110577
0.128784
0.033334
-0.122286
-0.044000
0.073584
0.063220
0.044790
0.064148
0.012337
-0.153538
-0.076035
-0.195110
0.023283
0.020291
0.077575
-0.000146
0.073871
0.023241
0.101073
-0.056763
0.099578
-0.055769
-0.084669
-0.120865
-0.054618
-0.045450
0.112396
0.077510
0.069595
0.004232
0.088918
0.028853
-0.063311
-0.182093
-0.157915
0.052939
-0.127609
-0.020771
-0.137224
-0.002139
0.015808
-0.042584
0.139654
-0.064979
0.007498
-0.057672
0.077589
0.151845
0.116118
-0.126330
-0.046841
0.028082
-0.086032
0.165568
-0.070117
0.029335
0.101720
0.084315
0.069839
0.061172
-0.047251
-0.012940
-0.139775
-0.059444
0.056202
-0.100392
-0.067817
0.062987
-0.211963
0.021423
-0.084945
0.012448
-0.190359
-0.077185
-0.138594
-0.073090
0.023056
-0.026033
-0.132056
0.097219
-0.014209
0.047234
0.163149
0.095341
-0.019394
0.193295
0.184464
-0.040379
-0.049335
0.099663
0.091931
0.076048
0.050966
0.061703
0.090960
-0.129996
0.122343
0.126867
0.113252
-0.040236
0.086810
-0.018917
-0.121500
-0.134582
0.006641
-0.130138
-0.024143
0.078769
0.117463
0.003240
0.002902
-0.018695
0.159949
-0.040570
-0.016711
0.117763
0.001318
0.011984
-0.017958
-0.151822
0.009841
0.045569
0.081152
-0.025514
0.078585
0.067348
0.036508
-0.051201
0.034011
-0.044035
-0.090561
0.076519
0.084122
0.188458
0.036763
0.121146
0.114207
0.152630
-0.001753
-0.002086
0.195877
-0.106396
-0.123814
-0.010430
0.148675
0.006905
0.119844
-0.039496
-0.182208
-0.054427
-0.102213
-0.050888
-0.001482
-0.029104
-0.095725
-0.087455
0.088762
0.108188
-0.067756
0.026990
0.147870
0.077225
-0.123180
-0.128799
-0.069152
-0.070105
-0.046175
-0.180944
-0.140919
-0.074784
0.100996
0.038961
0.047374
0.134379
0.026829
-0.133159
0.016409
0.122011
0.151999
0.071862
0.027954
-0.095617
0.093155
0.046925
-0.079194
0.109558
-0.118298
-0.134656
0.046447
-0.055936
-0.135037
0.076906
-0.038825
0.012650
0.152262
-0.108005
0.033681
0.057332
-0.060568
-0.178850
-0.064446
-0.225563
0.014939
-0.109868
-0.003377
0.175184
-0.022991
-0.152553
-0.008130
0.045734
-0.011405
0.066677
-0.017620
-0.042688
-0.093278
-0.026062
-0.149395
0.022960
-0.141986
0.032226
0.193926
0.005053
0.056798
-0.050988
0.055610
-0.131653
-0.074345
-0.045252
0.004270
0.157993
0.099016
-0.054211
-0.002637
-0.134663
-0.031923
0.037222
0.010467
0.157870
-0.198461
0.034915
-0.111341
0.067017
-0.095065
0.012365
-0.044933
0.035811
0.081040
0.003764
0.025768
-0.020467
-0.130496
-0.021083
0.139221
-0.145178
-0.090900
0.074995
-0.054625
-0.185587
0.021948
-0.154676
-0.132940
0.063131
0.122093
-0.069474
0.075681
0.103866
0.096586
-0.051864
-0.014149
0.024878
0.030595
0.158086
0.085811
-0.196844
0.131084
-0.086763
-0.052606
-0.019230
0.179068
0.046271
0.151451
-0.072442
-0.174794
-0.111758
0.075509
0.066535
-0.038311
-0.055736
-0.047183
-0.059168
0.084812
0.097630
0.104597
-0.074312
0.074051
0.024907
-0.112190
0.019507
-0.025416
-0.075631
-0.050881
0.024532
-0.017543
0.007382
0.112944
-0.078406
0.011685
-0.050116
0.081014
-0.096023
0.142897
-0.075496
-0.112973
0.002070
-0.111111
-0.026084
0.033545
0.099378
0.061054
-0.103453
-0.002688
0.074103
0.003016
0.092943
0.017097
0.039578
-0.158557
0.064246
0.103439
-0.081066
-0.003062
0.060673
-0.153304
0.093150
-0.133543
0.055082
-0.128278
0.059085
0.049806
-0.007618
-0.168311
-0.086460
0.157426
-0.005627
0.026909
0.048422
0.034165
-0.032025
-0.132057
0.011364
-0.092064
0.154557
-0.148217
-0.108654
0.067713
0.170026
-0.053613
