# Shape: (3, 3, 64, 64)
0.003311
-0.090751
0.055267
0.029350
0.007213
-0.017792
0.019239
0.032642
-0.064710
0.068256
0.012745
-0.059016
-0.067911
0.061829
0.032295
-0.042913
-0.036108
-0.004982
-0.099658
-0.169739
-0.165198
0.051067
0.017134
-0.068942
-0.007747
-0.018215
0.022507
-0.030822
-0.007138
-0.002137
0.058435
-0.014444
-0.086556
0.025689
0.061060
-0.042584
-0.137020
-0.018998
0.102721
-0.001282
-0.022884
0.007074
-0.017780
-0.028035
-0.054229
-0.035787
-0.100523
-0.076533
-0.051181
0.000757
0.084409
-0.011940
-0.104130
0.030794
-0.035809
-0.002124
0.064741
-0.101249
-0.084009
-0.072378
-0.023073
0.074921
0.049068
-0.031848
-0.036888
0.043473
-0.059978
-0.085981
-0.134269
-0.017103
-0.037278
-0.105255
0.035489
-0.073878
0.072731
0.083134
0.025634
-0.015207
-0.032651
-0.054376
-0.064945
0.051775
0.054588
0.048471
-0.036818
0.115213
0.008875
0.069957
-0.123318
0.027986
0.029644
-0.045986
0.038687
-0.075755
-0.000777
0.023463
-0.047443
-0.074221
-0.041492
-0.042908
-0.066141
-0.101677
-0.074649
-0.029303
-0.073741
-0.029350
0.021112
0.019061
-0.133005
0.014319
0.011797
0.010744
0.036520
-0.067767
0.001474
-0.048894
0.015646
0.014813
-0.104909
-0.020465
0.054867
-0.000930
-0.064029
-0.145993
-0.041390
-0.078885
0.009019
0.063427
0.029995
-0.044318
0.018856
-0.087259
0.023271
0.027595
0.129094
0.072325
-0.009272
-0.033310
-0.013868
-0.063319
-0.045973
0.107559
0.047401
0.059878
-0.004007
-0.007906
0.077151
0.054697
0.058717
0.065731
-0.055970
-0.034712
-0.048742
0.030745
-0.028688
0.109539
0.021363
-0.058060
-0.030407
-0.044044
0.078510
0.037505
-0.029046
-0.032132
-0.117356
-0.010267
-0.088275
0.003383
0.111442
-0.034319
-0.122210
-0.003347
0.023459
-0.076322
0.025876
-0.042263
-0.069511
-0.090782
-0.129777
0.026301
-0.049218
-0.079189
-0.080822
0.038776
-0.036325
-0.024842
-0.099305
0.102059
-0.063663
-0.014077
-0.012429
-0.042686
-0.123171
-0.020159
-0.008840
0.006648
-0.097237
-0.069078
0.008904
0.002336
-0.027261
0.062252
-0.052066
0.004513
0.022984
0.028535
-0.084175
-0.096567
-0.017651
0.011236
0.063401
-0.006326
-0.003490
0.054022
0.024020
0.038098
-0.015952
-0.015738
0.080604
-0.108219
-0.030580
-0.052817
-0.066860
0.025071
-0.071152
-0.058539
0.044315
-0.067310
0.024136
-0.023181
0.042097
0.017516
-0.023538
-0.035956
-0.003574
-0.009270
-0.092216
-0.093376
0.091430
-0.033194
-0.068772
-0.005818
-0.022452
-0.119069
-0.050981
-0.036865
-0.073775
-0.105906
0.008709
-0.081746
-0.032186
0.085982
-0.059608
0.022505
0.109039
0.052555
0.058760
-0.036988
-0.007675
-0.072426
-0.072780
-0.002103
0.012119
0.095619
0.046723
-0.048719
0.027174
0.102309
-0.037154
-0.020726
-0.029793
0.066419
0.070869
-0.002529
0.076218
0.012986
0.002058
-0.080645
-0.014730
-0.059115
0.133431
0.007470
-0.028291
0.015466
-0.094571
0.033742
0.059764
-0.069145
0.036317
-0.006745
-0.012875
-0.015489
0.059154
0.078252
-0.110065
-0.011136
-0.008045
0.129118
-0.024823
0.106903
0.117420
-0.049743
-0.022386
-0.014470
0.024135
-0.050123
-0.062139
-0.000389
-0.048451
0.024190
0.066862
0.024971
0.009795
-0.034010
-0.012087
-0.026365
0.169971
0.040089
-0.057866
0.036992
0.078721
0.032517
0.043132
-0.086346
0.007121
-0.056775
-0.062876
-0.095895
0.043053
0.016204
0.022282
0.057428
-0.018878
-0.059177
-0.093200
-0.039767
0.168894
0.043965
0.073375
-0.033116
0.054449
-0.091683
-0.043905
0.040658
0.034664
-0.002226
-0.191969
-0.028877
-0.007973
0.082576
0.003801
-0.050150
0.015727
0.025472
0.034976
0.059860
0.010527
-0.090846
-0.108115
-0.078397
0.011052
-0.068002
-0.075291
-0.001974
0.000268
0.122906
-0.072763
-0.084529
0.012659
-0.066619
-0.010862
-0.006500
-0.065092
-0.135212
-0.024613
0.041895
-0.008680
0.014741
0.046567
0.014972
0.019798
0.044985
-0.035578
0.035753
-0.027527
0.086914
-0.019546
-0.016041
0.098199
0.060855
-0.062795
0.025322
0.025822
0.033643
-0.115014
0.017944
-0.091530
-0.066109
0.001715
-0.026500
-0.080758
0.079464
-0.046488
-0.088569
-0.132706
-0.157380
-0.112329
-0.000091
-0.001797
0.009157
-0.102163
0.034389
-0.059372
0.007038
-0.064142
0.007055
-0.005500
-0.028135
-0.080344
-0.008736
0.019453
-0.054232
0.013191
-0.035828
-0.072896
0.009567
0.054122
0.029584
-0.099147
-0.057569
-0.107228
-0.011488
-0.006993
0.064581
0.013960
-0.140645
0.076985
-0.070119
0.002961
-0.054957
-0.045159
-0.020308
0.016693
-0.118169
0.062174
0.092066
0.011003
0.021921
-0.028868
-0.023678
-0.049100
-0.090880
0.036008
-0.059094
-0.086688
-0.025136
-0.056983
-0.070003
-0.047146
-0.057959
0.028790
-0.102381
0.050350
0.075167
0.093527
-0.021672
-0.062022
-0.055996
-0.011604
-0.008960
-0.037758
0.076163
-0.044805
0.044024
-0.155375
0.021591
0.011598
-0.060082
-0.025221
-0.032565
-0.031504
-0.002401
-0.037744
0.060719
-0.062760
-0.022280
-0.060969
0.063886
-0.074931
-0.043093
-0.001036
-0.004898
0.074082
0.031123
0.050090
-0.165425
-0.076211
-0.028549
-0.013832
-0.035649
-0.007526
-0.000137
0.009007
0.049731
-0.001943
0.021937
0.041966
0.060986
0.073031
0.001516
-0.050724
0.036291
-0.067216
-0.040748
0.011135
-0.035625
0.025548
-0.055665
-0.030748
-0.002188
-0.085928
-0.074347
0.071571
0.073304
-0.006020
0.083285
-0.042779
-0.022506
0.031414
0.135153
-0.008004
-0.055788
-0.064719
0.011939
-0.118938
-0.012272
-0.005065
-0.065905
-0.073825
-0.056266
-0.048391
-0.053245
-0.055681
0.097383
0.050527
-0.033055
0.037686
0.039413
0.063718
0.039846
0.032279
0.030314
0.080669
0.038185
0.018563
0.105681
-0.104623
0.054684
0.004771
0.064620
-0.037793
0.021416
-0.066948
0.062905
0.000723
0.048991
-0.029184
-0.124197
-0.009936
-0.085238
-0.068141
-0.009017
-0.027752
0.004737
-0.009101
-0.080789
0.050228
0.059433
0.003528
-0.093647
0.035543
-0.081641
-0.070653
0.037797
0.086711
-0.022373
-0.005924
0.078738
-0.087945
-0.037405
-0.043631
-0.020924
-0.103753
-0.034715
0.046686
-0.004786
-0.120915
-0.030899
0.011034
-0.035983
-0.079392
0.029977
0.033862
-0.020920
0.052501
0.054734
-0.020912
0.017979
-0.029589
0.012111
0.046930
0.137700
0.102765
0.026019
0.002913
0.027502
0.085861
0.058141
-0.120081
0.038394
0.072905
0.034601
0.015327
0.044166
-0.009587
0.048335
-0.052237
0.068299
0.051744
-0.055522
0.031558
0.031946
-0.049940
-0.046756
0.015841
0.057865
-0.062354
-0.005729
-0.017934
0.067398
-0.001677
-0.058367
0.104926
0.031633
-0.085904
0.093816
-0.025374
0.143626
-0.103747
-0.015126
-0.032552
-0.019311
-0.076493
0.037177
-0.133436
-0.011629
-0.134404
-0.051315
-0.033076
-0.085884
-0.027340
-0.045425
-0.138270
0.019042
0.029172
0.034880
-0.038253
-0.110966
0.049138
0.002956
0.110665
0.008368
0.112613
-0.009035
-0.071692
0.062544
0.026842
-0.079981
-0.028489
0.008517
0.016133
-0.068201
-0.094683
-0.055893
-0.101804
-0.072255
0.074852
0.030472
0.015217
0.020042
0.039076
-0.039445
0.036105
0.133781
0.031160
-0.100287
-0.033856
-0.017900
-0.022237
-0.099273
0.042345
0.085251
-0.031953
0.047574
0.030382
-0.015449
-0.029970
0.025152
0.106225
0.090402
0.091872
0.060957
-0.017701
-0.052306
0.027926
-0.005358
-0.030065
-0.027789
0.045886
-0.113234
0.003496
0.096790
0.043082
0.017992
0.014648
-0.069182
-0.073170
-0.094904
-0.001906
-0.041048
0.021332
-0.046860
-0.012648
-0.023653
0.085924
0.085368
0.010638
-0.037456
0.042672
-0.028848
0.087674
0.007193
-0.042394
0.045928
0.073694
-0.007639
0.107317
0.053368
-0.057425
0.081379
0.027547
-0.011198
-0.004145
0.022484
0.018564
0.048557
-0.045251
0.060078
0.031205
-0.053518
0.015425
0.040543
0.037570
0.014686
-0.035484
0.061416
-0.007292
0.045498
0.049303
-0.029725
0.090908
0.029457
0.047308
-0.112438
-0.067302
-0.016030
0.048887
-0.054068
0.070739
-0.032187
0.059679
0.037356
-0.108487
-0.012252
-0.061984
-0.023039
0.064549
0.083725
0.006707
-0.020359
0.046170
-0.072736
0.008989
-0.085652
0.087173
-0.014565
-0.019602
-0.082024
0.059327
0.009301
0.029886
0.014445
0.112716
-0.042049
0.063854
-0.018134
-0.127526
-0.104674
-0.016648
0.006985
0.049599
-0.018774
-0.001273
-0.008741
-0.011441
0.001472
-0.000263
0.022470
-0.002841
-0.038657
0.068757
0.021569
0.083215
-0.000593
-0.003950
0.004671
0.038191
0.019494
0.105761
-0.007779
0.048432
-0.069037
0.127006
0.034342
0.005248
-0.108226
0.042200
-0.005723
-0.124817
-0.055064
0.076491
-0.056900
-0.047819
0.006592
-0.052523
-0.042610
0.011382
-0.096138
0.083987
0.005375
-0.008283
-0.165496
-0.013831
-0.020784
-0.063734
-0.030813
-0.089005
0.033340
-0.207181
0.060668
-0.072720
0.007216
0.062888
0.067420
-0.001200
0.046371
-0.028403
0.109035
-0.076153
-0.042829
-0.018897
-0.079097
0.036657
-0.011506
-0.042473
-0.046843
-0.025314
0.017958
-0.020611
-0.045906
0.039777
-0.116150
-0.031449
0.051539
0.025525
0.025025
-0.074208
0.056291
-0.050529
0.067472
-0.050178
-0.024867
0.015339
0.022610
-0.051552
0.017374
0.034582
-0.058218
-0.025334
0.029456
0.000863
0.074092
-0.017031
-0.042990
-0.053681
0.061671
-0.008470
0.024094
0.001468
-0.023172
0.120435
-0.123478
-0.048903
-0.092200
-0.077992
-0.008347
-0.142632
-0.037373
-0.043463
-0.029188
0.057195
-0.052491
-0.124886
-0.078458
0.064227
0.016046
-0.081136
0.025740
0.073109
-0.137662
0.039141
0.040075
0.091290
0.037417
-0.025733
-0.027393
-0.023347
0.109762
0.012565
-0.040422
-0.041694
-0.028457
-0.056660
0.165841
0.020362
0.089133
0.049880
-0.010256
0.009192
-0.024284
0.016345
0.051634
0.019694
0.060939
0.012394
-0.080727
0.090885
-0.061827
0.066160
0.103746
0.074931
-0.046240
0.078639
-0.082205
-0.091743
-0.077046
0.002633
0.068122
0.043885
-0.030087
0.049201
-0.056136
0.047051
-0.013706
-0.103437
-0.061985
-0.002659
0.007877
-0.069295
0.036180
0.016237
-0.009683
-0.077305
0.010902
-0.037012
-0.022294
0.142407
0.059975
0.051565
-0.063273
-0.027774
-0.029740
-0.046487
0.050796
0.115645
0.055391
-0.076910
-0.002483
-0.024266
-0.029255
-0.061557
0.031534
0.079918
-0.010755
0.020957
-0.052852
-0.074514
0.088545
-0.037220
0.007321
-0.080586
-0.023634
0.006233
0.008414
0.082571
0.012631
0.030879
-0.016459
-0.022065
-0.101523
0.030826
-0.034915
-0.009617
-0.037648
0.043092
0.062948
-0.023957
0.014472
-0.072844
-0.067173
-0.082365
0.057657
-0.025673
-0.012593
0.054136
0.071569
0.011909
0.113651
-0.050504
0.029926
0.089397
0.030909
0.023260
-0.028918
-0.024635
0.100198
0.029515
-0.059919
0.041388
-0.092075
0.057681
-0.081792
-0.031835
-0.061058
0.019063
0.160899
0.015086
0.057227
-0.008159
0.020054
-0.042457
0.027520
0.028003
-0.056085
0.047023
0.061056
0.013412
0.019099
-0.106208
-0.055194
0.106758
-0.053851
0.081601
0.041582
-0.034559
0.002240
-0.001419
0.179051
-0.040290
0.002220
0.133326
-0.054341
0.030323
-0.044668
0.029383
-0.126113
0.027977
0.184627
-0.028796
-0.017859
-0.103048
-0.070646
0.114006
-0.030402
-0.085819
-0.000046
0.020345
-0.008781
-0.050581
-0.013737
0.082032
0.053985
0.035381
-0.047844
-0.066919
0.068866
0.029042
0.065480
0.020060
-0.030426
-0.038820
-0.002741
0.013273
-0.096634
0.019760
-0.046427
0.053964
0.037278
0.016338
0.048889
0.023826
0.034850
-0.045903
0.078883
0.042697
0.135841
0.015259
-0.008481
0.076810
-0.028953
-0.004255
0.006255
0.009927
-0.047286
-0.062351
0.094542
0.077064
-0.080686
0.017256
-0.014274
0.038623
-0.013267
0.064816
0.004257
0.085559
0.068439
-0.050549
0.017333
0.005399
0.092295
-0.015818
-0.035173
-0.034332
0.017291
-0.056431
-0.111165
0.018676
0.113552
-0.014262
0.024374
-0.141596
0.024820
-0.035275
-0.041599
-0.112149
0.009818
-0.062535
0.037770
0.089390
-0.019558
0.011029
-0.160597
-0.076999
-0.152263
-0.040464
0.009776
0.004557
0.155038
0.030777
-0.028689
-0.037701
-0.012709
0.057000
-0.004132
-0.056870
-0.038185
-0.014523
-0.074287
-0.132267
0.006688
0.067163
0.042139
0.031695
0.104261
-0.044828
0.096395
-0.048611
0.042607
-0.010466
0.056649
-0.100149
0.001870
0.041732
-0.005714
-0.105737
-0.097400
0.034698
0.077447
0.022370
-0.035283
-0.023311
-0.093390
0.024581
0.105356
-0.047957
-0.036539
-0.074081
0.093628
0.011053
-0.021997
-0.017913
0.030038
-0.012837
-0.051664
-0.016181
0.097709
0.092719
-0.007778
-0.027851
0.011766
0.079599
0.027610
-0.000923
0.052976
-0.028754
0.076902
0.007340
0.005400
-0.075905
-0.050191
0.009881
0.032172
-0.000409
0.110856
0.033502
-0.020439
0.059006
-0.034693
-0.043896
0.059197
-0.031330
0.029207
0.081044
0.011803
-0.045869
0.026919
-0.022340
-0.047718
-0.089673
0.109133
0.085234
0.003191
0.063702
0.017506
-0.017909
0.054045
-0.078631
0.069662
0.027559
-0.018274
0.013489
-0.049750
-0.045003
-0.086908
-0.007008
0.063889
0.107304
0.074090
-0.076908
0.071348
-0.018623
-0.019694
0.021469
-0.016473
0.104173
0.040885
0.017788
-0.013077
0.016834
-0.009861
-0.052808
0.057980
0.031286
-0.035749
-0.057570
0.008934
0.078062
0.130564
-0.009309
0.011931
-0.039513
-0.010508
-0.018562
-0.037860
0.051548
-0.071169
-0.020305
-0.019391
0.036688
0.025961
0.009158
0.093668
0.014264
-0.128227
0.040571
0.021009
0.001411
0.073654
-0.108105
0.047264
-0.042284
0.062587
-0.013242
-0.022774
-0.018057
0.058388
0.093731
0.041714
0.067271
-0.021937
0.050549
0.038769
0.014925
0.089129
0.135762
-0.020758
-0.022556
-0.040538
0.090144
-0.040124
-0.034924
-0.053325
0.037817
0.081305
-0.062669
-0.108671
-0.018911
-0.060751
-0.094147
-0.078271
0.084174
0.001520
-0.001511
0.034902
0.055365
0.010106
-0.093409
0.046682
-0.138827
-0.024947
0.013661
0.057523
0.041967
0.031191
-0.051541
0.086093
0.024923
0.024690
0.169631
-0.032300
0.100302
0.034105
0.080059
0.057520
0.056782
0.073740
-0.085851
-0.081969
-0.041196
-0.116498
-0.073647
0.088647
0.007838
-0.075307
-0.056155
0.007741
0.022554
-0.079085
-0.088399
0.001444
0.065621
-0.020789
0.008921
0.036519
-0.014353
-0.038130
-0.057023
0.069965
-0.006575
0.068782
-0.001662
-0.123145
0.059713
-0.076034
0.016018
-0.140721
0.055953
0.000442
-0.017640
-0.115503
-0.097470
0.077098
0.038131
-0.088855
0.020691
0.150010
0.004454
-0.061945
-0.031248
0.046579
0.023716
0.185568
-0.010364
0.073808
-0.049123
-0.064437
0.035750
0.009750
-0.007230
0.056267
-0.027285
-0.088325
-0.045869
-0.133061
0.073082
0.023995
-0.059406
-0.082058
0.027811
0.029541
0.129692
-0.014050
0.062656
0.005420
0.018536
-0.019841
0.032984
-0.052301
-0.066983
-0.017995
-0.031166
-0.019803
0.039685
-0.016723
0.083051
0.061444
0.041760
0.040832
-0.020043
0.016421
-0.041169
0.009997
0.056079
-0.007821
0.143543
-0.059286
-0.004922
-0.046939
-0.069965
-0.012046
0.001700
-0.070309
-0.068339
0.007277
-0.015142
0.024087
-0.069232
-0.080931
-0.094890
-0.010206
-0.091292
0.025208
-0.023982
-0.039194
-0.011904
-0.009390
0.008388
0.079727
0.181399
0.032830
-0.038646
-0.101587
-0.131151
-0.109797
0.058004
-0.075772
0.079884
0.026038
0.045625
-0.117674
-0.036481
0.055658
0.037533
-0.005207
0.008516
-0.017584
-0.003741
-0.091752
-0.090790
0.093728
-0.030355
-0.025111
0.048804
0.054022
0.041030
0.109840
-0.000555
-0.077289
-0.081738
-0.106162
-0.011416
0.025929
0.026021
-0.028776
-0.087216
-0.012206
-0.020164
-0.002752
0.050976
-0.094371
-0.046287
-0.064701
0.128033
0.081387
-0.042109
0.027456
0.083288
0.002135
0.028780
0.080210
-0.029593
0.020000
0.041606
0.066291
0.052948
0.051159
0.014136
0.020115
-0.000596
-0.030102
-0.024016
0.029624
-0.013376
-0.086834
0.027054
-0.028859
-0.024792
0.121139
0.040880
-0.011737
-0.022103
0.019598
-0.014204
0.011022
-0.067645
0.059358
0.075483
0.063660
-0.014552
0.100126
-0.039406
-0.012190
0.035994
0.079013
0.020309
-0.069010
-0.075967
0.003723
0.035806
0.041075
-0.016237
-0.088148
-0.032142
0.004882
-0.050688
-0.023265
-0.008937
0.002304
0.032523
0.065553
0.067989
0.071488
0.017595
0.027700
0.037362
-0.039883
0.081517
0.065682
0.063467
-0.019288
-0.040209
-0.012914
0.028522
0.076546
0.026718
0.101004
-0.100620
0.010459
-0.100218
0.020375
-0.045209
-0.062775
-0.163414
0.055879
-0.001792
0.014974
-0.014009
0.027558
-0.070976
-0.008508
-0.141714
-0.116127
0.012868
0.002279
0.075851
0.034265
-0.006220
0.016525
0.027980
-0.113644
-0.140893
0.034060
0.000887
-0.084081
-0.008644
-0.013146
-0.080598
-0.076806
-0.033869
0.075087
-0.025333
-0.078231
0.050709
-0.010281
-0.081585
-0.019916
-0.018709
0.058475
-0.026859
-0.075755
0.039596
0.076436
-0.026695
0.015663
-0.032036
0.022005
-0.062731
-0.014776
-0.045218
-0.063864
0.064231
-0.007031
-0.038336
0.105064
0.043322
0.046844
-0.038295
0.015181
0.012126
0.088719
-0.049162
0.055581
0.105435
-0.060762
0.004602
-0.016426
0.061179
-0.033884
0.028316
-0.121215
-0.037582
-0.011824
-0.048383
0.019911
0.004409
0.048197
0.065720
-0.020838
-0.038309
-0.008775
-0.049039
-0.035956
0.059687
-0.035854
0.003402
-0.024931
0.076943
0.076621
-0.031912
0.002685
0.085446
0.059104
-0.065116
0.006086
0.010594
-0.010183
0.076374
0.079511
0.097815
0.020546
-0.068184
0.038209
-0.033793
-0.022386
-0.067733
0.098502
0.108572
0.046279
0.112615
-0.004481
-0.006987
0.042171
-0.006723
0.073114
-0.002221
0.038441
0.066766
0.078564
-0.013800
-0.007977
0.079033
0.038382
-0.092695
-0.069924
-0.081494
0.038086
0.090035
0.015866
-0.026547
0.022546
-0.013907
0.013239
-0.039124
-0.030493
0.019355
-0.055262
0.114284
0.066330
0.002178
0.015572
-0.049864
-0.050342
0.046609
0.015808
0.113875
0.043231
-0.031827
-0.059526
-0.034483
-0.055045
-0.044725
0.011105
-0.022535
-0.033915
0.034121
0.057440
-0.043127
-0.048021
0.008555
0.070137
0.026271
0.083526
-0.031684
-0.008385
-0.025991
-0.022899
-0.016383
-0.094249
-0.078534
-0.054017
0.009915
-0.003781
0.117235
-0.007563
0.084639
-0.072508
0.010511
0.029333
-0.027556
0.027873
0.008620
0.083574
-0.090147
0.022955
-0.044481
0.042293
0.077823
-0.045447
-0.037950
0.058232
0.015533
-0.027720
0.030334
0.001635
-0.009424
-0.095662
-0.009380
0.005317
-0.080373
-0.073638
-0.018095
-0.011189
-0.013647
0.005110
0.030958
-0.076817
-0.015156
-0.046651
-0.022321
-0.061152
0.014167
-0.097237
0.012534
-0.055219
0.053044
0.080268
0.035510
-0.030327
-0.025747
0.037205
-0.020280
-0.019734
0.068242
-0.093853
0.049986
-0.045151
0.044793
-0.082020
-0.049251
0.017140
0.046961
-0.008313
-0.077409
-0.053277
0.118607
0.146530
0.012985
-0.058771
-0.012337
-0.001205
0.065332
-0.070349
0.175605
0.038739
0.077941
-0.024517
-0.077907
0.038826
-0.110341
-0.099606
0.051299
-0.033663
0.035182
-0.007421
0.084107
0.018399
-0.004925
0.029722
-0.041931
0.035631
0.017466
-0.092499
-0.018175
0.021274
-0.040927
-0.089345
0.016432
0.050195
0.057380
0.020681
-0.010595
-0.038229
0.035110
-0.008739
-0.017331
-0.086874
-0.076445
0.011641
0.092487
-0.076248
-0.026896
0.132253
-0.035715
0.055936
-0.047163
0.099112
-0.008875
-0.048094
0.021983
0.036601
0.040824
0.028674
0.032267
-0.033375
0.089006
-0.066382
0.055544
0.020246
-0.030583
-0.003108
-0.070894
0.006560
-0.065200
0.024414
-0.047379
0.024350
-0.023690
-0.041555
0.048543
-0.059025
0.055015
0.075074
0.008388
0.092427
0.008636
-0.001638
0.012254
-0.042793
0.036154
-0.031073
-0.004299
-0.013939
0.074816
-0.026769
-0.013433
-0.043966
-0.026091
0.106312
-0.045375
0.045928
0.019990
0.038270
-0.029851
-0.000015
-0.070515
-0.010185
-0.053701
-0.046395
0.050496
-0.038245
-0.129577
0.103631
-0.096231
-0.010925
-0.065158
0.028602
0.032049
0.072526
-0.007316
0.075815
-0.006128
0.154425
0.063586
0.080264
0.070378
0.007206
0.061472
0.057927
0.004097
0.067500
0.011797
-0.063974
0.060869
-0.047747
-0.115231
0.097652
0.024460
-0.058014
0.038132
-0.033765
-0.003311
-0.106701
-0.021872
0.007206
-0.024774
0.077983
0.044220
0.098087
0.075894
0.043177
-0.011233
0.051621
-0.037272
0.029560
-0.047061
-0.044986
-0.017030
0.054422
0.038559
-0.026047
-0.046894
0.049868
0.093081
0.043090
-0.070991
-0.033820
-0.005034
0.059997
-0.081452
-0.032905
-0.042396
-0.001402
-0.050732
-0.017177
-0.104592
0.010159
0.065227
-0.100465
0.066178
-0.161763
0.013443
0.075431
0.022177
0.018548
0.007966
0.041113
0.101130
0.097416
-0.107890
0.025020
-0.065791
0.056885
-0.022631
0.008978
-0.023057
0.046231
0.008787
0.019875
-0.027253
0.030312
0.060142
-0.117264
-0.090711
0.052954
0.038211
-0.017387
-0.001414
0.026441
0.036205
0.023655
0.029947
-0.083874
-0.059172
-0.023395
0.015748
-0.062115
0.025255
-0.050442
0.084957
-0.075473
-0.142667
0.008694
0.048225
-0.074780
0.140451
0.010106
-0.021856
-0.083783
0.077203
0.064443
0.095701
-0.107611
-0.051260
0.029379
-0.034278
0.023498
0.035577
-0.022862
-0.028461
-0.004594
-0.043746
-0.006092
0.002644
-0.098839
-0.033342
0.018560
-0.048749
0.034417
0.018399
-0.035190
0.178096
-0.085912
-0.089199
-0.087252
0.014841
0.039097
0.065605
0.064045
-0.028393
-0.001541
-0.042787
0.089626
-0.058816
0.088082
-0.017952
-0.145094
-0.062853
-0.092808
0.021905
0.009291
0.027217
-0.007337
-0.061780
0.101905
-0.090888
-0.002341
0.039611
-0.070710
-0.128576
0.041528
0.002573
0.038393
0.117890
-0.002674
0.017699
0.054871
0.003412
-0.078016
0.045275
0.036601
-0.025679
0.016419
-0.113583
-0.132581
-0.043869
0.061857
0.036374
0.035460
-0.049333
-0.123969
0.024965
0.001345
0.022616
0.018710
-0.129236
0.026804
0.036332
0.003675
-0.002311
0.009119
0.004680
0.035340
-0.127462
0.042468
0.018125
0.114787
0.018156
0.103614
-0.100708
0.027671
-0.098897
0.034278
-0.108669
-0.060615
-0.059035
-0.123285
-0.061723
0.099394
0.010649
-0.022067
-0.061312
-0.101005
0.050732
-0.059720
0.013782
-0.016309
-0.053024
0.004602
-0.113955
0.073328
-0.025813
0.018967
0.012628
-0.035213
-0.007742
0.041478
-0.034743
-0.106223
-0.113989
0.055746
-0.057734
-0.075668
0.031238
0.115841
-0.033504
-0.105905
0.029973
-0.036669
0.061122
0.006255
-0.042287
0.038155
-0.039720
0.021331
-0.003718
-0.145356
-0.107811
0.072598
-0.047162
-0.068212
0.023302
-0.008388
-0.047026
-0.077885
-0.016624
-0.051540
-0.126989
-0.013727
0.037924
0.018459
-0.039496
-0.011130
-0.042510
-0.092274
-0.069424
0.002164
-0.022292
0.028445
0.019104
-0.001037
0.029960
-0.041945
0.037690
0.033022
0.073855
-0.079337
0.031715
-0.080272
-0.089381
-0.029905
0.072263
0.044921
0.066945
0.058516
-0.051757
-0.064436
0.004855
-0.049335
-0.090657
-0.064615
0.099943
-0.015696
-0.049489
0.121787
-0.054771
0.014343
-0.005371
0.033690
0.049453
-0.025502
-0.040536
0.030314
0.063938
-0.025198
0.028793
0.053675
0.022477
-0.044440
-0.007589
-0.004736
-0.033288
0.014165
0.019327
-0.062226
0.091017
-0.137876
-0.094193
0.017293
-0.014419
-0.097705
-0.107701
-0.003278
-0.117072
0.069705
-0.063067
-0.070400
-0.060242
-0.096573
-0.069463
0.066314
0.063877
0.032866
0.139582
0.024277
0.150487
0.080271
0.117156
0.077158
0.020970
-0.191171
0.015664
-0.025919
0.012175
0.067701
0.038401
-0.025279
0.003817
0.022240
-0.049127
-0.044655
0.014050
0.069531
0.019899
-0.100110
-0.063460
0.067851
-0.084247
0.096465
-0.022051
0.022406
0.003468
-0.065396
0.031837
-0.046638
-0.009437
0.161080
-0.028160
-0.016089
-0.021788
-0.080072
0.026019
0.011566
-0.007419
-0.064043
-0.015264
-0.020641
0.057794
0.022107
0.061135
0.043597
-0.039663
0.096266
0.019431
0.012697
0.028454
0.080371
-0.075199
-0.060674
0.062322
-0.050483
0.059251
-0.059174
-0.151643
0.100412
-0.038705
-0.016459
0.149112
0.087110
0.060817
-0.096947
0.063044
-0.020882
-0.000299
-0.086398
0.093600
-0.056225
0.017015
0.016809
-0.040128
0.055577
-0.063958
-0.126933
0.048847
-0.032976
-0.028340
0.052532
0.055924
-0.077646
0.108792
0.008211
-0.053939
0.032660
-0.020201
-0.093651
0.021785
-0.045177
-0.045467
0.018248
0.051307
0.070591
0.041826
0.053398
0.070116
-0.018746
0.034824
0.076769
0.043028
0.010214
0.028249
-0.066156
-0.081720
-0.046763
-0.034344
-0.085039
-0.005771
-0.069802
0.053057
0.132629
0.035339
-0.038477
-0.094263
-0.003277
0.097877
0.130883
-0.038790
0.096270
0.035729
0.018536
-0.012493
-0.050024
-0.041519
-0.069662
-0.031660
0.040070
0.018675
0.025238
-0.071912
-0.028707
0.104356
-0.016576
-0.035260
-0.067105
0.010539
0.025946
-0.022373
0.044108
0.025359
-0.004194
-0.055855
0.012745
-0.066070
0.019086
-0.057182
-0.084018
-0.138486
-0.035866
-0.078367
-0.097142
0.083799
-0.093500
0.016764
0.014297
-0.066747
-0.197786
-0.098094
-0.150316
-0.025594
-0.006817
-0.105537
-0.010018
-0.090433
-0.068418
-0.032390
0.005277
-0.030032
-0.060839
-0.040180
0.010246
-0.103021
-0.069402
-0.016765
0.120126
0.026847
-0.055009
-0.033488
0.072045
0.004067
0.079637
-0.028545
0.092075
-0.053008
0.036171
0.034790
-0.013800
-0.098321
-0.006344
-0.022720
0.126701
-0.047558
-0.081444
0.045667
-0.063962
-0.090979
0.053879
0.011714
0.018495
-0.026254
0.022685
0.019539
-0.029610
-0.013494
0.069699
-0.038125
0.076537
0.077565
-0.058777
0.027647
-0.046631
-0.068930
-0.013655
-0.028702
0.057630
0.024303
0.008343
-0.025675
0.045820
0.023742
-0.112149
-0.078235
0.127383
0.008050
0.045203
-0.025788
0.034551
-0.066149
-0.078869
0.020875
0.005856
0.103460
0.003266
-0.019545
-0.052040
-0.069102
0.053854
-0.029118
0.092006
0.009360
-0.087110
0.086337
0.049434
-0.109610
-0.142488
0.007694
0.087244
-0.089321
-0.031693
-0.006344
-0.051884
0.043240
0.040747
-0.041990
-0.034637
-0.011490
-0.073087
0.045839
0.042815
0.063358
-0.018671
-0.085929
-0.061229
-0.024447
0.075471
0.014183
-0.005725
0.011681
0.096543
0.059501
0.035310
0.017133
0.000446
0.077071
-0.018534
0.089806
-0.061032
0.010505
0.037154
0.044391
0.057070
0.008962
-0.056161
-0.039208
-0.102325
0.026663
-0.073775
0.070016
0.003469
-0.063116
-0.073150
-0.072153
0.038359
0.035621
-0.006829
-0.080087
0.027015
-0.022018
-0.065528
0.060767
0.014807
0.015396
0.013552
-0.021294
0.123808
-0.023921
-0.036608
-0.002792
-0.074003
0.017352
0.040094
-0.054893
-0.088564
-0.009479
-0.035833
-0.033197
-0.009355
0.022931
0.061094
-0.038689
-0.050668
-0.037705
-0.072680
0.039843
0.067013
-0.000041
0.096536
-0.067588
0.062594
-0.025075
0.044534
-0.008587
-0.020317
-0.035455
0.003687
-0.090963
-0.029186
0.044237
-0.065363
0.012392
-0.012006
0.013741
-0.062270
0.065782
-0.057928
-0.002485
-0.077587
0.043492
-0.008715
-0.049795
0.024588
-0.051394
0.154821
0.075101
-0.050940
0.017133
-0.030591
0.031808
0.002204
0.090706
-0.046911
0.023118
0.005278
-0.066572
0.048189
-0.058589
-0.083026
0.040398
-0.028302
0.035388
-0.088921
0.065658
-0.056574
-0.049274
-0.135686
-0.062712
-0.055516
-0.044938
0.027234
0.078726
0.047201
0.042629
-0.077722
0.055894
-0.069024
-0.114401
0.010353
-0.062452
0.004262
0.015562
-0.050524
-0.000165
0.018623
-0.021905
-0.064383
0.008787
0.024355
0.072827
-0.030292
-0.027719
-0.062371
-0.046682
0.033989
-0.027768
0.081894
-0.023810
0.036009
-0.112598
-0.087890
-0.012575
-0.029182
0.016460
0.033841
0.029591
-0.023477
0.025797
-0.025075
-0.042104
0.031781
0.082596
-0.014060
0.048516
-0.102625
-0.025685
-0.060658
0.077351
0.052445
-0.059364
-0.044344
-0.041402
0.062773
-0.008276
0.047267
-0.059642
0.005094
-0.087995
-0.079101
0.032375
-0.098502
0.003376
-0.054248
-0.046703
0.022192
-0.080745
-0.042030
0.039596
0.021568
-0.097416
-0.032422
-0.058015
0.167686
0.005760
0.037627
0.061476
0.019721
0.006569
-0.091372
-0.073699
0.008990
-0.052128
-0.109396
0.009594
0.030839
-0.049707
-0.014374
-0.065205
0.104231
-0.032599
-0.018134
-0.006046
-0.036946
-0.012539
0.045508
0.084534
-0.008013
-0.024917
0.016933
-0.089354
-0.064581
-0.022920
0.080169
-0.050201
0.066564
-0.088394
-0.001458
0.000458
0.039338
-0.051808
-0.081523
-0.082365
-0.005467
-0.034962
0.053370
0.039368
-0.116989
-0.078822
0.026111
-0.084674
0.064574
0.061227
-0.007235
0.054128
-0.018206
-0.022992
-0.070452
-0.011175
-0.001427
-0.044331
0.015253
0.033435
-0.080836
0.046213
-0.101046
-0.012400
-0.106055
-0.103932
-0.083471
-0.054131
-0.046604
-0.016487
0.069052
-0.015712
-0.013882
0.087717
-0.131178
-0.036253
0.026335
0.112566
-0.101545
-0.076179
0.087604
-0.076920
-0.006008
0.040693
0.052321
-0.098137
-0.095546
0.134139
0.022040
0.032979
0.029930
0.054618
-0.061640
-0.051999
0.101498
0.058676
0.142763
-0.033650
-0.044384
-0.007683
-0.021846
-0.075288
0.138030
-0.031950
0.108477
0.072167
-0.140216
-0.063607
0.004694
0.006256
0.032120
-0.135355
0.025350
0.107020
-0.001408
0.068683
-0.039224
-0.074098
-0.078428
-0.069420
0.023813
0.058484
-0.077443
0.032441
-0.029019
-0.011143
0.027834
-0.001565
0.059066
-0.037295
-0.068290
-0.005802
0.011764
-0.103737
-0.052261
0.049394
0.064506
-0.072712
-0.096508
-0.042218
-0.039784
-0.129134
-0.000036
0.002519
-0.056952
-0.115713
-0.016311
-0.009240
0.076864
0.027573
-0.097849
-0.081096
-0.076735
-0.038269
-0.087019
0.076928
0.069040
-0.028989
0.063412
-0.054851
0.050110
-0.040497
0.021294
-0.054149
-0.017940
0.020853
-0.046676
-0.013328
-0.036150
0.047278
-0.018338
-0.048726
0.019894
-0.066237
-0.030156
0.073325
0.022366
-0.161167
-0.115535
-0.018910
0.005437
0.082223
0.023493
-0.055268
-0.070418
0.120319
0.065506
-0.048605
-0.115231
-0.022208
0.004969
-0.094920
0.024911
0.046122
-0.038917
0.031978
-0.026743
-0.015515
0.014607
-0.031958
0.093393
0.059306
0.016109
-0.017794
0.054368
0.028845
-0.040507
0.066486
0.127458
0.038802
-0.034919
0.002289
-0.008567
0.045025
-0.022269
0.054944
0.028930
0.024365
0.032297
-0.008253
-0.100756
0.084898
0.018079
0.063788
0.007173
-0.069366
0.006250
0.015540
-0.034058
0.076998
-0.030903
0.015965
0.111708
0.100879
-0.005755
-0.044181
-0.071184
0.035810
0.015813
-0.032280
-0.068301
0.068417
-0.047659
0.002070
-0.051100
-0.089401
-0.020771
-0.037652
-0.054230
-0.026535
0.004420
-0.015196
0.024871
-0.018184
-0.071438
-0.085293
0.013722
-0.014951
0.043932
-0.021636
0.009474
0.087293
-0.063626
-0.035125
0.017959
-0.058762
-0.131929
0.047729
-0.046049
-0.045412
0.035619
-0.014300
-0.007205
-0.045187
0.074938
0.052954
0.019015
-0.048071
0.073459
-0.076237
-0.080273
-0.003205
-0.037234
0.045873
0.007478
-0.034182
0.087390
-0.047820
-0.024809
-0.051017
-0.047937
0.026570
0.095362
0.084598
0.034884
0.090393
-0.028690
-0.071983
0.050369
0.008982
0.064570
0.006475
-0.036865
0.111676
-0.036799
-0.039130
-0.108425
0.051009
-0.163474
0.116444
0.005324
0.006435
0.120711
0.171068
0.186228
-0.057845
-0.078871
-0.036399
0.094212
0.010158
0.056618
0.028365
-0.044531
0.094513
0.061079
-0.020967
0.005896
-0.007802
0.020883
-0.063331
-0.086896
-0.165660
0.005632
0.060152
-0.120237
0.031599
-0.096860
-0.044217
-0.011518
-0.017094
-0.023092
0.008098
0.028788
0.032583
-0.102217
-0.031843
-0.066641
-0.012234
0.069421
-0.003171
-0.060072
0.029092
-0.057667
-0.044241
-0.038821
-0.038730
0.062332
-0.013183
-0.048335
-0.008330
0.133182
0.006892
0.111941
0.035742
0.022437
0.052852
-0.092163
0.028149
-0.111177
-0.074983
0.028090
-0.025285
-0.098666
-0.077014
-0.092082
0.076174
-0.000545
-0.056360
0.011620
0.015433
-0.046672
-0.035324
-0.010244
-0.011960
0.072919
-0.070864
-0.074495
0.077265
0.005548
-0.036090
-0.073503
-0.046347
0.183882
0.022185
0.035922
0.054314
0.068471
0.016261
0.014102
-0.033372
-0.044468
-0.016280
0.027637
0.044726
-0.003246
-0.043516
0.011683
-0.057602
0.015500
0.137204
0.006067
0.118465
0.064865
-0.055409
0.000097
0.026309
-0.025326
0.046869
-0.064385
-0.032163
0.169654
0.017603
-0.024384
0.109565
0.089182
0.058489
0.050149
-0.055489
-0.001638
0.045706
-0.048704
0.097367
0.105019
-0.021632
-0.118938
-0.026277
-0.058542
0.070116
-0.008543
-0.059244
0.059710
-0.023228
0.044375
-0.035335
-0.033077
0.063047
-0.015149
0.053874
0.034257
0.033603
-0.100949
-0.054468
0.095104
-0.045090
-0.038491
0.008925
0.035262
0.036678
-0.009195
0.026151
-0.058192
0.023327
0.024721
-0.039344
0.011770
0.047888
0.004148
0.016228
0.021131
0.023983
0.036496
0.043333
-0.073099
0.002253
-0.089257
0.044119
-0.015501
-0.018252
-0.158754
-0.023100
0.118651
0.017569
0.024410
0.031707
0.004702
0.078127
0.063946
0.025816
0.080955
0.040522
-0.029293
-0.064509
-0.068682
-0.081350
-0.015667
0.001248
-0.079278
-0.075390
0.087991
-0.118840
-0.101030
0.068395
-0.027244
-0.114969
0.056050
0.045505
0.053710
-0.040903
-0.009968
0.027119
0.115018
-0.007007
-0.006505
0.075061
0.044368
-0.040630
-0.008619
-0.081156
0.107024
0.030412
-0.103610
-0.122684
-0.102573
0.006074
0.030536
-0.055191
0.048809
-0.018425
-0.038141
-0.024449
0.083973
-0.016983
-0.007159
0.002841
0.099637
-0.090925
-0.035288
-0.035492
0.086277
0.063330
-0.019688
-0.026017
0.040467
0.003271
-0.017660
-0.067332
-0.123339
-0.027181
-0.027044
0.027189
-0.008947
0.071037
-0.017738
0.030478
-0.025905
0.057023
0.086725
0.087262
0.089632
0.110444
-0.075786
-0.216719
-0.031602
0.004761
0.048323
-0.046369
-0.027547
-0.045742
0.087191
0.019536
0.100809
0.048290
-0.020220
0.056527
0.036709
-0.018512
-0.029630
-0.018300
0.044281
0.107988
0.047717
-0.011315
-0.072807
-0.059163
-0.001422
0.016592
-0.038981
0.053076
-0.054935
0.081025
0.014775
0.125668
0.070275
-0.021255
0.044387
-0.046883
-0.095241
0.038889
-0.141412
-0.023050
-0.059215
-0.046751
-0.062894
-0.029656
-0.013904
0.027052
0.022307
-0.006669
0.057093
-0.024981
-0.126391
-0.001917
0.087463
0.018290
-0.065893
0.091284
-0.063062
0.028811
0.068996
-0.042702
0.147485
0.001160
-0.027455
-0.011795
0.000027
0.152516
0.067188
0.005036
0.109644
-0.086662
0.122584
-0.064417
-0.057266
-0.030862
-0.017709
-0.080028
-0.026290
0.021209
-0.078285
0.009437
-0.087993
-0.096870
-0.114008
0.034351
-0.055202
-0.021479
0.006494
-0.011462
0.052843
-0.041868
-0.106131
-0.050875
0.006630
-0.032525
-0.046151
-0.063016
0.016167
-0.003130
-0.021769
0.019476
-0.075853
0.048805
0.034279
0.096216
-0.042843
0.110532
0.060873
-0.106619
-0.057083
0.107868
-0.025460
-0.056980
0.055461
0.016988
0.046276
-0.017271
-0.080416
-0.080089
0.005370
0.025662
-0.087524
0.083295
-0.060307
0.033125
-0.049736
0.024298
0.031326
-0.047680
0.005977
-0.001882
-0.002196
0.014186
-0.092711
0.094315
-0.034551
-0.022110
0.024235
-0.126577
-0.033740
-0.009353
-0.127661
-0.081116
-0.053212
-0.061374
-0.058733
0.072237
-0.012894
0.010137
-0.003880
-0.059500
-0.086334
-0.084556
0.071172
0.005375
-0.071790
-0.136687
0.105269
0.071506
0.059085
0.063411
0.097114
0.059671
0.141467
0.076231
0.050759
-0.084532
-0.067874
0.079638
0.059613
0.003576
0.042837
0.023103
0.013392
0.031165
0.017561
0.059606
-0.031976
-0.083721
-0.075845
0.051998
0.070921
-0.033394
-0.034592
-0.013401
-0.134227
0.065763
-0.024935
0.058019
-0.092133
0.014844
0.083538
0.000645
0.106426
0.095672
-0.030775
-0.036011
0.011359
-0.131097
0.013789
-0.118189
-0.008100
0.031723
0.113159
0.038690
-0.088234
0.130074
-0.048915
-0.005604
-0.030656
-0.035494
-0.008019
-0.031386
-0.022038
0.007293
0.009628
-0.053181
0.035131
-0.076934
0.053989
-0.086342
0.049879
-0.103759
-0.024705
0.056909
-0.023103
0.047530
-0.091432
0.010802
-0.157397
0.169970
0.081917
-0.205179
-0.047557
-0.083698
-0.131238
-0.030007
-0.010672
0.054613
0.016277
-0.058354
-0.084335
-0.033365
-0.008919
-0.042953
-0.050168
-0.027699
-0.184313
0.116511
0.013302
-0.031044
-0.029794
0.031928
0.131235
0.056946
-0.034690
0.057214
-0.042788
-0.152457
0.012853
-0.092021
0.018540
-0.034248
0.055638
0.035700
0.024673
-0.060334
0.075544
-0.092760
-0.111117
0.082343
-0.005217
-0.034093
-0.012752
-0.035405
-0.139592
0.005092
0.047197
0.018816
0.065520
-0.009768
-0.011417
0.005523
0.024726
-0.048008
-0.052472
-0.006413
0.010465
0.061040
0.067021
-0.072846
0.010200
-0.032980
-0.068839
0.024208
-0.008291
-0.090674
-0.070929
-0.090441
-0.037698
-0.081147
-0.069882
0.019673
0.062187
-0.106200
0.004326
-0.075080
-0.047509
-0.019653
0.039590
-0.021223
-0.059076
-0.079525
0.010446
0.081165
0.005850
0.052265
0.059085
0.080860
0.012975
0.033992
0.074500
0.019131
-0.026392
-0.013836
-0.020949
-0.137761
0.086396
0.108045
0.021268
-0.044669
0.059855
-0.063252
0.082104
-0.043087
0.067467
0.046397
-0.141512
0.017898
0.035543
0.033095
-0.065389
-0.009830
0.077688
-0.002260
-0.092267
0.037878
-0.053322
-0.031903
0.108554
-0.076447
0.068047
0.051800
-0.023730
0.010479
0.043758
-0.016608
-0.084926
-0.069926
-0.023775
-0.099657
-0.005130
-0.001328
0.009259
-0.030265
0.006896
0.052406
-0.085801
0.010719
-0.036715
0.019854
0.031212
0.011658
0.090920
-0.043384
-0.067126
-0.047610
0.015836
-0.052239
0.062902
-0.031489
0.017255
-0.094486
-0.022192
-0.000531
-0.104644
0.060110
-0.034427
0.065718
-0.050754
0.024224
0.079271
0.012436
-0.067056
-0.000799
-0.027134
0.046394
-0.024383
0.066928
-0.006095
-0.058153
-0.012795
0.113812
-0.062056
-0.026319
-0.050577
-0.072045
0.005045
-0.014284
-0.084565
0.042161
0.010216
-0.083341
-0.036062
-0.027351
0.118428
-0.035068
-0.052667
-0.101623
0.003599
0.019423
0.090168
0.110558
0.068550
-0.060969
-0.092459
-0.052723
0.049250
0.028240
0.039764
0.014669
-0.005750
-0.070782
0.021057
0.032069
0.040214
-0.056023
-0.034102
0.064639
-0.087515
-0.009563
0.169248
-0.064736
-0.034972
0.013582
0.003951
0.002648
0.003231
-0.076941
0.085434
0.007986
0.094207
-0.071817
-0.088775
-0.067384
-0.045491
0.103674
0.000613
0.069730
-0.022260
-0.054551
-0.091738
-0.015040
0.007403
0.107099
0.046265
0.015555
-0.046547
-0.081534
0.000794
-0.062129
0.006253
-0.039223
-0.078255
-0.093827
-0.060005
0.056059
-0.064449
-0.081219
-0.009451
-0.030567
0.049376
-0.028634
-0.068541
0.023602
-0.087690
0.048016
-0.043888
-0.087019
-0.047819
0.026666
-0.029952
-0.092441
-0.074742
0.031889
0.026005
-0.069848
0.022164
-0.008667
0.041612
0.016443
0.007014
-0.087894
-0.077348
0.044881
-0.057502
-0.037778
0.030339
-0.024007
0.017790
0.073979
0.064560
-0.023004
-0.016164
0.035495
0.047511
-0.067777
0.106420
-0.026429
0.102204
-0.037348
-0.051221
-0.091755
-0.021596
-0.097778
0.074315
-0.056064
-0.088567
0.046919
-0.139185
-0.072615
0.032935
-0.012593
-0.035477
0.028496
0.060870
0.062536
0.065019
-0.007624
0.037923
0.042448
0.074792
-0.033134
0.020081
-0.038584
0.015889
-0.061930
-0.000968
-0.045747
-0.078293
-0.018730
0.072207
0.097280
-0.002342
0.005679
0.028815
-0.025097
-0.062487
-0.029509
0.009291
0.050312
0.015134
0.047845
-0.124354
-0.073997
0.043988
0.081872
0.072979
0.033498
0.063792
-0.028773
0.087946
-0.024100
0.064973
0.034680
0.058991
-0.018755
0.001954
-0.012776
-0.023195
0.110670
-0.103892
0.110822
-0.090851
0.001840
0.113716
0.137487
0.101512
-0.010186
0.046549
0.101444
-0.003076
0.025963
0.104509
-0.020095
-0.023105
-0.003359
-0.014170
0.036565
0.044421
0.016302
0.014139
0.078958
-0.021443
0.020848
-0.008444
0.020688
-0.097191
-0.076010
0.086368
0.003816
0.060688
0.073951
-0.043168
0.027046
-0.080646
0.089834
-0.031736
0.084527
0.103456
0.069338
-0.114727
-0.019781
0.034614
0.092938
0.045206
-0.082105
-0.060275
0.056566
0.012501
0.118640
0.021263
0.020167
-0.024416
0.043103
0.088523
-0.043769
-0.046020
0.036940
0.114984
0.057782
0.034824
0.031910
-0.032857
0.049660
0.027240
0.031636
-0.053152
-0.066005
0.074032
0.021128
0.048871
0.108978
-0.103141
-0.015469
0.086787
0.071251
-0.021860
-0.045696
-0.050210
-0.040672
0.083386
0.038245
-0.120285
-0.128403
0.058942
-0.142486
0.014747
-0.006043
0.105029
-0.082426
-0.005464
-0.074027
-0.019256
0.003674
-0.065014
-0.025918
-0.012387
0.123052
0.097280
-0.038387
-0.014690
0.013076
-0.078642
-0.026384
-0.050268
0.182702
0.012425
0.015340
-0.067363
0.035531
-0.126410
-0.046285
0.071261
0.014641
-0.117832
0.087161
-0.048529
0.012341
0.019605
0.028933
-0.013352
0.053848
0.086067
-0.001616
0.022656
-0.040190
-0.170836
0.043731
0.024643
-0.032883
0.071682
-0.018920
0.071792
-0.007318
0.016038
0.103431
-0.044071
-0.011885
-0.069328
-0.013261
0.077115
-0.010682
-0.076516
0.011366
0.033073
-0.030235
-0.041688
-0.025405
0.004744
-0.002325
-0.056888
0.043265
0.022795
0.038480
-0.007848
0.048203
-0.126974
-0.079530
-0.065269
-0.093266
0.039468
0.104754
-0.071497
-0.031017
-0.088230
0.017386
-0.050790
0.006589
0.077775
0.032822
0.013723
-0.072621
0.003171
-0.052830
-0.008504
-0.072694
-0.035942
-0.030804
0.031269
-0.088715
-0.043442
-0.091817
-0.013583
-0.085165
0.060476
-0.032583
-0.087002
0.014187
-0.046539
-0.087605
-0.113385
0.080210
-0.171027
-0.064488
-0.104553
0.010049
0.033948
-0.043191
-0.101019
-0.034069
0.044257
-0.133780
-0.089432
0.054486
0.070584
-0.084663
-0.063787
0.067007
-0.001477
0.107333
-0.070395
0.051372
0.010985
0.116068
0.025174
-0.050857
0.016953
-0.030598
-0.099686
0.002422
-0.040379
0.047456
-0.041447
-0.020986
-0.012454
-0.000619
-0.004979
0.009617
-0.102505
-0.019480
-0.017849
-0.050764
0.010325
0.004599
0.012179
-0.098599
-0.042499
-0.078960
-0.056199
0.048249
-0.024398
0.018026
0.047092
0.002875
0.098354
-0.070123
0.004309
0.016461
0.028553
-0.024469
0.053059
-0.086661
0.066959
0.025621
0.133171
-0.034955
0.058366
-0.121209
-0.011997
-0.012999
-0.021585
-0.010456
-0.015698
-0.101960
-0.000433
-0.016331
-0.019388
-0.018297
-0.185828
-0.080144
-0.035475
-0.041824
-0.094925
-0.011463
-0.018483
0.020523
-0.043033
-0.066463
-0.024770
-0.086765
-0.014194
0.088151
-0.023629
0.047881
-0.034518
-0.125034
-0.008991
-0.032657
-0.109848
0.001917
-0.025755
-0.032100
0.004353
-0.061967
-0.080319
-0.048566
0.036391
-0.046769
-0.047400
-0.050841
-0.001698
-0.030615
-0.019245
-0.102488
0.003324
-0.088548
0.087229
0.075664
0.030475
0.101733
-0.005773
-0.068642
-0.018220
-0.049323
0.046014
0.036420
0.002204
-0.093243
-0.018656
0.128305
0.014591
-0.018819
-0.040774
-0.038505
0.002490
0.017544
-0.057564
-0.001484
0.001365
-0.034171
0.036501
-0.046822
0.031938
-0.082959
-0.032399
-0.038516
0.026280
-0.157174
-0.015629
0.031549
-0.044858
-0.122122
0.045648
0.072263
0.008921
-0.084983
-0.041682
-0.107437
-0.041444
-0.067656
-0.074418
-0.012554
0.046949
-0.022458
0.031943
0.012754
-0.026605
0.094379
0.076673
-0.021310
0.042883
-0.043520
0.017288
-0.035136
0.117285
0.077790
-0.046911
-0.076154
0.021319
0.080227
-0.051853
-0.037354
-0.002788
-0.021220
0.004688
-0.023011
0.050459
0.082860
-0.114179
-0.134722
0.013624
-0.081195
0.117714
-0.037219
-0.159067
0.037869
-0.000542
-0.059884
0.010781
0.024225
-0.039901
-0.009428
0.032369
-0.034521
-0.122362
-0.095954
0.092974
0.057842
0.049793
0.051974
-0.024086
-0.022287
0.041348
-0.015731
0.014170
-0.037479
0.071242
-0.059550
0.036280
-0.183634
-0.010184
0.051398
-0.142247
-0.018359
0.028908
-0.071133
-0.142281
0.047754
0.083753
0.016373
-0.070384
-0.114799
-0.022160
-0.015797
0.069433
0.051563
-0.026538
-0.008491
-0.074207
0.011417
-0.045283
-0.174287
-0.104122
-0.073047
-0.048656
0.023693
0.038503
0.010764
0.040618
0.010836
0.048068
-0.058682
0.024216
0.086992
0.076891
-0.004364
0.038281
-0.000095
0.004077
-0.077837
-0.002940
-0.002856
0.024681
-0.103106
0.039820
0.035530
-0.059113
0.060857
-0.078901
-0.010503
0.030094
0.051692
-0.001956
-0.027424
0.025202
0.097612
-0.052281
0.088768
0.010857
-0.016621
-0.078351
0.083297
0.011519
0.058414
0.043629
0.088685
0.007156
-0.050320
-0.033862
-0.015667
-0.017248
0.057463
0.019245
0.073547
-0.017051
0.136257
0.060987
-0.031027
-0.027403
0.112544
-0.009969
-0.024886
0.022100
0.031812
-0.010122
0.072087
0.025761
-0.060270
0.062653
-0.013681
-0.019881
-0.091871
-0.042088
0.010385
0.099354
0.015746
-0.055257
-0.052610
0.044983
-0.033280
-0.064139
-0.010369
-0.009849
-0.052791
0.027295
-0.004679
0.000062
-0.014061
-0.058895
0.073792
0.010128
0.052881
-0.014469
0.024160
-0.013943
0.042243
0.044543
-0.048632
0.030720
0.022659
-0.064436
-0.012306
-0.092421
-0.027954
0.024806
0.082911
-0.036242
0.052421
0.007579
0.067847
0.056040
0.125022
-0.129759
0.048157
-0.067242
0.050902
0.101253
0.013570
-0.013038
0.008831
0.056902
-0.070936
0.110464
-0.054766
-0.005692
0.010958
0.039310
0.023431
0.013043
0.017962
-0.015469
-0.039137
0.087510
0.050094
0.043144
0.004266
0.036428
-0.079704
0.029172
-0.036471
-0.021792
0.074745
-0.067222
-0.021907
0.050552
-0.113528
-0.014524
-0.002859
-0.050906
-0.055701
0.112538
-0.083613
-0.045784
-0.024994
-0.036090
-0.052924
0.119799
-0.053252
0.122034
-0.011319
-0.027802
0.053718
-0.035951
-0.074272
0.107789
-0.078682
0.063789
0.064890
0.084437
-0.073999
-0.064045
0.121401
0.042769
-0.031555
0.027577
0.013432
-0.040906
-0.001824
-0.022576
-0.002650
0.055605
-0.043931
-0.085527
0.000739
-0.112039
-0.011298
-0.063610
-0.069297
-0.033258
-0.174614
0.043650
-0.100099
-0.000710
0.016854
0.061946
-0.112978
-0.023701
-0.022993
0.112705
0.026611
0.044558
0.006828
0.082616
-0.055507
-0.000816
0.050680
0.058228
0.102169
0.129514
0.015713
-0.074063
0.042038
-0.005627
-0.025993
-0.067131
-0.070165
-0.115224
-0.033099
0.040406
0.039320
0.095296
0.020258
0.118991
0.112925
-0.040291
0.003986
0.028742
-0.080536
0.002617
-0.086929
-0.021923
-0.033229
-0.047255
0.050131
-0.009008
-0.052669
-0.003077
-0.120098
-0.091087
0.008056
-0.076643
0.020013
0.023547
0.000130
-0.051522
-0.105119
-0.019021
-0.002714
-0.050811
-0.044197
0.029700
-0.095875
0.068718
-0.057638
0.075710
-0.059399
-0.027488
0.012902
-0.083115
0.050293
-0.004210
0.094670
0.025464
-0.012321
-0.076063
-0.033965
0.059206
-0.096899
-0.011755
0.042387
-0.055637
-0.097625
-0.036121
0.014276
-0.102985
-0.029641
0.099496
-0.029370
-0.071403
0.008059
-0.003190
-0.002565
0.019277
-0.066496
0.024737
0.057245
0.046631
0.136163
0.050924
-0.031928
0.020682
0.001330
-0.020832
-0.068920
-0.006478
-0.012223
-0.095205
-0.046039
0.093684
0.059054
0.066031
0.049109
-0.014041
0.028808
0.061339
-0.063883
-0.100322
0.052832
-0.045869
0.028612
-0.118138
-0.028132
0.046027
0.021681
-0.036567
0.053779
-0.057141
0.050370
0.052005
-0.033717
0.001865
-0.078040
0.052177
0.033739
0.063314
-0.037308
0.065098
0.053314
-0.025083
0.005800
0.121361
0.039462
-0.026926
0.023982
0.043112
-0.011831
0.031921
0.072552
0.030811
-0.023678
-0.021785
0.062352
-0.009103
-0.068743
0.104581
-0.003106
-0.106425
-0.050089
0.013922
0.050213
-0.031452
-0.020111
0.024837
-0.030509
-0.075174
-0.078775
0.061250
-0.002110
0.013770
-0.049277
-0.007332
0.026926
0.013911
0.033948
-0.077478
0.049296
-0.036353
0.000693
0.042602
-0.044336
0.038522
-0.011099
0.092203
0.143886
-0.023635
0.045593
0.039127
-0.067293
-0.098287
0.056949
-0.079372
-0.021081
-0.005277
0.113949
0.014326
0.071452
-0.051806
-0.064558
0.049161
0.024765
-0.005301
0.075460
0.006257
0.024433
-0.042674
0.043518
0.148453
-0.073077
-0.092857
0.030140
0.123856
-0.039132
-0.049399
0.047428
-0.068975
-0.006890
-0.041923
0.082616
0.052929
0.007863
0.007603
-0.032375
-0.112179
-0.066516
0.153222
0.070531
-0.125703
0.047262
0.063211
0.135642
0.023073
0.087508
-0.008402
0.003289
0.008239
-0.000022
0.126029
0.076173
0.011522
0.018657
0.025244
-0.016466
-0.053751
-0.086960
0.034264
-0.079456
0.052218
0.018104
-0.102875
0.098335
-0.052084
-0.034416
0.055500
0.014469
0.029494
-0.004256
-0.072404
-0.044584
0.022880
0.133681
0.027277
0.059472
0.073439
0.028218
0.040514
0.059622
0.068812
-0.021154
-0.051910
0.076089
0.022616
0.018462
0.028942
0.001722
-0.024272
0.090778
0.038029
-0.009495
-0.101712
-0.093636
0.075668
0.005011
-0.000272
-0.004707
-0.059048
-0.078253
-0.043637
0.047777
-0.005242
0.025839
0.092293
0.019533
-0.029685
0.036947
-0.021205
0.002374
0.028371
0.024488
0.046670
-0.057230
0.005768
0.007066
0.104671
0.039833
0.027786
0.012001
0.045680
-0.007521
-0.118885
0.089731
0.108403
0.078688
0.024397
0.062340
0.059635
-0.031377
0.010242
-0.003778
0.021099
0.106491
-0.084453
-0.034545
-0.092214
0.001533
0.033350
0.112723
-0.042037
0.027439
0.032226
0.031734
0.004415
-0.026637
-0.007668
0.080874
0.084143
0.062853
0.025008
0.097591
-0.008427
0.039612
-0.040044
0.007397
-0.011038
-0.013634
0.028958
0.094363
0.055530
0.086579
-0.005491
0.017374
-0.006062
0.016518
-0.039945
-0.049745
0.042611
-0.047531
0.033528
0.035279
0.070599
0.001876
0.077758
-0.013023
-0.185438
-0.138066
-0.050433
-0.075099
0.024953
0.031539
-0.003359
-0.024003
0.070364
-0.127599
-0.066199
-0.037771
0.023362
0.019830
0.000212
-0.083652
-0.021946
0.004780
0.068700
-0.022245
-0.036148
0.068402
0.037535
0.065954
-0.086169
0.034386
-0.011236
-0.021407
-0.036847
0.041130
-0.078368
0.007823
0.074397
-0.038683
0.016047
-0.040355
0.023910
0.051541
0.034656
-0.007637
-0.083333
-0.047089
-0.041766
-0.046512
0.075171
-0.021136
0.026211
-0.038024
-0.091565
0.013539
0.101578
0.006288
0.028113
0.052372
-0.101700
0.058783
-0.096605
-0.027054
-0.022378
0.020076
0.034413
0.160717
0.053578
-0.108845
-0.060627
0.102871
-0.040037
-0.056011
-0.011059
0.007109
0.041533
-0.029574
0.014058
-0.009534
-0.060612
-0.049179
0.020180
-0.000352
-0.022924
-0.083112
-0.056110
-0.005680
0.036786
-0.009448
-0.109812
-0.117442
-0.012566
-0.032544
-0.029829
-0.076556
-0.083613
0.100559
0.035449
-0.059122
0.061180
-0.049583
-0.034994
0.084352
-0.026449
0.013833
0.102245
-0.051659
-0.018762
-0.045602
-0.053699
0.013743
0.044788
-0.043407
-0.056681
-0.024787
0.048273
-0.046764
0.020608
-0.032237
-0.018756
-0.061655
0.038946
-0.035155
0.058290
0.039945
-0.001902
0.096465
-0.004444
-0.068501
-0.063268
0.034816
-0.000990
0.033781
0.053306
-0.083875
-0.003460
-0.055154
0.131615
-0.068265
-0.016837
0.007474
0.080139
0.116113
-0.056391
-0.008422
0.007878
0.005291
0.007375
-0.086330
-0.105951
0.083912
0.046658
0.029308
-0.015654
-0.055324
0.013268
0.078329
0.062078
-0.094661
0.132243
0.051522
-0.010342
-0.019214
0.050831
0.011195
0.092638
0.074748
0.074023
0.003360
0.009370
0.038158
0.070608
0.007808
0.019610
-0.070838
0.068483
0.003072
-0.011759
-0.119576
0.022520
-0.040019
0.048232
0.023854
0.081052
-0.000651
-0.014122
0.037649
-0.061162
0.059075
-0.004623
-0.046590
0.093798
-0.012278
0.012510
0.008911
0.058485
0.030776
0.070943
-0.127900
-0.036907
0.075454
0.040008
0.088011
0.050357
0.043362
0.064432
-0.000727
-0.016419
-0.072043
-0.094895
0.021869
0.117051
-0.043702
0.003741
-0.099318
0.098404
0.054509
-0.077383
0.082304
0.048254
-0.002962
-0.032426
0.074864
-0.013285
0.056593
0.048513
0.078642
0.007707
-0.011660
0.037948
-0.007087
-0.072431
0.032033
0.070527
0.039105
0.046171
-0.017237
-0.056095
-0.050644
0.071304
-0.087045
-0.054583
-0.091184
0.045606
-0.049136
-0.041560
0.037007
0.046529
0.063279
-0.076096
-0.141209
-0.053184
0.062700
-0.069797
-0.125409
-0.072512
0.061176
-0.044245
0.062019
-0.029517
-0.058710
-0.139019
-0.007334
-0.035286
0.071850
-0.102825
-0.014152
0.034612
-0.021679
0.019249
-0.086880
0.003359
0.069815
-0.037242
-0.003184
0.010042
0.038253
-0.021156
0.025834
-0.108588
-0.030314
-0.031922
0.090942
-0.055627
-0.036395
-0.038722
0.119206
0.155036
0.037717
0.018214
-0.062107
0.024388
-0.022267
0.003191
-0.024603
-0.075996
0.089112
-0.068788
0.002013
0.008193
-0.077820
-0.045996
0.003509
0.026298
-0.036609
-0.077186
-0.012166
0.054230
0.028145
-0.050537
-0.013123
-0.034026
-0.028472
-0.011671
-0.028219
-0.079973
-0.013523
-0.027743
0.029884
-0.019558
0.096583
-0.045029
-0.010762
-0.014080
0.087987
0.089422
0.036818
-0.009917
-0.051281
-0.004612
-0.038565
0.059840
0.083426
-0.049660
-0.048891
-0.003665
0.030012
0.038026
-0.006489
0.081054
0.043237
0.090562
0.078063
0.080202
0.013763
-0.028454
0.100832
-0.028605
-0.000337
-0.069855
-0.037902
0.103375
0.098745
0.078179
-0.050775
0.073308
-0.015963
-0.011571
-0.002092
0.103798
0.031751
0.028557
0.007891
-0.036061
0.033303
-0.028768
0.016671
-0.009068
0.103896
-0.101906
-0.069286
0.024041
-0.032209
0.121093
0.022208
-0.073688
0.043195
0.060515
-0.074615
0.023307
0.085807
0.067086
0.041416
0.005489
0.060149
0.058858
-0.043309
-0.098352
0.045130
0.107861
-0.023526
-0.041936
0.104117
-0.030967
0.006633
-0.023975
-0.088009
-0.056440
0.003127
-0.043060
0.098986
-0.010231
0.063050
-0.086201
-0.003138
-0.031576
-0.075910
0.013616
-0.114041
-0.050324
-0.051190
0.077463
0.002599
0.018333
0.044924
-0.074891
-0.166711
-0.048335
-0.036034
0.102923
-0.029219
-0.102709
-0.087736
0.094271
0.051819
-0.040916
-0.125393
0.073398
0.155227
0.123634
-0.086290
0.042465
-0.035499
0.008442
0.059399
-0.005536
-0.089127
-0.120540
-0.117191
-0.003990
0.057471
-0.078150
-0.027256
-0.014960
-0.004439
0.011213
-0.038203
0.062728
0.019521
0.090027
-0.022169
0.074111
-0.094716
-0.039036
0.066321
-0.002378
-0.083897
-0.013945
0.085200
0.058678
-0.015911
0.062567
0.089848
0.017532
0.089748
-0.076737
-0.028290
0.098744
-0.021837
0.112568
-0.006903
-0.068144
0.080335
0.098529
-0.054750
-0.021243
-0.045766
-0.041081
-0.031631
0.040072
0.002510
-0.010432
-0.027040
-0.076492
0.028746
-0.075000
-0.086811
0.015506
0.023021
0.074086
-0.062921
-0.061967
-0.007202
-0.071232
0.080483
-0.019876
-0.073214
-0.037435
-0.104609
0.065291
-0.040617
-0.006795
0.054036
-0.072197
-0.031033
-0.068090
-0.054543
0.057218
0.083105
0.028228
-0.090522
0.079014
0.025715
-0.078295
0.044003
-0.053216
0.075086
-0.136608
0.052057
0.062592
-0.012147
-0.052310
-0.101997
0.043135
0.035358
-0.063829
-0.052628
-0.040463
-0.027081
0.112204
-0.021840
0.010151
0.035426
-0.007331
-0.005612
0.051126
0.086216
0.013947
0.038934
0.075299
0.091329
0.036296
-0.064950
0.009942
0.011232
-0.054053
0.137740
0.021206
-0.015112
0.084184
-0.044223
0.064724
0.062163
0.045885
-0.025378
0.041748
0.062648
0.123502
0.077067
-0.000293
-0.044627
-0.003020
-0.026005
0.095282
-0.107317
-0.084503
0.073487
-0.021810
-0.108810
0.020896
0.085578
-0.001883
0.033869
-0.093080
-0.118756
0.045730
-0.045989
0.014592
-0.051180
0.045523
-0.021817
-0.092696
0.062429
-0.033784
-0.041469
0.003660
0.061658
0.005818
-0.079272
0.085975
-0.081578
-0.033722
-0.050332
-0.023006
0.008313
-0.035626
-0.085028
-0.026371
0.005275
0.074479
0.019003
-0.018374
0.039468
-0.001353
-0.061292
-0.043150
-0.034464
0.136564
-0.049366
-0.009322
-0.022540
-0.080115
-0.005461
0.015044
0.080889
-0.044236
-0.034180
-0.079361
0.023036
-0.050831
-0.013584
0.013792
-0.098386
0.031977
-0.017605
0.108231
-0.047460
-0.004695
-0.016910
-0.066827
-0.021582
-0.000351
0.079139
-0.061435
0.095334
-0.064120
-0.146261
-0.021347
0.001145
0.041052
0.035457
-0.040086
-0.055391
0.156442
-0.052362
-0.084734
-0.027301
0.026979
-0.028107
-0.025938
0.015142
0.031677
-0.082163
0.048867
0.023555
0.032428
-0.098041
-0.046793
0.064468
-0.001564
0.018368
0.070757
-0.018342
-0.057450
-0.062273
-0.016018
0.065442
0.030167
-0.043492
-0.090097
0.109642
0.077733
0.041955
-0.018283
0.033953
-0.006356
0.013802
-0.038994
-0.076239
-0.012016
-0.055289
-0.041705
0.010143
-0.038598
0.000531
0.077970
0.088536
-0.021895
0.084160
-0.080253
0.011929
0.051231
-0.039219
0.054315
0.074755
0.050656
0.036548
-0.085326
0.046497
0.128162
-0.050235
-0.012237
0.022164
-0.132716
-0.105763
-0.014144
0.015202
0.052004
-0.091567
0.056164
-0.149346
-0.035084
-0.016592
-0.024181
-0.068417
-0.007416
-0.114171
0.073733
0.071321
-0.002511
0.128389
0.045821
-0.031680
-0.074091
-0.084221
-0.059949
-0.031323
-0.095478
0.049238
0.084192
0.041283
-0.076717
0.004251
-0.042924
-0.031676
0.087186
-0.054310
-0.021326
0.023766
-0.046222
-0.097820
0.046306
-0.003541
0.094343
-0.021171
-0.065934
0.060021
0.036773
-0.053001
-0.070920
0.072391
-0.051614
-0.122549
-0.032462
0.030424
-0.079993
-0.050210
-0.135886
0.060585
-0.006838
0.028231
-0.045685
-0.057687
-0.041958
-0.001640
0.011561
-0.071837
0.063700
0.053146
0.038233
-0.058060
0.120119
0.034978
-0.015214
0.025498
0.013815
0.001378
0.016458
0.091000
-0.039589
-0.040053
0.062768
0.064051
-0.016878
0.071950
-0.074224
-0.018421
0.048280
0.021043
0.060875
-0.027141
-0.097402
0.027594
0.029956
0.002630
0.032884
0.011701
-0.045644
0.048064
0.035375
0.012065
0.051275
0.008631
-0.037853
-0.109551
0.057142
-0.012365
0.045757
-0.073962
0.019214
-0.079742
-0.081665
0.041761
-0.008353
0.026992
0.010347
0.030417
-0.062547
-0.042827
0.027234
-0.032554
0.038643
-0.032791
0.007363
-0.047082
-0.044070
-0.063205
-0.121105
-0.005828
0.067452
0.008336
-0.077569
-0.011201
0.105311
0.008463
-0.029419
0.065841
-0.086404
-0.127671
-0.055789
0.044405
0.039360
0.036020
-0.045747
-0.029663
-0.048027
0.022920
-0.004620
-0.019013
0.122183
-0.096436
0.089473
-0.054456
-0.098922
-0.010617
0.125891
-0.006126
-0.039180
0.013497
0.017599
-0.032243
-0.045851
-0.006222
0.009299
-0.013761
-0.059708
0.126539
-0.069991
-0.054896
0.004051
-0.045907
-0.002392
0.066763
-0.026785
0.030827
-0.005955
0.064855
0.003873
0.015594
0.058554
-0.165510
-0.118779
-0.054052
-0.027119
0.024679
0.007357
0.015435
-0.011883
-0.082603
0.012060
-0.060267
-0.071684
0.062043
-0.045753
-0.042872
0.093094
-0.020627
-0.031176
0.125695
-0.035166
0.033671
-0.052023
0.013481
-0.070916
0.067987
-0.032042
-0.023978
-0.045918
0.022988
0.020102
-0.128003
-0.062445
0.044920
-0.059358
0.085855
0.093463
0.091827
0.006313
-0.015840
-0.034977
0.094786
-0.050311
0.064267
-0.016148
0.094832
-0.112475
-0.013471
0.082400
0.036108
0.059946
-0.072600
0.090253
0.036775
0.053942
-0.006378
-0.054184
0.056971
-0.006617
0.046698
0.075756
0.013664
0.017159
-0.012124
-0.020242
0.127437
-0.085840
-0.013113
0.097345
-0.027768
-0.037124
0.018925
-0.112665
0.017795
-0.005859
-0.050130
0.093116
0.061924
-0.026248
-0.046282
-0.012976
0.063711
0.028741
0.097669
-0.010293
-0.071722
-0.145039
-0.024846
0.080932
-0.032093
0.058539
0.040568
0.049752
0.095046
-0.003143
0.005888
-0.030897
-0.065377
-0.052036
0.034233
-0.020104
-0.063018
0.058823
-0.069921
-0.042344
0.093943
0.030552
0.106116
-0.090622
-0.044599
-0.054642
0.103590
-0.014183
-0.089303
0.046482
0.034712
-0.005839
0.054503
-0.014038
-0.020507
-0.004905
-0.025003
0.147941
-0.006335
-0.016735
-0.024342
-0.046825
0.111805
-0.029203
0.011840
0.052331
-0.061785
0.007795
0.052258
0.059589
0.009057
-0.034651
0.004749
0.025518
-0.014257
0.042722
0.039019
0.017325
-0.140800
0.081421
-0.007424
-0.016673
-0.114573
0.008759
-0.050261
0.101800
0.073302
0.063797
-0.025013
0.064501
-0.027087
-0.029802
-0.052383
-0.076686
0.019255
-0.056451
-0.014443
0.027666
0.024264
0.020175
0.046028
0.046294
-0.031507
0.009396
0.077389
-0.098157
0.066466
-0.054525
0.073076
-0.070912
-0.005316
0.032181
-0.033344
0.072791
-0.019153
0.046305
-0.066748
-0.058520
-0.000272
0.073059
-0.013257
-0.037558
0.004492
-0.042282
0.079042
-0.052611
-0.036465
0.052853
0.122485
0.097004
-0.094180
0.065964
0.005972
-0.035377
-0.054619
-0.061122
-0.040477
0.063360
-0.004229
0.071217
0.055232
-0.096128
0.034504
-0.004569
-0.096632
-0.016973
-0.005856
-0.003121
0.005684
-0.009413
0.003237
0.033288
0.047471
-0.049135
-0.099113
-0.093247
-0.006473
-0.015310
0.004053
-0.040973
-0.011693
-0.043861
-0.034453
-0.095736
0.063695
0.034745
-0.018767
0.037312
0.012835
0.016754
-0.080359
0.034314
0.087180
-0.019017
-0.111773
0.041308
0.073744
-0.048677
0.036443
0.006180
-0.081936
-0.074577
-0.070074
-0.002336
0.117792
-0.135742
-0.094049
-0.054652
0.000633
0.070923
-0.051450
0.032142
0.080673
0.001691
0.082138
0.004371
-0.050861
0.000745
0.000218
0.024064
0.020890
0.061605
0.060804
-0.000761
0.003673
-0.076838
0.137387
-0.131888
-0.022250
0.028154
-0.015217
-0.051133
-0.023977
-0.077568
0.048853
-0.044726
0.020780
-0.033157
0.072668
0.078923
-0.013385
-0.050284
-0.066732
-0.090944
0.060064
-0.051046
0.050952
-0.019673
-0.122303
-0.050108
-0.013302
0.075169
0.104048
0.018260
0.055951
-0.006072
0.106037
-0.080316
0.051962
-0.021297
-0.042425
-0.079872
-0.020390
0.091557
-0.017638
0.065610
-0.024086
0.017911
0.054345
0.016680
0.096096
-0.044812
-0.028260
0.028737
0.014305
0.061714
-0.066416
0.075637
-0.070763
-0.084600
-0.002422
-0.042068
-0.043589
0.000189
0.060418
-0.077245
-0.006286
-0.067089
-0.033195
-0.003302
-0.032558
-0.076465
0.007222
-0.005695
-0.079345
0.011690
0.051852
-0.002202
-0.075569
0.034604
0.073112
0.118620
-0.080229
0.060515
0.027736
0.076939
0.028298
-0.063601
0.032146
0.067943
-0.081672
-0.037937
-0.048525
-0.057017
0.012925
-0.016143
-0.173529
-0.011825
-0.028092
-0.138363
-0.031144
0.064585
-0.090214
0.022955
0.009035
-0.146030
0.084895
-0.177858
-0.155461
0.035954
-0.053472
0.007897
0.064768
-0.062651
0.085943
0.052968
0.009560
-0.016909
-0.024103
0.042997
0.000087
0.002023
0.035439
-0.055707
-0.016046
-0.006024
-0.086847
-0.087770
0.031828
-0.027128
-0.004074
0.096314
-0.012320
-0.016086
0.027895
-0.072681
-0.006506
0.017303
-0.028896
0.053764
0.050220
-0.095662
-0.077577
-0.111824
0.031333
-0.012713
0.019127
0.013167
-0.102909
0.156873
-0.026156
-0.056609
-0.013705
0.023802
-0.019826
-0.084564
-0.001872
0.042011
-0.047868
-0.005085
-0.094301
-0.045050
-0.007600
-0.070829
-0.066042
-0.070956
0.029790
0.058467
-0.096409
-0.149035
-0.019464
0.030881
-0.177218
-0.003861
0.102079
-0.064329
0.009035
-0.108149
0.036670
-0.015083
-0.001953
0.009444
-0.019208
0.015328
-0.069247
0.016362
0.055446
0.046156
-0.138479
-0.048103
-0.137667
0.048810
0.013605
-0.089457
0.008325
-0.053173
-0.074414
0.022138
0.013165
-0.025234
0.050342
0.006466
0.037452
-0.045588
-0.036340
-0.047796
-0.027066
-0.038996
0.017293
0.033292
0.070105
0.010579
-0.001717
0.029038
-0.050720
0.078838
0.044391
-0.010518
-0.134582
-0.012989
-0.069361
-0.122302
-0.045237
-0.022900
0.041505
-0.020987
-0.037507
0.039450
-0.010011
0.022589
0.017928
0.107678
-0.171028
0.057747
0.009275
0.038971
-0.028026
0.044075
-0.024845
0.063911
0.029421
0.043935
0.004351
0.101446
0.011444
-0.015153
0.063108
0.065604
-0.032873
-0.034551
-0.047882
-0.062616
-0.027818
-0.104564
-0.066192
0.055666
-0.032939
-0.089717
0.076577
-0.069726
-0.024390
0.061754
-0.082075
0.021267
-0.115965
-0.017844
-0.155809
-0.031306
0.021530
-0.061914
0.017626
-0.035266
0.024837
0.003590
-0.009229
-0.088710
-0.031099
0.014000
0.003121
0.017741
0.045195
0.126086
-0.060303
-0.023054
-0.016464
-0.023379
-0.028401
-0.000794
-0.040821
-0.012169
-0.116978
0.087798
-0.004055
-0.111999
-0.039228
-0.007633
-0.054154
-0.099973
0.005987
-0.029944
-0.011112
-0.067224
0.001579
-0.079838
-0.008053
0.001509
0.025389
-0.008258
-0.001201
0.014635
-0.015204
-0.024249
-0.005436
-0.083945
0.060199
-0.127940
0.025479
-0.078359
-0.034049
-0.078191
-0.084755
-0.000213
0.024198
0.041983
0.032801
-0.107477
-0.076555
0.013611
-0.045670
-0.042561
0.003974
-0.032648
-0.075928
0.045539
-0.091724
0.056943
-0.063015
0.016876
0.084505
0.027942
0.011367
0.063823
-0.029721
0.032942
-0.049330
0.063361
0.010036
-0.089704
-0.124241
0.024334
-0.090941
0.020230
-0.054095
0.011743
-0.053145
0.024239
0.060980
0.041757
0.120150
-0.017549
-0.092235
0.038640
0.003964
-0.015025
0.006879
0.019313
0.007177
0.023723
-0.108729
0.058888
-0.051571
-0.009186
-0.035693
0.115810
-0.109035
-0.011076
-0.133775
0.060689
0.030226
-0.071305
0.089039
-0.072885
-0.055154
-0.049389
0.060546
-0.079135
0.018559
-0.229007
0.033541
-0.076827
0.046269
0.071017
-0.001708
0.035631
-0.053626
-0.047654
-0.097034
-0.049755
-0.000395
0.019683
-0.064314
-0.045841
-0.030701
-0.014034
-0.014824
0.184002
-0.044348
-0.077000
-0.076732
0.024066
-0.071456
0.113418
0.049192
0.156883
0.010880
-0.043841
0.021818
-0.080796
0.026365
0.054707
-0.009165
-0.049967
-0.016720
0.044852
0.059338
-0.047834
-0.051346
0.009817
0.044674
-0.076181
-0.031911
-0.008195
-0.065856
0.065363
-0.007727
-0.084800
-0.062100
-0.006900
0.033153
0.007330
0.075043
0.055246
0.001306
-0.026905
-0.065033
-0.052472
0.043575
0.021965
0.035847
-0.021190
0.006497
-0.090574
-0.088092
-0.029709
0.059757
0.092057
0.065025
-0.041584
-0.076148
0.013674
0.051461
-0.050099
0.126168
-0.081174
0.018955
-0.020012
-0.033300
0.032692
-0.034740
-0.044465
0.012977
0.077888
0.079844
0.061749
-0.078890
-0.004826
0.049153
0.053909
-0.015746
0.010577
0.081935
-0.072757
-0.039348
0.007516
0.062646
-0.026795
-0.014137
-0.017393
-0.038691
0.011349
-0.029775
-0.108504
-0.014832
-0.031687
-0.025695
0.114025
-0.022349
-0.050792
-0.058168
-0.035865
0.083424
0.026757
0.006719
0.029347
-0.012548
0.001155
0.011845
-0.072387
0.062903
-0.058241
-0.019615
-0.011666
0.010087
-0.075845
-0.017387
-0.136872
0.013594
-0.164888
-0.060510
-0.100097
0.047582
-0.155596
-0.005238
0.034076
0.098206
0.038124
-0.034863
0.093699
0.064726
-0.023381
-0.040022
0.047256
0.012286
0.066012
0.013497
-0.036627
0.001428
0.021852
-0.050094
0.082875
-0.050760
-0.071959
0.038189
-0.052073
-0.057991
-0.068570
-0.065807
0.038284
0.009545
-0.124464
-0.057953
0.037959
-0.055387
0.021564
-0.087335
0.069390
-0.065289
-0.009322
0.021975
-0.028217
0.075420
-0.027087
-0.127889
0.138544
0.070665
0.115584
-0.092014
0.031489
-0.129913
0.084774
0.035500
0.109248
-0.054634
-0.018684
-0.079136
0.100414
-0.020288
0.061672
-0.038154
-0.024460
-0.009327
-0.093308
0.027900
-0.028243
-0.069453
-0.013689
-0.053653
0.054981
0.044048
0.013989
-0.095279
0.030611
0.068246
0.065002
0.009168
-0.040607
0.014925
0.003875
0.028841
0.000516
-0.010580
0.123283
-0.083512
0.054675
-0.054578
-0.055462
-0.041696
0.032530
-0.041931
-0.092758
0.035636
-0.076870
-0.074387
0.015223
-0.007697
0.044202
0.060939
-0.006857
-0.028611
-0.066070
0.021287
0.068174
-0.010228
0.000545
0.008512
-0.044652
0.055052
-0.074116
-0.070150
-0.144592
-0.042682
-0.045129
0.022118
-0.063873
-0.028432
-0.006210
0.073984
0.021857
-0.082786
-0.083476
-0.001468
-0.018551
-0.004834
0.073071
0.068394
0.025290
-0.014402
0.054655
-0.076787
0.099158
0.034141
0.061316
0.094772
0.073683
-0.062035
-0.027159
0.047984
0.018285
0.100919
0.062911
0.033978
-0.022642
-0.015386
-0.129136
0.043706
-0.003876
-0.063629
-0.047409
0.115298
-0.042113
-0.076069
-0.058998
-0.008164
0.078162
-0.141414
0.018618
0.059584
-0.026318
0.058401
0.062043
-0.097790
-0.013373
-0.048258
0.087841
0.004700
-0.025193
0.021095
-0.030903
0.106573
-0.013755
-0.114912
0.106779
0.059400
0.047676
0.017770
0.092354
-0.004560
-0.103690
0.056555
0.013248
0.007273
0.034262
0.066188
-0.003715
-0.096301
-0.079081
-0.014848
-0.041714
0.032283
0.066543
0.117176
-0.044675
-0.036121
0.021447
-0.078104
0.044814
-0.005228
0.077999
-0.006898
0.080070
-0.040004
-0.022242
-0.035423
-0.001925
-0.079558
-0.010696
0.025423
0.007866
0.014821
-0.082486
0.012841
0.014955
-0.027591
-0.046555
-0.135024
-0.065127
-0.015125
-0.050043
0.078495
-0.007028
-0.063176
-0.078529
-0.004589
0.088975
-0.003983
-0.050362
-0.062526
-0.057224
-0.002197
0.058749
-0.086395
0.023301
0.004164
-0.065397
0.078377
0.058993
0.037171
-0.106328
0.055497
0.011599
0.035603
-0.071823
-0.060661
0.103366
0.038785
-0.002947
0.003708
-0.151350
0.020548
-0.121358
0.024598
0.053201
0.007109
-0.003411
0.025537
-0.046763
-0.017556
0.029568
-0.063272
0.055197
-0.059602
-0.012004
0.102531
0.020585
-0.065916
-0.050947
-0.055216
0.101352
0.014332
0.073164
-0.028343
0.008660
0.009553
-0.089142
0.024830
-0.010663
-0.027689
0.094357
0.067141
0.015262
0.047390
0.030523
-0.029878
-0.080612
0.100726
0.037315
0.027703
-0.058051
0.007539
0.072307
0.087564
0.030374
0.051759
-0.074894
0.021639
-0.029802
-0.013272
0.042441
-0.021547
-0.008096
-0.102755
0.083058
-0.036717
-0.072750
-0.048584
0.025707
-0.046314
-0.006396
0.002712
-0.043785
-0.021781
-0.094198
-0.053897
0.031840
-0.021569
-0.047332
0.104925
0.012217
0.077239
-0.032810
-0.124296
0.061712
0.021752
0.043129
0.030742
-0.036778
0.054820
0.040892
-0.057532
-0.169845
0.089972
0.075318
-0.008067
0.099230
0.026196
0.040797
-0.024006
-0.028399
-0.012470
0.035936
0.108634
-0.050717
-0.032084
-0.116913
-0.003946
-0.037088
-0.065712
0.055502
0.058007
0.005475
0.018078
-0.035425
-0.064784
0.041883
0.026868
0.004385
0.070622
-0.024388
-0.027404
-0.030751
0.007597
0.084884
-0.119251
-0.004388
-0.069005
0.081523
-0.035840
-0.078663
-0.009132
-0.049973
-0.075053
-0.058192
0.059637
0.005470
0.013333
-0.036860
0.081726
-0.091182
-0.064789
-0.046969
-0.026455
-0.104948
-0.097528
-0.070849
0.042454
0.055489
0.055975
0.066897
-0.047546
0.002783
0.073773
-0.020548
-0.099535
0.092015
0.051504
-0.009070
-0.061154
0.034045
0.062445
0.039428
-0.027098
-0.108147
-0.069410
0.112951
0.061568
-0.038700
0.002840
-0.111108
0.015737
-0.026956
-0.086769
0.017007
0.129421
-0.026885
-0.054586
-0.037844
-0.082293
0.050062
0.017391
-0.056541
0.026550
-0.098086
0.058182
-0.054175
-0.099104
0.113022
-0.118059
-0.001112
-0.058884
-0.013882
0.147170
-0.047952
-0.069453
-0.031979
-0.164995
-0.048763
0.022867
0.050064
-0.042219
-0.119263
-0.040447
-0.118510
-0.040577
-0.033752
0.029857
-0.038609
-0.033152
-0.055970
-0.177109
0.039112
0.011101
0.058490
-0.029424
0.102361
0.003006
0.008341
-0.191338
0.031261
-0.001605
-0.128750
-0.110553
0.032327
0.004309
0.026598
0.048599
-0.039468
-0.146113
-0.188897
-0.151986
-0.055924
-0.039780
0.012322
0.040762
-0.014572
-0.025569
-0.108455
-0.086531
-0.002919
-0.100394
-0.040822
0.040997
-0.065825
-0.038326
-0.076105
0.012918
0.092598
0.069932
0.005681
0.045795
0.041036
0.045889
0.063910
-0.067574
-0.098663
-0.014798
-0.037884
-0.012150
0.007627
0.020278
-0.019496
0.077812
0.042058
-0.076439
-0.017926
0.011073
0.013196
-0.106651
-0.074910
0.114776
0.012832
-0.002649
0.102785
0.082111
0.076946
0.013230
0.033085
0.061139
-0.033011
0.073593
0.045449
0.008123
0.026844
-0.004050
0.120931
-0.057925
0.056069
0.108530
0.027899
-0.060098
0.034254
0.116611
-0.000023
0.131404
0.063191
0.014548
-0.059622
0.017427
-0.022311
0.030852
0.042467
-0.079407
-0.011885
-0.019509
0.007414
-0.039763
0.082350
-0.011102
0.039110
-0.012578
-0.065714
0.000223
-0.049561
0.003270
0.025714
-0.028924
-0.106691
0.072500
-0.044964
-0.032327
-0.018767
0.021081
-0.031759
-0.086836
-0.050627
0.011765
0.067710
0.031605
0.032936
-0.048214
-0.036410
0.102727
0.087094
0.042511
0.036996
-0.019644
0.009609
0.004767
-0.072019
0.014063
0.089399
0.084888
-0.096878
-0.007702
0.051996
-0.068089
0.062756
0.001839
-0.007791
-0.039951
0.032889
-0.021325
-0.110158
-0.061872
-0.058627
-0.094348
0.025913
-0.009960
-0.052706
-0.021085
-0.069054
-0.079295
-0.010964
-0.108421
-0.058224
0.020499
-0.086395
0.038196
0.070527
0.159540
0.112230
-0.024630
0.020042
0.097289
-0.044615
0.010272
0.023668
0.003286
-0.094958
0.052132
0.017986
-0.102754
0.025938
-0.036038
-0.057263
0.025096
0.037584
0.037059
0.073108
0.045203
0.002334
-0.053314
-0.128658
0.039908
0.076645
-0.012316
0.020505
0.167964
0.005133
0.097232
0.058053
-0.016307
0.001456
0.045668
0.026054
-0.088591
-0.125575
0.068991
0.023916
0.035388
-0.080119
0.075528
-0.027289
0.071748
0.001712
0.095383
-0.034425
0.036403
-0.030151
-0.050751
-0.037123
0.031532
-0.067642
0.035180
-0.008668
0.094369
-0.071609
-0.020917
0.034860
-0.066641
-0.083007
-0.057840
-0.009158
0.023349
-0.012974
0.013351
0.090755
0.001154
-0.022965
-0.050421
0.065595
-0.008111
-0.037097
0.051076
-0.118384
-0.088462
0.041704
-0.081638
-0.026439
-0.055938
-0.097746
0.062006
0.051878
-0.013286
0.053014
0.012822
-0.052117
-0.082053
0.075166
-0.030796
0.051504
-0.045152
-0.058337
-0.039073
0.009332
-0.087917
-0.029700
-0.121327
0.156464
0.047052
-0.019384
0.009491
0.039016
-0.033685
0.161378
0.035521
0.004057
-0.008796
0.005761
-0.006759
-0.012796
0.055046
0.014390
-0.004532
-0.101272
0.054896
0.033660
0.061257
0.004007
-0.080537
-0.047642
-0.058052
0.021536
-0.054670
-0.089179
-0.007621
0.106038
-0.034051
-0.023794
-0.052534
0.074506
-0.002648
0.229207
0.049110
0.020758
0.055779
-0.017442
0.129732
0.092761
-0.064416
-0.003197
0.058045
-0.029316
0.091556
0.010303
-0.115742
-0.045415
0.066744
0.064558
-0.018340
-0.030559
-0.045601
-0.108419
-0.005340
0.111021
0.010173
0.020690
0.059433
0.099841
0.070963
0.031185
-0.030949
-0.025429
0.075868
0.059388
-0.031237
-0.001582
-0.087807
-0.021345
-0.027098
-0.009992
-0.039982
0.034605
0.078824
-0.031450
0.038130
0.001045
-0.021370
0.001638
0.049385
0.027450
0.099306
0.000636
0.057054
-0.124209
-0.134914
-0.048264
0.003566
-0.024589
0.079928
0.024564
0.019486
0.134707
0.057372
-0.058581
-0.020990
-0.043043
-0.073953
0.025952
-0.157259
0.013836
-0.059283
-0.026682
-0.109570
-0.013035
-0.035011
-0.093685
0.065995
0.054121
-0.004011
-0.004740
-0.020659
-0.031386
0.009929
-0.099306
-0.038566
-0.062564
-0.008704
-0.018996
0.093996
-0.039133
0.069458
-0.091667
0.006059
-0.007162
0.098668
0.018312
-0.007596
-0.020528
0.042075
0.002660
-0.025585
-0.044186
-0.007325
0.022067
0.093548
0.072543
-0.010943
-0.048891
-0.069295
0.081300
-0.020991
0.030344
0.045683
-0.029120
0.000366
0.002772
-0.033067
0.015755
0.040237
0.021782
-0.046576
0.013823
0.085726
0.094013
0.077099
-0.027945
0.062488
-0.050215
0.036091
-0.054566
-0.017822
0.015834
0.021003
-0.003216
0.012373
0.059153
-0.002339
0.104978
-0.021305
0.124460
-0.051169
-0.035205
0.066298
-0.012916
-0.014322
-0.030350
0.023473
-0.077855
0.050412
0.111054
-0.106307
-0.082948
-0.029659
-0.036557
0.050499
-0.043607
-0.035184
0.027696
0.004802
-0.077761
0.126253
0.049490
0.079771
0.008382
0.122166
-0.021681
0.007795
-0.042291
-0.017874
-0.031352
0.091432
0.049890
-0.016912
-0.014199
0.031680
0.041511
0.095652
-0.013392
0.012581
-0.091514
-0.022328
-0.023953
-0.005160
0.114550
0.023415
-0.074782
0.019289
0.101458
0.051977
-0.052669
-0.010551
-0.044054
-0.058174
0.019407
0.033838
0.076850
0.006150
-0.100879
-0.039085
-0.022278
0.182354
0.035859
-0.107682
0.083692
-0.055607
0.015710
-0.149188
-0.081034
-0.116458
-0.005842
-0.046694
-0.032004
0.039215
-0.061229
-0.029714
-0.119481
-0.043791
0.014579
0.001280
-0.078383
0.036851
-0.044013
-0.082715
0.008709
-0.150651
-0.094313
0.086828
-0.029816
-0.127532
-0.049914
0.110117
-0.036653
-0.015201
0.102045
-0.006089
-0.026540
0.143689
0.030979
0.061743
-0.048441
0.077541
-0.001260
-0.026575
-0.102268
0.158631
-0.029340
-0.111102
0.054664
0.063047
-0.056376
-0.028022
0.058190
0.067071
-0.043712
-0.009683
-0.067766
0.061025
0.047706
0.031910
0.007872
0.045602
-0.003953
-0.003189
0.016785
-0.103219
0.031371
-0.009119
-0.090419
-0.075169
0.028473
0.008852
0.103110
-0.078076
0.131420
-0.028901
-0.080201
0.004846
0.002361
-0.068147
-0.012064
0.125153
-0.033124
-0.050390
0.054011
0.012430
0.005709
0.002874
-0.024020
-0.058039
-0.059749
0.032735
-0.050162
-0.007953
0.060527
0.032166
0.015733
0.059795
0.116422
-0.030040
-0.056081
0.060978
-0.084522
0.051187
0.064299
-0.059796
0.047569
-0.074099
0.046968
0.039270
0.026991
0.029949
-0.063097
-0.006835
-0.005996
0.010032
-0.048718
0.033214
-0.107174
0.006508
-0.089881
0.070135
0.023767
0.033553
-0.011004
-0.000980
0.062946
-0.091369
0.038352
0.027493
-0.033581
0.007879
0.055797
-0.137710
0.082558
-0.026849
-0.009651
-0.024244
-0.037127
0.086562
-0.126334
0.054529
-0.001220
-0.017455
-0.111018
0.044772
-0.034874
-0.069808
0.115377
-0.026220
0.051616
-0.157694
0.094247
-0.055006
0.056922
-0.027402
0.022922
-0.073803
-0.041925
0.038678
-0.068400
0.074403
-0.021266
0.031428
-0.119823
0.113959
0.026318
-0.076654
0.025538
-0.098368
-0.145856
-0.095315
-0.046701
0.064997
-0.066337
0.038074
0.011608
0.014930
-0.022116
-0.091232
-0.017588
-0.078646
-0.117525
-0.004083
0.015134
-0.086419
-0.045972
0.031472
0.051698
-0.095614
-0.030421
0.050498
0.116786
-0.116850
0.027438
0.032952
0.093555
-0.076237
0.017500
-0.059532
0.062703
-0.116439
-0.006217
0.015304
0.033602
0.035040
-0.096479
0.013094
-0.160580
-0.057429
-0.109943
-0.006886
-0.075058
0.044799
0.003599
0.032369
-0.085673
0.084251
-0.043384
0.013937
0.039744
0.074984
0.032379
0.071839
0.139337
-0.049427
0.048926
0.046052
-0.020621
-0.038866
0.033802
0.013471
-0.022583
-0.078710
-0.089999
-0.073737
-0.041685
-0.054777
-0.045206
0.000069
0.136608
0.013803
-0.049606
0.071934
-0.032303
0.070644
0.052901
-0.048377
-0.023377
0.016023
-0.055894
-0.031555
-0.038510
0.060166
-0.023368
0.053665
0.029678
0.075820
-0.087224
-0.077083
0.072511
0.031380
-0.073340
-0.020931
-0.024219
0.010102
-0.069659
-0.053449
-0.006396
-0.022136
0.036859
0.039930
0.026158
0.070668
-0.009778
0.062187
0.029203
-0.019652
0.028894
-0.079118
-0.082379
-0.050033
-0.030278
-0.112575
0.033844
-0.014493
0.029402
-0.036918
0.049804
-0.061766
-0.010369
-0.034309
-0.009666
-0.023704
0.019659
0.010243
0.049827
-0.014420
-0.085112
-0.149872
-0.013099
0.069162
-0.048579
-0.046774
-0.070220
0.073368
0.095255
0.073132
0.134937
0.030242
-0.071559
0.074717
-0.028395
0.045746
0.054541
0.035530
-0.007414
0.059316
0.038014
-0.071695
-0.023102
0.026965
0.019414
-0.004042
-0.022259
-0.005176
-0.008238
-0.078667
-0.046826
-0.101139
-0.085186
0.063430
-0.023936
-0.043271
0.018020
-0.071777
-0.118704
-0.040940
-0.065785
-0.004381
0.058402
-0.174412
0.024378
-0.159116
-0.128614
-0.091105
-0.099648
0.074298
0.055316
0.089878
0.008934
-0.005281
-0.101706
-0.031424
-0.001466
0.048741
-0.001580
0.037647
0.028270
0.045451
-0.001603
0.080131
0.123313
0.054196
0.058801
0.084299
-0.016952
-0.037607
0.091662
0.057790
0.040787
-0.146554
0.019096
-0.013596
-0.057294
0.076171
0.073647
0.064722
0.035165
0.015722
0.008552
0.056869
-0.101524
0.000052
0.029895
-0.023364
0.123840
-0.076841
-0.050719
-0.061527
0.015088
-0.024472
0.065311
-0.033316
-0.037993
-0.038251
-0.043414
-0.088757
-0.104136
0.051488
0.110529
0.052688
0.025469
0.064428
0.050572
-0.036982
-0.054265
-0.081111
0.000569
-0.030286
0.002583
-0.023934
-0.009454
0.025653
-0.110075
0.037626
-0.064265
0.001089
-0.005021
-0.069075
-0.008175
0.022762
0.010807
0.072455
0.103614
-0.065280
-0.075179
-0.071444
0.008336
0.062768
-0.088354
0.015399
-0.030487
-0.098082
0.005931
0.039394
-0.016745
-0.113290
-0.172490
-0.032443
0.096641
-0.130881
-0.030742
-0.032380
0.029146
-0.012612
-0.003673
-0.004203
0.080498
0.134540
0.126087
-0.012560
-0.012550
-0.029168
-0.029262
-0.022600
-0.037735
-0.057303
-0.078862
-0.071299
-0.001406
0.085798
-0.098846
-0.027611
-0.101390
-0.071888
-0.070112
-0.138032
-0.068246
-0.036055
0.021926
0.056007
-0.024003
-0.077015
0.027242
0.109272
0.058060
0.061438
0.067017
0.067609
-0.068812
-0.051798
0.071471
-0.039689
-0.088123
0.027573
0.059080
-0.009059
-0.006128
0.050390
0.045986
0.011656
0.025426
-0.025108
0.098490
0.017501
0.096791
0.056878
-0.013701
0.034929
0.075098
0.079938
-0.011432
0.016539
0.032794
0.097494
-0.000832
-0.079068
0.012825
0.067361
0.049898
0.004636
0.026394
-0.066439
-0.045722
0.146349
-0.090553
0.063243
0.000104
-0.086755
0.022026
0.075570
0.035993
-0.021147
-0.056200
0.089583
0.020039
-0.040407
0.063238
0.070402
0.021061
-0.092179
0.011695
0.117770
0.010033
0.039461
-0.027724
0.067188
-0.109449
-0.066853
0.053460
0.076707
0.000762
0.027011
0.027133
0.026492
0.042773
0.014643
-0.032088
0.046062
0.032994
0.036851
-0.052303
0.084604
0.079869
0.059326
0.008266
0.028846
-0.046102
0.008739
0.052680
-0.012254
-0.069252
0.018000
0.028881
0.089980
-0.002295
0.029213
0.051549
0.049373
0.050521
-0.063560
0.016208
0.107299
0.051141
0.054024
-0.009151
0.100712
0.036206
0.001237
0.022657
0.048418
-0.064793
-0.050870
0.114507
0.024290
0.082967
0.003837
-0.073434
-0.056475
-0.025094
-0.040089
0.097548
0.011058
-0.080868
-0.008656
0.050771
-0.069537
-0.163179
0.013253
0.057088
-0.132830
0.016543
-0.036335
-0.039792
-0.104104
0.043390
0.035115
0.010424
0.019188
-0.002616
-0.113183
-0.012252
0.027318
0.015031
0.055720
-0.081966
-0.068811
0.056332
-0.059132
-0.006876
0.117945
0.054773
0.022862
-0.030301
-0.005396
-0.089200
-0.022493
-0.073503
0.175436
-0.004255
0.113801
-0.060989
-0.050742
-0.065879
0.010232
0.101178
0.036257
-0.093344
-0.016616
0.107793
0.045755
-0.101112
-0.057950
-0.007517
-0.075153
0.063534
0.033066
0.083073
-0.099985
-0.082620
-0.003368
-0.055716
0.076811
0.015606
-0.011136
-0.068663
0.014164
-0.066749
-0.011601
-0.022137
0.001866
-0.030556
0.017004
-0.004039
-0.022286
0.011819
-0.043510
-0.090623
0.012628
0.074306
-0.045159
-0.026847
-0.054101
-0.005033
-0.057666
-0.045615
0.010033
-0.118969
-0.102614
-0.075714
-0.062460
0.082030
-0.072196
0.056943
-0.004356
0.075773
-0.159997
0.034711
0.007000
-0.029097
0.006108
-0.076153
-0.085744
-0.016072
0.012339
-0.092353
-0.077809
0.046324
0.010203
-0.072939
0.078683
-0.102881
0.075937
0.043009
-0.045067
0.058701
0.039105
-0.049097
-0.033980
-0.084234
-0.039441
0.004387
0.062782
0.129277
-0.051333
0.050263
-0.056469
-0.103213
-0.105191
0.059070
0.041424
-0.005579
0.064947
-0.091922
0.026404
-0.092138
-0.054522
0.021663
0.001685
-0.032699
0.097494
-0.075462
-0.019326
-0.063361
-0.022900
0.028793
-0.049429
-0.040175
0.004371
-0.081246
0.001959
0.107159
-0.017283
0.024878
-0.096056
-0.051699
-0.030222
0.106107
-0.013271
-0.041261
-0.012035
-0.028086
-0.124069
0.000982
0.127711
-0.112177
-0.046883
-0.058566
-0.071790
0.034675
0.073762
-0.042183
-0.064238
-0.088856
-0.032513
0.030088
-0.046217
0.050564
0.170563
0.121701
-0.077865
0.064282
0.011091
0.045681
-0.014514
0.013360
0.034145
-0.105728
-0.051817
0.058637
0.003159
-0.012296
0.009825
-0.021144
-0.032778
-0.061391
-0.094230
-0.088796
-0.018725
0.006804
0.077061
-0.022520
-0.033528
-0.069199
0.064768
-0.026228
0.039945
0.064275
0.000774
0.010266
-0.075148
0.031941
0.011723
-0.134173
0.044139
0.082805
-0.024014
-0.125181
-0.104650
-0.022093
-0.091058
-0.064692
0.124227
0.026592
-0.058207
0.139789
-0.116621
0.014840
-0.094369
0.035442
0.064859
0.022781
0.042951
0.046765
-0.002098
0.102366
0.095699
-0.039961
0.099143
0.092544
0.121138
0.090048
0.068759
0.044394
0.038570
-0.002739
-0.006439
0.009416
-0.007495
0.001965
-0.009419
0.128081
-0.044135
0.083737
-0.026825
0.033347
0.038586
0.071131
0.084209
0.109093
0.028515
0.128620
-0.050250
0.071496
-0.057098
-0.063692
-0.105257
-0.048391
0.012503
0.004292
-0.059675
-0.055343
-0.042553
0.037436
-0.026946
-0.079907
-0.073662
0.088916
0.008310
0.002919
0.012234
0.020864
-0.055914
0.026592
-0.032691
0.055924
-0.013332
-0.004983
-0.134073
0.021256
-0.003719
-0.028272
-0.031530
-0.015178
-0.030022
0.032628
0.005129
-0.025533
0.013405
-0.036836
-0.030078
-0.021825
-0.046670
-0.080396
-0.144705
0.043759
-0.101851
0.064097
0.033961
-0.104494
0.011175
-0.074943
-0.064543
0.043851
0.136653
0.018919
-0.022755
-0.058489
0.049716
-0.145313
-0.099994
0.055828
-0.047232
-0.014914
-0.069843
0.048202
-0.025492
-0.113782
-0.064865
0.047249
-0.102540
-0.108558
-0.054293
-0.055417
-0.055361
0.046865
-0.001095
-0.174421
0.030789
-0.007933
-0.017952
-0.145934
0.101509
0.006867
-0.103893
0.025373
-0.022494
-0.104386
-0.117627
0.003148
0.114406
-0.052192
0.000679
-0.065508
-0.106257
-0.067343
-0.041142
-0.019864
0.017345
-0.014219
0.031840
0.031473
-0.046752
0.022089
-0.035052
-0.002382
0.078649
-0.060937
0.109203
0.003068
-0.084093
-0.005886
-0.044113
0.045003
-0.055495
0.033772
0.001027
0.033391
-0.081195
-0.014456
-0.024634
-0.010322
0.064595
0.074674
-0.076907
-0.033982
-0.025651
0.042726
-0.005339
-0.015239
0.064248
-0.051965
0.023010
-0.012808
-0.022426
-0.031530
0.078375
0.018182
-0.108589
-0.019769
0.023829
0.029808
-0.057741
0.053142
-0.001605
-0.041670
0.151315
-0.024605
0.042511
-0.011215
0.052528
0.041186
0.037859
0.069922
0.113291
0.098653
-0.046475
0.039468
0.059445
-0.043388
0.092332
-0.077590
0.027075
0.059185
0.014433
-0.049542
-0.062561
-0.000873
-0.065125
0.091939
0.083859
-0.023860
-0.047099
-0.105049
-0.088839
-0.050758
0.014815
-0.005512
-0.017557
0.047037
0.078513
0.072813
-0.002253
0.070330
-0.019112
-0.062303
-0.024836
-0.021808
0.027724
-0.071993
0.025690
0.051552
-0.062366
-0.039246
-0.028802
0.078230
-0.021785
-0.039083
0.070087
0.015861
-0.106672
-0.024434
0.031921
-0.017336
-0.082012
0.049752
0.017439
-0.032861
-0.084410
-0.054999
0.024455
0.079088
-0.070966
0.066488
0.020406
0.022903
-0.048969
-0.020336
-0.024619
0.036872
-0.137565
0.057154
-0.054847
-0.042696
0.098899
-0.083456
0.078900
-0.034072
0.069712
-0.122138
-0.072995
-0.034788
-0.070594
-0.032193
-0.138088
-0.008792
0.028493
-0.071542
-0.075401
-0.008015
-0.069046
0.098536
-0.010079
-0.082950
-0.041029
0.058038
0.065388
0.005600
0.002032
-0.020636
-0.018538
-0.059427
-0.041542
-0.007108
0.062193
-0.051439
0.054764
-0.001789
-0.063475
-0.028626
0.079338
0.028995
-0.130475
-0.009549
0.091247
-0.097590
-0.002605
0.000461
-0.102199
-0.094080
0.014461
-0.080928
0.049518
-0.088558
0.077941
-0.004442
-0.028865
0.032401
-0.028093
-0.082853
0.052278
-0.032086
-0.006847
-0.038360
-0.098274
0.115698
0.147452
0.025571
-0.154490
0.019915
0.029894
-0.014526
-0.013379
0.064245
0.018010
0.042318
0.062013
0.103683
-0.013195
0.029726
-0.009876
0.054341
-0.061364
0.071622
0.006193
-0.040183
0.003153
-0.016051
-0.050497
0.033677
-0.062766
-0.027695
-0.069377
-0.077694
-0.005802
0.034679
0.061526
0.073006
0.013551
0.088989
0.068821
-0.007938
-0.015440
0.065448
-0.111346
-0.046469
-0.030088
-0.019373
0.033853
0.018542
-0.077821
0.113726
-0.014304
-0.021899
-0.050626
-0.042620
-0.066227
0.064643
-0.009290
0.030178
0.056397
0.038972
-0.019301
-0.077270
0.053948
-0.037646
-0.052729
-0.024643
-0.100176
0.030672
-0.016978
-0.066591
-0.068804
-0.094848
0.086114
0.138681
-0.002791
0.052168
-0.033807
-0.105307
0.006944
-0.036915
-0.016960
0.010230
0.115691
-0.035167
-0.074723
-0.107534
0.007339
-0.053867
0.017471
0.088507
-0.094544
-0.032884
-0.057851
-0.013794
-0.008317
-0.051744
-0.039174
0.043961
0.023481
0.013374
0.059162
-0.080523
0.044247
0.015488
0.067162
-0.063984
-0.080574
0.012166
-0.034240
-0.038805
0.109646
0.039286
0.058199
-0.029495
-0.058849
0.019824
0.033539
0.027088
-0.069755
-0.133227
-0.076050
-0.008507
-0.049279
0.057349
0.031501
-0.027094
-0.018339
0.036560
0.019092
0.086673
0.038570
0.049883
-0.004890
-0.070172
0.025791
0.029649
0.051836
0.004145
0.014594
-0.025764
0.066148
0.099090
0.017560
0.036221
-0.009671
-0.043182
-0.009568
0.056272
-0.016894
0.063751
0.003951
0.011708
0.083874
-0.082909
-0.082535
-0.022757
-0.032396
-0.019131
-0.007184
-0.099747
0.042915
0.036713
0.052172
0.157472
-0.001618
-0.010237
0.079923
0.085303
0.008800
0.047377
-0.076639
-0.037690
-0.022217
-0.013112
-0.009800
0.013108
-0.051530
-0.046508
-0.017555
0.032771
0.061673
0.019211
0.018477
-0.064483
-0.011654
0.012963
0.004685
0.050912
0.023708
0.062395
0.054547
0.037861
-0.048066
0.035497
-0.055315
-0.060792
0.117283
-0.053383
0.022144
-0.019744
-0.091705
-0.019484
0.033937
-0.111287
0.007505
-0.053846
-0.034927
0.040753
0.062030
0.068991
0.009934
0.013050
-0.096809
0.005495
-0.036176
0.062948
-0.051983
-0.081112
-0.007829
-0.021667
0.093237
0.004727
0.024118
-0.039854
0.012067
-0.077921
0.040062
-0.039513
-0.030749
-0.058083
0.060154
0.019348
0.104075
-0.035158
0.059920
0.021944
0.041797
-0.051879
0.023323
0.005843
0.115629
0.062510
0.118011
-0.040640
0.060430
-0.050738
-0.036838
-0.102626
0.000333
-0.022777
0.057854
0.033092
0.098877
0.025817
-0.110856
0.011465
0.076675
-0.067158
-0.056269
0.060333
-0.015704
-0.044287
-0.009936
0.067057
0.088448
0.079081
-0.049641
0.033967
-0.024127
0.091261
0.078816
-0.061207
0.109438
0.108592
-0.047161
0.089603
0.012061
0.033371
-0.035973
0.047145
-0.066444
-0.047950
-0.096394
0.101321
0.041262
0.047691
0.070746
0.053256
-0.037235
0.044010
-0.050547
-0.004208
0.034470
0.117773
0.077656
0.106504
0.106553
0.050748
0.006347
-0.053071
-0.011790
-0.064180
-0.049163
0.091959
0.098048
0.024410
-0.037688
0.008708
0.133879
-0.009121
-0.064439
-0.080499
0.013189
0.025144
0.047187
0.024888
0.088304
0.005112
-0.011313
0.072762
-0.018449
-0.034212
-0.057303
-0.055227
0.018318
0.030309
0.028999
-0.001901
0.011942
0.072630
-0.089986
-0.097375
0.081658
0.132758
-0.062485
-0.005644
0.015175
0.013982
-0.003700
-0.014884
-0.004718
0.009976
0.062575
-0.105466
0.101169
-0.016384
0.010367
0.098798
-0.002833
0.029165
0.075646
-0.107950
0.020475
0.015376
-0.054819
0.011326
0.052593
-0.078672
-0.056736
0.003625
-0.076855
0.041703
0.007384
0.037442
0.009838
-0.085561
-0.075511
0.003614
-0.053760
-0.105903
0.037106
-0.062182
-0.078111
0.007322
0.008633
0.015592
0.010962
0.052343
-0.019141
-0.017754
0.019962
0.009178
0.005856
0.074362
0.008887
-0.045879
0.025626
0.072760
0.112288
0.010261
0.040666
0.000963
-0.109456
-0.045915
-0.039473
0.028374
-0.099162
0.021934
-0.065871
-0.007960
-0.094192
-0.000124
-0.027609
-0.029725
-0.103454
-0.038569
-0.093890
0.056560
-0.002050
0.023092
-0.003553
-0.047140
-0.079257
-0.021872
-0.039300
-0.031544
0.032951
-0.090551
0.039328
-0.081506
-0.065925
-0.086033
0.064131
-0.030190
0.074302
0.161879
0.122649
0.030877
0.098605
-0.097775
0.015893
0.031556
0.047014
0.045035
-0.006799
0.042119
0.021702
-0.056876
-0.059124
0.012650
-0.048731
-0.041388
-0.129387
-0.034541
-0.034828
0.010517
0.087142
0.013812
0.069556
0.111671
-0.038743
0.107613
0.041360
-0.081269
0.013390
0.042717
0.042212
0.119641
0.032460
-0.065461
-0.038179
0.066323
-0.051023
0.025885
-0.077925
0.012393
-0.018285
0.004733
-0.099435
-0.078903
0.007671
-0.020489
0.078843
-0.008757
-0.064597
-0.066147
-0.042731
0.069534
-0.050864
0.021205
0.035797
-0.045667
-0.051443
0.029068
0.038260
-0.083531
0.089833
0.044744
-0.004122
0.022882
-0.082084
0.060367
0.008270
0.002157
-0.087949
0.053318
0.056586
0.047528
-0.089856
0.079125
-0.038075
-0.069088
-0.044007
0.064060
-0.002981
0.054038
0.062669
0.090799
0.011651
-0.028458
-0.036996
-0.043512
0.003403
-0.029554
0.013066
-0.004592
0.061580
-0.074868
-0.080633
0.070939
-0.060190
0.084949
-0.015409
-0.013744
0.025132
0.051772
-0.087212
0.043263
-0.045850
-0.059034
0.061422
-0.044816
0.112095
0.012859
0.014128
-0.042224
-0.068836
-0.004033
-0.120341
-0.000671
-0.071316
-0.044378
-0.024531
0.017770
0.022901
0.005563
-0.082756
0.010965
-0.000727
-0.027463
0.029737
-0.060073
0.018520
-0.002167
0.006616
-0.018690
-0.052303
0.024119
-0.059385
-0.021161
0.059847
-0.029130
-0.071285
-0.045155
-0.094437
0.117923
-0.066147
-0.050262
0.041854
-0.128599
0.016243
-0.005090
-0.072458
0.012896
0.024191
0.019752
-0.026060
-0.016305
0.105574
-0.008177
0.027044
-0.013013
0.017760
-0.025134
-0.048873
0.004934
0.124556
0.010403
-0.090031
0.067799
-0.113219
-0.075789
0.034928
-0.014716
0.004463
-0.005733
-0.051703
-0.030695
-0.070588
0.048368
0.064123
0.081249
-0.094496
-0.046998
-0.020442
-0.111682
0.096910
-0.038346
0.095363
0.024412
-0.134489
-0.017031
-0.054127
0.042229
-0.097090
0.004293
0.019038
-0.068682
0.059136
-0.037268
-0.013518
0.033313
0.048690
0.005742
0.058889
-0.049461
0.100286
0.009358
0.047795
0.036939
-0.039257
0.022603
0.059231
0.001603
0.022544
0.034943
0.008587
0.077729
0.019239
0.060409
0.047793
-0.018296
-0.040759
-0.005551
-0.084648
-0.012195
0.029744
0.081321
0.023053
-0.042772
0.022374
0.053895
-0.044536
-0.010823
0.053051
-0.080623
0.063371
-0.063277
-0.001987
-0.072459
0.066774
-0.047890
0.004501
-0.016360
0.023925
-0.070416
-0.010274
-0.018759
-0.073032
0.080075
-0.004597
-0.094620
0.003290
0.019720
-0.062850
0.011873
-0.094395
0.077794
0.118755
-0.041030
0.033537
0.062543
0.036624
-0.028731
0.017721
-0.086610
-0.016688
0.068535
-0.003280
-0.015681
-0.032624
0.037439
0.031169
0.009241
-0.094880
0.053147
-0.048275
-0.031590
0.044812
-0.019781
0.022670
0.087906
0.015597
0.065851
0.024529
0.018741
0.007667
-0.000246
0.037511
-0.117683
0.034733
0.020516
-0.026781
-0.007609
0.035951
0.048257
0.007115
0.066649
-0.026844
0.082878
0.080977
0.044699
0.107089
0.012560
0.021237
-0.065017
-0.008617
-0.081819
0.126000
-0.028264
-0.054599
0.097005
0.016394
0.103363
0.056571
0.008740
0.084608
-0.042432
-0.131793
0.109437
0.027646
0.007481
-0.018521
-0.071346
-0.093377
0.024899
-0.035970
-0.015774
-0.082215
0.050504
0.142594
0.033456
0.056527
-0.006408
0.025872
0.053972
0.018317
0.005800
0.043177
0.030603
0.063610
0.036674
-0.018656
-0.056544
-0.002780
-0.010736
-0.059666
0.106341
-0.130628
-0.088442
-0.046913
0.056292
-0.035923
-0.077316
-0.056134
-0.019790
-0.103565
-0.016835
-0.018310
-0.029847
-0.119723
-0.064351
-0.014496
-0.014560
0.054077
-0.026539
-0.109889
-0.052307
0.119755
0.089024
-0.072550
-0.000497
-0.040962
0.085215
0.062619
-0.099284
-0.095340
-0.092730
-0.155525
0.150226
-0.055030
0.027608
-0.002341
0.063204
-0.073311
0.010783
-0.042430
-0.094169
-0.022797
0.118825
0.030219
0.011978
-0.031691
0.046076
0.028458
-0.039395
-0.113998
0.057256
0.024174
-0.056173
0.023726
0.041555
0.058813
0.053101
0.033333
-0.085754
-0.006160
0.027791
0.003292
-0.004621
-0.001204
-0.132097
-0.009172
0.013093
0.055237
-0.003433
-0.060364
-0.050125
-0.038770
0.028890
-0.014512
0.112608
0.020376
-0.014191
0.126436
-0.038199
0.005549
0.029567
-0.004333
0.046900
-0.068439
0.011902
-0.053786
0.063713
0.112004
-0.123988
-0.127456
0.045192
-0.068064
-0.014799
-0.046730
0.056089
0.069827
0.017985
-0.000774
0.032921
-0.014803
0.037069
0.055771
0.091889
-0.076168
0.075608
-0.023741
0.112382
-0.060164
-0.083618
0.063041
-0.105776
-0.050583
-0.010992
0.039837
-0.141685
-0.022435
0.083124
-0.047553
-0.017414
-0.063727
0.076639
0.047290
0.092893
0.078428
0.042126
0.099915
0.130406
-0.005306
0.025490
0.062133
-0.002150
-0.053344
0.071826
0.035026
-0.018809
0.020246
-0.072585
0.037891
0.048591
-0.042304
-0.032285
0.021426
-0.049632
-0.047466
-0.045523
-0.003451
0.037224
-0.027155
0.010563
-0.069826
0.027402
0.035649
-0.083217
0.118340
-0.161465
-0.100515
0.025676
0.129974
-0.046433
0.010342
0.006635
-0.000759
-0.096127
0.081742
-0.000231
-0.052563
-0.090898
0.056160
0.091645
0.043121
-0.018930
-0.079018
-0.020238
-0.008915
0.020564
-0.020257
0.075244
0.004771
-0.038242
0.044721
-0.014363
-0.039328
0.029128
-0.095790
0.015970
0.011408
-0.009984
0.017758
0.011892
-0.011373
-0.042245
0.026629
0.052036
-0.072912
-0.064331
-0.005312
-0.011646
0.021186
-0.023547
-0.013349
0.040004
-0.105414
-0.111496
0.018498
-0.059979
-0.055042
0.007281
-0.021898
-0.074397
-0.035619
-0.089381
-0.025218
0.015170
0.084820
-0.065044
-0.057948
0.030232
-0.002859
-0.013216
-0.029479
-0.016832
-0.044185
0.030876
-0.043925
0.006912
0.056973
-0.086349
-0.004894
0.009454
-0.123460
0.048770
-0.016438
0.032789
0.079025
-0.079604
-0.010501
0.158961
0.067791
0.006247
0.084573
0.069738
-0.089351
-0.013195
0.071139
0.053073
-0.087079
0.122241
0.075774
-0.010087
-0.058648
-0.051252
-0.038934
0.056362
0.078568
-0.008992
0.121085
-0.034978
-0.052325
0.048483
-0.041635
-0.003337
0.010561
-0.063497
-0.004068
0.069516
-0.050014
-0.013431
0.056895
-0.007857
-0.022284
-0.030505
-0.114273
0.045883
-0.012183
-0.053867
0.029745
-0.073082
0.001909
-0.019233
0.014099
-0.060948
-0.083491
-0.032650
0.030264
0.048272
0.010617
0.104371
0.021376
-0.000322
-0.027169
0.018886
0.017204
0.140199
-0.075081
0.021236
0.079386
-0.014298
-0.095396
0.025546
-0.105268
0.028680
-0.033795
0.126900
-0.040565
-0.010368
-0.101407
-0.062041
-0.023430
0.062037
-0.046944
0.059730
-0.073410
0.042553
0.097316
-0.040860
0.053921
0.007783
-0.030327
-0.050663
-0.017482
-0.044804
-0.061870
-0.024489
-0.004872
-0.054695
-0.063317
-0.081947
0.042757
-0.016379
-0.006874
-0.049778
-0.021068
0.029688
-0.082754
-0.030140
0.011023
0.140770
-0.039049
0.000030
-0.023385
0.040341
-0.038892
-0.022795
0.111520
0.012178
-0.029440
-0.040964
-0.018041
-0.005769
-0.185215
-0.109756
-0.014166
-0.056844
0.064909
0.058310
0.077022
-0.130701
-0.027263
-0.055694
-0.027463
-0.026577
0.063114
-0.009026
-0.055325
0.105491
0.016331
0.035955
-0.083554
-0.015437
0.004307
0.063050
0.027306
0.009485
-0.092467
-0.015223
0.042363
-0.012081
0.008748
-0.069785
0.008438
-0.036600
0.059493
-0.044189
0.060446
-0.024782
-0.074888
0.077920
0.040557
-0.020420
-0.068594
-0.107456
0.089614
0.094934
-0.024108
-0.010448
0.005110
-0.002498
0.007401
-0.040459
0.021308
-0.060082
-0.057607
-0.010587
0.068063
-0.031991
-0.011684
-0.061990
0.077167
0.030112
0.019337
-0.008974
-0.132221
-0.007230
-0.100123
0.005045
-0.022792
-0.008135
0.016167
-0.022795
0.050272
-0.027386
-0.121073
-0.073505
-0.021163
0.005713
-0.033507
-0.047386
0.074433
-0.092044
0.052775
-0.039567
-0.045254
-0.022070
-0.010311
0.017233
-0.071299
0.105102
0.075134
-0.039238
-0.039891
-0.006177
-0.021360
0.052246
-0.046605
0.147405
-0.010063
-0.034996
-0.006177
0.001512
-0.065460
-0.065306
-0.106855
0.025388
-0.016083
0.013776
-0.023359
-0.033701
0.000131
0.047378
0.004524
0.072495
-0.038318
-0.106308
-0.048517
-0.024050
-0.016938
-0.070620
-0.089265
-0.098274
0.061365
0.053739
-0.029820
-0.089729
0.023354
-0.069427
0.030350
-0.003221
-0.028866
0.062669
0.093414
-0.092240
-0.094176
-0.006853
0.021977
0.111108
-0.078272
-0.015402
-0.030655
-0.030986
0.055348
0.026600
0.031449
-0.046529
-0.003495
-0.050783
0.036785
-0.036593
-0.009124
0.061665
-0.045553
0.078853
0.071846
0.036705
-0.097341
-0.057339
0.061348
-0.040821
-0.009544
0.085852
0.018593
-0.001819
0.024115
-0.014216
0.090928
-0.071177
-0.016104
0.009304
0.043144
-0.146927
0.000769
0.142051
-0.010853
-0.000570
-0.003751
0.056157
0.070345
-0.037480
-0.068068
-0.060222
0.003791
0.021892
0.050137
-0.098182
-0.047083
0.012234
0.011006
0.038496
-0.028537
-0.020425
0.007835
-0.035230
0.018862
0.066297
0.041306
-0.089034
-0.011658
-0.121150
0.011834
0.093707
-0.049074
-0.036620
-0.066278
-0.052675
0.050519
0.046816
0.014911
-0.034351
0.019013
-0.027180
-0.015029
0.009291
0.039065
-0.015601
-0.002676
-0.104460
0.035766
-0.016143
0.069908
0.044873
0.013825
-0.057360
0.044504
0.006126
-0.094466
-0.010798
0.026493
-0.024068
0.018568
0.090741
0.011148
-0.106247
-0.050028
0.052466
0.074001
0.069142
0.078021
0.078709
-0.045743
-0.053892
0.101377
0.023896
-0.025299
0.073078
0.005513
0.077799
0.102348
0.008972
-0.012490
0.043572
0.030602
-0.001609
-0.048058
0.005849
0.060781
-0.048177
0.007942
0.069920
-0.042325
0.026567
0.054773
0.026377
-0.091723
-0.058048
0.019595
0.043881
-0.007022
0.094403
-0.098100
0.023685
-0.065443
-0.006822
-0.119356
-0.033836
-0.032581
-0.051648
0.013914
0.041505
0.070722
-0.044385
-0.002872
0.046437
0.018403
0.008389
-0.017457
-0.119273
0.009652
0.052885
0.003688
-0.000350
0.055997
-0.003742
0.010233
0.012137
0.051898
-0.084717
0.084209
-0.081879
0.013595
0.049453
-0.023366
-0.058764
0.008658
0.016702
-0.033460
-0.012337
0.028808
0.098092
-0.084182
0.040056
0.083483
0.018451
0.021007
-0.040739
-0.054761
0.051805
0.035407
0.085615
-0.052980
0.031168
0.010523
0.049905
0.045085
-0.098622
0.002129
-0.109724
-0.011191
0.042699
0.041455
0.018671
-0.073510
0.063907
-0.070716
0.057587
-0.050839
-0.067484
0.084041
0.035270
0.062105
-0.073163
0.075958
0.001396
0.047394
0.000469
0.015186
0.008141
-0.027553
-0.002415
-0.010803
0.082665
0.004535
0.008429
0.021159
0.016252
-0.012263
0.004913
0.084867
-0.068638
-0.130828
-0.004265
-0.001396
-0.109406
0.012334
0.037422
0.066785
0.066167
0.014007
-0.036996
0.100081
-0.122416
-0.061493
-0.034276
0.105670
-0.068175
-0.010647
0.044881
0.021531
0.156367
-0.023323
-0.000297
0.090033
-0.053008
0.000892
0.044464
0.073190
0.093195
0.048238
0.028336
0.066367
0.077030
-0.072912
0.056579
-0.019975
-0.123641
0.142301
-0.017978
-0.070237
0.080066
-0.158974
-0.041360
0.021895
0.088287
-0.017769
-0.079271
-0.041993
0.050836
-0.027358
0.069139
-0.001706
0.027405
-0.012489
-0.010187
0.044216
-0.055176
-0.017744
-0.003437
-0.040000
-0.044930
0.020504
-0.041599
0.042878
-0.030364
-0.029829
-0.043777
0.072013
-0.099631
0.030099
0.096230
-0.073638
-0.017840
0.076845
0.009413
-0.066633
0.011609
-0.016667
0.058878
-0.033920
0.088994
0.032451
0.030047
0.030339
-0.027445
-0.025175
0.054232
0.016184
0.048605
-0.008075
0.011399
0.000398
-0.043596
0.053621
0.043445
-0.002730
-0.011768
-0.056937
0.075795
-0.048037
0.005095
-0.108577
-0.001632
-0.015975
-0.080260
0.061326
0.056958
0.051653
0.091802
-0.183647
0.007690
-0.111457
0.088969
0.047136
0.027175
-0.013465
-0.060252
-0.042432
-0.055796
0.024517
0.034065
0.031757
-0.015221
-0.008438
-0.049632
-0.024343
0.085964
-0.072441
0.113989
-0.029277
-0.069402
-0.091076
-0.079085
-0.090254
0.076069
0.054753
-0.045576
0.056247
-0.065587
-0.038088
-0.002017
-0.056691
0.008168
-0.015951
0.025890
-0.016985
-0.029837
0.050924
-0.013431
0.024280
0.028463
-0.131561
0.030849
0.058719
-0.075530
0.053999
-0.006900
-0.085549
0.018322
0.003360
-0.001190
-0.076217
-0.035976
-0.021393
0.114888
-0.056500
-0.070130
0.085917
-0.046774
-0.048167
0.024836
-0.065854
0.054627
0.017916
0.023388
-0.015070
0.040354
0.031929
0.003424
-0.107477
0.052220
-0.052575
-0.080849
-0.052198
0.085186
-0.018259
0.011730
-0.093380
0.024648
-0.080936
-0.076097
-0.165602
-0.016539
-0.054964
-0.041202
-0.018398
-0.144291
0.064256
0.155309
-0.031539
-0.068372
-0.026427
-0.049336
-0.106912
-0.050176
0.063831
-0.093028
0.019299
-0.035164
-0.031834
0.020165
-0.077443
0.006170
0.008591
0.059501
-0.127538
-0.034062
0.025860
-0.040500
-0.111785
0.016904
0.004073
0.021249
-0.049764
0.001871
-0.041119
-0.035953
-0.042090
0.039167
0.048951
0.030386
0.004516
-0.014500
-0.013766
0.047663
0.010749
0.094184
0.075936
0.008015
0.064508
0.074971
-0.036571
-0.004185
-0.021452
0.075946
0.092103
0.088096
0.059311
0.084579
-0.025013
0.018831
0.028393
-0.015053
0.040541
0.010561
-0.024661
0.008209
0.036442
0.045682
0.006481
-0.044099
0.036043
0.024371
-0.036476
0.059151
-0.015764
0.032152
-0.112252
0.092141
-0.074335
-0.029414
0.021839
-0.021761
-0.073277
0.075176
0.002983
0.052678
0.065703
0.041363
-0.010841
-0.006969
0.042778
-0.019393
0.033424
-0.017855
0.038740
-0.024765
0.019089
-0.024076
0.053374
-0.000512
-0.032140
-0.001614
-0.015057
0.052515
-0.063138
0.101912
-0.055507
0.022018
-0.085827
-0.017982
-0.002258
-0.054238
0.004180
-0.084055
0.116645
0.026238
0.106609
-0.007571
0.016057
0.011182
0.004991
0.101178
-0.023203
-0.014173
0.014103
0.010961
-0.059049
0.115959
0.007653
-0.072639
-0.146389
0.110186
-0.035622
-0.033767
-0.002952
-0.065459
-0.042857
-0.026180
-0.107371
0.028104
0.036416
-0.103843
-0.063978
0.009583
-0.054697
-0.040182
-0.025967
0.012945
-0.063034
-0.055465
-0.065198
-0.048403
0.012654
-0.012169
-0.029098
-0.072185
0.049433
-0.116414
0.013832
0.010668
-0.036648
0.027613
0.008662
0.044409
-0.026306
-0.045170
0.014546
0.052966
0.013967
0.036794
-0.022566
-0.062816
0.069112
0.033653
-0.029879
0.022140
0.010425
-0.143482
-0.058673
-0.060859
0.123579
0.031687
-0.013800
0.018343
-0.082645
0.072889
0.052572
-0.060198
-0.042640
-0.047150
0.014494
-0.005222
-0.030831
-0.005820
-0.047343
-0.026717
-0.031632
-0.043662
0.119072
0.068771
-0.123706
0.015276
-0.054762
0.042910
0.067169
-0.020130
-0.131115
-0.004070
-0.029502
0.041990
-0.163022
-0.163663
0.047869
0.064445
-0.090619
-0.005908
-0.017967
-0.051942
-0.077254
-0.090198
-0.052452
-0.135872
-0.022549
0.025266
-0.001568
0.026594
-0.033314
-0.126116
-0.045283
0.046163
-0.101441
-0.046417
-0.087669
