# Shape: (3, 3, 32, 64)
-0.163067
-0.066953
-0.049727
0.066687
-0.084817
-0.165651
0.098558
0.091219
0.137948
-0.040001
-0.125058
-0.033317
0.126827
-0.029223
-0.060884
0.016715
0.045350
-0.041911
-0.019607
0.000312
-0.142630
0.043043
-0.099613
0.058462
-0.060215
0.130395
-0.011234
0.081341
0.001789
-0.052960
-0.092139
-0.029699
0.006503
-0.080655
-0.022960
0.128319
0.011846
-0.003744
-0.128583
-0.020382
-0.145904
0.113167
-0.105500
0.028043
0.040706
0.130875
-0.093348
0.111839
0.116011
-0.067013
0.062171
-0.113538
-0.081437
-0.045150
-0.023353
0.021985
-0.004073
-0.008766
0.105796
-0.146039
-0.189303
-0.026759
-0.140712
-0.006277
0.063082
0.036047
-0.061694
0.076668
-0.012396
-0.012717
-0.037294
0.031269
-0.129728
-0.063483
-0.166329
-0.002616
-0.119814
0.017466
0.026926
-0.048878
-0.063454
-0.084422
0.057267
0.002763
-0.103565
0.079094
-0.078568
0.050765
-0.044790
-0.034455
-0.083990
0.047465
-0.103763
0.039588
0.040123
0.069370
0.028568
-0.044611
-0.091570
0.108248
-0.117605
-0.039655
-0.040403
-0.082207
0.050118
-0.114134
0.016781
-0.076933
-0.060951
0.118674
-0.131496
0.002161
0.086634
0.044738
0.029316
0.046906
-0.048329
-0.040859
0.120845
0.018333
-0.055886
0.024700
-0.131459
0.094197
0.103206
-0.073522
0.015694
0.017805
-0.060728
-0.022620
0.012746
0.056633
0.083865
0.087079
-0.011947
-0.040840
-0.014057
0.106353
-0.008458
-0.125644
0.047877
0.107855
0.012756
-0.032672
-0.073853
0.030152
-0.112097
0.012149
-0.080320
0.028773
0.089140
0.038480
-0.048598
0.096691
0.074969
-0.013120
0.033343
-0.101916
-0.120472
-0.016514
-0.085638
0.008336
-0.003657
-0.007246
0.082990
0.020157
-0.023598
-0.004373
-0.107063
0.139994
-0.029964
0.125391
0.034134
0.041173
0.028538
-0.074685
-0.056516
0.021360
-0.005155
-0.051326
0.033265
0.041982
0.094138
-0.072962
0.065638
-0.022603
-0.092086
-0.024603
-0.010940
0.013117
0.049378
0.040687
0.083644
0.067591
-0.092637
-0.002737
-0.098135
0.060083
-0.100736
0.030846
0.055851
-0.056724
-0.013756
0.026262
0.067914
0.120060
0.067386
-0.029225
0.068608
-0.055030
0.052329
0.046016
-0.139897
0.044445
0.011478
-0.089598
0.095190
0.024250
0.059803
0.043208
-0.008882
0.003695
-0.073810
0.005274
0.148902
-0.017445
0.032537
-0.040077
-0.011560
-0.042328
0.029385
-0.033778
0.015443
0.011942
0.041864
-0.150732
0.004543
-0.067392
-0.093875
-0.009686
0.098137
-0.027816
-0.022936
0.103854
-0.012847
-0.019802
-0.023468
-0.030815
0.119423
-0.017059
-0.085278
0.019869
-0.030049
-0.085562
0.066300
0.021389
0.148097
0.046861
-0.163683
-0.014507
-0.124109
0.008697
0.046783
-0.052037
0.100922
-0.078210
-0.137093
-0.080673
0.004567
0.089565
-0.074532
-0.017098
0.073408
0.052161
0.022753
0.068414
-0.043695
0.022281
-0.013202
0.049219
-0.112964
-0.067445
-0.055850
0.126950
-0.028003
-0.092653
0.048356
0.095732
-0.077097
-0.067382
-0.047654
0.026493
0.082117
-0.081225
0.067869
-0.040052
0.077435
-0.006669
-0.041617
0.070721
-0.040997
-0.077659
-0.054479
0.068140
0.019755
0.005055
-0.090675
0.081605
0.010212
-0.000503
0.133304
0.002252
-0.038156
0.050583
-0.132655
-0.034717
0.045599
0.047069
0.126299
0.060127
-0.046243
0.089673
0.048237
0.072598
0.017187
-0.087071
-0.137499
0.040996
-0.012625
0.052252
0.026904
-0.051115
0.052953
0.059220
-0.016100
0.029292
-0.098050
-0.090954
-0.202396
0.176843
-0.115953
0.066084
-0.063025
-0.157336
-0.098382
-0.035840
0.099495
-0.072020
0.090071
0.111185
-0.159946
-0.075608
-0.091876
0.024735
0.000071
0.006127
0.069684
-0.005147
-0.107872
0.083121
-0.107229
-0.025461
-0.009576
-0.001281
0.075807
-0.098813
-0.008426
0.048696
-0.027442
0.016944
0.091953
-0.011420
-0.090280
-0.091909
0.072140
-0.076715
0.044134
-0.022248
0.082991
0.014180
-0.080067
0.017662
-0.096211
0.055909
-0.046375
-0.106949
0.017852
0.149297
-0.057194
-0.054556
0.043001
0.020793
0.063712
-0.000577
-0.139689
-0.008375
0.032825
-0.033509
-0.032430
-0.124199
0.020474
-0.039138
-0.012155
-0.027058
-0.041738
0.036069
-0.052790
0.043386
-0.142544
-0.124128
0.011161
-0.054973
-0.025045
-0.037131
-0.045135
-0.039234
0.017833
-0.057909
0.002497
-0.060600
0.009015
-0.063767
-0.004300
-0.036561
-0.001200
0.000277
0.071373
-0.099568
-0.069972
0.076239
-0.116310
-0.007515
-0.062359
0.016392
0.063710
-0.029617
-0.059804
0.094481
-0.025519
0.133203
-0.015952
0.081125
-0.097342
0.064953
0.047328
-0.119021
0.056430
0.068404
0.038577
0.017637
-0.013826
0.003804
-0.056636
0.022682
0.085860
0.072512
0.025127
0.016174
-0.012568
-0.150056
-0.090637
-0.030490
0.045859
0.112010
0.022526
0.033462
0.090598
0.012542
-0.105663
-0.007105
0.134520
0.125222
0.020937
-0.070761
0.070704
0.044349
-0.013525
-0.094498
0.062825
-0.079726
0.048919
0.086681
-0.129565
-0.047655
-0.131575
-0.131911
-0.017076
-0.044857
0.093738
0.049473
-0.016735
0.026110
0.097606
-0.032995
0.048746
-0.046236
-0.034357
-0.001454
-0.015357
0.080850
0.007617
-0.129874
-0.055783
0.032733
0.142280
0.107955
-0.130706
0.102372
0.034588
0.044835
0.000797
-0.084227
-0.022189
0.116283
-0.007040
0.021059
-0.001687
-0.115954
0.017484
0.039913
0.109200
-0.038563
0.005475
-0.057698
-0.065282
0.021682
-0.000085
-0.039032
0.008736
-0.007954
0.113623
0.001453
-0.002742
0.020388
-0.066752
0.130403
-0.007109
-0.156033
0.054698
0.044100
0.017923
0.032981
0.085559
-0.068238
0.040380
0.108937
-0.056539
0.020388
-0.002824
-0.090390
0.046534
-0.143075
0.159351
-0.086472
0.064654
-0.057535
-0.031663
0.066171
-0.137910
0.060294
-0.036282
-0.029833
0.016229
0.002123
-0.052691
-0.113781
0.067327
-0.030937
-0.008483
0.068865
-0.155430
0.166320
-0.109280
0.001750
0.066788
-0.110345
-0.122918
0.006801
0.109668
0.045919
0.050467
-0.166768
-0.153051
0.084539
0.084551
0.108572
-0.052073
-0.097841
0.044769
0.013939
0.043215
0.021176
-0.050155
-0.127488
-0.075369
-0.020261
-0.059684
0.052660
-0.016706
0.096360
-0.037785
-0.043970
0.074103
-0.066048
-0.102418
0.124389
-0.008745
-0.075760
0.008604
0.045848
0.046808
0.112416
0.108868
0.002839
-0.037413
-0.013231
-0.054018
0.064602
0.007857
0.008216
-0.106527
0.030631
0.044481
0.086933
0.000231
0.003552
-0.033063
-0.107628
-0.050855
-0.028776
-0.031198
-0.002873
-0.105803
-0.098994
0.005299
0.072847
-0.031861
-0.113265
0.049033
-0.067827
0.044306
-0.035078
0.052802
-0.119410
-0.049404
0.041036
0.010458
0.046201
-0.007526
0.113612
0.042292
-0.039829
0.055415
0.053271
-0.010933
-0.083640
0.124800
-0.049222
-0.023171
0.013185
0.000863
0.023522
0.132115
0.000608
0.074939
-0.053125
-0.049336
-0.068033
-0.128088
-0.135736
-0.036675
0.060202
0.017936
-0.030004
-0.077038
0.093312
0.055776
0.038863
0.010825
-0.053338
0.014145
0.029268
0.040311
0.048395
-0.038175
0.023077
0.153971
0.056883
0.083272
0.040870
0.003465
0.082319
0.049167
-0.010494
0.036024
-0.024360
0.030642
0.042385
-0.057132
0.094998
0.006948
-0.087991
0.001391
0.017866
0.080507
0.031075
0.026741
0.026546
-0.045945
0.083087
0.015278
0.136232
-0.062232
0.023437
-0.005424
0.043462
-0.005353
0.041248
0.046565
-0.075058
0.033010
-0.019702
-0.023033
-0.087018
-0.018277
-0.019279
-0.007900
0.066029
-0.030560
0.011173
-0.029302
-0.119684
0.026898
-0.010276
0.003638
0.030911
-0.025152
0.058912
-0.044315
-0.034442
-0.072808
-0.121447
-0.010747
0.000405
0.047447
0.014178
0.000531
0.041318
-0.023555
0.088671
-0.071130
0.020987
0.061279
0.006002
-0.045013
-0.182857
-0.099237
0.074607
-0.123474
-0.035551
-0.093557
0.009406
-0.042543
-0.054183
-0.007914
-0.096697
-0.063717
0.075582
0.009772
-0.056662
0.087397
-0.046197
0.067959
-0.054040
0.010443
-0.045212
-0.101226
0.032685
-0.033396
-0.154385
-0.097098
-0.003601
-0.023219
-0.099306
0.004836
-0.086893
0.081584
0.057788
-0.116141
-0.003575
0.131830
0.090247
0.072226
-0.023015
-0.068643
-0.084214
-0.046636
-0.055229
-0.073984
0.005838
-0.044636
0.015947
0.018302
-0.012140
-0.040971
0.043124
-0.039661
-0.044671
-0.021009
-0.019752
-0.016825
0.090179
-0.029476
0.012120
0.059074
-0.020392
0.072624
-0.111269
-0.029363
-0.044368
0.059861
0.040377
0.097867
-0.103763
0.015183
-0.006786
-0.098319
0.057989
0.012884
-0.087063
-0.075412
0.017092
-0.032509
-0.016833
-0.035093
0.022095
-0.038606
0.017546
0.086276
0.103402
-0.008607
-0.052601
0.012684
0.028937
-0.081408
0.063259
0.140249
0.036705
-0.011020
0.022999
0.092473
-0.125701
0.029300
0.033260
-0.001439
0.095396
-0.010432
0.076712
-0.020026
-0.034171
0.086560
-0.012055
0.036228
-0.044497
0.145601
0.121631
-0.088009
0.077972
0.059194
-0.157674
0.121219
-0.149279
0.065251
-0.170854
-0.136841
-0.175168
-0.008644
-0.016198
-0.090139
-0.055398
-0.063433
-0.129854
0.043401
0.039899
-0.055810
-0.072547
0.070348
-0.027282
0.022179
0.041252
-0.092488
0.077899
-0.038081
-0.050844
-0.058550
-0.168099
0.032346
-0.036908
-0.042741
-0.000510
-0.070825
0.009880
-0.050956
0.038040
-0.024517
0.006984
-0.032776
-0.034040
-0.048976
0.032777
-0.128515
0.062051
0.132730
-0.050068
-0.027094
-0.127891
-0.017957
0.116678
-0.018054
0.070879
0.032711
0.006415
0.151961
0.030430
-0.056934
-0.065446
0.011051
0.013479
-0.009787
0.066349
0.084776
-0.046807
0.078220
-0.060611
-0.053030
-0.007128
0.034840
-0.112890
0.080821
-0.084484
-0.075602
-0.100128
0.038753
-0.055383
0.034573
0.025232
-0.016051
0.064592
-0.099468
0.042529
-0.019650
0.092289
-0.150094
-0.036391
-0.088633
-0.026968
0.046446
0.015982
-0.002205
0.018498
0.137903
0.121531
0.031547
0.016572
-0.124245
-0.018234
0.080566
0.001201
-0.047893
-0.037931
0.028317
-0.128663
-0.164990
0.094623
0.018627
-0.147138
-0.010301
-0.024419
0.030472
0.089996
-0.116956
-0.053507
0.008137
-0.043978
-0.127459
0.015500
0.014142
0.096116
-0.118241
-0.115416
-0.080355
-0.067442
-0.061986
-0.025715
0.029162
-0.030383
-0.015953
-0.073792
-0.068822
0.071066
0.002636
-0.029337
-0.067092
0.047529
0.131067
-0.021459
-0.063112
-0.107592
-0.116662
0.072053
-0.063388
-0.031305
-0.186217
-0.118601
0.026785
-0.044432
-0.132800
0.028398
-0.005642
0.069314
0.013549
-0.035592
-0.012041
0.049351
-0.030822
0.110776
0.099375
-0.002526
-0.069769
0.033620
-0.050736
0.104082
0.132423
0.026440
0.023533
0.073457
-0.079140
0.010957
0.078982
-0.023339
-0.008629
0.022744
0.061586
-0.126133
0.072879
0.059170
-0.055867
0.064364
-0.007327
-0.053472
0.039970
-0.123905
-0.053237
-0.049075
-0.010935
-0.054339
0.053832
-0.023146
-0.056256
-0.115154
-0.133777
0.000452
-0.062548
0.002863
0.053471
-0.062314
0.035814
-0.080159
-0.008409
-0.026284
0.045324
0.077267
-0.083238
-0.023789
-0.004209
-0.051626
-0.018471
0.022615
-0.094182
0.012813
0.010068
0.021208
0.027704
0.091735
-0.119327
-0.031492
-0.022092
-0.097733
-0.102285
-0.111373
0.031712
0.099283
-0.029495
-0.122093
0.021916
0.039493
-0.085296
-0.019426
-0.101316
-0.031287
-0.017533
0.010651
0.040378
0.087537
0.055683
-0.012739
0.044174
-0.001112
-0.147107
0.040840
-0.139368
0.068359
0.039314
-0.057689
0.004335
-0.019583
0.102374
-0.034829
-0.031773
-0.116255
0.013081
-0.047857
-0.083637
0.119515
0.024771
-0.007672
-0.192681
-0.110933
-0.165693
0.020695
-0.106149
-0.146033
-0.123044
0.011754
-0.094810
0.037122
0.079308
-0.124684
0.116019
-0.034123
-0.067276
0.007143
0.016136
0.054263
-0.073865
-0.082837
0.022242
-0.119719
-0.063329
-0.047845
-0.026874
-0.016568
0.011536
-0.039119
-0.140259
0.065670
-0.067388
-0.061193
0.006443
-0.122072
-0.010511
-0.039250
-0.162004
0.025807
0.024059
-0.009196
0.068783
-0.133466
0.090498
-0.094897
-0.054374
-0.002968
-0.044466
0.104673
0.117639
0.047002
-0.158632
0.084037
-0.054143
-0.031199
-0.029478
-0.117123
0.048663
0.032449
-0.001413
0.025789
0.146629
-0.013387
0.008231
0.066072
0.002113
0.080162
0.037710
0.057452
-0.070727
0.047076
-0.158248
0.037310
-0.018237
-0.024469
0.022339
0.024526
-0.108704
-0.108343
-0.005065
0.055113
0.069777
0.178179
0.015133
0.006787
-0.017238
0.039212
-0.006249
-0.018482
-0.079884
-0.039371
0.009550
0.062110
0.095436
0.101031
-0.001235
-0.028677
0.024869
-0.138993
0.102779
0.076962
-0.044385
0.044594
0.072103
-0.170292
0.048371
-0.085905
-0.032053
-0.010850
-0.082057
0.092563
-0.079454
-0.031715
0.144093
0.039367
0.001321
-0.022880
-0.190516
-0.028019
0.038988
-0.051258
0.050292
-0.094314
-0.078190
-0.019534
-0.088554
-0.083631
-0.033727
-0.001003
-0.021191
-0.106088
0.059671
0.032801
0.061617
0.018572
0.009349
0.002209
0.044033
-0.074949
-0.020992
0.028577
-0.026081
0.049137
0.094747
0.035367
0.017537
-0.043969
-0.038005
-0.008991
-0.057025
0.068709
-0.042680
-0.029810
0.022125
-0.016952
0.003312
-0.020741
-0.004652
0.114919
-0.160588
0.071969
-0.079211
0.160444
0.002734
0.020782
-0.007031
0.055272
-0.058015
-0.024108
-0.100806
-0.104376
-0.062637
-0.004795
0.024331
-0.040423
0.038999
-0.060271
0.043232
-0.048635
-0.078559
-0.056285
-0.022709
-0.017322
-0.068798
0.044621
0.032130
-0.006344
-0.069718
0.041522
0.001439
0.020704
0.020092
-0.030821
0.032130
-0.025720
0.033424
-0.021581
-0.026161
0.123927
0.120831
-0.006422
0.047485
-0.134674
-0.001498
0.070682
-0.136523
-0.120223
-0.060907
0.014962
0.035906
0.048709
-0.017745
0.043803
0.039454
0.079101
0.084971
-0.031833
0.003770
0.113736
0.112779
-0.023380
0.023969
0.060373
-0.047030
-0.065198
-0.079879
0.078803
-0.007376
-0.092328
-0.115915
-0.035917
-0.113718
-0.017986
0.027556
-0.031069
-0.025906
-0.198503
0.000476
0.027978
-0.010558
0.122491
-0.017892
0.019998
-0.037846
-0.030731
-0.215205
0.070143
-0.095467
0.082555
0.026478
-0.086894
-0.037948
0.040848
-0.070360
-0.013012
-0.047815
0.078678
-0.060925
-0.053640
-0.064814
-0.042878
0.052862
-0.044253
-0.151117
0.027627
-0.176327
0.013949
-0.032180
0.017243
-0.018008
-0.072290
-0.042631
-0.020080
0.031065
-0.024644
0.010560
-0.056229
0.074678
-0.051786
-0.046299
-0.060960
-0.007060
0.070466
-0.147285
0.044152
0.153480
-0.004526
0.018327
0.019831
-0.108185
0.084042
-0.021436
0.089138
0.056871
-0.037494
0.026876
-0.028492
-0.075409
0.099718
-0.022213
-0.073540
-0.059849
0.027950
0.050590
0.060951
-0.043825
0.036736
0.101539
-0.006204
-0.101868
-0.001862
-0.134118
0.013115
-0.007778
-0.123635
-0.054763
-0.063915
0.053613
-0.090422
-0.097556
0.051238
-0.068105
0.081802
-0.092446
0.041687
-0.003531
0.039824
0.039063
0.016844
0.034181
-0.028853
-0.115905
-0.067849
-0.090934
-0.142049
0.029009
-0.029014
-0.133799
0.018374
0.084174
-0.007212
0.084215
0.089347
-0.098584
0.003619
-0.021548
0.107071
0.134766
0.021592
0.033240
0.061756
0.073821
0.069267
0.085849
0.025140
-0.161236
-0.061826
-0.079803
-0.138504
-0.096773
0.050716
-0.009941
0.051207
0.021418
-0.089893
0.071384
0.011847
-0.008454
-0.081193
-0.046158
0.063634
0.024818
-0.015840
-0.070444
0.078729
-0.021349
0.089060
-0.005872
0.002238
-0.021284
-0.044299
0.072604
0.107581
-0.095300
-0.010089
0.027585
-0.123390
-0.025907
-0.065896
-0.017679
-0.012215
-0.066430
0.075595
0.036490
-0.013805
-0.055991
0.032535
0.008901
0.108661
0.080338
0.105879
0.058096
-0.082631
0.043058
0.049406
0.022505
0.049983
-0.024760
-0.019566
-0.007480
-0.017252
-0.001493
0.105239
-0.000956
0.041425
-0.108327
-0.018021
0.113186
0.050122
-0.033553
0.047113
0.007127
0.028701
-0.086915
-0.007574
0.022589
-0.103484
0.012153
-0.032464
-0.003116
0.070552
-0.063390
0.004833
0.089528
-0.029219
-0.017883
0.040138
-0.074758
0.012032
-0.026971
-0.020052
-0.123374
0.022943
-0.020234
0.116359
-0.020686
0.053447
0.140707
-0.015426
-0.002065
-0.068065
-0.056959
0.070456
-0.131746
0.016992
0.016024
-0.070196
-0.045623
-0.143904
-0.059195
-0.028437
-0.085410
0.064568
0.017550
-0.093404
0.067045
-0.031200
0.008803
-0.001636
0.040455
-0.020176
-0.088485
0.010460
-0.104622
-0.012662
-0.147614
-0.081839
-0.085858
0.022435
0.014049
-0.051195
0.085157
0.143503
0.020548
0.000115
0.014351
0.057491
0.055781
0.017295
0.056126
-0.110813
-0.122859
-0.046186
-0.094474
-0.204215
-0.092355
0.037547
-0.035505
-0.043415
-0.131266
0.028509
-0.043389
-0.008584
-0.000906
-0.044065
-0.110172
0.016700
0.015468
-0.034816
0.175164
0.089882
0.083321
-0.000943
-0.034970
0.130195
-0.000292
0.122539
-0.026441
0.086919
-0.039091
0.143122
-0.143721
0.077061
0.029499
0.039763
-0.020496
-0.130529
-0.225042
0.000515
-0.081067
0.156125
-0.056220
-0.136171
0.130835
-0.102543
-0.257062
-0.042530
-0.080458
-0.056929
0.056594
-0.043985
-0.118094
0.022126
0.000574
-0.019252
0.011656
0.114598
0.111875
-0.133353
0.036715
-0.057226
-0.083135
0.009961
-0.145025
-0.058914
-0.060336
-0.144844
0.098681
-0.091583
-0.072829
0.121023
-0.003973
0.168307
-0.009096
0.035731
0.001494
-0.022517
0.015398
0.038073
-0.141011
-0.029210
-0.035108
0.042375
-0.007021
0.011106
0.063487
0.077441
-0.072256
-0.013425
-0.007608
0.058032
-0.099658
0.024516
-0.015190
0.005564
-0.097735
-0.072138
0.034528
-0.004778
0.023701
-0.000691
-0.131670
-0.117452
-0.013655
0.163296
-0.173795
0.007575
-0.086719
0.030850
-0.077583
-0.104095
-0.005833
-0.049730
-0.006307
-0.085379
-0.015938
0.024615
0.089632
0.058035
0.018383
-0.042871
0.045316
0.042265
-0.059932
-0.130536
0.102512
0.109714
-0.088326
0.039686
0.014256
0.069003
0.033139
-0.016546
-0.000735
0.020399
-0.059432
0.007105
0.038054
-0.178440
0.128336
0.052371
-0.080376
0.082375
0.105086
-0.075966
0.080118
0.066441
-0.078127
-0.014242
0.034007
0.056944
0.051892
-0.043519
0.112095
-0.072037
0.024380
-0.108538
0.095906
-0.001609
0.089312
0.055448
0.022029
0.012136
-0.038786
0.069745
0.028883
-0.005889
-0.036318
-0.017348
0.121614
-0.041247
-0.023187
-0.085932
0.058480
-0.024813
0.006841
-0.105276
-0.090593
0.029690
-0.004176
-0.125114
0.018463
0.088582
0.052242
0.051133
-0.066880
0.089550
0.009537
-0.183959
-0.068835
-0.012854
-0.071501
-0.104551
-0.058462
0.034619
-0.153703
0.018183
-0.085442
-0.061942
0.099044
-0.002633
0.103383
-0.078818
0.080502
-0.032640
0.044839
-0.100354
-0.049986
0.003112
-0.041604
-0.080737
-0.064312
0.014418
0.021515
0.055977
-0.008254
-0.102096
-0.070278
0.154456
0.047117
0.120200
0.095884
0.074094
0.141973
0.024910
0.027863
0.024066
0.068532
-0.071500
-0.021695
-0.073814
0.015746
-0.018804
-0.028544
0.071568
-0.039349
0.112544
-0.013391
0.077201
0.060501
-0.050006
-0.037707
-0.070991
0.027134
-0.028547
-0.061351
-0.014190
0.024398
0.070598
-0.032795
0.068783
-0.114273
0.106128
-0.073063
0.051753
-0.030381
-0.055192
-0.093400
-0.062581
-0.097743
0.047847
-0.086452
0.026386
-0.084086
-0.090568
0.065427
0.047015
0.031539
0.031563
-0.166480
0.044258
-0.084082
0.113006
-0.034930
0.020693
-0.040516
-0.043730
-0.078812
0.059160
0.004331
-0.032864
0.005518
0.025678
-0.022491
0.047733
0.112169
0.047721
0.066556
0.005626
-0.027449
-0.019678
-0.112702
-0.030596
-0.073376
-0.041716
-0.014959
-0.052673
0.097377
0.050734
-0.052508
0.043224
-0.021403
-0.104023
-0.074690
0.040881
-0.066735
0.054893
-0.002890
0.080554
-0.132493
0.029480
0.084529
-0.087817
0.131600
0.039283
-0.000758
0.031417
-0.136245
0.032088
0.072034
-0.087834
-0.078282
-0.072588
-0.027002
0.102640
0.018924
0.101712
0.014311
-0.021313
-0.032468
0.035015
-0.086308
0.070602
-0.037779
-0.057201
0.039364
-0.043640
-0.002399
0.059036
-0.046866
-0.090317
0.046120
-0.027274
0.013360
0.014978
-0.056391
-0.098853
-0.049087
-0.028418
0.089293
-0.005328
0.069086
0.043071
-0.063195
0.018974
-0.042453
0.058221
0.074817
-0.027176
0.065006
-0.141159
-0.021363
-0.044862
0.044593
0.081342
-0.023693
-0.034164
-0.043932
0.047739
0.051056
0.061641
-0.028104
0.005428
-0.034681
0.033227
0.044576
0.072454
0.011454
-0.062187
0.057317
0.025251
-0.091476
0.039553
0.151803
-0.005828
-0.017740
-0.141684
0.002683
-0.127299
-0.117858
0.118683
0.077602
0.150017
0.074237
0.050829
-0.104110
-0.082157
0.057712
-0.068740
0.018805
0.035947
-0.009536
0.010912
0.040266
0.000869
-0.138237
-0.172121
-0.059812
-0.019721
-0.041801
-0.058000
0.025428
0.011927
-0.064919
0.083512
-0.003387
0.080096
-0.094813
-0.101656
0.026143
-0.022015
-0.121334
-0.022422
-0.075784
0.050818
-0.076272
0.062972
-0.083018
0.027134
-0.150094
0.033572
0.020323
-0.130951
-0.148543
-0.059114
-0.127126
-0.120864
0.003356
-0.022190
0.091871
0.078657
0.032924
-0.043600
-0.063209
-0.017713
0.066475
-0.052026
-0.065416
0.024123
0.030689
-0.073931
-0.202659
-0.014900
0.070743
-0.023289
-0.045879
-0.017169
-0.018259
-0.019425
-0.017350
0.055956
0.115534
-0.049058
-0.041426
-0.068276
-0.068168
-0.035195
-0.037002
0.010665
0.019952
-0.072786
-0.006720
-0.043788
-0.150700
-0.056640
0.017508
-0.074239
-0.072419
0.047323
-0.160790
0.068095
0.072170
-0.041009
0.060305
0.002949
-0.014119
0.034765
0.030696
-0.081685
0.000004
0.016707
0.038886
-0.140765
-0.126057
-0.107550
0.073219
-0.032449
0.048823
-0.129555
-0.008451
0.024330
0.012437
0.055204
-0.007138
-0.002298
-0.054105
-0.013543
-0.049116
-0.011101
-0.001315
0.000334
-0.059313
-0.019582
-0.018943
-0.021456
0.118800
-0.066032
0.038893
-0.010238
-0.085102
-0.078479
0.014006
-0.038092
-0.015327
0.054759
-0.080918
-0.034091
-0.031193
-0.008066
-0.077084
-0.017222
0.073928
0.015790
-0.034162
0.097183
0.058656
-0.076407
-0.067721
-0.026075
-0.078271
-0.073010
-0.090181
0.050772
-0.138262
-0.012850
-0.007128
-0.015853
0.068378
0.052041
-0.063268
-0.079663
0.127873
0.004857
-0.096682
0.057423
0.031149
0.028519
-0.018284
0.007964
-0.000457
-0.048792
-0.102172
-0.008265
0.022713
0.064139
0.055697
-0.043612
0.079914
0.004785
-0.118138
-0.056178
-0.059545
-0.018012
-0.024437
-0.097564
-0.004507
0.109929
-0.011362
0.029746
-0.151335
0.130127
-0.016677
-0.025880
0.039150
-0.023830
-0.040548
0.045889
0.099643
0.088847
0.020997
-0.072041
-0.042220
0.011862
-0.059924
0.093330
-0.041911
0.047765
0.054991
0.060596
-0.120025
0.046591
-0.007899
0.036236
0.031696
0.093820
0.020405
0.024056
0.064232
0.037295
-0.083151
0.046706
0.054630
-0.059924
-0.081838
-0.014302
0.092477
-0.060269
0.054740
0.102488
-0.057370
0.029923
-0.035901
-0.039572
-0.014087
-0.015417
0.016308
-0.053190
-0.014941
-0.164785
-0.021264
0.063087
-0.080632
-0.020789
-0.015535
0.056955
-0.002885
-0.019283
0.113199
0.154378
0.060474
0.014483
-0.047314
0.086161
-0.068273
0.068432
-0.018009
0.074702
0.026042
-0.035878
0.000754
-0.060943
0.127808
0.097084
0.012061
-0.008167
0.007192
-0.032742
-0.031156
-0.072344
0.001572
0.000436
-0.060621
0.023042
0.044288
-0.097921
0.003061
0.050162
0.039929
-0.131912
0.049997
-0.112114
0.093585
0.113209
-0.028549
-0.024925
0.075521
0.069590
-0.070470
0.040376
0.057593
0.023404
0.054125
-0.088514
0.054305
-0.048416
0.027744
-0.045423
0.025376
0.047058
-0.021481
0.038113
-0.115413
0.100854
-0.129999
0.095649
0.000469
-0.014834
-0.062950
-0.028800
-0.083213
-0.047217
-0.087084
0.066517
0.098233
-0.107668
-0.072279
0.115578
0.029633
0.005547
-0.046533
-0.050643
-0.041058
-0.017692
-0.115477
0.039939
0.015544
0.018030
0.015317
-0.030757
-0.032168
0.038045
-0.031150
0.061195
0.040373
-0.099582
-0.082361
0.027726
-0.036651
0.089250
-0.024107
0.081025
-0.126076
0.019925
-0.004944
-0.059267
0.004696
0.083874
-0.026348
0.074628
-0.061659
-0.034998
-0.116197
-0.001424
0.003127
0.052142
-0.028282
0.098274
0.012497
0.025161
-0.029687
0.043552
0.111652
0.076484
-0.150263
0.159999
-0.020253
-0.002403
-0.081159
-0.132448
0.112491
0.025756
0.080230
-0.082327
0.042672
-0.066140
0.073775
-0.008478
-0.057406
-0.007661
-0.158761
-0.104126
-0.159782
0.090600
-0.011210
0.039014
-0.075516
-0.094790
-0.103805
-0.083007
0.034337
-0.038081
-0.001147
-0.036307
-0.043435
0.103068
-0.118280
0.104184
-0.073274
-0.067914
0.048464
0.081988
-0.081798
-0.001070
-0.091085
0.102160
-0.127411
-0.014568
0.163601
-0.109134
-0.010165
0.122968
0.000580
-0.002159
0.168252
-0.095238
0.020977
0.041733
-0.016601
-0.215886
0.057560
0.032355
0.034486
-0.094175
0.065351
-0.065186
-0.091677
-0.123908
0.046528
-0.040211
-0.115427
-0.016226
0.031735
-0.069586
-0.120611
0.015880
0.057421
0.038163
0.022998
0.025190
-0.078112
-0.037231
-0.096466
-0.011539
0.012305
-0.065860
-0.035286
0.049112
-0.080835
-0.087513
-0.165262
0.019459
-0.035358
-0.048252
-0.041871
0.060263
0.052950
0.052206
-0.021744
-0.036739
-0.008526
-0.068950
-0.071535
-0.030065
-0.043313
0.048687
-0.053324
-0.063638
0.072153
0.063800
-0.046048
-0.005900
-0.079586
-0.084427
-0.027855
-0.071654
0.074318
0.016698
-0.087592
-0.002068
0.026592
-0.041184
0.053699
0.061113
0.019597
0.066746
-0.047909
0.029646
-0.002341
-0.105918
0.086244
-0.019260
0.027554
-0.013651
0.018255
-0.068835
0.085849
-0.056816
0.069147
0.079041
-0.008653
-0.006187
-0.014117
-0.075880
-0.020525
0.099367
0.041090
-0.038347
-0.001258
0.038053
-0.014451
0.021496
-0.034403
-0.120312
0.114271
0.062238
0.099172
0.026373
0.106625
-0.013552
0.046438
-0.069751
0.015881
-0.080224
0.083231
0.018295
-0.062773
-0.112143
-0.065876
-0.035987
0.031045
-0.107061
0.091547
0.137441
0.079150
0.041043
0.071177
0.025109
0.123259
0.149630
-0.059607
-0.023585
0.139897
0.018185
-0.054408
0.035018
0.004059
0.021099
0.039447
0.041193
-0.097681
0.022702
0.004501
-0.043685
-0.034610
-0.056899
0.024564
0.157359
0.011004
-0.076619
0.090414
-0.027957
0.166940
-0.005036
0.095581
0.059247
-0.013025
-0.014407
-0.061923
0.004024
-0.034544
-0.038237
-0.063022
-0.019721
0.086211
-0.028487
-0.076745
0.041279
-0.099819
0.057193
0.018793
-0.003244
-0.071623
-0.069712
0.003787
0.001448
0.029006
0.058247
0.060765
0.037924
0.042789
-0.024824
0.014838
0.031407
0.060682
0.016588
0.115995
-0.008983
-0.059286
-0.051630
-0.073805
0.066441
0.012855
-0.013166
-0.130451
-0.032221
0.014051
-0.100815
0.104192
-0.081641
-0.029023
-0.108236
0.030090
0.002078
0.002958
0.013570
-0.034467
-0.127483
-0.107949
-0.033242
0.060355
0.040811
-0.033263
-0.015551
-0.022899
-0.179862
0.070230
-0.011247
0.127875
-0.062551
0.007893
-0.064802
0.115842
-0.046614
-0.073820
-0.007972
0.071792
-0.055631
-0.010486
-0.061669
0.026735
0.020683
-0.027291
-0.014142
-0.021483
0.041346
-0.062124
0.003595
0.053188
-0.020667
-0.045562
0.036451
0.028460
-0.041830
0.110076
0.096948
0.036911
0.116221
0.001355
-0.017989
-0.128676
-0.093870
0.044478
-0.040713
-0.006958
-0.065862
0.067279
0.057691
-0.026407
-0.022911
-0.026223
-0.029741
0.103927
-0.127685
0.016406
-0.083707
0.093736
-0.015947
0.063512
-0.064038
-0.042626
-0.006247
-0.040483
-0.060856
-0.041934
-0.082632
0.000790
-0.043795
0.048526
0.047068
-0.012104
0.043784
0.052540
-0.002482
0.132512
-0.112016
0.018052
0.046077
-0.038745
0.050146
-0.065161
0.079326
0.089488
0.036784
-0.005051
-0.059923
0.046475
-0.072115
0.046792
-0.056368
-0.066596
-0.011411
-0.076472
-0.051128
0.080588
0.089498
0.030194
0.046950
-0.020587
-0.006721
-0.052488
-0.012494
0.003135
0.007284
-0.025820
0.066500
0.088890
0.028349
-0.042061
-0.041384
0.081183
0.045856
-0.062059
0.012999
0.100433
-0.037189
0.084941
-0.083548
-0.020429
-0.088220
-0.012194
0.026881
0.054362
0.066538
0.054285
0.011286
0.079971
0.126355
0.025192
-0.032290
-0.053146
0.039834
-0.084060
0.043074
0.087640
-0.021908
0.083388
0.064510
0.032125
0.030846
-0.014089
0.001219
-0.020392
-0.038743
-0.041779
-0.149168
-0.071337
-0.023398
0.058458
0.022332
0.022392
0.044766
-0.019528
0.114107
0.034108
0.063575
-0.070410
-0.037846
-0.062320
0.088509
-0.033317
-0.045279
-0.000450
-0.014629
0.049142
-0.055230
-0.088464
0.094936
-0.030105
0.042353
0.069793
-0.030031
-0.039597
0.008526
-0.106812
0.069257
-0.016342
0.037356
-0.024177
0.027001
-0.018325
0.123261
-0.029970
0.059270
0.038708
-0.051409
0.055163
0.038558
-0.050095
-0.011151
-0.024903
-0.013756
-0.038410
-0.015205
0.052144
0.095790
0.011279
-0.039878
-0.062794
0.019164
-0.004768
0.067891
-0.027302
-0.087882
-0.042364
0.025548
0.014000
-0.004586
-0.043913
-0.049298
0.082188
0.046165
0.017638
-0.059248
0.036618
-0.007548
0.033381
0.000318
-0.015189
0.059312
-0.107831
-0.143796
0.016537
-0.091476
-0.041767
0.082344
-0.042934
-0.047119
0.020976
0.092889
0.082484
-0.112013
0.030882
0.051806
0.048159
0.089056
0.031521
-0.030211
0.122119
-0.119928
-0.031640
0.046503
-0.073054
-0.036599
-0.030037
0.044456
0.091669
-0.082269
0.070956
-0.016308
-0.020847
0.083415
0.054137
0.045373
-0.016998
0.043155
0.088621
0.076555
-0.038456
-0.093068
0.031189
0.009049
-0.032767
0.096798
-0.028238
-0.012148
0.055438
0.065773
-0.013337
-0.049394
-0.031773
-0.096360
0.025694
-0.117778
0.079406
0.007107
-0.018207
-0.069743
-0.070125
0.035452
-0.034108
0.073648
-0.117460
0.000332
0.056513
-0.094510
0.016809
-0.032068
0.097909
-0.005153
-0.060415
-0.000442
0.025928
-0.086498
0.100260
0.023420
-0.047970
0.100490
-0.091317
-0.040702
0.026876
-0.066341
0.059298
-0.027981
0.019594
0.058353
0.079603
-0.049891
0.023134
-0.092098
-0.056507
-0.121310
0.000328
-0.076070
-0.124568
0.098765
-0.103842
-0.030796
-0.107052
0.102295
0.110006
0.072776
-0.057893
-0.044352
0.033007
0.011119
-0.034754
0.021350
-0.015285
-0.094206
0.013374
-0.024244
-0.020824
0.003925
-0.021782
0.012203
0.086417
0.050788
-0.038961
-0.090185
0.092236
0.011323
-0.013919
-0.125381
-0.003024
0.016441
0.129234
-0.063336
-0.023237
-0.026233
-0.040852
0.010052
-0.003330
0.034722
0.093871
0.121015
0.019209
-0.058783
0.055022
0.113161
-0.004637
-0.097615
-0.053699
0.000810
-0.029063
0.051062
-0.029066
0.083144
0.079374
0.116919
0.025818
0.024976
-0.105491
-0.120343
0.008308
0.084191
-0.031586
-0.116261
0.083033
-0.016992
0.019698
0.044632
-0.049723
0.089152
-0.078914
0.064694
0.037109
0.153290
0.007851
0.061010
0.105936
0.029153
-0.040742
-0.060433
0.015112
-0.043776
-0.038720
-0.050006
-0.032363
-0.089455
-0.133370
-0.061415
-0.018852
-0.051925
-0.037489
-0.110284
0.031392
-0.126789
-0.251824
0.059612
-0.022512
-0.055619
-0.018121
-0.021798
0.001981
0.095131
-0.072179
0.003975
0.031199
-0.079353
-0.108213
-0.032826
-0.005025
0.108667
0.078945
-0.027746
-0.003125
0.124033
0.027657
0.101844
-0.013322
-0.035648
-0.007410
0.084350
-0.064940
0.018324
-0.032102
0.008936
-0.042320
0.003283
-0.062415
-0.090269
-0.065821
-0.035852
0.098197
-0.085444
-0.089624
-0.002608
-0.079759
-0.031294
0.078319
-0.035843
0.014921
0.044173
0.110742
0.061878
0.074771
-0.018250
0.079028
0.058369
-0.093864
0.060782
-0.025908
-0.073595
0.070636
0.029495
0.030951
-0.045530
-0.019646
0.070124
0.083036
-0.011775
0.030218
0.091483
-0.030178
-0.005271
0.092434
-0.052076
0.053051
0.076746
0.082170
-0.130135
0.013118
-0.064244
-0.049967
-0.086581
0.059041
-0.011780
0.078855
0.010708
-0.005611
0.023271
-0.031738
0.106918
0.096262
0.081259
-0.064313
0.107031
0.002801
0.064652
0.013339
-0.096378
-0.000042
-0.003854
0.100082
-0.007838
-0.059101
-0.041643
-0.017505
0.049384
-0.072777
-0.008802
-0.011425
0.068522
-0.121235
0.071645
0.005779
-0.032267
-0.174901
0.067806
-0.022202
-0.137529
-0.050112
-0.071439
0.063294
-0.040268
-0.049515
-0.057027
0.016359
-0.011346
0.043996
-0.164554
-0.033640
-0.002944
-0.150317
-0.050710
0.008818
-0.129768
0.048094
-0.141213
-0.050660
-0.002060
-0.114481
-0.053294
0.016662
-0.048145
0.067588
0.061923
-0.025927
0.045565
-0.003963
0.043362
-0.143352
-0.032625
-0.132771
-0.125295
-0.118210
-0.023553
-0.053377
0.071468
0.117999
0.010478
0.016745
0.001465
0.022225
-0.167769
0.016971
0.170791
-0.051108
-0.102398
-0.057989
-0.064400
-0.122757
-0.063271
-0.104841
0.046035
0.047904
-0.110492
0.041580
0.156858
0.019360
-0.015442
-0.051432
-0.004210
0.003308
-0.034680
-0.003153
-0.109594
-0.102139
-0.019531
-0.093093
-0.037195
0.045474
-0.034266
-0.035258
0.020662
-0.028303
0.050291
0.053353
0.022324
-0.062313
0.013630
-0.091820
-0.029199
0.020593
-0.055532
-0.000337
0.077101
0.008475
0.066544
0.089607
0.069664
0.053604
0.094791
0.027165
0.060770
-0.006721
0.028504
0.031324
-0.038158
-0.121351
0.002743
-0.132452
0.030969
0.031025
0.057025
-0.095378
0.109035
-0.055649
0.073750
0.039158
0.020889
-0.032843
0.042479
-0.027427
-0.005878
-0.042588
-0.146714
0.091840
-0.013078
-0.084811
-0.077953
0.066563
0.001450
-0.004325
-0.028449
0.092583
-0.089234
-0.036248
-0.065881
0.010051
-0.081713
-0.108706
0.005388
0.068701
-0.088980
0.054146
-0.120462
0.020954
0.052794
-0.030867
-0.082165
0.053482
-0.014687
0.084521
-0.071693
-0.178480
0.029861
0.005304
-0.038153
0.066120
-0.103922
0.090903
0.026715
-0.008688
-0.061337
-0.001418
-0.045034
-0.016474
-0.046209
0.001023
-0.052587
0.051438
-0.065996
-0.099178
-0.134492
0.058322
-0.037375
0.009686
-0.023751
-0.045788
0.039320
0.064558
0.048894
-0.013541
-0.077539
0.042186
0.083315
-0.014129
0.030124
-0.028963
-0.013301
0.027081
-0.065363
-0.053346
0.061170
-0.001938
0.090010
-0.077934
-0.033560
0.026513
0.059280
-0.033514
0.070061
-0.061289
0.076329
-0.157229
-0.024078
0.083328
0.019527
-0.026959
-0.050437
0.000714
0.111570
-0.003719
0.025614
0.016774
-0.070156
-0.083339
0.059262
-0.068927
0.013286
0.026199
0.051009
-0.055298
0.083238
-0.096109
0.008111
0.025602
0.001238
-0.107153
-0.074075
-0.037909
0.211058
0.035539
-0.031363
0.055022
0.012520
0.114902
0.133071
-0.050491
0.070535
-0.060340
0.101555
-0.124069
-0.027345
-0.049867
-0.040301
0.034079
0.008545
0.074511
-0.043373
-0.088864
-0.037391
-0.053598
0.052171
-0.108464
-0.001126
-0.060686
-0.033957
-0.058941
0.069437
0.068246
-0.036088
-0.029956
0.101254
-0.014959
-0.045737
-0.050044
-0.006426
0.029498
-0.005320
-0.005273
-0.054050
-0.032200
-0.169724
0.064014
-0.057091
0.056521
0.075101
-0.027307
0.101151
-0.072141
0.051392
-0.187791
-0.016750
0.049816
0.028645
-0.057947
0.046078
0.018509
-0.003156
0.057435
-0.007187
-0.026771
0.097568
0.015001
0.051703
-0.066031
-0.095761
-0.104406
0.013779
-0.038147
0.051442
-0.134861
-0.007476
0.039560
-0.025899
-0.062437
0.011714
-0.005992
-0.035624
0.074863
0.052369
0.001236
0.081036
0.076962
-0.057278
0.025095
-0.089559
0.059881
-0.116837
-0.088917
-0.016006
0.040794
-0.116348
-0.067332
-0.111838
0.146450
0.025572
0.040805
0.073918
-0.023586
-0.035486
0.060720
-0.090205
0.018817
-0.015202
-0.066735
0.006613
-0.027627
0.032450
-0.079220
0.063627
-0.008356
0.092339
0.019129
0.089665
-0.048749
-0.118485
-0.020138
-0.145424
0.098735
-0.032882
-0.082447
0.018943
-0.032792
-0.110948
0.010396
-0.068888
-0.049391
0.148047
-0.084106
0.024521
0.086402
-0.038503
-0.003540
0.051070
0.071894
0.117517
-0.008299
-0.024595
-0.078738
-0.071762
-0.013096
0.029151
-0.076714
-0.056578
0.131077
0.106873
-0.008370
0.022637
-0.055980
0.001280
-0.065510
-0.022445
0.105174
-0.050852
-0.104187
0.044673
-0.012915
0.129246
-0.015279
-0.020658
-0.051821
0.004742
-0.009407
-0.098172
0.039141
0.011256
0.042930
0.003421
-0.062886
0.007084
0.070783
0.067984
-0.067508
-0.006686
0.021000
-0.001769
-0.040448
-0.103708
-0.000702
0.062848
-0.009974
0.080792
0.039746
-0.027812
0.099803
0.076349
-0.035704
0.030253
0.047028
-0.004366
0.016298
-0.049619
0.084661
-0.077125
0.027731
-0.140737
-0.037358
0.117046
0.046294
-0.047867
0.024444
-0.012420
0.092707
-0.059557
-0.027842
0.020461
0.072615
0.087461
0.101392
0.104905
0.131644
-0.013442
0.028809
0.043443
-0.066563
-0.094472
-0.101190
0.020854
0.075026
0.096619
-0.124137
-0.026316
0.025770
-0.076940
0.073823
-0.034505
-0.063545
-0.086445
-0.003163
0.025102
0.095578
-0.018587
-0.040494
0.046035
-0.117345
-0.012795
0.012578
-0.057258
-0.038043
0.033163
-0.165586
-0.080214
-0.035743
-0.023072
0.048587
0.033646
-0.049916
0.034541
-0.120009
0.065399
-0.101869
-0.007548
0.071845
0.056747
0.045768
-0.025339
0.048290
-0.017831
-0.061443
0.020996
0.119374
0.048174
0.041206
-0.149330
-0.115904
-0.006827
-0.060593
0.029629
-0.048544
-0.078066
0.026260
-0.012355
-0.026958
0.005361
-0.083177
0.066789
-0.043209
-0.070484
-0.063435
0.007575
-0.083564
-0.030406
-0.005971
0.004256
0.030570
0.114135
-0.008452
0.028441
0.034417
-0.071598
-0.095118
-0.085259
-0.041164
0.037419
0.069277
-0.044187
-0.066711
-0.079312
-0.074339
-0.142789
-0.060144
0.051296
0.003150
0.024175
-0.121466
0.091257
-0.001308
-0.063995
0.065718
0.005928
-0.126923
0.052438
-0.160738
-0.117587
0.133559
0.055966
0.069204
-0.095712
-0.120597
0.093571
-0.047132
-0.046457
0.041926
-0.011541
-0.049544
0.016618
-0.191820
0.056203
0.139326
0.078707
-0.028162
-0.020029
-0.254438
0.010518
-0.047037
0.054037
-0.073409
0.042006
0.069034
-0.102931
0.025815
-0.005891
0.072763
-0.064468
0.055137
0.093237
-0.113653
0.008190
0.063525
-0.013098
0.104206
0.020928
-0.076303
0.001306
-0.017351
0.022189
-0.085350
-0.058899
-0.071006
-0.099127
0.002327
-0.085330
0.071870
-0.112327
-0.056370
0.059946
-0.086577
-0.046921
-0.097132
-0.000462
-0.029436
-0.088496
-0.088193
-0.017457
-0.094535
0.122604
0.034211
-0.038049
0.051347
0.096133
-0.118823
0.042762
0.117378
0.113426
-0.041310
-0.075978
0.038245
-0.017383
-0.067732
0.012157
-0.073416
0.005158
0.080561
0.111294
-0.022668
0.087717
-0.142388
-0.073652
-0.021009
0.085030
-0.062437
-0.114289
-0.080074
-0.087119
-0.150006
-0.031873
-0.033460
-0.006066
0.094296
-0.000920
0.016018
-0.097208
-0.037133
0.016330
-0.040650
-0.045592
-0.072854
0.068385
-0.014768
-0.095961
0.069167
0.098265
0.048584
0.031235
0.080082
0.092536
-0.062997
-0.000067
-0.049486
0.007898
0.013025
0.056044
0.125209
-0.038710
0.059142
0.047044
-0.011854
-0.038933
0.051442
0.032164
0.055468
0.066074
0.015289
-0.037061
0.017108
-0.007512
0.035221
-0.114511
0.056488
-0.058096
0.069531
-0.098951
0.076974
-0.101469
-0.004370
0.102425
-0.022514
0.020639
0.142235
0.013952
0.083972
0.040085
0.022202
0.079135
0.065315
-0.025548
0.067880
0.006408
0.028090
0.006180
0.058234
-0.090672
-0.113878
0.013856
0.020890
-0.007590
-0.039770
-0.003895
0.036686
0.004610
-0.045517
0.040109
-0.010167
-0.078896
0.038180
-0.032885
0.086225
-0.027910
-0.019809
0.017765
-0.019027
0.060442
-0.013453
0.007920
0.115668
0.091984
0.025552
-0.073730
-0.009489
0.082629
0.027485
-0.078362
0.048924
0.070352
-0.012784
-0.047816
-0.069777
0.037981
0.045022
0.006173
-0.114927
0.001221
-0.009813
0.081936
0.087513
0.029829
0.018291
0.083896
0.066239
0.033757
-0.030540
0.106582
-0.001744
-0.122824
-0.033770
0.083976
0.051205
-0.154159
-0.098243
0.030115
-0.042369
-0.022186
-0.009143
0.047288
-0.044527
0.035608
-0.165487
0.003612
-0.087204
0.010089
-0.040261
-0.034303
-0.024028
0.135183
0.009435
-0.022725
-0.024667
-0.032759
0.087418
0.092982
0.107851
0.028385
-0.156751
0.034520
-0.107093
0.009588
0.014062
-0.085916
0.069624
0.048064
0.024870
-0.067866
-0.055183
0.033259
-0.023753
-0.127249
-0.041590
0.012751
-0.058021
0.050758
0.061385
-0.007786
-0.073458
-0.086647
-0.033407
-0.062787
-0.104024
0.080874
-0.054053
-0.086783
0.048867
0.067123
-0.041866
0.160580
0.055840
0.002593
0.066798
-0.100853
-0.096382
0.093904
0.027314
-0.068982
-0.000025
0.108833
-0.012072
0.048980
0.016360
-0.051328
0.029527
-0.068504
-0.071282
0.044034
0.033133
-0.088066
-0.059692
0.095807
0.004847
0.003540
-0.077119
0.101398
-0.002424
-0.055526
-0.032915
0.056671
-0.066877
-0.162110
0.040631
-0.124055
0.031452
0.073115
-0.056105
-0.038787
-0.050419
0.046779
-0.081693
-0.019578
-0.014263
-0.005961
0.054253
-0.052247
0.065315
-0.056477
-0.070853
0.076802
-0.066552
-0.089595
-0.043910
0.026045
0.043108
0.061205
-0.030182
0.076709
-0.020081
-0.035390
0.112555
0.001401
-0.097540
0.048650
0.014415
0.061544
0.037461
-0.131773
0.131713
0.042163
0.042055
-0.147395
-0.006517
0.085154
-0.047202
-0.007100
-0.073707
0.026330
-0.034559
0.087889
0.045255
0.150414
-0.045056
-0.088540
0.036376
0.158987
-0.010148
0.020075
0.052238
0.024670
0.055303
0.016499
0.003137
0.088987
0.017316
-0.135589
0.053609
0.022886
0.024798
-0.092859
0.071342
0.085057
-0.024943
0.026059
0.004398
-0.070530
-0.011582
-0.182122
0.090622
-0.014075
-0.078864
-0.103972
0.070541
0.089098
-0.008282
0.001792
0.028622
-0.073309
0.001826
0.012137
0.076774
-0.010088
-0.013819
-0.032748
-0.106538
-0.034428
-0.095483
-0.041713
-0.095390
-0.072090
0.082330
-0.075747
-0.022448
-0.065864
-0.148496
0.127836
0.020346
0.092629
-0.023348
0.114604
0.000566
0.003759
-0.018005
-0.016475
-0.070900
0.008259
-0.061356
-0.073132
0.013972
0.039581
0.090366
-0.053756
-0.016296
-0.036121
-0.044839
-0.040181
0.011305
-0.063381
0.010735
-0.069659
0.083132
-0.034467
-0.042004
0.009513
0.140249
0.039564
0.027747
0.022006
0.029153
-0.037734
0.012222
0.009525
-0.002276
0.047235
-0.037617
-0.045942
0.038150
0.085263
0.013650
-0.026350
-0.037246
-0.010060
-0.100245
0.042580
0.049733
-0.041163
0.047384
0.064961
-0.014416
0.025814
-0.178059
-0.016075
-0.008934
-0.050757
-0.046774
-0.020895
-0.159656
0.053611
0.062082
-0.104018
-0.107078
0.027523
0.015335
-0.030970
-0.065709
-0.188028
0.113823
0.062628
-0.001921
-0.067222
-0.071740
-0.023967
-0.001385
0.086400
-0.088391
0.076198
-0.070364
-0.043103
0.054423
-0.094893
-0.085292
-0.048530
0.085230
-0.045937
-0.065325
0.023543
0.044292
-0.011951
-0.034403
-0.000853
-0.100792
-0.049713
-0.029400
-0.044904
-0.110379
0.039918
0.053981
0.015379
0.062033
-0.046017
0.010087
-0.074296
-0.033890
-0.004030
0.008668
0.103455
0.072685
0.056909
-0.009098
-0.064788
-0.014974
-0.025714
-0.071140
0.021687
-0.037903
-0.046800
0.090146
-0.025443
0.099705
-0.023582
0.074600
-0.055694
0.014881
0.044228
0.012673
-0.034128
-0.005878
-0.060549
-0.105602
-0.047369
0.018180
0.101131
-0.055630
0.039459
-0.067618
0.035983
-0.047412
-0.135584
0.103053
-0.025950
-0.032624
-0.101825
-0.037809
-0.108085
0.081984
-0.135376
-0.052666
0.051952
0.085729
0.024662
-0.014315
0.091302
-0.007061
-0.032775
0.045647
0.031546
-0.036886
0.000056
0.095536
-0.061502
0.087228
0.010572
-0.006414
0.022053
-0.078592
0.084118
-0.014649
0.011355
-0.023407
-0.101078
-0.174359
-0.092524
0.092708
-0.057496
0.076905
-0.057059
-0.052477
0.030053
-0.047691
0.052834
-0.127032
0.022202
0.033684
0.004075
-0.059475
-0.019956
0.126985
-0.080310
-0.051355
0.077876
0.042161
0.051482
0.009462
-0.071976
0.000554
-0.020318
-0.021794
-0.040820
0.016402
-0.138336
-0.000852
0.068901
-0.001472
0.108294
0.035312
0.088757
0.064606
-0.062909
0.055703
0.116248
-0.007295
0.049815
-0.058851
0.037245
-0.008099
-0.008286
-0.025278
0.006102
-0.019729
-0.020015
-0.039502
-0.072533
0.059294
0.090587
-0.058274
-0.063728
0.065864
0.018602
-0.012736
0.000581
0.003033
0.091358
0.014894
-0.079472
0.111059
-0.025812
-0.026180
0.068817
-0.095793
-0.108867
0.088809
0.003819
-0.040359
0.085735
-0.014551
0.072414
0.086700
-0.023488
0.042803
-0.000221
0.066434
0.066963
0.014871
0.049850
0.025118
-0.038315
0.029929
0.054966
0.113536
-0.015426
0.018796
-0.087341
-0.082070
0.019522
-0.130700
0.053774
-0.022989
-0.010662
0.028927
-0.002950
-0.079906
0.038436
0.011415
-0.076583
-0.011677
-0.011884
-0.130476
-0.014189
0.095403
-0.042291
-0.047518
-0.087069
-0.006932
0.094840
-0.160789
-0.019215
-0.028418
0.085176
0.032784
-0.087930
0.089867
0.047157
0.033154
-0.025838
-0.098894
-0.105961
0.022859
-0.094216
0.136495
-0.000578
0.017629
0.110758
-0.013812
0.026310
0.050811
-0.043399
0.007683
-0.028280
-0.008791
0.077837
-0.075599
0.087660
0.004192
-0.037966
0.066297
0.044317
0.049544
0.038773
-0.127229
0.000374
0.023747
-0.080052
0.011646
0.068400
0.026366
-0.012574
0.046218
-0.074673
0.121034
-0.103040
0.070997
0.092861
-0.034113
-0.109776
0.019670
0.056807
0.071032
-0.024644
0.207767
-0.012676
0.001152
-0.005074
-0.053327
0.062356
0.066260
0.063372
-0.001660
0.022203
-0.044883
0.081056
0.060809
-0.047511
0.024437
-0.042476
0.100403
0.044528
-0.026389
0.139805
-0.011157
0.042344
-0.069700
-0.006015
-0.034737
-0.044153
0.034517
-0.063733
-0.015771
0.003146
-0.071361
0.069792
-0.052572
-0.085070
0.027287
0.101482
-0.018906
-0.014039
0.076625
0.100236
-0.023235
-0.158462
0.140753
0.094518
-0.006308
-0.001378
-0.094095
-0.067854
-0.052743
-0.090480
-0.050656
0.020664
-0.051319
-0.066952
-0.046814
0.036602
-0.077290
-0.027951
0.040313
-0.022165
0.013424
0.081100
0.105291
-0.035944
-0.076755
-0.025726
-0.064022
-0.067808
-0.025608
-0.049056
-0.103362
-0.067023
-0.131517
0.013672
-0.025733
-0.033617
-0.073369
-0.075732
-0.038434
-0.000907
0.031921
-0.116471
-0.012840
0.070529
0.000355
-0.013737
0.073102
0.057744
0.050265
0.013310
0.101198
-0.012517
-0.004621
0.017340
-0.018395
-0.096027
-0.094672
0.089275
0.125133
-0.047650
-0.069203
0.061999
0.012203
-0.033180
-0.038664
-0.105332
-0.029725
-0.060706
-0.042236
-0.004744
-0.099452
0.081203
0.049955
-0.034417
-0.052939
-0.045493
-0.019812
-0.009284
-0.032861
0.047158
0.001101
0.084381
0.022291
-0.036580
0.030921
-0.075963
0.143441
-0.038647
0.007853
0.002271
0.072511
-0.062165
0.005053
0.001482
-0.019485
-0.033936
0.049472
0.019983
0.095334
-0.060512
0.111027
-0.040749
0.080978
0.039822
0.017572
-0.027162
0.062300
0.032241
-0.128216
0.070508
0.055022
-0.016355
-0.080466
-0.028223
0.061470
0.073096
0.000481
0.121114
0.127772
0.008541
0.098690
-0.112204
-0.054014
-0.020673
0.142645
-0.083805
-0.106521
0.084119
-0.119966
-0.000115
-0.097156
-0.030417
-0.138417
-0.036053
0.064927
0.053994
0.002072
-0.071491
-0.163724
-0.085965
0.088478
0.000052
0.054792
0.061088
-0.112295
0.038021
-0.094026
-0.029572
-0.034113
0.020513
0.118368
0.084461
0.121186
0.059393
-0.089769
-0.073712
-0.097744
0.039123
0.033270
-0.021464
0.047115
-0.019805
-0.077044
0.069510
-0.016629
-0.150007
-0.089126
0.071106
0.121867
-0.024096
-0.002826
-0.085921
0.131087
0.086917
-0.086595
0.080339
-0.031081
-0.051771
-0.097455
-0.093484
-0.091071
-0.045614
0.082220
0.171308
0.047689
-0.092807
-0.013176
-0.007896
-0.038963
-0.115723
0.111370
-0.094221
-0.069161
-0.104287
-0.035101
-0.007839
-0.056360
-0.040998
0.040008
-0.012553
-0.077817
0.016597
-0.028281
0.023327
-0.008628
-0.062062
0.060854
0.095877
0.091679
0.003801
-0.092556
0.020574
-0.088440
-0.086220
0.094699
0.060461
-0.017027
0.087892
0.011484
-0.026932
0.080277
-0.103662
-0.003545
0.006515
0.040875
0.054495
0.042878
-0.076689
0.049843
-0.017184
0.093847
0.043305
-0.006467
-0.103896
0.071342
0.030988
-0.021512
-0.093742
0.006666
0.004037
-0.030458
-0.088831
0.037889
-0.051699
0.034121
0.007065
0.001455
0.039727
-0.061329
-0.037571
-0.028191
0.051134
0.056096
-0.100411
0.067626
-0.073290
0.026043
0.033965
0.029665
0.018313
-0.016623
-0.063215
-0.136535
-0.121249
-0.035784
0.053671
0.046167
-0.017073
0.041566
-0.025961
-0.075436
0.078878
-0.056478
0.071188
0.040828
-0.034815
0.084422
-0.030426
-0.011432
-0.080861
0.078388
-0.011213
-0.146143
-0.064959
0.035490
0.019401
-0.070564
-0.087801
0.081444
-0.093894
0.024859
0.016129
-0.025557
0.039791
-0.031804
-0.072432
0.019251
-0.011480
-0.060281
-0.047169
0.035064
0.062451
0.029710
-0.001474
-0.013624
0.006350
-0.057965
-0.024982
0.059450
0.000973
0.008946
-0.012752
0.055543
-0.065914
-0.152414
-0.030081
0.074673
-0.092620
-0.092768
-0.046175
-0.012765
0.047612
-0.053840
0.015141
-0.038736
-0.008582
0.060500
-0.091291
-0.064518
0.142814
0.062800
-0.074829
-0.071716
-0.061036
0.070901
0.104364
0.085050
0.005799
0.056481
0.018816
-0.046582
-0.061096
-0.012346
0.042026
-0.101430
-0.073376
-0.042370
-0.089238
-0.056818
-0.096767
-0.058091
-0.058951
-0.058416
0.040291
-0.043925
0.110949
0.046181
0.006412
0.049352
-0.008316
0.021772
0.061083
-0.076239
-0.023845
0.039463
-0.047155
-0.006206
-0.040027
0.009163
0.034572
-0.074068
-0.125224
-0.010012
0.060630
-0.010711
0.048984
-0.091043
0.037728
0.079041
0.026274
-0.103180
0.045038
-0.078548
0.052284
-0.088446
-0.049349
-0.073183
0.019419
0.087608
-0.033612
-0.016404
-0.079504
0.087925
-0.057268
-0.040798
-0.075240
0.002248
0.068614
0.039508
0.033913
-0.018383
-0.053394
-0.081186
0.037573
0.074797
-0.074806
-0.052480
0.008076
-0.095162
-0.063592
0.018255
-0.096093
0.039281
-0.077741
-0.110211
-0.058740
0.118722
0.021964
-0.100184
-0.042605
-0.023832
0.041503
0.014045
-0.067478
-0.025556
-0.099615
0.016668
0.033509
-0.015680
-0.057023
-0.013922
-0.060250
0.006141
-0.085885
-0.066869
-0.073922
0.003797
0.091096
0.103627
-0.087755
-0.007501
-0.181434
0.006835
-0.087581
0.018511
0.024684
-0.015532
0.068169
0.034340
-0.062976
-0.010117
0.053901
-0.042605
-0.060782
0.094686
-0.034294
-0.008236
-0.046786
0.131204
-0.049307
0.072064
-0.097721
0.030703
0.063964
0.072575
0.023552
-0.004355
0.041900
0.052631
0.063546
0.040658
0.078146
0.121084
-0.033394
-0.027138
-0.029892
0.018199
-0.052753
0.089024
-0.102755
0.032494
-0.073496
-0.078295
0.164172
0.001302
-0.048630
-0.064617
-0.013236
0.008004
0.139908
0.008869
-0.037183
-0.009752
0.121053
0.023940
0.009233
0.076492
0.111251
0.037132
-0.060796
0.031279
-0.015122
0.044270
0.138900
0.020822
-0.062704
-0.067904
0.037857
0.009686
0.025509
0.000412
-0.108710
-0.032244
-0.082741
-0.032502
-0.095437
-0.093194
0.038875
0.036274
0.004301
0.000561
0.140314
0.042140
-0.100412
0.009704
-0.050351
0.040207
0.032746
0.049742
0.012248
-0.058162
0.033429
-0.028718
-0.047626
0.042231
0.115400
-0.068606
-0.046427
0.027132
-0.078108
0.060327
-0.033176
0.067914
-0.084195
-0.013239
-0.070896
-0.036967
0.086454
0.038364
0.045222
-0.028334
0.104848
0.036695
0.068857
-0.102383
-0.125574
-0.003196
0.126661
0.000128
0.021845
0.014765
0.061898
0.064346
-0.085493
0.012030
0.052415
0.017523
0.039193
-0.040650
0.004871
0.021399
-0.049456
0.004593
0.046495
0.002206
-0.120760
0.050592
-0.026717
-0.000025
-0.137593
0.119047
-0.093241
-0.017089
0.025577
-0.078144
0.001510
-0.099679
-0.090112
-0.044934
0.002726
0.052474
-0.064724
0.077546
0.098985
-0.037792
-0.024813
-0.047747
0.036730
-0.089333
-0.005146
0.060193
0.005185
-0.069136
-0.100479
-0.042579
-0.074526
0.019079
0.019209
-0.003248
0.041827
-0.077916
0.056403
-0.069985
0.091316
0.082849
-0.035116
-0.019888
-0.035384
-0.053592
-0.046227
-0.048104
-0.069179
-0.081838
0.012118
0.027952
0.002053
-0.062127
-0.039977
-0.001553
0.082585
0.013272
0.143810
-0.059708
-0.060511
0.052800
0.029820
-0.074152
-0.052305
-0.024558
-0.009627
0.007440
-0.007445
-0.043044
-0.057890
-0.064586
-0.007422
-0.055248
-0.060466
0.076724
0.015311
0.056218
-0.115683
0.072142
-0.146851
-0.088833
0.055178
-0.049324
-0.007472
-0.049162
0.063686
-0.008296
0.035184
0.023405
0.061756
0.020598
-0.006469
0.119490
0.118693
-0.054539
-0.056708
0.009170
-0.012484
0.116336
0.042684
-0.016555
0.081982
0.020433
-0.045497
-0.057388
0.060839
0.054894
0.076179
-0.092579
-0.028055
0.142754
0.100761
0.097422
-0.073237
0.049915
0.089636
-0.014166
-0.009541
0.016345
0.037393
0.016701
0.093696
-0.018920
0.040260
0.022724
0.063099
-0.021106
-0.033037
-0.054759
-0.112263
-0.037339
-0.073736
-0.011021
0.008783
0.035989
-0.106326
0.042709
0.024895
0.089873
0.092521
0.073892
0.094728
-0.004777
0.026222
-0.083370
-0.035581
-0.075428
-0.005907
-0.042806
0.038015
-0.094645
-0.100680
-0.078657
-0.101189
0.135287
0.020210
0.094414
-0.002190
0.056014
-0.079036
0.084543
0.012957
-0.027598
-0.239170
-0.096912
-0.002981
-0.026906
-0.105656
-0.079013
-0.080462
0.005835
0.016469
0.035710
0.040268
0.064904
-0.002415
-0.141107
0.116378
0.046881
0.133947
-0.140959
-0.000880
-0.198923
0.042985
-0.048751
0.068467
0.024480
-0.094497
0.075786
0.045374
-0.019209
0.042359
0.081217
-0.065686
0.099969
0.051998
0.076459
-0.087402
-0.034007
-0.029542
-0.085768
0.028084
-0.046372
0.026461
-0.097811
-0.051378
-0.101627
0.070984
0.026446
-0.074764
0.007169
-0.084642
-0.094434
-0.065208
-0.023264
-0.039047
-0.077868
-0.053475
-0.015088
-0.041007
0.088472
-0.049048
0.014995
-0.012533
-0.002633
-0.017370
-0.005045
0.068867
-0.022445
0.007209
-0.173683
0.006720
-0.045695
0.138795
0.054974
-0.002392
0.040981
0.085381
-0.018056
-0.109724
0.020254
0.000731
0.099570
-0.099759
0.052800
-0.015720
-0.026203
-0.062085
-0.109990
-0.088989
-0.057598
-0.010181
-0.012440
-0.120562
-0.074344
0.068170
0.003440
0.084173
-0.029476
-0.025136
-0.035618
0.022934
0.018267
0.064639
-0.135515
-0.133543
-0.081206
-0.111513
-0.051356
-0.082687
0.039064
-0.063412
-0.079276
-0.111785
-0.119987
-0.021657
-0.123029
-0.062299
-0.081603
-0.083126
0.032919
-0.058281
-0.002750
-0.048396
0.050412
-0.020601
0.081007
-0.027835
-0.000659
-0.027543
0.118206
0.065996
0.079593
-0.015853
-0.109670
-0.062645
0.036011
0.024001
0.013303
-0.016991
0.086642
-0.034576
0.060823
-0.088508
0.053335
-0.078829
0.102042
-0.026003
0.067453
0.098389
-0.037022
-0.031070
0.033399
-0.077986
0.032656
-0.112367
0.004458
-0.010528
-0.025559
-0.088295
-0.112797
0.003154
-0.057509
0.062558
-0.024284
-0.026194
-0.054624
0.034199
0.018610
-0.071784
0.006152
0.072612
0.071520
-0.074548
0.013009
0.006664
-0.088508
0.002644
0.054260
0.015347
-0.118961
-0.058830
-0.146820
0.001438
-0.018837
-0.010732
0.019113
-0.049840
0.074681
-0.055250
-0.023320
-0.046745
0.038742
-0.063084
-0.062403
0.030637
-0.037548
0.039429
0.083641
-0.069046
-0.054794
-0.088267
0.028131
-0.083204
-0.088905
0.059673
0.047945
0.118235
0.031457
-0.045183
-0.045057
-0.046964
0.108269
-0.043567
0.004180
0.069166
0.079090
0.002552
0.062655
-0.014206
0.085795
0.005306
-0.059046
-0.050744
-0.098987
0.000608
-0.093279
0.003097
0.044634
0.034495
-0.069423
-0.022409
-0.017955
-0.091850
-0.072394
-0.041859
-0.117927
0.056654
-0.087518
0.033188
-0.006221
-0.020527
0.023719
-0.056702
-0.083471
0.004989
0.026041
-0.039070
-0.083655
0.025809
0.000912
-0.126052
-0.060267
-0.020579
-0.006557
0.023163
0.033255
0.068833
-0.017865
-0.000215
0.024829
0.103047
-0.134048
0.017646
-0.088289
-0.001513
-0.003305
0.047924
0.043233
0.017127
0.042762
0.058696
0.078447
0.005619
0.041146
-0.035256
-0.058918
0.007101
-0.013601
-0.074872
0.019859
0.034871
-0.032209
0.074573
-0.077378
0.022110
0.106462
-0.116532
-0.006805
-0.035872
0.074939
0.003161
0.035379
-0.033743
-0.027615
-0.043870
-0.154386
-0.067010
-0.058093
-0.015774
-0.081404
-0.028924
-0.089292
-0.080139
-0.077377
0.027911
0.141515
0.026132
-0.172876
-0.053040
-0.071104
0.068660
0.049134
0.064293
0.120527
-0.060280
0.064833
-0.044631
0.060569
-0.049292
0.034801
0.003431
0.002564
0.087258
-0.002614
0.147829
0.026906
-0.076302
0.142357
-0.028296
0.053083
0.011143
-0.060135
0.037376
0.111595
-0.048472
-0.110079
-0.012600
-0.014365
-0.068068
0.094598
0.012365
0.072323
-0.071135
0.022752
0.028277
-0.085624
0.002047
-0.100232
0.025839
0.038259
-0.045521
-0.145360
0.060400
-0.100535
-0.009867
-0.011126
-0.015302
-0.039268
-0.060861
-0.092460
-0.024756
0.059473
-0.026820
0.037591
0.080265
-0.043559
0.050116
0.049096
-0.009652
-0.027309
0.070988
0.033535
-0.016306
-0.008093
0.054082
-0.021003
-0.018320
0.017445
-0.002795
-0.120193
0.042325
-0.039624
0.079839
-0.099425
0.070103
0.087208
-0.098442
0.018248
-0.035529
-0.063455
0.012663
-0.025249
-0.053706
-0.010213
0.119341
0.049497
0.036413
-0.008879
-0.017969
0.044315
0.122190
0.164203
0.014144
-0.091986
-0.052328
0.052042
-0.051081
0.003261
-0.004024
0.109008
-0.048661
-0.040679
-0.056607
0.037951
-0.105980
0.120450
-0.018651
0.025391
0.096311
0.031643
0.040039
0.093957
-0.018752
-0.104097
-0.041464
-0.004981
-0.067878
-0.161708
-0.026053
-0.003821
0.099014
-0.054483
-0.054722
0.029830
0.058821
0.051885
-0.088546
-0.043210
-0.055422
0.040120
-0.100009
0.063979
0.027191
-0.073552
0.019013
-0.042639
0.091322
0.103656
0.018250
-0.092505
0.135861
-0.174518
0.063592
-0.004130
-0.076778
-0.074155
-0.038212
0.112376
0.047775
-0.082361
0.038484
-0.043601
-0.007796
-0.103037
0.060186
-0.110444
-0.007208
-0.029264
-0.111351
-0.014652
-0.014423
0.068150
0.138306
-0.071158
-0.114576
0.034631
0.096114
-0.082535
0.033836
-0.099764
-0.077206
-0.051227
-0.144963
-0.062453
0.022223
-0.051897
-0.045118
0.014024
0.040264
-0.024997
0.002404
0.101650
0.020912
-0.196692
0.065001
0.099043
0.015482
0.054831
-0.082018
-0.027360
-0.096934
-0.029376
-0.038607
-0.079240
0.031914
-0.067621
-0.021223
0.016431
-0.106202
-0.138110
-0.064950
0.008240
-0.028953
-0.089842
-0.015430
-0.048823
-0.032401
-0.092252
-0.001677
0.067039
-0.072635
-0.084327
0.050700
-0.023152
0.074292
0.016680
-0.006755
-0.025831
0.015166
-0.094813
-0.057224
-0.009813
-0.091729
0.110666
0.017081
-0.032688
-0.000819
-0.170364
-0.009547
0.060815
0.022812
0.026556
-0.067058
-0.116125
0.052898
-0.031093
-0.005917
-0.017613
0.068319
0.089312
-0.065570
-0.050375
-0.153824
-0.005280
0.088308
-0.116553
-0.115724
-0.068436
-0.136524
0.009101
0.075115
0.071869
-0.044656
-0.131971
0.074275
-0.076837
0.077971
0.118170
0.110258
0.087826
0.032435
-0.086154
0.044093
0.032568
-0.081186
0.105953
0.004716
-0.127714
0.047379
0.052038
0.118958
-0.051261
0.019955
-0.004990
-0.050409
0.040623
-0.064708
-0.077437
-0.016015
0.058124
0.191385
-0.020068
0.043853
-0.054126
0.077749
0.097729
-0.014687
-0.054701
-0.089480
0.020072
0.027467
-0.104458
0.093417
-0.002952
0.036221
0.080605
0.107917
-0.079506
-0.025642
0.024702
-0.087522
0.059456
0.062796
0.011422
-0.072108
0.035150
-0.103746
0.014333
-0.001140
-0.025152
0.058613
0.029062
0.060680
0.019737
-0.014359
0.041462
-0.057308
-0.013660
0.034806
-0.035995
0.029417
0.078586
-0.015862
-0.013513
0.088956
-0.053386
-0.041979
0.069068
-0.000851
-0.115214
0.066915
0.010310
-0.052760
0.019108
0.060821
0.120181
-0.055833
-0.008071
-0.095120
0.088523
-0.116206
-0.063836
-0.055690
0.092493
0.080394
-0.050796
-0.021073
-0.097594
-0.072292
-0.000036
0.015568
0.016785
-0.037270
0.007175
0.020247
0.004017
0.059392
-0.078510
0.079246
0.063837
0.044154
0.089734
0.021781
-0.043073
0.124321
-0.013947
0.022342
-0.010310
-0.019645
0.034316
-0.059555
0.003542
-0.026487
0.004098
-0.010181
0.041922
0.014281
0.016335
-0.071111
0.050184
-0.069863
-0.008238
-0.015668
0.038477
-0.052498
-0.014332
-0.106575
-0.031160
0.087591
-0.119595
0.011067
-0.020482
-0.024341
0.028691
-0.089204
-0.014753
0.065207
-0.066023
-0.131173
0.031702
-0.052870
0.032647
-0.034180
0.070001
-0.045253
-0.127514
0.002747
-0.100283
0.011368
0.085108
-0.046458
-0.071295
-0.103816
-0.037496
-0.018742
0.105322
0.041250
0.054727
0.025579
0.024841
-0.131811
-0.073011
0.050080
0.052462
-0.041181
-0.100784
0.014964
0.127527
-0.073490
0.041013
0.129960
0.087347
-0.080081
0.027518
-0.061768
-0.038828
0.088086
-0.013211
-0.034302
-0.035944
-0.066351
-0.062302
-0.068286
0.103487
0.029861
-0.075925
-0.029106
-0.052399
-0.040268
0.044032
0.028935
0.082564
-0.035219
-0.174136
-0.067644
0.015881
-0.010534
-0.033969
-0.078989
-0.038462
-0.072016
0.061729
0.052378
0.082587
0.047296
-0.016031
-0.148274
0.048370
0.029668
-0.012002
0.017711
-0.010352
0.009739
0.079502
-0.109566
0.061350
-0.111674
0.016023
-0.108273
-0.063326
0.036256
0.118748
-0.066344
-0.022105
-0.047397
-0.036663
0.051805
0.076755
-0.075694
-0.097157
-0.054036
0.066957
-0.016605
-0.088390
0.101348
-0.069775
-0.083526
-0.080236
-0.029372
0.005502
-0.049962
-0.008821
-0.059472
-0.005281
-0.049948
0.001335
0.008246
0.033166
-0.047401
-0.058840
-0.032057
0.090713
-0.041435
0.010216
0.006280
-0.007315
-0.058946
0.035726
-0.027652
-0.085577
0.045561
0.047203
-0.013591
-0.020620
0.009095
0.031066
0.047358
-0.062135
-0.035337
-0.028472
-0.028032
-0.035261
0.053149
-0.108537
-0.015387
0.001750
0.062028
-0.004330
-0.054138
-0.033834
0.009559
0.103256
-0.062434
-0.055788
0.040395
0.085002
0.093346
-0.017782
0.076611
-0.022133
0.047371
0.056118
-0.059957
-0.045329
-0.074355
0.000497
-0.128113
-0.111627
-0.044154
-0.082941
0.056236
-0.070427
0.075846
-0.041577
0.137308
-0.057356
0.142903
-0.018823
-0.064780
0.020834
0.112094
0.020051
-0.081521
-0.082185
0.059896
-0.006227
0.055016
0.049149
0.091581
0.129046
-0.006758
0.045144
0.001979
-0.070614
-0.093917
0.012435
-0.041466
0.069450
-0.012254
0.061752
0.000666
-0.001819
-0.049695
-0.064758
-0.029269
-0.076000
0.130783
0.021379
0.042602
-0.065055
-0.040196
-0.083375
-0.144524
-0.018798
0.122893
0.046646
-0.048116
-0.036522
0.005384
0.092234
0.035800
-0.063796
0.097666
0.030028
0.074796
0.101525
-0.004696
-0.092661
-0.022992
-0.077695
-0.066306
-0.007284
0.076298
0.022912
-0.026886
-0.050152
-0.039160
-0.006071
0.045920
0.021829
-0.064393
0.006990
0.058300
0.028679
-0.137610
-0.004499
0.057229
-0.059573
0.022940
-0.092330
-0.072019
0.059689
0.006282
-0.151492
0.007411
-0.013694
-0.087563
-0.068191
-0.021896
-0.096214
0.006997
-0.028200
-0.077440
-0.000939
0.073664
-0.059566
-0.028806
-0.006885
-0.067307
-0.103447
0.008263
-0.037503
-0.109180
0.084504
0.082386
0.106032
-0.023677
-0.162214
0.074817
-0.120842
0.004398
-0.048686
0.084091
0.019946
0.069980
-0.095262
-0.016845
-0.023377
-0.067285
0.010563
-0.037579
-0.100057
-0.034220
-0.141872
0.013817
-0.090423
0.001203
-0.038473
-0.133603
0.017873
-0.029477
-0.154816
-0.013172
-0.003226
0.058037
-0.002378
0.056541
-0.066711
-0.087843
0.051479
0.000706
0.013055
-0.200736
-0.085166
-0.027009
-0.102096
-0.082991
-0.044401
0.084606
0.083548
-0.062612
0.069846
0.017483
-0.085042
0.043561
-0.096533
0.035300
0.075138
-0.119395
0.001780
-0.013861
-0.018690
0.126847
-0.038483
0.028401
0.101367
0.132660
-0.115424
0.013164
-0.066074
-0.003255
0.000681
-0.107164
0.074892
0.017860
-0.042365
-0.118007
-0.159553
0.141038
-0.159560
-0.029447
-0.090259
0.086158
0.009542
0.051420
-0.020745
-0.091403
-0.023369
-0.018780
-0.027040
-0.021866
-0.075008
-0.052572
0.050080
-0.061966
-0.064952
0.104821
-0.061612
-0.066068
0.037078
0.065987
-0.037937
-0.073692
0.033989
-0.067679
0.086453
0.020666
-0.017686
0.048809
-0.075500
0.094515
0.043613
-0.103802
-0.013430
-0.013964
-0.127624
0.037914
-0.119477
-0.071672
0.082190
-0.093663
0.112217
0.027749
0.031204
-0.013700
0.054021
0.026121
-0.066920
0.088417
-0.118631
-0.007959
0.035301
-0.048150
0.058351
-0.040432
0.031365
-0.013568
-0.056134
0.084781
-0.015102
0.036887
0.066255
0.005783
0.049559
-0.077692
0.138627
0.071541
0.014138
-0.097272
0.055144
0.016061
0.100360
-0.106268
0.033666
-0.013448
-0.043222
-0.152940
0.077615
-0.051786
-0.034064
0.008501
0.000940
-0.012630
-0.014106
0.037111
0.004090
-0.027189
-0.006777
-0.035025
0.066800
-0.000967
0.058550
-0.014920
-0.025604
0.049964
0.006217
0.073980
-0.056860
0.010104
0.033604
-0.046460
-0.118194
-0.008302
0.026941
-0.061166
0.090912
0.008158
0.031294
0.002046
-0.008141
0.047304
-0.054448
-0.018903
0.110080
0.038582
-0.054293
0.001837
0.048803
0.033561
0.011821
-0.062423
-0.014929
0.006317
0.033807
-0.010044
-0.020869
0.020824
0.043471
0.006826
0.002271
0.008246
-0.074546
-0.023411
-0.060139
-0.022305
0.002268
0.024976
0.079537
-0.001098
-0.007843
0.059466
0.061799
0.037191
-0.026479
-0.078931
0.075041
0.056707
0.006412
0.020310
-0.101962
0.038534
0.010435
0.009263
0.031587
-0.014175
-0.047534
0.077301
-0.101728
-0.067378
0.106425
-0.019753
-0.043907
0.081510
0.069568
0.089227
-0.043748
-0.000533
-0.073962
0.021395
0.038369
-0.047868
0.062394
0.045891
0.020839
-0.008529
0.027647
0.000155
-0.034892
0.021949
0.048978
-0.009761
0.061884
0.024588
-0.017378
-0.029929
0.145716
-0.080406
-0.072225
0.097675
0.006276
0.004983
-0.075405
-0.004534
0.091452
0.091839
0.020621
-0.032020
0.012957
0.049313
0.047371
0.052290
-0.110552
0.121838
0.055634
-0.060406
0.058138
-0.082130
-0.022497
0.067120
0.022074
0.187905
0.021486
0.041868
-0.106370
0.061782
0.003554
0.012349
-0.062112
0.050295
0.026882
-0.015294
0.110163
-0.046296
-0.026209
0.093224
-0.091379
0.036773
-0.207660
0.064838
-0.090722
-0.000040
0.017530
-0.159117
0.020900
0.015677
0.000169
-0.019736
0.019848
0.005817
0.023084
-0.020235
-0.128816
0.004018
0.096448
-0.048547
-0.067483
-0.125055
-0.066914
0.073870
-0.206637
-0.107147
-0.080540
0.029089
0.133283
-0.128663
-0.008587
0.012984
-0.112777
-0.179048
-0.059946
0.024910
-0.120272
-0.109075
-0.040839
-0.162428
-0.014798
0.030220
0.011620
-0.062078
0.080817
0.010319
-0.138539
0.006920
-0.101406
0.006186
-0.057815
0.045884
-0.044863
-0.115947
-0.094448
-0.016563
-0.097699
-0.105553
-0.007503
0.052178
-0.024002
-0.099220
-0.071203
-0.026827
-0.050141
0.040542
-0.000863
-0.039912
-0.041195
-0.021529
0.070158
0.095261
-0.029257
-0.031267
0.026392
-0.039465
0.043683
0.005526
-0.041238
0.046188
0.038300
-0.003717
-0.100202
-0.096982
0.080036
-0.037357
-0.004145
0.066253
0.001907
0.061157
0.035789
-0.164237
-0.030711
-0.005275
-0.093949
-0.003804
-0.062462
0.025213
-0.055833
0.006076
-0.082643
-0.039250
-0.070829
0.086241
-0.110335
0.012226
-0.134528
-0.024965
-0.052512
0.006372
0.005438
0.029737
0.001717
-0.010683
0.011099
0.041177
0.010282
0.095220
0.119934
-0.075732
0.045191
0.055590
0.060196
0.000156
-0.062287
0.105707
-0.026352
0.079154
0.025036
0.006432
-0.038361
-0.086459
-0.014031
0.065238
0.057465
0.086557
0.078313
-0.065070
-0.028757
0.013703
0.067966
-0.080670
-0.036996
-0.096428
0.002967
0.152590
-0.081763
-0.085473
0.002313
-0.136637
-0.021277
0.042234
-0.023222
0.044958
0.043994
0.114442
-0.084285
-0.056465
0.042580
-0.015390
0.076539
0.031619
0.081669
-0.057246
0.047868
-0.016199
-0.031348
0.043590
-0.010825
0.055144
-0.119517
0.026870
-0.085086
-0.037082
0.096149
-0.020044
-0.005921
0.071385
-0.109663
0.109839
0.069431
0.162542
0.052364
0.079148
0.090407
-0.021112
-0.016717
-0.085384
-0.084067
0.034379
-0.023127
0.009606
-0.003329
0.002178
0.006147
-0.002102
-0.066415
-0.018552
-0.071790
0.096768
0.051211
-0.120133
-0.002739
-0.124138
0.040305
0.063391
-0.000415
-0.085494
0.053585
0.045738
-0.058476
-0.028841
0.020152
-0.139789
0.001870
0.007662
-0.034421
0.055840
-0.133636
-0.011298
-0.166326
-0.051537
-0.130001
-0.070734
-0.067067
-0.024895
-0.021111
0.097923
-0.048367
-0.107396
-0.004078
0.088101
0.063739
-0.058504
-0.091776
0.089116
0.006775
-0.117313
-0.001044
-0.092837
-0.094507
0.054830
-0.018372
-0.020281
-0.021059
-0.056716
-0.182540
0.025433
-0.051283
0.081152
0.060257
0.048242
0.086885
0.033097
-0.096415
0.057077
0.072650
0.021315
-0.082954
-0.039552
-0.058168
0.118309
-0.058354
-0.023345
-0.049289
-0.030139
0.076126
0.048482
-0.065459
0.014869
-0.067966
-0.061958
0.033903
0.031304
-0.058808
0.093588
-0.008041
0.009870
-0.116902
0.058096
-0.082533
0.004512
-0.038020
0.048249
-0.052009
-0.035423
-0.069793
-0.098466
-0.034413
-0.009536
-0.092262
0.052095
-0.022785
-0.023778
-0.027753
0.070213
0.041464
-0.104231
-0.071755
-0.022809
0.043769
-0.007862
-0.075244
0.089398
-0.044593
0.065520
-0.007600
0.035404
-0.034905
-0.007446
-0.002058
-0.085255
0.068277
0.023210
0.069889
-0.035156
-0.075690
0.097533
0.085202
-0.073716
0.042089
0.007707
-0.053700
0.067703
-0.043827
-0.002280
0.075779
0.035233
0.113712
-0.023453
0.028152
-0.036222
0.026452
-0.058573
-0.049279
0.030459
-0.064590
0.041054
0.060806
0.094959
0.146674
-0.027472
-0.040587
-0.034907
0.010015
-0.068187
-0.015601
0.013864
0.056803
0.042742
0.012750
0.037630
-0.078206
0.001551
-0.013116
0.114429
0.001383
-0.007703
0.046231
0.037536
0.115247
0.030849
-0.096391
0.120563
0.076255
0.053118
0.031324
-0.046078
0.004825
0.055358
0.015962
0.082199
-0.048993
0.124875
-0.062240
0.077497
-0.050248
0.132507
-0.009415
0.089544
-0.017197
0.078234
-0.013546
-0.077080
-0.056057
0.034964
0.010740
-0.046238
-0.079600
0.022061
-0.047520
-0.070014
0.071035
-0.079487
-0.057251
-0.073182
-0.062619
0.047044
-0.022460
0.078016
0.002145
-0.052733
0.010102
-0.117684
-0.089418
0.011832
0.070247
0.014785
-0.042063
0.052160
0.059207
-0.005372
0.125444
0.027572
-0.060255
0.065776
0.036110
0.042628
-0.027530
-0.127474
-0.057890
0.081931
-0.110055
-0.044948
0.017914
-0.043161
0.073925
-0.053939
-0.032722
0.015276
-0.064140
0.031435
0.102411
-0.068117
-0.010018
0.022506
-0.050438
-0.152673
0.037152
-0.020790
-0.016629
-0.032720
-0.019500
-0.011426
-0.078730
-0.063608
-0.044947
-0.030371
-0.136750
-0.047770
0.003639
-0.064978
-0.024375
-0.043651
0.132200
0.032579
0.058436
-0.064660
0.039536
0.000890
0.025465
-0.050500
-0.102870
-0.125554
-0.143737
-0.049379
0.027944
0.070636
-0.087475
-0.060311
-0.022248
0.077682
-0.070323
0.022888
-0.055610
-0.004105
0.014696
-0.088688
0.086614
-0.032681
0.017408
0.001219
0.053589
0.042796
0.081100
-0.003037
0.109503
0.073613
0.023934
-0.081012
-0.089353
-0.008552
-0.025559
-0.017348
0.073861
-0.065095
0.030497
0.140683
-0.128353
-0.015391
0.039870
0.022424
0.134488
-0.057734
0.080284
-0.083930
0.078632
-0.057962
-0.103154
-0.118874
-0.018882
-0.005529
0.063724
-0.035288
0.012306
0.070565
-0.067172
0.111589
-0.160128
0.087229
-0.005329
-0.142569
-0.165965
-0.069100
-0.004264
-0.003533
0.004285
-0.013536
0.122905
0.145059
-0.116797
-0.150288
-0.019685
-0.053000
0.075178
-0.161204
0.108055
-0.135166
-0.080371
0.016769
-0.100134
0.015081
0.043881
-0.019471
-0.060740
-0.157239
0.082117
0.065972
-0.032910
0.058008
-0.156522
-0.060594
0.020740
-0.024361
0.060392
0.104567
-0.037534
-0.100001
-0.126953
-0.108054
0.045024
0.133340
-0.011681
-0.076385
-0.019466
0.070213
0.030674
0.035375
0.025747
0.021903
0.057354
-0.097721
-0.085861
0.071645
-0.002123
-0.005435
-0.037721
-0.045771
0.039010
-0.038787
-0.043591
0.066044
0.014941
0.023333
0.002282
0.053553
-0.019455
0.002452
0.069007
0.027942
-0.083726
0.099705
0.028713
0.050425
0.074167
0.121307
0.075573
-0.022840
0.091070
-0.129556
-0.008479
-0.075747
0.028240
0.015195
-0.112171
-0.016041
0.037807
0.096090
0.022797
0.049213
0.039865
0.047304
-0.074552
-0.026031
-0.039184
0.046704
-0.049061
-0.065685
0.117175
0.009665
0.071041
0.023621
-0.035128
0.004006
0.088335
0.121963
0.061597
0.143066
-0.029713
0.082672
0.109087
-0.028377
0.037826
-0.021485
-0.021656
-0.051154
-0.131011
-0.002557
0.084114
-0.097926
-0.031340
0.072624
0.098349
0.094241
-0.034863
-0.057858
0.015227
0.002732
-0.189332
-0.008674
0.018269
0.012358
-0.044767
-0.101206
-0.051569
-0.039782
-0.101898
-0.058754
-0.051801
-0.145356
0.023610
-0.129974
-0.008823
-0.044107
0.021275
-0.001030
-0.003968
-0.056231
0.032279
0.066488
-0.053771
-0.048349
-0.175162
-0.045420
0.019107
-0.043797
-0.051347
-0.039331
-0.049838
-0.044034
-0.028842
-0.025710
0.085815
-0.000837
0.076199
0.056211
-0.073015
-0.066387
-0.067322
-0.035806
0.093947
0.017186
0.007890
0.179533
-0.186418
0.101430
0.052866
0.061979
-0.062233
-0.072068
-0.090365
0.037242
0.043112
-0.045540
-0.029034
-0.059607
0.026002
-0.040443
-0.005938
0.042077
0.129808
0.025210
0.083112
-0.058344
-0.100776
-0.081866
-0.014535
-0.044986
-0.053632
-0.063431
0.062311
0.099379
-0.065761
-0.143600
-0.110928
-0.001821
-0.005885
-0.062781
-0.013030
0.087216
0.083685
0.054297
0.032053
0.023794
-0.029998
-0.009849
-0.057164
-0.049829
0.039834
-0.000572
0.059748
0.057426
-0.018054
0.009194
0.065514
-0.046162
-0.076725
-0.055299
-0.029299
0.062867
-0.114650
0.068240
0.045545
0.049722
0.005200
-0.035261
-0.036247
-0.142101
-0.036827
-0.014734
0.035037
0.055867
0.111489
-0.014001
-0.010986
-0.019871
-0.068760
-0.025779
-0.031574
-0.069333
0.077397
0.050362
-0.139459
-0.040912
0.042083
-0.118850
0.082732
-0.060020
0.089808
-0.004569
-0.041882
-0.006104
-0.103334
0.047402
0.090256
-0.003243
-0.087427
0.024755
-0.016496
0.004106
-0.027851
0.066071
0.000751
0.063967
-0.076623
0.024902
-0.041535
0.015138
-0.020838
-0.007205
0.022098
0.003852
-0.075159
-0.002610
-0.096091
-0.120895
-0.046892
0.057191
-0.090231
-0.126486
0.107048
0.006877
-0.070459
0.081552
-0.126250
-0.068399
0.032945
0.039631
0.014571
0.047604
-0.055500
-0.096375
-0.029171
0.023915
0.107360
-0.063084
0.050166
0.066580
-0.076386
0.069827
0.042293
-0.047711
0.045727
0.078719
0.002543
-0.054742
-0.098546
0.105766
0.095601
0.038460
-0.143662
-0.075045
0.047680
-0.019370
-0.009585
0.012550
-0.055099
0.057381
-0.090147
-0.051522
0.087103
0.001566
0.047098
-0.022805
-0.058000
0.058829
-0.096466
0.005503
0.041526
-0.043577
-0.085658
0.083709
-0.107139
-0.055526
0.032815
0.134711
-0.015451
-0.064594
-0.116528
0.036463
-0.052793
0.109671
0.005760
-0.017001
0.039862
0.024033
0.022411
-0.088643
-0.070908
-0.011813
0.034253
0.021563
0.078201
0.028072
0.046727
-0.111647
-0.029936
0.021113
0.043171
-0.062802
0.102280
0.009241
0.063984
-0.008153
-0.081234
-0.082059
-0.023920
0.064353
0.038500
-0.067100
-0.118848
0.075857
0.065363
0.071939
-0.020791
-0.062846
0.023686
-0.060655
0.068424
-0.105020
0.000167
-0.080373
-0.124152
-0.074084
0.050276
-0.006320
-0.032660
-0.043756
0.026514
0.014738
-0.054404
-0.004176
0.087503
0.048278
0.013606
-0.017952
0.052192
-0.092405
-0.042896
0.043634
0.021431
0.070819
-0.085471
0.073847
-0.117526
-0.000056
0.012964
0.086233
-0.122708
0.004092
0.042868
-0.038310
0.111700
-0.062356
0.050215
-0.028134
-0.028187
-0.003075
-0.057412
-0.026881
-0.058356
0.015509
0.000665
0.126882
-0.031284
0.002302
-0.115956
0.060593
0.026427
-0.102550
0.084643
-0.038167
0.011054
0.115062
-0.087600
0.074261
-0.046563
-0.027557
-0.002116
-0.003769
0.065012
0.056747
-0.047762
-0.078199
0.089489
0.018297
-0.110376
0.002769
0.106484
-0.100561
-0.054722
-0.001139
-0.047459
-0.015501
-0.042833
-0.045633
-0.013781
0.075234
0.053139
-0.117385
0.114153
-0.103551
0.055402
-0.091704
-0.057388
-0.111539
0.079001
0.069949
0.023110
-0.063641
0.049683
-0.083589
0.087496
-0.127382
0.073997
-0.014105
0.042096
0.067891
0.097361
-0.042184
0.069659
-0.067706
0.010576
0.027973
-0.090392
0.078334
-0.039487
-0.125102
-0.132542
-0.076852
-0.039434
0.038670
-0.052836
0.028802
0.068898
-0.045670
-0.005063
-0.080756
-0.064442
-0.012239
-0.097423
0.094039
0.115978
-0.110960
-0.058696
-0.051986
-0.084287
0.024555
0.023233
0.006694
-0.038329
0.101655
-0.041983
0.021302
-0.083209
-0.034741
-0.017358
-0.063172
-0.008261
0.000800
0.022171
-0.078495
-0.044743
0.012675
0.008205
-0.028181
-0.022647
0.045822
0.060164
-0.127880
0.090856
-0.111736
-0.005381
-0.050253
0.032735
-0.055746
-0.068717
0.018736
0.038181
-0.051160
-0.026232
0.120125
-0.075890
0.019534
0.055770
-0.033816
0.069477
0.029823
-0.079301
0.018229
0.027300
0.066553
0.101719
-0.056590
0.111056
-0.022190
-0.102706
-0.006436
-0.060293
0.013901
-0.040996
0.011826
-0.078519
-0.033767
0.093050
0.027930
0.104320
0.022379
0.018482
-0.118555
-0.013057
0.081589
-0.013244
-0.118511
-0.128803
0.033099
0.005615
0.045582
-0.120267
0.117251
0.031070
-0.070914
0.038291
0.065348
-0.052066
0.002433
0.075690
-0.076873
0.061292
-0.145524
0.018446
-0.094135
-0.061515
-0.052307
0.048585
-0.016102
-0.085940
0.024003
0.044616
0.006489
0.046677
-0.105278
0.005632
0.028937
0.035982
-0.030159
-0.024729
0.061943
0.016767
-0.015100
0.037823
0.077106
0.056303
-0.129719
0.073631
-0.026528
-0.046970
0.015582
0.025454
-0.039423
0.073926
0.049068
0.007221
0.056582
-0.018871
0.010012
-0.054559
-0.023022
-0.061312
0.127683
-0.092843
0.014753
0.064305
0.113062
-0.009270
-0.012248
0.033773
0.026850
0.031814
0.016605
0.040611
0.044463
-0.070737
-0.046812
0.055803
-0.043831
0.117185
0.054821
0.068690
-0.028746
-0.153463
0.055059
0.028990
0.002978
0.015161
0.045531
0.058801
0.078216
-0.004877
0.028897
0.034486
-0.046807
-0.085222
-0.066034
-0.066807
-0.041947
-0.077779
0.028977
0.007101
0.014852
0.004320
0.100503
-0.018077
0.108983
-0.057755
-0.060471
0.051027
-0.014142
0.031085
0.077453
0.029229
0.072451
-0.098997
-0.028861
0.026190
-0.005629
0.004483
0.057048
0.054837
0.055735
-0.003850
-0.058386
0.055535
0.024709
-0.044320
-0.135419
-0.041986
0.076830
-0.039100
-0.002244
0.073796
-0.086323
-0.144995
0.046413
-0.069288
-0.059790
0.049744
-0.106859
0.073848
0.019228
-0.009839
0.045952
-0.078576
-0.070884
0.021784
-0.062680
0.030750
-0.007934
-0.127772
-0.074849
0.005442
0.023211
0.000542
0.083091
0.010907
0.041652
0.015092
0.102427
0.003450
0.082327
-0.013665
-0.073214
-0.132816
-0.133574
0.031904
0.019475
0.073338
-0.061703
-0.108547
0.008849
-0.040611
0.195747
0.052811
0.025085
-0.091029
-0.016637
-0.046247
0.183694
0.039174
-0.129187
0.010537
0.057646
0.037649
-0.054874
-0.043805
-0.104689
0.032588
-0.088667
0.072153
0.080702
0.057915
-0.131180
-0.001543
0.060326
-0.130210
-0.050437
-0.062505
-0.126335
0.112597
0.089367
0.012740
-0.068567
-0.075699
0.071854
-0.093130
0.168044
-0.059903
0.085069
0.106922
0.125374
0.047321
0.067315
-0.010185
0.029596
0.077851
-0.074315
-0.086165
0.011735
-0.014869
0.067112
0.033419
-0.132894
0.139067
-0.242913
0.007151
0.037491
-0.125477
-0.020290
0.087729
-0.041894
0.011356
-0.013960
-0.047659
0.048574
-0.064099
0.057823
0.014678
-0.082336
0.130809
-0.057628
-0.030419
0.049069
-0.100332
-0.062452
0.044710
-0.077132
0.130162
0.034823
-0.048525
-0.073789
0.035818
-0.033749
-0.043614
0.012683
-0.059376
-0.123508
-0.055570
-0.108730
-0.165909
0.067561
-0.020869
0.017045
-0.017084
-0.015074
-0.065135
0.010412
-0.001440
0.079760
-0.035529
0.073085
-0.097816
0.048121
-0.121331
-0.081749
-0.014148
-0.104049
0.051365
-0.023846
-0.011991
-0.137513
-0.189197
-0.097839
-0.121690
0.189880
0.045923
-0.180382
-0.004534
-0.040438
0.005862
-0.064362
-0.100382
0.072757
0.030466
0.009596
-0.051433
0.068573
0.037313
0.031226
-0.017259
0.070926
-0.008782
-0.038404
-0.014633
-0.033740
-0.035065
0.067747
0.010954
0.027427
0.052705
0.116798
0.007385
0.001946
0.016640
0.027188
0.096121
-0.024665
0.079710
-0.017549
0.079689
-0.024749
0.018785
0.036521
0.019285
0.038188
0.039883
0.093553
0.009013
-0.032505
0.071787
-0.068831
-0.012044
-0.013071
0.010748
0.035295
0.069006
0.012030
-0.127972
-0.063926
-0.024516
-0.076522
-0.002942
0.020817
-0.032893
0.142090
0.047603
0.031931
-0.026185
-0.003221
0.143110
0.015197
-0.186701
-0.049928
-0.033033
0.114730
-0.026558
-0.024209
-0.093468
-0.022444
0.059375
-0.046793
0.025823
-0.041428
0.122563
-0.108341
0.073974
0.060324
-0.075166
0.036936
-0.103165
0.035158
-0.004113
-0.015647
-0.026968
0.106441
-0.142204
0.126217
0.011579
0.016701
0.132316
-0.085325
-0.051843
0.026288
0.121922
0.032488
0.127418
0.000886
0.018758
0.053065
-0.139178
-0.029375
0.050889
-0.005663
0.092169
-0.040063
-0.049589
0.080476
0.048018
0.065966
0.033530
-0.034101
0.121583
0.061773
0.059444
0.072997
0.001308
0.079084
0.036689
0.062420
0.029488
-0.057899
0.133747
-0.121936
0.003943
-0.020192
-0.068879
-0.062977
0.047042
0.100375
-0.042167
-0.060048
0.089278
0.011938
0.066019
0.120486
-0.094839
-0.005152
0.075890
-0.023181
-0.004471
-0.124551
0.012397
0.062651
0.055739
-0.000059
-0.037388
-0.024377
-0.004547
-0.036173
0.053668
-0.020927
-0.074530
0.021271
0.013930
0.034081
-0.023039
-0.025783
0.059901
0.012960
0.061249
0.031351
-0.012739
0.051276
0.066238
0.002968
-0.010377
0.040073
0.017207
-0.018001
0.052535
0.027182
0.115919
0.016943
-0.093536
0.040077
-0.086783
0.009403
0.072208
-0.105074
-0.026854
-0.063928
-0.059231
-0.045962
-0.012248
-0.029691
-0.013659
-0.053566
0.021501
-0.094352
-0.079325
0.015880
0.081873
-0.067037
-0.111561
0.100397
-0.038420
0.145197
0.007324
-0.004512
0.011886
0.016651
0.104265
-0.032875
-0.064094
0.112396
0.130758
0.033221
-0.033510
0.032811
0.144099
-0.078995
0.060464
-0.023978
0.104305
0.015369
0.000620
0.015923
-0.104531
0.085342
-0.034350
0.010851
-0.015533
-0.018295
0.075844
-0.015931
-0.008935
-0.096867
-0.070348
0.076080
-0.079307
-0.210188
0.001335
-0.013267
-0.055661
-0.022422
0.015630
0.020700
-0.066028
-0.084271
-0.030031
-0.090467
-0.073439
-0.100959
-0.141017
-0.034532
0.049052
-0.035911
0.036498
0.072365
-0.144363
-0.055066
-0.000249
0.018556
0.099533
0.055277
-0.034592
-0.065953
-0.101037
-0.100787
0.022671
0.003777
-0.132547
-0.084753
-0.024039
0.034504
-0.060445
0.047609
0.049895
0.090098
0.079385
-0.041169
-0.061599
0.027127
0.073081
-0.054988
0.026899
0.009758
0.048126
-0.088216
-0.021564
-0.009324
-0.056837
0.131437
0.135225
-0.024740
0.018991
-0.163544
-0.037343
-0.021913
-0.043759
-0.042032
-0.033730
0.006149
-0.018383
-0.063440
0.020347
0.020206
-0.019923
-0.092189
-0.056973
-0.071965
-0.063582
0.066902
-0.076665
-0.017616
0.083807
0.064501
-0.065187
-0.030084
0.061245
-0.112776
-0.039876
0.102427
-0.095805
0.022930
-0.062405
0.020265
0.074533
0.046418
-0.119042
-0.013846
0.094248
-0.091564
-0.110754
0.062124
-0.050072
-0.009101
-0.135445
-0.067004
-0.002492
0.105663
-0.035961
-0.111342
-0.054370
-0.023369
-0.045120
0.009167
-0.082383
0.026581
0.007477
-0.112540
-0.096508
-0.005575
-0.042539
-0.046067
0.028060
-0.052188
-0.065685
-0.018580
-0.102365
0.010929
0.094130
-0.041995
-0.114067
0.022783
0.050495
-0.001364
0.005620
0.040318
0.040009
-0.056048
-0.015622
0.074011
-0.055288
0.048009
-0.107669
-0.053612
0.023843
0.054666
0.006596
0.002190
-0.031626
-0.052904
-0.019386
0.051176
-0.130816
0.004395
-0.036456
-0.128441
-0.104045
-0.106466
-0.001348
-0.158677
0.052346
-0.061576
0.009429
-0.098661
0.104006
-0.074044
-0.108922
0.008647
-0.033444
-0.054191
0.088277
-0.057213
0.048631
-0.073289
0.075593
-0.019421
-0.123250
-0.040309
0.041089
-0.029552
-0.089014
0.081052
0.094383
-0.012484
-0.066787
-0.123428
0.007003
-0.069350
-0.013595
0.010459
-0.039936
-0.082250
0.019793
-0.015984
-0.141888
0.009509
0.143304
0.031034
-0.037213
0.023351
0.012679
-0.000176
0.002169
-0.098545
0.112256
0.083039
-0.151607
-0.065958
-0.059569
0.083697
-0.027992
0.044034
-0.054620
-0.070290
0.014936
0.043422
0.001726
-0.113898
0.085790
-0.054547
0.015327
-0.129115
-0.067792
0.000803
-0.051690
-0.022657
-0.036623
-0.084205
0.010295
0.043259
0.045945
-0.026087
0.083115
0.053578
-0.043021
-0.080689
0.012651
-0.005048
-0.119850
0.089171
0.030711
0.137908
-0.022728
-0.015779
0.047853
0.068602
-0.101679
0.150303
0.042481
0.076606
-0.038108
-0.079051
0.067695
-0.075585
0.025827
0.053095
0.029750
-0.112063
0.121360
-0.111770
-0.039314
0.005566
-0.067606
-0.007790
0.018900
0.036494
-0.216375
-0.115744
-0.078258
-0.068452
0.035571
0.087209
0.112365
0.020216
0.024720
0.036466
-0.026459
0.081435
0.022016
0.072464
-0.130017
0.092123
0.066637
-0.119706
0.078583
-0.070766
-0.046306
-0.077043
0.087902
0.020452
0.015550
0.054545
0.039000
0.042285
0.018052
-0.044513
-0.014770
0.037395
0.080874
-0.067401
0.043372
-0.017140
-0.032921
-0.074364
0.098359
0.154863
-0.000580
0.049771
-0.061427
0.062061
0.077354
0.035483
-0.027717
0.037594
-0.039072
-0.062267
0.156753
0.024486
0.018797
-0.025485
-0.034517
0.094368
0.019072
0.002386
0.093527
0.094560
-0.018031
-0.043121
0.068620
0.083228
-0.049314
-0.040998
0.092491
0.009306
-0.055409
-0.065192
-0.008691
0.054962
0.016971
-0.026749
-0.078105
-0.013428
0.053882
-0.006419
0.059451
-0.070499
-0.030273
-0.002105
0.134988
-0.045997
-0.053619
0.036697
0.047128
0.092275
-0.063507
0.027358
-0.098473
-0.041913
0.076038
0.092579
-0.020816
0.004365
0.017422
-0.075978
0.004056
0.066900
0.040846
0.026210
0.001092
0.019014
0.090212
-0.127857
0.025383
-0.038898
0.088581
0.093767
-0.065486
0.064251
0.002126
0.092430
-0.012269
-0.082996
-0.035950
0.048631
-0.000657
-0.032452
-0.010527
-0.092493
0.052710
0.082405
-0.038238
-0.043526
-0.081757
-0.028445
0.076753
0.021867
0.112458
0.055003
-0.004561
0.026086
-0.014270
0.067154
0.091887
-0.052559
0.009606
-0.010468
0.004256
-0.019825
-0.063439
-0.058305
-0.088858
0.055371
0.020932
-0.068164
0.025638
-0.038069
0.083588
-0.019677
0.012609
-0.005369
-0.126632
-0.003835
-0.064530
0.124201
-0.062894
0.058641
0.059354
0.059996
-0.116541
0.090232
-0.015457
-0.027326
0.008306
0.125071
0.100582
0.131362
-0.031792
0.011703
-0.079296
0.076715
-0.075460
-0.037562
-0.034653
-0.065293
-0.038946
-0.003377
0.037548
0.014361
0.083435
0.008132
0.068122
-0.041545
0.001342
0.005599
-0.076338
0.053170
-0.094565
0.014801
-0.127754
-0.076879
-0.128304
-0.021758
0.055503
0.081512
0.089521
-0.005732
-0.050612
0.087502
0.000275
-0.064433
0.188809
0.044413
-0.076425
0.186407
-0.035871
-0.200410
0.047521
-0.019736
0.015863
-0.105673
0.046840
-0.002686
-0.073504
0.025989
0.023486
0.030270
-0.009683
0.152712
-0.113891
-0.040151
-0.043696
-0.092890
0.025852
0.034924
0.073895
0.040351
-0.070498
-0.039543
0.007885
0.042633
-0.098884
0.001818
0.025607
0.028520
-0.038248
0.020534
-0.020697
0.012963
-0.007758
0.003369
0.021014
-0.034636
0.053007
-0.051314
-0.021488
-0.120131
0.095075
0.030210
-0.082686
-0.067097
0.006043
0.038076
0.055229
-0.092033
0.079004
0.123127
-0.026462
-0.037487
0.013599
-0.080649
-0.052896
-0.057941
-0.018265
-0.118653
-0.005081
-0.027480
0.034800
-0.068571
0.027244
-0.012284
-0.097361
0.008816
-0.020381
0.024957
-0.057899
0.036082
0.107069
-0.095759
-0.020433
0.023300
-0.021291
-0.048614
0.077025
0.073720
-0.063580
-0.109736
0.050950
-0.132775
0.069620
-0.003052
-0.000111
0.135961
0.010902
0.101625
0.042516
0.034838
-0.042010
-0.002358
-0.094728
0.094625
0.056719
0.042187
-0.041696
0.026345
0.017971
0.027449
-0.003651
-0.210875
-0.019944
0.009730
0.101751
0.150629
-0.096121
-0.083169
-0.160767
0.001604
-0.001208
-0.107015
0.034357
-0.056100
-0.011105
0.011284
-0.029901
-0.066588
-0.019881
0.000145
0.073213
0.109083
0.055844
-0.067861
-0.006410
-0.067379
-0.003950
0.073450
0.011230
-0.022487
-0.148043
-0.079789
-0.058993
0.026926
-0.018241
-0.010338
0.010298
-0.025520
-0.138255
-0.015936
0.036294
-0.015582
-0.071876
-0.038940
0.041716
-0.107000
-0.013239
0.130708
-0.023554
0.078605
0.092354
0.097669
-0.026273
0.002042
0.017475
-0.007938
-0.015631
-0.034398
0.091028
-0.044073
-0.022981
-0.055264
0.060313
-0.070857
-0.091743
-0.137232
-0.092326
0.033646
0.082449
-0.064787
-0.119516
-0.165949
-0.105371
-0.134484
0.068864
-0.004417
0.048137
-0.006509
-0.054602
0.059782
0.030595
0.095047
-0.059220
0.024283
-0.014355
0.116245
0.109734
-0.103316
-0.043119
-0.119335
-0.111006
0.053673
0.142256
-0.161698
-0.074208
-0.017265
-0.160140
0.068754
-0.145598
0.020103
-0.060653
-0.075787
-0.083338
-0.090904
-0.087360
0.042298
0.031498
0.090236
0.030662
-0.021495
-0.005948
0.155174
0.081319
0.065847
-0.004686
-0.025746
0.066734
0.036299
-0.063998
-0.008051
-0.025472
0.062365
0.069263
-0.028277
0.121568
0.050617
0.060839
0.005108
0.010955
-0.028562
0.048543
0.090850
-0.053117
-0.028933
-0.002559
0.055022
-0.013303
0.087648
-0.015380
0.053848
-0.080856
0.108835
-0.008679
0.048049
0.034894
0.106662
-0.071282
0.140657
0.087292
0.090501
0.042369
0.058790
0.051129
-0.059066
-0.046232
-0.011516
0.134221
-0.003286
-0.012118
-0.011872
-0.033922
-0.052474
-0.006076
-0.033871
-0.002044
0.015738
0.036875
-0.051240
-0.031316
0.015285
0.122435
-0.098489
0.000693
-0.042793
0.023379
-0.009289
0.007691
-0.005699
-0.046578
0.032733
-0.002267
0.106172
-0.036949
0.124421
-0.047315
-0.036722
0.121565
0.040886
0.036680
-0.009093
-0.012214
0.064279
0.027476
-0.050305
-0.046817
0.088796
0.041667
0.019408
-0.024540
-0.029650
-0.053270
0.033053
-0.083034
-0.013192
0.049964
0.010571
-0.042745
-0.074720
0.091920
0.069960
0.005408
0.003096
-0.149428
0.072198
0.069522
-0.070528
-0.045519
-0.069318
0.117952
-0.039604
-0.014472
-0.107276
-0.062439
0.021868
0.034115
0.099545
0.050176
0.067004
0.044256
0.035662
-0.004134
-0.025936
-0.079936
0.068691
0.107337
0.010041
0.024057
-0.011731
0.030856
0.025293
0.052714
0.022763
0.090926
-0.033703
-0.001096
0.028764
0.032794
-0.060867
0.058723
-0.095899
-0.067972
0.066297
0.044561
0.101387
0.036041
0.022069
0.032025
0.006919
-0.046792
0.045006
0.065990
0.001388
0.049364
0.018628
0.011155
0.003411
0.002503
0.058816
0.120855
0.028160
-0.009480
-0.036631
0.129987
-0.011934
-0.086823
0.063842
0.045607
-0.031712
-0.002023
-0.033109
0.057637
-0.025937
-0.062868
0.005158
-0.033313
-0.054816
0.043145
-0.062094
0.003269
-0.095689
-0.032485
0.045090
-0.119104
-0.029902
0.026265
-0.012539
-0.053281
-0.138896
-0.098059
-0.124404
-0.109445
-0.033531
-0.066592
-0.091491
-0.015745
-0.028364
-0.091029
0.086653
-0.135141
-0.032347
-0.050499
-0.028643
-0.019024
-0.132786
0.021234
0.033382
0.069781
-0.020884
0.015781
0.045924
0.066597
-0.006655
0.000953
-0.036363
-0.028830
-0.017225
-0.003037
-0.002882
-0.073460
0.053932
-0.020621
-0.032818
0.053855
-0.117918
-0.126688
0.010479
-0.073864
-0.124051
0.081246
-0.065633
-0.083427
-0.004141
-0.049186
-0.094497
-0.033560
0.056841
0.052516
-0.026439
-0.051343
-0.151892
0.031277
-0.012392
0.001843
-0.073668
-0.033317
0.040686
-0.041867
0.020204
-0.014017
-0.068580
-0.042937
0.098532
0.074156
-0.019111
-0.001499
0.018529
0.083704
-0.052920
0.001785
0.100156
-0.010716
-0.010780
0.048346
-0.036045
0.120689
-0.077726
-0.005460
-0.019636
-0.011791
0.179088
0.052787
-0.114996
-0.105168
-0.072379
0.046170
-0.081278
0.023111
0.044211
0.176729
0.119628
-0.055219
-0.030997
-0.138984
-0.036434
0.095181
-0.194027
0.069264
-0.075899
-0.038416
-0.027355
0.049148
0.107739
-0.041256
0.033411
-0.076158
0.039392
-0.017052
-0.116566
0.072503
-0.042112
-0.098102
-0.018956
0.058621
0.144480
0.050467
0.077409
0.022790
-0.051936
-0.041067
0.076796
0.089900
0.117093
0.016861
0.044497
-0.025403
0.149493
-0.002691
0.098622
0.055056
0.047666
0.091145
0.044420
-0.066602
0.093372
0.009761
0.055434
0.027117
-0.075757
0.007106
0.000906
-0.008387
0.087613
0.013536
-0.081447
0.001356
0.040706
0.063181
-0.080603
-0.052647
0.117393
-0.080857
0.022153
-0.056708
-0.022807
0.061745
-0.001862
0.087120
-0.096320
0.053477
0.027447
-0.049287
-0.004181
0.063830
-0.098683
0.081039
0.095148
0.005508
0.080246
0.091138
0.058653
0.038219
0.017970
-0.013435
-0.033602
-0.030409
0.113877
0.017789
0.064778
-0.007548
-0.081523
0.017744
-0.027328
-0.070126
0.186893
-0.136728
-0.070526
0.094853
0.109218
-0.097721
0.112976
-0.001439
-0.059051
0.016992
0.057880
0.046806
-0.004368
-0.119522
0.051811
-0.016058
0.003514
-0.090637
-0.054715
0.064175
0.039363
-0.059438
-0.082212
-0.071582
-0.094888
-0.099820
0.013006
0.076108
0.064450
-0.079657
0.040721
0.038325
0.076791
-0.051070
-0.054496
-0.008526
-0.176632
-0.051180
-0.022068
0.081195
0.087367
0.048754
-0.062890
0.063486
-0.079402
-0.041795
0.048144
-0.118733
-0.030470
0.050451
0.108145
0.079534
0.012451
-0.079670
0.002278
-0.002414
-0.027519
0.077851
0.013211
0.126962
0.045892
-0.017877
-0.015626
-0.052388
0.039612
0.057209
-0.072538
-0.108432
-0.022700
0.003845
-0.007888
-0.044874
-0.029908
0.064754
-0.128128
-0.001617
0.018249
-0.076656
0.107318
0.083984
-0.039623
0.040816
0.053416
0.077973
-0.064991
0.065119
0.011791
-0.042709
-0.079002
0.096400
0.052584
-0.023714
-0.068001
-0.045300
-0.074308
0.043469
0.008661
0.047551
0.042673
0.025440
-0.022695
0.109262
-0.134783
0.166185
-0.042004
0.048115
-0.051642
0.038768
0.023107
-0.032321
0.060696
-0.045249
0.074406
-0.016035
0.079299
0.116569
0.019064
-0.022316
-0.001623
0.000475
0.050387
0.113242
0.061271
-0.055671
-0.049155
-0.042638
0.047562
0.019587
-0.011581
0.082648
0.073196
-0.083277
0.007095
-0.129805
0.000903
-0.115625
-0.087544
0.017577
0.011935
0.078792
-0.050529
0.032667
-0.007817
-0.046261
0.061241
0.124557
0.048684
0.119166
-0.045413
0.018771
0.124322
0.047281
-0.079982
-0.027630
0.052267
-0.030122
-0.100609
0.065769
-0.010086
-0.053320
0.056091
0.135547
-0.118510
-0.025134
-0.060037
-0.018167
-0.052889
0.068274
0.052933
0.025135
-0.003647
0.033147
-0.035744
-0.123738
-0.000575
0.104876
-0.025001
0.081793
-0.017748
0.024335
0.030641
0.029363
-0.038413
0.007547
0.027084
0.003855
-0.069952
-0.071153
-0.059021
-0.024200
-0.066717
0.015701
-0.066494
-0.151201
-0.079250
0.091001
0.150791
-0.024200
-0.058088
0.040936
0.047810
-0.047057
-0.032462
0.081416
-0.129930
-0.120677
0.058211
-0.082538
-0.010534
0.043023
-0.081766
-0.038108
0.037776
-0.041596
0.036215
0.110255
-0.064558
-0.118967
-0.017483
-0.054852
-0.000567
-0.047855
0.093331
0.044063
-0.012901
-0.136795
-0.084237
0.056476
-0.027788
-0.030999
-0.057213
-0.022667
-0.025559
-0.089728
0.146448
-0.035174
-0.007541
0.004972
0.009021
-0.131794
-0.069341
0.029125
0.035528
-0.001279
0.092031
0.093655
0.042301
-0.015674
0.039580
-0.057631
-0.053360
0.045533
-0.042142
-0.046585
-0.045450
0.036156
-0.073250
0.050978
-0.028948
-0.061688
0.061511
0.081509
-0.137993
0.054219
0.013365
0.031539
-0.129223
-0.008453
-0.034967
-0.041449
-0.140583
-0.089968
0.053854
0.079367
-0.071057
0.051516
-0.126783
0.001963
-0.038237
0.156327
-0.033463
0.052372
-0.037847
-0.099409
-0.096945
0.002398
-0.084019
-0.015667
-0.031843
0.065376
-0.062831
-0.118494
0.034711
-0.137189
-0.101670
0.010135
-0.055117
-0.065111
-0.048233
-0.063308
0.008617
-0.021121
-0.077823
-0.056395
0.026531
-0.024869
0.036699
-0.055347
-0.066512
-0.067962
-0.042470
-0.063390
0.076295
0.012513
0.074577
0.051276
0.027168
0.007547
0.018473
0.059992
0.001883
-0.118327
-0.050451
0.054087
0.043078
-0.059185
-0.033922
-0.131349
0.062866
0.037695
0.050333
-0.074910
0.048987
-0.010175
0.063458
0.013733
-0.044831
-0.054733
-0.027912
0.053900
0.023643
-0.070013
0.083918
-0.010532
-0.077584
-0.037584
-0.008351
0.105090
0.001172
-0.080431
0.045102
0.006717
0.038286
-0.088225
-0.087224
0.010603
-0.017048
0.020324
-0.028221
0.082793
0.070579
0.060483
0.098616
0.193362
0.057538
0.095442
0.036504
0.078697
0.020494
-0.029100
0.106825
-0.096287
-0.037094
-0.050759
0.120863
0.005213
-0.070431
-0.020265
-0.029589
0.032597
-0.046899
0.067516
-0.071629
0.065741
0.093118
0.009967
0.009367
0.008803
-0.058982
0.091984
0.051119
-0.074241
-0.076765
0.060370
-0.113921
-0.042636
0.057090
-0.102467
0.016859
0.005626
-0.046460
-0.140413
-0.044625
0.113748
-0.000032
-0.027209
-0.087691
-0.071214
0.045541
-0.001192
0.030520
-0.033807
-0.060883
0.078968
-0.015524
-0.053030
0.003813
-0.079657
-0.102516
-0.087154
-0.086065
0.036220
0.020664
0.066298
0.098345
-0.012079
0.062724
-0.001596
-0.098970
-0.051252
0.167234
0.042518
0.052034
-0.086291
-0.104349
-0.046607
-0.097206
0.005874
-0.045150
-0.073174
-0.036546
0.038610
-0.022653
-0.061476
-0.019899
0.059835
-0.046050
-0.064446
0.025442
-0.020673
-0.071165
0.065558
0.031882
-0.016094
0.014430
0.054122
-0.023887
-0.017440
0.067833
0.022099
-0.007033
-0.046949
0.037066
-0.043475
0.064126
-0.090571
-0.043182
-0.118797
0.007970
-0.094267
-0.055872
0.015070
0.001680
0.059524
0.029558
0.037250
-0.023935
-0.040512
-0.008951
-0.013728
-0.023404
-0.056315
-0.134394
0.073971
-0.047160
-0.001094
0.051495
-0.029388
-0.011148
0.026376
-0.070701
0.039873
-0.024739
0.057414
0.080425
0.034305
0.020208
0.006826
-0.082003
0.066812
-0.066262
-0.028351
0.131146
-0.055426
-0.046004
-0.026089
-0.073295
-0.066278
-0.067932
0.013716
0.029516
0.017488
-0.028814
0.001900
0.069049
-0.008760
-0.045972
0.047423
0.037731
0.007764
-0.038615
-0.049768
-0.033626
0.055473
0.035995
0.009314
0.090100
-0.026633
0.035134
0.036789
0.050260
0.072128
0.113625
0.050461
-0.003900
0.022816
0.068883
0.106978
0.036464
0.095907
0.000265
0.160606
0.032689
-0.060264
0.048412
0.123483
-0.000882
-0.003851
-0.013176
0.056273
-0.028552
-0.053867
0.036374
0.090416
0.033997
-0.015255
-0.093831
-0.063280
0.110629
-0.009593
0.049761
-0.047232
-0.065959
0.093666
0.102718
0.055762
0.019203
0.022765
0.058546
0.005426
0.043736
0.016059
0.114699
-0.020519
-0.030976
0.004533
0.075977
-0.101973
0.107853
0.029900
0.015210
-0.103727
-0.009844
0.057220
-0.023366
0.004695
0.062919
0.017557
-0.038432
-0.018169
-0.001596
0.038139
0.049219
-0.083465
0.092589
-0.104889
0.089286
0.043989
-0.003436
0.020314
-0.044583
0.077858
-0.109385
-0.067443
-0.072785
0.032213
-0.085146
0.082551
0.052671
-0.057903
-0.015958
-0.041583
-0.079510
-0.160798
-0.029799
-0.084691
0.028507
0.079732
-0.008600
-0.104584
0.056128
0.064490
-0.065737
0.036044
-0.021859
-0.076490
-0.062443
0.112587
-0.070657
-0.058982
0.113104
-0.034006
0.003972
0.013385
-0.101193
-0.056561
0.034371
0.052480
-0.054663
-0.030555
-0.031980
-0.107688
-0.006893
-0.033716
0.011864
-0.151838
0.103227
0.089397
0.036229
0.041870
0.006827
0.057103
-0.094359
-0.012155
0.094511
-0.062113
0.046801
0.027497
0.004734
-0.082953
0.084033
-0.048713
-0.079119
0.024690
-0.068650
-0.046591
0.059063
0.055202
-0.070537
-0.021647
-0.074790
-0.170894
0.071212
-0.165904
-0.173777
0.049679
0.083792
0.110282
-0.024884
-0.013450
0.032961
-0.032983
-0.014399
0.048064
0.032254
0.042465
0.022332
0.059414
0.081496
0.065016
-0.012556
0.144140
0.007871
-0.082762
-0.009478
0.059719
0.030411
-0.021423
-0.001390
-0.049982
-0.170574
0.076924
-0.088957
0.053356
0.104327
0.099311
-0.044683
-0.055148
-0.081696
-0.043691
-0.007524
-0.027452
-0.005124
0.008204
-0.017753
-0.001650
0.066903
-0.129388
0.059379
0.074190
-0.029783
-0.138031
0.066168
0.008946
-0.040686
0.051658
-0.106660
-0.042985
-0.158060
0.036523
0.003154
0.074162
0.009997
-0.093299
0.059314
-0.142626
0.060309
0.101457
-0.036352
0.027685
-0.135733
-0.029017
-0.039261
0.143835
0.142994
-0.072772
0.017059
-0.004855
-0.048577
-0.063214
0.125906
-0.009990
0.005493
0.117709
0.104416
-0.094190
0.106869
-0.098692
-0.049514
-0.082341
0.099223
0.069310
-0.172368
-0.018306
-0.096604
-0.043348
-0.028219
-0.083578
-0.025878
-0.082101
0.110548
-0.035935
-0.106167
0.038701
0.032199
0.055057
-0.105416
0.083472
-0.011218
-0.012704
0.041208
0.008689
0.001918
0.011277
0.107697
0.054215
0.012262
-0.074843
-0.058232
-0.065641
0.047293
0.106919
-0.040591
0.085083
-0.083658
0.011011
-0.027136
-0.028756
0.031474
0.105780
0.038979
0.054945
0.081334
-0.091983
-0.039171
-0.059435
0.100174
0.069275
-0.119932
0.077942
0.013120
-0.035151
0.072597
0.034599
0.009359
-0.029286
0.017563
0.014588
-0.038731
0.125360
0.018437
-0.050198
0.009616
0.009622
-0.052831
0.071162
0.077493
-0.039770
0.021173
0.037758
0.096785
0.006406
0.046588
-0.127587
0.021712
-0.067296
0.092315
-0.005040
0.053062
0.018362
0.047006
0.076919
-0.087879
0.064631
0.052230
0.052182
0.018393
0.001859
0.044196
-0.014553
0.069377
-0.055300
0.049940
0.015165
0.016682
0.120044
-0.057666
-0.025654
-0.039149
-0.006399
0.040966
0.009238
-0.001477
-0.042934
-0.067097
-0.061821
0.027039
-0.030603
0.025613
0.041969
-0.087832
0.002084
-0.010994
-0.027861
0.036176
-0.054161
-0.043138
0.145142
-0.045136
-0.018732
0.034031
0.004809
0.097406
0.015729
-0.018566
0.042005
0.030807
0.115264
-0.202004
0.094597
-0.042306
-0.012758
-0.112263
0.184217
0.028351
0.095874
-0.034926
-0.071453
-0.033470
-0.025577
-0.013241
0.033936
0.060662
0.072937
-0.012521
0.054843
0.014753
-0.090640
-0.020486
-0.009895
0.081107
0.007197
-0.066985
-0.136484
0.062704
0.011908
0.079921
-0.010107
-0.109843
-0.088055
0.014009
0.039988
-0.083781
0.080335
-0.052324
-0.001353
0.034862
0.065375
0.049663
-0.075459
0.013554
-0.107959
-0.066924
-0.069476
0.031397
-0.134736
-0.109169
-0.048346
-0.049420
-0.030726
0.040034
0.082655
0.088179
0.052508
-0.093011
0.008454
-0.099056
-0.126817
-0.076575
-0.016029
0.082680
-0.002714
-0.128300
-0.022842
0.002056
-0.041167
0.039692
-0.022407
0.024651
-0.069018
-0.022667
-0.129598
-0.047132
-0.021087
0.050865
0.070573
0.044541
0.010845
-0.080031
0.034277
0.084672
-0.016276
-0.087451
-0.018058
0.040593
-0.027340
0.040938
0.093962
0.068510
0.070352
-0.060796
-0.011553
-0.114187
-0.063001
0.133606
0.052231
-0.071220
0.009743
-0.086576
-0.010853
-0.074849
0.047860
-0.111315
0.021233
0.097420
-0.185260
-0.082070
-0.092338
-0.004418
0.083891
-0.029269
0.061523
-0.021209
0.048493
0.039102
-0.013498
-0.026888
0.003608
0.057259
-0.046654
0.000320
0.040843
-0.001432
0.094761
0.048357
0.066284
0.025567
0.032821
0.029225
0.085607
-0.012680
0.048199
-0.069743
0.048531
0.051311
0.050464
-0.009801
-0.090928
0.066165
0.055335
0.034471
-0.029738
-0.003674
-0.130664
0.080878
0.117273
-0.001576
-0.029233
0.032365
-0.099980
-0.010137
-0.038969
-0.028415
0.073203
-0.030685
-0.034444
-0.057583
0.013221
0.124882
0.013133
0.005850
-0.115553
-0.151300
-0.030178
-0.043714
-0.001875
-0.103092
0.060588
0.056576
0.060178
0.017638
-0.082504
0.030372
0.070031
-0.088329
0.109463
0.049388
-0.066915
-0.023308
-0.143549
-0.122012
-0.019432
0.027893
-0.018495
-0.010191
-0.010400
-0.121562
0.024396
0.007438
-0.080379
0.035682
0.088775
-0.000155
0.040981
0.073582
-0.109879
-0.016881
-0.112793
0.040876
-0.009554
0.074233
-0.060857
-0.132082
0.023101
-0.016827
-0.001513
-0.004297
0.010173
-0.061311
-0.053853
-0.057887
0.034611
0.034029
-0.041213
0.045627
0.111951
-0.051732
-0.063513
0.105629
0.020287
0.000392
-0.035662
0.068455
-0.010743
0.042713
0.013370
0.058219
-0.017076
-0.014385
0.035669
-0.028962
-0.092831
-0.015104
0.023158
0.032930
0.059782
0.035053
0.055031
0.076227
-0.041573
0.041689
-0.018107
-0.026556
0.001983
-0.040641
-0.059492
-0.062704
0.059149
0.049666
0.024215
-0.031116
0.028574
0.004411
-0.028637
-0.119762
-0.049998
-0.029117
0.004482
-0.052653
0.045818
-0.041910
0.069319
0.037968
0.056702
-0.059136
0.010589
-0.071183
0.066648
0.058789
0.054345
0.058700
0.037868
0.033867
0.079601
-0.075302
0.058946
0.041654
0.078904
-0.044619
0.018432
-0.000468
0.108776
-0.034074
0.051281
-0.147037
-0.051373
-0.105764
-0.052101
-0.064076
0.102895
-0.050839
0.019428
0.012567
0.029765
0.078450
-0.036185
-0.141005
-0.103131
-0.019824
0.026999
0.069536
0.029002
-0.036623
-0.077222
-0.134952
-0.099364
-0.073735
-0.054042
-0.017383
-0.009532
0.032485
-0.061559
-0.049488
0.050257
0.004300
0.030907
-0.061951
-0.040769
-0.074078
0.003140
-0.017317
-0.008783
0.065533
-0.020099
-0.030943
-0.091898
-0.084442
0.070280
0.044703
-0.090210
0.081832
0.011224
-0.138018
0.129470
-0.091994
0.064217
-0.081401
-0.002567
-0.033625
-0.026839
-0.086336
0.003006
0.162889
0.057022
-0.048925
0.030552
0.057273
0.075204
0.056624
0.046960
0.065516
-0.025144
-0.016473
0.091547
0.115846
-0.014069
0.002407
0.077602
0.074082
-0.072515
0.111831
-0.047297
-0.002073
-0.047757
0.066015
-0.066638
0.017620
-0.002865
0.010829
-0.045312
-0.140969
-0.075321
0.109697
0.037522
0.064485
-0.000479
0.096082
-0.020258
-0.045675
-0.067203
0.015937
0.009577
-0.010865
-0.045580
-0.143707
-0.130958
-0.216585
0.119363
-0.045885
0.024447
0.080514
0.067977
-0.118463
-0.001356
-0.000561
-0.022577
0.106852
-0.015816
-0.095176
-0.016163
-0.009403
-0.017772
0.029467
0.012274
0.110045
0.036798
-0.054483
-0.069608
0.075207
-0.012444
0.114217
0.057620
-0.068832
0.021393
0.001954
0.104195
0.036237
0.005770
-0.041160
0.019392
-0.043971
0.123862
-0.072902
0.106439
0.093023
0.047839
-0.055231
-0.061415
0.085226
0.048183
-0.055227
0.038255
-0.006088
0.071744
0.037400
0.108492
0.063786
0.139568
0.004457
0.038347
-0.020262
0.050667
0.002016
0.061421
0.030344
-0.032818
-0.133988
-0.002361
-0.026766
-0.001673
-0.064682
0.006053
-0.017751
-0.021822
