# Shape: (3, 3, 3, 32)
-0.161620
-0.109214
-0.093173
-0.058944
-0.135173
0.189064
0.096376
-0.074665
0.014509
0.120921
0.081228
-0.211056
-0.080992
0.042274
-0.036729
-0.083370
0.013834
-0.045297
0.174777
0.056204
0.019199
0.154328
0.077343
0.196246
0.076707
-0.114976
-0.063722
0.197725
0.040802
-0.006684
-0.035362
0.057229
0.118249
-0.096137
0.026770
-0.112067
-0.032360
0.067375
-0.034696
0.048895
0.115168
0.023580
-0.140685
-0.197809
0.083022
0.050183
-0.076202
-0.039324
-0.078717
-0.036716
-0.052586
0.138125
-0.151983
0.124036
0.061830
0.036706
0.024544
0.004042
-0.019557
0.034516
0.079003
-0.096123
-0.089555
0.010854
-0.027311
-0.105868
-0.039435
0.073207
-0.015453
0.043319
-0.005355
0.104969
-0.018934
0.025640
-0.000840
-0.113669
-0.168976
-0.038006
0.016344
-0.090163
-0.115695
-0.116964
-0.143642
0.098080
-0.085293
0.226568
0.058565
-0.119563
0.115559
-0.048907
-0.091488
0.090054
0.143081
-0.028154
0.089179
-0.006507
-0.025100
-0.049512
-0.035636
0.122865
0.016454
-0.028861
0.077420
-0.045894
-0.121183
-0.022318
-0.183313
-0.038756
0.009078
-0.031710
-0.231129
-0.139461
-0.128023
0.111130
0.138027
0.168316
0.017876
-0.060397
0.078314
0.119328
-0.138993
0.060519
-0.025227
-0.027147
0.093918
-0.066708
0.088163
-0.124680
0.095327
-0.106355
-0.116561
-0.129683
0.126118
0.085445
0.038135
0.012753
0.043325
0.082385
0.042840
0.105623
-0.023634
0.130798
-0.227350
-0.022985
0.028894
0.001627
0.004700
0.117069
-0.109331
-0.102709
0.073646
-0.055470
0.034670
-0.126079
0.019653
0.028413
0.062044
0.003566
0.027936
-0.060466
-0.149365
0.071221
-0.089241
0.126841
0.037609
0.107359
-0.027797
-0.022491
-0.063467
-0.071444
-0.119264
0.025970
0.080385
-0.040676
-0.144156
0.144787
-0.031044
0.111135
-0.115144
0.013358
0.130600
-0.007494
0.135760
-0.078161
0.123415
-0.043826
-0.053055
0.048516
0.006461
-0.141152
-0.146446
-0.153309
-0.049973
-0.055005
0.057894
-0.051545
0.115130
0.038111
0.104207
0.099535
-0.100556
-0.049109
0.150148
0.041626
0.017765
0.138351
-0.014297
0.119387
-0.113377
0.063927
0.151694
0.054707
-0.085293
0.065999
-0.107370
0.148876
-0.128349
0.095706
0.164402
0.182194
-0.142911
-0.064910
-0.017848
0.163207
0.195078
-0.028406
0.089012
-0.151954
0.096401
-0.121617
-0.160877
0.031038
-0.054604
0.011985
-0.025931
-0.037664
-0.021614
0.017853
0.083842
0.066599
-0.126127
0.038137
-0.042289
0.041429
-0.016756
0.113557
0.137184
0.004157
-0.115732
-0.000151
-0.054801
-0.025067
-0.081151
0.040874
-0.050513
-0.019332
-0.094100
0.012221
-0.055997
-0.091806
0.175773
-0.155029
0.033708
-0.025355
0.082313
-0.048352
-0.053821
-0.042320
0.062987
-0.197108
-0.080028
0.184093
-0.056918
0.088826
0.052630
-0.200476
0.216990
-0.003343
-0.056136
0.081503
-0.130344
0.018598
-0.120649
0.138124
0.037208
-0.042572
-0.080190
-0.048259
0.016626
0.055963
-0.102786
0.023204
-0.085721
-0.026647
-0.084035
-0.133900
0.130228
-0.088058
-0.189388
0.083376
-0.110297
-0.028723
0.160497
-0.085250
-0.003991
-0.096033
-0.083660
-0.137423
0.055517
0.075696
0.108829
0.098357
0.054934
-0.170898
-0.122640
0.024577
0.129244
0.088666
0.095974
-0.136718
0.098140
-0.128131
0.077012
0.104966
-0.126390
-0.018605
-0.160351
0.027948
0.154257
0.132195
0.048704
0.098293
0.044689
-0.103342
-0.040798
-0.054836
0.005271
0.091270
0.100761
-0.015717
-0.218415
0.055603
0.066413
0.027129
0.021768
0.061608
-0.066446
-0.014952
-0.080821
-0.003631
0.122840
-0.166314
-0.038684
0.002789
-0.008563
-0.022611
0.041049
0.051140
0.107466
0.109917
-0.113953
0.089716
-0.142743
0.093140
-0.167264
0.005014
0.055096
0.166589
-0.084476
0.012196
-0.132358
0.142050
-0.035789
0.128459
-0.037407
-0.067804
0.062982
-0.145321
-0.005927
-0.115453
-0.040737
-0.061113
0.139516
0.076982
0.041919
0.104646
-0.081490
0.006432
-0.145134
0.094646
0.072371
-0.049722
0.129677
0.077818
-0.000784
-0.040131
0.079644
-0.200791
0.075671
0.055094
0.163751
-0.038954
0.014855
-0.199504
-0.039883
-0.097901
-0.038498
-0.026191
-0.035006
-0.014051
0.044939
0.070196
-0.005515
-0.083092
0.172275
0.068383
0.152020
-0.045473
0.006286
0.085397
-0.182415
-0.130049
-0.102683
-0.116114
-0.038065
-0.052760
-0.147992
0.111598
0.179180
-0.152512
0.029517
0.024698
0.161590
0.124366
0.010769
-0.186024
-0.023661
-0.033677
0.057849
-0.178662
0.142101
0.079032
0.155213
-0.133225
0.029069
-0.138755
0.003195
-0.079498
0.014066
-0.067945
-0.128010
0.124959
-0.095378
-0.071728
-0.050787
0.026401
-0.039905
0.149122
-0.015863
0.127523
0.131405
0.137322
0.104511
-0.074098
0.027172
0.050356
-0.014210
0.001061
-0.009540
-0.030859
0.058244
0.071486
0.102883
0.037100
0.038988
-0.157778
-0.007589
-0.125157
-0.128808
0.053095
-0.073943
-0.083978
-0.161490
0.041297
0.223418
-0.211883
0.012502
0.160374
0.004273
0.112536
0.196551
0.045045
-0.002593
0.129428
0.105757
0.064910
-0.086484
-0.121820
-0.118804
0.008797
-0.076848
-0.124652
-0.021481
-0.191989
0.019574
0.150283
0.051170
-0.051178
-0.156974
-0.016237
-0.099065
0.122495
0.001858
0.067534
0.142099
0.131245
-0.021604
0.057465
-0.086855
-0.070244
-0.058583
-0.122701
-0.068867
-0.113969
0.084540
0.108560
0.097609
0.030991
-0.090227
-0.182615
-0.162688
0.028814
0.029352
0.101648
0.098676
-0.078155
0.027433
0.128667
-0.071056
-0.101151
-0.117659
-0.026896
0.066618
0.082828
0.031269
0.106245
-0.142933
0.062240
0.024001
-0.056250
-0.032850
0.020550
-0.018878
-0.047456
0.115407
0.085589
-0.076096
0.001231
-0.084403
0.136489
0.050931
-0.142306
0.037201
-0.033829
0.012216
-0.027924
0.039351
-0.070108
-0.131474
-0.079780
0.078199
-0.058419
0.004916
0.034177
-0.101482
-0.085043
0.051961
0.139065
0.184669
-0.181038
0.150705
-0.000297
0.015100
-0.185015
0.054544
-0.153635
-0.065033
0.126556
0.026095
-0.026245
0.120021
0.070840
0.053523
0.025103
-0.084261
-0.133090
0.123015
0.029629
-0.126415
0.101079
0.050591
0.065142
-0.257034
0.019785
0.011498
0.123973
0.001618
-0.101199
0.045454
0.118228
0.009926
0.062050
-0.008140
0.112204
-0.186234
-0.118093
-0.028962
0.138987
0.042910
0.004787
0.188083
0.109668
0.083947
-0.045401
0.047408
0.036341
-0.025519
-0.047778
-0.118002
-0.104637
-0.134261
0.060261
-0.146775
0.116782
-0.119026
0.107006
0.034969
-0.049678
0.046986
-0.062011
-0.028741
0.106077
0.064529
0.074376
0.009944
0.010855
0.033480
-0.018449
0.033706
0.017576
-0.037590
-0.026866
0.026118
0.153764
0.131400
0.155337
0.055122
-0.166483
0.042124
0.042699
0.051380
-0.076706
-0.179711
0.146119
-0.134525
-0.116797
0.187113
0.038182
-0.214680
0.076301
-0.003789
0.111222
-0.173897
0.113494
-0.005476
-0.164406
-0.027641
0.085738
-0.114045
0.012151
-0.095253
-0.168343
-0.045902
0.088868
-0.112974
-0.035064
0.027635
-0.120146
0.076827
0.056759
-0.002156
-0.057379
0.087820
0.059822
-0.034396
0.017509
-0.118241
-0.080604
-0.152271
-0.039576
0.162095
-0.004203
-0.067975
-0.047460
-0.047790
0.149200
0.079414
0.078419
-0.046605
0.061328
0.035102
0.103711
-0.180299
-0.187710
0.042605
-0.195500
-0.013350
-0.170887
-0.015417
0.053874
0.116447
0.142357
0.110858
-0.120951
0.058381
-0.081208
-0.149861
-0.099973
0.063253
0.057504
-0.069798
-0.119275
-0.067142
0.084829
-0.051321
0.146351
-0.059842
-0.098898
0.145590
-0.080980
-0.141867
-0.096127
0.114246
0.052482
-0.018644
-0.003587
0.041618
0.057147
-0.070554
-0.060871
-0.090920
0.137057
0.043002
-0.067189
0.103728
-0.087442
0.001223
0.034890
-0.114697
0.033547
-0.036559
-0.099287
0.009286
-0.077368
-0.067008
0.126510
-0.155148
0.163166
0.069989
0.122858
0.107883
-0.103241
-0.060403
-0.119149
0.064959
-0.037314
-0.043331
-0.119075
0.015427
0.141503
-0.104794
0.018655
-0.096766
-0.157221
0.065514
-0.078111
-0.094973
0.175585
0.114926
-0.096308
0.040674
0.015321
0.128038
0.065618
-0.114662
0.036344
0.012361
0.100306
0.103230
-0.004139
0.126937
-0.037513
0.056968
0.077548
-0.102347
0.022553
-0.016830
-0.075822
-0.118383
-0.006390
0.092408
-0.149322
-0.068825
0.080338
-0.046726
-0.186824
0.054111
0.125203
-0.066144
0.075533
0.018451
-0.115519
-0.047840
-0.110065
0.121630
0.110999
-0.131366
-0.140514
0.084294
0.139753
-0.062614
-0.067926
-0.021673
-0.041183
-0.128243
-0.083618
0.123677
0.048381
-0.082323
-0.071560
0.085172
0.110216
0.120039
-0.158227
-0.164721
-0.035820
0.035038
0.099830
-0.130608
-0.001480
0.174056
0.076075
0.056731
0.066354
-0.053927
0.096441
-0.082804
-0.115826
0.076620
0.091974
0.018721
0.148571
-0.016497
0.098034
