# Shape: (1, 1, 128, 2)
-0.124002
-0.085830
0.023104
-0.097631
-0.162351
0.010474
0.075911
0.131391
0.101390
0.031964
-0.093149
0.028738
0.101417
0.187135
0.084932
-0.028883
0.046303
0.198671
0.099847
-0.017419
-0.065038
-0.177455
0.126653
0.123775
0.157082
0.082887
0.022468
-0.109748
0.210333
-0.030150
-0.004325
0.065968
0.194441
0.173559
0.125170
-0.085004
0.005916
0.066245
-0.040405
0.103105
0.144730
-0.071261
-0.156273
0.161886
0.155140
0.023653
0.082856
0.027676
0.097380
-0.191928
0.008193
-0.085884
-0.008190
-0.124628
-0.149194
-0.038454
0.033696
0.088295
-0.103618
-0.205158
-0.054512
0.066232
-0.025372
-0.115494
-0.103649
-0.101399
-0.156536
-0.163208
-0.152927
0.148521
-0.034248
0.173978
0.095971
0.014982
0.041939
0.040361
-0.085494
-0.164624
0.070909
-0.195559
-0.090216
-0.095757
-0.026138
-0.064736
-0.158820
0.140425
-0.077000
-0.135414
0.080908
0.128729
0.122830
-0.032062
0.083233
0.144939
0.022430
-0.087692
-0.185476
-0.096454
0.176840
-0.089265
0.119427
0.115082
0.072395
-0.136456
-0.024267
-0.006330
-0.152497
-0.150539
0.196676
0.030678
-0.075496
0.158938
0.014063
0.178389
0.102536
0.170670
0.019576
0.155180
-0.156742
0.175357
0.112330
-0.084112
0.201764
-0.026389
-0.036331
-0.135329
-0.056740
0.166319
-0.084963
-0.184480
-0.143775
-0.012077
-0.048037
0.001737
0.155543
-0.103311
0.173900
-0.025771
0.167114
-0.155389
-0.032996
-0.158492
0.014830
-0.058194
-0.010508
-0.085456
0.106788
-0.123733
0.114598
-0.097766
-0.045436
0.044541
0.038948
0.076563
-0.153893
-0.205139
0.064116
0.151508
-0.193102
-0.131902
0.142348
0.068865
0.135836
-0.077331
-0.115497
-0.147701
-0.144729
0.207571
0.155600
-0.085009
0.181160
-0.109385
0.182261
0.079534
0.015053
0.179689
-0.032119
-0.036226
0.135924
-0.139668
0.038285
-0.090440
-0.046002
-0.102439
-0.169029
-0.089485
0.105340
-0.119847
0.031724
-0.126173
-0.117915
0.005284
-0.089587
0.156157
-0.074331
-0.121594
0.039178
-0.120319
-0.184409
-0.012072
0.008396
0.125065
-0.145482
0.077617
0.059253
-0.057187
-0.064507
-0.075515
-0.164064
0.214186
-0.151502
0.012422
-0.102675
-0.025106
-0.014090
-0.074713
0.123045
-0.024880
0.001729
0.086790
0.146782
-0.094766
-0.106621
-0.014744
0.120255
0.036965
0.035582
-0.093284
0.012222
0.010279
-0.002426
0.003796
-0.047816
-0.097960
0.007232
-0.027188
-0.109326
-0.025515
0.176785
-0.034896
0.160962
0.085671
0.060790
0.092433
-0.003963
-0.083843
-0.124695
-0.115050
-0.160400
0.120210
-0.006198
0.184736
-0.149566
-0.100337
-0.109667
0.162268
