# Shape: (1, 1, 128, 10)
-0.230758
-0.331998
0.005166
0.132840
-0.212784
0.072460
-0.031679
0.152042
0.186743
-0.307797
0.150740
0.216311
0.127431
0.197918
-0.098656
0.155310
-0.107834
-0.213240
0.200221
-0.237709
-0.013681
-0.202359
-0.106538
-0.211759
0.097291
-0.182370
-0.237073
-0.198758
-0.268947
-0.131196
0.250183
0.144210
-0.009777
0.070141
0.195582
0.096322
-0.218416
-0.006808
0.137999
0.112155
-0.105260
-0.192367
-0.376917
-0.225129
0.012195
-0.190833
-0.527505
-0.402793
-0.266297
-0.264141
0.206649
-0.200557
0.246785
0.189395
-0.087652
0.118228
0.096539
0.151870
0.069535
-0.122634
-0.018955
0.327884
-0.078964
-0.014991
0.132757
-0.228422
0.249218
-0.040025
-0.122952
-0.146260
-0.114959
0.170493
0.109625
-0.015543
0.183101
-0.220167
-0.176095
-0.182727
-0.036386
-0.208149
-0.326059
-0.133109
0.033323
0.042727
-0.014893
-0.072992
0.103757
-0.180973
0.332191
-0.321135
0.135916
-0.027941
-0.066890
-0.235999
0.048751
-0.032475
-0.217503
0.280011
-0.071150
0.259306
0.081862
-0.224405
0.003853
0.015580
-0.097118
0.151991
0.123038
0.212850
-0.180949
-0.408922
0.102695
-0.259241
-0.085957
0.124364
-0.174952
0.147278
-0.349352
0.193942
0.019455
0.078831
-0.060121
0.081537
0.119917
0.171406
0.024814
0.160327
-0.178691
0.258612
0.331155
0.105173
0.083697
0.240484
0.163360
-0.086667
0.089987
-0.063603
-0.017167
0.062315
-0.169304
-0.208302
0.161603
0.045404
0.062236
0.011892
0.047577
0.150857
0.117298
0.055173
-0.118085
0.315547
0.065176
-0.460820
-0.327877
-0.206371
-0.058232
0.192636
0.200843
-0.178646
-0.005187
-0.125199
-0.026761
0.105366
0.065632
0.064157
-0.119622
-0.251665
-0.445620
-0.098832
-0.013438
-0.306701
0.064770
-0.088523
0.026421
-0.035546
0.131007
0.347471
0.187992
-0.064473
0.314128
-0.151693
-0.351342
-0.343202
0.008872
-0.050387
0.183825
0.052732
0.037936
-0.046778
-0.295581
-0.216586
-0.115468
0.292895
0.142762
0.154410
0.302191
-0.085012
-0.089328
-0.064979
0.105610
0.201715
0.211732
-0.023042
0.364097
-0.063392
0.134372
-0.154056
0.192125
-0.106923
0.076412
-0.079985
-0.223908
-0.122302
0.340545
0.119838
0.008818
0.186518
-0.006340
0.233070
0.183016
0.076436
0.142564
0.134207
-0.068438
-0.138221
-0.125756
-0.299958
0.180428
-0.210629
0.302296
-0.210418
0.143405
-0.075722
0.032176
-0.181776
-0.092963
0.310348
-0.055840
0.013399
0.167374
0.144398
-0.274801
-0.059017
-0.264954
-0.184512
-0.118310
-0.265794
0.034534
-0.058914
-0.135555
-0.566035
0.019719
-0.304131
-0.126819
-0.283947
-0.103223
-0.411890
-0.345123
-0.211334
0.016779
-0.134406
0.186206
-0.077047
0.289769
-0.083544
-0.178832
-0.065213
0.317577
0.166379
0.301878
0.038252
-0.382040
-0.422947
-0.229133
0.108522
0.102676
-0.039299
-0.004174
-0.424959
-0.483791
-0.126265
-0.234437
-0.082442
0.038000
0.067181
0.041667
-0.254980
-0.153664
0.272100
-0.065851
0.326626
0.110852
-0.228761
-0.085700
-0.081782
-0.125638
-0.090092
0.038617
-0.564592
0.204207
-0.173755
-0.326173
0.146772
-0.195404
0.219028
-0.058222
0.214607
0.165025
0.002989
-0.089837
0.002244
-0.329420
-0.033151
-0.233830
-0.290823
0.034408
0.265730
-0.555514
0.185156
-0.222973
-0.445635
-0.087040
0.103986
-0.096822
0.037697
0.142364
0.051602
0.253648
0.177693
0.014574
0.287646
0.225573
0.273880
0.051998
0.002025
0.060605
0.072671
0.257403
0.062605
0.056114
0.009571
-0.050076
-0.284047
-0.036577
0.251994
-0.150283
0.049476
-0.098111
0.080338
0.050500
0.187037
0.160446
-0.110383
0.376161
-0.121564
0.032031
-0.054544
-0.218019
0.098622
-0.078645
0.102384
-0.034893
-0.037860
-0.155393
-0.479815
-0.549522
-0.380755
-0.195199
-0.210804
-0.000312
0.126202
-0.064596
0.158430
0.192527
0.179979
0.221207
0.195821
0.192317
-0.187572
-0.143646
0.047574
-0.062235
0.310810
0.181660
0.032430
0.051262
-0.037938
-0.400853
-0.118097
0.062130
0.094890
-0.491745
-0.363337
-0.081755
-0.087016
0.013915
0.065283
-0.057563
0.251036
-0.032823
-0.347902
0.048869
0.217204
0.163286
0.118366
-0.091754
-0.153253
0.247104
-0.101760
-0.102147
0.060544
0.050578
-0.300372
0.170067
-0.095849
-0.183097
-0.103864
0.376612
0.094553
0.080456
-0.189033
0.208741
0.267010
0.027658
-0.232375
-0.094092
-0.218271
0.345743
-0.086218
0.164860
0.268035
-0.160841
0.200282
0.172240
0.000646
-0.056670
0.024014
0.109661
0.216394
0.078115
0.265371
-0.130765
0.092106
0.335127
-0.097729
0.084064
-0.262683
-0.040271
-0.500122
-0.227361
0.015897
0.116433
-0.289551
0.099336
0.186708
0.011464
0.108341
-0.016232
-0.206080
-0.073828
0.213864
0.244759
0.268668
-0.027162
-0.328321
0.118483
-0.116391
-0.194230
-0.171262
0.145182
0.283184
0.326877
-0.006193
-0.068067
-0.251100
-0.028545
0.117743
-0.146855
0.339941
-0.036506
0.013407
0.466205
-0.191344
0.001790
-0.021862
-0.052137
0.001316
0.171922
0.064244
-0.398225
0.158535
-0.180895
0.133044
-0.276777
-0.104899
-0.000961
-0.076203
-0.111237
0.331774
0.075362
0.225539
-0.161901
-0.331667
0.030166
-0.127926
-0.111940
-0.049967
-0.093802
-0.356527
0.216909
0.067453
-0.122959
0.003339
-0.300992
0.008597
-0.174800
0.084962
-0.238991
-0.159527
0.283239
0.030488
0.138066
0.032127
0.158646
-0.047058
-0.182821
0.150141
-0.122141
-0.177536
0.111834
0.308135
-0.299121
0.290985
-0.131950
-0.019173
-0.095447
-0.104144
0.311069
-0.022015
0.185504
-0.007751
-0.099359
-0.216469
-0.361741
-0.047176
0.083527
0.285179
0.063736
0.025732
-0.555045
-0.219995
0.076070
-0.222117
-0.038691
-0.077519
0.021730
-0.285182
-0.706095
-0.277666
-0.131084
0.057917
0.126929
0.215752
-0.302701
-0.165367
-0.045013
-0.272311
0.106551
0.267477
0.302564
-0.215992
-0.174107
0.322605
-0.068039
-0.154441
-0.278518
-0.067426
-0.191007
0.205539
-0.131506
0.148856
0.191338
-0.298656
-0.128461
-0.296408
0.153550
-0.032678
-0.184172
-0.084121
-0.000922
-0.185500
-0.441499
-0.277278
-0.223554
0.208811
0.070077
0.119883
-0.170688
-0.041391
-0.346692
-0.274858
0.045363
0.142953
0.141656
-0.007442
0.167048
0.228213
-0.017624
-0.106674
0.082535
0.213241
0.138123
-0.113206
0.074675
0.189656
-0.162572
0.167599
-0.126719
0.270613
-0.295963
-0.065792
0.195291
-0.233013
-0.338318
0.088031
-0.190559
-0.350906
0.056582
-0.317944
0.090789
0.126053
0.069621
-0.320784
0.016966
0.001415
0.312946
0.016737
-0.194871
-0.191503
0.200839
-0.308844
-0.034674
-0.041745
0.063005
0.093758
-0.169270
0.219260
0.041972
-0.074519
-0.091707
-0.402602
0.005008
0.014398
0.068253
0.038609
0.209923
-0.158671
0.058816
-0.196488
0.273891
0.202624
-0.023810
-0.128682
-0.190841
-0.047713
-0.008705
-0.215424
-0.065055
-0.252367
-0.381209
-0.482525
-0.067494
-0.479404
0.214524
-0.173340
0.125775
-0.054399
-0.307451
0.136417
-0.343787
-0.398156
0.227822
0.235404
-0.124205
0.187259
-0.090102
0.149383
0.276820
0.204514
-0.167754
0.184693
0.115714
0.134984
-0.185931
-0.058983
0.126905
-0.236135
-0.292001
0.321322
-0.226063
0.254476
-0.139110
-0.253233
0.010016
-0.289579
0.077660
-0.304114
0.120683
-0.102750
0.156350
-0.244441
0.169737
-0.062544
0.265514
0.006227
0.007271
-0.188624
-0.195018
0.100499
0.036046
0.228620
-0.045057
0.200284
0.077445
-0.127392
0.019948
0.294924
-0.036039
0.286167
-0.154903
-0.175455
-0.397174
-0.178873
-0.354221
-0.149517
0.153711
-0.054819
-0.026140
-0.429029
-0.349402
-0.286120
-0.191922
0.380304
-0.231737
0.248980
-0.026168
-0.067140
-0.033633
-0.118198
-0.178656
0.059070
0.150094
0.011470
-0.056831
0.204639
-0.088273
0.068466
0.201076
-0.018164
0.214825
0.079910
0.062833
-0.301005
-0.050069
-0.156241
0.253179
-0.296203
0.169362
-0.004338
-0.035845
-0.197065
-0.078254
-0.003467
0.334091
-0.163970
0.072782
-0.064602
0.042657
0.066225
-0.087299
0.164697
0.012724
-0.070385
-0.281202
0.217742
-0.148062
0.221998
-0.366144
-0.036977
-0.127024
0.265986
0.361179
-0.152412
0.196436
0.043699
-0.061991
-0.115080
-0.124314
-0.320958
-0.308177
-0.086248
-0.077947
-0.157990
0.196503
0.119074
-0.229391
0.011294
-0.106820
-0.081640
-0.145397
0.129800
-0.169113
-0.363494
-0.172818
0.050204
0.004658
-0.145933
-0.008855
0.224766
0.285245
-0.300269
-0.454540
-0.031441
-0.138002
0.006352
-0.065660
-0.013614
0.072582
-0.186734
-0.556300
-0.449981
0.073789
0.026266
-0.261171
0.069462
-0.135431
0.045223
0.017695
0.306942
-0.195670
-0.158684
0.121138
-0.044252
-0.010191
0.151079
0.201992
0.075007
-0.468334
-0.129661
-0.212855
-0.183269
0.008831
-0.214318
-0.281211
-0.100320
0.282775
0.008309
-0.055811
-0.198629
0.077346
-0.075467
0.109430
-0.187942
-0.248267
0.158849
0.216438
0.227730
-0.393643
0.098144
-0.164447
-0.132923
0.121158
-0.532396
0.129445
0.043567
-0.000360
-0.008535
0.098790
-0.175858
-0.306766
0.010889
-0.074413
-0.034918
0.123613
-0.049658
-0.020146
-0.323568
-0.201278
-0.145302
0.198478
0.238235
0.018862
0.248247
-0.317860
-0.199241
0.034011
-0.081169
-0.269369
-0.486374
-0.032505
0.123521
-0.377821
-0.245927
-0.021407
-0.006664
0.025067
-0.406816
-0.588789
-0.229536
-0.534279
-0.150931
0.109476
-0.457740
0.183806
0.230200
-0.247361
0.060610
0.038075
-0.051291
-0.151590
-0.460474
-0.090386
-0.051672
0.164751
-0.060432
-0.031613
0.384737
-0.210614
-0.236728
-0.251283
-0.158946
-0.106638
-0.112272
-0.286406
-0.277294
0.169645
-0.267792
-0.214508
0.074471
0.225712
-0.013305
-0.107910
0.103098
-0.238768
0.145983
0.159434
-0.033034
0.114229
0.070350
-0.323908
0.249875
-0.264169
-0.165075
0.068175
0.169303
-0.106150
-0.122729
0.245671
-0.302188
-0.149003
-0.307799
-0.156952
0.067570
0.026594
0.050328
-0.303054
-0.259254
-0.147717
-0.253803
0.188564
-0.078518
-0.329802
0.087255
-0.221582
0.300065
0.028114
-0.210414
-0.253578
-0.072272
-0.267240
-0.012426
0.029132
-0.069504
0.133800
0.202913
0.099239
0.037827
-0.353218
0.273278
0.018500
-0.205611
-0.444464
-0.343444
-0.097335
-0.161681
-0.273171
0.106484
0.171898
0.235311
-0.047220
0.203170
-0.216447
0.061382
0.064975
-0.154704
-0.054225
-0.230452
-0.296536
-0.115315
0.154699
0.347680
-0.261519
-0.014907
0.305859
0.062779
-0.023995
-0.089421
0.183530
0.232862
-0.252061
-0.225193
-0.170488
-0.206355
-0.238831
-0.128267
0.220955
-0.071738
0.220062
-0.321559
-0.324190
-0.486451
-0.193415
-0.351918
-0.227399
-0.235699
0.043597
-0.097469
-0.033728
-0.305552
-0.147969
-0.108366
0.080291
0.323303
-0.184595
-0.141605
-0.478401
-0.168432
-0.229420
-0.237548
-0.005995
0.284721
-0.322839
0.352936
0.009905
0.035979
-0.014736
0.145455
0.352962
-0.169000
-0.243775
0.112601
-0.258466
-0.510723
0.034323
0.131361
0.051904
0.160692
-0.019714
-0.032489
0.136261
-0.032203
0.325107
-0.006761
-0.089165
0.218234
0.084765
-0.019965
0.082586
0.269937
0.144234
0.086095
-0.028749
-0.140960
0.220881
-0.243546
-0.108784
-0.088411
-0.343201
0.157427
-0.261024
-0.337833
0.150791
-0.221410
0.193670
0.015801
-0.062502
-0.055796
0.132194
-0.330817
-0.381503
-0.353379
-0.323830
-0.200123
-0.147422
0.085923
0.021865
0.118713
0.104900
0.219139
0.213214
-0.004835
-0.023153
0.149700
-0.155587
0.175784
0.097038
-0.087061
-0.125190
-0.398765
-0.245808
0.117568
-0.180020
-0.352781
0.231722
-0.164807
-0.014201
-0.349956
-0.131840
-0.247805
-0.492654
-0.095209
-0.445612
-0.161554
0.142512
-0.009395
-0.129930
-0.246633
-0.183428
0.102944
-0.260872
-0.136309
0.151119
0.225187
-0.119975
0.059302
-0.100741
0.219183
0.169370
-0.054089
0.191979
-0.176023
-0.080670
-0.059885
0.027740
0.069219
0.307045
0.185564
0.278454
-0.093443
0.211201
0.135383
0.131170
-0.030803
-0.289001
-0.033389
-0.316817
-0.345840
-0.410853
-0.096427
0.205229
-0.234688
-0.238875
-0.313732
-0.144474
0.202368
0.079234
0.094839
0.227830
-0.281799
0.004008
0.245180
0.170382
0.293941
0.145872
-0.021718
-0.150246
0.046791
-0.262922
-0.018807
0.154938
-0.243558
0.127621
-0.295975
-0.004770
-0.081191
0.022651
0.095991
0.355054
0.089094
-0.213554
-0.034641
0.173205
0.199583
0.196714
0.121569
-0.219508
0.230054
0.101942
0.033541
-0.097594
0.306865
0.284400
-0.137622
0.364964
0.089626
-0.034226
-0.199721
0.170430
0.029697
-0.185972
-0.320072
-0.234010
0.087713
-0.163668
-0.098014
0.022595
0.058965
0.206277
0.230620
0.413336
-0.002285
0.160437
0.029922
-0.129877
0.330084
0.179022
0.038294
0.133610
0.116313
0.129678
-0.060015
-0.301425
-0.652100
-0.270901
-0.241477
-0.038544
-0.305084
-0.467828
-0.114042
-0.405433
-0.307140
-0.432270
0.090622
0.127785
0.043539
0.262527
0.160658
0.015561
0.043472
-0.267182
-0.182804
0.188137
-0.232677
0.095909
-0.205584
0.058187
0.205112
-0.233204
0.115982
-0.370269
-0.141143
-0.182902
-0.517732
0.262266
-0.005658
-0.123111
-0.063993
-0.053680
0.084610
-0.326684
-0.047804
