# Shape: (3, 3, 64, 64)
-0.073329
0.023973
0.110326
0.102355
0.019087
-0.075247
-0.149871
0.129663
0.040994
0.123249
-0.116245
-0.075048
0.040155
-0.009444
-0.028893
0.011546
0.091691
-0.064537
0.052163
-0.021942
0.070031
0.114241
0.036116
-0.032895
0.033893
0.028137
0.140455
-0.061946
-0.214462
0.125591
-0.227351
-0.034231
0.017468
-0.018802
-0.100397
0.026841
-0.101268
0.033283
-0.266871
-0.057062
-0.031128
-0.013931
-0.006809
-0.010836
-0.197745
-0.122766
0.134021
-0.002837
-0.078160
-0.042818
0.145820
-0.178702
0.128486
0.027713
-0.080494
-0.011970
-0.016491
-0.101519
-0.181970
0.042849
-0.057474
-0.172577
0.046035
0.070284
0.034512
0.127250
0.057331
0.077446
-0.016920
0.023227
0.007558
0.110176
0.112798
-0.187144
0.205139
-0.232603
-0.083746
0.052383
0.064992
0.030656
0.045287
0.048236
0.042705
-0.091322
-0.027230
0.143616
-0.079694
0.092797
-0.106742
0.019655
-0.057082
-0.076420
0.053613
-0.019953
0.066537
0.056871
0.094256
0.003774
-0.067760
0.079321
-0.134621
0.131915
0.041829
0.113848
-0.104899
-0.146857
0.070668
-0.080914
-0.017507
-0.023033
-0.107385
-0.236707
0.038232
-0.068310
-0.075036
0.117016
-0.020089
0.112535
0.006534
-0.017617
0.025783
-0.003335
0.059024
0.080320
-0.056375
0.004751
0.003629
0.042036
0.011813
0.037467
-0.062467
-0.050068
0.070574
0.013912
0.019348
0.058648
-0.060754
0.026213
-0.064244
-0.001350
-0.165002
-0.022738
0.140416
-0.093905
0.030066
-0.023578
-0.053910
-0.184020
-0.039480
-0.012538
-0.068876
0.018744
0.094926
0.025085
0.028195
-0.012490
-0.027206
0.003376
0.122159
-0.164699
-0.047849
-0.012994
0.143968
-0.010345
-0.111642
0.070001
-0.036073
0.017208
-0.193264
-0.066317
0.024733
0.110824
0.239729
-0.069277
-0.022868
0.007299
-0.056085
0.110795
-0.137577
-0.160152
0.130824
0.045352
0.033999
0.026532
0.081529
-0.095129
0.075655
-0.064741
0.025463
0.014179
0.006898
-0.158193
0.078090
0.066286
-0.060302
0.094311
0.058383
-0.121706
-0.053596
0.111226
0.063641
-0.009991
-0.102161
-0.025291
-0.109529
-0.124548
-0.039808
0.076409
-0.124357
0.159956
-0.021574
-0.028052
0.084160
-0.075128
0.012283
0.115446
-0.076559
-0.159514
0.002537
0.046947
0.048409
-0.061988
-0.049219
-0.081702
-0.095328
-0.118478
-0.111201
0.051425
0.023747
0.016613
0.080535
0.056307
-0.005868
0.068871
0.006843
-0.015843
-0.156882
-0.078002
-0.027441
-0.044432
0.001258
0.034161
-0.133105
0.130584
-0.130412
-0.028310
-0.006923
-0.033027
0.027519
-0.082051
-0.065111
-0.089840
0.014930
0.002785
0.101531
0.033149
-0.014324
-0.006404
0.080101
0.053842
-0.200359
-0.085978
-0.110679
0.021603
0.094486
0.016570
0.137188
-0.264787
0.002901
0.033617
-0.038559
0.071176
-0.149528
-0.094261
-0.105731
-0.006141
0.025090
-0.067246
0.022444
-0.030417
0.085081
0.026079
0.113435
-0.111851
-0.039821
-0.142264
0.052636
0.007573
-0.022942
0.000032
-0.092193
-0.066968
0.148010
0.074602
0.036661
0.029264
-0.012691
-0.138911
0.002999
0.023498
0.091272
-0.061747
0.054406
-0.100442
0.068709
0.100356
-0.025864
-0.035849
0.122859
0.024446
0.069902
-0.081344
-0.007687
-0.166507
-0.009309
-0.022275
-0.192325
0.025511
-0.054704
-0.027630
-0.114129
0.186380
-0.055496
0.095336
-0.018908
-0.012187
-0.065321
-0.093417
0.075862
0.006830
-0.052670
0.035118
0.016459
0.120897
-0.070147
-0.053986
-0.053556
-0.096542
-0.088787
-0.062840
-0.044930
0.040434
-0.067281
0.053207
-0.103381
-0.059667
0.081419
-0.007891
0.030735
-0.017381
0.028115
0.030719
-0.065174
-0.073558
0.051253
-0.070975
-0.057627
0.031226
-0.204163
-0.020208
-0.025834
-0.193636
0.021797
0.073357
0.134133
0.035264
-0.068866
0.023854
-0.011610
0.005289
0.021629
-0.117958
0.000496
0.058763
0.025254
-0.058471
-0.019138
0.044756
0.091880
-0.017398
0.020323
-0.073384
-0.008540
0.116046
0.013298
0.046923
0.018721
-0.029577
-0.133210
-0.237295
-0.027523
-0.035387
0.169933
-0.008972
0.031546
0.032844
-0.095110
-0.129829
0.121108
0.063378
0.024406
0.123915
-0.006803
-0.056120
0.078468
-0.050283
0.012526
0.034168
-0.104618
-0.044802
-0.196124
-0.027597
0.156503
0.093892
-0.202344
0.204068
0.007001
0.056206
-0.057253
-0.117519
0.072238
0.096549
-0.003445
0.062163
0.038619
-0.024591
0.011454
-0.009618
-0.144924
0.021964
0.096351
0.121684
0.048582
-0.088834
0.111298
-0.001497
-0.147291
0.093865
-0.009057
-0.078451
-0.209545
0.065187
-0.033963
-0.032744
-0.160000
0.071075
0.143753
0.103537
-0.181849
0.032103
-0.119689
-0.016230
-0.062191
0.058693
-0.058293
0.166193
0.017777
0.123921
-0.076360
0.019354
-0.092606
-0.112423
0.038787
0.219820
-0.013725
0.007931
-0.077377
-0.047053
-0.125245
0.065264
0.105711
-0.079232
0.140616
0.037311
0.034915
0.044147
-0.109067
-0.026236
-0.078876
0.020332
-0.171539
-0.251109
0.002369
-0.116521
-0.050992
0.007175
-0.238241
-0.012322
-0.093228
-0.026732
0.025796
0.014306
-0.229218
-0.090112
-0.142293
0.076543
0.042476
-0.154764
0.132646
0.029767
-0.026601
0.068940
-0.079903
-0.223828
0.054572
-0.016643
-0.215552
0.225399
0.109677
0.068579
-0.043538
0.057438
-0.091551
-0.133713
-0.043887
0.185639
0.042162
0.013696
-0.102464
0.126196
-0.023752
0.140381
-0.054911
0.093686
0.084395
-0.037481
0.020390
-0.072170
-0.172863
0.043095
-0.062877
-0.055535
-0.017859
0.098232
-0.042407
-0.123086
-0.298543
0.027849
0.108414
-0.048562
-0.091464
-0.000358
-0.078266
-0.068319
0.042863
-0.226683
-0.083844
0.049243
0.144882
0.047383
-0.069495
-0.150098
0.028252
-0.030930
-0.114497
0.047770
-0.055809
0.023060
0.144252
0.180289
0.029654
0.198283
0.032916
-0.074361
0.067758
-0.067323
-0.002969
-0.038532
0.082427
-0.025609
-0.112528
-0.054194
-0.152507
0.188338
0.019562
-0.003176
0.098233
-0.076226
0.099775
0.039837
0.055922
-0.108798
-0.022852
-0.152412
-0.122919
0.046555
-0.155592
0.036480
-0.015098
-0.040619
0.133951
-0.052676
-0.025798
0.146779
-0.084303
-0.004699
-0.196186
0.019815
-0.127235
-0.013627
-0.072238
-0.139448
-0.101637
-0.017966
0.040589
0.079326
0.028884
-0.024077
-0.016492
-0.083279
-0.007797
0.013623
0.005611
-0.026090
0.197060
-0.104466
-0.049831
0.062921
-0.154210
-0.034953
0.036291
0.061693
0.214392
-0.235430
0.025017
0.129802
0.192706
0.037907
0.095768
0.108163
0.062763
0.090248
-0.000681
-0.072060
0.045717
0.066225
-0.104400
-0.044287
-0.111473
0.015687
0.039829
-0.083158
0.117851
-0.034444
-0.008058
-0.044071
-0.172906
-0.014454
-0.071229
0.108614
-0.028847
-0.111241
-0.175876
0.132502
0.101080
0.026654
-0.079790
0.098951
-0.081169
-0.048810
-0.175499
0.134104
-0.071269
0.090239
-0.189021
-0.086666
0.013625
-0.033820
0.098093
-0.145182
-0.033393
-0.043626
0.026479
-0.102607
0.035741
0.181343
0.122157
-0.051691
0.113619
0.022012
-0.157390
-0.125738
-0.024309
-0.034859
0.033472
-0.041492
0.153082
-0.116413
-0.021702
0.040097
-0.003005
-0.228936
-0.009432
-0.021846
-0.025992
0.004998
0.058770
-0.082615
-0.001385
-0.140432
-0.159243
-0.168137
-0.099844
-0.124452
-0.017695
-0.042046
0.002485
0.301956
-0.008433
0.056076
-0.058754
-0.068362
-0.107480
0.039361
0.095272
-0.086802
0.058144
-0.001750
0.011322
-0.072469
-0.050342
0.200463
-0.041349
0.186995
0.005538
0.036900
-0.076151
-0.005716
-0.123852
0.005511
0.000977
-0.099624
0.064152
-0.106406
-0.017393
-0.043727
0.089457
-0.003052
-0.105767
-0.007300
0.003456
-0.132788
0.063866
-0.079815
-0.173778
0.257986
0.131124
0.078329
0.021977
0.035970
-0.046016
0.113709
-0.000075
0.111993
0.190346
-0.013076
-0.013783
0.031288
0.086007
0.067076
0.013176
0.028706
0.010471
-0.202143
0.083084
0.031031
0.117673
-0.033625
0.035148
0.069344
-0.002179
-0.003137
0.247652
-0.093175
-0.078088
0.054619
-0.041035
-0.104658
-0.017283
0.116116
-0.053571
-0.053272
-0.033247
-0.020613
-0.053794
-0.124604
-0.164221
-0.205251
0.039993
-0.110392
-0.048840
-0.103980
0.075728
0.155872
0.051098
0.037347
-0.103751
-0.011814
0.053179
0.000306
-0.067641
-0.209995
-0.007912
0.165378
-0.124886
-0.149722
0.094692
0.074087
0.002691
0.061312
0.019811
0.035853
-0.072047
-0.127177
-0.126530
0.024113
0.062175
-0.146255
-0.024651
-0.116160
0.112516
-0.085475
-0.130133
-0.110105
-0.034275
-0.022373
-0.139045
-0.068257
0.033187
-0.007957
0.025275
-0.004231
-0.046762
0.055913
0.054117
-0.214718
-0.069814
-0.064488
-0.050403
-0.120468
0.212425
0.135220
-0.031710
-0.098685
0.098840
-0.142304
0.153520
-0.056599
-0.017703
-0.088211
-0.217489
-0.010782
0.120376
0.021031
0.028803
0.055617
-0.026328
0.094352
0.041226
0.175977
0.031246
0.045437
0.000718
0.103929
-0.139881
-0.002720
0.045398
0.049738
-0.076510
-0.032613
-0.022488
0.092942
-0.294988
0.064763
0.322454
-0.035843
0.128296
0.000230
-0.060531
0.041301
-0.179999
0.101825
-0.018221
0.049515
-0.192799
-0.016761
0.151735
0.075408
-0.030453
-0.004812
-0.065578
-0.127111
0.083018
-0.072834
-0.107433
0.060700
-0.013353
0.004889
-0.064587
0.010691
0.165780
-0.091866
0.041794
0.000895
0.007594
0.094403
0.100326
-0.028094
0.019168
0.019797
-0.147060
0.028491
0.009664
-0.228508
0.004937
0.010258
-0.030831
-0.068217
-0.007907
-0.168130
0.196032
0.117919
0.136695
0.044700
-0.163968
0.019569
-0.050708
-0.106459
0.027814
-0.042759
0.124757
-0.081304
-0.140205
0.048460
-0.112562
-0.071656
0.086768
0.006333
0.071507
-0.064982
0.067253
-0.191041
0.093074
0.123975
0.092174
-0.037621
-0.051617
0.012165
-0.045843
-0.020683
-0.035726
-0.064886
0.040214
-0.000370
-0.035821
-0.075389
-0.192314
0.015926
0.024998
0.116188
-0.067597
0.057164
-0.155793
-0.115079
-0.014096
-0.086259
0.117639
-0.027788
0.245534
0.043430
0.059664
-0.012044
0.000096
0.179528
0.082883
-0.271975
0.004622
-0.031762
-0.011990
-0.010384
-0.165084
0.075301
0.072186
-0.032295
0.100524
0.048411
0.014201
-0.017188
0.027671
-0.059033
-0.030035
0.079369
-0.042084
-0.083573
0.035328
0.047832
-0.111955
0.094916
-0.039969
0.166240
0.014664
0.070930
0.125950
-0.123450
0.003810
-0.121876
0.018215
-0.063673
0.066955
-0.007790
0.102142
0.234099
-0.016492
0.087430
0.028695
-0.202726
0.019338
0.097776
0.051959
0.010409
-0.028131
-0.004864
0.034949
0.051858
-0.038344
-0.013949
0.010586
0.155627
0.005038
-0.013254
-0.086678
-0.005359
0.119718
-0.090186
-0.097669
-0.008021
-0.153453
-0.108912
-0.072328
0.004141
-0.136304
0.000552
0.009948
0.097182
-0.023491
-0.137660
-0.048544
0.046574
0.098005
-0.095143
-0.041985
-0.073505
-0.217169
0.173142
0.059886
-0.107938
-0.082753
0.024508
-0.146539
-0.140391
0.062286
0.037041
-0.165593
0.146206
-0.084554
0.004821
0.086840
-0.116422
0.003566
0.036609
-0.162826
0.205515
-0.018115
-0.089807
-0.098106
-0.168208
0.050512
0.010740
-0.100792
-0.002457
-0.080714
-0.019395
-0.100269
-0.063439
-0.180585
0.100995
-0.037988
0.214249
-0.016448
-0.077156
-0.104720
0.069534
-0.105036
-0.085085
0.043832
0.120327
0.027172
0.145420
0.031356
-0.131214
-0.012973
0.067357
0.132323
0.031505
-0.054821
0.065869
0.025947
-0.122123
0.032085
-0.081359
0.000265
0.056170
-0.088322
-0.046642
-0.106409
-0.061247
0.015213
0.035727
-0.112472
-0.024716
0.075469
-0.201767
0.007679
0.036329
0.091415
-0.024741
0.070046
0.022858
0.020021
0.103407
-0.097781
0.003365
-0.023030
-0.089523
-0.053416
-0.015213
0.172823
-0.064495
0.103727
-0.038945
0.093644
-0.235983
0.104231
0.065467
-0.198951
-0.025305
-0.226042
-0.042813
-0.031971
-0.023822
0.014025
-0.037582
-0.161060
-0.146850
-0.046704
-0.073163
-0.181432
-0.063251
0.016983
-0.046762
0.114374
0.074950
-0.051949
0.002387
-0.017164
0.025617
-0.162449
0.086615
-0.104064
0.013488
-0.262361
-0.007596
-0.091972
-0.048855
0.027754
0.027861
0.046546
-0.019904
-0.047795
0.136111
0.024330
-0.154623
0.078422
-0.025636
-0.000833
-0.143597
-0.017960
0.042868
0.036766
0.067478
-0.011887
-0.023664
0.003388
-0.253918
-0.054686
0.009104
-0.049914
0.032172
-0.058118
0.001157
-0.100834
0.058968
-0.078278
0.004268
0.043437
-0.005132
-0.008237
-0.066295
0.005948
0.134959
-0.094820
0.042943
0.120638
-0.065486
-0.071223
-0.036018
0.034916
0.010873
-0.151154
0.087614
0.058301
-0.014928
0.000866
-0.030025
0.126108
0.071016
-0.040413
0.058883
-0.179987
0.091150
-0.000869
-0.012225
0.066037
0.094771
-0.142568
0.006856
0.071471
-0.015607
0.125276
0.106943
-0.030080
0.047605
0.144116
0.079487
-0.020414
0.058696
0.057035
-0.036021
0.040359
-0.067902
-0.046603
-0.116637
0.024793
0.009822
-0.068680
0.027209
-0.064160
0.024847
0.135526
-0.080268
-0.118262
0.047178
-0.048419
0.236404
0.108004
0.031589
0.147599
0.105352
0.029422
-0.001462
0.062489
0.006922
-0.074736
0.011825
0.114466
-0.115113
-0.055371
0.113770
0.106964
0.123480
-0.005751
0.034140
-0.062382
0.065324
-0.024320
-0.062416
-0.019112
-0.135383
0.038273
-0.177557
-0.009834
0.117560
-0.146670
-0.145190
-0.195969
0.106903
-0.130122
-0.024384
-0.046973
0.047221
-0.155828
0.084497
0.062468
-0.144549
-0.017687
-0.099339
0.024982
-0.137774
0.028432
-0.051354
-0.207216
-0.059116
-0.040583
-0.102443
-0.133679
-0.064924
0.138205
0.012873
0.062158
-0.139621
-0.132770
0.098767
-0.054471
-0.090865
-0.078202
0.016971
0.121061
-0.183363
-0.018975
-0.081471
0.077568
0.061747
0.044846
-0.067380
-0.139405
-0.130200
-0.121195
0.098752
-0.097806
0.057602
-0.039292
0.114638
-0.013842
0.162463
-0.093684
0.080931
-0.088873
0.047460
0.090496
0.028647
-0.112095
0.084685
-0.015345
0.022518
0.039754
0.015073
-0.044130
-0.000628
-0.035636
-0.026760
0.085145
0.109792
-0.230183
-0.025712
0.135777
-0.088871
-0.129170
-0.138535
0.065506
0.083729
0.024183
-0.047533
0.073964
-0.107182
-0.154631
-0.093996
-0.008279
0.060097
-0.001515
-0.205078
0.023491
-0.035430
-0.084122
-0.155817
-0.008243
-0.035613
0.081542
0.043854
-0.154301
-0.130565
-0.258571
0.131108
0.094911
-0.243527
-0.056073
0.029199
-0.131350
0.184917
-0.087757
0.011914
-0.079211
0.073897
0.130749
-0.012283
0.147950
-0.078611
0.106856
0.061496
0.123583
-0.102241
0.087371
0.042466
-0.141798
-0.040578
-0.171991
0.029548
-0.091233
-0.111337
-0.084947
0.083104
-0.124502
-0.033106
-0.034253
-0.008212
-0.032435
0.052522
0.059732
0.180238
-0.073113
0.105556
-0.210290
-0.177903
-0.076584
-0.091320
0.010654
0.133856
0.092345
-0.159689
0.041495
-0.088852
-0.050291
-0.190069
0.110181
-0.086872
0.081814
-0.142478
0.102329
-0.004817
-0.033082
0.023326
-0.067139
-0.105982
-0.158834
-0.030377
0.158796
-0.022567
-0.098518
-0.029330
0.144962
-0.185280
-0.112720
0.050868
-0.080620
0.016437
-0.006013
-0.037246
0.075593
0.018787
-0.060097
0.111181
-0.031009
-0.107766
0.034638
0.153592
0.087295
0.045589
-0.089594
0.098258
-0.094085
0.140218
-0.109570
-0.238309
0.034273
0.059662
-0.077919
-0.085137
0.071726
-0.006390
-0.011302
0.076297
-0.078738
0.001882
0.112014
0.034491
0.060632
-0.096595
-0.008531
0.057290
-0.043003
0.008902
0.130891
0.056062
-0.057546
-0.106091
-0.087106
0.034341
0.050439
-0.159900
-0.067067
0.040972
-0.004421
0.045367
-0.026230
-0.069865
-0.014318
-0.037321
-0.029033
0.241123
0.052140
0.020904
-0.119048
-0.112232
-0.145917
0.005277
0.074256
-0.096141
-0.206696
-0.085408
0.026212
0.084401
-0.072198
-0.195281
-0.113145
-0.044585
0.008485
0.064593
-0.041600
0.161630
-0.172069
-0.045693
0.250353
-0.110471
0.135840
-0.065572
0.083870
0.009495
-0.002069
0.074690
-0.103234
0.093677
-0.097409
-0.152686
0.035248
0.005942
-0.034389
-0.164746
0.082173
-0.014900
0.067810
-0.268879
0.067268
0.048120
0.102725
0.024008
0.040501
-0.136682
0.019340
0.054690
-0.089817
-0.051503
0.087272
-0.156904
0.072713
0.060400
0.026032
0.120713
-0.113819
-0.005295
-0.028158
0.170028
-0.028850
-0.196023
0.051918
-0.038692
0.067828
0.044412
-0.029471
0.031378
-0.190971
0.116889
0.024792
-0.002814
0.120237
-0.162009
-0.049762
-0.017611
-0.122803
-0.067977
0.165646
-0.020823
0.098866
0.038696
-0.081837
-0.067577
-0.050882
-0.019226
-0.082415
0.005341
0.080227
-0.190793
-0.021774
-0.218160
-0.005845
0.077989
0.082897
-0.111423
-0.015715
0.028672
-0.049675
-0.110733
-0.038519
0.021692
-0.147793
-0.029012
0.038997
-0.033755
-0.123929
0.083587
-0.064989
-0.219731
0.021609
-0.063399
0.113997
0.045430
-0.048974
-0.041889
-0.027652
0.103293
-0.038259
-0.003843
0.026810
0.082148
0.169118
-0.026862
-0.030264
-0.097097
0.039855
-0.097571
0.008353
0.052922
-0.180593
0.018567
-0.020891
-0.114859
-0.047184
-0.059699
0.016454
-0.039218
0.043522
-0.126870
-0.083130
0.080130
-0.067982
0.127624
0.029990
-0.004107
-0.246769
0.000583
0.135804
0.038847
-0.072962
0.101393
0.158843
-0.079609
-0.153368
0.077692
0.081525
-0.060515
0.059368
-0.010658
0.020005
0.052028
-0.154285
-0.193511
-0.092988
-0.000648
-0.082960
-0.088331
0.148611
0.087095
-0.058149
0.004445
-0.044125
0.011686
-0.046371
-0.107436
0.008856
0.100743
-0.000663
-0.055500
0.064337
0.043654
-0.133017
0.029563
0.024328
-0.033748
-0.054525
-0.156327
-0.044690
-0.055173
-0.159582
-0.053312
0.004998
-0.061126
-0.091412
0.129067
0.098963
0.000749
0.008876
0.095319
-0.138206
-0.075332
-0.062138
0.059254
-0.026436
0.151034
0.086696
-0.049686
-0.094154
-0.152201
-0.148637
-0.069535
-0.146371
-0.136373
-0.053725
-0.014401
-0.002172
-0.057967
-0.056203
-0.066970
-0.021516
-0.134951
0.055415
0.052022
0.128772
0.060172
0.012912
0.082730
0.086109
-0.018483
0.058688
0.066991
0.031727
0.181431
-0.035713
-0.078870
0.234284
-0.074585
0.013417
0.036885
-0.143624
-0.158204
-0.045758
0.002619
-0.067541
0.038834
0.016667
-0.078887
-0.082638
0.197561
-0.032426
0.022768
-0.006734
-0.034303
-0.021439
0.032997
-0.047365
-0.095287
0.119674
0.027560
0.020583
-0.003574
-0.006354
0.078685
0.025679
0.189720
0.046620
-0.169423
0.152969
-0.106144
0.175781
0.017739
0.145418
0.053182
-0.158974
-0.173324
-0.011143
0.126383
-0.014554
-0.275781
-0.048989
0.064789
-0.081291
0.085076
0.024080
0.031526
0.175715
0.072602
0.003157
0.047231
-0.182952
-0.009902
-0.085627
0.138415
0.011285
0.073621
-0.103884
-0.143745
-0.024014
-0.104058
-0.069535
0.003693
0.087510
0.054009
-0.037482
-0.206546
-0.005832
0.122795
0.085235
0.010853
0.257610
0.063877
-0.128602
-0.022286
0.059447
0.044799
-0.039921
-0.048179
-0.003045
0.051275
-0.161118
-0.068300
-0.019966
-0.071064
0.069150
0.027262
-0.079053
0.122119
-0.067414
0.058394
0.098568
0.009504
0.012894
0.156282
-0.178068
-0.133052
0.039033
-0.067476
0.094574
-0.077615
-0.029543
0.094490
-0.011341
0.108624
0.104830
0.017148
-0.158858
0.039233
-0.167840
-0.052513
0.124675
0.128915
0.179127
0.062299
0.095082
-0.025275
0.115317
0.061600
-0.025262
-0.023892
0.003690
-0.002797
-0.012904
0.103842
-0.061425
-0.014094
-0.075949
0.033484
0.097415
0.053737
-0.002691
-0.020809
0.112900
0.039865
0.110563
0.143470
-0.124334
-0.217614
-0.190666
-0.096761
-0.080599
0.015811
-0.001300
0.100711
-0.023493
-0.077200
-0.260637
0.146222
0.126213
-0.044311
0.008732
0.015959
0.014565
-0.009670
0.131228
0.042426
0.047783
0.152518
0.066236
0.040596
-0.018250
-0.106548
0.104349
-0.042494
-0.058619
0.132126
-0.079656
0.201497
0.011270
0.024697
-0.194282
-0.014640
-0.226284
-0.027227
-0.005735
0.024411
0.183357
0.004069
-0.118584
-0.078989
0.169642
-0.014945
-0.160170
-0.101179
-0.147725
-0.035046
0.055338
0.110850
-0.022815
-0.026750
-0.092080
-0.045619
-0.098006
-0.076692
0.057536
0.081369
-0.010528
-0.006960
-0.008120
0.071768
-0.051933
-0.274112
-0.051411
-0.163351
-0.204591
0.085918
0.085889
-0.025760
0.041285
-0.142095
-0.150199
-0.160990
-0.014923
0.117125
-0.170013
-0.155453
-0.083229
0.174525
-0.185718
0.048367
0.016890
0.005475
-0.010962
-0.084928
0.011895
0.015368
0.073733
0.069720
0.076276
-0.268361
-0.037157
-0.035687
-0.058895
-0.111104
0.157615
-0.090126
0.024061
0.038856
0.000081
-0.185136
0.087018
0.040458
0.060516
-0.018828
-0.149305
-0.067055
-0.046915
-0.046886
-0.066917
-0.135986
-0.001926
0.015305
0.023252
-0.071590
-0.073888
-0.018856
0.032744
0.051715
0.021239
-0.101495
-0.074482
-0.030913
-0.049070
0.017427
0.052970
0.087968
-0.056534
0.174937
-0.114001
0.035754
0.110936
0.107844
-0.057169
0.001831
0.032559
-0.051093
-0.072044
-0.083350
0.047156
-0.003201
-0.255997
-0.180758
0.077287
0.049396
-0.147536
-0.047050
0.034297
0.064419
0.088750
-0.017763
0.142724
-0.069620
-0.039753
0.091154
-0.041858
0.096042
0.007387
0.121034
0.000024
-0.103913
-0.164821
-0.059526
-0.019546
0.056099
0.042311
0.018902
-0.019034
-0.044710
-0.074746
0.136497
0.013322
-0.027016
-0.151241
-0.128053
-0.061140
0.040123
-0.168032
-0.011090
-0.023276
-0.042236
-0.029296
0.085254
0.038074
-0.052838
-0.054754
-0.073614
0.089243
0.025590
-0.031940
-0.141581
-0.044555
-0.092964
-0.047422
0.035802
0.046443
-0.087886
0.052712
0.003718
-0.025054
-0.097056
-0.123322
0.026529
0.037755
-0.086896
0.027425
0.026962
0.030410
0.071216
-0.057107
-0.030190
-0.054127
-0.059479
-0.010505
-0.024584
-0.064193
0.006123
-0.061268
-0.025189
0.036936
0.115284
0.048332
0.087631
-0.019001
-0.142412
0.055566
0.017831
-0.107440
0.015238
0.020734
0.044236
-0.080837
-0.141410
0.169826
0.033773
0.094223
-0.086519
0.053838
0.044602
0.050296
0.078828
-0.141955
0.140707
-0.045092
0.109797
-0.113725
0.011021
-0.127571
0.064943
0.111918
0.097020
0.020243
-0.045259
0.116985
0.066389
-0.034320
0.059041
-0.172932
-0.187545
0.032093
-0.011130
0.088979
0.032353
-0.063498
0.162482
0.092810
0.085253
-0.033628
-0.017898
-0.069613
0.057590
0.034330
0.010102
-0.114575
-0.041903
-0.017037
0.005218
-0.052955
-0.030472
-0.008587
0.058484
0.076008
-0.148586
-0.038015
0.191903
-0.057433
-0.102917
-0.039158
0.011084
-0.171596
-0.104232
0.050346
0.076887
-0.006934
0.062585
-0.049834
0.141409
0.198515
-0.071824
0.243587
-0.027612
0.220578
0.115798
-0.184439
0.151985
-0.149161
-0.000180
0.026388
-0.123868
-0.238802
-0.188660
0.019182
-0.037855
-0.141331
-0.114859
-0.165666
-0.010551
-0.053484
-0.063540
-0.016710
0.025650
-0.042717
-0.060873
0.084080
0.070903
-0.075958
-0.139126
0.112126
0.103444
-0.074367
0.008076
0.067420
-0.146950
0.009793
-0.057288
-0.052036
0.052923
-0.011298
-0.055679
-0.048758
0.032199
0.013528
-0.059157
-0.006741
0.113110
0.017116
-0.068388
0.005446
-0.060022
0.054663
-0.010347
0.053866
-0.117119
-0.164828
-0.009874
-0.086064
-0.192699
-0.102656
0.036383
0.014469
-0.009107
-0.120674
0.014073
0.005563
0.003215
0.100309
-0.084758
-0.128529
-0.003538
-0.111874
-0.014964
-0.055935
-0.038648
0.120265
-0.180127
-0.048422
-0.003658
0.057413
-0.061245
-0.043683
-0.104522
0.012129
-0.086017
0.083576
-0.019588
-0.058680
-0.101433
0.015014
0.148069
0.059006
-0.093690
0.086388
-0.114572
0.070622
-0.243566
0.041685
0.076598
-0.132415
-0.111356
-0.054944
0.096315
-0.071699
0.013705
-0.038898
-0.081126
0.010557
-0.179011
0.093678
0.067726
0.077846
-0.036394
-0.110693
-0.074352
-0.134927
0.077428
0.093134
0.037872
-0.002923
-0.083565
0.041538
0.056726
-0.018870
0.075551
-0.038636
0.119465
0.016800
0.075775
-0.098341
-0.008604
-0.087534
0.105424
-0.034886
0.117439
0.005496
0.057051
-0.033774
0.002689
0.107452
-0.102454
0.061101
-0.032765
0.044645
-0.020381
0.202763
-0.105532
0.082649
-0.023971
-0.122264
0.005001
-0.057731
0.035011
0.168327
0.089937
-0.086538
0.163283
0.103153
0.076996
0.053585
0.053426
-0.011491
0.061330
-0.089640
-0.106167
0.012241
0.158918
-0.091715
0.071903
-0.162889
0.144674
0.045342
0.042085
0.000319
0.147418
-0.079972
-0.016836
-0.113535
-0.087316
-0.017066
0.014686
0.120650
-0.119912
0.121197
0.111598
-0.055411
0.034643
-0.274118
0.089441
-0.151658
0.062504
-0.233781
0.036791
-0.193895
0.061659
-0.145273
-0.015138
-0.009105
0.022068
0.064051
0.126459
0.006231
-0.074041
0.118591
-0.105849
-0.022026
0.030349
0.171753
0.064568
0.131217
-0.125794
-0.218281
0.213918
0.086589
-0.065382
-0.015115
0.087328
0.050679
0.143367
-0.082420
0.045911
-0.145269
-0.002954
0.045270
-0.012264
0.021347
-0.053112
-0.090757
-0.071239
-0.074163
-0.122298
0.060194
0.017123
0.055013
0.070737
-0.098818
0.068126
0.047114
0.150873
0.008365
0.083339
-0.068893
0.083191
-0.062272
0.074080
-0.013331
-0.163934
0.220373
-0.030838
0.066612
0.042733
0.107533
0.054113
-0.069919
0.093160
-0.099698
0.162250
-0.118216
-0.005690
-0.098693
0.112487
0.254512
-0.051034
-0.024689
-0.096597
-0.048990
-0.160459
0.113133
-0.094753
-0.163794
0.067450
-0.044879
0.093197
0.133975
0.078528
-0.003092
-0.002929
0.120223
-0.013276
-0.013668
-0.038773
-0.179023
0.035312
0.001014
-0.014715
0.141837
-0.177516
0.083284
-0.027039
0.145088
0.135156
0.024061
-0.115559
0.182700
0.008201
0.333517
0.099068
-0.166842
0.039620
0.014900
-0.049547
0.016534
0.018449
-0.077714
0.038128
-0.024649
-0.037957
-0.030948
-0.167862
-0.067367
0.012773
0.066148
0.002439
-0.077863
0.123723
0.029761
-0.013294
-0.066826
-0.095867
-0.100894
0.196043
0.090998
0.066347
-0.003549
-0.073038
-0.023797
-0.006113
-0.031413
-0.026137
0.010893
0.020461
-0.016138
-0.008454
-0.102580
0.203560
-0.082816
0.186549
0.152355
-0.017992
-0.099472
-0.027762
0.214310
0.059081
0.138677
0.057629
-0.163110
0.037183
-0.145177
-0.248425
0.140443
0.115601
-0.027974
-0.240156
-0.118782
-0.068307
0.040658
-0.112414
0.006991
-0.033775
0.024166
0.036082
0.021694
0.032226
-0.016908
-0.025652
0.107639
0.133478
-0.169781
-0.014796
-0.109544
0.083839
0.109669
0.134202
0.198838
-0.143015
0.082382
0.073305
0.119083
-0.001955
0.024161
0.048392
-0.239370
0.025691
-0.018116
0.211824
0.065807
-0.012791
-0.150769
0.138398
0.053331
-0.028532
-0.231252
0.074163
-0.035324
-0.005067
0.016084
0.052771
0.046953
-0.140465
0.120476
0.092556
-0.035288
-0.105469
-0.096785
-0.049132
-0.085054
-0.064369
-0.157907
0.157192
0.021961
-0.064083
-0.002427
-0.063412
-0.145139
-0.026348
0.078431
-0.030065
-0.005815
-0.014105
0.013282
-0.066231
-0.081640
-0.008196
-0.290024
0.099288
-0.065990
0.128348
-0.043915
-0.111782
-0.069082
0.053404
-0.013004
0.067799
-0.071709
0.038003
-0.048043
-0.100392
-0.149351
-0.143595
-0.049804
-0.011579
0.089217
-0.022328
-0.028679
-0.036117
-0.163947
0.040646
-0.096334
0.014370
-0.089356
-0.059265
-0.239060
0.027598
-0.072739
-0.149130
-0.017205
0.073163
0.021621
-0.097673
-0.016820
-0.109959
0.088714
0.095943
0.010395
-0.079920
0.107141
-0.059746
-0.068127
-0.168341
0.023831
-0.059672
0.019660
-0.101885
0.105765
-0.017810
-0.045619
0.016579
0.108765
-0.141181
-0.041545
0.105974
-0.043343
0.089895
-0.045987
0.003546
0.117747
-0.116925
-0.106394
-0.148949
0.009647
-0.168156
0.157839
0.021228
0.133453
-0.106971
0.040307
0.028730
0.069311
0.029458
0.054369
-0.047573
-0.000355
0.032793
-0.142439
-0.025311
0.043399
-0.004341
0.129011
0.100095
0.023363
0.090860
-0.033130
0.095348
0.171809
0.085662
0.032052
0.063720
0.149574
0.056399
-0.086694
0.015955
-0.243035
0.018842
-0.079015
0.009653
0.101106
0.070245
-0.060458
0.219018
-0.029986
-0.074796
-0.095132
-0.178583
0.088586
-0.157245
-0.092178
-0.012459
-0.039142
0.018881
-0.162654
0.008025
-0.192389
0.203099
-0.033432
-0.013446
0.159046
0.036480
0.159885
0.120918
0.130395
0.001631
0.011273
0.096044
-0.103947
-0.053135
-0.113348
0.056358
0.082766
-0.017968
0.091977
0.046319
0.001519
0.101750
0.030565
-0.033024
-0.108477
0.100991
-0.291651
-0.036556
-0.056188
0.179863
0.012593
0.054672
-0.051272
-0.003322
0.099955
0.059177
-0.104269
-0.057640
0.000735
0.000582
-0.006652
-0.071261
0.161058
0.036059
0.029730
-0.049197
-0.052067
0.071222
-0.034429
-0.025149
0.034082
0.105224
-0.046728
0.038750
-0.154215
0.052854
-0.039882
-0.026699
-0.011179
-0.166920
0.060410
0.044267
-0.043531
0.069633
0.109491
0.106797
0.148454
0.135730
-0.072967
-0.055309
0.081164
0.036023
0.083401
-0.082495
0.195714
-0.100617
0.195280
-0.089443
-0.002024
0.012893
0.060567
0.242361
-0.037799
0.091933
-0.044644
0.115115
-0.097983
0.121636
0.080652
0.115549
-0.119051
0.081220
0.105104
-0.085996
-0.066093
0.052465
-0.137697
-0.150443
0.091535
0.070471
-0.128895
0.037547
-0.078349
-0.014019
-0.168264
0.087268
0.013275
-0.141251
0.094909
-0.040993
0.172933
0.065519
0.033929
-0.032642
0.035742
-0.171756
-0.138053
-0.034646
-0.132850
-0.111735
-0.093077
-0.104032
-0.115051
-0.014627
0.152786
-0.123090
0.018798
0.040438
0.032394
-0.013863
0.008833
-0.065432
-0.002762
-0.030432
0.076128
0.161312
-0.161138
-0.204731
-0.005829
0.026558
0.032947
-0.174118
-0.105565
-0.079124
0.029790
-0.067877
0.012720
0.126831
-0.163629
-0.003052
0.113077
0.071147
0.201171
-0.082643
-0.226894
-0.089146
-0.071432
0.088179
0.146679
-0.095023
-0.075326
-0.022793
0.095955
0.028304
0.033895
-0.032436
-0.077559
0.160877
0.169307
0.009147
-0.085931
-0.025829
0.019964
-0.023412
0.038280
0.091179
-0.089688
0.032231
0.034318
-0.024573
-0.070557
-0.050545
-0.073952
-0.082716
-0.044751
-0.065894
-0.020272
0.010644
-0.128520
-0.081314
-0.079536
0.057138
-0.011505
0.093502
0.027203
0.059784
-0.005410
-0.002819
0.143344
-0.122258
-0.060401
0.014172
-0.034667
-0.115840
-0.026662
0.005694
0.024022
-0.042172
-0.110745
0.065189
-0.338267
-0.215048
-0.097265
0.025582
0.021678
-0.171171
-0.086923
-0.041148
0.014138
-0.181038
-0.001030
-0.005314
-0.082347
-0.050752
-0.048463
0.015051
-0.013317
0.020913
-0.037617
0.100095
0.131664
-0.098363
-0.039515
0.043288
0.119165
-0.132091
-0.186430
-0.129035
-0.051888
0.053723
-0.001585
-0.103936
-0.088251
0.006617
0.020521
-0.033191
-0.095878
0.021656
-0.004474
-0.008302
-0.018196
0.032158
-0.071956
0.161289
-0.162724
-0.242644
-0.024061
0.055502
0.059917
-0.168774
-0.082913
-0.190228
-0.047402
-0.049880
-0.062952
-0.000055
0.072930
0.235047
0.029856
0.048810
0.024978
-0.180568
0.157301
-0.093014
-0.095119
0.155980
-0.053605
0.119637
-0.015440
0.001686
0.041838
0.138129
0.140112
0.010374
0.179734
0.089045
-0.093709
0.196374
0.007966
-0.103725
0.001581
0.090875
0.133884
0.073105
-0.016088
0.025592
-0.108667
0.057112
-0.048933
0.028860
-0.078647
0.025143
-0.066100
0.037614
-0.313592
0.032632
-0.044669
-0.010266
0.063564
-0.043516
0.129461
-0.031738
-0.125786
-0.020836
-0.085972
0.085370
0.062238
-0.036791
0.037930
-0.082728
0.042964
0.004041
-0.078706
0.043408
-0.000960
-0.108469
-0.010673
0.022882
-0.069611
0.125749
0.028372
0.100503
0.003485
-0.110247
-0.024688
-0.052233
0.005480
-0.076071
0.056989
0.023303
-0.126999
-0.083127
-0.037958
0.062660
-0.019839
0.058353
-0.066240
-0.021107
0.002966
-0.007281
-0.011030
-0.026554
-0.131881
-0.143680
0.097721
0.035608
0.003428
0.014396
-0.095632
0.015517
0.062141
0.093403
0.100895
-0.197363
-0.016139
0.156006
0.066537
0.095544
0.015350
0.083809
-0.039734
-0.013430
0.138729
-0.042348
-0.120488
-0.162465
-0.016808
0.003562
0.084125
0.136682
-0.006581
-0.102573
0.044229
-0.040823
-0.057747
0.094387
0.005451
0.024123
0.077218
-0.054614
-0.002337
0.134350
0.017590
-0.021579
-0.017873
0.047569
-0.016912
-0.072084
0.037031
-0.166170
0.008110
-0.036766
-0.036930
-0.076994
0.117603
0.053407
-0.090771
-0.102353
-0.047569
0.032159
0.039158
0.098441
-0.273770
0.013842
-0.023680
0.016256
-0.100456
0.086240
-0.023073
-0.210581
-0.019936
-0.030473
-0.096538
-0.089774
-0.262226
-0.046306
-0.052233
0.174905
-0.101800
-0.061010
-0.064424
-0.168909
0.042962
-0.101696
-0.128251
-0.055071
0.071460
-0.047834
0.096148
-0.062438
0.064415
0.006203
-0.089621
0.088435
0.016317
0.018340
-0.013754
0.019599
0.025354
-0.039876
0.137985
0.073356
-0.009854
-0.059539
-0.036567
-0.038521
-0.101646
-0.015148
-0.003471
0.002725
-0.078602
-0.015256
-0.070807
-0.066452
0.002101
0.144763
-0.195379
-0.059081
-0.081638
0.055710
0.008491
0.094639
-0.109780
-0.171919
0.050993
0.140501
-0.181712
-0.127331
-0.030173
0.140974
-0.031749
0.039323
-0.101038
-0.197296
-0.135340
0.002482
-0.016652
-0.116819
0.050140
-0.013431
-0.114310
0.091123
-0.121212
-0.020517
-0.041323
-0.099035
0.070729
-0.081603
-0.084226
0.024077
-0.068183
0.066150
-0.140414
-0.095737
0.017321
-0.123525
0.089904
-0.198845
-0.130014
-0.015530
0.114337
-0.032603
-0.059564
0.054251
0.163873
-0.005270
0.002162
-0.045117
-0.003622
-0.113955
-0.024195
-0.070962
-0.078847
-0.091253
0.029609
0.069285
0.046814
0.040788
0.068420
-0.024842
0.105799
0.044410
-0.158618
0.147310
-0.058625
-0.009973
-0.032668
-0.138163
0.046160
0.053139
0.181001
0.127809
0.044066
0.001455
0.025595
-0.085361
0.024937
0.069773
-0.103332
-0.260783
0.009377
0.065671
-0.064727
0.163769
-0.146271
0.004858
0.020232
0.050151
-0.185938
0.041229
0.042519
-0.152058
-0.046831
0.092409
-0.155384
0.096806
0.048960
-0.008859
-0.019226
-0.052719
0.001161
-0.057646
0.003322
0.091288
-0.018265
-0.046062
0.072080
-0.039334
-0.046958
0.021495
-0.002027
-0.161300
-0.002192
0.071759
0.005984
0.031372
0.036811
-0.083486
0.166961
0.051923
-0.067216
0.094660
0.084650
-0.004804
-0.055982
-0.025771
0.023400
-0.028893
-0.154148
0.089584
0.001242
-0.111353
-0.112726
-0.089187
-0.076878
0.009279
-0.032685
-0.039054
-0.032468
-0.009998
-0.078027
-0.082896
-0.004683
0.125769
0.024616
-0.135254
-0.110150
-0.160167
-0.099070
0.099433
-0.032168
0.007842
0.210508
0.029283
0.045555
0.072100
-0.308610
-0.096211
-0.018001
0.019094
0.102419
-0.074216
0.053968
0.161471
0.142664
-0.125689
0.018936
-0.141676
-0.019053
-0.067593
0.015596
0.004290
0.054931
-0.059271
-0.118398
-0.035700
-0.125332
0.031202
0.062569
0.070953
-0.063780
-0.097211
-0.146884
-0.082563
-0.010110
-0.022403
0.179331
0.232952
0.003745
0.026968
-0.125193
0.022437
-0.052381
-0.136225
0.012285
0.067155
0.096627
0.101998
0.154487
-0.206548
-0.242920
0.129128
-0.008308
-0.096185
-0.106488
0.081827
-0.086111
-0.000690
-0.230132
-0.035231
-0.124545
-0.186786
-0.000400
0.105827
-0.132102
0.041421
0.107297
-0.129138
-0.141151
-0.240581
0.004813
-0.003062
0.125058
-0.166409
-0.178513
0.308998
-0.059513
-0.164381
-0.180633
0.083583
0.203196
-0.050792
-0.016721
-0.070124
-0.166474
0.065377
-0.070066
-0.052363
-0.002774
0.036898
0.018333
-0.009139
-0.146176
-0.171069
-0.228313
0.113347
-0.048146
0.076796
-0.136703
0.019578
0.052710
0.004345
0.081415
0.098216
0.033711
-0.013346
0.136308
0.048222
-0.062476
-0.181657
-0.026220
-0.061018
0.077016
0.046696
0.145329
-0.076999
-0.222568
-0.081985
0.026448
-0.005005
-0.064599
-0.023605
0.114917
0.103139
0.170790
-0.040148
0.016006
0.147080
0.081860
0.147483
0.059102
0.027773
0.074114
0.003727
0.136773
-0.015536
0.061467
0.154385
-0.023759
0.077715
0.068100
0.152800
-0.066946
-0.045365
-0.087480
0.112974
0.101892
-0.055302
-0.053347
-0.020941
-0.051636
0.010951
-0.023290
-0.037379
-0.068660
0.054961
0.076003
-0.131208
0.071826
0.033874
-0.023754
-0.006865
-0.025387
0.051669
-0.013588
0.188667
-0.107258
0.040065
-0.043956
0.054707
-0.025190
-0.223451
0.126485
-0.144840
-0.155970
-0.098094
0.001130
-0.053060
0.020849
-0.020410
0.056703
-0.043577
-0.092177
-0.030449
0.022371
-0.072301
0.141288
0.041812
0.019743
-0.094122
0.123360
-0.178687
-0.034268
-0.101731
-0.095565
0.193416
-0.098115
0.075302
-0.001636
-0.003415
0.076420
-0.048220
0.020725
0.012570
-0.190725
-0.046980
-0.147369
-0.058191
0.010148
-0.246536
-0.083886
0.067771
0.056290
0.095714
-0.127546
-0.132099
-0.098391
-0.167406
0.091190
0.143065
0.072518
-0.039834
-0.057140
0.080720
0.035158
-0.001950
-0.005868
0.028487
0.057391
0.155704
-0.255523
-0.223426
-0.202923
-0.041196
0.002379
0.019732
0.081438
0.027946
-0.082126
-0.064450
-0.142089
0.085841
-0.082930
0.103284
-0.082447
0.072105
-0.127701
0.077360
-0.026036
-0.010971
-0.105522
0.159696
-0.000214
0.023618
-0.037610
-0.150479
0.056508
-0.028855
0.028022
-0.024558
-0.116993
-0.086130
0.018249
-0.046482
-0.002165
-0.077755
-0.162641
0.069764
-0.013012
-0.017798
-0.094077
-0.081867
-0.123352
0.181085
-0.171282
0.059321
0.121734
-0.033750
0.063596
-0.017854
-0.141304
0.024856
-0.004197
-0.115840
-0.110857
0.044069
0.116333
0.058839
0.138744
0.076311
-0.040608
0.223934
-0.085335
0.001290
-0.057275
-0.005215
0.041211
0.030090
0.028180
0.059232
0.283496
0.047958
0.054311
-0.070004
0.005542
-0.180357
-0.006649
0.209962
-0.077224
-0.056830
-0.086285
0.053548
-0.028567
-0.052895
-0.049183
-0.069325
-0.146649
-0.065079
0.066489
-0.007700
-0.009204
-0.054725
0.025862
-0.065910
0.074097
0.004124
0.079857
0.019772
0.053754
-0.068907
-0.045931
-0.097671
-0.094776
-0.007145
-0.095528
-0.092385
0.128783
-0.145493
0.067043
-0.067567
-0.086735
0.090763
-0.026907
0.230221
-0.009270
-0.133456
0.117467
0.132820
-0.036561
-0.038446
-0.178267
-0.151230
-0.090873
0.016482
-0.001362
0.044799
-0.094311
-0.155418
0.049376
-0.007705
-0.013843
-0.113767
0.003125
-0.004860
0.156738
-0.094743
0.160602
0.065235
-0.077701
-0.009178
-0.022508
-0.157346
-0.012800
-0.031546
0.000938
0.000830
0.105060
0.052911
0.064781
0.055039
-0.005252
-0.077338
-0.079395
-0.013331
-0.080650
-0.001574
-0.260028
0.114894
-0.080551
-0.064058
0.095879
-0.002831
-0.155374
0.082359
0.042371
-0.123066
0.023962
-0.079830
-0.077447
-0.040022
-0.022679
-0.069885
-0.007499
0.003156
-0.036376
0.012408
0.157111
0.019838
-0.012643
-0.086896
0.046783
-0.091567
-0.027673
0.049483
-0.103372
-0.083184
-0.147715
0.116025
0.044506
-0.058792
-0.105449
-0.138629
0.048395
-0.021336
0.052395
-0.098960
-0.055280
-0.117459
-0.004146
-0.113957
-0.102432
0.002049
-0.033508
0.083193
-0.048291
0.031870
0.052944
-0.005578
-0.125017
-0.032694
-0.122301
0.096742
-0.016229
-0.114877
-0.080960
-0.097759
0.129678
0.029222
-0.081512
0.025730
-0.074757
-0.067760
-0.019517
-0.118336
-0.098859
-0.032167
-0.045992
0.079978
-0.017532
-0.037189
0.032895
0.004241
-0.122235
-0.219963
-0.074521
-0.049699
-0.014559
0.071714
-0.030164
-0.068752
-0.146945
0.017539
-0.060902
-0.024456
-0.028264
-0.035810
0.051349
-0.050874
0.082641
-0.003093
-0.131804
0.012971
-0.119644
0.080520
-0.055424
0.132474
0.017245
0.022170
0.110975
-0.045661
0.040953
0.055833
0.051126
0.163992
-0.040817
-0.209527
-0.066584
-0.013318
-0.029808
0.000638
0.034144
-0.157308
0.009442
0.045895
0.072084
0.133956
0.044636
0.018909
0.031623
0.032591
-0.231100
-0.019439
-0.010236
-0.028785
-0.064794
0.033664
-0.105612
0.116356
-0.131287
0.131706
-0.012885
-0.038995
0.127392
0.023675
-0.007873
-0.074439
-0.175410
-0.038308
-0.059003
-0.249134
0.078715
0.138852
-0.084829
-0.000601
0.012702
-0.061010
-0.059571
-0.158385
-0.020692
0.052807
0.051030
0.089492
-0.085769
-0.047709
-0.050303
0.047661
0.108511
0.086405
0.189555
0.147514
0.127308
0.080932
0.054584
-0.140375
0.096196
-0.045032
0.042251
-0.183389
-0.051056
0.041427
0.141475
0.034788
0.074388
0.072913
-0.049886
-0.071941
0.099811
0.230626
-0.081305
0.110678
-0.182227
-0.156156
0.048172
-0.083007
-0.019204
0.013112
0.097138
-0.061092
0.053267
0.234877
-0.049980
0.063784
0.138082
0.011367
0.065524
0.017156
-0.000215
0.062875
0.078866
0.041027
-0.194659
-0.054498
0.132626
-0.157419
0.038069
0.061671
-0.083616
0.118207
0.138707
-0.063817
-0.028424
0.042529
-0.034093
0.004668
-0.085328
-0.135682
-0.069502
0.074804
-0.076940
-0.162949
-0.069230
0.141421
0.012313
-0.040368
-0.037961
0.124685
-0.151884
0.006775
-0.164128
-0.037998
-0.110244
-0.040588
-0.080406
0.106985
-0.055451
-0.055398
0.172222
0.022555
0.016563
0.018873
0.032836
0.115097
-0.065173
0.012952
-0.291806
-0.040626
0.032092
-0.013080
0.028387
-0.025818
-0.049022
-0.159284
-0.030239
0.023874
0.099951
-0.048760
-0.101317
-0.075903
0.178512
-0.069363
-0.060605
-0.016248
-0.014773
-0.071114
-0.153516
0.057870
0.107161
-0.095678
0.212528
-0.009421
-0.110031
-0.101673
-0.106801
-0.065461
-0.185327
-0.012322
0.013656
0.109761
0.025144
-0.007734
-0.145105
-0.015797
-0.202338
-0.074455
-0.121237
-0.107545
0.036789
-0.025764
0.069693
0.200741
-0.094859
-0.184211
-0.028115
0.030952
-0.009590
-0.141351
-0.019627
-0.030596
0.063331
0.032259
-0.020472
-0.104476
0.027982
0.111439
0.098096
0.224724
0.005282
-0.018648
-0.057795
-0.062558
0.004684
-0.236107
-0.005471
0.092599
-0.024825
-0.053792
0.105283
0.106975
-0.156833
-0.089175
0.169816
-0.029878
0.204572
0.025531
-0.145535
-0.004837
0.021467
0.001050
0.047400
-0.136535
0.004539
-0.241797
0.170072
0.192537
0.011800
-0.089930
-0.142705
0.175869
-0.075636
-0.038873
0.137088
0.039505
-0.021036
-0.083405
-0.102568
-0.068401
-0.091397
-0.071580
-0.020442
-0.106501
0.236817
0.044621
0.035248
-0.032151
-0.106422
0.177249
-0.052608
0.134824
0.063283
-0.021954
0.109365
0.006469
0.039625
0.010726
-0.008259
0.042891
0.020144
-0.036114
0.163331
-0.011157
-0.038106
-0.035239
-0.037053
-0.015060
-0.064506
0.122979
-0.135686
0.063318
-0.000993
-0.173156
0.034292
-0.036176
0.001094
0.008051
-0.138223
-0.086154
-0.115745
-0.270415
-0.078035
0.000526
-0.192813
-0.101905
0.028572
-0.063394
0.040162
0.042316
-0.069222
-0.109722
0.008263
-0.205976
-0.138172
-0.034745
-0.043786
-0.014776
-0.043315
0.008513
-0.312837
0.040558
-0.006713
-0.128585
-0.003465
-0.131834
-0.116849
0.017118
0.062849
-0.015114
-0.081586
0.020512
0.000844
-0.035809
0.108396
-0.073544
0.079323
-0.226021
-0.207538
-0.070698
0.005658
0.120753
-0.058266
-0.002025
0.027618
-0.004237
0.078339
0.192745
0.010516
0.175374
-0.112396
-0.014143
-0.001439
-0.124477
0.125452
-0.161153
0.021281
0.082577
-0.009621
0.075730
-0.071944
0.006844
0.076966
-0.030097
0.061988
-0.092295
-0.053026
-0.124295
-0.073058
-0.023074
-0.201424
-0.015153
-0.101666
-0.207225
0.080943
0.058243
0.062789
0.007425
0.082993
0.144249
-0.009455
-0.017261
0.019677
-0.036656
-0.009920
0.100874
-0.020296
0.047453
-0.068470
-0.020148
-0.033205
-0.107474
0.015765
-0.144643
-0.045676
-0.021526
-0.056547
-0.117459
0.078573
-0.069110
-0.148247
-0.029955
-0.009904
-0.146261
0.099995
0.014435
0.074433
-0.226628
-0.127279
0.066949
-0.069482
0.089976
-0.125050
0.161680
-0.081677
0.103496
0.096791
-0.108427
-0.016308
0.041106
0.218913
0.016989
-0.025906
0.005723
0.006916
0.097104
-0.003920
0.025260
0.068790
-0.177680
-0.125529
-0.029885
-0.134398
0.082464
0.179468
-0.139802
-0.100059
-0.046016
-0.018900
0.066175
-0.088400
-0.059973
-0.073315
-0.151568
-0.049821
-0.066209
0.142748
-0.052060
0.071126
-0.038838
-0.021643
-0.033941
0.116728
-0.077533
-0.094203
-0.020523
-0.130675
-0.116121
-0.047582
0.049857
0.078021
0.244077
0.030124
0.088824
-0.174435
-0.005671
-0.143747
-0.052382
-0.043552
-0.134776
0.012831
0.132708
0.016040
0.007395
-0.047785
-0.059302
0.042981
0.118679
-0.014140
-0.036101
-0.040941
0.007440
0.056460
-0.132610
-0.037044
0.009700
-0.012915
-0.106308
-0.063450
0.189789
0.034562
0.003583
0.172504
-0.112792
0.084348
0.041655
-0.056655
0.067565
-0.014751
-0.142649
-0.093020
0.016830
0.121348
-0.012999
0.011298
0.142726
-0.076569
0.040665
0.013817
0.011045
-0.075901
-0.041783
-0.110599
-0.026754
-0.128365
-0.061896
0.058564
-0.007247
0.139204
0.190364
0.027359
-0.006448
-0.001722
-0.091573
-0.010453
0.079657
0.186784
0.062028
0.103131
-0.146364
0.054010
0.064593
0.022028
0.006680
-0.052209
-0.123521
0.024271
-0.004141
0.117660
0.059626
-0.067187
-0.006792
0.050155
-0.046069
0.036643
0.044543
0.054549
-0.111564
0.035940
0.036574
0.113381
0.035864
0.011187
0.027031
0.173137
0.079644
-0.011352
0.055002
-0.089178
-0.163938
-0.010235
-0.083435
0.028357
-0.118630
0.010832
0.100744
-0.020870
-0.020145
-0.117216
-0.115642
0.001120
-0.096729
0.083291
0.036253
-0.001765
-0.030573
0.117926
-0.067234
-0.093077
0.018523
-0.122927
0.058184
-0.162124
0.042753
-0.005899
-0.016240
-0.082119
-0.022572
-0.089976
-0.075655
0.030481
-0.064297
0.022251
-0.000175
-0.045869
0.100707
-0.051481
0.010033
0.019650
-0.082886
-0.024608
0.054116
-0.042323
0.140158
-0.024477
0.011144
0.014455
-0.091167
-0.014609
0.003224
0.034119
-0.170567
0.016361
0.034737
-0.063349
-0.044365
-0.026757
-0.036116
-0.137628
-0.041804
-0.142129
0.190447
-0.026454
-0.003815
0.100323
0.055680
0.140093
0.074832
-0.025611
0.148907
-0.087060
-0.084453
0.043120
-0.037900
0.090821
0.106794
-0.058589
-0.162014
0.041749
0.055321
0.204932
0.028227
0.038104
-0.080732
-0.027572
0.137759
-0.062958
-0.043114
-0.026251
0.013443
-0.027876
-0.172214
-0.062187
0.142711
0.060267
0.122402
0.095756
0.001065
-0.071300
0.026666
0.009339
0.019219
-0.026516
0.108883
-0.086768
-0.032475
-0.055599
0.067000
0.107174
0.112265
-0.035557
-0.180048
-0.039871
-0.027286
-0.101368
0.099542
-0.140078
0.145301
-0.164103
0.139093
-0.064958
-0.004516
0.066764
-0.026174
0.000136
-0.111710
0.104374
0.055716
0.111166
0.113793
-0.044774
0.040750
0.126911
0.138160
0.160351
-0.110006
0.084104
0.210598
-0.013337
-0.004119
0.127919
-0.200402
-0.238910
0.076780
-0.001761
-0.098309
-0.020832
0.217106
0.166309
0.058505
-0.135995
-0.044968
-0.079474
0.073186
-0.021785
0.102625
-0.129621
0.076873
0.079186
-0.072996
0.028790
-0.020764
-0.093869
-0.039870
0.099994
0.051739
0.005768
-0.041143
0.125113
-0.036393
-0.054496
0.044186
0.095691
-0.010423
-0.012875
0.086448
-0.083475
-0.036209
0.059029
-0.091797
-0.168520
0.013497
-0.059706
-0.190677
0.071558
-0.048672
-0.129289
0.044571
0.041983
-0.010716
-0.111061
0.055522
-0.004734
0.005603
-0.166047
0.038469
-0.038878
-0.007526
0.044759
-0.152489
0.075679
-0.134337
-0.109058
-0.007597
-0.160527
-0.050789
0.027212
-0.061737
-0.104595
0.109264
-0.013639
0.092156
-0.071343
0.019598
0.037738
-0.073164
0.017014
0.057668
0.005220
-0.055224
-0.142962
0.163504
-0.061483
0.121314
-0.092729
0.220359
0.022796
-0.052827
0.156024
-0.005358
-0.125711
0.105300
0.011969
-0.011001
-0.169694
0.034817
-0.102308
-0.027097
-0.247873
-0.033802
-0.076962
0.015947
-0.125058
-0.062939
0.024324
-0.072196
0.052855
-0.155202
0.037457
0.053700
0.162524
0.061511
-0.008723
-0.067196
0.118637
-0.071185
-0.124429
0.030668
0.015202
0.056246
0.210447
-0.036550
0.003555
0.229065
-0.047888
0.050457
0.050430
-0.070291
0.015887
0.095456
0.185196
-0.022262
-0.112984
-0.033369
-0.050387
0.019628
0.139393
-0.141379
0.164792
-0.216214
0.045032
-0.033381
0.000581
-0.164730
-0.001227
-0.129407
-0.152724
0.091429
-0.096490
0.009630
0.086409
-0.156094
0.049449
0.035260
-0.100183
0.010857
0.073830
-0.038846
-0.272814
0.040217
-0.088781
0.098049
0.126722
-0.114479
-0.000707
-0.009026
0.005370
0.094081
0.057227
-0.057602
0.045128
-0.147541
0.098516
-0.007851
-0.073654
-0.105962
0.129956
-0.118169
-0.068369
0.097531
0.068572
0.061661
0.043281
-0.041075
0.089696
-0.080572
0.085677
0.044838
0.106080
0.000800
0.140021
-0.079434
0.039688
-0.030093
-0.017168
-0.077516
0.044604
0.102898
-0.075263
-0.050954
0.010835
0.075550
0.093615
-0.093436
-0.026528
0.024428
-0.067639
-0.038301
-0.061346
-0.148974
-0.051830
0.017041
-0.035809
-0.105873
-0.081920
0.010923
0.101783
-0.048363
-0.042582
-0.021648
-0.067063
-0.004690
-0.122452
0.089300
-0.226039
0.118523
-0.120876
-0.089753
0.028164
-0.069956
0.094222
-0.141328
-0.046229
-0.138374
0.042703
-0.116071
-0.011663
0.078072
-0.079772
-0.106592
-0.011546
-0.087881
-0.139749
-0.100199
-0.110616
-0.138071
0.069074
-0.101674
0.176680
-0.210346
-0.015124
0.086156
-0.140294
-0.059570
0.006715
0.060554
-0.104948
0.157743
-0.002284
-0.008642
0.154714
-0.049214
-0.062671
-0.087304
-0.031394
0.070535
0.058256
-0.147787
0.023717
0.109774
0.087886
-0.084875
-0.085558
0.010851
-0.118079
0.080754
0.001313
-0.165152
0.184357
-0.014532
-0.011705
0.091471
-0.214110
0.005054
0.008488
0.061765
0.060796
0.026990
0.023940
-0.074271
-0.023219
0.062228
0.013158
-0.037630
0.043777
-0.031429
-0.047876
-0.179529
0.083117
0.067767
-0.043977
-0.075159
0.000557
-0.064559
0.012855
-0.075137
-0.026377
0.256056
-0.026671
0.158894
-0.053913
-0.149822
-0.015057
0.060916
-0.155761
-0.001421
0.091271
-0.034301
-0.038063
-0.105109
-0.035214
0.108729
-0.013385
-0.067094
0.006725
0.045065
0.012458
0.019441
0.112400
-0.060381
0.045072
0.002499
0.003999
-0.089704
-0.044128
0.037405
0.069888
0.005408
-0.029887
-0.037039
0.101080
0.106977
-0.131166
-0.161745
0.074790
0.215813
-0.074259
-0.013269
-0.190021
-0.194023
0.145375
-0.027017
0.003870
0.011215
0.099973
0.095432
0.073146
0.074547
-0.099934
0.027646
0.012810
0.040570
-0.030268
-0.186156
-0.039325
0.092573
-0.090728
0.061070
0.098189
-0.088159
0.039991
-0.021227
-0.006918
-0.069563
0.020859
0.040589
-0.073479
-0.021688
0.017027
-0.255597
-0.045048
-0.262444
-0.085661
-0.063531
-0.022484
-0.118240
0.060009
-0.077800
-0.082178
0.153834
-0.128362
-0.015316
0.016387
0.034793
0.074284
0.006283
0.036217
-0.087628
-0.082393
-0.027728
-0.078751
-0.133713
0.085465
0.047800
0.013850
-0.093195
0.160628
-0.063399
0.074192
0.030022
-0.007268
-0.013185
-0.161319
-0.155256
0.177116
0.039709
-0.080448
-0.065910
0.109990
0.186741
0.033106
0.072116
0.147498
0.037651
0.043655
0.002371
-0.044299
0.050623
0.018042
0.124822
-0.131032
-0.066693
0.000854
0.234161
-0.127540
0.033861
0.103198
-0.108681
0.077461
-0.035927
-0.040095
-0.008243
-0.142244
-0.038301
0.145174
0.067216
-0.088592
0.003820
0.112420
-0.106689
-0.017749
0.061607
-0.020812
-0.030860
0.121546
-0.041223
-0.182052
0.054500
-0.029057
-0.001245
0.113651
-0.109750
-0.005859
0.087613
-0.025436
0.119525
0.042691
0.060904
-0.017311
0.115358
0.042529
-0.045254
-0.055815
0.132384
0.083937
-0.176940
0.010495
0.015580
-0.041828
-0.200216
0.120633
0.019669
0.185591
-0.040535
0.124007
0.024326
-0.205922
0.048989
0.007274
-0.038288
-0.010046
-0.055929
-0.038665
0.070800
-0.085236
0.205319
-0.079285
-0.116017
-0.035129
-0.125525
0.009864
-0.071482
0.189765
0.001158
0.072022
0.066798
0.080628
-0.030435
-0.184125
-0.045540
0.010623
-0.043724
0.033103
0.007780
-0.030299
-0.061824
-0.116303
0.032929
-0.089244
-0.094370
-0.003388
-0.069797
-0.049729
0.003208
-0.141971
0.056988
-0.074400
0.025612
0.100127
-0.095046
0.149082
-0.107007
0.121381
0.001474
-0.036699
0.072579
-0.004284
-0.193461
-0.076737
-0.030629
0.039471
-0.113407
-0.163050
0.082368
0.094838
-0.196321
0.140677
0.116919
0.069921
-0.043501
0.043402
-0.023770
0.027061
-0.097627
-0.132723
-0.049939
-0.036855
0.055098
0.060099
0.027036
0.008218
0.166366
-0.035019
0.166766
0.011969
-0.067457
-0.020584
-0.069999
-0.029929
-0.022528
0.081991
-0.026030
0.056686
0.098399
0.043060
0.126389
-0.049488
-0.282801
-0.093836
0.081644
-0.058348
-0.024897
0.007359
0.073399
0.048791
-0.006381
0.014419
-0.051578
-0.036634
0.015222
0.028676
0.005503
-0.069667
0.246693
-0.012640
-0.111471
-0.110604
-0.055076
-0.061447
-0.014010
-0.099733
-0.050805
-0.044530
0.041473
0.169941
-0.047387
0.045572
-0.061397
0.052464
-0.048577
-0.031349
-0.128391
-0.045696
-0.147613
-0.097726
0.037786
0.057719
0.034347
-0.054968
0.004439
-0.017316
-0.139880
-0.029877
-0.005933
0.024435
0.028379
-0.085456
0.008570
0.025018
-0.138947
-0.078366
-0.100270
-0.064609
0.095084
0.130945
-0.216542
-0.008761
0.010879
-0.017800
-0.061727
0.016485
0.056308
-0.127664
0.006225
-0.174613
-0.097031
-0.219505
0.122265
-0.025262
-0.071153
0.033535
-0.016967
-0.104107
-0.129389
0.124064
-0.020441
-0.083787
0.043687
-0.034209
0.146106
-0.000583
-0.060790
0.125144
0.140481
0.082794
0.016023
-0.128826
-0.157986
0.000386
-0.108103
0.022753
-0.071885
0.173325
0.121537
-0.082065
0.138708
0.104520
-0.046361
-0.098177
0.079910
-0.048841
-0.152313
-0.002583
-0.140604
-0.016434
-0.081606
0.029015
0.091837
-0.085729
0.106997
0.074226
0.053253
0.029298
0.103187
-0.039803
0.052533
-0.091578
0.038022
-0.029316
-0.079781
0.048283
-0.122845
0.156055
-0.105632
0.058574
-0.099558
-0.199229
-0.146065
-0.148831
-0.043292
-0.044997
0.195203
0.054514
-0.091854
-0.015311
-0.081289
-0.199787
-0.041581
-0.095136
-0.073173
0.163224
0.024913
0.092390
-0.003730
0.069566
0.022188
-0.068451
0.032249
-0.098411
-0.007280
0.053457
-0.128346
-0.121805
-0.052070
-0.175234
-0.054516
0.114622
0.009018
0.123209
-0.139024
-0.012228
0.184869
0.147055
-0.076018
0.013979
-0.072892
0.186217
-0.153812
0.140784
-0.023253
-0.083747
0.141423
0.009856
0.136204
0.017853
-0.191052
-0.047077
-0.029545
-0.107288
0.072869
0.054560
0.095258
-0.129937
-0.214609
-0.074983
-0.008960
0.014192
-0.074727
0.049866
0.104856
0.126561
0.176992
0.026077
0.017639
0.054465
0.091889
-0.054397
-0.102040
0.053689
-0.059703
0.055264
0.018948
0.046763
0.059603
0.049758
0.036714
0.212231
0.019940
0.075859
0.058907
-0.048320
-0.058963
-0.115525
-0.046370
0.101879
0.288804
0.068784
-0.054952
0.024726
-0.083620
0.102890
0.110758
0.005623
0.029346
-0.093365
0.006009
-0.114109
0.164718
0.143396
-0.042661
0.030340
0.026568
-0.020625
0.011684
-0.020103
-0.057548
-0.057046
-0.053450
-0.001072
-0.032555
0.105254
-0.029486
0.087873
0.181811
-0.061719
0.129050
0.167550
-0.132730
0.211179
0.142465
-0.041618
0.045745
0.027574
-0.022262
-0.077636
0.132708
-0.081476
-0.030228
-0.100841
0.071024
-0.035876
0.056971
0.046347
0.089939
-0.023601
0.113373
-0.067344
-0.025396
-0.017234
0.059495
0.063853
-0.083957
0.033357
-0.013676
-0.033485
-0.021855
0.021306
-0.114376
0.016094
-0.006915
-0.075723
-0.053520
-0.063005
0.024066
0.136891
-0.068503
-0.024685
-0.056758
0.013090
-0.050574
-0.027689
-0.002275
-0.073783
-0.094013
0.027364
-0.121811
-0.014143
-0.156645
0.006974
0.016349
0.023988
-0.101430
-0.147379
0.100040
-0.084509
0.079682
-0.178668
0.090317
-0.069619
-0.115373
-0.144567
0.063377
-0.015369
0.058684
-0.029035
0.019989
-0.085238
-0.112623
-0.079502
-0.023886
-0.142427
0.195973
-0.064846
-0.015576
-0.022535
0.122974
-0.020589
0.180962
-0.228810
0.212589
0.083300
-0.059228
-0.065338
0.009483
0.001666
0.130242
-0.031831
0.150860
-0.022936
-0.012647
0.078810
-0.002654
0.012158
0.098697
-0.043538
-0.083740
-0.008861
-0.012955
-0.026033
-0.061233
0.157893
-0.051372
-0.081154
-0.009717
-0.072065
-0.060267
-0.147396
-0.061080
0.060518
-0.003542
-0.066851
-0.221464
0.021086
0.008038
-0.167292
-0.118428
-0.014150
0.009739
0.089858
0.064584
-0.088431
0.017688
-0.053481
0.022917
-0.060554
-0.179084
0.031863
0.031410
-0.034905
0.001127
0.055842
-0.070893
-0.083161
-0.071600
-0.075495
0.097580
-0.008530
-0.049279
0.025183
0.022344
0.058312
-0.105035
-0.066072
-0.007788
0.017412
-0.079588
0.015978
0.066029
-0.089443
-0.082989
-0.059514
0.095363
-0.097052
-0.047798
0.000636
-0.009802
-0.056844
0.157296
0.053132
0.148871
-0.142229
0.021563
-0.144292
-0.049957
-0.110219
-0.091042
-0.051333
0.146686
0.191903
0.095717
0.032264
-0.133571
0.063213
-0.163767
0.038684
-0.146221
-0.054852
-0.146511
0.103082
-0.087354
-0.026314
0.134253
-0.138991
-0.073273
0.071552
0.050194
0.099386
-0.128704
-0.063311
-0.098209
0.101938
-0.082710
-0.126657
-0.038730
-0.112688
0.055493
-0.061266
-0.054666
0.091605
0.018140
0.052392
0.021263
0.104075
-0.073967
0.047804
0.103734
0.108132
0.197009
-0.120733
0.137519
-0.095051
-0.041887
0.008330
-0.191429
-0.006078
0.022353
0.003213
-0.000510
0.065455
-0.207231
0.005710
0.110649
-0.089918
0.068229
0.071012
-0.075693
-0.139274
0.014500
-0.076004
-0.087608
-0.093990
0.012937
0.070278
0.017040
0.046093
0.119324
-0.024405
0.159671
0.051389
-0.224798
-0.128967
0.001028
0.093046
0.172042
-0.134449
-0.034905
0.007888
0.057100
-0.034716
0.188329
-0.063135
0.011835
-0.180946
-0.032850
0.050113
0.059810
-0.020264
-0.077457
-0.097890
-0.083633
-0.029947
0.153108
-0.042439
-0.145125
0.011625
-0.047334
0.026730
0.086925
-0.052337
0.180641
-0.196112
-0.239602
0.221488
-0.111936
0.239711
0.037493
0.159752
0.050387
-0.033320
0.005747
-0.055494
0.071870
-0.139677
-0.103631
0.047434
-0.046174
-0.067281
0.039686
-0.002584
0.086026
0.043804
-0.160821
0.062789
-0.023847
0.229299
0.001540
0.105072
-0.036790
0.000844
-0.044614
-0.040560
-0.020227
0.093567
-0.104547
0.034110
0.167844
-0.057434
0.093931
-0.085630
0.071456
-0.234856
0.027288
-0.022634
-0.085600
-0.022979
0.045098
-0.079168
-0.131670
-0.051244
0.022226
0.013884
-0.063279
-0.086826
0.106594
0.115112
0.029318
-0.038707
-0.018838
-0.119112
-0.021281
0.167474
-0.062722
0.123544
0.171855
-0.084037
0.098898
0.036506
0.075401
-0.072203
0.164227
0.152989
-0.142374
-0.079971
-0.105871
-0.114026
0.112486
-0.062222
0.018106
0.064978
0.033729
0.172583
-0.143914
0.052056
-0.057985
0.057691
0.022952
0.008626
0.140055
0.041712
-0.027724
-0.187289
-0.018146
0.190146
0.084621
0.056485
0.078152
0.131013
-0.074776
0.124436
0.180920
-0.016069
0.016982
0.014405
0.108621
0.111759
-0.046005
-0.085979
0.009946
-0.031012
-0.065601
0.079815
-0.007619
-0.184543
0.009976
-0.013722
-0.143130
-0.050357
-0.104597
-0.013681
-0.055879
0.054844
-0.021667
-0.054629
0.097737
0.048260
-0.062884
0.032772
-0.109740
-0.177454
-0.123249
0.057044
0.058346
0.092028
0.096259
0.067272
0.001486
-0.183126
0.011956
0.037466
-0.093918
-0.016626
-0.077233
-0.125975
0.125322
-0.151735
-0.129893
0.006354
0.112567
0.002685
-0.038582
0.085829
0.065247
0.031199
-0.140564
0.025667
-0.000588
-0.082392
-0.043875
-0.048973
0.045487
0.026010
-0.030840
0.211008
0.227275
-0.020091
-0.026496
0.057466
-0.024816
-0.015252
-0.077762
0.052649
0.041722
-0.033570
-0.007474
0.052208
-0.227922
0.023838
0.097827
-0.012441
0.104386
0.048574
0.065475
-0.017280
-0.057147
0.013734
0.126122
-0.069636
-0.017249
0.113963
-0.083021
-0.041575
-0.163323
-0.180290
-0.072391
0.129283
-0.006819
0.014944
0.044659
0.055422
-0.037953
-0.129844
-0.063394
-0.005629
-0.081799
0.156076
0.070622
-0.058241
0.141481
-0.023405
0.032959
0.047220
0.007304
-0.024310
0.101478
-0.004073
0.061367
0.101661
-0.041255
0.173750
-0.141165
-0.125237
0.063019
-0.044525
-0.119394
-0.033519
-0.034038
0.075265
-0.031666
0.031989
-0.058587
0.020171
0.187944
-0.201248
0.058871
-0.120147
-0.123161
-0.079327
-0.114230
-0.027802
-0.115866
0.126510
-0.006204
-0.029463
-0.058884
-0.074059
0.005475
-0.163521
0.013505
-0.017646
-0.089321
-0.039379
-0.077463
0.164032
0.169270
0.000529
-0.063562
-0.031399
-0.131098
0.091948
-0.005389
-0.021157
-0.185931
-0.010098
-0.067149
-0.053562
-0.113738
0.047248
0.104028
0.041112
0.052167
-0.059618
0.026134
0.057997
0.019917
-0.037325
0.134610
-0.067785
-0.016146
0.017971
0.039559
0.064254
-0.040528
-0.063034
-0.050632
-0.009914
0.072245
-0.065425
-0.069543
0.035152
0.093977
0.048640
-0.082984
0.119739
-0.012472
-0.186231
-0.052538
0.019051
-0.072001
-0.034433
-0.038418
-0.204323
-0.051553
0.128016
0.097684
-0.002221
-0.105677
0.083953
-0.026736
-0.034763
0.087092
-0.066773
0.031667
0.032118
-0.175726
0.021046
0.023171
-0.265701
0.002514
0.059741
-0.062550
0.152846
-0.017129
-0.189066
-0.004167
0.102567
0.064304
0.164964
-0.197696
-0.107040
-0.025875
-0.232628
-0.054497
0.178072
0.005803
0.282988
0.155621
0.160497
-0.120087
-0.052548
-0.100863
0.045217
0.060606
-0.164377
-0.148671
-0.025329
-0.071760
0.034502
-0.128621
-0.182806
0.003596
-0.023626
-0.081452
-0.000376
-0.034526
-0.023728
-0.069684
0.115353
0.114563
-0.190316
-0.122031
-0.011550
0.076200
-0.065451
-0.078637
0.071225
-0.103514
0.076128
0.031999
-0.015506
0.082645
0.026706
-0.016128
-0.057887
-0.026601
-0.136532
0.085274
0.107074
0.095407
-0.138708
0.052612
-0.034590
0.042335
-0.001347
-0.178997
-0.021514
-0.124689
-0.111786
0.028387
0.109696
0.146864
0.134568
-0.070301
-0.057811
-0.098487
-0.242051
-0.059595
-0.118232
-0.161323
0.146112
-0.010626
-0.010672
-0.024325
0.002368
0.062957
-0.104603
0.061936
-0.134341
0.017641
-0.115704
-0.032075
-0.072378
-0.030386
-0.025591
-0.185847
0.000430
0.068923
0.118079
0.049087
-0.018241
-0.151471
0.027987
0.014829
0.093347
-0.200994
0.012289
-0.000875
-0.058569
0.043697
0.167139
-0.001430
0.226978
-0.182963
-0.178994
-0.125596
-0.019764
0.077807
-0.047547
-0.061304
-0.051741
0.132065
-0.065129
-0.069691
-0.027651
0.057398
0.137152
-0.015557
0.049464
0.070106
0.179940
0.067455
0.162639
-0.054399
0.039126
0.144925
0.037265
0.025071
0.139104
0.089022
0.087883
0.002026
0.002032
-0.017169
0.067928
-0.000520
-0.072800
-0.166985
-0.039690
0.091672
-0.217964
0.007234
0.027599
-0.138026
0.062075
0.186602
-0.110515
-0.039388
-0.019108
-0.137458
0.064378
0.005616
-0.028670
-0.151046
-0.043533
0.051940
-0.112093
0.110102
0.042362
0.060677
0.042010
-0.053699
-0.095733
-0.002380
0.035046
0.150904
0.058342
-0.084742
-0.087263
-0.041703
0.102956
-0.134271
0.087905
-0.112459
-0.097080
-0.009793
0.098207
0.002229
-0.024706
-0.090125
0.136909
-0.003048
-0.001271
0.060890
0.038161
-0.084740
0.047467
0.058072
0.092764
0.184692
0.152979
0.053911
0.100940
-0.037378
-0.232399
-0.087438
-0.067507
-0.020647
0.156997
-0.083596
-0.021699
-0.018775
0.000132
0.194753
0.083248
0.031240
0.079497
-0.006020
-0.213964
0.098850
-0.059791
-0.082182
-0.012093
-0.108520
0.073840
0.052890
-0.041545
-0.025868
-0.048883
0.001530
-0.053525
-0.043175
0.019336
0.002400
0.019188
0.013097
-0.079751
-0.000226
0.102120
-0.081596
0.099487
-0.025621
-0.137071
-0.123151
-0.050127
0.013876
0.066138
-0.150317
0.018208
0.120787
-0.024244
-0.017692
0.124308
-0.084512
-0.020151
0.055505
0.063102
-0.145942
0.091074
0.052700
0.026715
0.014717
0.021346
0.106162
0.021164
0.129801
0.017372
-0.075695
-0.013049
0.177061
0.007842
0.066724
0.112103
0.129475
-0.156689
-0.199694
0.100665
-0.047284
-0.016465
-0.059797
0.016923
0.068211
-0.014130
0.056745
0.047347
0.017565
-0.036055
0.094045
-0.006698
0.019493
-0.139256
0.004541
0.011151
0.226941
-0.000900
-0.046627
-0.105630
0.089421
0.070257
-0.014768
-0.164566
-0.044942
-0.018235
0.021500
0.043078
-0.079812
-0.055370
0.054405
-0.228053
0.050817
0.171697
-0.055719
-0.102141
-0.067016
0.008768
-0.026856
-0.010850
-0.052576
0.025180
-0.062400
0.034472
-0.125600
-0.126234
0.000031
-0.132948
-0.048556
0.115392
0.078948
0.086305
0.107070
-0.065715
0.000669
-0.132855
-0.150233
-0.102483
-0.038277
0.136555
-0.046887
-0.071291
0.069560
0.198977
0.006317
0.222864
0.179670
0.070831
0.057333
0.016837
0.085146
-0.199216
-0.027841
-0.125523
-0.149936
-0.101121
-0.227343
-0.074901
-0.077028
-0.052046
-0.035627
0.055423
-0.145966
-0.028098
0.141229
-0.116077
0.023573
-0.015960
0.117215
0.087315
-0.013043
-0.116481
-0.214797
-0.052131
0.087938
-0.101664
-0.021415
-0.051432
0.041806
0.080926
0.008878
-0.179468
0.014837
-0.117224
-0.020039
0.033299
-0.266986
-0.034413
-0.040059
-0.097600
-0.144005
0.035073
-0.112190
0.248944
0.024897
0.062185
-0.078563
-0.095850
-0.039129
-0.015860
0.089389
-0.013548
-0.216653
0.050793
-0.085579
0.015878
-0.145100
-0.011541
-0.026469
0.162526
0.155054
-0.064603
-0.130728
0.055622
0.010140
-0.066625
0.016816
-0.044895
-0.154146
0.194230
-0.114012
0.064928
0.053413
0.158979
0.012457
-0.035930
-0.016666
0.069100
-0.058374
-0.055513
0.087139
-0.149368
0.078026
0.029963
0.183125
0.086822
-0.181463
-0.093098
0.041211
0.069102
-0.157734
0.058065
0.060959
-0.191220
-0.088879
-0.037148
0.036737
-0.068084
0.013805
-0.080445
-0.126161
0.107429
-0.183917
0.027947
-0.009835
0.046184
-0.060820
-0.144436
0.039387
0.031339
0.029573
0.055316
0.039486
-0.030896
0.024164
0.227590
-0.008968
-0.123841
0.071824
0.035633
0.026660
-0.136852
0.115931
-0.147854
-0.104357
-0.086533
-0.074482
0.033746
0.126506
0.012199
-0.019839
-0.044159
-0.122646
0.077439
-0.069124
0.021799
-0.040528
-0.086283
-0.105283
0.201876
-0.312572
0.009634
0.070348
-0.115915
0.076209
-0.048257
-0.001162
0.086612
-0.026386
-0.084467
-0.011156
-0.057321
0.093514
0.044241
-0.067206
0.070412
0.113024
0.040561
0.025848
-0.050321
0.157086
-0.192902
-0.059419
-0.056238
0.087919
0.025836
0.147444
0.041757
0.180068
0.110312
0.045401
0.014638
0.044574
-0.055405
-0.069757
-0.112990
-0.168973
0.132968
0.185312
0.059063
-0.080190
-0.163570
-0.006846
-0.067111
0.022898
-0.142915
-0.036911
-0.151296
0.032509
-0.092924
0.031142
-0.112889
0.084553
0.092234
0.007062
0.032288
-0.084032
0.007531
-0.015344
-0.027676
-0.064599
0.090288
-0.069882
0.011941
-0.095412
-0.012790
0.166885
0.013348
-0.022750
-0.152811
0.077799
0.060966
-0.032429
-0.027247
-0.038629
-0.025323
0.048356
-0.093344
-0.093927
-0.160156
0.003422
0.014067
-0.018691
-0.102017
-0.131069
0.045694
0.015619
0.079921
0.066374
-0.026840
0.088453
0.095441
0.094634
0.064915
0.046508
-0.167278
0.093661
-0.006238
0.065613
-0.083875
0.008565
0.132887
-0.191389
0.107939
0.046416
-0.142870
0.004645
0.090316
-0.036593
-0.210879
0.152966
0.017527
0.016768
-0.034099
0.001168
0.065386
-0.109992
-0.150509
-0.182423
-0.097098
-0.104752
-0.016008
-0.015780
-0.067731
-0.088185
-0.027341
0.040076
-0.012524
0.000320
0.049524
-0.019885
0.034101
-0.049751
-0.175086
-0.129677
-0.072673
-0.045028
0.011517
0.076928
0.159558
-0.149282
0.004370
-0.060779
0.031199
0.060104
0.027205
-0.137592
0.014651
0.100203
0.141043
-0.065902
-0.036976
0.060211
0.034431
-0.016676
-0.125791
0.038832
0.018221
0.062227
-0.024560
0.035681
0.010231
-0.138516
-0.191393
0.043993
0.084089
0.017971
-0.011087
-0.035934
-0.029343
0.060913
0.018399
0.014800
-0.056504
0.073500
-0.034361
0.071160
-0.127423
-0.054144
0.015128
-0.057534
0.018135
-0.054358
0.042125
-0.023130
0.035241
0.005740
-0.056850
0.139107
-0.003533
0.086528
0.077361
0.049388
-0.089195
0.061851
0.128977
-0.002290
0.009532
0.044230
0.019234
0.059555
0.028304
0.070090
0.022357
0.100462
-0.042115
-0.109895
-0.178089
-0.024997
0.063806
-0.017928
-0.040417
0.002998
0.024679
-0.029589
0.049386
0.002135
0.172818
0.221580
0.037329
-0.003472
0.000573
0.070572
-0.078023
0.220485
0.148288
0.090823
0.066513
-0.058855
-0.033325
0.021768
0.197161
-0.043238
-0.006568
0.152542
0.003734
0.024334
0.032178
0.174255
0.111681
0.115832
0.054216
0.055161
-0.150512
0.057822
-0.067564
-0.021023
-0.027396
0.013927
0.053360
0.017411
0.075620
-0.124072
-0.000656
0.019215
0.036382
0.007964
0.018281
-0.002515
-0.135868
0.089569
-0.027160
0.138727
0.008564
-0.006734
0.126870
-0.062586
-0.160913
0.079576
0.063419
-0.073240
0.004881
-0.020631
-0.117413
0.028489
-0.181023
0.012207
0.008134
0.013156
-0.025178
0.149448
-0.003575
-0.038836
-0.046534
0.104044
0.067893
-0.004192
0.003444
-0.153355
0.105431
0.015675
-0.190814
-0.044829
0.070420
-0.052352
0.174988
-0.098124
0.084198
-0.057356
-0.111447
0.018893
-0.050940
0.160050
-0.179711
0.031918
-0.185065
-0.045289
-0.084402
-0.040051
0.076252
0.098890
-0.065709
0.055800
-0.041266
-0.029316
0.122179
0.090026
-0.091123
-0.141963
-0.069198
-0.103539
-0.238209
-0.068601
0.000711
0.105526
0.138792
-0.120453
0.010812
-0.000158
-0.133240
0.000559
-0.044362
-0.201332
-0.087398
0.139997
0.005753
0.117074
-0.093860
0.012668
0.069776
-0.007713
-0.072555
-0.116193
0.041354
0.042309
0.094197
-0.019063
0.235172
0.073110
0.028357
-0.041086
0.143691
-0.112883
0.073482
-0.090796
0.022670
0.083735
-0.033897
0.089249
0.052047
-0.079361
0.101752
0.092089
0.144720
-0.051284
-0.042017
0.095100
0.064879
-0.025202
-0.044065
0.097661
-0.020847
0.015879
0.006863
-0.015878
-0.211160
-0.073232
0.025941
0.012304
0.100091
0.039458
-0.032752
0.265309
-0.038746
-0.020519
-0.190539
-0.029986
-0.088932
-0.043141
0.103821
0.018341
0.106556
-0.154914
-0.128284
0.070103
-0.175241
-0.007204
-0.049267
-0.076576
0.074558
-0.098979
0.020462
0.096530
0.007008
0.021483
0.006644
-0.045413
0.108293
0.032155
0.008893
-0.046292
-0.151766
0.084223
0.012074
0.122196
-0.018359
-0.000275
-0.101200
0.006603
-0.081011
0.066251
-0.123906
-0.031999
0.169045
0.084039
-0.176090
0.143195
-0.067944
-0.028889
-0.019675
0.115019
-0.144865
-0.074318
-0.087231
0.054684
0.013737
-0.149690
0.139010
0.079207
-0.107951
-0.056507
-0.099844
0.018459
-0.018479
-0.039839
0.015015
-0.190231
0.022496
-0.016170
-0.178663
0.015391
-0.032402
0.042020
-0.115625
-0.243086
0.088225
0.001319
0.001220
0.036322
0.020723
0.038007
-0.142166
0.083160
-0.164454
0.028089
-0.004099
0.198759
-0.048494
-0.012917
-0.013151
-0.054553
0.154821
0.125974
-0.078692
-0.071897
0.097490
-0.011884
0.014701
-0.083535
0.134013
0.120535
-0.035383
-0.002219
-0.043518
0.097447
0.018788
0.002107
0.134395
-0.311763
-0.106516
-0.010434
-0.061707
-0.055166
-0.058146
0.169918
-0.167121
0.103603
-0.052896
-0.115587
0.035270
-0.015106
-0.022538
-0.090057
0.062776
-0.083650
0.163880
0.171767
0.031172
-0.015927
-0.139211
-0.177028
-0.060499
-0.057313
0.003252
-0.036931
0.000146
0.133308
0.007992
-0.134603
0.109720
-0.031666
0.170171
0.002382
-0.062219
0.070996
0.133452
0.047654
0.003132
0.142567
-0.059830
0.006783
-0.130569
-0.109324
-0.016449
0.006347
0.062148
-0.144792
-0.063554
0.009974
0.003044
0.013528
-0.051191
-0.030783
-0.109840
0.054142
0.167864
0.010711
0.135637
-0.056111
-0.206381
-0.152121
-0.098707
-0.017633
0.011711
-0.146293
-0.079556
-0.056810
0.047341
0.094142
-0.091497
0.035577
-0.057756
0.027943
-0.045343
-0.087991
0.021431
-0.033768
-0.026507
0.044908
0.089258
0.021325
-0.098553
-0.079667
-0.029195
-0.067846
-0.139215
0.033853
-0.081639
-0.125680
-0.137407
-0.023219
0.034603
0.000178
-0.027911
0.006384
-0.072176
-0.103397
-0.071588
-0.011053
-0.042209
-0.039844
-0.100143
0.132143
0.007669
0.059871
-0.110811
-0.123961
-0.178683
-0.032986
0.068382
0.076842
0.026908
-0.150717
0.001593
0.015906
-0.130769
-0.177779
0.031208
0.033077
0.047992
-0.118150
-0.034613
0.047493
-0.017242
0.004340
-0.000647
-0.102009
-0.086011
0.047476
0.143790
-0.013017
-0.008443
-0.140627
-0.052041
0.072370
0.110874
-0.119490
-0.101465
-0.053833
-0.039108
-0.099142
-0.275343
-0.033358
0.012197
0.021942
-0.064425
-0.007961
-0.042448
0.003971
-0.032734
0.074093
0.106564
0.080387
0.051921
0.019088
0.071601
0.090583
-0.045883
0.061129
-0.050061
0.121661
-0.058131
-0.041587
0.033232
-0.080411
-0.135205
-0.037973
-0.118541
0.038508
-0.058433
-0.009681
0.059420
-0.007980
0.063784
-0.096716
-0.144048
-0.087091
-0.035566
0.044524
-0.004537
-0.031661
-0.031994
0.111490
0.006900
-0.210060
0.096975
0.153567
0.099270
0.057708
0.092621
-0.083073
-0.057735
0.041621
0.054130
-0.011124
0.026277
0.011325
0.114158
0.094614
0.105036
0.036315
0.081581
-0.012667
0.101521
-0.035705
0.027098
-0.190070
-0.054440
0.066934
-0.163064
-0.046649
-0.043453
-0.007790
0.044855
0.133369
0.161964
-0.088607
-0.163369
0.008184
-0.055677
0.011190
-0.055663
-0.061675
0.136888
0.020377
-0.095110
0.108574
-0.062534
-0.060472
-0.016475
-0.060277
-0.050494
0.083574
-0.006181
-0.114403
0.115832
0.050397
-0.025289
-0.091007
0.070180
-0.064719
0.079667
0.003130
0.098439
-0.040765
-0.052729
-0.120428
-0.017788
0.022247
-0.106499
0.064121
-0.111682
-0.112738
0.109221
0.070706
-0.026315
0.023234
0.076336
-0.060716
0.001745
0.008508
-0.054972
0.023021
-0.015898
-0.075539
-0.079578
-0.117457
-0.032781
-0.195119
-0.062841
0.014717
0.143957
0.079741
-0.143341
0.080013
-0.015591
0.028828
-0.042077
0.025343
-0.111184
-0.066659
-0.114004
-0.096074
0.075908
0.060357
0.037501
-0.183207
0.084327
0.102395
0.012191
0.076881
0.015115
0.123810
-0.118783
-0.120607
-0.097744
0.026874
-0.093355
0.008948
-0.075030
-0.024663
-0.028766
0.017815
-0.028010
-0.145651
0.026692
-0.078874
-0.148980
-0.110385
-0.072552
0.021820
-0.085242
-0.109586
0.032433
0.034482
-0.055137
0.092322
-0.234357
-0.012956
0.011121
0.126033
0.046035
0.053940
-0.096249
-0.207043
-0.054984
-0.049738
-0.143346
-0.106472
-0.168197
-0.094375
0.041288
-0.024245
-0.139440
-0.087866
-0.058742
-0.162677
0.071545
0.022071
-0.200928
-0.146281
-0.033576
-0.103551
0.007200
0.091714
-0.001453
0.025437
-0.041101
0.025971
-0.018515
0.072597
0.152220
-0.068749
-0.019313
-0.053142
0.051742
-0.010832
0.028584
-0.011249
-0.031574
-0.010319
-0.076646
0.005208
0.019893
-0.038911
-0.018909
-0.141455
-0.059686
-0.030526
-0.014617
0.023443
0.033389
0.046928
-0.080932
0.095376
0.014331
0.048638
-0.212905
-0.215147
-0.003514
0.078528
-0.157160
-0.058002
0.017416
0.090003
-0.032235
0.034536
-0.104990
-0.255000
0.053219
-0.033503
-0.088685
-0.026423
0.032817
0.038034
-0.077535
-0.088238
0.003014
0.044714
0.038721
-0.144811
0.038462
0.026385
-0.004674
0.064535
-0.050199
0.008228
-0.097378
-0.048448
0.028934
-0.027004
-0.059761
-0.127437
0.007824
0.119073
0.112630
0.014772
0.026218
0.105564
0.142928
0.004389
0.022821
-0.055783
-0.201201
-0.121210
0.045385
-0.047159
-0.059490
0.060961
-0.010066
-0.094167
0.026528
0.099409
0.062565
0.052896
-0.085948
0.156680
-0.036163
0.159562
-0.063452
0.037161
0.010736
-0.056972
-0.059121
0.006772
0.182117
0.084903
0.114683
0.084395
-0.070144
-0.154218
0.205722
-0.076429
-0.111179
-0.046838
-0.194780
0.005955
-0.114976
-0.007765
-0.149292
0.059629
0.096907
-0.109143
-0.160895
0.081951
0.072533
-0.048829
0.008410
0.080476
-0.025139
-0.050109
0.003206
-0.093650
-0.051878
0.009692
-0.047911
-0.011648
0.126958
-0.025463
-0.085806
-0.054878
-0.018667
-0.066732
-0.121521
0.116130
-0.003366
-0.114189
0.081506
-0.028401
-0.009450
0.059696
-0.008158
-0.036361
0.095121
0.017075
-0.037776
0.070717
0.011129
-0.002604
-0.099624
-0.018853
0.154086
-0.076042
-0.098344
-0.028184
0.003367
-0.043793
-0.046638
-0.086562
-0.085146
-0.020143
-0.042943
-0.217103
0.005602
0.105390
-0.227720
-0.078501
-0.033885
0.132584
0.006024
-0.209549
-0.044292
-0.076775
0.085130
0.155697
-0.039920
0.062496
0.244231
-0.081804
0.064385
0.048361
-0.294157
-0.032130
-0.065554
0.020374
0.009036
-0.022754
-0.108319
0.168511
0.104439
-0.099709
-0.038444
0.021425
0.027441
-0.124539
0.018313
0.003155
0.014373
-0.016317
0.014493
-0.023541
-0.093166
0.023045
0.087198
-0.033590
-0.087443
0.034853
-0.028633
-0.160252
-0.014236
0.049015
0.182382
0.082578
0.173477
0.010821
0.023419
-0.025819
0.139037
-0.085611
-0.094125
-0.039635
-0.046089
0.019967
0.003557
-0.050045
-0.271782
0.010602
-0.060135
-0.154002
-0.082573
-0.043032
-0.063576
0.155182
-0.015666
0.040653
-0.045049
-0.061239
-0.017330
-0.067894
-0.060636
-0.103265
-0.054188
-0.059734
0.062759
-0.140278
-0.012404
0.070638
0.077682
-0.188397
-0.034279
0.177398
-0.092403
-0.011311
-0.099689
0.031820
-0.022962
-0.054021
0.053827
-0.127548
-0.083601
0.005010
-0.023653
-0.187355
0.014678
-0.015066
-0.126877
-0.083118
-0.272051
-0.100439
-0.083909
0.125400
-0.017162
-0.022184
0.002163
-0.066515
-0.046878
0.153216
0.003225
0.041342
-0.058058
-0.066801
0.029643
0.164244
-0.071227
-0.100709
0.124007
-0.019515
-0.059028
0.060624
-0.093600
-0.130072
0.052955
-0.054717
0.076032
0.115813
0.023858
0.079050
0.106111
-0.057456
0.097379
-0.082286
0.015500
0.055945
0.025600
0.043011
0.092140
0.070080
0.132738
0.027971
0.059621
0.039427
0.102451
0.111221
-0.061815
0.051899
0.140697
-0.063000
-0.000752
-0.039812
0.020060
0.044268
0.019211
0.023058
-0.016618
-0.010435
-0.027246
-0.016981
0.047072
-0.016682
-0.013419
-0.044425
0.018474
-0.150667
-0.072867
0.129466
-0.020438
-0.132301
0.059643
-0.080057
0.019659
0.166010
-0.159255
0.134725
-0.032165
0.026687
0.068919
-0.086209
0.042883
-0.039015
-0.049377
-0.197822
0.113307
0.031654
-0.028481
-0.035385
-0.006981
-0.003434
0.096818
-0.018795
0.058653
-0.013276
0.086714
-0.020913
-0.065557
-0.066147
0.054632
-0.114205
-0.104993
-0.054795
-0.014725
0.145286
0.021432
-0.023340
-0.067258
0.014111
0.009691
0.002711
0.011432
-0.040811
-0.068759
0.038959
-0.007413
0.008179
0.038902
-0.239347
-0.144581
0.002444
0.116683
0.067179
-0.107954
0.006711
-0.121477
0.016942
-0.046874
0.128700
-0.072242
-0.031044
-0.009280
-0.050254
0.013445
-0.032133
0.073250
0.065945
-0.015861
0.088848
-0.015633
-0.031762
0.074721
0.102553
0.032613
0.037707
-0.066045
0.038160
-0.027825
0.033616
-0.083658
0.056498
-0.119119
-0.001050
0.094540
0.036420
-0.043357
0.039608
-0.024916
0.000476
-0.118456
-0.053221
-0.189002
0.031856
0.033215
-0.095044
0.046401
-0.125735
0.090096
-0.168067
0.005180
-0.029221
0.022398
-0.046969
-0.067803
-0.180047
-0.167636
0.021490
-0.020928
-0.016860
-0.069825
0.077041
0.057346
0.031589
-0.056149
-0.094712
0.006798
0.012051
-0.059386
-0.126654
-0.183636
0.104715
-0.017784
-0.111672
-0.103420
-0.028362
-0.085212
-0.011883
0.055783
-0.065793
-0.050735
0.185000
-0.076463
-0.019248
-0.064031
0.011554
0.070468
0.137968
0.002968
0.029187
0.156924
-0.037056
0.074120
0.068390
-0.012977
-0.191484
-0.008660
0.168997
0.025222
-0.154180
0.006565
0.056071
0.062963
0.012364
-0.024535
0.039039
0.004133
-0.095904
0.177910
-0.125283
-0.096682
0.004448
-0.017899
0.012476
0.110561
-0.054878
0.055708
0.035183
0.085472
-0.049149
0.061872
0.069631
-0.046800
0.077385
-0.005472
-0.059309
0.078839
-0.100463
0.028283
-0.083144
-0.094262
0.024160
0.009951
0.044782
0.090429
-0.026252
-0.118806
0.165878
0.000571
-0.013073
-0.138011
0.070926
-0.023659
-0.214628
0.066067
-0.030811
0.085998
-0.051214
-0.008752
-0.010377
-0.000302
-0.074685
0.131785
0.001284
0.185729
-0.093003
-0.028664
0.031083
-0.062070
0.019265
-0.050403
-0.096571
-0.048025
-0.040655
-0.039962
0.094277
-0.014188
0.020315
0.122202
0.034866
0.056197
-0.057146
-0.103164
0.067952
0.029557
-0.054941
-0.144654
0.046611
0.037996
-0.080435
-0.046000
0.033162
-0.204425
-0.025741
-0.048627
-0.240791
0.152944
-0.010978
0.031230
0.106632
-0.083919
-0.107448
-0.060205
0.070571
-0.082153
0.065188
0.094623
-0.007268
0.042660
-0.036616
0.048077
0.023040
-0.038911
0.076079
0.110591
-0.088575
-0.215629
0.043396
-0.049900
-0.154524
-0.106287
-0.123573
-0.050491
-0.156204
0.144274
-0.131269
-0.009380
-0.172833
-0.019390
-0.090288
-0.148644
0.068448
0.002716
-0.006948
0.020862
-0.047845
-0.012184
0.059740
-0.033936
0.001701
-0.084144
0.100963
0.009191
-0.069075
-0.046507
-0.210729
0.065001
0.101070
-0.160026
-0.061938
0.025089
-0.014369
-0.046395
-0.032648
-0.074183
-0.074493
-0.114815
0.099236
-0.104772
0.002759
0.108089
-0.048599
-0.014956
-0.064593
-0.082493
0.014293
0.061638
0.060369
-0.001678
-0.022137
-0.138893
0.082528
-0.084750
-0.080314
-0.033400
0.036189
0.023527
-0.113719
0.015255
0.046771
-0.185730
0.077089
-0.026460
0.069430
-0.061046
0.120036
-0.056551
-0.035590
0.001975
0.047963
0.027167
0.088171
0.045427
0.170799
-0.109773
-0.038324
-0.149034
-0.040578
-0.029267
0.110316
0.031355
-0.256538
-0.099419
0.041987
-0.006240
0.202419
0.216215
0.014882
-0.134042
-0.046054
-0.217009
0.013798
-0.069783
0.072696
0.012379
-0.037091
-0.012468
-0.005124
0.019734
0.105511
-0.046978
-0.049956
0.034447
-0.036929
0.030935
-0.036770
-0.135077
0.105998
-0.158956
-0.048085
0.012441
-0.078406
-0.097650
-0.026161
0.069342
-0.034056
0.002732
-0.094107
-0.082149
0.089201
-0.017505
-0.080753
0.025064
-0.070863
-0.054532
-0.160889
-0.040163
0.112748
0.088085
-0.095999
-0.042908
0.080440
-0.019299
-0.132895
0.039933
-0.066627
-0.028211
-0.146593
0.018798
0.045197
0.178942
-0.027455
0.102165
0.021852
0.004129
0.077617
-0.041919
0.215994
-0.064932
0.227560
-0.230004
-0.153671
0.069844
0.075666
-0.095963
0.130349
0.008474
-0.080875
0.135307
0.114660
0.117665
-0.006576
0.136006
-0.004328
0.059097
0.131369
-0.060664
-0.058031
0.082124
-0.009283
-0.075730
-0.062963
0.128192
0.064481
0.084615
-0.072188
-0.008057
-0.013465
0.183593
0.007963
-0.080944
-0.026776
0.045735
0.126581
-0.032746
-0.177607
-0.063494
0.084927
-0.114503
-0.092802
-0.040882
-0.010886
-0.041040
-0.032397
0.018463
0.003117
-0.174154
-0.025516
0.051624
-0.053781
-0.079164
0.136142
-0.084794
0.027449
-0.029744
-0.154172
0.203549
-0.075537
-0.027115
-0.021539
0.010749
0.044802
-0.090376
-0.044434
-0.190883
-0.030531
0.026272
-0.011024
0.083147
0.009445
0.003335
-0.097632
0.043662
0.117786
0.104051
-0.148015
-0.107214
-0.088301
0.074929
-0.131106
-0.044913
-0.064349
-0.102750
-0.001199
-0.014048
-0.079899
-0.001477
-0.015061
0.123871
0.028792
-0.026976
0.103147
-0.048313
-0.034580
-0.057415
-0.074669
0.067526
0.162528
-0.003888
0.088350
0.009464
-0.052021
-0.078794
0.081340
-0.133549
-0.081685
-0.101625
0.136100
0.136698
-0.004646
-0.137350
-0.318999
-0.085518
0.056962
0.018589
-0.060428
0.120065
-0.023292
0.001264
-0.116112
-0.035908
-0.089360
-0.113270
0.145956
-0.003626
0.127474
0.010115
0.060787
-0.066283
-0.065386
0.059235
-0.234034
0.153114
0.066502
0.005532
0.068141
0.077119
-0.007723
-0.035233
0.006667
0.082075
-0.029964
0.211115
-0.019051
-0.264027
0.089449
0.061926
0.044972
-0.053889
-0.036530
0.110085
0.068627
0.156845
0.021228
0.013637
0.040932
-0.130057
0.242242
-0.009993
-0.019950
0.073236
0.165186
-0.012774
0.057746
-0.119597
0.030301
-0.044812
0.022441
-0.072421
0.062704
0.067323
0.012863
-0.033105
0.122209
0.057226
0.046514
-0.009025
0.018940
0.025117
-0.009305
0.039451
-0.001808
0.055163
-0.045283
-0.034592
0.038193
-0.013047
-0.072300
0.195360
-0.149922
0.001980
0.175794
-0.037538
-0.048323
-0.105709
0.163673
-0.020928
-0.117308
-0.108021
-0.224124
0.018373
-0.175207
-0.039450
0.057837
-0.235248
-0.160215
0.011218
-0.069205
0.050968
0.049546
-0.122219
-0.027533
-0.061376
-0.076722
0.085894
0.011224
-0.162942
0.000719
-0.149024
-0.102423
-0.140078
-0.004141
0.005719
0.055659
0.015314
-0.008401
-0.254239
0.001873
-0.050130
-0.084093
-0.081385
-0.224859
-0.075067
0.153637
0.030229
-0.117846
-0.071750
-0.032129
-0.033689
0.030482
0.111179
-0.046763
0.018109
-0.212315
-0.104727
-0.006192
0.001569
0.094366
0.012797
-0.056446
-0.103878
-0.060117
0.100138
0.184240
-0.021112
0.060497
-0.110191
-0.058521
-0.082660
0.066821
0.084703
0.071920
0.041263
0.007419
0.107155
0.034794
-0.017212
-0.040418
0.066203
-0.002500
0.062812
0.030419
-0.017392
-0.005285
-0.041031
0.050859
-0.145611
0.012064
0.019303
-0.152029
0.018684
0.028536
-0.040412
-0.083318
-0.088221
0.030367
-0.075702
0.033047
0.132179
-0.154444
-0.091370
-0.004928
-0.127372
-0.052761
-0.251286
-0.007865
0.097272
0.102629
-0.092266
-0.101246
-0.157115
-0.047250
0.097348
-0.137444
0.117442
-0.002863
-0.027482
0.034116
0.159439
-0.097470
-0.034251
-0.035219
-0.036867
-0.226896
-0.061793
0.200099
-0.017018
0.069481
0.040575
0.183613
0.019635
0.030616
0.061551
0.000827
-0.029508
-0.001209
0.113809
-0.056626
-0.125549
0.095966
-0.017964
0.118426
-0.106744
0.055546
0.038115
-0.018844
-0.122049
0.022767
-0.095644
-0.209301
-0.012709
-0.096508
-0.074225
0.026923
-0.120505
0.059334
-0.131233
-0.088482
0.010966
0.093689
-0.121116
0.054201
0.084427
0.013119
0.054350
-0.036441
-0.096147
-0.054524
0.118417
-0.038247
-0.102807
0.025372
-0.224203
-0.038345
0.033260
-0.145818
0.090391
0.211936
0.031402
0.118307
-0.157890
0.028390
-0.136937
-0.220573
0.045441
-0.016825
0.034984
0.064190
-0.059076
-0.078274
0.026539
0.039212
0.203543
0.154641
-0.155571
-0.116023
-0.043618
-0.030585
-0.007499
0.047647
-0.105598
-0.024478
0.109868
0.004893
-0.034012
0.062752
-0.003166
-0.019459
0.112351
0.101579
0.142964
-0.110494
-0.054905
0.007465
-0.098288
-0.013430
-0.049473
0.003027
0.015380
0.060659
0.021731
-0.052288
-0.197445
-0.073679
-0.116975
-0.061054
-0.168193
-0.047812
0.018255
-0.096020
-0.005608
-0.151165
0.044709
-0.060670
0.185158
0.148115
0.062701
-0.074041
0.076762
0.093111
0.132353
0.108471
0.078522
0.045545
0.047382
-0.158713
-0.000935
0.097170
0.120071
0.045499
0.087577
-0.149158
0.068359
0.066697
0.174995
0.122765
0.050615
-0.065532
0.045063
0.008317
-0.074803
-0.019433
-0.023797
0.023083
0.075728
-0.035426
0.121897
0.039800
0.024396
0.039928
0.185429
0.012558
-0.054844
-0.049967
0.091875
-0.057107
0.082602
0.012386
-0.125348
-0.003381
-0.120425
0.008937
-0.097527
-0.024789
-0.058958
-0.077168
0.162464
-0.205362
0.105880
-0.009676
-0.012682
-0.071644
0.009702
-0.106231
0.064311
0.072816
-0.130276
0.069898
-0.022362
-0.011512
-0.119776
-0.070865
-0.025050
0.044559
-0.108957
-0.013987
-0.008709
0.068910
0.046020
0.123434
0.017303
0.069995
-0.076659
0.148722
-0.206757
-0.165658
0.014562
0.087423
-0.107012
0.012927
0.032859
0.137929
0.020743
-0.044300
-0.116115
0.021512
-0.103663
-0.163715
0.074488
-0.026400
-0.072052
-0.062968
0.014487
-0.114578
-0.243782
0.040927
-0.071867
0.113345
-0.073258
-0.006316
0.050677
0.029825
0.095142
-0.036760
0.051691
0.029880
-0.064175
-0.037605
0.103483
-0.080096
0.072299
0.137252
-0.131133
-0.083844
0.118100
0.040539
0.111663
-0.068259
0.068721
-0.113225
0.008504
0.092140
-0.058617
-0.097391
0.014139
-0.046278
-0.041675
-0.238638
0.011986
-0.035572
0.056179
0.037930
0.106167
0.073555
0.049130
-0.010052
-0.060413
-0.049141
0.059504
-0.108673
-0.056631
-0.014486
-0.121986
0.196376
0.033074
0.042602
-0.137685
-0.197738
0.163963
-0.001287
-0.085798
0.097834
-0.237184
0.057111
-0.096725
0.140835
0.008148
0.107958
-0.041894
0.101853
0.004977
-0.026755
-0.045968
0.158557
0.110135
-0.006769
0.036139
0.050032
0.110678
0.122512
-0.071401
-0.166990
0.083923
0.047143
-0.022735
0.006675
0.053851
-0.049068
-0.105536
0.110603
0.035990
-0.039686
-0.004403
0.123592
0.055361
-0.057337
-0.231860
-0.121478
0.048647
0.150231
0.022651
-0.053553
-0.104335
-0.083643
-0.000848
-0.007409
-0.103728
-0.154949
-0.175578
-0.030056
-0.072020
-0.176588
-0.216769
0.045317
-0.094512
-0.122861
0.000408
-0.024070
0.067830
0.026864
-0.122261
0.009278
-0.128988
-0.128904
-0.003549
0.013175
-0.139362
0.098580
-0.111158
-0.088246
-0.062039
-0.080063
-0.257767
-0.008437
0.060187
0.024332
-0.098650
-0.032887
-0.040241
0.145646
-0.053088
-0.003660
0.038242
0.030394
-0.061002
-0.173955
0.024404
0.099623
-0.137356
-0.167400
-0.075204
-0.018482
-0.087603
-0.019518
-0.043006
0.084151
0.022127
0.109441
-0.171910
0.083585
0.027409
0.070074
0.029327
0.071740
-0.029357
-0.016442
0.056617
0.010888
0.015220
0.034593
-0.002358
0.097207
0.044238
-0.112141
-0.015080
-0.085402
-0.003827
0.050310
-0.114446
-0.186839
-0.164853
0.034020
-0.074328
-0.061743
-0.122973
-0.073988
0.029419
0.086129
-0.131537
0.078379
-0.012816
-0.066426
-0.024481
-0.022804
-0.025832
0.010933
-0.010934
-0.042917
0.007989
-0.091421
0.067882
-0.005974
-0.093804
0.053104
-0.065408
0.003991
0.209040
-0.021343
-0.006293
0.081560
-0.084263
0.050045
0.023843
-0.139020
-0.017012
0.043898
0.067995
0.044111
-0.072328
-0.036574
0.031717
0.095823
0.008609
-0.112927
0.177530
-0.188770
-0.066949
-0.010439
-0.136791
-0.131341
0.027959
-0.065685
0.001620
0.057036
-0.000523
0.142727
0.252419
-0.148771
0.002047
0.026224
-0.095958
0.079368
0.014251
-0.048183
-0.300264
-0.130224
-0.036596
0.074088
0.162251
-0.021060
0.031182
0.136961
0.102433
0.042360
-0.030616
0.011982
0.064002
-0.111867
0.172511
0.050958
-0.068576
-0.117680
0.036938
-0.069612
-0.103757
0.166135
0.102806
-0.096629
0.088988
0.046511
-0.057650
-0.002843
-0.060365
0.058415
-0.069533
0.068609
0.088256
-0.121367
0.001588
-0.041233
0.049096
0.010336
-0.038293
0.134202
-0.090140
0.173404
-0.026856
0.036797
0.003236
-0.057492
-0.025981
-0.068568
-0.064095
-0.178940
0.049835
-0.137981
0.092090
0.033492
0.073152
0.020461
-0.041316
-0.156036
0.045180
-0.042459
-0.156867
0.018079
0.001713
-0.008619
-0.156699
-0.003795
-0.140372
0.102528
-0.125246
-0.093972
-0.037397
-0.017862
0.008908
-0.129441
-0.035799
-0.157709
0.055383
-0.098262
0.212387
-0.023013
-0.069893
-0.041455
-0.010744
-0.218776
-0.076468
-0.072104
-0.005910
-0.110357
0.089354
-0.031846
0.219594
0.020348
-0.036289
0.087926
-0.236830
-0.061844
0.066675
0.098091
-0.069427
-0.021333
-0.072135
0.100713
0.163481
-0.121123
-0.084018
-0.077136
0.010941
0.043685
0.062400
0.049909
-0.060147
0.021422
0.065031
0.037293
-0.027606
0.139419
0.020248
-0.004711
-0.006510
-0.185558
0.188922
-0.019067
-0.009283
0.165922
-0.317249
-0.150666
0.044434
-0.053099
0.166368
0.015456
0.123085
-0.031795
0.039809
0.173556
-0.033652
0.026376
0.057913
0.020947
-0.058779
-0.134756
0.073309
0.087310
-0.011640
-0.033935
-0.062177
-0.083208
-0.077130
-0.063987
-0.054233
0.201507
-0.093017
0.031917
-0.075754
0.004766
-0.088119
0.028405
-0.096066
-0.157823
0.006001
-0.051303
-0.024358
-0.095822
-0.041463
0.177084
-0.126422
-0.060996
-0.019805
-0.085385
-0.086946
0.038308
0.017296
0.021061
0.210631
-0.013383
-0.017984
-0.123344
-0.072011
0.073538
0.058146
-0.102110
-0.075874
-0.015678
0.102760
0.044400
-0.092463
-0.175281
-0.002400
0.061160
-0.089829
-0.023078
-0.192659
-0.084346
0.142848
-0.084140
-0.062566
-0.207455
-0.057321
0.075059
-0.056141
-0.081632
-0.129221
-0.075683
0.009543
0.082073
0.056538
-0.079646
-0.011625
-0.031425
-0.075387
0.012510
0.082526
-0.023429
0.036926
-0.158033
0.033604
-0.098268
0.053273
0.028638
0.054217
-0.134331
0.075082
-0.054894
-0.033686
-0.149914
0.074989
-0.031509
-0.116314
-0.067119
0.021256
-0.040343
-0.228127
0.140851
-0.152305
0.018381
-0.133617
-0.033055
0.056780
-0.042834
0.041294
-0.047172
-0.040491
-0.178573
-0.070200
-0.149525
0.070635
0.084728
0.204954
-0.164633
-0.001392
-0.082931
0.005437
-0.009305
0.047682
-0.072866
-0.130741
-0.120055
0.042770
0.047872
-0.003131
-0.239151
-0.056224
0.126868
-0.101107
0.011691
-0.070292
-0.142989
0.016364
0.171448
-0.148273
0.002649
-0.167798
0.110295
-0.097085
0.025497
-0.138147
0.049152
-0.154572
0.064433
0.049022
-0.081121
0.018779
0.092622
0.013283
-0.076157
0.038217
-0.005627
0.172265
-0.047007
0.113977
-0.093234
-0.003299
-0.075991
-0.069390
0.056572
-0.085044
-0.065788
0.005229
-0.016141
-0.040344
-0.081535
-0.023866
0.066586
0.009515
0.017261
-0.037460
0.087902
0.007851
0.111026
-0.101833
0.052868
0.117716
0.014963
0.011174
0.030278
-0.093534
-0.013684
0.014758
0.050927
-0.014095
-0.081875
0.099615
-0.187639
0.036505
-0.029332
0.051161
0.051941
-0.020839
-0.064892
-0.159954
0.016168
-0.173230
0.077259
-0.078717
-0.125543
-0.116252
0.183727
-0.002146
0.136548
0.022999
0.013230
-0.025602
-0.083231
0.076179
0.003488
0.019185
-0.053345
0.111152
0.111229
0.011024
-0.035361
-0.136265
-0.193952
-0.037591
-0.071498
0.064609
-0.022120
0.052904
0.031759
0.006146
-0.149773
-0.001636
0.044989
-0.048674
-0.303302
-0.213706
0.028335
-0.051983
0.137491
-0.026152
0.150634
0.052068
-0.191311
0.175424
-0.042718
0.075545
-0.113207
-0.152938
0.062301
-0.065103
-0.076683
-0.076410
0.087272
-0.021673
-0.034707
-0.038544
0.105028
0.062231
-0.092445
0.078401
0.089493
0.097949
0.012270
0.021622
-0.033823
-0.034121
-0.096827
-0.041817
-0.030465
-0.014894
-0.061287
0.195646
0.031277
0.002755
-0.015288
-0.124434
0.084643
-0.006290
0.100914
0.036971
0.125746
0.039704
-0.127721
-0.006944
0.045638
-0.009101
-0.062874
0.134042
0.101185
0.013509
-0.187269
-0.070012
-0.066701
0.077421
-0.021150
-0.034306
0.046157
0.013014
0.004643
-0.029068
-0.094553
-0.163467
0.006790
0.086639
0.049583
0.062559
0.116895
0.096597
-0.036838
-0.216223
0.069492
-0.032278
-0.045966
-0.107444
-0.059056
0.076128
-0.073024
0.200520
-0.228142
0.193212
-0.185940
0.022424
-0.009887
-0.027837
-0.138525
0.086310
-0.143873
0.038730
-0.059773
0.085117
0.007261
0.010769
-0.034350
-0.151791
-0.000482
0.081843
-0.024236
0.152171
0.058576
-0.099365
0.018265
-0.081186
0.110566
-0.125043
-0.154498
0.104195
0.001786
0.059595
-0.116560
-0.091250
0.006392
-0.155961
-0.096664
-0.057916
-0.000437
-0.161143
-0.110661
-0.087345
-0.088113
-0.132885
0.052952
-0.194880
-0.146338
0.087698
-0.061399
-0.032855
-0.239898
0.087936
0.040480
-0.110925
0.049649
0.036356
-0.055193
0.005027
-0.117813
0.025447
-0.081508
-0.067432
0.090626
-0.085994
-0.097889
0.152899
-0.087932
0.062360
-0.025826
-0.052673
-0.074977
0.032895
0.096707
0.117169
-0.031956
-0.095667
-0.076417
0.094492
-0.065000
-0.035653
0.033329
-0.009300
0.018741
0.028758
0.113130
-0.140292
0.055145
0.089365
-0.025011
-0.096234
0.000843
0.002509
0.039828
-0.121542
-0.047089
0.001890
0.065544
-0.096112
-0.057735
0.007645
0.014842
-0.044178
0.051828
-0.217631
-0.053995
-0.059323
-0.148232
-0.112518
-0.012106
-0.028481
-0.139382
-0.218583
-0.066909
-0.046976
-0.146228
0.113256
-0.041972
0.133026
0.000977
0.125194
0.037067
-0.032816
-0.096855
0.003544
-0.031394
-0.009280
-0.238053
0.119396
-0.060510
-0.268128
0.006743
-0.111784
0.093760
0.056867
-0.033976
-0.000185
-0.014775
-0.019935
-0.106188
0.022861
-0.146259
-0.078526
-0.022896
0.099303
-0.116433
0.028151
-0.128641
0.025789
0.073255
-0.064427
0.019225
0.051773
-0.194662
-0.072528
0.006966
-0.080796
0.051252
0.072940
0.081743
-0.120487
0.043886
-0.087433
-0.076757
0.035162
-0.131079
0.022868
0.047316
-0.136969
0.239149
0.001848
-0.005492
0.120851
-0.009992
-0.061485
0.019447
-0.019446
-0.007862
0.078352
0.028273
-0.037862
0.008413
-0.002360
-0.082174
0.093340
0.070929
0.010243
-0.001315
0.018021
-0.106321
-0.062401
-0.088408
-0.063189
0.313798
-0.009119
-0.017055
0.077030
-0.077589
0.008100
-0.027430
0.090963
-0.028025
-0.035908
-0.015148
0.030205
-0.055306
0.152587
0.068366
0.069797
0.037330
0.080349
0.056613
-0.057879
-0.114728
0.135094
0.034321
0.136462
0.152124
0.109714
0.199691
0.251911
0.056144
-0.130372
0.015019
0.031662
-0.193755
0.028856
0.109113
0.122915
0.075575
0.118361
0.068653
0.007801
0.109279
-0.000257
-0.040339
-0.152187
0.121429
0.043559
-0.074567
0.037120
0.009480
0.062087
0.140967
0.004073
0.067620
0.086766
0.058533
-0.062177
-0.092763
0.025320
-0.000777
0.005997
-0.058306
-0.078424
0.089329
0.157682
-0.098134
-0.170531
-0.140850
-0.010584
-0.059856
-0.083261
-0.098837
0.031185
0.108441
-0.023093
0.114504
0.050245
-0.052444
-0.058775
-0.151797
-0.002711
0.008940
-0.060255
-0.116289
0.057316
-0.058803
-0.096852
-0.136043
0.014404
-0.056034
-0.079464
-0.023536
-0.053539
0.114768
-0.144150
-0.034943
-0.112927
-0.074682
-0.123287
-0.013244
0.003577
0.027159
-0.057337
-0.114672
0.031969
-0.021356
0.056350
0.198490
-0.173148
-0.089731
-0.094855
-0.030423
-0.107379
0.156830
-0.108819
0.109204
-0.058632
-0.070269
0.088089
-0.057047
0.013799
0.032424
-0.003825
0.174640
0.035298
0.065908
0.044995
-0.186180
-0.057516
0.070378
-0.055226
-0.233913
-0.048793
0.005439
0.015268
0.063991
-0.004246
-0.026023
0.052632
0.007940
-0.100041
0.043223
-0.151242
0.082326
-0.079177
-0.058492
-0.208655
-0.236585
-0.019510
0.019695
0.016174
-0.068236
0.034836
-0.018233
0.195394
-0.169837
-0.146881
0.091029
-0.059017
0.032877
0.037040
-0.160978
0.088466
0.133727
0.026929
0.001014
0.070108
0.088867
-0.114012
-0.116115
-0.143322
-0.082752
-0.110422
0.027622
0.130820
-0.192722
0.124375
-0.006300
-0.006734
0.028787
0.004240
0.114795
0.006534
0.093901
0.065526
-0.047275
-0.125619
0.023426
0.014681
-0.097340
-0.037198
0.027519
-0.099027
0.118084
0.020581
0.172886
-0.038413
-0.059093
-0.184965
-0.091507
-0.141073
0.010922
-0.052549
0.191260
0.031245
0.095573
0.010406
-0.011125
0.058283
-0.155750
0.082938
0.031340
-0.173864
-0.046972
0.083113
-0.117433
-0.024889
0.146179
-0.006835
0.023099
0.140938
0.118409
0.054026
-0.065616
-0.015159
0.010421
0.052035
0.135874
-0.188241
0.010679
-0.031356
-0.123182
-0.011948
-0.022806
0.045308
0.099339
0.023159
0.086686
0.102701
-0.037986
-0.055153
0.108348
0.137427
0.032479
-0.008617
-0.063739
-0.012184
-0.100985
0.029190
-0.074834
-0.028708
0.005908
0.049264
-0.042407
0.153691
-0.081445
-0.030945
-0.044664
-0.029108
0.022708
-0.026867
0.002263
-0.195381
0.001239
-0.057656
-0.133343
0.046242
-0.001903
0.044690
0.119237
-0.091617
0.039733
-0.083554
0.101140
0.014472
-0.009314
-0.128580
0.019803
0.058307
0.133438
-0.014545
0.012972
-0.098221
0.187139
0.016945
0.064825
0.023012
0.054796
-0.281865
-0.023323
0.073575
0.173957
-0.042904
0.086908
-0.129699
-0.047124
0.026959
0.176994
0.008543
-0.104687
0.005132
-0.012372
0.033041
-0.028836
-0.025124
0.086609
-0.073267
-0.082561
0.127969
0.006378
0.192031
0.050998
0.067243
0.045165
0.006178
0.107443
0.126287
0.073455
-0.069720
-0.076277
0.099981
0.157938
-0.038978
0.175569
0.018021
0.189145
0.235595
-0.046733
0.064712
0.061184
0.169728
0.050435
-0.018371
0.058849
-0.035834
-0.099520
-0.011735
-0.078025
0.084272
-0.084435
0.016679
0.122717
-0.071318
0.142858
-0.182283
0.176348
-0.145072
-0.239574
-0.100599
-0.003483
0.043849
-0.001169
-0.302242
-0.120521
0.034360
-0.080617
0.078553
0.063254
-0.185185
0.053239
0.025409
0.106244
-0.001297
0.027664
-0.079276
-0.171953
0.190415
0.013149
0.187737
0.221124
-0.013195
0.043215
0.006269
0.023562
-0.092719
0.006394
0.095306
-0.048546
-0.003864
-0.204922
0.106480
0.062138
-0.033201
-0.043602
0.016179
-0.034001
0.078255
0.086196
0.094548
-0.111258
0.036383
-0.002178
0.090915
0.088088
0.042083
0.027145
0.005368
-0.043431
0.122825
0.046803
0.061180
0.040192
0.019342
0.086124
0.096086
0.168662
-0.017958
0.055949
0.000027
0.052042
0.108063
-0.075596
-0.061192
-0.033578
0.080899
-0.041462
-0.097741
0.077377
0.049498
-0.026404
-0.061543
0.032653
-0.089550
-0.129657
0.019328
-0.052704
-0.067501
-0.006545
0.155446
0.043919
0.009672
0.004874
-0.133204
0.080812
-0.146959
-0.082006
-0.096753
-0.096640
0.007302
0.086686
0.073494
0.009253
-0.041574
0.129906
0.100075
-0.007902
0.012952
-0.093473
-0.035046
0.161887
-0.002088
-0.100732
-0.037995
0.088566
0.147018
-0.040310
0.109244
0.055878
-0.016943
-0.057486
-0.090401
0.039074
-0.021897
-0.173533
-0.032876
-0.014728
-0.021892
0.019843
0.138246
0.179263
0.033283
-0.071834
0.145400
-0.052268
-0.105890
-0.073118
0.130359
0.043437
-0.029394
-0.025440
-0.030437
-0.050815
0.022682
0.161454
-0.152539
0.050650
0.028396
-0.031720
-0.061087
-0.031997
0.082495
0.122661
-0.016731
-0.076347
0.018173
-0.032172
0.066624
-0.084342
-0.080132
-0.105168
0.126229
-0.022932
0.204131
0.030465
0.045595
0.035869
-0.081109
0.027685
0.199189
-0.077232
-0.041068
0.118269
-0.036418
0.126056
0.035766
-0.092489
0.009473
0.114012
0.158848
0.033356
0.165133
0.074251
-0.074892
0.104665
-0.013970
-0.070450
-0.027107
-0.044139
-0.094576
-0.092669
0.031214
-0.141382
0.009438
0.104154
-0.123062
0.102592
0.003570
-0.033956
-0.059951
-0.003987
-0.028162
0.053981
-0.054282
-0.013847
-0.139206
-0.049307
0.045356
-0.018494
-0.077072
0.019974
-0.233053
-0.224242
-0.096558
0.004934
0.112411
-0.018354
-0.132598
0.005801
0.057407
0.145193
0.019365
0.061144
0.029302
-0.024234
0.044866
-0.088174
-0.023647
-0.229199
-0.125604
-0.036210
-0.107294
-0.085718
0.069818
0.100261
-0.015555
0.008320
0.043024
0.076668
0.038300
-0.114575
-0.098797
0.126563
0.022651
-0.205590
0.133016
0.002565
0.004246
0.024506
-0.024846
-0.062318
0.062298
-0.009083
0.014184
-0.108367
-0.120921
0.065592
0.077574
-0.098878
-0.125915
-0.027161
-0.214485
0.007592
-0.015565
0.046710
-0.086313
-0.017952
-0.241795
0.109239
0.008607
-0.034890
-0.027678
-0.052338
0.160267
0.086765
-0.078396
0.138337
-0.042611
-0.081742
0.027249
0.005904
-0.122250
-0.011607
-0.114962
0.134103
0.045632
-0.055932
0.008073
0.113771
0.020353
0.142210
0.078916
-0.024788
0.044250
-0.177038
-0.059564
-0.001484
-0.185001
-0.048666
0.150664
0.002507
0.170712
0.136881
0.032196
-0.151676
-0.199910
0.013597
-0.041139
0.039462
-0.037301
-0.135416
0.074504
-0.173375
-0.055088
-0.186013
-0.159171
-0.015680
0.040529
0.044087
0.057121
-0.063915
0.052313
0.010235
-0.048524
0.162671
-0.180642
0.028399
-0.110077
0.039908
-0.182335
-0.034616
0.101858
0.062609
0.066776
0.052209
0.016248
0.115596
-0.083772
-0.205023
-0.032011
-0.166932
0.034150
-0.024683
0.108465
-0.072925
-0.061835
0.137429
-0.020842
0.074958
-0.177264
-0.065150
-0.080626
-0.064483
0.053275
-0.126496
0.145931
-0.063907
0.005873
-0.204706
0.011457
-0.096099
-0.087014
-0.034287
-0.075491
-0.168146
-0.044990
0.040877
0.006419
-0.058703
-0.039896
0.067881
-0.147121
0.099384
-0.219134
0.055453
0.049425
-0.094589
0.055560
0.096761
-0.085572
0.026880
-0.038570
0.072289
0.175050
0.086133
-0.129367
-0.128804
0.147135
-0.057361
-0.080885
0.115432
0.018226
0.115026
0.095948
-0.015224
0.219963
0.023288
0.128141
-0.029691
-0.034232
-0.094247
0.042940
0.011968
-0.063759
-0.031127
-0.138929
0.138855
-0.007307
-0.038875
0.148920
0.255168
0.100185
0.127151
0.043199
0.050345
0.025422
0.073641
-0.138083
0.062381
0.003427
0.026129
0.003603
-0.052645
0.122003
0.102364
-0.129285
0.198668
-0.005276
-0.054184
0.079941
0.025025
0.032378
0.119085
0.016341
0.054081
-0.048028
-0.013288
-0.035774
-0.204379
-0.045000
-0.005624
-0.145250
0.026857
0.002246
-0.097056
-0.009516
-0.142097
-0.036743
-0.003325
0.138439
-0.021888
-0.150160
-0.044953
0.009338
0.073455
0.022083
-0.129471
-0.136679
-0.002208
0.109831
0.093042
0.121979
0.032691
-0.088316
0.030325
-0.025059
0.055762
0.136373
-0.147804
0.014798
-0.091014
0.065538
-0.077451
0.047393
-0.059657
0.103884
-0.108221
0.013290
0.148511
-0.012890
-0.123426
-0.017155
-0.012531
0.147188
0.068075
0.083930
-0.038471
0.167435
-0.186097
-0.106773
-0.156531
-0.074847
-0.132238
0.100435
-0.044010
-0.134930
-0.096121
0.075568
0.127535
0.097862
0.045464
0.050101
0.011028
-0.032566
0.041105
0.019705
0.158220
-0.118131
-0.163239
0.091543
0.073196
-0.017177
0.031056
0.054013
-0.084868
-0.131507
-0.037455
0.058271
0.029852
-0.107586
0.061074
-0.020769
0.024939
0.060834
-0.037818
0.008557
0.022887
-0.124909
-0.129386
0.200355
-0.053867
-0.013149
-0.041970
-0.035673
0.148355
-0.116548
0.115523
0.038076
0.068214
0.145898
0.122545
0.188378
-0.089979
0.082043
0.129989
0.016346
-0.103473
0.028122
-0.038149
0.017048
0.057198
0.092028
-0.084678
0.034027
0.189122
-0.013854
-0.230220
0.010122
0.115897
-0.109611
-0.117767
0.116915
-0.162819
-0.090472
-0.132937
-0.078127
0.109811
0.005726
-0.048462
-0.003880
0.154109
-0.068426
0.106664
-0.158195
0.002161
-0.075055
0.072731
0.023862
0.114820
-0.027298
0.031170
-0.079446
-0.014019
0.071657
0.041766
0.027594
-0.000169
-0.024429
0.010808
0.078359
0.043114
0.103033
0.095825
-0.134853
0.090700
0.145722
-0.072769
-0.026074
0.009068
-0.061431
-0.076613
-0.061078
0.052728
-0.133809
-0.143500
-0.085255
-0.134819
0.049378
-0.111694
-0.128521
0.022058
0.079480
0.059460
0.141331
-0.013566
-0.122791
-0.059196
-0.080532
-0.069743
-0.141063
-0.184077
0.166629
-0.106460
-0.141890
-0.063538
0.213849
-0.147759
0.136167
0.034473
-0.077386
-0.004325
0.016550
-0.020795
-0.035340
0.141326
-0.226801
-0.115518
-0.176563
-0.068340
-0.062237
0.029173
0.015391
-0.109452
0.158666
0.060429
0.010683
0.109527
-0.101598
0.085554
-0.065253
-0.000880
-0.034769
0.056047
0.084060
-0.010387
-0.112765
-0.043946
0.020330
-0.073532
0.029865
-0.049344
-0.170463
0.229900
0.028217
-0.117374
0.016399
-0.115941
0.073016
-0.104193
-0.123011
0.138221
-0.012560
-0.137411
0.057497
0.037666
0.243471
-0.026745
-0.011437
-0.040656
-0.043693
-0.052308
0.095667
0.200837
0.003029
-0.082069
0.067929
-0.032842
-0.079033
-0.235599
-0.039028
0.019121
0.091241
0.014018
0.006002
-0.040239
0.120063
0.100123
-0.138194
0.036992
-0.049733
-0.059611
0.086322
-0.006556
0.007336
0.098027
0.152458
-0.051977
0.028680
0.028518
0.005486
-0.032127
-0.112035
-0.012453
-0.195117
0.176378
0.076318
0.051667
0.037947
0.060257
-0.171911
-0.097580
-0.043643
0.003314
-0.006353
0.181983
