# Shape: (3, 3, 32, 32)
-0.101488
-0.160375
0.004314
0.002824
-0.023466
0.203395
-0.096759
-0.140693
-0.225309
0.172476
0.094833
-0.036703
-0.009320
0.087804
-0.122812
0.018881
0.092517
0.008258
0.013345
-0.090010
0.145818
0.043774
-0.190920
-0.256437
-0.360758
0.210305
-0.230959
-0.206353
0.195728
0.407021
0.021769
0.016109
0.013983
-0.067479
-0.116531
0.011394
-0.057954
-0.074859
-0.025538
0.034670
-0.015210
0.205906
0.011365
0.011333
0.093434
0.111793
0.069120
-0.164083
0.141039
-0.162627
-0.112164
0.126663
-0.306375
0.060192
-0.014343
-0.090732
-0.042283
-0.060666
0.095036
-0.058240
-0.192628
0.046359
0.094684
-0.188217
0.106116
-0.287083
0.003639
-0.038072
0.055686
0.073869
-0.072630
0.073480
-0.098722
0.112132
-0.069261
0.011700
0.096262
0.047174
-0.229908
-0.000145
0.115677
-0.085256
0.258039
0.014019
0.074598
-0.049849
0.020712
-0.103536
-0.028654
-0.016816
-0.015399
0.006106
-0.081306
-0.005547
-0.177410
0.082293
0.055764
-0.119232
-0.112939
-0.034625
0.013811
0.059685
0.087924
0.020696
0.125868
0.014562
0.254572
-0.002397
0.043754
0.052379
-0.028255
0.075270
0.229267
-0.155004
-0.131535
-0.218161
-0.024240
-0.075388
0.004198
-0.179751
0.011357
-0.087237
0.296539
-0.106166
-0.235791
0.036361
-0.111787
0.030292
0.139284
-0.178046
0.091260
0.027835
-0.081756
0.009865
0.037008
-0.101943
-0.046963
-0.073165
-0.076850
-0.008557
-0.120659
0.112691
-0.186459
-0.066774
-0.055462
-0.045739
-0.130854
0.112996
0.062157
0.054263
0.020532
0.020993
-0.089256
-0.017324
-0.017772
-0.145938
0.115376
-0.210714
-0.170919
0.094190
-0.011664
-0.030038
-0.156525
-0.155005
-0.056208
-0.046527
-0.015951
0.064406
-0.058541
0.031924
0.108633
0.001117
0.050093
0.067235
0.070084
0.088684
0.019663
-0.055587
-0.052424
0.005394
-0.046697
0.082137
-0.043816
-0.027150
0.174628
-0.008865
0.055702
0.016322
-0.133999
-0.154799
-0.144184
-0.004029
-0.206939
-0.049960
0.154292
-0.010379
-0.221591
-0.124461
0.027611
-0.016824
-0.075956
-0.083823
-0.144979
0.103631
0.015659
0.104302
0.133644
-0.023108
-0.015864
0.218612
-0.068887
-0.009292
0.211282
0.039829
-0.066312
-0.103661
-0.023190
-0.155846
0.032386
-0.119698
0.052081
0.229930
0.087821
-0.011882
0.029784
-0.165188
-0.034815
-0.057318
0.189950
0.041357
0.041167
0.151996
0.214900
-0.237244
-0.094629
-0.077562
-0.246331
0.159426
-0.221474
0.102725
0.037298
0.189631
-0.149426
-0.097365
0.018398
0.070716
0.055327
0.067816
-0.038047
-0.105314
0.123073
0.091296
-0.140323
0.047979
-0.042045
-0.056867
0.030761
0.133372
-0.077958
-0.005236
-0.301731
0.085464
0.005385
0.088567
0.012077
-0.054578
0.302997
-0.131425
0.083965
0.167579
0.181968
-0.010208
-0.065084
-0.423705
0.228341
-0.063881
0.324989
-0.133094
-0.038906
-0.178719
0.061024
-0.055709
0.004741
0.243570
0.045004
0.175417
-0.007316
0.094476
-0.184502
-0.028882
-0.046062
0.081253
0.081294
0.038489
-0.064308
-0.009311
-0.049824
0.049741
0.134604
-0.107604
-0.028031
0.047972
0.037994
-0.030987
0.141321
0.125943
-0.080056
0.013232
-0.163931
-0.048095
-0.121426
0.162540
-0.301647
-0.029838
0.062459
-0.361544
-0.173934
0.094427
0.118044
-0.141030
0.324821
-0.076112
0.174789
0.270823
0.008584
0.116097
-0.050594
-0.150999
0.121462
-0.218192
-0.218752
0.148856
-0.033516
0.046431
0.039033
0.042780
-0.181219
0.125260
-0.042450
0.051042
-0.171350
-0.121201
0.045803
0.087756
-0.105038
-0.084511
-0.156458
-0.269452
-0.089817
-0.210916
-0.084974
-0.126302
-0.384449
0.053595
0.175395
-0.018451
0.017157
0.038650
0.018185
-0.235561
-0.007594
0.012185
-0.103903
-0.006451
0.021224
0.136319
-0.052959
-0.049634
-0.164655
-0.176902
0.264402
0.032789
0.096985
0.129383
0.061430
-0.023775
0.004918
-0.412650
-0.096329
-0.099720
-0.031800
0.109955
0.000402
0.031512
-0.069153
-0.088487
0.011737
0.150735
0.024365
-0.215321
0.040015
0.113924
0.086126
-0.175746
-0.036202
-0.152187
0.055779
-0.034937
-0.127199
-0.081602
0.002004
-0.123315
0.121893
-0.238390
-0.099986
-0.103635
-0.078201
0.005985
0.045698
-0.246149
0.086119
-0.030319
0.017757
-0.135538
-0.009748
0.152776
-0.246194
-0.182135
0.007859
-0.112840
0.100562
0.139444
-0.105302
0.078347
-0.060972
-0.182245
0.106505
0.027901
-0.298305
0.238441
-0.094411
-0.011788
-0.052843
-0.096436
0.162314
-0.093903
0.092053
-0.255762
0.022983
-0.053404
-0.065840
-0.007695
-0.036707
0.079605
0.134428
-0.035838
-0.030939
0.188450
-0.136250
-0.054798
0.087057
-0.032757
-0.040507
0.087602
0.214321
0.087930
-0.026398
-0.030904
-0.168265
-0.030962
0.076961
0.101488
-0.124450
0.063202
0.172194
0.125179
-0.098404
-0.204315
0.029183
-0.027231
-0.149878
-0.099093
0.047486
0.044924
-0.016280
-0.247993
0.042025
0.179749
-0.023418
-0.187090
-0.018381
0.086717
0.128277
0.052186
-0.096298
0.006404
-0.102570
0.039091
-0.047183
-0.106549
-0.165987
0.062702
-0.165570
0.148606
-0.137203
0.006775
-0.123566
-0.066531
-0.100509
0.077028
-0.022552
0.094879
0.035719
-0.101505
0.059671
0.014687
0.018273
-0.013107
-0.130642
-0.136991
-0.025340
-0.117779
-0.052143
0.044377
-0.066463
-0.130612
0.026042
-0.136708
-0.156163
-0.086209
0.036175
-0.079850
0.038996
0.046852
-0.011065
0.198157
0.090846
0.022421
-0.076261
-0.122784
0.308371
-0.214829
0.161099
-0.233485
-0.059133
0.040687
-0.045939
-0.080813
-0.135741
-0.128914
0.008086
-0.115781
0.075437
0.003589
0.195342
-0.031423
-0.101645
0.059033
0.139317
0.049164
0.044989
-0.046231
0.043796
0.124876
-0.218994
0.030861
-0.026417
0.156326
-0.057482
0.255047
-0.102348
-0.055554
0.140875
-0.019178
-0.265399
0.083643
-0.056539
0.135234
-0.062392
-0.086141
-0.057764
-0.063813
0.203117
-0.176494
-0.160573
0.005598
-0.065810
-0.083040
-0.025375
0.160217
-0.113984
-0.157439
0.135087
0.121382
0.092513
0.104866
0.183848
0.101100
0.012769
0.090132
-0.173367
0.115973
0.208987
-0.071235
-0.142603
-0.253711
-0.213395
0.003053
-0.147937
0.068460
0.043326
-0.182986
0.056366
-0.345637
-0.063013
-0.032489
0.011352
-0.247516
-0.141583
-0.110182
0.077871
-0.237087
0.093535
0.011858
-0.015958
-0.021347
-0.115196
-0.141621
-0.083913
-0.239977
-0.033477
0.105497
-0.046790
-0.215204
0.069866
-0.043388
0.062518
-0.052291
0.213401
0.123358
-0.001104
-0.176844
-0.230898
-0.183091
0.028969
0.110836
-0.010146
0.115959
-0.191389
0.131999
-0.075880
-0.030950
-0.043209
-0.001986
0.334315
0.043746
0.059804
-0.041388
0.111691
-0.048592
-0.125892
-0.101801
-0.085601
0.016265
0.004118
0.213354
0.054390
0.043313
0.116961
-0.226199
-0.251019
0.042905
-0.060050
0.035964
0.046838
-0.040353
0.023712
-0.215314
-0.001094
-0.174660
-0.105308
-0.177261
-0.023034
0.079633
-0.007470
-0.096121
-0.110726
-0.094493
0.023881
0.120772
-0.019269
0.032162
-0.079592
0.080854
0.132510
-0.095694
-0.105670
-0.000695
-0.107652
-0.192034
-0.031990
-0.013809
0.087951
-0.184565
-0.003214
-0.029713
-0.119930
-0.068540
-0.060431
-0.194866
-0.245791
-0.073481
-0.051169
-0.038737
-0.066106
0.018612
0.043181
0.095518
0.046295
0.136076
0.140370
0.054611
-0.144546
0.081087
0.099128
-0.038057
0.039183
0.162922
0.149446
0.075308
-0.069564
0.020716
0.080107
-0.220940
-0.021471
-0.196914
-0.053997
-0.017008
-0.129945
0.064006
-0.167524
-0.189119
0.109992
0.065311
0.014037
-0.171270
-0.026977
0.108165
-0.091513
-0.022688
-0.022046
0.016991
-0.121518
0.009943
0.043958
-0.026860
-0.054167
-0.082478
-0.027570
-0.114891
0.151472
-0.072770
-0.197345
-0.213475
0.128620
-0.014596
-0.110119
0.120864
-0.001346
-0.020727
0.120584
-0.103820
0.084128
-0.181802
-0.036478
-0.134080
-0.013616
-0.030500
-0.202476
0.010572
0.124286
-0.119295
-0.247639
0.017583
0.148058
-0.033158
-0.256246
0.147544
-0.082480
0.040538
0.056420
0.094764
-0.051268
-0.144763
-0.115256
0.043964
0.048904
-0.012455
0.087984
0.172082
0.102931
-0.027019
-0.060931
-0.086181
0.022432
0.010968
-0.023821
0.269807
0.033755
-0.027225
0.018038
0.052066
-0.019140
0.221549
0.140007
0.058108
0.025341
0.134465
0.136491
-0.017227
0.095868
-0.013034
0.181349
-0.165783
-0.032000
-0.190024
0.004187
-0.034470
-0.054155
-0.049619
-0.036600
0.020734
-0.012155
0.107411
0.125166
-0.174908
0.149448
-0.132516
-0.190810
0.016673
0.082975
-0.108198
-0.095417
-0.174112
-0.094613
-0.011137
0.026086
0.200117
-0.374361
-0.043770
0.034353
-0.194782
0.265648
-0.196610
0.010614
-0.085297
0.091795
0.172984
-0.229186
0.162499
-0.002746
0.179930
0.108258
-0.250896
0.177723
-0.199131
-0.413329
-0.012786
0.182354
-0.158764
0.092319
-0.015302
-0.062969
-0.138162
0.131024
0.021059
-0.062524
-0.068537
-0.201758
-0.038616
0.096662
-0.108085
0.146101
-0.076869
0.066879
-0.071404
0.244833
0.112284
-0.063057
0.087247
-0.103055
0.061814
0.117923
0.032763
0.132000
-0.078350
-0.052219
-0.049315
-0.161606
-0.291987
-0.347606
-0.092719
-0.112212
0.040077
-0.081309
-0.027509
-0.046823
-0.029758
0.066002
0.048851
-0.112306
-0.076359
-0.013307
0.376430
-0.104551
0.007677
0.094039
0.136565
0.179596
0.132099
-0.040653
-0.145008
0.001659
0.199638
0.002936
0.129193
0.088149
-0.045634
0.043190
0.037624
0.071451
-0.003585
-0.306234
-0.023073
-0.191581
0.047755
0.065579
-0.169319
0.043777
-0.141062
-0.062554
0.044361
0.067567
0.096606
-0.175183
0.073133
0.085832
-0.051937
-0.186507
-0.097435
0.040502
0.040554
0.073951
-0.162184
-0.035309
-0.102561
0.004847
0.093991
0.154005
0.033000
0.100577
0.048190
0.013579
-0.111240
-0.002349
-0.016759
-0.203718
-0.115801
-0.028947
0.008359
-0.063704
-0.030339
0.100255
-0.005027
0.146931
0.032195
-0.095989
-0.050871
-0.043081
0.047549
-0.009944
-0.147889
-0.069211
-0.076819
-0.076578
0.112099
-0.048678
0.028128
0.263116
0.006980
0.131977
0.034209
0.035893
-0.050269
-0.002883
0.004117
0.059018
0.134626
0.146182
0.113664
-0.022396
0.129493
0.147218
0.077888
0.014158
0.094378
-0.241362
0.018103
0.223885
0.068349
-0.061496
-0.072064
0.052499
0.057158
0.022278
0.157283
0.009095
0.166093
0.075027
-0.095841
0.047725
-0.497697
-0.012859
0.022935
-0.118953
-0.023477
-0.093510
-0.083915
-0.131634
0.194992
-0.068250
0.003522
-0.219164
0.017796
0.056173
-0.077447
-0.193962
-0.112348
0.362177
-0.106689
-0.125189
-0.278297
-0.005167
0.012965
-0.183460
0.133860
0.034425
0.057972
0.020193
-0.175933
-0.119807
-0.025437
0.157360
0.037083
0.014330
-0.122606
-0.144651
0.283911
0.042218
-0.148223
-0.058762
-0.149090
-0.103372
-0.026607
0.071739
0.058787
-0.036879
0.112044
0.085185
-0.191053
-0.044322
-0.031509
0.033590
0.027779
0.027653
0.054706
-0.119685
-0.073755
0.058931
0.107310
0.106019
-0.076741
-0.035908
0.094629
0.093712
0.110487
-0.049555
-0.016815
0.009852
-0.019022
0.041919
-0.157020
0.190482
-0.068341
0.041830
-0.129518
0.131271
-0.040669
-0.033510
-0.239528
-0.114959
0.040396
0.132568
-0.083646
0.163607
0.128889
-0.059370
-0.012274
-0.062412
-0.001309
0.062535
-0.012268
-0.105098
0.024535
0.150025
0.032916
0.188670
0.043837
-0.027726
-0.012097
-0.068089
-0.037009
-0.147640
0.098347
-0.040909
-0.154924
-0.003450
-0.133481
-0.261031
0.017182
0.104451
0.173730
0.150222
-0.012843
0.128602
-0.224289
-0.005955
-0.186309
0.010858
-0.171027
0.219264
-0.051668
-0.090320
0.123456
-0.128886
-0.076850
0.263339
-0.073205
-0.082917
-0.310674
-0.091071
-0.237172
-0.147751
0.040368
-0.162204
-0.048593
0.192500
-0.314748
-0.004729
0.083229
-0.030508
-0.002191
-0.006742
-0.271831
-0.112270
-0.061880
-0.005462
-0.011456
-0.208598
-0.092296
-0.090701
-0.113493
-0.048233
0.101688
-0.176399
0.222313
-0.259311
-0.097375
-0.022561
0.029038
-0.003234
0.073023
0.133856
-0.141910
0.035140
-0.062051
-0.024809
0.183954
-0.109500
-0.080717
0.100752
-0.088492
-0.298967
-0.049753
0.003673
-0.137411
0.000277
-0.288873
-0.054898
-0.067064
-0.001102
-0.030010
-0.116489
0.032528
0.054513
0.053425
-0.324005
0.014959
0.012688
0.076210
-0.223813
-0.044352
0.108656
-0.044563
0.012359
-0.027551
0.157305
0.004188
-0.047156
0.056721
0.140003
0.021172
-0.090568
-0.062691
-0.094576
-0.033009
0.113911
-0.059194
-0.035938
-0.140345
0.208305
0.031283
-0.270736
-0.129160
0.013635
-0.084930
-0.204125
-0.073316
-0.061521
-0.041057
-0.035725
-0.037070
0.113574
0.140594
-0.025208
-0.173779
0.068960
-0.189557
-0.116900
-0.036852
-0.044807
0.003207
-0.143440
-0.029843
0.040159
0.311855
-0.038742
-0.122704
-0.262252
-0.081908
0.024380
0.045534
-0.187106
0.047490
-0.038624
0.069864
0.137896
-0.245637
0.163240
0.022869
-0.432022
0.253194
-0.200396
0.044587
0.137519
0.095131
-0.044412
0.019838
0.026429
0.006956
-0.075184
-0.054071
-0.127562
-0.012897
-0.007065
0.035009
-0.106557
-0.019508
-0.117170
-0.099308
0.152058
0.160521
-0.179571
-0.029345
0.336824
-0.409774
0.163531
0.143025
-0.069909
-0.005072
0.181930
0.115016
0.012859
0.064861
0.232521
0.124098
-0.094511
-0.354632
0.241575
-0.031287
-0.159762
0.100481
-0.038510
0.246038
0.137859
-0.211403
0.023813
0.059767
-0.167899
-0.130155
-0.186086
0.136362
-0.013828
0.201155
-0.026279
0.029890
0.044825
-0.178374
-0.070816
-0.194519
0.110537
0.084193
0.089037
0.003438
0.071714
0.025054
0.168724
-0.227978
0.028714
-0.022440
0.093632
-0.106555
-0.028587
-0.209062
0.036021
0.100862
0.050832
-0.002573
0.026066
-0.211195
-0.215627
-0.009344
0.139287
-0.303657
0.330671
-0.125944
0.044322
0.029049
-0.146693
0.103160
-0.074192
0.001748
-0.064794
-0.218673
-0.089566
-0.150617
0.165430
0.022991
0.043176
-0.150335
0.048774
-0.151965
0.041776
0.130278
0.030106
-0.279241
0.077899
-0.144889
0.076250
-0.220327
0.005962
-0.180519
0.108463
0.185877
0.243080
0.079234
-0.171681
0.034263
0.082018
-0.009714
0.053697
0.169046
-0.071368
-0.187034
0.212195
0.077018
-0.017804
0.173756
-0.094565
0.076461
0.199394
0.079494
-0.067482
-0.213713
0.283701
0.027613
-0.081818
0.022357
0.218550
-0.052218
0.018009
-0.151430
-0.093490
-0.067503
0.060829
0.075324
-0.013761
-0.014713
0.004071
-0.024640
-0.017897
0.043009
-0.071996
-0.147767
0.039107
-0.125804
-0.010612
-0.083054
-0.091005
-0.118969
-0.006089
0.086769
-0.009980
0.042345
-0.059773
0.028665
0.245239
0.005080
0.024596
-0.148621
-0.144749
-0.066499
-0.007450
0.048836
-0.086703
0.057233
0.061937
-0.149087
0.021882
-0.043265
-0.150952
-0.129890
-0.071957
-0.154050
-0.055440
0.045735
-0.116247
0.012070
-0.043388
-0.064793
-0.011587
0.008864
-0.336173
0.229813
-0.259370
0.057232
-0.086227
0.126082
0.185844
0.116439
-0.045247
-0.234128
0.161355
-0.089072
-0.163326
0.045943
0.016925
-0.069284
0.050312
-0.150707
-0.029379
0.060650
-0.191138
0.016450
-0.032506
0.073724
-0.003696
-0.039896
0.047279
-0.047954
0.026680
-0.077316
-0.179962
0.039737
-0.005538
0.016984
-0.243484
-0.169343
0.122543
0.178100
0.010014
-0.152104
0.069084
0.129461
-0.134354
-0.100706
0.053011
-0.061586
0.047457
-0.247224
0.030789
0.040428
0.075088
-0.123759
-0.142219
-0.086785
0.000490
0.011380
0.007148
0.029805
-0.081107
0.189406
0.048366
-0.153996
-0.129813
0.066291
-0.263236
-0.023001
-0.052755
0.000691
0.021929
-0.019023
-0.109432
-0.031967
0.034612
0.142250
0.013796
-0.047227
0.045727
-0.048497
-0.019367
-0.093745
-0.104458
0.046916
0.052884
0.050186
0.187373
0.070998
-0.166625
-0.022033
0.005523
-0.038896
-0.089622
0.036168
0.080747
-0.187697
-0.058983
-0.004647
0.102329
0.032983
0.030222
0.102126
-0.128645
-0.093452
0.351642
-0.045102
-0.067797
-0.170038
0.008314
-0.101205
-0.107935
-0.105570
-0.127746
-0.188517
0.092776
-0.258329
0.046186
0.010698
0.197552
-0.214863
0.165049
0.129316
-0.162143
0.039446
0.237683
-0.097133
0.118776
-0.035530
-0.073539
0.152026
-0.058989
0.224963
-0.057536
-0.143496
-0.341816
0.089754
0.084117
0.065790
-0.140819
-0.081143
0.036121
-0.001203
0.130175
-0.245508
-0.081901
-0.063848
0.019045
-0.243523
0.019864
-0.115650
-0.145521
0.022150
0.101528
0.042942
0.129176
0.062975
0.125173
-0.058641
-0.028957
0.097943
-0.008989
-0.025559
-0.227681
0.063846
-0.173588
-0.181052
0.212041
-0.006847
-0.019438
-0.358197
-0.033103
-0.008966
-0.074822
-0.124612
0.085217
-0.060484
0.073417
-0.157068
0.119762
0.219001
-0.112923
-0.155401
-0.016247
-0.037346
-0.213614
-0.551071
0.005543
-0.189594
-0.039090
-0.205365
-0.158893
0.032156
-0.038235
-0.032258
0.048533
0.147739
-0.057301
0.185501
0.140913
-0.001534
0.117870
-0.116060
0.046891
-0.069005
-0.136021
0.014728
-0.260741
0.043454
0.065689
-0.027502
-0.094423
0.265839
-0.104988
0.189337
-0.074290
0.021101
0.195680
-0.002090
-0.234219
-0.037054
0.185354
0.002870
0.166541
-0.190271
-0.082649
0.106236
0.015480
-0.055118
-0.043764
0.092091
-0.170335
0.066940
-0.119958
0.024673
0.009331
-0.087478
0.084952
0.028534
-0.068821
-0.203724
-0.045707
0.123644
-0.013722
-0.132246
-0.076221
-0.035866
-0.121245
-0.103759
0.066091
-0.037761
-0.155711
0.017857
-0.128583
0.161741
0.117653
-0.023972
0.067634
-0.072440
-0.066549
-0.079961
0.061492
-0.117135
0.040647
-0.006541
0.003555
0.222191
0.032978
-0.169590
0.101736
-0.072494
-0.067789
-0.161612
-0.041491
-0.141872
-0.204589
-0.050543
-0.036073
0.002393
0.215405
0.032467
0.138815
0.061710
0.051062
-0.118502
0.071014
-0.019555
0.082073
-0.110171
0.094577
-0.068571
0.096617
0.233064
0.245047
-0.078945
-0.172880
0.019432
0.211470
-0.152231
-0.148488
-0.039579
-0.027387
-0.081076
0.024422
-0.170479
-0.194410
0.055657
0.061858
-0.143805
0.077446
-0.119442
0.144183
0.155915
0.015304
-0.059402
0.099860
-0.001397
0.042991
0.038350
0.145401
-0.001646
-0.132919
-0.050744
0.007829
-0.025618
0.032898
-0.034247
-0.160407
-0.067718
0.183163
-0.032999
-0.126586
0.015992
0.136308
0.057842
0.053517
-0.138496
0.010022
-0.021610
0.183947
-0.245107
-0.265160
-0.038361
0.036061
0.002711
-0.045593
-0.096228
0.282517
0.054402
0.020644
0.077256
-0.181387
0.023112
-0.068671
0.037801
0.002423
0.018746
-0.299054
0.042810
0.157802
0.019729
0.078221
-0.302630
0.042334
-0.000412
-0.069169
0.047966
-0.095087
0.038616
-0.112890
0.045600
-0.076715
0.172113
-0.042013
-0.100928
0.263033
-0.056578
0.075649
-0.161602
-0.004011
0.005861
0.003625
0.144965
-0.029812
0.182544
-0.003057
0.073470
0.169471
0.010797
-0.019920
-0.235495
0.051845
-0.064448
0.136594
-0.036223
0.059129
-0.029269
-0.140757
-0.017864
-0.008419
-0.022158
-0.152239
0.031034
-0.103418
0.023042
0.025905
-0.103835
-0.094475
0.321346
-0.119631
0.074248
-0.052173
-0.384243
0.333317
0.004757
0.052470
0.013681
0.209641
0.282908
0.165380
0.058063
0.098661
0.372663
-0.094462
-0.047722
0.152432
0.267768
0.074366
-0.119526
0.225669
0.196542
-0.089401
-0.110054
0.008839
-0.180583
-0.021499
0.056942
-0.158279
0.022963
0.163895
0.073915
0.077787
-0.012666
-0.106352
0.060359
0.143860
-0.152588
0.093875
-0.137354
0.100498
0.018938
0.205521
0.277087
0.009959
0.009593
-0.000783
-0.056580
0.142049
0.031060
-0.116405
0.130951
-0.081857
0.039551
0.114212
-0.359730
-0.277772
-0.201231
-0.011707
-0.006118
0.008034
-0.205039
-0.096334
-0.129773
-0.067457
-0.038286
-0.078155
0.063104
-0.031091
0.435561
0.100220
0.048898
-0.016390
0.090459
0.125583
0.109880
0.065866
0.008297
0.124982
0.095517
-0.127074
0.076804
0.067811
-0.013723
0.021655
-0.037267
0.145014
0.046555
-0.271558
-0.092259
-0.397623
-0.024520
0.050901
-0.056868
0.070005
-0.187364
-0.132469
-0.075354
-0.140907
-0.148498
0.101048
0.059151
0.050864
0.019007
-0.183441
0.177718
-0.024362
0.074888
0.022376
0.149791
-0.036577
0.144552
-0.043250
0.420639
-0.020906
0.048287
0.114204
-0.013791
-0.104261
0.010776
0.037239
-0.135474
-0.097656
0.027350
-0.095546
0.004512
0.019033
-0.222374
0.012151
-0.066126
-0.027715
0.004026
0.128639
-0.121949
0.117371
0.121870
-0.077927
0.059707
-0.294906
0.120458
-0.101249
0.139938
-0.102393
0.139570
0.265967
0.069795
0.021986
0.173051
0.194058
-0.036605
0.079901
0.055705
-0.025945
-0.012788
0.179942
0.104150
-0.135866
0.123210
0.112003
0.133872
0.060265
-0.133274
0.020367
-0.075097
0.199467
0.037465
-0.063062
0.028564
-0.021973
-0.108612
0.117882
0.093200
0.119564
-0.168884
0.329332
-0.015092
0.102946
-0.630096
0.100350
-0.126741
-0.340868
-0.113825
-0.128171
-0.084779
-0.063861
-0.226687
-0.102912
0.153924
0.279038
-0.016772
-0.018318
-0.440086
-0.104426
-0.162101
-0.342150
0.246714
0.135109
0.059135
-0.013134
0.088621
0.077282
-0.125590
0.107321
-0.057124
-0.049528
-0.103432
-0.094005
-0.094500
-0.007019
0.222062
-0.082495
-0.062471
0.190325
-0.102961
0.206165
-0.165306
0.004231
0.133098
-0.011044
-0.252511
0.090244
0.012781
-0.010030
-0.128890
-0.012159
0.019181
-0.127920
0.094823
-0.139443
0.107099
-0.102026
0.008807
-0.061965
-0.129205
-0.024523
0.075878
-0.072285
0.040298
0.019643
0.092616
0.145182
0.161605
-0.001185
-0.108965
0.029947
-0.165241
0.043530
0.055151
0.149274
-0.017412
-0.108420
-0.029074
-0.051670
0.097918
0.022200
-0.046680
-0.065787
0.005274
0.024145
-0.101429
0.154509
0.128351
0.047237
0.117990
0.118463
0.042951
0.222492
-0.206930
-0.079409
0.061759
-0.218790
0.010712
0.143948
0.041255
0.055412
-0.085042
-0.001431
0.056295
-0.027959
0.157883
-0.032784
0.023278
-0.040006
-0.163755
-0.122027
0.026550
0.105454
0.087199
0.177837
0.084819
0.102666
-0.013789
-0.276933
-0.254947
0.016815
-0.179519
-0.067479
-0.056541
-0.086375
0.113063
-0.123164
-0.222124
0.017354
0.130752
-0.041949
-0.291082
-0.225426
-0.142772
-0.111925
-0.118472
-0.049180
0.094600
0.117596
-0.248515
-0.026625
0.073554
0.112449
0.176800
-0.112279
-0.276760
-0.184804
-0.098216
-0.060848
-0.193377
-0.195632
-0.186299
0.105079
-0.083653
0.061235
-0.047741
-0.091101
0.154430
-0.265353
-0.053903
-0.067735
-0.002238
0.018496
0.253238
-0.082411
-0.307750
-0.067096
0.021388
-0.093505
0.045745
0.066246
0.021214
-0.084524
0.149013
-0.150326
-0.043609
0.073521
-0.221539
0.092630
-0.217444
-0.166259
0.071303
0.039652
0.113609
0.072331
-0.038391
-0.044251
0.050504
-0.272140
0.102702
-0.106459
0.107120
-0.043506
0.115500
0.022751
0.007442
-0.027465
-0.053063
0.114059
0.011919
-0.025725
0.007338
-0.018219
-0.133154
-0.112732
-0.099931
-0.099310
-0.098187
0.166570
0.227617
-0.000514
-0.251142
-0.023208
-0.008066
0.105756
-0.041387
-0.085912
-0.249300
-0.214717
0.000065
0.184937
-0.097878
0.021974
0.256362
-0.114627
-0.058163
0.176714
0.047414
-0.195846
-0.062515
0.038098
0.102852
0.039928
-0.041423
-0.028990
-0.114511
-0.136362
-0.176139
-0.075048
0.169339
-0.387441
0.081272
-0.006705
0.063660
-0.082873
-0.129648
-0.141098
0.067601
0.196686
-0.253478
0.074824
-0.072772
-0.047588
0.169410
-0.019983
0.026993
0.119643
-0.073395
-0.100720
0.071548
0.004967
-0.031465
-0.011319
-0.031471
0.023402
0.102158
-0.014317
-0.092314
0.012625
-0.011077
-0.038731
-0.069245
0.025854
0.003993
0.101844
0.035834
0.031557
0.371269
-0.046844
0.156867
-0.243656
-0.004557
0.352737
-0.111401
-0.087353
-0.043027
0.162714
-0.057118
-0.211057
-0.066427
0.088636
-0.042064
-0.412704
0.000289
-0.034817
-0.066755
0.167833
-0.043777
0.105361
-0.218801
-0.138545
-0.323118
-0.015399
0.134087
0.007231
0.150037
0.227866
-0.039912
-0.095440
0.055431
-0.030716
-0.093486
0.188741
0.088034
0.056457
-0.181367
0.187341
0.070361
0.088117
-0.284977
-0.122528
-0.224658
0.076698
0.017971
0.176526
0.012124
0.096905
-0.134045
0.064220
-0.179374
-0.102854
0.293167
-0.106427
-0.162749
0.189494
-0.304434
0.233149
0.165063
-0.134998
0.001668
0.222983
-0.195972
0.085019
-0.058856
-0.119076
-0.243064
0.027272
0.119699
0.226538
0.013336
0.020968
-0.036265
0.049010
-0.161935
-0.011135
-0.147441
-0.010088
0.061257
-0.000158
0.118497
0.059353
-0.134743
-0.021035
-0.013640
-0.152931
0.187343
0.210514
0.271361
-0.058472
0.105605
-0.018207
0.027278
-0.144625
0.157935
-0.004565
-0.150175
0.054521
0.109500
-0.109967
0.007120
0.015502
0.030271
0.100892
0.119399
-0.222990
-0.010635
0.248497
0.107709
0.034912
0.082679
0.097200
-0.065189
0.104564
-0.244956
-0.027995
0.166248
0.044537
-0.061520
-0.108747
-0.169951
-0.017362
0.060330
-0.143770
0.129770
-0.096360
0.054984
-0.058921
-0.127571
0.094826
-0.061167
0.160070
-0.023543
0.094870
0.127456
0.198320
-0.022634
-0.329544
-0.161638
0.246113
-0.007598
0.016899
-0.136204
-0.037846
0.039328
0.011698
0.011738
0.061318
-0.083528
-0.059729
-0.161994
-0.093422
-0.108723
-0.363762
-0.039317
-0.062450
-0.057700
0.049420
-0.081042
0.017497
0.088993
0.031152
0.010777
-0.037969
0.021923
-0.132043
0.191032
-0.162106
0.158697
-0.099282
0.180912
0.200836
0.015709
-0.176931
-0.408824
-0.014353
-0.039511
-0.166915
0.146366
0.094036
-0.192250
0.034262
-0.109879
-0.017300
-0.115418
-0.250229
-0.054943
-0.235509
-0.027538
-0.127127
0.028621
-0.255635
0.057538
-0.066286
0.127884
0.005523
0.060346
-0.082080
0.005432
-0.128394
-0.069400
0.076992
0.101492
-0.252207
0.055205
-0.098514
-0.032969
-0.099318
0.079530
-0.059853
-0.084720
0.173823
-0.084610
-0.103718
0.028205
-0.094429
0.003143
-0.208154
-0.198859
0.074714
-0.093528
-0.136042
0.042291
-0.106748
0.149703
0.044583
-0.197543
-0.129332
0.003861
-0.227937
0.053397
-0.062381
0.158658
-0.049520
-0.106317
-0.054140
0.193312
-0.018327
0.157968
0.027090
-0.012110
0.117057
0.009102
-0.196105
-0.137629
-0.047403
0.044533
-0.029434
0.013742
0.137525
0.078227
-0.111484
-0.016939
-0.063142
-0.172760
0.252724
0.103959
0.126371
-0.292468
-0.044873
-0.049120
0.048344
-0.015076
0.183019
0.004748
-0.124118
-0.077236
0.302936
-0.125183
0.005141
-0.147950
0.073420
0.052179
0.166693
-0.248656
-0.237471
-0.111914
0.069401
-0.183027
-0.077226
0.133699
0.006502
-0.211129
-0.034595
0.035642
-0.096812
0.114098
-0.126243
-0.064780
0.123535
0.022468
-0.059855
-0.118278
-0.079260
0.160639
-0.045988
-0.190517
-0.067231
-0.043906
0.082951
0.130980
0.280923
-0.129662
0.028803
-0.166353
0.071418
-0.209781
0.007547
0.025425
0.050896
-0.005856
0.118451
-0.067217
-0.014309
-0.047072
0.203661
0.211104
0.145838
0.034568
-0.119863
-0.148979
0.048146
0.034695
-0.053564
-0.062575
-0.277538
0.087863
-0.259614
-0.243996
0.232356
0.098263
-0.168146
-0.508503
-0.037090
0.058436
-0.297244
-0.056380
-0.161608
-0.023727
-0.001005
-0.001868
-0.189438
-0.046556
0.052850
-0.071965
-0.142332
-0.035781
-0.108478
-0.499735
0.074492
0.024183
0.022941
-0.285769
-0.076577
-0.129638
0.080414
-0.090038
0.066157
0.001735
-0.158599
0.118771
0.042310
0.022491
0.055772
0.026075
-0.389150
-0.094613
-0.079947
0.108479
0.140006
0.072365
-0.007090
-0.398877
-0.058119
0.098128
-0.096708
0.325487
0.021469
0.094794
-0.041699
0.067767
0.032450
-0.013942
-0.025294
-0.088974
0.006144
-0.094055
-0.097343
-0.060780
0.150582
0.016537
-0.042748
-0.091957
-0.120120
0.034685
-0.103391
-0.038531
0.204269
0.063482
0.021075
-0.191127
0.046410
0.016711
0.045864
0.113409
-0.124198
0.056978
-0.037493
0.022427
-0.039538
-0.068897
-0.084107
-0.097649
-0.000578
-0.091972
-0.141829
0.158844
0.005043
0.080726
-0.089720
0.073413
0.054172
-0.113476
0.067684
0.050011
-0.086535
-0.117943
-0.089756
0.131177
-0.058476
-0.048783
0.092221
-0.014877
0.006748
-0.161855
-0.055536
-0.097030
-0.213246
0.089146
-0.179150
-0.162912
0.036655
0.104361
-0.300530
-0.106872
-0.071200
0.019317
-0.052902
0.074279
-0.110904
-0.100561
-0.104988
0.085111
0.135220
0.209273
0.206544
-0.039409
-0.062565
-0.079430
0.268443
-0.062422
0.056503
0.007654
0.027266
0.065843
-0.061205
-0.180156
-0.215818
0.171194
-0.005326
-0.117412
-0.039552
0.000182
0.245969
-0.119117
0.124705
0.173359
-0.066024
-0.010071
0.007233
0.027827
-0.011503
-0.140391
0.020677
-0.026093
-0.034874
-0.097407
0.007247
-0.035587
-0.228311
0.038475
0.142944
-0.121231
-0.150778
-0.029436
0.130648
-0.199955
-0.144215
0.007527
0.097272
0.113008
-0.033386
-0.312769
-0.176606
0.149950
0.000853
0.128258
-0.010435
-0.025072
0.032462
0.075027
0.261949
-0.040814
0.002495
-0.080016
-0.012088
-0.096302
0.218381
-0.133532
-0.194522
0.154944
-0.019433
-0.118075
0.007804
-0.088233
-0.284836
-0.140599
-0.121076
-0.004646
0.043240
-0.039499
0.053588
-0.101695
-0.145426
-0.161646
-0.080381
0.020664
0.119012
0.090900
0.056808
-0.156732
0.074390
-0.186877
-0.123031
-0.097074
-0.119084
-0.107872
-0.007676
0.024484
0.000165
-0.008154
-0.077029
-0.055364
0.079558
-0.044863
0.183446
-0.137335
-0.054144
0.017622
-0.018918
-0.037162
-0.115812
0.011385
0.073545
-0.125060
-0.197464
0.051472
-0.108910
0.197255
0.131347
-0.121921
0.342330
-0.205222
-0.072559
0.178219
0.227198
0.062746
0.034417
0.009506
-0.162969
-0.218646
0.265645
-0.026077
-0.009941
-0.337442
0.112520
-0.047368
0.052781
-0.001549
-0.016325
0.089285
-0.018037
-0.129382
0.336896
0.073129
-0.162235
-0.031071
-0.170808
0.149279
0.091927
0.037778
0.064227
-0.105578
0.021398
-0.007267
0.105236
0.081465
-0.148919
0.077071
0.035402
-0.078427
-0.041199
-0.026638
-0.122591
0.207953
-0.064549
0.003808
0.034609
-0.065470
0.080348
-0.118380
-0.102270
0.172109
-0.174908
-0.148354
0.076595
-0.118456
-0.236918
0.107989
-0.008654
-0.050474
0.103031
-0.265547
-0.073596
-0.117938
-0.012658
-0.000787
-0.039996
0.000585
-0.070461
0.362513
0.076133
-0.033826
0.128844
-0.017821
-0.006395
0.121165
-0.002346
0.089029
-0.031760
0.033951
-0.097229
0.076873
-0.128259
-0.033559
0.115983
0.075616
-0.005375
-0.005896
-0.076187
-0.056621
-0.404482
0.026425
0.029801
-0.138594
0.067711
-0.424917
-0.167272
-0.205139
-0.088269
0.132594
0.093289
-0.098159
-0.136787
0.122096
0.180313
-0.040589
-0.007211
-0.038836
-0.222980
0.091639
-0.054387
0.014935
-0.057014
0.219465
-0.241243
-0.015880
-0.039423
0.175041
0.053795
0.113721
0.135843
-0.307507
-0.077777
0.158193
-0.025899
0.159578
-0.114200
-0.102838
0.124740
0.055786
-0.040614
0.001133
0.230555
-0.159277
0.098986
0.258534
-0.072598
0.054909
-0.192645
0.156586
-0.104557
0.095581
-0.022178
0.112847
0.267922
0.024725
-0.154819
0.127186
0.050228
0.065605
0.064069
0.088862
0.004536
-0.042212
0.177164
0.068104
-0.129711
-0.022831
0.273725
0.025332
-0.172586
-0.033127
0.302824
0.055614
-0.293483
-0.059218
-0.369888
-0.127000
-0.067907
0.188667
0.118173
0.178897
0.011036
0.025682
0.194950
-0.059847
-0.126787
-0.634136
-0.221163
-0.010418
-0.212269
0.164189
0.042547
-0.012368
0.065817
-0.165379
-0.047946
0.000779
0.107383
0.033397
0.039938
-0.012191
0.151510
0.070354
0.321906
0.025491
0.134713
-0.171956
-0.036843
-0.070060
-0.282686
-0.263134
-0.095272
0.128869
-0.133148
0.029597
-0.167931
0.252850
-0.044467
0.140202
-0.099453
0.185014
0.179914
-0.062216
-0.477933
0.295346
-0.085021
-0.255847
-0.091849
0.061670
-0.051625
-0.033768
-0.003696
-0.022670
-0.119194
0.062745
0.035648
-0.048596
-0.079512
0.210385
-0.004213
0.073758
0.096614
-0.157338
0.113949
0.070872
0.103998
0.007611
0.069150
-0.033919
0.025241
-0.054117
-0.085393
-0.039323
-0.002659
-0.168467
0.032024
-0.106955
0.000332
0.074816
-0.070779
0.120438
0.072284
0.018769
0.112626
-0.131601
0.148874
-0.189278
0.043928
0.093580
-0.325605
-0.014421
0.021824
-0.000307
-0.156577
-0.039588
-0.081672
0.024282
0.018800
-0.210971
0.010153
0.155006
-0.033874
0.124451
0.013429
-0.014410
-0.043415
-0.018710
-0.258272
0.152107
-0.229908
-0.088355
0.033691
-0.201263
0.165714
-0.135463
0.009316
-0.243837
-0.136135
-0.049829
0.076077
0.171197
0.053330
-0.040646
-0.002755
-0.149039
0.209230
-0.088491
-0.162219
0.155487
-0.043984
-0.064210
-0.053510
-0.063625
0.250999
-0.089317
0.047092
-0.139654
0.124430
-0.131693
-0.036284
-0.212969
0.270254
0.117691
-0.035330
0.022025
-0.140667
-0.051853
-0.124383
0.080384
0.131941
0.077792
0.022848
0.058869
0.231147
0.002289
-0.023118
-0.228049
-0.078487
-0.035136
-0.044228
0.089759
-0.157324
-0.035052
0.073396
-0.022648
-0.260059
0.011449
-0.120696
0.118667
0.039005
-0.091413
-0.077061
-0.027133
0.107142
-0.149410
0.010178
-0.013867
-0.172948
0.074309
0.021436
-0.094785
-0.052135
-0.050478
0.097100
0.011394
-0.083959
0.100892
0.021990
-0.097810
-0.029902
-0.056591
0.014099
0.024421
-0.019137
-0.052759
0.020851
-0.085405
-0.010224
-0.092809
-0.147442
-0.069925
-0.180770
-0.036077
0.081859
0.006487
-0.061400
0.089883
-0.104625
-0.096323
-0.027784
-0.148067
-0.174215
-0.078129
-0.077750
0.081848
0.139764
-0.093693
0.046993
-0.152766
-0.207435
-0.098826
-0.114192
0.055020
-0.206816
0.047324
-0.038285
0.151719
-0.043412
0.147723
-0.167946
-0.077370
0.038124
0.018377
0.213210
-0.127205
-0.032875
-0.049756
0.143600
0.048280
-0.015636
0.191597
-0.043038
-0.030774
-0.088700
-0.044636
-0.039174
0.004315
-0.037861
0.007177
0.120846
0.097305
0.189878
-0.064178
-0.033556
-0.050340
-0.233462
0.182554
-0.169156
0.020411
0.102852
0.125546
-0.020700
0.003361
-0.031061
0.149063
0.057484
0.026110
0.079273
-0.179075
-0.053006
-0.067482
-0.129469
-0.166407
-0.075661
-0.099347
0.209564
-0.214066
0.283876
0.008301
0.415522
0.184332
0.043561
-0.003641
-0.290167
0.159016
-0.313647
-0.399642
0.005444
0.139200
-0.076517
-0.206777
-0.247061
-0.353958
0.119083
-0.043903
0.101242
-0.066336
0.077287
-0.065940
-0.033737
0.076012
-0.064701
0.215798
-0.104026
-0.059026
0.055695
0.130352
-0.154046
-0.108088
0.019449
0.114417
0.017121
0.161102
0.196582
0.011244
0.206667
-0.003182
0.028328
-0.040155
-0.190530
-0.002591
-0.090388
0.285212
0.128530
0.290103
-0.074167
0.015392
-0.334942
-0.027108
-0.023732
0.143628
-0.243181
0.099569
0.088590
-0.373435
-0.146397
0.137647
-0.153645
-0.332793
-0.071972
-0.079229
-0.036955
0.290741
-0.202345
0.085669
-0.016181
-0.080017
-0.106738
-0.253021
-0.152802
0.212761
-0.297821
0.237585
-0.038945
0.205347
-0.057751
0.198693
0.119494
-0.304231
0.141541
-0.085394
0.121686
-0.119845
-0.229976
0.068430
0.132190
-0.020868
0.144318
0.023885
-0.100650
-0.166515
-0.059073
0.047794
0.019505
-0.075759
0.124401
0.110367
0.048670
-0.135508
0.192131
0.014873
0.110721
0.086352
0.063541
0.041544
0.055764
-0.006357
0.017134
-0.120995
0.139651
-0.028483
0.003317
0.041250
0.053070
-0.025994
-0.046210
-0.265845
-0.014472
-0.149209
0.010018
0.062769
0.102100
0.000795
-0.108914
-0.104668
0.019707
0.121656
0.055022
-0.126014
-0.102328
0.127368
0.017199
-0.007762
-0.003479
-0.012806
0.072331
0.046334
-0.028850
-0.141288
-0.012323
-0.071085
0.057609
-0.120395
-0.079944
0.020673
0.046729
0.021071
-0.130714
-0.167575
0.202096
0.010359
0.081331
-0.258971
0.072970
-0.034208
-0.224988
0.025821
-0.024433
-0.098855
-0.029757
-0.013256
0.027519
-0.174272
0.033563
0.155612
0.140896
-0.089304
-0.229811
0.333472
-0.064205
0.019135
0.025179
0.176069
-0.065112
0.121363
0.029844
-0.098868
-0.042450
0.098539
-0.045803
0.019785
0.001217
0.057645
0.207826
-0.021765
-0.021435
0.242162
0.000727
-0.061722
-0.145621
-0.049678
0.070602
0.101095
-0.196599
-0.040796
0.013843
-0.054545
-0.167843
-0.116994
0.119887
0.094214
0.111745
0.021460
-0.089526
0.032854
0.126400
0.092659
0.044364
-0.118632
0.110963
-0.029322
-0.159155
-0.043173
-0.061658
-0.143315
-0.023353
0.079775
-0.128886
-0.072890
-0.080183
-0.008038
0.072077
-0.058225
0.035378
0.018129
-0.021228
0.102391
-0.084980
-0.161495
-0.073461
-0.066522
-0.116643
0.190077
-0.088097
0.037305
0.022049
-0.089947
-0.248028
-0.083758
-0.134494
-0.012798
0.000680
-0.088022
0.038647
0.022864
0.097750
0.048239
0.053574
-0.020123
-0.082918
-0.065196
-0.039523
-0.135518
0.241363
0.013049
0.110501
0.055325
-0.102351
-0.076615
0.045865
-0.036043
0.049138
-0.078128
-0.054414
0.044480
-0.002353
-0.123744
0.053237
0.008348
-0.133763
-0.098887
-0.095388
-0.110951
-0.108186
0.124750
-0.073955
0.116597
0.081821
-0.020889
0.052404
-0.199303
-0.057577
-0.214589
0.257223
-0.124443
-0.081591
0.000310
-0.079678
0.067408
-0.073985
0.028104
-0.058605
0.019483
-0.320085
-0.131073
-0.210771
0.112037
-0.075996
-0.023814
-0.208198
0.045505
0.009336
0.193571
-0.155604
0.210134
0.115825
0.161904
-0.124016
0.121190
0.131952
0.014481
0.074607
-0.241898
-0.307499
-0.001469
-0.173429
-0.057149
-0.308081
0.004366
-0.001394
-0.006990
-0.061691
-0.007907
0.068671
0.010840
0.083037
0.115400
0.157690
0.120377
0.119190
0.143605
-0.007702
-0.190794
0.056523
-0.025108
-0.215758
-0.052924
0.180809
-0.022267
-0.096832
-0.053450
0.087801
-0.249384
0.051793
0.068568
0.025550
-0.258530
-0.201458
-0.003134
0.119135
-0.309920
0.053275
0.111610
0.054080
-0.054030
-0.308670
-0.319142
0.021475
-0.097354
0.015848
-0.021718
0.020678
-0.183737
-0.180604
0.041750
0.086931
0.036162
0.266622
0.130457
0.093405
-0.295123
-0.143704
0.059767
0.067006
0.121227
-0.008217
0.256301
0.010722
0.284613
-0.036810
0.008529
-0.116497
0.054553
-0.121900
-0.099727
-0.180881
0.187903
0.135471
-0.044786
-0.022022
0.003261
-0.061932
-0.101621
0.056235
-0.104912
0.090788
0.199691
0.159432
-0.036537
-0.112261
-0.107075
0.085839
0.183455
-0.039027
0.143308
-0.111673
-0.045300
-0.004773
-0.052047
-0.190440
-0.269232
-0.000242
0.015098
0.043236
-0.086503
-0.083268
0.009325
-0.089789
0.141309
0.162642
0.047843
0.024000
-0.063702
0.025006
0.191635
-0.082506
-0.019617
-0.115257
0.125026
0.021124
0.051939
0.035975
-0.202021
-0.063667
-0.050730
-0.049778
-0.036429
-0.184705
-0.095103
-0.143868
-0.025445
0.147655
-0.062194
0.145327
-0.039395
-0.096326
0.087203
-0.036224
0.041722
-0.107747
-0.016994
0.041963
-0.211530
0.009603
-0.102463
-0.102404
0.122226
-0.102218
0.068656
-0.235890
0.027659
0.105228
0.036591
-0.077905
-0.066130
0.180814
-0.032612
-0.147305
-0.039596
0.106410
-0.185932
-0.018096
-0.072022
-0.165074
-0.211873
0.097779
-0.107847
0.028650
0.046196
0.132058
0.078039
-0.095315
-0.014143
0.092941
0.050317
-0.034402
0.067553
0.005966
-0.004171
0.075551
-0.049636
-0.010351
-0.099724
-0.076396
-0.042976
-0.168940
-0.047730
-0.045080
0.188310
0.199858
0.069793
-0.064394
0.066287
-0.025358
-0.319888
-0.019935
-0.342394
-0.109113
-0.110918
0.060005
0.124271
0.351426
0.041644
-0.051776
-0.228536
-0.107379
-0.024059
-0.042995
0.135021
0.083128
-0.098037
-0.126775
0.064630
-0.195272
0.211104
-0.223750
0.149018
0.130096
0.122259
0.205686
0.071918
-0.012824
0.029806
0.119705
-0.033511
-0.072978
-0.082011
0.053464
-0.089534
0.094879
0.036035
-0.127198
0.216201
-0.143264
-0.190742
0.145560
0.164385
-0.045628
-0.096169
0.180090
0.023429
0.154159
-0.081118
0.020523
0.082529
-0.005974
0.005665
0.213250
-0.257516
-0.086989
-0.007315
0.071718
0.108314
0.083718
-0.172045
0.140098
0.017212
-0.052380
-0.083573
-0.068871
-0.238750
-0.093973
-0.142382
0.404588
-0.204902
-0.018019
0.344788
-0.040935
0.089791
0.085397
0.094158
0.148623
-0.475054
-0.038194
0.069445
0.001999
-0.470291
0.024489
0.126576
-0.019754
-0.109234
0.098140
-0.164196
-0.332756
-0.004237
-0.388591
-0.000820
0.122444
0.060082
0.061951
0.132533
0.142833
-0.150975
0.089373
0.088071
-0.054537
-0.021993
-0.195502
0.039246
0.027206
-0.112910
0.016244
-0.252393
0.025621
-0.073455
0.124298
0.115292
-0.047751
-0.055784
-0.192795
-0.219573
-0.029061
0.038668
0.101614
-0.089060
0.079048
-0.052596
-0.060949
-0.362266
-0.279198
-0.037865
-0.195928
0.025789
-0.043149
0.138313
0.070705
-0.051384
0.057141
0.159465
-0.143799
-0.063889
0.105843
0.299776
-0.045846
-0.132391
0.011678
0.128000
0.077245
0.248081
-0.108670
-0.024131
-0.121077
0.102808
-0.012348
-0.099256
0.063062
-0.096235
-0.111188
0.002620
0.076136
0.062264
-0.095782
0.029607
-0.224226
0.028061
0.019125
-0.079853
-0.016158
0.056935
0.269525
0.025959
-0.108756
0.005276
0.023426
0.210473
-0.072753
-0.080823
-0.185087
-0.137432
0.172518
0.075191
0.090886
-0.195834
0.002945
-0.187081
0.006747
-0.067387
-0.051865
0.018499
-0.171918
-0.038862
-0.051299
-0.029061
-0.075753
0.104742
0.048804
0.039615
-0.019664
0.134235
-0.020824
-0.036353
0.149075
-0.129346
0.093203
-0.059756
-0.084677
-0.059132
-0.033316
0.092786
0.027200
-0.014064
0.112561
-0.023398
0.059191
-0.037788
-0.126896
0.034527
0.071209
0.070609
0.041933
0.262214
0.066594
0.003744
-0.035319
-0.014745
-0.013091
0.160831
0.237343
0.004419
0.180754
0.167370
-0.058922
-0.228279
-0.227344
-0.024104
0.005601
0.110152
-0.221243
-0.123056
-0.420209
-0.235264
0.035397
0.033255
-0.046742
-0.004626
-0.122723
0.181608
-0.052235
-0.039949
0.143927
-0.011239
0.309384
-0.063447
0.310556
-0.283244
-0.245731
0.079813
0.091506
0.226982
-0.016097
0.089711
-0.352808
0.113549
0.005308
-0.111905
0.122124
-0.053510
-0.306771
-0.304283
-0.030321
0.034133
0.192512
0.093452
-0.259025
0.319620
0.046967
0.147930
-0.081409
-0.067239
-0.142610
0.123550
-0.029918
0.028233
0.021227
-0.016133
0.056130
0.378005
0.128744
-0.093486
-0.072570
-0.056637
-0.055173
-0.229843
-0.006474
-0.139636
-0.024273
0.110810
-0.090197
-0.137979
-0.152121
-0.077362
0.082525
0.044838
-0.060043
0.035637
0.005524
0.195025
0.043077
0.093969
0.157170
0.047397
-0.149964
-0.071802
0.021979
-0.116036
-0.180368
-0.096365
-0.035200
-0.150763
0.209396
-0.141898
-0.064645
0.063807
0.057820
-0.079614
0.065223
-0.055860
0.171704
-0.274794
0.009366
-0.100803
-0.035000
-0.018358
-0.205964
0.052174
0.253581
-0.090216
0.037726
-0.024875
0.102656
0.011003
-0.050370
0.110649
0.006427
0.142562
0.125101
0.315572
0.046005
-0.198030
-0.018801
0.075598
-0.319003
0.013944
-0.043181
-0.017108
0.064526
-0.091921
-0.144424
-0.114409
-0.046420
0.077165
-0.155306
-0.045259
-0.022897
-0.124933
0.105515
-0.194558
-0.007448
-0.119177
0.079353
0.088570
-0.169263
0.311193
-0.093693
0.107287
-0.107322
-0.040550
0.143661
0.004150
-0.092747
-0.192171
0.042339
0.019590
-0.121860
0.008032
0.220403
-0.124516
-0.078988
-0.039646
-0.117279
-0.129941
-0.109430
0.039338
0.167863
0.006229
0.048282
0.029880
0.071684
-0.122687
0.092719
-0.186572
-0.075568
-0.067830
-0.055845
0.181222
-0.056033
-0.101120
0.096567
0.213435
-0.141971
-0.140965
-0.036093
0.019050
-0.139695
-0.033217
-0.024053
0.195925
-0.093789
0.009315
-0.171547
0.153735
-0.103030
-0.159845
-0.183627
-0.053674
0.019458
-0.121124
0.009134
0.087936
-0.101941
0.160003
-0.085776
-0.118531
-0.097539
0.011358
-0.323397
0.200232
0.051499
-0.073090
-0.077415
0.093537
0.024701
0.017369
-0.060657
0.050080
-0.042573
0.056854
0.011362
-0.006622
-0.124120
0.015480
-0.002111
0.114668
-0.152660
-0.181653
0.120810
-0.159755
0.263186
-0.124222
-0.068944
0.028555
0.117311
-0.052551
0.217612
-0.050269
0.098734
-0.194844
-0.106369
0.045691
-0.029651
-0.230695
0.068441
0.026782
-0.195004
0.119637
0.046707
-0.047259
-0.020887
0.203211
-0.154748
0.019381
-0.146190
0.106210
-0.010425
-0.345285
0.153199
-0.058912
-0.349544
-0.029961
-0.030902
-0.093555
-0.179909
0.076958
-0.026783
0.219973
0.041434
-0.006204
0.109001
0.026154
-0.133017
0.302475
-0.146541
-0.018542
0.021506
-0.018492
-0.022543
-0.025338
0.032678
0.092202
0.126243
-0.080317
-0.168672
0.013200
0.030986
-0.077150
0.012907
-0.027767
-0.113416
-0.212257
0.042242
-0.149873
-0.264510
-0.102149
0.015992
-0.337277
-0.030535
0.065111
-0.067897
0.180982
0.010330
0.436475
-0.191114
0.230640
-0.172772
0.027829
-0.138936
0.034188
0.027666
0.043530
-0.255878
0.149730
-0.051428
0.422431
0.033370
-0.106076
0.084210
-0.055372
-0.260811
-0.390491
-0.009885
0.187611
-0.219835
0.070116
0.113714
0.216995
-0.133649
-0.186796
0.049090
0.066946
0.319321
0.117098
0.201878
0.124673
0.050529
0.042025
-0.015299
0.078843
-0.105467
0.008979
0.140937
-0.023240
-0.087290
-0.271542
-0.092816
0.204138
0.082340
-0.085989
0.063719
0.063723
-0.030800
-0.142583
-0.065892
-0.468454
-0.041991
-0.058031
0.079657
0.123243
0.291105
-0.028036
-0.010284
-0.058360
-0.163129
-0.227275
0.054399
-0.206975
0.012980
0.131701
-0.106659
0.054883
0.146760
-0.024612
0.342247
-0.226874
-0.024601
-0.217308
0.054137
-0.177474
-0.065946
-0.039605
0.008425
0.012596
0.133692
-0.045189
-0.040782
-0.061093
-0.027200
0.122377
0.091242
-0.117683
0.013687
0.031357
-0.008351
-0.196084
0.255388
0.035980
0.141243
0.084814
0.144679
0.055949
0.148891
0.013566
0.082414
-0.125017
0.049500
0.021889
-0.148201
0.014813
-0.034664
0.088282
0.174136
-0.111534
0.056586
-0.096500
0.255521
0.006074
0.004527
-0.188596
0.054191
-0.143830
-0.058212
-0.037352
-0.264872
-0.208874
-0.098891
-0.139347
0.016825
-0.008350
0.015393
-0.118258
0.048525
0.225823
0.027553
0.144610
-0.076260
-0.091810
0.247960
0.200979
0.042681
-0.026083
0.112681
-0.094392
-0.245391
0.128716
0.081442
0.109444
0.041001
-0.101447
-0.001255
0.000659
-0.238070
-0.077547
0.153925
-0.190094
0.035315
-0.109206
-0.070371
-0.217176
0.082607
0.193984
-0.050469
0.018123
-0.273210
0.260598
-0.070900
-0.004453
0.024400
0.174958
-0.013318
-0.093335
0.010964
-0.218731
-0.195369
-0.044991
-0.171172
0.212587
-0.141959
-0.074469
0.174577
-0.027908
0.026765
-0.073935
-0.081369
-0.178104
0.114969
0.017992
0.022900
-0.118413
0.243897
-0.062908
-0.005348
-0.036803
-0.103516
0.020298
0.075908
0.122396
0.045115
-0.027375
-0.094891
0.061108
-0.021338
-0.055205
0.082475
-0.051191
0.175198
-0.079382
-0.122167
-0.315520
-0.178384
-0.196084
-0.040892
0.008928
-0.038601
-0.134894
-0.253450
-0.103427
0.054427
-0.048096
-0.048469
-0.024748
-0.083722
0.026758
0.009364
-0.169503
-0.052696
0.017374
-0.143411
0.243219
-0.094214
-0.074534
0.087940
-0.102522
-0.031740
-0.128397
0.012270
-0.000299
-0.139844
-0.034360
-0.004963
0.066499
0.064643
-0.043285
-0.056449
0.027542
-0.114314
-0.099917
0.050481
-0.230958
0.189530
-0.193276
-0.124235
-0.084468
-0.065188
0.056692
0.151436
0.011016
0.023664
-0.191297
-0.089599
0.122345
0.125660
-0.080955
0.005919
-0.020037
0.027068
-0.079069
-0.053330
-0.293805
0.010129
-0.073243
-0.082204
0.125805
-0.236755
-0.061549
0.083890
-0.160776
0.054841
-0.167112
-0.000330
-0.188807
-0.245348
0.114337
-0.045719
-0.137427
0.026797
-0.036034
-0.083268
-0.059048
-0.299330
0.254322
-0.196725
0.235945
-0.192000
0.292153
-0.013758
0.170979
0.025673
0.019483
0.137047
0.072519
0.147770
-0.083434
0.056309
-0.025955
0.071648
-0.100937
0.022672
0.224556
-0.371310
-0.114479
-0.035729
0.054958
-0.102130
0.053450
0.120445
0.084300
0.110577
-0.140806
0.105711
0.097563
-0.058308
0.109932
0.056352
0.158440
0.090489
0.091413
-0.331109
-0.031244
0.145598
0.201616
-0.079870
-0.059000
0.186455
0.023771
0.079141
-0.105105
0.115065
0.047173
0.013188
-0.043239
-0.215034
-0.296493
-0.183139
-0.002334
-0.117131
-0.542539
0.147931
-0.325690
-0.033796
-0.268052
-0.001608
-0.044808
-0.056748
0.131321
0.109189
0.093200
0.004097
0.043913
-0.160489
0.177328
0.188448
0.051025
0.018581
0.014263
0.129885
0.262908
-0.216276
0.066092
-0.033541
-0.015165
0.008873
-0.001642
-0.090403
0.313876
-0.213349
-0.046438
-0.196710
-0.010412
-0.027915
0.054192
-0.131060
0.038679
0.167129
-0.025679
0.189727
0.117968
0.036812
0.061735
0.069854
0.139678
-0.083451
0.046568
0.053321
0.159958
0.043764
-0.123374
0.166571
-0.214970
-0.182645
0.029569
0.159743
0.018198
0.219201
0.251682
-0.218960
-0.018219
0.045168
0.051556
0.131733
-0.091055
-0.120303
-0.019447
-0.002398
-0.027411
0.114322
-0.055293
-0.058188
-0.197937
0.157060
0.111989
0.006067
-0.165351
-0.046085
0.006260
-0.104633
0.086135
-0.062796
-0.059828
0.026180
-0.172337
-0.050171
-0.116633
-0.145450
-0.118683
-0.238294
0.036117
0.005097
-0.113146
0.112982
-0.114772
0.086574
0.034597
-0.004884
-0.208681
-0.009243
0.032321
-0.048935
-0.219730
-0.009084
0.135174
-0.020430
0.183034
-0.038331
0.197952
-0.093339
-0.072033
0.187062
-0.021822
-0.082914
-0.070923
0.216473
-0.119020
0.032604
-0.067925
-0.119240
-0.065170
-0.010664
-0.186919
-0.102888
-0.121779
0.065267
0.034083
-0.024487
-0.151537
-0.068200
0.013903
-0.170816
0.118014
0.193433
0.054890
0.067752
0.065002
-0.042316
0.045486
0.095985
-0.022517
-0.035119
0.039741
-0.120535
-0.056323
-0.004758
-0.259975
-0.012055
-0.029472
0.207342
0.096166
0.134446
0.084793
0.154107
-0.145469
0.009377
-0.273316
-0.073284
-0.245723
0.166454
-0.165213
-0.065007
-0.030538
-0.028000
-0.099419
0.084141
0.021390
-0.038898
-0.092475
-0.083798
-0.046637
-0.020172
-0.269700
-0.241596
0.082438
0.065514
0.349243
0.003546
-0.064038
0.235263
0.146916
0.051424
0.019666
-0.158971
0.037817
-0.140975
-0.392298
-0.102237
-0.125409
0.136040
-0.119699
-0.147815
-0.079447
0.110447
-0.002613
-0.028763
0.005655
-0.212560
-0.069500
-0.022809
-0.084528
-0.165004
0.175950
0.029650
-0.011432
0.056914
0.017690
0.334204
-0.067538
0.120502
-0.200830
-0.005811
-0.051581
-0.074964
-0.073893
-0.114703
0.142644
-0.013009
-0.087498
-0.159254
-0.115564
-0.179455
0.190383
-0.384612
-0.039714
-0.068140
-0.410986
-0.582842
0.094019
0.032196
-0.046508
0.107340
0.445461
0.101587
0.087738
-0.057190
0.110285
-0.011396
0.048092
0.128721
-0.079485
-0.080064
-0.149330
-0.227425
0.195272
-0.088760
0.092401
0.213341
-0.031424
0.025983
0.150181
0.082876
-0.023424
0.112146
0.072341
-0.086126
-0.037004
0.067889
0.041509
-0.025165
-0.038783
0.073461
-0.230656
-0.033646
0.093112
-0.003499
0.190439
0.037543
-0.057151
-0.215204
-0.220347
0.128640
0.086342
0.001165
0.039256
0.137354
-0.095594
-0.039671
-0.418673
-0.318911
-0.036279
-0.123943
-0.094074
-0.099634
-0.063172
-0.144793
-0.033586
0.059634
0.035326
-0.083784
0.058475
0.078602
0.237906
0.019911
-0.104940
-0.060501
-0.002233
0.101153
0.261723
-0.073614
-0.203067
0.074869
0.145340
-0.002990
-0.127617
0.032472
0.013787
-0.012986
-0.091671
0.107392
-0.111316
-0.373489
-0.034887
-0.383985
-0.099696
-0.035734
-0.001467
-0.008667
0.042508
0.029330
-0.237992
0.057711
-0.073338
-0.135560
0.102088
-0.085591
0.052663
-0.081726
0.110525
-0.053670
-0.030674
0.123865
-0.082754
0.136187
0.075250
-0.012372
-0.048044
0.000725
0.158384
-0.008035
0.098205
-0.081284
0.001805
0.033026
0.133668
-0.012029
0.194474
-0.081821
0.077758
-0.040136
-0.061176
-0.067522
-0.048396
0.034015
-0.114407
-0.093525
-0.290657
0.203950
0.158327
-0.145327
0.036539
-0.172190
-0.005150
0.107291
0.068194
0.064420
0.148931
0.252868
-0.020124
0.022661
0.272393
0.156425
0.008219
-0.091497
0.012002
-0.112074
0.027075
0.133405
0.084368
0.044698
0.079394
-0.097659
-0.236217
-0.103119
-0.014407
0.378211
-0.074867
0.281180
-0.196812
-0.224944
-0.031210
-0.051913
-0.110021
0.120145
0.067730
0.043010
0.178253
-0.233469
0.054145
0.157657
-0.006475
-0.068273
-0.108157
0.386368
0.149171
-0.190287
-0.040036
-0.051555
-0.207269
0.044376
0.000266
-0.407730
0.084717
-0.027068
-0.317096
-0.160931
0.044929
-0.169740
0.241244
0.048088
0.103375
0.174056
0.116682
-0.028296
-0.186239
0.084229
0.163056
0.029758
-0.045970
-0.040098
-0.126872
-0.080837
-0.120199
0.145190
-0.102506
-0.036384
-0.226121
0.182614
-0.320534
-0.038752
0.270409
0.066869
0.041902
0.055273
-0.047617
-0.125093
-0.031939
0.059191
-0.016277
-0.022660
-0.042316
-0.014538
0.051600
-0.114544
-0.071102
-0.064151
-0.102082
0.073090
0.143396
-0.026802
-0.192797
0.079283
0.070550
-0.067913
-0.242596
-0.082337
0.043293
-0.230830
-0.109214
0.079388
0.015390
0.099988
0.150506
0.012665
-0.053676
0.083723
0.083213
0.122218
-0.230173
-0.199142
-0.079261
-0.145542
-0.047881
0.062723
0.211181
0.105530
0.019632
-0.025249
0.041178
0.089584
-0.095122
0.073504
0.242206
-0.022225
0.051739
0.076639
0.139951
-0.033293
-0.079704
0.049908
0.057308
-0.133667
0.150491
-0.108589
-0.012305
0.007305
0.105292
-0.294481
-0.132120
0.009165
-0.054716
0.063379
-0.109116
-0.072359
0.138537
0.150683
-0.325073
0.029220
-0.010812
0.029039
-0.041129
-0.150991
0.224528
0.079157
0.026143
-0.209816
0.055205
0.141653
-0.123906
-0.160441
-0.038327
0.167876
0.024350
-0.180867
-0.028153
0.100802
0.002625
0.121401
-0.024953
-0.011957
-0.101595
-0.159433
-0.034164
-0.086059
-0.112831
0.031915
-0.122532
-0.028230
0.032770
0.234589
-0.150884
0.004472
-0.029824
-0.117483
0.148157
-0.124046
0.002930
0.000593
-0.014143
-0.118062
-0.026806
0.035883
-0.199968
-0.053801
0.029655
-0.061570
0.019614
-0.085527
0.083210
-0.178350
0.088382
-0.112247
-0.068156
-0.195535
-0.200076
-0.017285
-0.073309
-0.114112
0.099259
-0.086251
0.084504
-0.046241
-0.061609
-0.114207
-0.062493
-0.352663
0.260178
-0.194818
-0.015657
0.071683
0.070221
0.062933
0.083954
-0.047947
-0.022418
-0.125036
-0.145270
-0.076847
0.157632
-0.068704
-0.030612
-0.152866
0.015784
0.064723
-0.054508
0.103734
0.156000
-0.073882
-0.154839
-0.307566
-0.188187
-0.212429
0.143401
0.271184
-0.095671
0.268563
0.142799
0.192584
0.016953
0.216131
-0.074045
-0.100979
-0.188843
-0.018139
-0.030817
-0.177413
-0.107735
0.143124
0.121878
0.024338
-0.004782
-0.084199
-0.091145
-0.017789
-0.208341
0.115127
0.099494
-0.192108
-0.007039
0.009899
-0.073454
0.027141
-0.128196
-0.008829
-0.112964
0.080858
-0.085513
0.090117
-0.057332
-0.022472
0.281031
-0.146903
-0.006856
0.071395
0.116937
0.119890
-0.111385
-0.064719
0.022939
-0.049628
-0.012095
-0.038180
0.093895
-0.011893
-0.258881
0.004650
0.111627
-0.087847
-0.087118
-0.153594
-0.270663
-0.155181
0.034834
-0.152393
0.435182
0.084937
0.102225
-0.086213
0.072242
0.144890
-0.228255
-0.195172
0.151174
-0.160774
0.135340
0.173026
0.336919
-0.020665
-0.120183
-0.026218
0.129147
-0.069277
-0.518288
0.024989
-0.075021
0.079878
-0.164810
0.216551
0.142761
-0.055752
-0.021767
0.062339
0.037628
0.051266
0.183666
0.020500
0.231173
-0.065267
0.098000
0.316394
0.063844
-0.114580
-0.175591
0.285187
0.189282
-0.012300
-0.329760
-0.176954
-0.209170
0.152359
-0.055755
0.328314
-0.154528
0.008526
-0.272876
0.119325
-0.146635
-0.117961
0.251074
0.076934
-0.018196
0.178029
-0.174659
0.067290
0.064414
-0.129917
-0.073610
-0.060319
-0.302030
0.017756
-0.170643
0.004853
-0.008830
0.115659
0.024357
0.243463
-0.004738
-0.053861
-0.035907
0.057163
-0.067730
0.217913
-0.215942
-0.010744
-0.137571
-0.041671
0.237859
0.034478
-0.132361
-0.009729
0.113983
-0.106892
-0.268203
0.085077
0.099389
0.195517
0.122969
-0.039888
0.207370
-0.091178
-0.035900
-0.023225
-0.123259
0.103954
0.069571
0.130206
0.004902
0.097645
0.185584
0.071717
0.079023
-0.053894
-0.012918
0.036742
0.015303
0.066979
0.113677
-0.000007
-0.149574
0.067287
-0.139195
0.005924
0.155679
0.133254
0.032636
-0.017540
-0.187879
-0.069230
-0.129416
0.010136
-0.173646
-0.014323
-0.114428
0.149829
-0.115325
0.003661
-0.103866
-0.020974
0.049756
-0.064954
0.163398
0.134907
0.195214
-0.116181
-0.106477
0.226193
-0.000658
0.044939
-0.227735
0.032689
0.100566
-0.021619
0.130828
-0.090098
0.041261
-0.156804
-0.018507
-0.024936
-0.004109
-0.390059
0.050446
-0.012350
0.042670
-0.109744
-0.071435
-0.052958
0.019675
0.256427
0.128940
-0.115231
0.132258
-0.242712
0.226599
-0.122857
-0.095997
-0.046553
0.145804
0.089404
0.058531
-0.044296
-0.152112
-0.140304
0.054180
0.004859
0.294275
-0.101408
-0.032544
0.227921
-0.068855
-0.098420
-0.168547
-0.050609
-0.240116
0.183612
-0.314081
-0.119589
0.020082
0.207929
-0.005969
0.079213
-0.024473
-0.044055
0.035611
-0.048626
0.122702
0.139440
-0.090034
-0.175004
0.015382
-0.075410
0.031299
-0.050912
-0.079834
0.002660
0.046951
0.074543
-0.176005
0.000710
0.044457
-0.167678
-0.028588
0.046312
-0.185634
-0.191086
-0.150798
0.158294
0.066780
0.057932
-0.003298
-0.138054
0.021072
0.039072
-0.209005
-0.072627
-0.005909
-0.223395
0.281351
-0.073873
-0.134223
0.057247
-0.084241
-0.073428
-0.059123
0.037731
0.166510
-0.060770
-0.021178
0.059359
0.092449
0.006513
0.002321
0.134403
-0.025462
-0.066562
-0.045557
-0.108295
0.042060
-0.199052
-0.142722
-0.069069
-0.052401
-0.007038
0.062162
0.028565
-0.041768
0.054734
-0.040973
0.157978
0.140608
0.215761
0.055750
0.137839
-0.057602
0.247099
-0.094262
0.114512
-0.207887
0.053194
-0.000356
-0.208140
0.039665
-0.033314
0.055105
0.099158
0.046638
-0.156869
-0.001665
-0.190772
-0.092784
0.151746
0.214386
0.118264
0.110345
0.222594
-0.030032
-0.034643
-0.052373
-0.122610
-0.125005
-0.008922
0.075728
-0.143794
-0.178956
0.005608
-0.046228
0.021467
-0.123061
0.160153
-0.179546
-0.021958
-0.092115
-0.021937
-0.118506
-0.092626
-0.006518
-0.182999
0.090229
-0.235891
-0.163300
-0.033555
-0.202931
0.140187
0.177528
-0.157077
0.020761
0.199686
0.005686
0.200486
0.136662
-0.065254
-0.172673
-0.106621
0.046426
0.027924
-0.191696
-0.458529
0.158549
0.080041
0.176372
0.103928
0.102832
0.281855
-0.075494
-0.197029
-0.004259
0.099069
0.211868
-0.186924
-0.236435
0.004433
-0.159971
-0.179921
-0.060384
0.030055
-0.543750
-0.036019
0.140093
0.119609
0.069352
0.030270
-0.104804
0.207630
0.065478
0.150763
-0.046078
0.138873
0.035661
-0.056565
-0.112027
0.103127
0.028931
-0.470998
-0.027809
-0.005158
0.081256
0.216670
-0.062982
-0.082001
-0.261629
-0.065147
0.044503
-0.028218
0.233909
0.044083
-0.066777
0.063996
0.106839
0.151150
-0.070395
0.238585
-0.139563
-0.087848
0.025652
-0.019281
-0.115344
0.316720
0.043422
-0.093308
0.031491
0.090268
-0.017994
0.011141
-0.093044
0.028891
0.155090
0.106114
0.025326
0.083811
0.126802
0.093969
-0.122976
-0.107899
0.073394
-0.267532
0.145177
-0.031751
-0.072348
-0.123976
-0.088652
0.059583
-0.101160
-0.040879
0.057155
0.117264
-0.247562
-0.063365
0.112622
0.092579
0.179945
-0.116048
-0.138313
-0.067721
-0.074674
-0.083864
0.152086
-0.094848
-0.037538
-0.093717
0.062971
-0.061534
-0.218816
-0.372427
-0.111817
-0.276808
0.042509
0.019729
0.089002
-0.076537
-0.117641
-0.012583
0.002910
0.156386
-0.052728
-0.023087
0.024713
0.004857
-0.186603
-0.042590
0.010877
0.044630
0.283680
-0.123993
-0.126423
0.034870
-0.007466
0.056171
-0.063678
0.119762
-0.143480
0.078291
0.033911
0.108265
-0.157007
-0.191786
0.033917
-0.002092
-0.022078
0.143683
-0.111147
0.002566
-0.091576
-0.175614
0.047998
-0.044869
-0.199660
-0.134545
0.128610
-0.002146
0.125629
0.135314
-0.156470
-0.073885
0.001369
-0.099092
-0.004353
0.072467
0.165018
-0.141848
0.098853
0.090026
-0.151727
-0.046923
-0.245326
-0.201564
0.122090
0.143746
0.077956
0.004766
-0.035768
-0.194346
-0.071179
0.049983
-0.088256
-0.242732
-0.116919
-0.192268
-0.023058
-0.046674
0.255524
0.324136
0.077235
0.169744
-0.033364
0.136807
-0.179621
0.100770
0.123536
-0.210599
-0.095308
0.113722
0.243579
0.126118
-0.141523
0.254763
-0.053575
-0.009623
0.024655
-0.030561
-0.045741
-0.005470
-0.142593
-0.269494
0.082307
-0.027194
-0.056137
-0.106575
-0.215512
-0.006505
-0.105636
-0.109034
-0.100852
-0.206218
-0.015559
-0.087616
0.072560
-0.126981
0.032687
-0.051709
0.102717
-0.077257
-0.017277
0.252681
-0.180146
-0.070314
-0.136227
0.072591
0.068714
-0.371633
-0.069459
-0.065826
-0.013689
-0.078074
-0.079008
-0.083361
0.025141
0.132410
0.222036
-0.013972
-0.025090
0.107604
0.311717
0.061677
0.040979
-0.075744
0.011914
-0.384723
-0.222942
0.223488
-0.045103
-0.099288
0.263993
0.066529
-0.232566
0.092360
-0.091616
-0.196901
0.006762
-0.090385
-0.183177
0.435225
0.103552
-0.151280
-0.008770
0.122575
0.135697
-0.319757
0.138596
-0.064981
-0.076288
-0.037881
-0.167248
0.173693
0.135234
-0.000858
-0.123927
0.028036
-0.180294
0.089755
0.048311
-0.319896
0.129134
-0.006544
0.046981
-0.127059
-0.166928
-0.004265
-0.014268
-0.063582
-0.031957
0.064945
-0.124210
0.132210
-0.325672
-0.103265
0.220646
-0.044062
0.001439
-0.089927
-0.089809
-0.142043
0.019803
-0.085736
-0.016329
0.159743
-0.057399
-0.030415
0.123428
0.023083
-0.098802
0.114358
0.012501
0.052203
0.352580
0.143142
-0.030964
-0.078795
-0.021793
-0.120540
-0.107214
-0.015319
-0.020598
-0.051103
-0.001854
-0.011485
-0.120084
-0.158793
0.020503
-0.331316
-0.075998
0.071258
0.044108
-0.162322
-0.098809
0.028066
-0.132262
0.052442
0.048474
-0.015111
0.052027
-0.110820
-0.144915
-0.028274
-0.124605
-0.081965
0.078543
-0.037513
0.156498
0.041952
-0.006889
-0.136253
-0.103134
-0.359784
-0.009652
-0.178806
-0.061582
0.047908
-0.038217
0.040880
-0.068703
-0.116368
0.136650
-0.155983
0.168110
-0.037348
-0.021833
-0.006975
0.112644
0.131683
0.088463
0.170283
-0.113183
0.215457
0.091082
-0.191982
0.068318
-0.198135
0.160220
-0.035088
0.216524
0.087891
0.206972
0.224792
0.138042
-0.119824
0.161495
0.072903
0.084815
0.163650
-0.046164
-0.103941
-0.117291
0.247550
0.008892
-0.197363
-0.005714
0.069400
-0.150897
0.190405
-0.234204
-0.004842
-0.006827
-0.003213
-0.171441
-0.237103
-0.093122
0.119540
0.137830
0.017799
0.109176
0.004726
-0.242016
-0.344620
0.057812
0.033210
0.117341
-0.334984
0.028185
0.323010
0.081199
0.035142
-0.164595
0.017559
-0.193687
0.012102
-0.213202
0.223490
0.064293
0.149188
0.401031
0.051891
-0.004092
-0.045166
0.068137
-0.058370
-0.214086
0.131031
-0.078264
-0.094165
-0.244213
-0.116512
-0.204954
0.021900
0.093472
-0.063861
0.081109
-0.108929
-0.066264
-0.120658
0.161754
-0.063872
0.146137
-0.185251
0.342100
-0.087403
-0.187195
-0.224446
-0.135376
-0.097826
-0.112980
0.130255
0.035603
0.111251
0.088975
-0.013876
-0.049503
-0.057662
0.102905
0.100747
-0.024368
0.066254
-0.197004
0.069475
-0.049462
0.181389
0.023079
-0.173765
-0.151891
-0.144064
-0.083694
-0.064336
-0.074560
-0.104220
-0.006361
0.040037
-0.050329
-0.011488
-0.087288
0.120924
0.000372
0.103075
0.027892
-0.009682
-0.029929
0.240738
-0.108248
-0.151254
0.263064
-0.112185
0.083531
0.192723
-0.269715
0.096010
0.047806
-0.121227
0.110951
0.246099
-0.225070
0.031412
-0.068492
-0.248440
-0.023787
-0.123352
0.029425
-0.288575
-0.037818
-0.210137
-0.016549
-0.285377
-0.178083
0.088052
-0.066829
0.012083
0.023003
-0.117524
-0.070526
-0.124555
-0.022800
0.016932
0.196919
0.024461
-0.132236
0.032350
0.240499
0.091955
-0.102881
-0.093915
0.107670
0.100738
-0.177380
-0.279566
0.014268
0.173442
-0.059665
-0.016113
0.081678
-0.162158
-0.094288
0.076213
-0.084680
0.051223
0.022303
0.071043
-0.083640
-0.230410
0.013600
-0.053511
0.192134
-0.059730
0.044103
0.008374
-0.099451
0.149194
-0.042834
0.081369
-0.153730
0.122569
-0.089127
0.044006
-0.037649
0.282857
0.131117
-0.008459
-0.077774
0.017914
-0.016162
0.054706
0.206467
0.013260
0.024405
0.089594
-0.096306
-0.014122
-0.100629
-0.132009
0.148044
-0.005963
0.073799
-0.065862
0.109851
-0.030497
-0.088610
-0.011802
0.022519
0.050117
0.124632
-0.149520
-0.049869
-0.055078
-0.162710
0.067336
0.074934
0.019783
-0.022969
0.027598
-0.175462
-0.036084
0.066803
-0.062777
0.010397
0.032142
-0.032358
-0.062767
0.126715
-0.113017
-0.034882
-0.001565
-0.067778
-0.138742
-0.160100
-0.179700
-0.002471
-0.267631
0.258464
-0.030572
0.003663
-0.013400
0.055633
0.052822
-0.069787
0.087734
0.017196
-0.056245
-0.113521
-0.052373
0.051106
0.007766
-0.014006
-0.047582
0.077187
-0.052508
0.072016
-0.027421
-0.088546
0.035897
-0.165860
0.181381
0.084607
-0.228211
-0.131681
0.045221
-0.130399
-0.003780
0.060379
0.051469
-0.084585
-0.063790
0.004569
0.024627
0.082561
-0.048145
0.047967
-0.132022
0.030290
-0.105186
0.138101
0.205410
0.058331
-0.019672
0.091099
-0.212291
0.052331
0.174497
0.165847
0.081254
0.077416
0.104301
0.011037
-0.237413
-0.043077
-0.209904
-0.009432
-0.037672
-0.091087
0.260015
-0.028543
0.223318
-0.191316
0.034068
0.089670
-0.045165
-0.089190
-0.129103
-0.137366
-0.241251
-0.335216
0.135084
-0.083635
-0.344002
-0.181600
0.120451
-0.056920
-0.105342
0.124892
-0.100181
0.014655
0.077146
0.199267
0.151588
0.157214
-0.051825
0.079367
-0.051439
-0.406960
-0.139190
0.222614
0.015438
-0.216277
-0.199194
0.185558
-0.049522
0.033419
0.033456
0.038341
0.282746
-0.003630
0.092346
-0.105425
0.056322
-0.179032
-0.112279
0.192106
0.132530
0.323385
0.015006
0.105613
-0.236021
0.150794
-0.027185
0.220241
-0.120826
0.212568
0.105845
-0.288145
0.049709
-0.110018
-0.289254
-0.339219
-0.264506
-0.169466
0.116080
0.079587
0.162189
0.136785
-0.004291
-0.201338
-0.003405
-0.171958
0.053422
0.196934
-0.369206
0.019736
-0.158212
-0.049693
0.131794
0.340919
-0.172524
-0.031440
-0.077936
0.137564
0.010131
-0.173021
-0.175120
0.163748
0.084254
-0.229785
-0.089492
0.022006
-0.139857
-0.214432
0.166666
-0.003135
-0.058735
0.039796
-0.068967
0.091017
-0.184656
-0.210680
0.351105
-0.177904
-0.017010
-0.061093
-0.062325
-0.061676
-0.009734
-0.135289
0.091069
0.032833
0.020548
-0.026884
-0.015775
0.052849
-0.206513
-0.054005
0.118334
-0.220372
0.018091
-0.045221
0.201454
-0.065943
-0.003200
-0.034304
-0.166014
-0.062226
-0.048818
0.213635
-0.115121
0.127580
-0.002167
-0.006678
0.129732
-0.082160
0.242932
0.057047
-0.027986
-0.021246
0.183822
-0.029072
-0.015064
-0.127693
-0.014429
0.024957
-0.193323
0.074764
-0.147769
-0.024342
-0.162994
-0.222856
0.276418
-0.080949
0.147103
-0.083490
0.039912
0.119705
-0.061681
-0.081722
-0.082851
0.154632
0.000392
0.175313
0.095662
0.109233
0.013168
-0.054540
0.008631
0.021692
0.034966
-0.000275
-0.063770
0.071261
0.076581
0.094435
-0.093552
0.035817
0.112414
0.032530
-0.068437
0.052459
0.014589
-0.024089
0.124376
-0.020587
0.233093
-0.011447
0.045276
0.116173
0.136412
0.005867
0.067439
0.019081
0.076632
0.148926
-0.216756
0.087717
0.027084
-0.060060
-0.098724
-0.174727
0.276094
-0.084433
0.144880
-0.202856
-0.132132
-0.031912
0.075963
-0.205868
0.142665
-0.014930
-0.146899
-0.032201
-0.189393
-0.074547
-0.273562
-0.068831
0.091130
0.119041
0.015407
-0.101701
0.064831
0.058375
-0.061996
-0.073129
0.112465
-0.069427
-0.077685
0.040595
-0.169662
-0.180809
-0.022853
-0.059045
0.113167
0.136699
0.044635
0.003633
-0.120818
-0.133565
-0.339175
-0.170238
-0.056349
0.034595
-0.039420
-0.192401
0.060445
-0.094397
-0.039857
0.054502
0.111035
0.051091
0.020582
-0.069743
0.016415
-0.118636
-0.011669
0.179639
0.026182
0.006346
-0.067406
-0.067648
0.154086
-0.100955
-0.015797
0.105484
-0.092453
-0.033438
-0.079207
-0.047342
-0.007151
-0.075805
0.027457
-0.012039
-0.263417
-0.120925
0.138982
0.035682
0.046164
-0.082853
0.083322
-0.282494
0.133366
-0.105032
-0.186189
-0.081861
-0.028431
0.338215
0.304407
-0.128962
0.042853
-0.016269
0.091979
0.023943
-0.104332
-0.089188
-0.045203
-0.050701
-0.038263
-0.053616
0.196567
-0.164341
0.169430
-0.009941
-0.122514
-0.224648
-0.032797
0.214725
-0.182154
-0.052128
-0.013854
0.127687
-0.132529
-0.059705
0.031038
0.000187
0.103205
0.032025
0.101621
-0.029378
0.018190
0.215073
0.039280
0.084951
-0.067178
0.175064
0.035497
0.170847
-0.088750
-0.044130
0.303574
-0.019855
0.343947
-0.094210
-0.130685
-0.125815
0.020594
-0.001326
-0.264911
0.172860
-0.169859
0.107658
0.063082
-0.006390
-0.034703
-0.054326
-0.021630
-0.031232
-0.064519
-0.053346
-0.171951
0.046981
0.152017
-0.210779
0.069337
0.083579
-0.053534
-0.030071
-0.129040
0.009593
0.055841
-0.152518
-0.043882
-0.016219
0.036826
-0.239304
-0.133200
0.086459
-0.048366
-0.102319
0.069402
0.095963
-0.120846
-0.200007
-0.113022
0.095016
0.111559
0.089566
0.082914
0.087609
0.160504
0.162276
-0.206605
0.033232
0.077210
-0.106254
-0.077774
0.141237
-0.013818
0.250665
0.062585
0.181615
0.316277
-0.013640
-0.022951
0.064889
0.089801
-0.145941
0.145314
0.061258
-0.037395
-0.070947
0.116291
0.009723
-0.069524
-0.081845
-0.083754
0.044488
-0.108090
-0.124830
0.113044
0.127027
-0.040798
-0.281014
0.084563
-0.030536
0.121046
0.188706
-0.062423
0.005663
0.125940
0.019694
-0.070532
-0.136949
0.004577
-0.020099
0.048690
0.132060
-0.215712
0.035775
0.051403
-0.045098
-0.052294
0.047217
-0.061016
-0.047314
-0.017174
-0.119638
0.018257
-0.074835
-0.086629
-0.186509
-0.031931
0.139047
0.167146
0.078839
0.080593
0.083240
0.240078
-0.105212
-0.074463
-0.002045
-0.014207
-0.000721
0.091258
0.004645
0.149843
-0.269480
-0.164690
-0.095909
0.006896
0.032046
0.126842
0.019370
-0.098191
-0.115253
-0.155998
0.022560
-0.176638
0.005660
-0.158617
0.268627
0.089112
-0.175449
0.068313
-0.159167
-0.060187
0.033123
0.113964
-0.062507
-0.087383
-0.008731
0.019694
0.066433
0.053281
0.220650
0.337325
-0.209152
0.079125
0.181826
-0.117151
0.028811
-0.073209
0.017794
0.106711
-0.137618
-0.229169
-0.069204
-0.262498
-0.089639
-0.016193
0.006552
0.216844
0.009898
-0.041332
0.025154
0.103586
-0.186088
-0.151820
-0.079734
-0.052295
0.050839
0.044506
0.099221
-0.034224
0.066587
-0.225205
-0.002919
0.241193
0.156892
-0.028147
0.043927
-0.116779
0.038210
0.217608
0.015531
0.114026
0.117223
0.031146
-0.084799
-0.107716
-0.078944
-0.394170
0.059667
-0.145639
0.121811
-0.148108
-0.022182
-0.171529
-0.203254
0.208085
-0.091471
-0.001470
0.009141
0.026850
0.136357
0.029628
-0.123332
0.055526
0.048794
-0.079966
-0.145390
0.084112
0.082585
-0.036105
-0.054980
-0.061768
-0.028071
0.016817
-0.019224
-0.174281
-0.189989
-0.016471
-0.143271
0.024928
0.072128
0.035133
-0.093756
-0.055128
-0.094760
-0.048818
-0.058763
0.135145
-0.030537
-0.305574
-0.028153
0.056997
-0.020198
-0.041236
0.247811
0.305589
-0.133369
0.079077
0.034546
-0.021351
-0.308701
-0.318787
0.218083
-0.067133
0.072014
-0.167228
0.215858
-0.100274
0.022536
0.002540
-0.004622
0.159050
0.146751
-0.310237
0.033244
0.136938
-0.009932
0.222402
0.053857
-0.343607
-0.086435
0.051837
0.074705
0.131854
-0.033143
-0.042379
-0.002516
0.097675
-0.204809
0.075196
-0.245945
-0.037425
-0.162276
0.057034
0.124744
-0.029645
-0.008599
-0.011557
-0.212817
-0.102782
0.055227
0.014931
-0.083281
-0.023773
0.033160
-0.073742
-0.328200
-0.227229
-0.098406
-0.217595
-0.103109
0.058085
0.243914
0.022402
0.135240
-0.036048
0.121388
0.133531
-0.158403
0.002612
0.266265
-0.067965
-0.184958
-0.023389
0.126790
0.044240
0.199114
-0.104169
0.061814
0.067640
0.147310
-0.241659
-0.056068
0.102073
-0.168507
0.032882
0.089841
-0.010332
-0.042158
-0.138117
-0.067656
-0.183231
-0.008594
0.080696
-0.204349
-0.063623
0.234874
0.056204
0.035543
0.007261
-0.118141
-0.104764
-0.108511
-0.151072
-0.206433
-0.147672
-0.083680
0.086489
-0.059853
0.114925
-0.104695
-0.089180
-0.174408
-0.040241
-0.252412
0.016367
0.181677
0.097109
0.084278
0.040520
-0.099860
-0.164412
-0.057640
-0.048411
0.057061
-0.071312
0.089179
0.174816
0.150195
-0.006361
0.095878
0.004587
-0.005977
-0.105353
-0.189237
0.031957
0.061570
0.150943
-0.081051
0.183925
-0.059883
0.118085
-0.010689
0.047527
-0.135417
0.063681
0.013811
-0.050670
0.244729
-0.032842
0.114057
-0.050155
0.013508
0.055078
0.111244
0.307247
0.055087
0.164979
0.253071
-0.061757
0.082532
0.272711
-0.067977
0.178255
0.123144
-0.021935
-0.176237
-0.067968
0.122137
0.005260
-0.147250
-0.145783
-0.105025
-0.037237
-0.159878
-0.189283
0.138261
0.064177
0.106654
0.116993
0.050114
-0.155529
-0.191929
-0.090782
0.176107
-0.067964
0.216281
-0.041329
0.013339
-0.088995
0.083020
0.060579
0.313743
0.167646
0.094691
-0.165071
-0.156982
-0.111928
0.094006
0.143794
-0.110459
-0.127707
0.235303
0.015634
0.010638
-0.071775
0.050713
0.111978
0.085502
-0.020135
-0.119630
0.085284
-0.109254
-0.022984
0.045245
0.061827
-0.017536
-0.133647
-0.066641
0.089522
0.145826
-0.147212
-0.110481
-0.097827
0.065483
-0.038839
-0.021782
-0.074855
-0.093876
-0.108192
0.002393
-0.142241
-0.097754
-0.046648
0.205095
0.085647
-0.019783
0.234638
0.074154
-0.323586
-0.167073
0.005615
-0.063672
-0.149504
0.034438
0.013651
-0.088211
0.153307
-0.258836
-0.010558
0.043521
0.129645
-0.032586
0.074458
-0.058679
0.005032
-0.059344
-0.007272
-0.104378
-0.235869
0.049904
-0.151426
0.096006
0.053944
-0.219522
0.058363
-0.054384
0.031086
0.073580
0.218339
-0.152959
0.110100
-0.116678
-0.164089
-0.076110
-0.090960
0.187527
-0.175290
-0.098152
-0.254240
0.050355
-0.353854
-0.268003
0.019670
-0.045906
0.192004
-0.000186
-0.214081
-0.109016
-0.290794
-0.115773
-0.028161
-0.021271
0.075110
-0.312374
-0.010898
0.339229
-0.080935
-0.074864
-0.143139
0.126583
0.244318
0.023113
-0.178532
-0.024553
0.229445
0.108735
-0.212555
0.081209
-0.070360
0.102083
-0.074931
-0.087738
0.104681
-0.049911
-0.055047
0.097696
-0.077233
-0.051241
-0.148482
0.162816
0.039124
-0.028273
0.034744
0.030477
0.151953
-0.091929
0.134098
0.004758
0.069820
-0.048429
0.015895
-0.018291
0.258942
0.003153
-0.016319
-0.176088
-0.020134
-0.046393
0.021881
0.227322
0.106658
0.053882
0.090374
0.126422
-0.100283
-0.018181
-0.158726
0.159362
-0.138547
-0.037003
-0.131282
-0.090140
-0.184801
0.020102
0.000924
0.055625
0.060851
-0.036060
0.082469
-0.118443
-0.112715
0.038236
-0.275934
0.025745
0.051271
-0.080135
-0.133406
0.057665
0.022451
0.049263
-0.087673
0.057441
-0.000323
0.050913
-0.173535
-0.180091
-0.072126
0.015911
-0.038910
0.074584
-0.020863
-0.095581
-0.083894
-0.043204
-0.024117
-0.125312
-0.184148
0.016673
0.043292
-0.002862
0.159328
0.340236
0.231038
-0.104517
-0.091220
0.054916
-0.154354
0.048646
0.134022
0.019083
-0.144886
-0.155979
0.080425
-0.153472
-0.103021
0.112577
-0.031976
0.020003
0.176064
0.010308
0.042925
0.016747
-0.125398
0.002157
-0.129458
-0.038865
-0.062104
-0.207159
0.028422
-0.016601
0.172104
0.039204
0.057997
0.009484
-0.022271
-0.063058
-0.029711
0.080344
0.181100
-0.115041
0.053103
-0.095785
-0.085685
-0.123722
0.097707
0.185608
-0.102258
-0.049667
0.011459
-0.033865
-0.172817
-0.139974
-0.089851
0.107419
-0.008538
-0.366854
-0.090187
-0.085643
0.034716
-0.155176
-0.067862
-0.314148
0.007305
0.043530
-0.101495
-0.173431
-0.154772
0.248832
-0.068474
-0.027470
-0.282908
-0.106031
0.296022
0.284805
0.129230
0.063176
-0.004544
0.187504
0.091648
0.168959
0.185218
0.015223
0.007810
0.070892
0.111817
0.071496
0.043799
0.084168
0.055351
-0.082750
-0.220949
0.275009
-0.179425
-0.103986
-0.016732
0.118933
0.201017
-0.042416
0.031279
0.241873
-0.030878
-0.081414
-0.120259
0.201660
-0.120207
0.088792
0.081712
0.148386
0.148098
-0.230020
-0.012227
0.077121
0.103269
0.059621
0.147220
0.116530
0.178176
-0.099573
-0.275908
-0.294645
-0.171726
0.113125
-0.005476
0.010349
-0.096494
0.069857
-0.199158
-0.144505
-0.000947
0.044666
0.178762
-0.056725
-0.101429
-0.034694
0.015502
0.166363
-0.053274
0.057114
0.033045
0.068806
-0.119695
-0.252713
0.101988
-0.046347
-0.105715
-0.012517
0.149918
-0.063934
-0.154242
-0.081377
-0.060455
-0.207342
0.133766
0.086799
-0.147445
0.131264
-0.176221
0.087489
-0.064557
-0.095180
0.255359
-0.140220
0.057704
-0.036237
0.126424
-0.006104
0.037073
-0.025098
0.202133
-0.066456
0.151544
0.003837
-0.145924
-0.039725
-0.220906
-0.025705
0.197365
-0.093066
-0.158534
-0.007546
0.177571
-0.114933
0.060768
-0.000767
-0.085433
-0.065485
0.074710
0.028301
-0.068600
0.148245
-0.130692
-0.028030
-0.048450
-0.001646
0.117457
0.027426
-0.092354
0.096328
0.211497
0.064827
0.144993
0.041238
-0.036762
0.076151
-0.110048
0.125954
-0.278192
-0.157418
-0.107047
0.128079
0.084199
-0.001395
-0.063039
0.033244
0.206532
0.130913
-0.042674
-0.046693
-0.107832
0.019182
-0.047236
0.062487
0.150975
-0.107781
0.232043
-0.084401
0.039959
0.011767
0.043945
0.122875
0.030123
0.028894
0.090770
0.144228
-0.243934
0.070946
0.072352
-0.094314
-0.100904
-0.001260
-0.072863
0.111846
-0.232935
-0.114359
0.327675
-0.038535
-0.097345
-0.032285
0.018033
0.103036
-0.255312
-0.027274
-0.123113
-0.108487
-0.218252
-0.013790
-0.013024
0.145113
-0.183106
0.116432
0.146252
0.013952
0.390725
0.137578
-0.254547
-0.118941
0.126191
-0.018745
-0.105023
0.069444
-0.096690
0.081178
0.032597
-0.094478
-0.123670
-0.158465
0.028085
0.082067
-0.058182
0.003563
-0.208351
0.081952
-0.002542
-0.001183
0.075643
-0.036976
0.044108
-0.047205
-0.160861
-0.324350
0.066097
0.072820
-0.090863
0.148008
0.011308
0.075538
0.036516
-0.048700
-0.232574
-0.033780
0.025399
0.017924
-0.010858
0.004786
0.004986
-0.048926
0.062203
0.003988
-0.003635
0.079763
-0.150093
-0.188350
0.007960
-0.169483
0.147004
0.000112
0.051961
0.166592
0.051413
0.031387
0.061331
-0.079639
0.118352
-0.076862
-0.011500
0.143502
-0.082125
-0.060051
0.158593
-0.095771
0.043535
0.040090
-0.125502
-0.018507
0.066591
-0.156659
-0.045162
0.124458
-0.041990
-0.237262
0.160868
-0.031826
-0.167160
0.004061
-0.032289
0.138620
-0.146607
0.030777
0.159518
-0.200480
-0.265229
-0.077061
-0.195805
-0.124047
-0.256835
0.146780
-0.212478
0.068564
0.081037
0.054914
0.260994
0.072317
-0.216844
-0.141994
0.070320
0.224143
-0.068704
-0.050465
0.040794
-0.051815
0.068028
-0.024955
-0.115643
0.086609
-0.115547
-0.113684
0.054284
0.191155
-0.418700
0.154182
-0.149558
0.026727
-0.091508
0.155054
0.019728
0.149271
0.058119
0.166172
-0.016540
-0.053186
0.399213
0.198642
-0.177179
-0.101697
0.119246
0.090955
-0.082820
0.190982
-0.142733
0.025181
0.197757
-0.062341
-0.050222
0.113515
0.016896
0.018056
-0.024168
-0.014609
-0.074376
-0.042005
0.155205
-0.477231
-0.000388
-0.103810
-0.097928
-0.267137
0.008209
-0.003459
-0.042308
0.107591
0.115016
0.057323
0.078463
-0.152830
-0.077252
0.024262
0.035519
0.036080
0.207565
-0.011143
0.014102
0.230214
-0.135967
0.073097
-0.209938
-0.075779
0.031331
-0.045457
0.089728
0.286230
-0.036306
0.087228
0.013316
-0.021665
-0.003955
-0.037331
-0.117525
0.127642
-0.138044
0.002171
0.008470
0.103682
0.010658
0.083252
0.149261
-0.037416
0.028837
-0.022336
-0.119400
0.003050
0.139183
-0.065593
-0.256055
-0.141447
-0.190675
-0.095328
-0.170374
-0.029041
0.014379
0.140761
0.283983
-0.160831
0.076432
0.057081
-0.037905
-0.024503
0.030691
-0.097388
0.037659
-0.118265
0.051448
-0.118342
-0.045196
-0.056026
0.030012
0.117681
-0.006202
-0.137253
0.047325
-0.031461
-0.067464
0.004900
-0.096285
0.017517
-0.137711
-0.058056
-0.061175
-0.189280
-0.295698
-0.016461
-0.114710
0.059873
0.036798
0.025438
-0.017441
-0.003375
0.097167
-0.055494
0.030318
-0.243112
-0.278968
0.093818
-0.008236
-0.112014
0.000090
0.069359
-0.131521
-0.062097
-0.124578
0.116355
0.128609
0.081705
-0.175084
0.006621
0.033468
-0.059025
-0.104904
-0.023800
0.034580
0.139647
0.204892
-0.057068
-0.046507
-0.051230
-0.155412
0.116517
-0.188272
-0.049654
0.025874
0.076116
-0.041282
0.029752
0.069561
0.116166
0.111421
-0.271234
0.242050
0.024815
-0.079904
0.165843
-0.041179
-0.100883
0.168070
-0.013635
-0.108211
0.064140
0.070133
0.021686
-0.013310
-0.059726
0.144086
-0.009952
-0.030242
-0.049708
0.155140
0.001744
0.026426
-0.148529
0.003971
0.134059
0.196750
-0.080731
-0.319516
-0.039822
-0.114650
0.119981
0.407490
0.195999
0.060259
-0.031979
-0.001581
0.107132
0.195506
-0.105876
0.375118
-0.130943
0.044523
-0.195706
0.082307
0.019139
-0.302295
0.003475
-0.078574
0.212478
-0.200290
-0.093297
0.105412
0.030480
-0.016896
0.032505
-0.085292
-0.021364
-0.117071
-0.095419
0.146088
0.118046
0.020661
-0.104349
-0.087912
0.021822
-0.055033
0.133625
-0.119364
-0.008466
-0.078767
-0.085719
0.000728
0.011629
-0.017037
-0.109264
0.058804
-0.169099
0.037065
-0.159807
-0.132646
-0.038592
-0.483520
-0.097736
-0.112086
0.058026
0.010151
0.044959
-0.079234
-0.134010
0.385901
-0.130634
-0.062097
-0.280464
0.090400
0.065784
0.051057
-0.110674
-0.146113
0.182486
0.113234
0.215877
-0.168500
-0.249525
-0.041312
-0.066196
-0.049817
-0.026813
0.019747
-0.068830
0.122439
0.152207
-0.040768
0.086918
-0.148472
-0.023703
-0.127018
0.030953
0.070501
0.047825
0.045627
-0.019304
-0.103412
-0.052448
0.029905
-0.022376
-0.059485
-0.113594
0.099449
-0.269432
0.194224
0.054384
0.058560
0.133158
0.047237
-0.056247
0.148112
-0.170217
0.064993
-0.021704
-0.051260
-0.085976
0.005779
-0.077247
0.143808
-0.277212
-0.169765
-0.015048
-0.130786
0.079662
-0.028031
0.193049
-0.004500
0.108274
0.075931
0.101902
0.207757
-0.100494
0.090487
0.060348
-0.205023
-0.146965
-0.049348
0.013279
-0.027705
0.240303
-0.063945
-0.138872
0.039489
0.044977
-0.173167
-0.056849
-0.006168
-0.092373
-0.013671
-0.154344
0.011621
-0.035060
-0.250186
-0.019441
-0.258333
-0.161807
0.045212
-0.032244
-0.096211
0.025865
-0.006263
-0.172253
0.108947
-0.070988
0.093766
-0.127406
-0.068070
-0.192753
-0.117645
-0.020863
-0.031139
0.031599
-0.011659
-0.137267
-0.112457
0.083827
-0.073520
-0.095569
-0.029438
0.183019
0.057146
0.116382
0.114790
-0.215434
-0.027888
0.075621
-0.112769
0.102858
-0.005782
0.064298
0.108534
0.155775
0.003199
-0.026774
-0.022268
0.073011
-0.070985
-0.217751
0.154180
0.070787
-0.153579
-0.004689
-0.019906
0.028563
0.110567
-0.006307
0.190575
0.145002
0.045214
-0.089545
-0.060979
0.357248
0.021497
0.122931
-0.023404
-0.024863
-0.275855
0.023605
0.141152
0.011092
0.119897
0.071501
-0.053623
0.168213
-0.155380
-0.036597
-0.076531
-0.238858
-0.269298
0.002600
0.057869
0.132902
-0.032762
0.097669
-0.013775
-0.058287
0.047496
0.261058
-0.082022
0.067126
0.040130
0.048719
-0.168590
-0.137592
-0.154240
0.200347
-0.174968
0.113047
0.089214
-0.076932
0.045231
-0.168780
-0.115793
0.022298
0.084910
0.223062
0.187204
0.078973
0.262945
0.087901
0.132429
0.080426
0.008912
-0.277552
0.101733
-0.032653
0.152828
0.032171
-0.004719
-0.034339
0.127605
-0.175038
-0.008300
-0.135969
0.013026
-0.121377
0.019199
-0.149358
0.190516
-0.030496
-0.003427
0.243200
0.086870
0.163559
-0.062438
-0.086332
0.039826
0.099298
0.026191
0.004244
0.129044
-0.016575
0.016116
0.086887
-0.108473
-0.241757
-0.163449
-0.119480
-0.006840
0.131301
-0.126382
0.027773
-0.041714
0.146736
-0.105420
-0.317148
-0.185265
-0.024709
0.115058
-0.009494
0.092510
-0.112178
-0.137261
-0.060002
-0.282232
-0.021857
0.080031
0.046212
0.070042
-0.015498
-0.128411
-0.011821
-0.134444
0.116900
-0.247388
0.164106
-0.153059
-0.093792
-0.010723
0.000171
0.064465
-0.000641
0.137830
0.086715
0.098225
-0.228148
-0.069264
0.110135
-0.112198
0.177261
-0.190328
-0.099839
-0.144750
0.103145
-0.341680
-0.111880
-0.024365
0.040054
0.022739
0.023188
-0.022717
0.100691
-0.177861
-0.037364
0.074417
0.126625
0.101359
-0.361132
0.042954
0.342912
-0.148378
-0.055502
-0.052048
0.127011
0.230228
-0.003258
-0.274983
0.063585
0.165042
0.053243
-0.218824
0.045385
-0.063331
-0.000578
-0.011786
-0.056985
-0.037431
-0.066389
0.028579
0.130227
-0.255551
-0.002894
-0.241953
0.092746
-0.046471
0.059780
0.064514
-0.134162
0.267927
0.054141
0.127421
-0.078347
0.027943
-0.046812
0.026352
-0.099073
0.205026
-0.032256
-0.006866
-0.286649
-0.217788
-0.117387
-0.129004
0.046332
-0.017952
0.049676
0.035293
-0.135974
-0.134127
0.066345
-0.203830
0.080555
-0.169299
0.141335
-0.298916
-0.012517
0.045010
0.051692
-0.032746
0.115501
-0.060674
0.155528
0.037397
-0.138397
-0.021706
-0.107673
-0.189229
0.224473
-0.126930
-0.002855
-0.003077
0.056132
-0.006568
-0.014796
0.025383
0.131426
-0.103734
-0.084791
-0.054253
0.218794
-0.228662
-0.145587
-0.022526
0.122266
-0.026074
-0.157451
0.020413
-0.049032
0.227086
-0.243056
0.217194
-0.095151
-0.091663
0.078855
-0.077122
0.071673
0.106430
0.179757
0.122561
0.161164
0.020924
-0.139671
0.103902
-0.177620
0.031890
-0.039380
0.024043
-0.012547
-0.097984
0.115563
-0.083968
-0.091063
0.038111
-0.065975
0.298092
0.078760
-0.116760
0.254881
-0.075795
0.205657
-0.068422
-0.128983
0.015787
-0.047311
0.010775
-0.007991
-0.027465
0.122481
0.034894
-0.077725
0.043389
0.135656
0.192143
-0.076071
0.004442
0.044795
0.081101
0.001598
-0.085806
0.055811
-0.016484
0.084116
0.063016
-0.013015
0.001574
-0.253298
-0.126537
-0.023456
0.033835
-0.141942
-0.066893
-0.038775
-0.168175
-0.057248
0.194210
0.363263
-0.001044
-0.023391
0.017629
-0.199109
-0.224350
-0.021352
-0.233054
0.026883
-0.118106
0.032517
0.093767
0.494483
-0.018491
0.022654
-0.074778
0.058330
0.036781
-0.514726
-0.137855
-0.034736
-0.086521
-0.139909
0.117158
0.121335
0.036832
-0.079076
0.127363
-0.053674
0.097363
0.362318
-0.054743
0.163670
0.182240
0.234095
0.091290
-0.034650
-0.260217
-0.280153
0.214936
0.081258
-0.269306
-0.093050
-0.051433
-0.041952
0.090824
-0.031705
0.269515
-0.154357
0.069386
-0.089807
0.240235
-0.003360
-0.276424
0.165147
-0.197968
0.014915
-0.207973
-0.265600
-0.118049
-0.069060
0.118149
-0.073514
-0.159603
-0.155340
0.142977
-0.266454
0.013638
0.132732
0.297856
-0.123057
0.138510
-0.175853
-0.040513
-0.026705
-0.001596
-0.169032
0.034627
-0.061823
0.142828
-0.158582
-0.032076
-0.016037
0.149090
0.062186
-0.015342
0.169552
-0.148823
0.111442
-0.107104
0.010572
0.203271
0.075243
-0.031819
0.162351
-0.014128
0.106658
-0.016438
0.044732
0.067949
-0.134317
-0.038842
-0.019955
0.042303
0.019416
-0.132267
0.003737
0.093269
0.028863
0.070517
0.020321
-0.055848
0.014991
-0.237963
-0.074546
0.139650
-0.249742
0.020515
0.108108
0.159114
-0.074066
0.037595
-0.101784
-0.069659
0.042582
-0.039957
-0.270301
0.007569
0.047273
-0.064232
-0.082227
-0.106380
-0.378216
-0.158950
0.128373
0.031691
0.004324
0.125935
0.086581
0.050970
0.032075
0.077693
0.104072
-0.175821
0.056022
-0.023755
0.135583
-0.056518
0.018429
-0.108977
-0.055288
-0.130164
-0.092644
0.045156
0.163605
-0.128709
-0.038109
0.041061
-0.079423
-0.017611
0.024538
0.011896
0.013206
0.161053
-0.061499
-0.011775
0.141157
-0.075010
0.168207
-0.075901
-0.135806
-0.011883
0.080643
-0.260895
0.009655
-0.038286
-0.021486
-0.176082
0.194693
0.037683
0.246859
-0.298487
-0.172614
0.312205
-0.026932
-0.000934
-0.130375
0.141599
0.037448
0.090508
-0.048981
-0.038154
0.069595
0.188994
-0.181252
-0.058168
0.125227
-0.164261
0.012123
-0.022872
-0.147775
0.309728
0.086112
-0.316865
-0.176504
-0.030288
-0.119550
-0.100649
-0.020034
0.022181
-0.087598
0.079330
-0.217838
-0.138623
0.031649
-0.041067
0.058373
-0.028215
0.033849
-0.140964
0.081243
0.084605
-0.144898
0.047422
-0.005212
0.080981
-0.068433
-0.054668
-0.345522
-0.076149
0.022636
-0.143000
0.120931
0.126881
-0.035084
0.069298
0.051849
-0.232030
-0.183952
0.049475
-0.019841
0.033803
-0.148825
0.023669
0.000041
-0.055836
-0.168059
-0.079341
0.118216
-0.071935
-0.264234
-0.142914
-0.054965
0.097075
-0.010830
0.022822
0.096684
-0.057544
-0.071857
-0.019585
-0.065375
-0.018770
0.000258
0.181802
0.003065
0.110452
-0.175134
0.098372
0.072642
0.149395
0.164621
0.023222
0.004663
0.072019
0.032772
0.008759
-0.006474
-0.129088
-0.102995
0.099553
0.048751
0.040925
0.148258
-0.225146
0.137868
-0.139279
0.191602
-0.081036
0.080686
-0.042440
0.042468
-0.016626
-0.216566
0.269879
-0.159800
0.002965
-0.071620
-0.081936
0.201015
0.230620
-0.033766
-0.091086
0.001914
0.117553
-0.025910
0.024520
-0.076316
-0.013930
-0.023116
0.121096
0.043780
-0.276264
0.050390
-0.327265
-0.212032
0.152898
-0.022509
-0.108321
0.218520
0.068484
0.049318
0.128074
0.040618
0.021231
0.231170
-0.016076
-0.137311
-0.012385
-0.126952
0.373560
0.030638
-0.002710
0.107579
0.040162
-0.134157
0.164359
0.222023
-0.257313
-0.166989
-0.049153
0.049093
0.046726
0.320224
-0.126114
0.044399
-0.143424
0.091061
0.087771
0.121478
-0.017841
-0.533269
-0.082840
0.121949
-0.070734
0.069180
0.096809
0.078620
0.155772
0.135803
0.183402
-0.164718
0.070787
0.011933
-0.078072
-0.217368
0.116556
-0.113333
-0.445378
-0.047407
-0.047528
0.021384
0.022035
-0.015410
-0.116239
-0.404645
0.158952
0.121952
0.019744
0.205209
0.043848
0.077799
-0.020966
0.107608
-0.195755
-0.175063
-0.228379
0.102625
-0.252658
0.142407
0.017878
0.066580
0.067300
0.084031
0.087558
0.233421
-0.049961
-0.244780
-0.037692
0.031355
-0.180250
0.109006
-0.147608
0.169407
0.093823
0.064799
0.054132
-0.099536
-0.223812
-0.137619
0.096840
0.104130
-0.038694
-0.127352
0.091649
-0.147818
0.121398
-0.084938
-0.119274
-0.149320
-0.108929
-0.292765
-0.007918
0.046592
-0.046438
0.125563
-0.070202
-0.058850
0.115413
0.038124
-0.063507
0.004455
-0.005079
0.135905
0.005248
-0.067969
-0.062744
-0.159913
-0.324307
-0.090405
-0.265163
0.026767
0.052427
0.160702
-0.127333
0.056720
0.166104
0.029710
0.052052
0.033166
0.010377
-0.066649
0.009012
-0.177812
0.072007
0.010843
-0.104181
0.095411
-0.127125
0.059988
0.133117
0.111929
-0.000675
0.128093
-0.058793
-0.218649
-0.047387
0.007203
0.150473
0.194327
0.031290
0.035585
0.075816
-0.040415
-0.121106
-0.053804
-0.210377
-0.084283
-0.042334
0.090913
0.076164
-0.024663
-0.171012
0.076579
0.020769
-0.125421
0.051042
-0.039454
-0.199594
0.077192
-0.060436
-0.039855
0.193854
0.112098
-0.058813
0.111005
0.023281
0.063273
-0.359343
-0.090041
-0.129349
0.017294
0.057587
0.024934
0.060461
-0.055515
0.045317
0.072311
-0.008719
0.062065
0.014325
-0.148599
0.107869
0.013209
-0.233147
0.261071
0.172208
0.037796
-0.051986
0.005173
-0.042322
0.148778
0.221761
0.058238
0.169572
-0.213949
-0.066001
-0.229929
-0.059264
0.074820
-0.358835
-0.095269
0.005501
0.033494
-0.081461
-0.109939
0.026490
0.070466
0.125663
0.043779
-0.186194
0.040448
-0.180055
-0.137840
0.010503
-0.072833
-0.125888
-0.083570
-0.106186
0.019776
-0.118808
0.130977
-0.063726
0.052712
-0.011609
-0.068582
-0.034864
0.000389
0.101450
-0.004924
-0.159983
-0.027689
-0.030902
0.060051
-0.133964
-0.019503
-0.299055
-0.146917
-0.057390
-0.009298
-0.292597
0.108884
0.253561
-0.021369
-0.261577
-0.029836
0.008477
0.245008
-0.336409
0.057445
0.061421
0.129524
-0.118833
0.025326
0.107101
-0.079868
-0.103656
0.172855
0.004898
-0.094175
0.045146
-0.043951
0.005098
-0.035035
0.101378
-0.017956
0.294808
-0.028125
-0.163977
0.077794
-0.142515
-0.106119
0.176914
0.236545
-0.156671
0.085162
-0.071145
0.068006
0.254364
0.116828
0.018541
-0.078442
-0.026398
-0.150559
0.099394
0.015599
-0.328716
0.075563
-0.058252
0.086495
0.186709
-0.212567
0.030805
-0.139226
0.048267
0.033986
0.101415
-0.000835
0.046901
-0.182731
-0.102864
0.152000
-0.090893
-0.057216
-0.195548
-0.026337
-0.139966
0.116491
0.083884
0.023025
0.174651
-0.153392
-0.055692
0.139918
-0.119135
-0.240827
0.092468
-0.011761
-0.014570
0.385785
-0.055444
0.049991
-0.002825
0.134793
-0.380229
-0.240333
0.022300
0.046580
0.012323
-0.008552
0.032716
-0.238734
-0.120325
-0.079041
-0.075179
-0.029099
0.082946
0.159765
-0.115636
-0.040323
-0.183592
-0.262298
-0.025582
0.007208
0.042527
-0.184340
-0.098525
-0.120606
0.176184
-0.011242
0.011785
-0.032241
0.051075
0.169592
-0.175320
-0.066906
-0.158431
-0.174411
-0.288704
0.092570
0.181883
-0.034908
0.171597
-0.252938
0.056277
-0.061426
-0.152686
-0.023705
-0.030578
0.174251
-0.023387
0.117382
0.070288
-0.075058
-0.092598
0.047157
-0.152780
-0.005054
0.104796
-0.055356
-0.106284
0.044790
-0.006328
-0.045148
0.165204
0.108354
0.225003
0.102259
0.073907
0.022535
0.005706
0.281097
-0.028818
0.141427
0.051175
-0.048224
-0.249755
0.001184
0.240509
-0.121165
0.036114
0.015372
-0.148247
0.091501
0.007482
-0.049468
-0.135328
-0.027634
0.142991
-0.017055
0.127649
0.121957
0.133517
-0.054890
0.107257
-0.046502
0.113105
-0.033515
-0.017348
0.127516
0.049214
0.106612
-0.215536
-0.080395
-0.150630
0.016007
0.048630
0.159566
0.154260
-0.070089
0.160880
-0.041589
-0.239320
0.050819
