# Shape: (3, 3, 32, 32)
-0.056195
0.026923
-0.020749
-0.031446
0.012595
0.047726
-0.093151
-0.146606
0.054912
0.041998
-0.065605
-0.077878
0.041598
-0.026794
-0.054755
0.203113
0.065246
0.010177
-0.028710
0.004364
0.040194
-0.030875
0.057052
0.035738
0.058245
-0.100555
0.130265
0.050178
-0.063529
-0.042771
-0.011650
-0.073809
0.092821
0.003932
-0.104947
-0.080113
-0.059936
-0.060360
-0.002439
0.027473
-0.096207
-0.105062
-0.027033
-0.045446
-0.000440
0.056729
-0.047368
0.014282
-0.070656
-0.054108
-0.132106
-0.086118
-0.027154
-0.019710
-0.001416
-0.092174
-0.048279
0.006709
-0.098414
0.101768
0.119619
-0.038156
0.073345
-0.102398
-0.183681
-0.049352
-0.125052
-0.037155
0.015399
-0.052659
-0.149352
-0.081893
0.081407
0.108239
-0.102569
-0.067327
-0.058074
-0.032713
0.101627
-0.037854
0.039330
0.028079
-0.009431
0.030909
-0.012583
-0.017458
-0.048512
-0.065686
0.111789
-0.135765
0.018334
0.083466
0.025332
-0.057822
-0.036556
-0.132853
0.001836
-0.081732
-0.176197
-0.114852
-0.069776
0.058939
0.047532
0.010184
0.086763
0.114125
0.069892
-0.083313
-0.088963
0.054591
-0.057199
-0.033614
0.123651
0.104276
-0.093113
0.159087
-0.062544
-0.054976
0.087893
0.082622
0.008984
0.073358
0.109454
-0.053774
-0.046020
-0.011477
0.003753
0.033022
-0.097399
0.072369
-0.014941
-0.104668
-0.029981
0.037733
-0.141746
-0.046586
0.105189
-0.039542
0.104180
0.014385
-0.019444
-0.018035
0.061410
0.018637
0.061568
-0.067972
-0.107373
0.020360
0.036033
-0.136798
0.041980
0.083134
-0.021235
-0.121366
-0.091605
0.114597
0.035613
0.104131
0.059949
0.031077
0.047191
0.130652
0.158668
0.066168
0.082978
-0.047276
-0.082275
-0.061756
-0.097146
-0.008185
0.094944
-0.092792
-0.044989
0.037159
-0.071521
-0.039017
-0.098046
-0.098184
-0.000030
0.081346
0.058762
0.052613
0.130934
0.010514
-0.118032
0.026657
0.038344
-0.003786
0.025650
0.070127
0.003010
-0.008457
0.066655
-0.049654
-0.010513
-0.002555
0.071433
-0.018501
0.021224
0.003019
0.029287
-0.066070
0.012185
-0.082891
0.039069
0.010675
0.019999
0.153336
0.003294
0.022760
0.086861
-0.058067
-0.045687
-0.051926
-0.063789
0.135841
-0.009887
-0.126947
0.097636
-0.007230
0.011154
-0.082868
-0.051323
-0.019510
0.153172
0.024569
0.020585
-0.077860
0.136741
0.025445
0.001303
-0.079604
0.077044
0.055095
-0.111873
-0.116065
-0.098515
-0.136242
-0.028727
0.037976
-0.146337
-0.123266
-0.044001
-0.014084
0.004081
-0.058624
0.087866
-0.022999
-0.078216
-0.116725
0.008892
-0.019564
-0.067867
0.025233
-0.007518
0.021019
-0.044182
0.054148
-0.012745
0.023305
-0.060803
-0.106497
-0.066900
-0.000100
-0.174170
0.005387
-0.106201
-0.076004
-0.025740
0.010009
-0.047802
0.105345
-0.057854
0.028606
0.097290
-0.055724
0.121089
-0.144211
-0.016545
0.109901
0.053024
0.010524
0.155180
-0.085675
-0.026867
0.005720
-0.008877
-0.127255
-0.065894
-0.036469
0.068727
0.020451
0.111016
0.055929
-0.073974
0.080500
0.082934
-0.037519
0.107197
-0.029475
-0.096425
-0.007409
0.019306
-0.183112
0.104645
0.007894
-0.048582
0.001968
-0.097268
-0.050326
0.014754
-0.096622
-0.096117
0.029106
-0.073457
-0.016167
0.069294
-0.000575
-0.096787
-0.011560
0.003137
0.022462
0.084010
0.013528
0.023446
0.043248
-0.087866
-0.032785
-0.013246
-0.042894
-0.077807
-0.031542
-0.019642
0.137859
0.034412
0.061876
0.062795
-0.019477
-0.128266
-0.011379
0.040797
0.047165
-0.025753
0.038314
0.023582
-0.124773
-0.103709
-0.097214
-0.028632
0.064872
-0.066339
-0.041040
0.123264
0.057917
-0.114683
-0.124061
0.067697
-0.076415
-0.093261
-0.123543
-0.060022
0.090655
-0.009676
0.050189
-0.025682
-0.096600
0.069986
0.109271
0.023001
-0.079234
-0.010909
-0.097068
0.116130
0.094566
0.024455
0.015629
0.004457
-0.206430
0.015410
0.118363
-0.055030
-0.032664
0.045615
0.045273
-0.147921
0.105324
0.046333
-0.056159
-0.068620
-0.112169
0.107211
0.047757
-0.023504
-0.008839
-0.087613
-0.103372
0.098218
0.220059
-0.000205
0.042075
-0.059530
0.001220
0.041499
0.065596
0.005949
-0.139874
-0.051885
0.047278
-0.055929
-0.101616
-0.154170
0.012450
-0.104086
0.106343
-0.058878
-0.078598
0.059422
-0.035054
-0.102040
0.016542
0.000462
0.094589
0.061301
-0.012624
0.111639
-0.019190
0.021529
0.049673
-0.067476
0.045935
0.037725
0.093493
0.040962
0.041853
0.112606
-0.085583
-0.103460
0.001330
0.105928
-0.132339
-0.131586
-0.092221
0.042723
-0.031452
0.063817
0.094902
-0.001616
0.043430
0.074850
0.122047
0.064517
-0.029878
-0.038744
-0.099441
0.030185
-0.008780
-0.027561
0.011851
0.008263
-0.102330
-0.101459
-0.021946
0.068906
0.035507
-0.063300
0.075086
-0.093355
-0.014726
-0.042172
-0.120512
-0.097251
-0.004326
0.040041
-0.055155
0.012489
-0.074557
0.077471
0.059301
0.111917
-0.074275
0.000592
-0.033171
-0.054434
-0.064284
0.088321
-0.007640
-0.065001
0.066109
0.081196
-0.111067
-0.107201
-0.005726
0.090793
0.034057
0.093848
-0.055353
0.108738
0.108711
0.036517
-0.077491
0.048713
-0.042460
0.072250
0.059616
0.049186
0.070993
-0.068066
0.049180
-0.030358
-0.052910
0.049479
-0.010705
-0.152783
0.087797
-0.091629
-0.010648
-0.196822
0.065751
0.023903
-0.096788
0.057822
-0.012032
0.017203
-0.018205
-0.021194
0.042352
0.055602
-0.099519
0.137035
0.100863
0.043808
0.193687
0.122796
-0.079357
-0.126309
0.060849
0.069893
0.123032
-0.099230
-0.025268
-0.038052
-0.056049
0.040345
-0.039066
0.105680
0.062354
0.090208
-0.122126
-0.007666
0.082612
-0.031990
0.002593
-0.059592
0.045394
-0.033387
0.010384
-0.001296
-0.073212
-0.125653
0.071938
-0.090738
-0.152864
0.119257
-0.098050
0.120237
0.032867
0.071762
0.045054
-0.085966
-0.116326
0.105282
-0.034091
-0.042819
0.079320
-0.003357
0.091293
-0.000823
-0.029514
-0.057230
0.071625
-0.056168
0.110754
-0.118665
0.053207
-0.112407
-0.055849
-0.122754
-0.050161
-0.117387
0.040929
0.068386
-0.088751
-0.018223
0.086841
-0.010138
-0.001194
0.009757
0.025642
0.093528
0.108895
0.021425
-0.042288
0.022322
0.026041
-0.102185
0.064398
0.094299
-0.049588
-0.115745
0.099949
0.093488
0.047424
-0.003433
0.183373
0.003836
-0.002106
0.133408
0.039731
0.052503
-0.075844
-0.172861
-0.081171
0.063755
0.150585
0.106083
0.026034
-0.041063
-0.056299
-0.012605
0.019088
-0.002177
-0.013133
0.081990
-0.188841
0.064639
0.096099
0.077692
0.156578
0.031401
-0.048389
-0.047071
0.086766
0.048612
-0.081675
-0.083649
0.125347
0.030119
0.023642
0.185394
-0.092943
-0.036925
-0.060207
0.101972
0.043344
-0.034920
0.090081
0.009021
-0.170329
0.101187
0.055034
-0.072854
0.108353
0.026000
-0.040102
-0.023536
-0.026131
-0.093893
-0.152338
-0.096802
-0.000626
0.001465
0.024458
-0.111396
-0.028007
0.133973
0.009326
0.041318
0.075742
-0.016983
-0.056783
0.015983
-0.021124
0.106511
-0.107176
-0.070142
0.125363
0.046317
-0.032784
0.069201
0.023390
0.065314
-0.030862
-0.152705
-0.089586
-0.017771
0.065722
0.073383
-0.016460
-0.089259
-0.053825
-0.049077
-0.080311
0.053593
0.040170
0.111414
-0.033787
-0.106770
-0.106265
0.069993
-0.033021
0.065724
-0.043838
0.035537
-0.062952
-0.013170
0.048259
-0.119239
0.043125
0.041730
-0.116458
0.100911
0.100163
-0.054294
0.084587
-0.003665
0.009662
-0.004038
-0.000287
-0.055392
0.032385
-0.054838
-0.026401
0.134308
0.044305
-0.021754
0.006176
-0.114182
0.072508
0.013627
0.013340
0.019188
-0.086366
-0.011051
0.028557
0.024341
0.020549
-0.108123
0.097731
0.043110
-0.053090
0.031243
0.148313
0.027939
-0.046637
-0.075045
-0.048358
-0.005178
0.044595
-0.061893
-0.005516
0.022381
-0.131155
0.124646
-0.016451
-0.048965
-0.045571
-0.027088
-0.018297
0.011903
0.074781
0.055333
-0.091285
0.058555
0.037270
-0.032309
-0.122893
0.001262
0.108841
-0.024458
-0.018938
-0.038295
-0.036050
0.037353
0.001345
-0.023228
0.007604
0.063444
-0.006232
-0.018200
0.136516
0.040577
0.091405
-0.013469
-0.015984
-0.007456
-0.126021
-0.065828
0.115765
-0.128726
0.022158
0.022298
-0.134540
0.122415
-0.011096
-0.062491
-0.037320
0.008000
0.105260
-0.018224
0.011826
-0.036707
0.054092
0.085444
0.071269
-0.042781
-0.006447
0.151284
-0.095003
-0.075799
-0.028198
0.054012
-0.019468
0.059759
0.113107
-0.038167
0.100721
-0.062730
0.096606
-0.008511
-0.062712
-0.051184
0.032022
-0.018365
-0.030617
0.041549
-0.107677
0.030640
0.014124
-0.051456
-0.083525
0.107479
-0.100587
0.033334
-0.092724
0.121782
-0.049932
0.092931
0.013283
0.005213
-0.035376
-0.168970
0.013210
-0.062520
-0.044676
-0.000602
0.059230
-0.021751
-0.057585
-0.085563
-0.049382
-0.037368
-0.077109
0.012584
-0.059825
0.055567
0.105194
-0.027632
-0.046363
-0.011462
-0.003240
0.028713
0.049944
-0.033415
0.084582
-0.024789
-0.005269
-0.063020
-0.112475
0.009241
-0.060936
0.035960
0.043085
-0.015345
-0.180391
-0.070828
0.013164
0.117689
-0.033192
0.043194
0.050646
-0.002340
-0.018264
-0.015596
-0.039684
-0.026570
0.067604
-0.052483
-0.186309
0.105983
-0.067284
-0.015790
-0.014459
0.022382
0.032209
0.047133
-0.077300
-0.057830
-0.040314
-0.026948
0.064543
-0.079920
0.024390
0.007035
0.053676
-0.014391
-0.170955
-0.073740
-0.051315
0.069002
0.072700
0.092956
-0.038976
-0.126713
0.053300
0.029698
0.019875
-0.050127
0.022811
-0.060113
-0.083148
0.055343
-0.041469
-0.029569
-0.054858
0.053693
0.123372
0.030131
0.010937
-0.012123
0.150816
0.146030
0.078560
0.014050
-0.064181
-0.046679
0.008481
0.020462
-0.133214
0.049936
0.038897
-0.085378
-0.007943
-0.133961
-0.015364
0.022632
0.074182
0.124062
0.030888
-0.166388
-0.072735
-0.058312
0.109360
-0.008672
-0.132519
-0.118474
0.043512
0.029748
-0.007651
-0.140736
0.102157
-0.100662
0.038172
-0.037039
-0.008587
-0.093981
-0.044044
0.053277
0.052603
-0.068233
-0.070003
-0.040713
0.120857
0.055120
0.085678
0.051368
-0.097841
-0.047557
-0.045678
0.066034
0.020083
0.116810
0.061488
-0.041892
-0.047407
0.103450
0.056219
-0.039771
0.079918
-0.079735
0.034911
-0.047808
-0.067283
-0.099481
0.048606
0.077105
-0.075700
-0.102400
0.034423
-0.003111
0.071928
0.027911
-0.125786
0.112501
0.002012
0.002954
-0.031136
0.041053
-0.122693
-0.070776
-0.052555
-0.084804
-0.051798
-0.040094
0.072533
0.068758
0.095987
0.086792
-0.045602
0.038212
0.017760
0.002811
-0.079032
-0.050807
-0.021861
-0.009125
0.041464
0.013734
0.076885
-0.057312
-0.016626
-0.048443
-0.034425
0.039928
0.121720
-0.110421
-0.117140
-0.010313
-0.044527
0.049194
-0.073511
0.027840
-0.050265
-0.040837
0.075456
-0.130710
-0.039548
0.070098
0.102635
-0.038125
-0.033738
-0.067996
0.048885
-0.013942
-0.047518
-0.090609
0.039927
0.084754
0.000911
-0.124975
0.019776
-0.035009
0.048108
-0.088093
0.052467
0.041111
0.039802
-0.035258
-0.053038
0.071326
0.092962
0.001961
0.063697
-0.047574
0.067045
0.032388
-0.022921
-0.091632
-0.090552
-0.004344
0.054160
-0.049846
-0.110053
-0.067905
0.059322
0.114802
-0.094298
0.034675
-0.008668
-0.035531
0.023620
-0.058857
0.028359
0.156115
-0.007854
0.002310
0.118221
0.038119
0.017125
-0.064848
-0.143466
-0.033267
0.159222
-0.052208
0.033616
-0.076532
-0.023346
0.052324
0.007903
-0.002831
-0.084752
-0.064128
0.050414
-0.111966
-0.066864
-0.107041
-0.015538
0.107233
-0.108328
0.000164
0.017944
-0.012082
0.026206
-0.057764
-0.061987
0.092497
-0.063296
-0.050465
-0.005416
-0.021274
0.132873
0.023733
0.019650
-0.100572
0.113692
-0.086565
-0.054779
0.017034
0.012872
-0.013126
0.008169
0.108821
0.031194
0.046913
0.106333
-0.086094
-0.030758
-0.072847
0.078743
-0.038085
0.064718
0.090995
0.071542
-0.034541
-0.043925
-0.183519
-0.024409
0.023069
-0.122523
0.032921
0.057520
0.052513
0.028029
0.038370
-0.223886
0.160354
0.057468
0.095216
-0.161365
-0.109603
-0.098507
-0.030425
-0.091048
-0.042238
-0.112051
0.040059
0.058913
0.119542
-0.049994
-0.061709
0.038948
-0.001577
-0.101039
0.074995
-0.055105
-0.002179
-0.078824
-0.017820
-0.012032
0.022875
0.005012
-0.048942
-0.027747
-0.096914
-0.035221
0.002795
-0.002913
0.006671
-0.028555
0.030295
-0.123672
-0.048315
-0.000348
0.077771
0.044612
-0.073947
-0.032327
-0.049370
0.036777
0.063931
0.036387
0.069866
0.083787
-0.048199
-0.003760
0.084300
-0.085622
0.099363
-0.108801
0.096802
-0.007742
0.059026
0.018097
-0.067198
-0.036547
-0.014786
0.100348
-0.023314
-0.053720
0.035254
0.112562
0.032099
-0.054707
-0.076402
0.035382
0.007384
0.007579
-0.043543
-0.026513
0.104984
0.154012
0.082975
-0.123105
0.045738
0.002535
-0.019056
0.070404
0.112480
0.155190
0.072053
-0.113388
0.190428
-0.072147
-0.134621
-0.103198
-0.094401
-0.033389
0.007594
-0.072086
-0.013785
-0.109653
0.030856
-0.067708
-0.135828
-0.048197
0.163379
0.016453
0.030422
-0.158994
-0.032158
0.002835
0.043236
-0.060458
0.069040
0.095407
-0.047762
0.054939
0.044196
-0.099467
-0.043394
-0.007608
-0.043612
0.041622
-0.129665
-0.112336
-0.041866
0.182400
-0.024715
0.011317
-0.001576
0.012935
0.041592
0.012743
0.033312
0.041759
0.082955
0.003074
0.005472
0.013983
-0.029737
0.130391
-0.071475
0.020642
-0.016941
-0.064257
0.033386
-0.039068
-0.039855
-0.126512
-0.018501
0.111590
-0.079080
-0.074999
0.123218
-0.073251
-0.062014
0.096784
0.109282
-0.176216
0.088927
0.076307
-0.062798
0.049515
0.119595
-0.023854
0.033579
-0.038198
-0.043502
0.079033
0.017760
0.018098
0.073138
0.109930
-0.008527
0.121177
-0.015510
0.064439
0.097382
0.053877
-0.002824
0.062675
-0.056104
-0.030504
-0.022267
0.144883
0.025207
0.004936
-0.045258
-0.016324
0.046953
-0.036979
0.001113
0.067538
0.054819
0.032805
0.030750
-0.157330
0.038267
0.125631
0.013262
-0.071226
0.028409
-0.010939
-0.083603
0.032794
-0.045586
0.032485
0.001608
-0.061764
-0.081297
-0.121441
-0.084043
-0.035772
0.049255
-0.013156
-0.026374
0.079673
0.067069
0.066955
0.034562
-0.118558
-0.036604
0.078772
-0.156820
0.030682
0.033313
-0.195114
0.110961
-0.143455
0.109298
-0.085708
-0.055246
-0.114179
0.040584
-0.047956
0.007475
-0.065440
0.060913
0.056870
0.227649
-0.033814
-0.019757
0.017825
-0.068695
0.000293
0.023855
-0.007754
0.003842
-0.028069
0.110822
-0.141361
0.020808
-0.172175
-0.086137
0.019782
-0.097363
-0.101908
0.110611
0.044809
-0.042459
0.188681
-0.099219
0.036191
-0.121113
-0.002759
0.036377
-0.076068
-0.055836
0.101345
0.082043
-0.045701
-0.003582
-0.101036
0.048397
-0.019433
0.035060
-0.040310
-0.066729
-0.038062
0.059532
0.049234
-0.043124
-0.008194
-0.009730
0.001917
-0.115690
0.012248
0.065334
-0.109516
0.067895
-0.084172
-0.041333
-0.019095
0.122149
-0.001684
-0.085066
-0.135373
-0.010911
-0.028169
0.071907
-0.042832
-0.086483
-0.115386
0.094176
0.140479
0.071991
-0.052780
0.013146
-0.050582
-0.003709
-0.033728
-0.038847
-0.016927
-0.002809
-0.061961
-0.015058
0.008382
0.013281
-0.005330
-0.101158
0.013180
-0.024403
-0.061510
0.098680
-0.026136
-0.086768
-0.019893
0.040396
0.063740
-0.072315
-0.008131
0.095870
-0.032255
0.047499
-0.058077
-0.039931
0.095294
-0.072912
-0.034042
-0.180342
-0.026780
0.010467
-0.077286
0.057495
0.030915
-0.066314
-0.054307
0.040022
-0.060473
0.009402
0.095690
0.090713
0.052350
-0.011439
0.054058
-0.073404
-0.010515
-0.084837
0.095117
-0.057047
0.065955
-0.012631
-0.039598
0.103075
-0.018559
-0.007329
0.018930
0.150113
0.108590
0.096652
-0.025555
-0.071341
-0.071864
0.130392
0.194591
-0.053940
-0.130342
0.005992
-0.084581
0.300280
-0.028059
-0.124171
-0.065402
-0.079865
0.007738
0.033995
0.015352
-0.003913
-0.073630
0.008210
0.019111
-0.047894
0.093909
-0.086351
0.077003
0.074891
-0.084468
0.017268
-0.149005
0.005199
0.086329
0.088448
-0.105128
-0.036860
-0.011363
-0.067313
-0.018253
-0.010603
-0.025493
0.004449
0.051559
-0.008668
0.060780
0.021542
0.020961
-0.011710
-0.160177
0.021665
-0.041892
0.125034
-0.055805
0.049911
-0.009714
0.003295
-0.163446
-0.048641
-0.035336
-0.079827
-0.073628
-0.125130
0.024495
0.057043
0.016855
-0.006792
0.056321
0.094901
0.034133
0.077870
0.002539
-0.063987
0.042983
0.089737
0.002309
-0.038527
-0.059708
-0.044570
-0.099557
0.023099
0.041952
0.082940
-0.012851
0.083877
0.097158
0.001633
0.044651
-0.049134
0.029849
0.125213
-0.013515
0.064034
-0.020355
-0.000888
-0.030812
-0.087962
0.023368
0.125999
-0.074230
0.142123
0.136503
0.039109
0.041919
0.023605
0.107182
-0.088806
0.084018
0.100358
0.140369
0.105171
0.001679
0.088499
0.021817
0.015588
-0.017043
-0.063034
-0.169144
-0.016093
-0.012986
-0.022823
-0.131062
0.026482
-0.029684
-0.121639
-0.031027
0.139422
0.030850
-0.135517
0.106516
0.137964
-0.022277
-0.007297
0.076335
0.127186
0.054088
0.110759
-0.187536
0.033053
0.045430
0.133637
0.110767
0.005298
0.030268
0.015673
-0.058881
0.049652
0.016641
0.003856
-0.080087
0.002567
-0.041551
-0.078090
-0.171383
-0.119144
0.182727
0.094249
-0.122161
-0.102359
-0.031595
0.067873
-0.014269
0.127554
0.063980
-0.128915
-0.032442
0.069291
0.063209
-0.024276
0.036695
0.023689
-0.091319
0.069542
0.027558
0.013358
-0.061159
-0.075971
0.037993
0.049551
0.022156
-0.124812
-0.011083
-0.034554
0.110063
0.077593
0.047739
-0.079216
-0.065604
-0.043414
-0.055558
0.182321
0.003217
-0.027430
0.053658
-0.043511
0.042354
0.017532
0.104087
0.019345
-0.149480
-0.023056
0.117360
-0.027809
-0.030928
-0.005510
0.044408
0.083278
-0.093780
0.048841
0.062529
0.086918
0.103870
0.109212
-0.126277
-0.012346
0.092240
-0.007604
0.048422
-0.019347
-0.079837
0.051754
0.025712
0.132334
0.009251
0.032686
-0.120698
0.005843
-0.040773
-0.152683
0.024377
-0.078686
-0.026607
-0.054830
-0.103275
0.082979
0.025909
0.195604
-0.082458
-0.065126
0.145612
0.096216
0.057395
0.066304
0.016632
0.044430
0.061119
0.030682
-0.028900
0.125298
0.005467
0.071404
0.119072
0.023055
0.040998
-0.196045
-0.072802
-0.113379
-0.044977
0.010464
-0.137962
-0.099579
-0.124946
-0.008330
0.025500
0.125843
-0.086102
0.083267
0.119435
0.113829
0.025008
0.057196
-0.047326
0.072905
0.009762
-0.120134
-0.051974
-0.093002
-0.108696
-0.019083
-0.027052
0.021098
0.013667
-0.014956
0.101300
0.024234
-0.188590
0.006321
-0.174357
-0.045194
0.049911
0.023662
0.044330
-0.091656
-0.098843
0.007194
0.130334
-0.056561
0.001488
0.069431
0.098840
-0.058455
-0.022150
-0.043991
-0.112893
0.002976
-0.033261
0.028643
0.026987
0.013322
-0.040402
-0.131683
0.012084
-0.024486
0.040813
-0.116436
0.016383
-0.018654
0.005865
-0.056976
-0.117194
0.017403
-0.092536
0.081955
-0.031585
-0.020536
0.007322
-0.144224
-0.008812
0.020285
0.040459
0.108260
-0.052285
-0.012834
0.039160
0.127273
-0.062234
0.033167
0.049815
-0.070650
-0.052291
-0.093299
0.030118
0.114105
0.142325
0.013993
-0.042684
-0.090807
0.062192
0.088832
0.052633
0.031589
-0.101786
-0.027005
0.097122
0.010146
0.053851
-0.095206
0.042564
-0.015194
0.089592
0.095053
-0.048795
0.098856
-0.108545
0.023974
0.032321
-0.031675
-0.071981
-0.155559
-0.043246
0.062620
0.002931
-0.052217
-0.020393
-0.046214
-0.057303
-0.104880
-0.050356
0.139321
-0.026026
0.102273
0.016407
-0.017273
-0.069788
0.064510
-0.031001
0.026880
-0.103138
0.057602
-0.009419
-0.028164
0.056812
-0.065710
-0.090631
-0.006980
-0.125461
0.099928
-0.087009
-0.036791
0.004959
0.032262
-0.095908
-0.008991
-0.004901
0.064895
-0.095926
0.144497
-0.028663
-0.015014
-0.001421
-0.064192
0.116232
0.014109
-0.030855
0.016781
-0.054830
-0.022579
0.095765
-0.109274
0.013836
0.074924
0.054722
-0.103629
0.018081
0.100783
-0.134993
0.113763
-0.028722
0.065339
-0.064940
-0.008038
-0.083070
0.038130
-0.049364
-0.012069
-0.089881
0.086569
-0.018780
0.031762
-0.005213
-0.138107
-0.031109
0.075896
0.178445
0.099400
-0.025587
-0.055466
0.038705
-0.032857
0.016418
0.010072
-0.012199
-0.076733
-0.048465
0.027405
0.017725
-0.037111
0.053970
0.014956
0.027888
-0.068812
-0.064286
-0.105800
-0.073474
0.065154
-0.009399
0.086930
0.117518
0.022410
0.079185
0.026504
-0.018287
0.020146
-0.069047
-0.074471
-0.007064
-0.073344
0.005290
0.020407
0.139283
-0.089433
-0.005077
-0.028508
-0.002767
-0.054027
-0.024224
-0.087119
0.133948
0.038692
-0.083178
-0.022229
0.067423
0.116364
0.071667
-0.065727
-0.037074
0.100120
-0.064536
0.083724
-0.039111
-0.015301
0.031943
0.048977
-0.062692
0.144791
-0.125947
-0.056178
-0.041941
0.074429
-0.022044
-0.037801
-0.001369
-0.069925
0.068929
0.125583
-0.073888
-0.061305
0.094356
0.097969
-0.003687
0.004293
-0.002098
-0.105448
-0.132176
0.018764
-0.012937
0.056449
0.144164
0.067259
-0.008083
0.065350
0.019011
-0.033934
0.023059
-0.145933
0.072929
-0.069114
-0.096534
-0.063484
-0.050667
0.029962
-0.017286
-0.160767
0.131707
-0.013292
-0.115346
0.085020
-0.046603
-0.096305
0.005819
0.069266
-0.072097
-0.002931
0.106238
0.004230
-0.000331
-0.016530
0.051019
0.007753
0.101220
-0.126251
0.018096
0.001486
-0.027759
0.102319
-0.029744
0.047320
-0.037343
0.015278
-0.104176
-0.048487
-0.143002
-0.020652
0.040756
-0.008285
0.103161
-0.002035
0.063476
-0.072465
-0.030861
0.083285
-0.057760
0.089400
-0.063718
-0.040426
-0.072639
-0.101481
-0.156043
0.141754
-0.074505
0.023973
-0.146408
-0.112098
0.079893
0.067600
0.032548
-0.037404
-0.110968
-0.020392
0.045524
0.026071
0.035778
0.109278
-0.042854
-0.083425
-0.156007
-0.023552
-0.070818
-0.076442
0.067559
0.017633
0.013957
-0.009535
0.043580
0.064625
0.015342
0.003341
-0.011882
-0.028151
0.019075
0.012523
0.004165
0.031523
0.004775
0.095764
-0.080173
0.013155
0.078703
0.094098
-0.091512
-0.049217
0.146551
0.073933
0.084374
-0.017973
0.044185
-0.093832
-0.100558
0.095383
0.012298
0.032791
0.140724
-0.040133
-0.015599
-0.017127
-0.059912
-0.031587
-0.031443
-0.050800
-0.031498
0.053041
0.127712
0.005140
-0.124996
-0.036475
-0.002682
-0.079214
0.102780
0.064168
-0.101574
0.005558
-0.016773
0.004511
0.118113
0.008276
0.006704
0.041628
0.004683
-0.111724
0.028983
-0.038559
0.028298
-0.138908
-0.003467
0.088863
-0.018184
0.057473
0.012474
-0.014982
0.020322
-0.110264
-0.067028
0.082337
0.032944
0.095612
0.127094
-0.039087
-0.125957
0.056646
-0.062878
0.064346
-0.063568
0.014202
-0.011102
-0.036730
0.084917
-0.083315
0.059197
0.009091
0.009394
-0.064246
-0.151683
0.018840
0.028613
0.060429
-0.018255
-0.038935
-0.036838
0.067285
-0.013712
0.115589
0.110612
0.029558
-0.005371
0.024597
0.021649
0.018578
-0.040379
-0.018724
0.121906
0.058484
0.091916
0.016741
0.046530
0.031709
0.011809
0.053903
-0.031123
0.008460
-0.122636
-0.093258
-0.052140
-0.017811
0.024258
0.125950
0.035873
-0.197647
0.074134
-0.004929
-0.017679
-0.088894
-0.098010
-0.056382
0.004496
0.053159
0.002862
0.187711
0.062582
0.005757
0.101776
-0.003810
0.026629
0.036047
-0.072047
-0.022099
-0.045585
-0.147721
0.057737
0.095423
-0.052743
-0.002894
-0.114494
0.100094
0.007075
0.050768
-0.075652
-0.154604
0.030311
0.001776
-0.098059
-0.022941
-0.074705
0.131432
0.100399
-0.023896
0.050973
0.087031
0.039781
0.031463
-0.040274
-0.009475
0.074594
0.040191
0.015202
0.037134
-0.026928
-0.009966
-0.014061
0.115046
-0.045889
0.003111
-0.054367
-0.020703
-0.111103
0.030069
0.022595
0.010637
-0.156207
-0.193887
0.074126
-0.047113
0.016030
0.015949
-0.061230
0.012806
-0.112696
-0.129980
0.094220
0.008040
-0.006987
0.112522
0.109403
0.000292
-0.054512
0.098687
0.028911
0.112556
0.114324
-0.007635
-0.024185
0.067489
-0.118107
-0.061983
0.053140
-0.041968
0.060681
0.043132
-0.029977
0.098052
0.005058
0.036991
0.016406
0.021322
0.066754
-0.000240
-0.064633
0.074878
0.050968
-0.036078
-0.088414
0.063372
0.053268
-0.029768
0.063220
0.155596
0.086126
-0.078502
0.092810
-0.061340
0.049062
0.059998
-0.073318
0.061112
0.027617
0.073096
-0.013183
0.020331
-0.067469
0.112144
-0.040436
-0.022504
-0.095551
0.108043
0.009702
0.002905
-0.081393
0.081887
0.026878
0.016002
-0.035193
0.054097
-0.037116
0.052398
-0.021316
-0.074897
-0.041829
0.059867
0.063935
-0.056080
0.037975
-0.065824
-0.130400
-0.080631
0.011833
0.055439
0.027036
0.067642
-0.096997
-0.019877
-0.057411
0.055635
-0.052104
-0.081413
-0.047863
0.128223
-0.003819
-0.105188
0.047894
0.057722
0.066364
0.149178
-0.091856
0.063890
0.085530
0.008216
0.004135
0.107650
0.145944
-0.119348
0.010124
-0.021687
-0.001495
0.002720
0.088095
-0.033613
-0.162372
0.107838
-0.180958
-0.080652
-0.004118
-0.150119
-0.069862
0.128207
0.044342
-0.049104
-0.123814
-0.018558
0.204523
-0.040565
0.043739
-0.038075
0.047418
-0.003042
-0.024905
-0.071402
0.058121
-0.064822
-0.112202
0.083755
-0.029654
-0.021325
-0.072550
-0.058321
-0.060879
0.059658
0.025839
0.090214
0.077217
0.110265
0.059280
0.042347
-0.151591
-0.128660
-0.140370
-0.039973
0.127899
0.042612
0.053638
-0.059237
0.032686
-0.089762
0.137674
-0.017737
-0.043516
-0.001926
-0.048448
-0.088031
0.061031
-0.050356
0.004112
-0.072537
-0.019707
0.047289
0.070706
-0.010209
-0.000590
-0.094889
-0.007434
-0.038414
0.043419
0.042409
0.055234
0.032534
-0.054610
0.026993
0.048035
-0.018615
0.013923
0.050211
-0.000202
-0.062102
-0.021184
-0.063098
0.105002
-0.002094
-0.062093
-0.188037
-0.072282
-0.084794
0.087117
0.138566
-0.066888
-0.038234
0.085685
-0.010858
0.065917
-0.042811
0.117550
-0.021398
0.053116
-0.134809
-0.053671
-0.094043
0.018075
0.104124
0.107160
-0.032263
0.010555
0.033159
0.036204
-0.055174
0.090183
-0.010593
-0.029109
-0.000535
0.182202
-0.063294
0.124765
0.141598
-0.004637
-0.142817
-0.030503
-0.084309
-0.067291
-0.085894
0.082840
0.099432
-0.154689
-0.025412
0.074831
-0.110112
-0.039280
-0.099520
-0.117837
0.115684
0.029279
0.023228
0.007535
-0.058627
-0.087354
0.066674
0.213967
0.051435
0.034413
-0.180532
0.086343
-0.057464
-0.006149
-0.015361
-0.153278
0.040757
-0.105348
0.032659
-0.027844
0.141288
-0.012469
0.036054
0.116562
0.074193
0.044033
-0.053293
0.074677
0.142415
-0.156783
0.035762
-0.077338
0.023972
-0.024178
-0.091197
0.070660
-0.131194
-0.144390
0.068146
0.040535
0.066383
-0.194656
0.081513
0.018660
-0.098853
0.099303
-0.050615
0.053091
-0.009751
-0.073774
-0.100921
-0.003293
0.096898
0.057353
0.075661
0.147852
0.014647
0.001153
0.016639
-0.086749
0.076415
-0.072864
-0.035121
0.087292
-0.100299
-0.058282
-0.044207
0.124703
0.077978
-0.126560
0.068239
-0.064243
-0.036591
-0.013993
-0.015447
-0.099086
-0.031566
-0.021377
-0.084677
0.072156
0.032748
0.040824
0.089573
-0.103096
-0.060476
-0.014632
-0.050209
0.024043
0.007904
-0.000521
0.048861
-0.027427
0.006235
-0.105619
-0.030766
0.118259
-0.025405
-0.078321
-0.005089
0.011662
-0.029780
0.032935
-0.027917
-0.058382
-0.042663
-0.183517
0.107365
-0.243961
0.036861
0.014830
0.114865
0.086681
-0.010097
0.099329
-0.030063
0.120483
-0.001286
-0.120847
0.015629
0.033630
-0.074134
-0.108355
-0.010733
-0.036868
-0.038036
0.066305
-0.085307
-0.085075
0.063577
-0.083215
0.000045
0.010405
-0.106126
-0.210529
0.046409
0.182617
0.053204
0.131621
0.016151
0.085519
0.106251
0.091489
0.031009
0.040048
-0.110613
-0.130370
-0.012641
0.082898
-0.018649
-0.028536
-0.046040
-0.088899
-0.046687
-0.113905
-0.033466
-0.089769
-0.061914
0.055778
-0.174911
-0.161018
-0.074278
-0.010079
0.067470
0.071607
0.016008
-0.032898
0.043590
0.006347
0.025632
-0.058600
0.070428
0.099497
-0.058571
0.082693
0.049247
0.024399
0.007080
-0.057074
0.037056
-0.110767
-0.114177
0.009455
-0.141897
-0.060428
0.217412
0.092218
0.067542
-0.022035
0.076048
-0.002067
0.084291
-0.001999
-0.065828
0.050345
0.070280
-0.037446
0.087581
-0.004594
-0.048678
-0.074124
-0.030289
-0.047490
-0.040860
0.151417
-0.122053
0.044148
0.072151
-0.103837
-0.126659
0.011565
0.050099
0.041969
-0.007478
0.053577
-0.012246
-0.014444
-0.113772
0.045838
0.017800
0.026628
-0.025470
-0.030924
0.023112
-0.069549
-0.085492
0.061828
-0.030829
0.019644
0.045269
-0.065509
-0.032799
0.019264
-0.018994
0.039413
-0.208107
-0.047629
0.037036
-0.051999
0.026925
0.100582
-0.063559
0.016977
0.028709
0.061362
-0.006695
0.031420
0.126432
-0.012961
-0.028353
-0.002205
0.006238
-0.033618
0.083725
-0.160909
-0.146565
0.027765
0.039192
0.096837
-0.060437
-0.063847
-0.021067
-0.063119
-0.106857
0.139640
0.032939
0.103830
-0.100897
0.008226
0.031439
0.099228
-0.049740
-0.067747
-0.096582
-0.095333
0.031022
0.143724
0.115983
0.108753
0.072139
0.032234
0.038239
-0.054532
-0.038158
-0.140869
0.077409
0.036799
0.012283
0.077338
0.097612
0.046290
0.036490
-0.007320
-0.083793
-0.026791
-0.103862
0.019135
0.053409
-0.002442
-0.025635
-0.088900
0.058967
0.068251
0.095068
-0.064978
-0.066691
0.079276
-0.038346
-0.085568
0.008129
-0.029420
0.108094
-0.069342
-0.076473
-0.034884
0.188195
0.017580
-0.031211
-0.009633
-0.027833
0.099020
0.045021
-0.002151
-0.074263
0.033919
-0.137033
-0.049000
0.080742
0.069287
-0.001098
-0.009284
-0.080167
-0.009495
0.052702
0.057814
-0.062160
0.059349
-0.081189
-0.075280
0.009499
0.057851
-0.085011
0.039563
-0.031664
0.044981
-0.028525
-0.026565
0.056143
0.045457
0.053270
0.094635
0.102365
-0.043401
0.037412
0.100922
-0.134661
-0.106490
-0.146239
-0.044721
0.017933
0.085945
-0.062433
0.143673
-0.079667
0.113713
0.217662
0.059908
-0.052526
0.050375
-0.101076
0.048311
-0.078824
0.027551
0.029557
0.063517
0.014850
-0.141928
-0.056373
-0.064417
0.075879
-0.021541
-0.054037
-0.049323
-0.050471
-0.159888
0.113126
0.008917
0.212810
-0.091448
-0.013089
-0.118632
0.107446
0.052303
0.108830
0.045085
0.073949
0.053909
-0.055566
0.012914
-0.080602
-0.030302
-0.033516
0.059804
-0.016833
-0.049209
0.077661
-0.137215
-0.039839
-0.036796
-0.147333
0.011327
0.013909
-0.001714
-0.003980
0.071767
-0.042491
-0.013365
0.046951
-0.129519
0.088583
-0.071846
-0.042322
-0.165707
-0.026768
-0.012394
0.022424
0.028413
0.086944
-0.038476
0.033384
-0.030937
0.100964
0.066335
-0.125938
0.045286
-0.105164
-0.037456
0.058323
0.065226
0.010774
0.009000
-0.009675
0.039281
-0.012150
0.020025
0.060165
0.023373
0.002975
-0.093030
-0.013800
0.028674
0.044657
0.090761
0.024209
-0.032644
0.024941
-0.004056
-0.008706
0.091587
0.055390
-0.020118
-0.037191
-0.083401
0.075785
0.017688
-0.020321
0.005689
0.017330
0.023270
-0.079329
0.078565
0.025167
-0.096150
-0.041082
-0.020940
-0.062476
0.087461
0.016153
-0.100422
0.064304
-0.112964
-0.065786
0.027284
0.114520
-0.041807
-0.010190
-0.169590
0.031179
0.107942
0.055092
0.104238
0.056673
-0.029371
-0.013537
-0.031236
0.057492
-0.014349
-0.038293
-0.115867
0.079228
0.048223
-0.097695
0.003552
-0.102667
-0.085262
-0.058522
0.086246
0.086323
-0.043283
0.048778
-0.011241
0.044894
0.117744
-0.172200
0.033882
0.036215
0.005934
-0.060509
0.054108
-0.155391
-0.018439
-0.038664
-0.006595
0.193313
-0.019338
-0.046841
-0.050704
-0.020641
0.098453
0.027757
-0.062814
-0.088126
-0.100785
0.056685
-0.059747
-0.050319
-0.060260
0.087244
-0.072065
0.005201
0.020468
0.025257
0.097382
-0.045725
-0.126297
-0.010661
0.029821
0.101526
0.083078
0.137633
-0.031224
0.113792
0.037570
-0.004538
-0.001695
-0.071434
0.066771
-0.074315
0.020867
0.092103
0.084965
0.003427
-0.105660
0.023588
0.142312
0.093897
0.112984
0.015145
-0.133276
0.039784
0.018204
-0.000252
0.028727
0.045742
-0.032050
-0.091115
0.027142
-0.132753
-0.015217
0.021643
-0.066378
0.075632
-0.130346
-0.128526
0.064082
0.084741
0.058011
-0.029690
-0.174038
0.017224
-0.068254
-0.082129
0.022535
-0.055759
0.030815
-0.066145
-0.055807
0.044385
0.104402
0.059496
-0.127117
0.009088
0.099514
0.024243
0.067667
0.094139
0.084788
0.069531
0.122244
-0.052956
-0.051456
-0.060451
0.098868
0.127711
0.036259
0.024971
0.017222
0.014468
0.061514
-0.075715
0.132030
-0.037979
0.111359
-0.069972
-0.075398
0.026069
-0.043789
-0.179277
0.102604
0.076654
-0.002612
-0.016844
-0.116395
-0.023589
0.044721
0.065053
-0.019152
-0.007476
-0.108618
-0.025233
-0.003219
-0.080117
-0.048674
0.085676
-0.031688
0.041462
-0.082785
-0.080445
-0.030823
0.091678
-0.034767
-0.081206
-0.139643
-0.028409
0.077812
0.077681
0.040130
0.051603
-0.041980
0.055427
-0.163912
0.030428
0.087893
0.007506
-0.024632
0.037242
-0.006962
-0.114891
0.132730
0.060307
-0.115674
0.084577
-0.100789
-0.059398
-0.084679
0.072944
0.131556
0.053115
-0.048266
0.122836
0.005357
-0.062424
0.058972
-0.069865
0.059907
-0.059807
0.033467
-0.111718
-0.068398
0.059046
-0.084310
-0.097874
0.047325
0.146632
-0.064758
0.032164
0.035463
-0.036366
0.109898
0.036102
0.058034
-0.087698
-0.007417
0.071191
0.069145
0.012985
-0.094599
-0.026904
0.077744
0.081858
-0.078434
-0.013625
-0.035107
-0.072149
-0.029820
-0.029381
0.124144
0.173441
0.096121
0.060516
-0.034353
0.031133
-0.105083
-0.179313
0.016149
-0.075131
-0.035555
-0.041917
-0.116132
-0.021529
-0.093034
-0.061018
-0.082139
-0.050978
-0.034314
-0.066629
-0.097790
0.058641
0.143583
0.104588
0.080986
0.052287
-0.049577
0.130124
-0.044573
-0.006944
0.187190
-0.054007
-0.011094
0.059813
0.013468
0.118664
0.018792
0.004135
0.035007
-0.023825
-0.056887
-0.050215
-0.098185
-0.095256
0.094013
-0.000788
0.003111
-0.027656
-0.139878
0.135459
-0.009986
-0.068339
-0.006005
0.099487
-0.171917
0.017826
-0.037732
-0.093501
-0.055669
-0.067717
-0.137406
-0.026536
-0.065296
0.062538
-0.022399
-0.026463
0.072376
0.013696
0.003499
0.073293
-0.022073
-0.076720
-0.007341
-0.111080
-0.031284
0.160255
0.007574
-0.038772
-0.091840
-0.036559
0.086813
-0.093554
0.061347
-0.135032
0.093931
0.089419
0.090708
-0.070252
0.029816
-0.067797
-0.072880
0.082590
-0.075502
0.022281
0.076507
0.053674
-0.066496
-0.119947
0.061137
0.119760
0.005205
-0.047608
-0.015921
-0.001497
0.009675
-0.008337
0.064508
-0.079540
-0.053962
0.006899
-0.020352
-0.151891
-0.036778
-0.107181
-0.065303
-0.067055
-0.093575
-0.039008
-0.029072
0.084990
-0.076579
-0.038038
-0.006985
-0.036520
0.005982
0.037394
0.068106
-0.017722
-0.055536
0.066022
-0.128699
-0.055529
-0.014966
0.029098
0.037682
0.061084
0.012016
0.072972
-0.072803
0.118497
0.070599
-0.031007
0.050334
0.004257
0.088560
0.025896
0.010833
0.072946
-0.023699
-0.026655
0.118695
-0.009732
-0.048692
0.042831
0.004834
0.092717
0.009822
0.038090
-0.087383
0.009325
-0.069700
0.178178
0.095673
-0.040424
0.048306
-0.150912
-0.060980
0.122886
0.081386
-0.115865
0.068056
-0.110841
-0.091421
-0.119580
-0.105751
-0.003090
-0.092175
-0.101044
0.008816
0.062650
-0.077579
-0.059949
-0.160381
-0.037553
0.098163
-0.079879
-0.017253
0.056550
-0.128437
-0.049737
-0.041094
0.009554
-0.024833
-0.150303
0.023746
-0.041736
0.048659
-0.000677
0.025838
-0.049234
-0.000269
0.147314
-0.010564
-0.050267
-0.044219
0.054805
0.030450
-0.085130
0.083485
-0.025608
0.003201
-0.019053
0.073073
-0.019281
0.013548
-0.042437
-0.060144
-0.006990
-0.007103
-0.092541
-0.040462
-0.097526
-0.088487
0.023639
-0.040530
0.025897
0.126327
0.098288
-0.000242
0.053720
0.049916
-0.037624
0.100813
-0.076181
0.033070
0.018199
-0.053976
-0.007266
-0.041842
-0.026675
0.062626
0.063142
0.050735
-0.107994
0.051582
-0.096735
-0.025016
-0.005242
0.005890
0.112463
-0.077748
-0.013227
-0.090426
0.003379
0.047535
0.038333
-0.045733
0.105024
-0.053940
-0.059034
-0.003972
-0.069368
0.046821
-0.077544
0.103910
-0.022965
0.079260
-0.006562
-0.043252
-0.017126
-0.009304
0.102441
-0.005993
-0.104675
-0.010729
-0.135618
-0.079203
-0.054249
0.085733
-0.052144
0.073262
0.058169
0.049979
-0.067201
0.024470
-0.036171
0.084522
-0.074286
0.018896
-0.051804
0.038072
0.000576
-0.075000
-0.162708
-0.072297
0.074034
0.104271
0.009382
0.115633
0.061661
-0.095151
-0.162392
0.102752
0.097435
0.000781
-0.030970
0.156529
0.149314
0.012658
0.016078
0.154028
-0.118242
-0.007776
0.046095
0.119598
-0.085753
-0.114846
0.079435
0.013086
-0.113386
-0.161106
-0.053197
0.081758
-0.042601
0.043748
-0.094664
0.092177
0.122054
0.025786
-0.080855
-0.056390
-0.081131
0.012063
-0.014643
-0.150216
-0.025028
0.039719
0.155115
0.000613
0.045449
0.007939
0.021817
-0.010476
-0.038184
0.051783
-0.013994
-0.111314
0.050884
-0.006758
-0.104375
0.099787
0.187216
0.017727
0.146810
0.022396
0.050325
0.039379
-0.040181
-0.008631
-0.054274
-0.049169
0.025292
0.015506
-0.127194
0.055994
-0.002771
-0.010857
-0.071817
-0.012551
-0.034399
-0.041522
0.087230
-0.143749
-0.012224
-0.094384
0.089155
0.005936
-0.059256
-0.165778
0.083529
0.040828
0.022304
0.111403
-0.070698
-0.023493
-0.082958
0.128147
-0.056107
0.081360
-0.019159
0.076995
-0.076081
-0.025292
0.015116
0.125079
-0.074830
-0.099707
-0.010641
-0.113629
0.155335
0.065463
0.016302
0.069883
0.014760
-0.004125
-0.102921
0.054666
-0.023074
-0.135887
0.036852
-0.071149
0.078404
0.021773
-0.002469
0.188246
0.042586
0.105262
-0.111564
0.112183
-0.015984
-0.086544
-0.007490
0.061543
-0.095073
-0.088140
0.089708
0.159632
-0.032965
-0.011066
-0.170939
0.063054
0.030987
0.090842
0.030551
-0.020555
0.111047
0.097769
-0.125201
0.089688
-0.070441
0.028087
0.006367
0.118831
0.094085
-0.208058
-0.063876
0.015793
-0.046926
0.062056
-0.048531
-0.058917
-0.025000
0.019719
0.022908
0.080997
0.108568
0.079400
-0.012610
0.027815
-0.023761
-0.114102
0.071659
0.011825
-0.032478
0.090514
-0.117877
0.008660
0.109215
-0.189427
-0.054990
0.104518
0.058157
0.073324
0.040279
0.038373
0.021016
0.012887
0.087348
-0.105800
0.021106
-0.103408
0.012312
-0.023523
-0.028994
0.024481
0.071507
-0.151427
-0.002621
0.082896
0.053774
-0.016846
-0.020992
0.064347
-0.159474
0.013200
-0.007887
0.029458
-0.109957
0.099910
0.040128
0.064078
0.101530
0.102185
-0.052997
0.116173
0.055187
-0.025122
-0.053767
0.147654
0.219460
0.032657
-0.090525
-0.014544
-0.021008
0.072381
0.072448
-0.056362
-0.011183
0.087415
-0.055318
-0.070877
-0.041763
-0.014320
0.014854
0.062610
-0.120293
-0.103503
-0.076444
-0.057480
0.059603
0.029948
0.002583
-0.065456
-0.010145
-0.030763
0.070328
-0.030433
0.130692
-0.070239
0.039037
0.013664
-0.110070
-0.063361
0.057799
-0.036116
-0.115914
0.052436
-0.030702
-0.008689
0.112650
0.042344
-0.039088
-0.157760
0.016265
0.043142
-0.057551
0.141946
-0.120240
0.086462
-0.085491
0.081666
0.078801
-0.089947
-0.053098
-0.091621
0.084359
-0.002283
-0.067885
0.016923
0.050919
-0.038187
-0.063843
-0.053781
-0.097118
0.085375
0.041872
0.115339
0.031140
0.055113
0.022910
0.037690
-0.136764
0.050689
0.071980
-0.023737
0.070793
0.086142
-0.028485
0.112139
0.053613
0.053037
0.044461
-0.078688
-0.070173
-0.080522
-0.051253
0.025541
-0.111107
-0.046868
-0.009816
-0.006684
0.042817
0.127177
-0.050959
-0.080444
-0.071618
-0.077441
-0.087914
-0.109892
-0.018054
-0.033810
0.026049
-0.004763
0.009143
0.028032
-0.164864
-0.059243
0.043410
0.109969
-0.114462
-0.167131
0.012418
-0.078673
-0.084966
0.095286
0.045278
-0.070447
0.053183
-0.028981
-0.042706
0.016951
0.078393
0.082016
0.025858
0.034644
-0.048494
0.013583
0.014475
-0.000225
-0.083454
-0.048711
-0.028607
-0.009147
0.014738
-0.057359
-0.044510
0.051418
-0.107568
-0.070019
-0.037463
-0.053355
-0.012402
0.003334
-0.039166
-0.087628
0.057186
0.061506
-0.150524
-0.037611
0.060436
-0.030577
0.097560
0.104469
0.056510
0.070608
0.014110
0.105438
0.106018
-0.014494
-0.052091
0.032890
-0.071297
0.104097
-0.036015
0.092047
-0.019898
0.012540
-0.056310
-0.180476
0.080734
0.167542
0.014920
-0.016036
0.003480
0.063057
-0.076331
0.098505
-0.060039
-0.078990
-0.045275
-0.122049
0.043014
-0.152757
0.098924
-0.080783
-0.010361
0.047369
-0.017847
0.036542
0.036016
0.043108
-0.082484
-0.128097
0.011245
-0.165638
-0.077792
0.104822
-0.051076
0.031589
0.000221
-0.089751
-0.083374
-0.015263
-0.036881
0.029337
0.077831
0.055261
-0.032884
0.143878
0.038172
-0.043772
0.034219
-0.022097
0.102302
-0.001787
0.056270
-0.069680
-0.191439
0.075096
-0.016607
0.111284
0.044202
-0.111885
-0.107835
-0.114519
0.076069
0.059521
-0.070487
0.079539
-0.142356
-0.004749
-0.134030
-0.089614
0.065765
-0.043338
0.067909
0.045337
-0.099540
-0.030949
0.051200
0.040680
0.003462
-0.123498
-0.023535
0.003597
0.105057
-0.017059
0.135642
-0.099725
-0.073587
0.111011
-0.064744
0.022411
-0.073297
-0.031506
0.083378
0.027238
-0.056041
-0.013113
-0.061775
-0.038633
0.087586
-0.077357
0.066201
0.053703
-0.066093
0.040463
-0.044827
0.066641
-0.059238
-0.052949
-0.062837
0.110735
0.057611
-0.018998
0.054134
0.014879
-0.099419
-0.047532
0.136014
0.060662
0.108011
0.117584
0.116038
0.017864
0.011301
0.085481
-0.074546
0.105312
0.055142
-0.008767
0.114205
0.023365
0.073026
-0.015464
0.054144
-0.058891
-0.001618
-0.130364
-0.093715
0.022383
-0.101273
-0.076794
-0.085222
-0.068308
0.038660
-0.000220
0.072292
0.135740
0.005654
0.068281
-0.103561
-0.093897
-0.053148
0.070864
-0.086750
0.069524
-0.107634
-0.040762
-0.078643
0.055515
0.187085
0.008235
0.036076
0.049058
-0.075510
-0.003574
-0.017141
-0.064292
-0.001889
-0.094732
-0.082237
0.038279
0.088602
0.018457
0.044167
-0.040735
-0.101293
0.104907
-0.047267
-0.015237
-0.038317
0.047307
-0.022354
-0.058817
0.117652
0.082518
0.072285
-0.022816
0.002856
0.156650
0.142431
-0.012590
0.024296
0.011518
-0.000748
-0.015905
-0.143484
-0.058783
-0.045469
-0.077849
0.148868
0.079215
0.079768
-0.010017
-0.123897
-0.107227
-0.034745
-0.026759
-0.053929
0.059951
-0.101245
0.112851
0.089545
-0.038149
-0.019937
0.012933
-0.009861
-0.005281
0.133571
0.078084
-0.040710
-0.018850
0.076445
0.003137
-0.109010
-0.037030
0.015870
0.090444
-0.023022
-0.111215
0.018536
-0.084900
-0.002483
0.044677
0.136649
0.089328
0.028708
-0.029014
0.078044
-0.057770
0.004189
0.032954
-0.101984
0.103481
-0.002511
-0.015037
0.041344
-0.038905
0.007711
0.048431
0.107223
-0.010329
-0.060618
0.007363
0.026433
0.062306
0.032982
-0.061226
0.076615
0.236681
-0.001624
-0.048426
-0.025532
0.014880
-0.022101
0.121972
-0.056663
-0.002111
0.108699
-0.061093
0.072891
-0.072326
-0.104104
0.064412
-0.059411
0.056218
-0.048162
-0.064882
0.025098
-0.009248
0.033549
-0.057126
0.024301
-0.088877
0.019166
0.082910
0.024754
-0.036942
-0.000531
-0.101180
-0.107364
-0.028137
0.104691
0.050059
-0.033307
-0.025573
-0.035099
-0.131730
-0.098877
0.033385
0.025771
-0.063784
-0.031517
0.108759
-0.007554
0.082899
0.096842
-0.129183
-0.040874
0.039241
0.071046
-0.064522
-0.016835
0.035071
0.023336
-0.137747
-0.019560
-0.124534
-0.072334
0.036421
-0.079756
0.043083
-0.112212
-0.045363
-0.109152
-0.094040
0.041215
0.070008
0.133082
0.090756
0.077844
0.096036
0.081878
-0.118749
0.005728
-0.028235
-0.036604
-0.028429
0.062949
-0.055308
-0.003364
0.065953
0.009740
-0.017609
-0.031851
0.054325
-0.017984
-0.137488
-0.061341
-0.023587
0.035476
-0.109094
-0.066586
-0.026787
-0.247909
0.049331
0.089670
-0.114056
0.021209
0.064132
-0.103971
0.045793
-0.068790
0.024180
-0.080857
-0.010910
-0.089715
0.135619
0.035768
-0.018984
0.176059
-0.099284
-0.037727
0.133171
-0.016692
-0.024291
-0.009985
0.071023
-0.096952
-0.011549
0.013519
-0.153146
0.007372
-0.126596
0.053532
0.167410
0.018793
-0.016174
0.063794
-0.024862
0.004627
-0.060567
0.069836
-0.084513
-0.107924
-0.131586
-0.070217
0.007722
0.045732
-0.095684
0.103995
-0.035599
0.098697
-0.028292
0.041879
0.026164
0.090240
0.014616
0.029693
-0.054028
-0.042953
-0.044051
-0.101851
-0.012220
0.004194
0.052668
0.157333
0.059019
-0.047886
0.027939
0.013335
0.020726
0.027646
0.059485
-0.018064
0.141282
-0.092206
-0.018897
0.082713
-0.048258
0.045039
0.049197
-0.047917
-0.099843
0.056788
-0.048520
-0.006710
-0.010641
-0.026322
-0.043009
0.012327
-0.045962
-0.016417
0.047552
-0.022815
0.016813
-0.039475
0.000814
0.093754
0.011509
-0.021257
0.060169
-0.006753
-0.052895
0.115162
-0.089748
-0.035230
-0.122037
0.057099
0.036067
0.021665
-0.048124
-0.144523
-0.005059
-0.127650
0.034299
0.012880
-0.113433
0.043098
-0.016542
0.017845
0.004212
0.026316
-0.064217
-0.022301
-0.056100
0.070364
-0.026990
0.042960
0.069580
-0.111300
0.077559
-0.059922
-0.015027
-0.019795
-0.083396
-0.025669
-0.036142
-0.101870
0.072012
-0.084749
0.103910
0.045285
-0.004977
0.073604
0.050877
-0.082096
0.028878
-0.032344
-0.117247
-0.055364
-0.093486
-0.118326
0.041402
0.153183
0.037758
-0.081174
0.066999
-0.041021
0.099767
-0.004316
-0.014086
-0.082388
0.029570
-0.070894
0.053623
0.058072
0.136555
-0.035559
0.078318
0.063707
-0.057013
0.065362
-0.027357
-0.027273
0.083650
0.128741
-0.174838
-0.054939
0.073808
0.083519
-0.066516
0.112371
-0.172454
0.003711
0.017533
0.014911
-0.093226
0.043157
-0.009845
0.158954
-0.082022
-0.047989
0.040458
0.178543
0.028097
-0.016799
0.047242
0.080358
-0.015704
0.037208
-0.082220
0.016685
0.101315
0.088158
-0.050834
0.076785
-0.056264
0.051010
0.090561
0.076695
0.109499
0.026962
-0.081423
-0.015114
0.059022
-0.123414
0.062599
-0.054403
0.047527
-0.099731
-0.070943
0.051702
0.105384
-0.008270
-0.023023
0.046607
-0.048461
0.050505
0.019672
0.101125
-0.078818
-0.046358
-0.096642
-0.068202
-0.065901
-0.079511
-0.009311
-0.003657
-0.059206
0.022053
-0.055943
0.005744
0.082068
-0.002174
0.000808
-0.040992
0.012960
0.073870
-0.002096
0.038821
-0.081047
0.022879
0.018303
0.027015
-0.054275
-0.002774
-0.007715
0.021217
-0.010382
-0.052772
0.103315
-0.025967
-0.080194
0.027825
-0.010523
-0.098496
0.102628
0.091076
0.050346
-0.044872
-0.021720
0.014177
0.041010
0.044271
0.133683
0.041728
0.056318
-0.088294
-0.002233
-0.007953
0.085522
0.015760
0.121788
0.045938
0.002953
-0.038316
-0.092311
-0.056121
0.063514
-0.020711
-0.000364
0.180356
0.093604
0.014198
0.104980
-0.079420
-0.084635
0.117545
0.033127
-0.091947
-0.133055
-0.063399
-0.120269
-0.095460
-0.101673
-0.122338
0.027900
-0.119980
0.096913
0.072122
-0.185893
0.004223
-0.109762
-0.061328
-0.015365
0.018212
0.002225
0.152275
-0.032906
-0.151556
0.056118
0.082753
-0.067992
-0.041109
-0.036963
0.017182
-0.041300
0.059601
0.096914
0.050296
-0.008942
0.008215
0.070181
0.063369
0.028675
-0.095486
0.104319
0.169776
-0.009494
0.005681
-0.117546
0.078336
0.029820
-0.057489
-0.056408
-0.030577
-0.138832
-0.032175
0.075040
0.001994
-0.090070
-0.065657
-0.058736
0.093692
0.150412
-0.023500
0.095197
0.074119
-0.024246
0.017343
-0.064936
0.007796
-0.051879
0.133933
-0.062886
-0.060775
0.097907
-0.097360
0.075835
-0.028710
-0.057594
0.075971
-0.076448
-0.054762
-0.055688
-0.024893
-0.054106
-0.048189
0.041396
-0.040227
-0.058190
0.170514
-0.086475
0.002711
0.030425
0.058215
0.089838
-0.095001
0.133357
0.083900
-0.172099
0.025653
0.016985
-0.000935
0.056837
0.088322
0.047296
-0.120697
-0.073265
0.011706
0.138573
0.121348
0.120813
-0.099877
-0.037223
0.190732
-0.051037
0.063001
-0.124024
0.083224
0.079374
-0.046093
-0.072720
-0.008300
-0.053927
-0.041208
-0.177100
-0.085898
-0.219353
0.038846
0.046540
0.120868
-0.086365
0.000237
-0.106373
0.166141
0.081181
-0.049117
-0.072024
0.005464
0.053167
0.137537
-0.029036
-0.045241
-0.013311
-0.059586
-0.159370
-0.032778
0.145978
-0.081251
-0.042624
0.081196
-0.036010
-0.037300
0.028453
-0.062194
-0.002662
-0.152407
-0.044722
0.118207
-0.117934
0.058012
0.018174
0.023165
-0.090636
0.032808
-0.143292
0.136755
0.002235
-0.059507
0.038927
-0.025540
0.022763
-0.045921
-0.030611
-0.124904
0.080687
-0.133281
0.020959
0.022927
-0.106728
0.031660
0.115770
-0.006751
-0.005323
0.091169
0.155716
-0.086316
-0.003661
0.025786
-0.082309
-0.094726
-0.089690
0.026672
-0.094215
-0.061303
-0.053887
0.014257
-0.114715
-0.011415
-0.021977
-0.035138
0.108714
-0.072656
0.072738
-0.171581
-0.060168
-0.097779
-0.031923
-0.043308
-0.004380
-0.016095
-0.040387
0.121685
-0.015716
0.007746
0.016058
-0.007575
0.019734
0.105632
0.046389
0.048377
0.005217
-0.051874
0.123796
-0.068434
0.027057
-0.029136
-0.026805
0.040339
0.050772
-0.061034
-0.036083
-0.032290
0.101831
-0.012872
-0.054617
-0.009288
0.060759
0.094566
0.018437
0.125339
0.021247
-0.063184
0.066260
-0.027357
-0.060462
0.103145
-0.054832
0.140876
0.008720
-0.012824
-0.073947
-0.050454
-0.128562
0.005266
-0.007355
-0.070390
-0.041545
0.105870
-0.065289
-0.068861
-0.050642
-0.060801
0.151193
0.128719
-0.026649
0.078800
0.159990
-0.077336
0.147933
0.056086
-0.104063
0.009189
-0.021945
-0.052930
0.006970
0.027149
-0.029106
-0.078840
-0.035067
0.028756
-0.098583
-0.081253
-0.009447
-0.013153
-0.075308
0.063943
-0.052985
0.014837
0.111740
0.006617
0.019469
-0.137449
0.040531
0.029186
0.120930
-0.050373
0.048023
0.051137
0.027871
-0.035548
-0.018493
-0.055388
0.009565
0.086662
-0.010957
-0.020231
0.072436
0.013033
-0.015253
-0.010506
-0.065909
-0.049344
0.026528
-0.065846
-0.045933
0.020333
0.058367
-0.038006
-0.045473
0.043982
0.111449
-0.024510
0.086017
-0.015453
-0.059855
-0.121949
-0.051510
-0.098561
0.068772
-0.066051
-0.135040
0.089872
-0.069832
-0.050882
-0.008865
-0.103461
0.055056
-0.121637
-0.056790
-0.015380
-0.002625
0.114071
0.031681
0.051888
0.068725
0.126396
0.134459
-0.008812
-0.086052
-0.096369
0.060979
0.008308
0.046637
0.013122
-0.073468
-0.085194
0.000254
-0.132985
-0.051850
0.090953
0.151411
0.100099
-0.015179
0.007732
0.072545
-0.035530
-0.121847
0.084595
0.020093
0.044566
0.111133
-0.114455
-0.032386
0.061124
0.070155
-0.069957
-0.012871
0.046010
0.030990
-0.038756
0.028540
-0.068741
-0.023410
0.212281
0.114444
-0.028339
-0.017556
-0.023077
-0.024782
-0.095219
0.010085
0.023820
-0.060031
-0.067755
-0.028716
0.035548
-0.014773
-0.019647
0.064478
-0.157255
-0.060408
-0.003528
-0.152878
0.030060
0.041067
0.137056
-0.083594
0.032788
-0.085544
0.017997
-0.090711
-0.073606
0.067018
-0.026806
-0.105178
-0.080642
0.024776
-0.108252
-0.052320
0.079613
0.055795
-0.025478
-0.050186
0.044046
-0.039507
-0.014092
0.089486
0.082585
0.010883
-0.034911
0.096951
-0.068796
-0.063982
0.128147
0.067996
0.009173
0.068327
-0.171932
0.007053
0.021978
-0.059832
0.105903
-0.082772
-0.103497
-0.098652
0.068506
-0.122312
0.098595
0.109338
-0.113126
-0.085047
0.011619
-0.056693
-0.005978
-0.023269
0.032393
0.086903
0.037702
0.110196
0.058528
0.113001
-0.130066
-0.005808
-0.115233
0.094700
-0.074975
0.090531
0.081879
0.113607
-0.071320
-0.016948
0.112296
-0.032563
-0.048310
-0.022978
-0.035680
0.011350
-0.065224
0.072762
0.017885
-0.086360
0.040536
0.045978
-0.057300
-0.054283
0.054620
0.110113
0.002852
-0.028528
-0.030791
-0.068908
-0.007094
0.030161
-0.004104
0.022824
-0.043437
0.046285
-0.023314
-0.126807
0.102746
-0.078813
0.073600
0.057100
0.145673
-0.183860
-0.098896
-0.033257
0.118235
-0.061344
0.036481
-0.060756
-0.042004
-0.051129
0.010650
0.099886
0.032854
0.045413
0.079585
-0.051195
-0.022140
-0.055009
-0.011821
-0.016162
-0.101008
-0.003591
0.102437
-0.051940
-0.026432
0.162058
0.050541
-0.068968
0.032688
-0.093893
-0.069029
-0.091537
0.086725
-0.021969
-0.021649
0.014716
-0.071049
-0.068937
0.311424
-0.018067
-0.053068
0.076338
0.022554
-0.059178
-0.012470
-0.064491
-0.013208
-0.148350
-0.054952
0.159048
-0.040968
-0.058587
-0.054026
0.009989
-0.032059
0.044542
0.058510
0.015724
-0.030177
-0.103961
0.049557
-0.108289
0.016666
-0.062124
0.005339
0.026610
0.055076
0.107682
0.039096
0.131966
-0.112288
0.051094
-0.042880
0.036681
0.022078
-0.130100
-0.045153
-0.059923
0.116554
-0.037059
0.048632
0.026074
-0.071900
-0.004441
0.089888
-0.058710
-0.154202
0.076965
0.006226
0.093840
-0.007297
-0.026481
-0.138539
-0.049395
0.113640
0.030728
0.044338
0.023643
0.096413
-0.197061
-0.158576
-0.052953
0.067039
0.027917
0.051963
0.066933
-0.071570
-0.013419
-0.019810
-0.054526
0.146400
-0.099263
-0.061900
-0.080350
-0.094030
-0.036046
0.025827
0.060378
-0.097181
-0.055424
-0.043989
-0.020008
0.078531
-0.061430
0.084818
-0.105150
-0.141761
0.044094
0.034798
-0.000862
-0.048121
-0.070762
-0.106150
-0.060449
-0.018858
-0.110349
-0.002782
0.168544
0.004849
-0.056996
0.088839
0.048610
0.063470
-0.034933
0.060453
-0.008384
-0.015390
-0.073720
-0.121602
-0.092662
-0.125191
0.069214
-0.069715
0.021577
0.118991
-0.045342
0.038550
-0.025765
0.030771
0.007616
0.045523
0.041556
0.209475
-0.097854
-0.092256
0.031280
-0.005245
0.022767
0.052663
0.010257
-0.062046
-0.030658
0.079401
0.071690
0.099787
-0.046742
0.053585
0.037496
0.047554
-0.089773
-0.087651
-0.020073
-0.027710
-0.061585
0.119653
-0.017868
-0.103938
0.152593
0.055392
0.097390
-0.108795
0.007527
-0.040990
0.022903
-0.087811
-0.000493
-0.003030
-0.062314
-0.050475
0.094865
-0.010901
-0.059493
-0.082952
-0.058318
-0.066495
0.073835
0.075761
0.007608
-0.120098
-0.090989
0.103730
0.038755
0.011955
-0.047821
0.025882
-0.114098
0.031176
-0.051131
-0.081249
0.018919
-0.055560
-0.127412
0.080293
0.070093
0.000185
-0.034377
-0.082603
-0.003447
0.066923
-0.054991
0.067477
0.097971
-0.108356
0.062683
0.002184
-0.037795
-0.178625
0.057674
0.042944
-0.025391
-0.071374
-0.073258
0.143821
0.078571
0.107332
0.120805
-0.040253
-0.088539
0.077284
-0.030022
-0.012741
0.154093
-0.052413
0.030624
0.021821
0.032071
-0.011574
-0.065367
-0.161065
0.015090
-0.068133
0.000502
0.041799
0.000687
-0.015470
-0.041050
-0.001891
0.018912
0.117761
-0.057159
0.091086
-0.084706
0.013761
-0.028419
-0.076285
0.037002
-0.017477
0.066902
0.123134
-0.072654
-0.060165
-0.094751
-0.012172
-0.021262
0.156726
0.044931
-0.049731
-0.136149
0.122480
0.007757
-0.027006
-0.017499
-0.000907
-0.031178
0.091837
-0.018240
-0.008610
0.026779
0.039243
-0.114673
-0.001186
0.056365
0.034358
-0.067694
-0.002269
-0.120927
0.140513
-0.071953
0.079690
-0.080457
-0.069773
0.081152
-0.094211
-0.052279
-0.125208
-0.042515
0.043658
0.151223
-0.091227
-0.042669
-0.032972
-0.023640
-0.004730
-0.067931
0.068337
-0.027052
-0.035565
-0.022495
0.105608
-0.006516
0.046225
0.047924
0.103063
-0.111904
0.024471
-0.168206
0.030964
-0.021788
-0.131888
0.080999
0.086942
-0.086755
-0.043946
-0.019813
-0.068995
-0.081635
-0.037887
0.053939
0.089427
-0.090742
-0.017690
0.013933
-0.070754
-0.028929
0.106966
-0.087242
0.016566
-0.031126
0.001364
-0.021879
-0.034237
-0.009487
0.080365
0.037449
-0.064443
0.053598
-0.060759
-0.091947
0.052117
0.020017
0.132453
0.021249
-0.043524
0.108778
0.039353
0.049818
0.051812
-0.114338
-0.074574
0.007287
-0.073960
-0.104795
-0.013864
-0.087676
0.019974
0.070354
0.057902
0.070582
-0.006663
-0.021787
-0.002342
-0.046318
-0.042672
0.085816
-0.052402
-0.064125
0.155316
-0.011199
-0.034479
-0.037114
0.009436
-0.093272
0.066001
0.013141
-0.014003
0.161758
0.031919
0.097321
-0.030603
-0.068236
0.158392
0.038145
0.075015
0.101743
-0.019312
-0.067080
-0.025676
-0.096695
-0.212397
-0.016977
-0.023557
-0.159981
-0.026776
0.024852
-0.030837
-0.036815
0.058638
-0.019297
-0.140034
0.075866
0.107470
-0.012563
-0.091096
-0.032925
0.158491
0.046122
0.022738
-0.108491
0.033998
-0.001834
0.037159
-0.107510
0.081588
0.070614
-0.137035
-0.088879
0.050744
-0.029907
-0.073061
-0.001284
-0.023136
0.090573
-0.008706
-0.018981
-0.050808
0.034746
-0.122820
0.039339
0.011582
-0.069402
-0.022574
0.006793
-0.071764
-0.076445
0.034929
-0.124871
0.057953
0.030683
-0.049976
0.079361
0.055722
0.020369
0.001129
-0.005575
-0.120196
-0.084242
0.045180
-0.072625
-0.086856
0.095017
0.014737
0.010317
0.086323
-0.107452
0.095293
-0.048104
-0.055340
-0.019998
-0.077138
0.074015
-0.071571
-0.127954
-0.068994
-0.100125
0.014172
0.070636
-0.011502
-0.060939
-0.148112
0.012565
-0.095457
0.038245
-0.097556
0.108631
-0.069258
0.049641
-0.013535
-0.103534
-0.127304
0.053165
-0.089644
0.165115
-0.051181
0.120265
-0.008309
-0.087702
0.002972
0.044859
-0.073631
-0.056047
0.009397
-0.016901
0.020623
0.124766
0.006494
0.009271
-0.163451
-0.142422
0.007855
-0.098628
-0.068715
0.046566
0.198078
0.100050
0.062962
-0.086172
0.037731
0.063773
-0.092418
-0.034110
0.025394
-0.027823
0.002483
0.068829
-0.058399
-0.028836
0.119306
0.006530
0.088029
0.044684
0.187019
0.062728
0.087714
-0.100038
0.120632
0.101696
0.005239
-0.078778
-0.035162
-0.014619
0.036716
0.060405
0.039530
0.036202
0.113808
0.102145
0.129977
0.050828
-0.037421
-0.202011
0.075065
0.025414
-0.137774
-0.001179
0.049290
0.045963
0.003263
-0.136053
0.057550
-0.151700
-0.043535
-0.005002
-0.002635
-0.114181
-0.141954
0.062612
0.008766
-0.074120
0.016621
-0.021451
0.041031
-0.034852
0.129830
0.130146
-0.062830
-0.031526
0.115755
0.119748
0.026169
-0.020535
0.028219
0.013696
0.096850
-0.041028
-0.071913
0.084291
0.134415
-0.038340
0.010472
-0.037396
-0.078928
-0.055628
-0.058788
-0.073461
-0.114396
-0.057629
0.218114
0.019928
-0.033074
-0.073207
0.121284
-0.073475
0.207926
0.051295
-0.110384
0.012918
-0.136366
0.041981
0.026107
-0.158111
-0.035500
-0.014223
-0.030676
0.005933
0.023440
-0.123962
0.056093
0.141284
0.026626
-0.005231
-0.071838
0.049966
0.049209
0.015765
-0.058428
-0.106013
-0.097672
-0.084386
0.060274
0.114910
0.020488
0.089907
-0.101884
0.006626
-0.111261
0.007323
-0.143094
-0.008466
0.057282
0.057837
-0.062921
-0.039577
-0.012035
0.019537
-0.069236
0.009497
0.031168
0.040055
0.026865
0.003920
0.103563
0.000352
-0.109472
-0.111889
-0.096110
0.070816
0.102144
-0.006242
0.010196
-0.081088
0.177891
0.077495
-0.000855
-0.097083
0.039658
-0.096396
0.004778
-0.021777
-0.096314
-0.078618
-0.112311
-0.040636
-0.039871
-0.095177
-0.079502
0.048871
0.078114
-0.044158
0.053937
-0.057490
-0.013917
0.001991
-0.016754
-0.084235
-0.031697
0.021671
0.043005
-0.016740
-0.007652
0.061665
-0.042826
0.063412
0.002639
0.030576
-0.090520
-0.134204
0.115478
-0.050280
-0.138499
-0.147136
0.038145
-0.046510
0.008832
-0.032117
0.083796
0.082025
-0.081909
-0.096362
-0.067667
-0.108707
0.035351
-0.116407
0.100672
-0.000158
0.027888
0.070385
-0.031852
-0.003121
0.060628
0.021562
0.110956
-0.074119
0.062053
0.108480
-0.105202
0.021515
0.001516
-0.012645
-0.007313
-0.024090
0.065018
0.044464
0.040723
-0.033469
-0.002413
0.115924
-0.032556
-0.033685
0.067214
-0.014306
0.080422
-0.065884
-0.099639
0.121081
-0.140597
-0.014776
0.117091
-0.084659
0.108777
-0.037378
-0.131874
0.075011
-0.040636
-0.099298
0.051571
0.005842
0.104466
0.007507
0.103569
0.104313
-0.111390
-0.076863
0.016024
0.069880
0.052637
-0.117552
-0.075820
-0.053989
0.056338
-0.151281
-0.013171
0.026627
0.076382
0.040134
-0.056230
0.084104
0.047543
0.015186
-0.129141
0.042011
-0.057969
0.018186
0.030686
0.000061
0.074621
0.013531
-0.034034
-0.053125
-0.011047
0.101702
0.002126
0.056956
0.046382
0.032839
0.094130
0.061694
0.046748
0.083803
0.065904
-0.003107
0.034032
0.018463
0.022021
0.043794
0.023642
-0.055888
-0.061955
-0.027024
0.102300
0.106993
0.008963
-0.082382
-0.050007
0.057614
-0.021800
0.075590
-0.019856
0.150838
0.045157
-0.021994
-0.033769
-0.058521
-0.012798
0.006352
0.013029
0.053935
0.005501
-0.063296
0.073514
-0.051463
-0.020662
-0.063173
0.018512
-0.024385
0.023481
0.111259
0.085104
0.058952
0.066086
-0.022248
-0.072399
0.029156
0.088654
0.000400
-0.068424
0.060239
0.080256
0.144582
-0.056926
-0.028115
-0.133425
-0.001531
-0.023893
0.038794
0.028597
0.012799
0.058427
-0.037720
0.131887
0.024968
-0.150687
0.027546
0.018730
0.020545
0.122733
0.075473
0.015344
0.036593
0.050465
-0.070390
0.001923
-0.035174
-0.050372
0.039761
-0.077395
0.010080
-0.091357
-0.017756
-0.130931
0.055094
-0.069070
0.008307
0.066516
-0.059857
-0.033467
0.018919
0.068791
0.046613
-0.018676
-0.089535
-0.180880
-0.038160
-0.078317
-0.040389
0.051972
-0.091486
0.092065
0.072956
0.021592
0.015171
0.094943
0.115732
-0.014295
-0.098570
-0.015897
0.121272
0.069710
0.011022
0.011609
0.012869
0.067818
0.052632
0.128197
-0.028458
-0.070824
0.040009
0.059996
-0.095001
0.055169
0.028976
-0.009832
-0.070845
0.094485
0.041733
-0.063416
-0.101555
-0.032450
0.038862
-0.073633
0.025070
0.027348
0.058155
0.080380
0.042091
-0.072095
0.041618
0.076136
0.064139
0.021409
0.047140
-0.028890
0.058572
-0.084935
0.069106
0.027843
-0.045477
-0.100798
0.085428
-0.045884
0.102668
0.031630
-0.001024
-0.000819
-0.011546
-0.038507
-0.020449
0.055586
-0.082446
0.070615
0.030582
-0.025077
-0.051346
-0.116234
0.028839
-0.070709
-0.048279
0.097116
-0.038488
0.081384
-0.029852
-0.031868
-0.020564
-0.008505
-0.059888
-0.028593
-0.066894
0.082212
0.115083
-0.006521
0.022908
0.099406
0.001667
-0.082829
-0.063902
-0.042877
-0.100154
-0.059979
0.108972
0.044361
-0.002950
-0.012359
0.059623
-0.043357
0.051850
-0.123032
0.017265
0.097682
0.049713
-0.029876
0.047501
0.103407
-0.014562
0.139994
0.044662
0.115480
-0.132227
0.041207
0.015634
-0.068359
0.003400
0.027289
-0.030068
-0.057234
-0.046221
-0.168187
0.103644
0.028379
-0.046447
0.005032
0.150755
-0.134148
-0.030259
0.041989
0.060989
0.066885
0.093661
-0.121924
0.035500
-0.186119
0.068843
-0.044459
-0.048021
-0.106891
-0.031535
0.085383
-0.088892
-0.038184
0.020999
0.104959
0.138136
0.161522
-0.089439
-0.059010
0.053796
-0.071304
0.065520
0.065784
-0.082535
0.024178
0.071146
-0.016225
0.047911
0.042769
-0.046681
0.081993
0.016576
-0.037963
0.091639
-0.031368
-0.068409
-0.002590
-0.006820
-0.146387
-0.015696
0.037702
0.070204
0.071832
0.038475
0.093463
0.061266
0.085873
0.033793
-0.106266
0.003194
0.070782
0.058154
-0.016926
0.193854
-0.002221
0.103019
-0.043529
-0.033349
-0.087181
0.139008
-0.064341
0.048099
-0.005733
0.041102
0.096352
-0.103508
-0.067655
0.089658
-0.118189
-0.082620
-0.084864
-0.118279
-0.013959
0.009672
-0.060730
-0.059442
0.088526
-0.115494
0.011493
0.116087
0.093698
0.026946
-0.047601
-0.136236
-0.072871
0.098306
-0.019375
-0.110032
0.034325
-0.023159
-0.007422
0.042758
-0.016169
-0.019396
-0.053966
0.017412
-0.058386
0.031076
0.042194
0.095486
-0.064100
0.121981
0.044358
-0.063394
-0.075787
-0.005568
0.033418
0.001997
0.125469
0.078784
-0.089498
-0.066507
0.100650
0.107267
0.097201
0.025635
-0.084737
0.033120
-0.008669
0.042462
0.040672
-0.081366
-0.024284
0.024545
0.096746
-0.085614
-0.038449
-0.079953
-0.019741
-0.070694
0.078214
-0.122177
0.027174
-0.007573
-0.000852
0.026191
-0.069161
-0.032696
-0.010266
-0.120914
-0.056432
-0.034790
-0.027956
0.084332
-0.017067
-0.030574
0.157275
-0.002238
0.019975
-0.061355
0.105940
0.091162
-0.094430
-0.074036
-0.005449
-0.038335
-0.041738
0.061202
-0.028582
-0.045666
-0.025843
-0.053832
-0.021716
0.072945
0.087478
0.076807
-0.090779
-0.081415
0.053166
-0.065293
-0.018630
0.009164
-0.129680
-0.153496
-0.092632
0.084113
-0.045333
0.078405
0.018553
0.019830
0.065815
0.106651
0.015551
0.003080
0.023291
-0.073577
-0.132467
0.077042
-0.003393
-0.065553
0.061530
-0.067633
-0.124222
0.046863
-0.107095
-0.065291
-0.086534
-0.082034
-0.055643
0.012330
0.001243
-0.064841
0.142509
0.003097
0.106740
-0.133726
0.015071
-0.062014
-0.001368
0.038478
-0.043305
-0.036902
-0.072780
-0.053330
0.063703
-0.000187
0.110764
0.008935
-0.070692
0.016782
-0.032017
0.044412
-0.062345
0.012585
0.024832
0.012966
0.029660
0.016959
0.118697
0.003869
-0.047855
-0.029914
0.000646
-0.000203
-0.052817
0.123177
0.082120
-0.089249
-0.043548
0.077990
0.028247
0.116509
0.029373
0.059878
-0.070614
0.016289
-0.171366
-0.061799
0.036217
0.136674
0.122259
0.125396
0.013930
-0.066205
-0.078970
0.112283
0.083609
-0.017001
0.087551
-0.164322
-0.020489
0.068034
0.048540
0.018728
0.067593
0.108411
-0.122130
-0.054785
0.024900
0.008882
-0.106557
0.012010
-0.038702
-0.091033
-0.056433
0.067898
0.019307
0.050819
0.046644
-0.026720
-0.073144
0.031798
-0.040513
-0.031755
-0.022962
0.007266
-0.004072
-0.106314
0.052455
-0.110404
-0.074723
0.156122
-0.056904
0.072235
-0.019577
-0.088857
-0.066273
0.023958
0.077138
0.042286
0.030359
0.006643
0.022590
-0.085677
0.055968
0.029181
-0.048419
0.038852
0.002057
0.001068
-0.024570
0.058441
0.041026
-0.050268
0.078731
-0.105080
0.059265
0.045533
-0.005580
0.030050
0.006690
-0.035072
0.093290
0.085531
0.013714
0.079713
-0.023263
-0.003510
-0.080663
-0.161874
-0.032864
0.034733
0.050070
-0.106221
-0.027220
-0.016715
-0.082849
-0.059627
0.038584
0.093202
-0.048255
0.001070
-0.031764
-0.029548
0.069928
0.029429
-0.017491
0.016100
0.062334
-0.102695
0.067444
0.013202
0.106988
-0.077989
0.072454
-0.057514
-0.065969
-0.133751
0.043831
-0.053906
-0.038715
-0.146159
0.108122
0.119949
0.072631
0.002923
-0.072780
0.032319
-0.056870
-0.000963
0.053745
-0.092224
0.027409
-0.008777
0.080789
-0.048155
-0.115518
0.151011
-0.039751
0.032133
-0.166555
-0.083306
-0.070949
0.091615
-0.066607
-0.047858
0.028886
-0.066004
0.090427
-0.048587
0.011717
-0.097573
0.035284
0.114723
0.000805
0.062025
0.018097
0.016432
0.083727
-0.061333
-0.002812
-0.043212
-0.113893
0.032678
-0.043877
-0.069837
-0.053837
-0.004401
0.109439
0.047495
0.000600
0.071898
0.014891
0.112039
0.038406
-0.030293
-0.046619
-0.035372
0.115119
0.117030
0.052579
0.039022
0.042670
0.061219
0.065945
0.096152
-0.025773
0.126357
0.058613
-0.085692
-0.039090
-0.126303
-0.079134
-0.034638
0.009774
-0.041328
-0.077885
0.101791
0.013708
-0.014693
-0.113453
-0.103621
-0.109545
-0.021384
0.007450
-0.125238
0.020356
0.089016
-0.115892
-0.072822
-0.073755
0.108128
0.032386
0.029525
0.002439
0.017626
-0.010711
0.021121
-0.079796
-0.105140
-0.060639
-0.002116
-0.079639
-0.075892
-0.037110
0.030111
-0.038043
-0.068938
0.128176
0.053524
-0.088013
0.017113
0.043549
0.080929
0.115400
0.110814
0.086275
0.016758
-0.071788
0.103538
-0.004396
-0.036721
-0.073758
0.019062
-0.068890
-0.040756
-0.055615
0.109915
-0.026445
-0.015432
0.106008
-0.019547
0.068872
0.077627
0.159915
-0.023739
-0.016976
0.029906
-0.036024
0.103960
0.065254
-0.062439
0.140930
0.039888
-0.032095
-0.045885
0.166515
0.138465
-0.034220
0.124710
-0.086674
-0.091488
0.125029
-0.116286
-0.183380
-0.021026
-0.066553
-0.001594
0.098105
-0.023715
-0.010293
0.118637
-0.173584
-0.107315
-0.072759
0.087560
0.115249
0.062476
0.027721
0.019828
-0.059163
-0.062426
-0.085977
-0.016725
-0.034778
0.025392
0.091965
0.100666
0.111881
0.144905
0.091489
-0.100862
0.060817
-0.020330
-0.011772
-0.145637
0.029434
-0.163785
-0.013446
0.081949
0.013342
0.035573
-0.058626
-0.000247
-0.123599
0.075166
0.115163
-0.071135
-0.008203
-0.049656
-0.072314
0.124880
-0.033367
0.079654
0.008005
-0.018271
-0.004138
0.167859
0.020240
-0.101802
0.080814
-0.098058
-0.104026
-0.029401
-0.111811
-0.008625
0.044868
0.083003
0.052290
0.005826
0.044023
-0.004947
-0.090658
0.081169
0.074531
0.059474
0.039293
0.033706
0.031649
-0.043311
-0.018689
-0.013461
0.128447
0.120483
-0.015752
0.085111
-0.143311
0.035571
0.080430
0.121594
0.063128
0.051646
-0.038945
0.043150
0.019955
-0.045790
0.019098
-0.023984
-0.033643
-0.071232
-0.037928
0.025293
-0.014257
-0.120945
-0.053958
-0.063915
0.060345
-0.024405
-0.006934
-0.151568
0.084765
0.021033
0.031459
0.122117
0.186838
0.101371
0.008154
0.014390
0.046448
0.018149
0.037750
-0.014047
-0.044842
-0.136074
0.039173
-0.110348
0.081437
0.150750
-0.089222
-0.112273
0.005503
0.110420
0.008394
-0.015593
0.069430
0.018919
0.065707
0.031277
-0.142124
0.066894
-0.118554
0.030455
0.095319
-0.043191
-0.140382
0.052176
-0.055602
-0.009413
0.018036
-0.061869
-0.062362
0.048436
0.118954
-0.029848
-0.050216
-0.047925
0.098512
0.020602
0.040583
0.091201
0.002421
0.045075
0.071221
-0.001462
0.008451
-0.088214
0.031106
0.006496
-0.005232
-0.027058
-0.115433
-0.145702
-0.052349
-0.062168
0.096225
0.115686
-0.053918
0.015771
0.038587
-0.079411
0.222909
-0.121606
0.035028
0.050764
0.076956
0.155048
0.055725
-0.097116
-0.000874
-0.018033
-0.179033
0.102317
-0.047501
0.104339
0.038677
-0.094305
-0.041118
0.153404
-0.100059
0.084898
0.014554
0.001792
0.130645
0.064751
-0.147328
0.071332
0.070655
0.007564
0.118189
0.114492
0.132553
-0.085289
0.100295
0.083527
-0.046997
-0.030032
-0.009709
0.110227
0.082362
0.095911
0.067860
-0.038962
-0.091350
0.108721
-0.004526
0.115079
-0.004675
-0.006128
-0.086973
-0.001075
0.033146
-0.028363
0.017100
-0.010429
-0.129759
0.140198
0.082951
0.104684
-0.009898
-0.056833
-0.080083
-0.011463
0.018477
0.054579
-0.055934
0.094304
-0.080874
-0.014799
0.081145
0.030507
0.001027
0.058658
-0.013842
0.013456
0.037373
0.185128
0.009383
0.062260
0.060097
0.059455
0.053609
-0.057579
0.045538
-0.023558
-0.023768
0.025953
0.079731
-0.046809
0.048657
0.004308
0.010450
0.001416
0.064598
0.114322
0.061288
0.009393
-0.097238
-0.079092
0.001283
0.019271
0.009741
0.008653
-0.100009
-0.040911
-0.070831
0.056033
0.086502
-0.026739
-0.049100
-0.092918
0.038654
0.084620
-0.091882
-0.071680
0.034771
0.001993
-0.125779
-0.046237
-0.110166
0.127786
0.053547
0.048289
0.017491
0.064183
0.035032
0.020800
0.104877
-0.027011
0.043836
-0.072252
-0.015388
-0.004336
0.114159
0.000483
-0.023165
-0.065024
-0.044420
-0.095000
-0.027492
0.032523
-0.123606
-0.131824
-0.106245
0.021373
-0.113031
0.074414
-0.082594
0.014442
0.009996
0.022389
-0.046667
0.048384
0.012408
0.103701
-0.043506
-0.081615
-0.006496
-0.034987
0.004942
-0.033387
0.035533
-0.109749
-0.035624
0.001018
0.009227
0.005229
0.105197
-0.049532
-0.076033
0.075914
0.082038
0.034342
0.024758
-0.024815
-0.007590
-0.031413
-0.052519
0.029912
0.005260
-0.039670
-0.041531
-0.033347
0.057447
0.004978
0.070411
-0.096535
-0.044181
-0.018342
-0.008321
-0.039937
0.041462
0.094305
0.079876
-0.073885
0.055871
-0.038442
0.036131
0.011313
-0.022197
-0.114054
-0.071886
0.114827
0.049512
0.042460
0.075182
0.000188
0.048716
-0.016095
0.045528
-0.048507
-0.094936
-0.051575
-0.013601
0.023779
-0.023165
-0.048669
-0.066605
-0.103212
0.073452
0.165724
-0.049679
-0.101708
-0.022441
-0.084573
0.048329
-0.122245
-0.023190
0.003813
0.044786
-0.012327
-0.133516
-0.041142
0.015031
0.126614
0.077382
0.015862
0.098083
0.109611
-0.084812
-0.036670
-0.049240
0.101903
-0.023057
0.083280
0.050012
0.051230
-0.082073
0.116090
-0.165922
0.118324
-0.130911
0.005234
-0.018197
-0.071045
-0.177577
-0.054037
-0.147084
-0.008265
-0.023498
0.010408
-0.087510
0.051619
-0.003517
0.019984
-0.059536
-0.059043
0.071211
-0.027158
0.018151
0.094438
0.068682
0.094048
-0.023471
0.069612
0.040067
-0.069011
0.117451
0.062688
0.083694
-0.135195
0.059740
-0.048729
0.066536
-0.015898
0.088444
-0.017727
-0.070651
0.040008
-0.067153
0.000338
0.053590
-0.075689
-0.029647
0.046355
0.065617
-0.036089
-0.108373
0.096836
0.105879
0.055438
0.064157
-0.063944
-0.112745
0.007211
0.057578
-0.025823
0.010918
-0.000279
-0.058216
-0.009003
0.029997
0.073632
0.000544
0.038126
0.107191
-0.128772
-0.050414
-0.066214
-0.056846
0.072278
0.059436
0.075847
0.019314
-0.048441
-0.166038
-0.067243
-0.016379
-0.031403
-0.086885
0.176364
-0.079540
0.047113
-0.061656
0.038219
-0.044556
-0.138708
-0.223934
-0.059284
-0.210026
-0.020061
0.038036
-0.272845
-0.052259
0.235252
0.048490
0.020778
0.098686
0.129678
0.072837
0.042531
0.116923
0.057896
-0.300006
-0.079020
-0.034120
-0.089261
-0.110228
0.056237
-0.047855
-0.008246
-0.047259
0.008567
-0.021723
-0.068873
-0.027939
0.069594
0.040513
-0.067759
0.094874
0.032467
0.048104
-0.011311
-0.108869
-0.108665
0.056281
-0.091842
0.008232
0.081075
0.021294
-0.107660
-0.056274
0.101370
0.007970
0.111570
-0.001251
-0.048698
0.072730
0.074242
0.031739
0.062767
0.016569
-0.153786
0.076934
-0.151022
-0.047043
0.081358
-0.106225
-0.040902
0.017770
-0.021433
-0.114638
0.155332
-0.028671
-0.016670
0.102080
-0.166130
-0.068541
0.043828
-0.017221
-0.030463
-0.004727
-0.056983
0.009632
0.050454
0.092125
-0.078596
0.002632
-0.094506
-0.011291
0.062464
-0.071359
-0.118015
-0.072012
-0.046007
0.092825
-0.116764
0.029608
0.018586
0.098769
-0.120808
-0.077569
0.077578
-0.074439
0.069978
-0.018034
-0.029538
-0.029373
-0.017070
0.020488
-0.038413
0.034901
-0.005841
0.032710
0.056619
-0.057777
0.011983
0.061037
0.089920
-0.082606
-0.084110
0.057250
0.159782
-0.032096
0.082092
0.104176
-0.154815
0.087050
-0.047684
0.079737
0.031228
-0.003386
0.134324
-0.007502
0.078840
-0.037973
-0.090522
0.012003
-0.042867
-0.081699
0.083276
0.028891
0.006398
-0.018884
-0.120328
-0.110655
-0.027054
0.117150
0.117980
0.033326
-0.085650
0.179268
-0.014506
-0.115585
-0.068150
0.066951
0.089222
0.065892
-0.082306
-0.057952
0.046752
-0.046325
0.064310
-0.060649
-0.094151
-0.074949
-0.035855
0.109733
0.043701
-0.002895
0.062810
-0.067588
0.081658
0.081412
0.023490
-0.093141
0.030117
0.055766
0.005683
0.004888
-0.058680
-0.063870
-0.100474
0.020454
0.025193
0.055866
0.098318
-0.129117
-0.086507
-0.036374
-0.019612
0.022139
0.034824
-0.014995
-0.030135
0.001243
0.029503
0.011168
-0.043069
-0.105470
-0.018097
-0.023235
-0.066962
0.122454
-0.066277
0.062786
-0.062299
0.020365
-0.013182
0.028371
-0.109012
0.096341
0.006225
-0.052783
-0.043653
-0.014901
0.011846
-0.095516
0.001014
-0.079962
0.037512
0.100532
0.095428
-0.102389
0.094473
-0.014046
0.117747
-0.080971
0.107007
-0.186018
0.022074
0.092249
0.080828
0.034077
0.071659
0.067073
0.121747
0.046913
0.136315
-0.053117
0.060250
0.007669
-0.131606
-0.158249
-0.013582
0.087259
-0.045954
-0.103380
-0.020684
0.120671
-0.025053
-0.064133
-0.022360
0.022926
0.001708
-0.033615
0.239206
0.079487
-0.071653
-0.113842
0.073588
0.096596
-0.057599
0.029161
-0.042021
0.007096
0.000679
-0.017548
-0.044870
0.062195
0.013694
-0.039602
0.069287
0.117993
0.068016
-0.034963
0.027196
0.119703
-0.018178
-0.008069
-0.013420
0.059206
0.055815
-0.019879
0.098417
0.106924
-0.046459
-0.024879
-0.015686
-0.115535
-0.060288
0.143977
-0.084025
0.020028
0.060138
0.068740
0.150055
0.004092
-0.032233
0.030521
0.130067
-0.000257
-0.081443
-0.081233
0.029752
-0.014895
0.078150
-0.004708
0.013326
-0.036930
-0.048930
-0.135754
0.008856
0.026876
0.008035
-0.057370
0.000248
0.046731
0.033723
0.020514
-0.160528
0.123952
-0.063166
0.015574
0.018230
-0.002950
-0.048239
0.044854
0.128277
0.030405
0.032744
-0.079774
0.051269
0.045184
0.045106
-0.127167
-0.024184
-0.001813
0.031571
0.035078
0.086052
-0.013390
0.073045
0.057672
-0.015772
0.106930
-0.135269
0.054994
0.089827
0.008609
0.110498
-0.013025
-0.048943
0.076393
-0.024677
0.053017
-0.103593
-0.006271
-0.019665
0.085277
0.040531
0.073730
-0.067096
-0.043908
0.088235
-0.016604
0.175183
0.069784
0.098069
0.128819
-0.065876
0.008046
-0.004905
-0.045827
-0.015322
0.037838
-0.128402
-0.082609
0.009544
0.044700
0.020649
-0.100541
0.152912
-0.070469
0.146543
0.060786
0.063447
0.014925
0.061709
0.019493
0.080202
0.131039
-0.100653
0.050836
0.085589
-0.068178
0.074586
0.015190
-0.083722
0.005286
-0.001497
-0.049891
-0.047485
-0.242887
-0.201325
0.087196
0.053688
-0.022944
-0.034304
-0.019190
0.022117
-0.111566
-0.081834
-0.022385
-0.002224
0.074495
-0.044158
0.083530
0.086663
-0.058424
0.023823
-0.120035
-0.027965
0.129362
0.089750
0.016915
0.118184
-0.010236
-0.029925
-0.000324
0.089194
0.013416
0.176765
0.054971
-0.043669
-0.021996
0.026192
-0.101955
-0.080834
-0.019778
0.002125
-0.087114
0.074397
0.007078
0.072986
0.063703
0.052735
-0.084944
-0.039977
0.022595
-0.114679
0.122793
-0.069920
-0.001483
-0.001333
0.061542
-0.002090
0.078702
-0.069312
0.004495
-0.015092
-0.080571
-0.035197
0.026942
-0.066089
0.074087
-0.002416
0.055306
-0.010126
-0.047972
0.081657
-0.084648
-0.006734
-0.085464
0.143479
0.068352
0.012482
0.042359
-0.032762
0.049370
-0.070811
-0.002251
0.018713
0.031120
0.051846
0.031187
-0.050075
0.040785
0.013629
-0.052800
0.039834
-0.109988
0.035180
-0.168856
0.111474
-0.018785
0.073497
0.068151
0.020968
0.079734
-0.013980
-0.007108
-0.048225
-0.076660
0.033323
-0.083412
0.002474
0.004080
-0.119917
-0.008783
0.055288
0.148962
0.049397
0.065103
-0.021814
0.026722
0.057079
-0.234415
-0.042266
0.029022
0.094160
0.078349
-0.024807
0.109486
-0.124085
0.031715
0.097501
-0.049420
-0.079934
-0.109579
-0.041757
-0.032372
-0.079415
-0.158603
-0.053731
-0.218273
0.104356
-0.081464
-0.034976
0.001541
-0.032641
-0.028307
0.053579
0.147049
0.023015
0.166208
-0.016658
0.027594
-0.102659
-0.102719
-0.040094
0.044659
-0.112109
0.164531
-0.073244
0.049061
0.034227
-0.102075
0.089556
-0.096354
0.010396
-0.016233
0.024194
0.000891
-0.125668
-0.045430
-0.043309
-0.031169
0.068785
-0.093408
-0.020854
0.081828
0.010677
0.037430
-0.055195
-0.023306
-0.082443
0.134382
0.010656
-0.123368
0.067675
-0.135821
0.143609
0.126738
-0.052397
0.177359
-0.075548
-0.052329
0.150448
-0.000319
-0.115356
0.017080
-0.099464
0.010623
-0.070820
-0.017904
0.058976
0.167860
0.081335
-0.005210
0.018239
-0.005240
-0.004819
-0.015985
-0.033672
0.099445
-0.182605
0.096820
0.107388
0.123955
-0.082713
0.007721
-0.017504
-0.082628
0.029487
-0.179186
0.043526
-0.073983
0.028288
0.065346
-0.060849
0.030767
-0.147651
0.042492
-0.176355
0.004157
0.074794
0.056030
0.000617
0.026559
0.056675
-0.106280
-0.126199
0.017529
0.064236
0.043483
0.035033
0.045857
-0.057051
0.122835
0.015263
-0.064166
0.110330
-0.096595
-0.137001
0.029854
0.083432
-0.111394
-0.040761
0.041992
-0.017117
0.088169
-0.056291
-0.067895
-0.053505
-0.014158
0.051661
0.098399
-0.049524
-0.036932
-0.130775
-0.088770
-0.154815
0.021824
-0.111175
0.108697
0.128987
0.121705
0.057305
-0.007801
-0.062947
0.041670
-0.127334
0.048720
0.070200
-0.126630
-0.023305
0.002512
-0.068779
0.064698
-0.028220
-0.027583
0.018496
0.114952
-0.053950
-0.085545
-0.045152
0.042816
-0.033039
-0.028183
0.065885
-0.078549
-0.100802
-0.082826
-0.078395
0.041915
0.055675
-0.083176
-0.086927
0.048247
-0.044020
0.042718
0.000473
-0.052489
-0.072707
0.023876
0.062132
-0.094677
-0.042537
0.009430
-0.013166
-0.064561
0.005345
-0.079919
-0.009862
0.061611
-0.020163
0.072880
0.172204
0.065589
0.137165
-0.077295
-0.074900
0.114064
0.059281
0.137274
0.036159
-0.173945
-0.053597
-0.056219
-0.041733
-0.161458
-0.085840
0.000960
0.050663
-0.054525
0.096926
-0.004897
-0.007886
0.034629
-0.008673
-0.153057
-0.042723
-0.068272
-0.035269
0.016460
0.026089
-0.030633
-0.046783
-0.046213
0.106085
0.079274
0.039188
0.005251
-0.078915
0.010365
0.033603
-0.108729
-0.028705
-0.068735
-0.107215
0.030890
0.059648
0.138390
-0.062799
0.046283
-0.072943
0.141435
0.051925
0.133765
0.177918
0.042514
0.027963
-0.103126
-0.073661
-0.027815
-0.012007
0.070447
-0.092436
0.071704
0.062368
-0.042768
0.155019
0.017989
0.125921
-0.082201
-0.054976
-0.013365
-0.079482
-0.066894
-0.010517
-0.056650
-0.116274
-0.039215
-0.015678
0.165685
0.095012
0.036321
0.027356
-0.045385
-0.002548
0.035141
0.047984
0.065231
-0.076789
-0.083023
-0.028328
-0.081511
0.118065
0.014949
-0.054203
-0.061619
-0.015482
-0.138474
-0.020369
-0.074114
0.076719
-0.093766
-0.046585
0.069033
-0.108943
-0.080828
-0.067415
-0.071990
0.042701
0.057182
0.039609
0.120729
0.075086
-0.067994
-0.067646
-0.114389
0.027393
-0.114405
-0.074806
-0.166629
-0.091976
-0.058551
0.102052
0.023843
0.017162
0.059746
0.058802
-0.079767
0.067419
0.028738
-0.019097
0.039808
-0.066041
-0.033485
-0.042065
0.022474
-0.041350
0.014814
-0.054186
0.055801
0.014074
-0.023332
-0.001511
0.041892
-0.080140
-0.104911
0.116505
-0.009962
-0.022988
-0.076607
0.133331
0.074775
-0.039742
-0.037000
0.142174
0.044694
-0.083397
0.061008
0.124988
-0.066329
0.062254
0.007673
-0.015333
-0.029281
-0.030327
0.064525
-0.067629
-0.024708
0.010600
-0.030569
-0.080817
0.046352
-0.077717
-0.082096
-0.000037
-0.015555
0.045458
-0.039130
0.028744
0.020882
-0.165692
-0.030265
0.018535
0.070851
-0.066209
0.004698
-0.045598
-0.055862
0.023897
0.170953
-0.047648
-0.079098
-0.071196
0.029459
0.021874
-0.049509
0.050182
0.020421
0.012389
0.113281
-0.024804
-0.104857
0.059998
0.035222
0.052592
0.027882
-0.015789
0.005400
0.083006
-0.001981
-0.096240
0.162603
-0.019627
-0.032546
-0.032702
0.016600
0.061561
0.065524
0.081027
0.126661
-0.059259
0.065461
0.042936
0.137151
0.037028
-0.004222
0.014328
-0.088578
0.103087
-0.023135
0.064460
0.020440
-0.113382
-0.135236
-0.081449
0.126602
0.004539
-0.109112
0.000174
0.039636
0.069673
-0.057029
0.097738
0.101073
-0.008001
0.087925
0.011765
-0.117676
-0.090190
0.014845
-0.051746
0.055786
-0.029115
-0.043718
0.103307
-0.032908
0.052895
0.118130
0.047946
0.009924
-0.022126
0.023285
0.038960
-0.078505
0.078732
-0.006451
0.125980
0.040286
0.046146
0.011501
0.011196
0.044441
0.059561
0.124146
-0.049146
0.006458
0.096817
-0.006052
0.029236
0.014065
-0.086693
0.033023
-0.001117
-0.040223
-0.051803
0.020554
-0.059378
-0.075676
-0.122003
-0.013880
-0.102629
-0.013332
0.075819
0.002182
-0.026999
0.008436
0.023699
0.075964
-0.041817
-0.035407
-0.045729
-0.081496
0.053640
-0.088459
-0.039185
0.016225
-0.070751
0.055142
-0.056055
-0.009807
-0.118612
-0.008846
0.026627
-0.090128
0.031177
-0.024085
-0.113501
-0.100874
-0.065790
-0.064673
-0.098144
0.003320
0.063157
0.065933
-0.007511
-0.020368
0.042300
-0.017715
-0.037681
0.175987
-0.084618
-0.218554
0.105878
0.046607
-0.005022
-0.101571
0.008495
-0.090659
-0.143043
-0.042730
0.009200
-0.067848
-0.000586
0.051046
-0.033476
-0.074787
0.086775
0.041781
0.046495
-0.054665
-0.009846
-0.148640
0.057039
0.089903
0.077088
-0.060629
0.101276
0.038724
0.054975
0.043759
0.059767
-0.068491
-0.038186
0.060921
-0.013270
-0.011278
-0.046862
0.101415
-0.148628
0.033217
0.047718
0.074558
-0.184107
-0.078385
0.016493
-0.128371
-0.084450
-0.161101
-0.049970
-0.115208
-0.030476
0.036953
0.039646
0.154911
-0.043568
0.008240
-0.046680
0.095739
-0.023000
-0.016675
0.070295
0.081462
0.007514
-0.075709
-0.146131
-0.183164
-0.082372
0.097650
0.013355
-0.084807
-0.076784
-0.125044
-0.091019
0.152122
0.017309
0.070030
0.040186
0.044342
0.047684
0.047079
-0.030101
-0.111337
0.084487
-0.108048
0.100094
0.094491
-0.013833
-0.009697
0.043202
-0.041075
-0.026331
-0.046451
0.014162
0.101018
0.011643
0.062408
-0.042090
-0.002552
-0.053981
-0.002583
0.030806
0.038431
-0.069662
0.096417
0.022272
0.097957
-0.093813
0.036982
0.092183
0.019159
0.004336
0.028604
0.062280
0.065315
0.074006
0.041591
0.095957
0.032357
0.002534
-0.018935
0.005619
0.053213
0.008761
0.026079
0.087837
0.025276
-0.079291
0.048745
-0.005768
0.024013
0.100223
0.066100
0.046580
0.063440
-0.071635
0.087406
0.044924
0.001185
0.024141
0.051465
0.066097
0.008629
0.050965
-0.033404
-0.046502
0.025260
0.066956
0.059252
-0.118224
0.055142
-0.035517
0.092603
-0.071010
-0.087277
0.007260
-0.068451
-0.141855
-0.146314
0.026223
0.074335
-0.113392
0.028448
-0.021557
-0.003095
0.116579
-0.086470
-0.073014
0.055323
-0.012099
-0.040319
-0.013828
-0.135125
-0.117928
0.026131
-0.108272
0.084539
-0.102970
0.021061
-0.026300
-0.089914
0.100885
0.047028
-0.124263
0.107257
0.003956
-0.053513
0.006853
-0.016614
-0.107024
-0.019638
0.034308
0.052162
0.024844
-0.083389
0.092493
0.069637
-0.114800
0.034667
0.012664
0.020582
0.036296
0.096189
0.003828
-0.068072
0.001730
-0.084499
-0.075140
0.038379
-0.142370
0.114677
0.077091
-0.136118
0.034940
-0.091878
0.018157
0.004029
0.020794
-0.086219
0.090302
0.077126
-0.060274
-0.051377
-0.057974
-0.057932
0.001536
-0.057783
-0.139920
0.126694
-0.058003
-0.078308
0.038488
0.104049
-0.092983
-0.042695
0.076181
0.130565
0.009489
0.092569
0.048810
-0.134012
0.029791
-0.146982
0.034929
-0.143519
0.066266
-0.050956
-0.128286
0.143560
0.082750
0.042982
-0.031908
0.082327
-0.014893
-0.032975
0.078688
0.025670
-0.064223
-0.057723
0.056350
-0.091639
0.037059
0.103241
0.076928
0.058813
0.064712
0.031398
-0.031304
-0.129577
0.017198
0.015094
-0.066709
-0.031015
0.022053
-0.077153
0.003339
0.122471
0.043221
0.024188
0.071242
-0.042189
-0.030480
-0.046995
-0.037563
-0.082135
0.002161
-0.020071
-0.043496
0.027398
-0.058168
-0.027304
-0.017100
0.024634
0.001815
0.032894
0.056179
0.024717
-0.078811
0.021690
0.012975
-0.042395
-0.002345
0.055311
-0.042714
0.060590
-0.103701
-0.011978
0.125850
0.118462
-0.070763
0.082522
0.026880
0.116755
0.066045
-0.011109
0.017746
-0.088761
0.046427
0.002106
-0.049680
-0.022379
-0.071461
0.094855
-0.014470
-0.024624
0.061659
-0.035791
0.087292
-0.016173
0.061461
-0.113455
-0.040002
-0.059080
0.018735
0.031340
-0.080897
-0.097051
-0.017258
0.047724
0.041737
-0.091696
-0.121564
-0.175315
0.106284
-0.096033
-0.046100
0.093960
0.066229
0.075349
-0.156775
0.065897
-0.120216
-0.043746
-0.080367
-0.145216
-0.134288
0.093344
0.034819
-0.030331
-0.175148
0.003791
0.053354
-0.089677
0.073901
-0.013973
0.046626
0.010395
0.034944
0.091222
-0.073240
0.107140
-0.079225
-0.096229
0.066819
0.054357
-0.008722
0.113198
0.025502
0.086801
-0.075167
0.098939
-0.109571
-0.115032
-0.150852
-0.001286
-0.125504
-0.057762
-0.060085
0.076755
-0.054149
-0.029493
0.078344
-0.158857
0.045688
0.136295
0.151715
-0.106951
0.007745
-0.017712
0.058140
-0.042873
0.002431
0.121286
-0.012943
0.024100
0.108586
-0.036932
-0.020790
-0.139806
-0.024334
-0.123806
0.098141
0.035630
0.085742
-0.061251
-0.134954
-0.238669
0.140850
0.015586
-0.047095
-0.085836
0.073009
-0.087056
-0.070308
0.101517
0.012674
0.068530
0.083532
0.060328
-0.119590
-0.061358
0.040588
0.040164
0.010798
-0.072971
0.115233
0.071906
0.001950
-0.033421
0.022590
-0.045226
-0.038271
0.095737
0.003892
0.011818
-0.074195
-0.076646
-0.045171
-0.060347
0.059501
0.007487
0.094677
-0.014045
0.037271
-0.020975
0.095403
0.077008
0.069824
0.136082
-0.062209
0.048981
0.056231
-0.037934
0.106438
0.104279
-0.087500
0.013166
0.138799
0.096482
0.034463
-0.102185
0.045885
-0.081613
0.087685
-0.088079
0.054617
-0.009877
0.131765
0.042555
0.031593
-0.073667
-0.065394
-0.016809
0.036109
-0.139874
-0.071428
0.101235
-0.178340
0.017928
0.138357
-0.179278
0.065612
0.097225
-0.104301
0.035008
0.078219
0.019199
0.139546
0.110390
-0.113247
0.041497
-0.027145
0.060414
-0.031539
-0.030630
-0.136099
0.115181
0.025314
-0.056550
0.056224
-0.175977
-0.158475
0.038481
0.044072
0.029893
0.007061
-0.014620
0.047938
0.075931
0.103909
-0.012554
0.009045
0.180918
0.036338
0.015786
0.122097
0.015117
-0.081340
0.042657
-0.056631
-0.028941
0.069119
0.056425
0.050055
0.010974
-0.034535
0.047143
-0.002687
-0.030536
0.075603
0.027510
-0.049995
0.023102
-0.110069
-0.172215
-0.162754
0.132999
-0.119479
-0.051326
0.075422
0.058345
0.135027
-0.009750
-0.102225
0.081802
0.060597
0.107644
0.154878
0.012766
0.023026
-0.047520
0.121649
0.077704
-0.047982
-0.005510
-0.012482
0.111427
0.160353
0.055692
-0.081843
0.048387
-0.103218
-0.053592
-0.049855
-0.162960
-0.111619
0.059494
0.016167
0.029773
0.022686
0.093210
-0.019277
0.031243
0.001790
0.128315
-0.126797
0.005645
-0.087091
-0.124533
-0.045423
-0.117520
0.000095
0.048085
-0.204111
-0.158090
0.148199
-0.143234
-0.014736
0.065576
-0.042700
-0.035586
0.048331
0.106300
-0.163050
-0.129135
0.014273
0.160642
-0.121548
-0.170962
-0.072568
-0.097807
0.004464
0.073784
0.003078
-0.107134
0.086968
0.047163
0.020426
-0.049887
-0.040372
-0.112104
-0.188194
-0.030598
0.010156
0.054765
0.016869
0.077808
-0.075513
-0.054759
0.098513
0.033901
-0.130607
0.065838
0.019843
0.085458
0.009665
-0.101189
-0.018683
-0.029562
-0.040708
-0.130197
0.136433
0.108626
0.083718
0.054469
0.122634
-0.022600
0.077989
0.030523
-0.058015
0.067189
-0.013793
-0.009022
-0.128131
0.072341
-0.055909
0.052244
-0.025699
-0.006613
0.136949
-0.051978
0.075466
0.027389
-0.072162
-0.116506
0.018848
0.004366
-0.118321
0.030488
-0.002700
0.041448
-0.066250
0.076711
0.116480
-0.060109
0.080168
-0.096127
-0.054221
-0.055204
-0.148221
0.039510
0.065577
-0.131574
0.042620
-0.125394
-0.067861
0.068023
0.120486
-0.136076
0.038238
0.000501
0.022166
-0.054708
0.064382
-0.042008
-0.062266
0.041347
-0.007009
0.116135
0.057908
0.109089
-0.004833
-0.064482
0.012605
-0.085119
-0.112042
-0.152127
0.036872
0.094613
0.068620
-0.063851
0.023592
0.043408
0.068514
-0.025683
-0.001919
-0.094968
-0.131139
0.066587
-0.022630
0.086149
0.040881
0.052072
-0.011329
-0.120811
0.109301
-0.044553
0.041867
-0.103552
-0.042010
0.090765
-0.038101
0.109929
0.018622
0.018942
-0.032603
-0.140247
-0.023879
-0.107228
-0.078889
0.152490
0.040283
-0.077956
0.158871
-0.108142
-0.095764
0.067748
-0.067300
-0.091576
-0.114903
-0.053402
0.075116
0.020702
-0.063373
-0.086159
0.000435
0.033164
-0.099464
-0.055610
-0.052869
-0.005998
0.081414
0.026165
0.045678
0.019051
0.069242
-0.097439
-0.088641
-0.044154
0.029284
0.014394
0.093804
0.016594
0.012602
0.126813
-0.014185
-0.107398
0.133609
0.145059
-0.033091
-0.022874
-0.053495
0.005137
0.074298
0.045888
-0.070937
0.116815
0.064283
0.017791
-0.078118
-0.001402
0.096983
-0.044285
-0.012280
-0.144089
0.002405
-0.104713
-0.024966
0.045144
0.024049
0.098785
0.071662
-0.062961
0.108832
0.086484
0.011722
0.014442
0.018131
0.046662
0.040902
0.089896
0.008361
-0.038253
-0.108782
-0.068708
-0.138032
-0.048275
0.000692
0.033435
0.088489
-0.013414
0.092095
-0.145656
0.036568
-0.058790
0.125732
-0.006976
-0.049513
-0.033372
0.059889
-0.087113
0.050599
-0.043693
0.041012
0.129303
-0.005358
-0.007211
-0.078630
-0.100219
-0.023256
-0.133404
0.090399
0.184171
0.102294
0.022112
-0.015393
0.076035
0.066134
-0.102484
-0.078249
-0.010877
0.102804
-0.018657
-0.009410
0.053133
0.104877
-0.104380
-0.041971
-0.140042
0.029130
0.017943
0.017457
-0.022180
-0.118800
-0.127743
-0.050132
-0.066455
0.020046
-0.014379
-0.096736
0.047638
-0.102265
-0.020596
-0.041884
-0.048889
-0.026127
-0.018869
-0.059358
0.102326
0.128369
0.048587
0.008590
0.117586
-0.018512
0.081267
0.029859
-0.120580
0.085696
-0.002761
-0.044160
0.023452
-0.049768
0.051583
-0.041443
-0.095384
0.025096
0.053799
-0.054916
-0.091333
0.025237
-0.061792
0.024141
0.043696
0.078350
0.066785
0.077953
0.078232
-0.083939
-0.007853
-0.117169
-0.134639
0.052134
0.024418
-0.128444
0.128157
-0.056810
0.082894
0.049737
-0.068123
-0.017017
-0.057683
-0.052808
-0.087452
0.126334
0.058613
-0.064800
-0.133746
0.047478
-0.099176
0.120216
0.026895
0.139020
-0.068643
-0.003030
0.096194
0.045628
-0.038981
0.027016
-0.032561
0.102291
-0.037691
-0.077872
-0.018901
-0.099960
-0.029771
0.040488
0.014949
-0.026802
-0.105653
-0.010390
0.021349
-0.031146
-0.045782
0.049701
0.061339
0.029865
0.000433
-0.066973
-0.118006
-0.124261
-0.062271
0.033303
-0.082159
-0.013381
0.021562
0.084966
-0.103646
0.046845
0.118165
-0.144947
0.060562
-0.011717
-0.063341
0.060715
0.094050
0.009142
-0.025864
0.080448
0.063305
0.037937
-0.117988
0.050841
-0.087675
0.040474
0.102154
0.002423
-0.040940
0.025026
0.109356
-0.137198
0.103223
-0.014693
0.036292
0.037150
0.037686
-0.040130
