# Shape: (128,)
-0.000007
-0.000037
0.000312
-0.000073
-0.000096
0.000079
0.000178
0.000025
0.000460
-0.000244
0.000145
0.000196
-0.000042
0.000267
-0.000298
0.000410
-0.000055
0.000320
0.000096
0.000054
0.001063
-0.000954
0.000186
0.000006
-0.000018
-0.000304
-0.000161
-0.000046
0.000137
-0.000370
-0.001511
0.000569
0.000061
0.000219
0.000460
-0.000631
0.000050
0.000001
-0.000862
0.001296
-0.000520
0.000126
-0.000260
-0.000131
-0.000030
0.000509
-0.000007
-0.000367
-0.000231
-0.000657
-0.000052
-0.000026
0.000061
0.000382
0.000323
-0.000424
0.000623
-0.000247
0.000093
-0.000940
-0.000056
0.000488
0.000294
0.001386
0.000106
-0.000086
0.000464
0.002009
-0.001047
-0.000370
-0.000014
-0.000085
-0.000064
-0.000648
0.000086
0.000221
-0.000304
0.000314
0.000144
-0.000402
-0.000031
-0.001791
-0.000338
0.000911
-0.000109
0.001104
-0.000366
-0.001514
0.000025
-0.000523
-0.000136
-0.000019
-0.000306
-0.000517
0.000042
-0.000330
0.000312
0.000178
-0.000219
-0.000085
-0.000135
-0.000399
0.000001
-0.000139
0.001837
-0.000003
0.000117
-0.000055
0.000122
0.000205
0.000921
-0.000181
0.000099
0.000445
0.000002
-0.000006
0.000305
-0.000038
0.000014
-0.000603
0.000126
0.000170
0.000121
-0.000401
0.002199
-0.000778
0.000528
0.000207
