# Shape: (128,)
0.000069
0.000134
0.000058
-0.000521
-0.000159
0.000046
-0.000355
0.000015
-0.000481
-0.000344
0.000303
0.001039
0.000048
0.000234
0.000113
-0.000599
-0.000404
-0.000630
-0.000331
0.000850
-0.000434
-0.000029
-0.000117
0.000778
0.001892
-0.000186
0.000779
-0.000232
-0.000504
0.000107
0.000187
-0.000116
0.000097
0.001376
-0.000782
-0.000786
-0.000084
0.000241
-0.000380
-0.000133
0.000055
-0.000673
0.000014
0.000596
0.000864
0.000062
0.000439
0.000414
-0.000068
0.000558
-0.000255
-0.000009
-0.002600
-0.000477
0.000103
0.000933
-0.001116
0.000042
-0.001323
0.000509
0.000066
0.000045
0.000212
-0.000576
-0.000020
0.000009
0.000540
0.000178
0.000408
-0.000395
0.000430
-0.000512
0.000240
-0.000033
0.000742
0.000679
-0.000157
-0.000234
-0.000069
0.000178
0.000429
-0.001211
-0.000187
-0.000084
-0.000799
0.000922
-0.001228
0.000107
0.000510
-0.000750
-0.000270
-0.000725
0.000133
-0.000179
0.000092
0.000212
0.000173
0.000042
0.000144
-0.000212
0.000614
0.000347
-0.000175
-0.000426
-0.000198
0.000260
-0.000177
-0.000208
-0.000510
-0.000128
-0.000350
0.001011
-0.000012
-0.000206
-0.001169
-0.000387
0.000394
0.000345
-0.000971
-0.000135
0.000024
-0.000217
-0.000031
-0.000127
-0.000502
0.000124
0.000905
-0.000861
