# Shape: (3, 3, 64, 128)
-0.071039
-0.111752
-0.002503
0.008441
0.160938
-0.241116
-0.075252
-0.000172
-0.090468
-0.006572
0.114151
-0.216785
-0.015391
-0.056810
0.040218
0.131549
0.093698
0.028105
0.147292
0.045185
0.011432
0.037871
0.009737
0.078507
-0.149841
0.203213
0.095209
0.004669
-0.099453
0.039506
-0.103399
-0.154573
0.118328
-0.065585
-0.151796
-0.090626
0.029868
0.167185
-0.131213
0.020083
0.097352
-0.148209
-0.143407
-0.157277
-0.080004
0.030704
0.130836
-0.211963
-0.131329
0.048686
0.161305
-0.060052
0.199069
0.013781
0.063099
0.008022
-0.034235
-0.159661
0.190354
-0.015578
0.000063
0.075300
-0.252441
0.002809
0.198327
0.102360
0.071934
-0.133450
0.123476
-0.014253
-0.054567
0.046022
-0.002220
-0.201100
0.048660
-0.215938
0.004440
0.006287
0.000300
-0.038696
0.167873
-0.113642
-0.212081
-0.286011
-0.095966
0.053889
0.098244
0.020844
0.046478
-0.106047
-0.092208
-0.214140
-0.084742
-0.267899
0.057341
-0.025085
-0.173778
0.055368
-0.231260
-0.243243
-0.187698
-0.051737
0.122748
-0.058186
-0.228855
0.047354
0.056582
-0.020566
0.051077
0.100843
-0.037576
-0.001408
-0.033455
-0.010973
-0.022676
-0.076399
0.041208
-0.202204
0.225210
-0.121039
0.017877
-0.160340
0.130040
-0.129290
0.048140
-0.270559
-0.000127
-0.138699
-0.133843
0.131002
-0.051663
-0.034475
-0.011705
-0.270158
0.075980
0.176623
0.010807
0.043286
0.159113
0.255753
0.088068
0.051083
0.226527
0.061479
0.010392
-0.127154
-0.022556
0.046022
-0.000063
0.060513
-0.049010
0.072702
0.199423
-0.024985
0.065063
0.069118
0.097632
0.023006
0.109386
0.056617
-0.110588
-0.045563
0.233570
-0.211908
0.116871
-0.225019
0.150864
-0.120726
-0.017352
0.019053
0.014014
-0.002442
-0.126225
-0.316074
-0.205326
-0.032423
-0.119777
0.085244
0.226768
0.097737
-0.163669
0.059977
-0.195910
-0.204054
0.217723
-0.049387
0.173623
0.057471
-0.021925
0.086763
-0.052098
-0.191107
-0.082428
0.082596
-0.377201
0.054032
-0.140430
0.091100
-0.034614
-0.245955
-0.098733
-0.154039
-0.039954
-0.111365
-0.034484
-0.195326
0.246502
0.180926
-0.198947
0.027879
-0.084340
0.216996
-0.087021
-0.271657
0.046099
-0.069056
-0.009635
-0.055567
-0.004754
0.489089
0.200547
-0.129579
-0.189226
0.218962
0.212498
0.112966
0.295873
-0.007129
0.015483
0.063495
-0.129814
0.097126
-0.030890
-0.056841
0.025060
0.119687
-0.200387
0.252731
0.299792
-0.042843
0.354901
-0.120387
0.058898
0.099419
-0.061462
0.047106
0.105870
-0.033885
0.094230
-0.099875
-0.071922
-0.007042
0.060457
0.229176
0.273674
0.027634
0.030647
-0.145139
-0.021857
-0.031358
0.045833
-0.029840
-0.087307
-0.058273
-0.077156
-0.178162
0.058973
0.126282
-0.005259
0.164027
0.243683
0.053127
-0.060270
-0.126411
-0.189310
-0.160575
-0.180207
0.054733
-0.111618
0.072204
0.041147
0.131310
0.103489
0.025631
-0.100102
-0.061860
-0.154813
0.046772
0.135789
0.087235
-0.181838
0.107799
0.105288
0.060114
0.033568
0.029731
0.041129
0.016216
-0.009532
-0.109063
-0.081596
0.038670
-0.137013
0.063151
-0.075792
-0.200829
0.166674
0.119436
0.069788
-0.217169
-0.167632
-0.134066
-0.071011
0.096818
0.215580
0.122825
-0.015487
-0.252947
-0.061093
0.001942
0.023979
-0.019703
-0.112983
-0.199144
-0.061496
0.086402
0.035003
0.013929
0.027610
0.016150
0.015375
0.098529
-0.352751
-0.295971
-0.166899
0.041987
-0.084473
-0.239363
-0.058735
-0.195253
0.076490
0.228687
0.145621
-0.256096
0.090505
0.293666
-0.032902
-0.170281
-0.013683
0.074270
0.207315
-0.168289
0.035602
0.102267
0.005129
-0.027174
-0.065426
-0.137914
0.057217
-0.001964
-0.116826
-0.181030
-0.152691
0.076941
-0.043829
-0.027114
-0.172640
-0.188778
-0.104856
-0.107529
-0.123633
-0.079212
0.079079
0.006651
0.103028
-0.027029
0.099827
-0.154364
0.198534
-0.010539
0.014809
-0.050893
-0.100285
-0.057229
0.119685
-0.006640
-0.472726
-0.256734
-0.049949
0.037126
0.060550
-0.043553
0.005906
-0.136553
-0.149269
0.135192
0.097342
-0.071330
0.162997
-0.077331
-0.128891
0.049777
-0.046331
-0.006177
-0.084962
-0.091908
0.225451
-0.021722
-0.214816
0.112193
0.001251
0.073909
-0.166246
0.002305
0.006883
0.151017
-0.180184
0.027936
0.033785
-0.090976
-0.228810
-0.175202
-0.107349
-0.224932
0.093904
0.044984
-0.025158
0.084783
-0.140198
-0.121558
-0.122949
-0.080666
0.263461
-0.122077
0.112447
-0.090361
0.033639
-0.041758
0.252226
0.108153
0.049015
0.053214
0.035236
-0.254595
-0.213900
-0.055413
0.155652
-0.275676
0.071432
0.020196
-0.092595
-0.035096
-0.064200
-0.004601
0.071263
-0.045854
0.090274
0.117862
-0.179158
0.178778
-0.073362
0.249142
0.025940
-0.034700
-0.046432
0.157031
-0.267095
0.165120
-0.302667
-0.026842
-0.036664
0.118139
0.066898
0.081897
0.169171
-0.097813
0.084845
0.097559
-0.027951
-0.074930
0.104596
0.153442
-0.063989
0.083827
-0.000482
-0.011050
0.190543
-0.089174
0.009131
-0.268004
0.022352
0.002326
-0.096468
0.296081
0.015175
-0.205459
0.093511
0.209787
-0.041854
0.161061
0.057298
0.106452
-0.247504
0.008088
0.039070
0.342073
-0.014345
0.157217
0.209964
-0.097794
-0.306951
0.096444
0.320514
0.116788
-0.086290
-0.045237
0.076769
-0.089753
0.059210
-0.019412
-0.129734
0.016136
0.004420
-0.197562
-0.119950
-0.229286
0.131963
0.195536
0.213695
0.057385
0.053315
0.039120
0.243849
-0.107555
-0.018841
-0.344464
-0.171085
0.083240
0.009537
0.077676
0.050148
-0.107840
-0.209626
-0.227312
-0.045204
-0.162228
0.097744
0.159053
0.014931
0.174795
0.135975
0.056762
-0.035156
-0.068807
-0.231663
-0.016144
0.072682
-0.065380
0.000273
0.070814
-0.261992
-0.004591
-0.107972
0.107847
0.128313
-0.119282
-0.178098
-0.054809
-0.036550
-0.000045
0.005867
0.002177
-0.134185
-0.206321
-0.014798
0.127931
0.184984
-0.235987
-0.017785
-0.193696
0.195223
-0.034232
-0.049828
0.075732
-0.080296
-0.035571
0.011915
0.039211
0.141849
-0.178360
0.208699
0.056642
0.017836
-0.216118
0.074302
-0.073327
0.077611
0.073397
0.030708
-0.454166
-0.179199
-0.013541
0.127666
-0.130122
-0.106448
-0.015399
-0.139417
0.187615
0.097097
-0.038094
-0.166247
-0.129773
0.165992
0.146377
-0.184606
-0.106646
-0.162385
-0.067304
0.047211
0.077501
0.170462
-0.114426
-0.257775
0.001496
0.050655
0.020710
-0.107652
0.228066
-0.128471
0.036242
-0.182481
-0.132106
0.104634
0.073927
0.012175
0.034679
0.042646
-0.213541
-0.113438
-0.280381
0.089613
-0.099861
-0.143293
0.218507
-0.102754
-0.203682
-0.053482
-0.039565
0.133715
-0.019402
0.020377
0.299531
0.145380
0.030156
0.002975
0.010528
-0.022830
-0.137857
-0.153718
0.106580
-0.027677
0.105697
-0.090513
0.063740
-0.153291
-0.040372
0.017532
-0.055359
0.058583
-0.117082
0.191306
0.157665
0.059368
-0.135063
0.144280
-0.188328
0.135338
0.158570
-0.035396
-0.141462
-0.139761
0.025792
-0.082847
-0.078819
-0.100983
0.083517
0.004332
-0.106548
-0.076150
0.035706
0.168997
-0.026984
0.030937
0.152740
0.110424
0.037164
0.028071
-0.135719
0.242001
-0.143912
-0.238286
-0.037217
0.095331
0.052091
-0.000622
-0.172466
-0.219676
0.116051
-0.023592
-0.097114
-0.211492
0.157925
0.103877
-0.201545
-0.101753
-0.002804
-0.027882
0.015951
0.119096
-0.050874
0.178289
0.082898
-0.017946
0.091560
-0.024764
-0.065401
-0.110405
0.161640
-0.181138
-0.079188
0.097613
0.068204
0.053165
-0.126140
0.042608
0.163536
-0.040265
-0.063920
0.091971
-0.001877
-0.175583
0.107430
0.161431
-0.073309
-0.157237
-0.149961
-0.064684
-0.202331
0.018833
0.293308
-0.196450
-0.009728
0.031722
0.004534
0.149079
-0.114998
0.113412
-0.142576
-0.092977
0.004432
-0.018019
0.098253
-0.090880
-0.150806
-0.026692
0.124088
-0.030808
-0.272859
0.206983
0.157058
-0.105806
-0.155798
-0.078092
-0.148353
-0.100302
0.278169
0.180707
0.276083
-0.095643
0.410647
-0.056079
-0.029632
0.202859
-0.072701
0.073478
-0.009223
0.178686
-0.110266
0.078853
0.051208
0.024035
0.148201
0.155468
0.109271
-0.241887
0.026080
0.038168
0.024764
0.048357
0.119953
-0.171249
0.107511
0.066310
0.003369
0.054523
-0.220946
-0.015267
0.091560
0.145004
0.088216
0.139929
0.007155
0.184672
-0.120509
0.088386
0.203196
-0.108053
0.089474
-0.017844
-0.082380
0.162760
0.192720
0.018614
-0.060805
0.006521
-0.108261
-0.129287
-0.011600
0.060389
0.162895
-0.052271
0.073202
-0.194269
0.189956
-0.001248
0.063101
-0.019453
0.036034
-0.117490
-0.002832
0.017099
0.306024
-0.257866
-0.064920
-0.100796
0.098627
0.080087
0.072521
-0.037035
0.033531
0.221688
0.027973
0.162000
0.178338
0.060348
0.145253
-0.192365
-0.208983
0.162217
0.019249
0.022961
0.107168
-0.105005
0.042723
0.013057
0.118058
0.189258
-0.139829
0.044338
0.078571
-0.123313
-0.253981
0.007613
0.111665
0.073193
0.124535
-0.116408
0.031178
0.000080
0.147043
-0.104350
0.050154
0.058680
0.024428
0.072215
0.354336
-0.003059
0.277115
0.049599
0.159097
0.125688
-0.057083
0.282533
0.053880
0.007808
0.017792
0.031076
-0.219239
0.092619
0.098602
0.017270
0.098843
-0.064853
0.038851
0.021469
-0.109302
-0.000673
0.028484
-0.074750
0.049575
0.280721
0.044845
0.334630
-0.063037
-0.029689
0.135586
-0.191419
0.091476
-0.005918
-0.027463
0.019226
0.058026
-0.144116
0.299877
0.025624
-0.088245
-0.109719
0.142431
-0.142029
-0.049091
0.075388
-0.091447
-0.169575
0.043319
-0.068701
-0.155575
-0.037090
0.110508
0.127913
-0.040761
0.101882
-0.165367
-0.229651
-0.058768
-0.124593
0.008144
0.036272
0.015004
0.278861
-0.103516
0.221452
0.226106
-0.045934
0.059490
-0.008764
0.031489
-0.172993
-0.008113
-0.080357
-0.108525
-0.129034
0.070864
0.005782
0.071352
0.110597
-0.234194
-0.162693
-0.228249
0.120306
-0.209013
-0.051618
-0.358207
0.028627
-0.051545
-0.015717
0.098906
-0.067095
0.126747
0.076863
-0.077016
-0.296649
-0.044250
0.181700
0.013321
-0.054271
-0.088599
-0.101372
0.041731
-0.179825
-0.027113
-0.230958
-0.217823
-0.062935
0.161266
0.065840
-0.197789
-0.243097
0.022084
0.111057
0.090644
-0.271723
-0.193370
0.053439
0.082474
0.059218
0.105616
0.117797
-0.175359
0.036357
-0.047714
0.232001
0.076476
-0.060933
-0.091715
-0.037376
-0.116326
0.200969
-0.130514
-0.151136
0.103480
-0.184891
0.108565
-0.028586
-0.016266
0.088069
0.079346
0.106439
0.044187
-0.005808
-0.042450
0.076156
0.090186
0.083024
0.031070
0.061227
0.106851
0.162451
-0.400894
-0.116105
0.092318
0.067504
-0.419094
-0.193063
-0.144398
0.071832
-0.203257
-0.040792
0.051893
0.126408
0.123395
-0.101861
-0.028566
0.050535
-0.228937
-0.101091
-0.360818
0.088094
0.074221
-0.291031
-0.032561
0.037384
0.167055
-0.063438
-0.051017
-0.294792
-0.250943
0.057055
-0.050939
0.106476
-0.336290
-0.007108
0.026774
0.075663
-0.101987
0.011163
0.048149
-0.091054
0.089475
-0.097142
0.205583
-0.017619
-0.028536
-0.074282
0.134202
0.067819
0.116749
0.117958
0.095903
-0.140703
-0.369398
-0.062868
-0.099187
-0.061929
-0.003672
0.004669
-0.036017
0.069407
0.025223
0.054151
0.018543
-0.159949
0.017186
-0.240041
-0.111728
-0.048364
-0.054514
0.228797
0.002203
0.118889
-0.036599
0.111459
-0.143723
-0.163228
-0.011409
-0.048164
-0.052891
-0.176881
-0.122818
0.051719
-0.055827
0.099975
-0.105741
0.249772
-0.118883
-0.104811
-0.057974
-0.346701
0.048806
0.056548
0.157528
-0.213746
0.075111
0.110703
-0.107064
0.041994
-0.116786
-0.013971
-0.051637
0.081960
0.066436
0.031810
0.162037
0.012900
0.199956
-0.005885
-0.109573
-0.033225
0.156387
-0.030484
0.004553
0.128255
-0.070095
-0.246361
-0.108256
0.122848
0.144069
-0.162414
-0.222748
-0.073647
0.270911
-0.111496
0.040800
0.026917
0.229431
-0.018676
0.113458
-0.082725
0.320189
0.276774
-0.163876
0.092412
0.008330
-0.233391
0.065561
0.007371
-0.154422
0.006102
-0.170124
0.181380
0.009688
-0.019656
0.010851
0.117666
0.061828
-0.236662
0.150971
-0.002803
0.096123
-0.014132
-0.307268
0.172615
-0.103667
-0.227354
-0.150835
-0.050281
0.015389
0.207612
0.210172
0.004925
0.193997
0.053587
-0.079468
-0.231878
-0.050923
-0.015512
0.247925
-0.160567
-0.062762
0.200894
0.015840
0.012368
0.198231
0.097686
-0.079065
-0.136205
0.069951
0.060103
0.081430
-0.075515
-0.254964
-0.005019
0.181087
-0.235620
0.035440
0.114425
-0.007088
0.006419
0.014627
0.149491
0.021533
-0.006589
-0.146824
-0.175728
0.262837
0.107871
-0.116816
-0.027121
0.053522
-0.152137
-0.033493
-0.031655
-0.100441
-0.149122
-0.198467
0.019439
0.039570
0.074982
0.285504
-0.005084
0.111912
-0.154581
0.036902
-0.083094
-0.016686
-0.082465
-0.101627
-0.002319
0.000762
-0.253302
-0.136548
-0.107735
-0.010225
0.050576
0.214622
0.195461
-0.102345
-0.132316
-0.007014
-0.055241
0.116449
0.058959
0.038852
-0.030883
-0.153485
0.025353
0.095221
0.179829
-0.145167
0.111383
0.108442
0.195596
-0.237945
0.004400
-0.202551
0.140914
-0.250069
0.144622
-0.028724
-0.040640
0.001072
0.061281
-0.015797
0.076262
-0.390138
0.265296
0.138987
-0.082570
-0.186732
-0.110621
-0.130450
0.003965
-0.048397
0.042381
-0.039446
0.078542
0.224486
-0.223379
0.041401
0.033044
-0.283248
-0.067123
-0.157340
-0.080826
-0.074029
-0.079351
-0.247502
0.105920
-0.048734
-0.121575
-0.110077
0.078704
-0.074700
-0.168893
-0.040508
0.064023
-0.407723
-0.057983
-0.059813
0.043149
-0.136862
-0.015311
-0.055320
0.050677
-0.012582
0.129207
0.157626
0.128878
-0.148964
-0.079718
0.015696
-0.029932
0.063308
0.082444
-0.176740
-0.103425
-0.090336
-0.182803
0.021666
-0.037104
-0.002287
0.009250
-0.199883
0.013703
-0.003280
-0.091121
-0.096279
-0.087794
-0.115656
-0.120847
-0.075132
-0.130851
0.114231
-0.110040
0.084603
-0.109433
0.086793
0.299669
-0.042624
0.024145
0.176246
0.116022
-0.095157
0.024593
-0.007623
-0.079949
-0.167085
0.144416
0.060897
0.058194
-0.315532
-0.037313
-0.137094
-0.240927
0.022536
-0.133487
0.042246
-0.120569
-0.070800
-0.179616
-0.014252
-0.109671
-0.186489
0.057328
0.069013
-0.033369
-0.147881
0.084929
0.080965
-0.220640
0.046988
0.030125
-0.056697
-0.051158
0.007177
0.256253
0.102600
0.010913
0.017078
0.094383
-0.061143
-0.039525
0.109034
-0.105341
0.088619
-0.063209
-0.068935
-0.123822
-0.204991
0.095948
-0.029811
0.152008
-0.161153
0.167343
0.278183
0.172661
0.200466
0.143255
0.037102
-0.114203
-0.171589
-0.055242
-0.101619
-0.213068
-0.107137
-0.122078
-0.021883
-0.005892
-0.117756
-0.172997
-0.019262
0.003589
-0.074801
0.009527
-0.068338
-0.096817
0.055703
0.069594
-0.125324
-0.111737
-0.043637
-0.024832
-0.056312
0.062004
-0.006875
0.007829
-0.147234
-0.150372
-0.086081
-0.108767
0.251387
-0.200300
0.066192
0.124575
0.167171
0.061637
-0.127928
-0.079673
0.034827
-0.181212
-0.312997
0.041450
0.016205
-0.032359
-0.030711
0.019793
0.036069
-0.051867
-0.362148
0.125249
0.049688
0.044799
-0.239107
0.139407
-0.162585
0.190059
0.115607
0.036846
0.044165
-0.149965
-0.072290
0.086244
0.013284
0.024360
-0.084787
0.248006
-0.055393
-0.188284
-0.029038
-0.013628
0.124228
-0.041662
-0.275672
-0.255885
-0.165995
0.129278
0.026432
-0.064245
-0.077099
0.176533
-0.102049
-0.098460
0.039287
0.037742
-0.020864
0.180468
0.096979
0.163801
-0.315186
0.056568
-0.010990
-0.065544
-0.104731
0.040015
0.021182
-0.161164
-0.078502
0.131119
-0.115165
0.154132
-0.262088
-0.093816
0.231136
-0.015598
0.217272
-0.107713
-0.132625
0.025852
-0.089414
-0.164691
0.082348
-0.062011
0.081080
0.031584
0.013238
-0.098180
-0.056086
-0.102635
0.038763
0.167264
0.152057
0.308966
0.143838
0.077810
0.100348
0.009292
-0.086752
-0.083324
-0.142856
0.000455
0.052425
-0.134081
-0.157889
0.058616
0.173723
0.019356
-0.026860
0.009755
0.228098
-0.274428
0.063048
0.094557
0.053436
-0.100658
-0.082487
0.282864
-0.027955
-0.014285
0.092680
-0.241062
-0.005901
0.047140
-0.165947
-0.007447
-0.244058
0.069234
-0.044006
0.003176
0.149374
-0.045740
-0.172113
-0.179427
-0.024123
0.281801
0.113162
0.010445
0.019723
-0.101068
-0.013200
-0.013162
-0.183798
0.234314
-0.179572
0.234895
-0.047276
-0.215887
0.061610
-0.046293
0.074909
-0.011179
0.118487
-0.025115
-0.064310
0.157650
0.196245
0.012392
-0.040453
0.014718
0.063467
-0.044237
0.229046
-0.214092
-0.067053
-0.078174
-0.153841
0.042628
-0.035881
0.216200
-0.168538
0.056225
-0.234071
-0.116591
0.000454
0.055033
0.084793
-0.194753
-0.112765
-0.037350
-0.166419
-0.108645
-0.135130
0.037890
-0.162508
-0.019158
-0.153398
0.134011
0.093534
0.159735
-0.053877
0.105091
0.029535
-0.187032
0.080745
0.046658
0.051773
-0.245039
-0.044522
-0.034800
-0.176466
0.162595
0.023788
0.098274
-0.112283
0.012402
0.072797
0.000963
0.228759
0.083262
-0.075588
-0.183300
0.127882
-0.049472
0.170995
-0.105479
0.216187
-0.051366
0.063942
-0.128581
0.205118
0.207068
0.062085
0.093235
0.097775
0.005825
0.213965
0.072891
0.053398
-0.137232
0.009445
0.023179
-0.032631
-0.111602
0.161599
0.160112
0.284258
-0.051354
-0.037637
-0.294396
0.016314
-0.117490
0.013442
-0.002407
0.360888
0.177458
0.009179
0.065253
0.171738
0.107846
0.041327
-0.190160
0.062956
-0.284809
0.291847
-0.041262
-0.183012
-0.084901
-0.061571
-0.149108
0.119164
-0.158310
0.011402
0.050750
-0.129638
0.126966
0.028343
-0.012200
-0.153676
0.046538
0.210234
0.011751
0.058875
-0.138409
-0.124959
-0.031571
-0.350543
0.132438
-0.025411
-0.026694
-0.263497
0.141519
-0.186867
-0.106743
-0.047180
-0.076351
-0.101070
-0.269837
0.017052
-0.175600
-0.065365
-0.147850
0.030614
0.035524
-0.157875
0.117510
-0.073139
-0.288987
0.331714
-0.101582
0.207962
-0.205287
-0.026620
-0.097209
-0.078967
0.032191
0.033598
0.295791
0.024825
0.077162
-0.147916
0.144294
0.020446
0.116663
0.077432
-0.158972
-0.164842
0.368993
0.148421
-0.013923
-0.015803
-0.010466
0.010557
0.091940
-0.017783
0.066810
-0.093537
0.109635
-0.124259
0.046600
0.086799
-0.048536
0.110908
0.164691
0.190613
-0.038558
-0.053156
-0.106796
0.074538
-0.077856
-0.044326
0.202857
-0.032640
-0.075578
-0.001004
-0.036893
0.053674
0.029524
0.227758
-0.064545
0.080897
0.125125
0.141333
0.025999
0.307629
-0.034232
0.190592
-0.117718
-0.021806
-0.007064
-0.037592
-0.082664
-0.085070
0.177284
-0.152391
-0.066618
-0.112489
-0.154784
0.094276
-0.025538
-0.026330
0.053153
0.121298
0.120491
0.175216
-0.067678
-0.014206
0.079112
0.046883
0.154400
0.088695
0.268829
0.157624
-0.127424
0.248290
-0.014784
0.039666
0.226402
0.066145
-0.031230
-0.154853
-0.095411
0.015708
-0.059819
-0.090171
-0.228161
0.033408
0.073616
-0.005767
0.019162
-0.087587
0.060345
0.045507
0.143956
-0.038881
0.025452
0.234886
0.011324
0.056636
-0.159443
0.103977
0.187351
-0.183823
0.237311
0.098831
0.076660
-0.068543
-0.130725
-0.114310
-0.068890
-0.153868
0.129641
-0.040850
-0.002202
0.013831
-0.065714
0.231091
-0.074645
-0.173654
-0.128414
-0.003049
0.068989
-0.098533
-0.179294
0.108713
-0.044311
0.194494
0.052617
-0.221592
-0.241382
0.136860
0.099579
-0.065020
-0.020141
0.045859
-0.098532
0.193072
0.082908
-0.132245
0.125239
-0.014674
0.103213
0.149843
0.053102
-0.116693
-0.165786
-0.042928
0.049372
-0.080858
-0.027507
0.039732
-0.126123
-0.071328
0.147492
-0.205170
-0.125543
-0.003319
-0.139748
0.116285
0.226673
-0.084083
0.214155
-0.221861
0.106411
-0.188869
0.014886
0.135198
-0.168354
-0.053026
-0.182999
0.003998
-0.098033
0.058805
0.076203
0.159239
0.061391
-0.065293
-0.127504
0.312492
-0.099345
0.075117
0.158825
-0.181249
-0.104734
-0.096004
0.236443
0.202265
-0.177568
0.072381
0.088100
0.000526
-0.066946
0.139009
0.022205
-0.107913
-0.197358
-0.140547
0.033730
-0.069751
-0.099809
0.213745
0.146455
-0.119468
0.037864
-0.186749
-0.049252
-0.115838
-0.075586
-0.233497
-0.217530
-0.033191
-0.046138
-0.031951
-0.034721
0.026635
0.210406
-0.264177
-0.156704
-0.083632
-0.119517
-0.195916
-0.164365
0.106350
0.064246
0.090041
-0.071661
0.054560
0.085165
0.180226
0.005206
-0.212543
0.006569
0.251005
0.169061
-0.340510
-0.028652
-0.011964
-0.019757
0.203646
0.150187
-0.017000
0.291372
0.166121
0.184034
-0.096753
-0.045978
-0.316203
-0.041961
-0.500425
-0.050843
-0.071242
0.187326
-0.008722
0.066775
-0.148760
-0.251264
-0.047050
-0.271480
0.208563
-0.070877
0.125757
-0.026492
-0.178487
-0.162796
-0.155390
-0.218869
-0.072346
0.057779
0.040000
-0.130729
0.034345
-0.128672
0.153545
0.209548
0.009843
0.163109
-0.017618
0.226741
0.090612
-0.059905
0.009379
-0.008725
0.126675
0.299047
-0.219815
0.116199
-0.432125
-0.245090
0.200194
0.058748
-0.003859
0.226102
0.122746
-0.102483
0.118866
-0.060636
0.142059
0.090225
0.001448
0.069647
0.008418
-0.070974
0.012263
-0.102024
0.064722
0.014034
0.069327
0.119057
0.074095
0.081556
-0.034667
0.121289
-0.161421
-0.087000
-0.083272
-0.056541
0.007994
-0.044647
0.121765
-0.204424
0.021782
-0.137723
-0.006965
-0.031364
-0.066129
0.307732
-0.123698
0.058394
0.315216
-0.083743
-0.034075
-0.040674
0.011011
-0.171688
0.110255
-0.159082
0.051671
0.058648
-0.061538
-0.003088
0.248671
-0.311062
0.011740
-0.107535
0.041619
-0.154858
0.105600
-0.096856
-0.221058
0.061968
-0.109121
0.037799
-0.083750
0.166901
0.053375
-0.119187
0.110165
0.048714
-0.097697
0.103915
0.179879
0.079622
0.062829
0.075491
-0.203266
0.051121
0.089469
0.102499
-0.045442
0.104532
-0.058993
0.050534
0.218581
-0.051375
-0.082381
-0.088198
-0.195118
0.085502
-0.125756
0.172965
-0.069222
-0.070226
-0.067469
0.024965
0.046471
0.181893
-0.026007
-0.045040
0.069689
-0.114277
-0.056070
0.017228
0.060075
-0.014574
-0.095382
-0.003063
0.009063
-0.064709
0.029907
0.133259
0.084017
0.027970
-0.121901
0.043526
-0.145547
-0.218238
0.154197
0.048575
0.033170
-0.190809
-0.046137
-0.097746
-0.021217
0.058693
-0.211312
-0.231587
-0.046279
-0.004229
-0.048960
-0.097338
-0.108431
-0.139052
-0.262683
0.093416
0.008413
-0.143034
-0.004816
0.134655
-0.035747
-0.239897
-0.159565
0.169197
-0.029493
-0.011315
0.128621
0.271085
-0.040341
-0.066308
-0.157833
-0.210621
-0.144193
-0.103756
0.010949
-0.179931
-0.032384
0.046227
-0.227601
-0.021422
0.122946
0.073322
-0.228487
-0.000800
0.077823
0.234589
-0.052375
0.093381
0.085130
-0.185343
-0.031879
-0.190752
-0.312753
-0.149262
-0.006844
-0.036312
-0.232369
0.020814
-0.003772
-0.018009
0.149517
-0.013285
-0.115048
-0.279130
-0.047079
-0.021170
0.056252
0.157038
-0.089045
-0.040218
-0.012632
0.039405
-0.091860
-0.236086
0.210999
-0.094892
-0.147186
-0.090463
-0.041687
0.045330
-0.203396
0.256581
-0.127271
0.108735
0.006983
-0.139495
0.345815
-0.023531
-0.115749
0.149152
-0.069409
-0.000252
-0.345286
-0.048768
-0.083372
-0.074703
-0.130424
-0.126740
-0.085544
-0.083532
-0.301526
-0.143360
0.056572
0.141216
-0.167584
-0.104668
0.093520
-0.099803
-0.016111
-0.190445
-0.182539
0.194692
0.011059
0.165321
-0.115748
-0.120086
-0.055038
0.027638
0.155719
0.112922
0.074229
0.287488
-0.194876
0.051229
-0.185957
0.035002
-0.037814
-0.296868
0.054262
0.015950
0.027190
0.201751
0.103683
-0.224490
-0.010235
0.001095
0.106084
-0.108659
0.171691
-0.086198
-0.289672
0.035878
0.123349
0.070752
0.166739
0.230567
0.043612
-0.046843
-0.085879
0.072155
-0.157169
-0.139657
-0.068660
-0.159843
-0.222374
0.073965
-0.005003
-0.074125
0.166314
-0.089837
0.024360
-0.020122
-0.200875
0.152516
0.036649
-0.296094
0.162884
0.027978
-0.037467
0.153426
0.001334
0.196527
-0.070621
-0.071320
0.027056
-0.137716
0.025092
-0.078363
0.201566
-0.223643
0.095714
0.031164
-0.064087
-0.056256
0.196653
0.064746
-0.117913
-0.005893
0.087841
-0.038265
-0.201752
-0.162962
0.292921
0.334061
-0.036363
0.000181
0.146335
0.103632
-0.291296
-0.150968
-0.026571
-0.054627
-0.198849
0.057219
-0.219385
0.187722
0.132598
0.163550
-0.122857
-0.058306
-0.133356
-0.033925
-0.013603
-0.283112
-0.076328
0.187370
-0.108366
-0.085291
-0.065551
-0.162479
0.033634
-0.120937
0.010320
-0.190312
-0.026037
-0.072556
-0.190122
-0.262035
-0.092651
0.103472
0.121266
-0.023121
-0.015944
0.068353
-0.051956
0.223629
-0.034416
0.221717
-0.068043
0.111541
0.112405
0.136029
0.029108
0.001041
0.141009
0.232519
-0.105035
-0.088350
-0.179276
0.014890
-0.101462
-0.151281
0.095480
-0.257526
0.139488
-0.103438
0.011311
-0.221088
-0.345588
0.296577
0.059701
0.091229
-0.292616
0.171128
-0.083410
-0.040849
-0.072352
0.245450
-0.029621
-0.116326
-0.032220
0.075635
0.209806
0.082885
-0.081352
-0.056147
-0.013051
-0.208617
-0.047995
0.057926
0.024222
-0.056123
0.094397
0.041782
-0.044089
-0.080464
-0.246189
-0.071967
-0.168529
-0.054643
0.208425
0.069308
0.037083
0.137965
0.192907
0.222997
0.058196
0.163415
-0.031096
0.158301
0.105427
0.169958
-0.149129
-0.089910
-0.145804
-0.114374
-0.160580
0.008582
-0.164012
0.117326
-0.053829
-0.053847
-0.106773
0.062708
-0.228354
0.177472
0.369123
-0.015711
0.000892
-0.119404
0.177995
0.007529
0.026038
-0.153976
-0.264092
0.119119
0.074925
0.021217
-0.137575
0.063880
0.118607
-0.120811
-0.185700
-0.117007
0.026469
0.060650
0.056768
0.163586
0.060552
-0.059302
-0.017686
-0.088450
-0.110460
-0.016673
-0.005688
0.238916
-0.116441
-0.267504
-0.002551
0.046843
0.049224
0.055536
-0.122908
-0.054455
0.205349
0.037458
0.039240
-0.091592
-0.007202
0.213256
0.006706
-0.097604
-0.029959
-0.064667
0.003044
-0.070894
0.150917
-0.231336
0.067677
0.220763
0.091703
0.038567
0.015595
0.080528
-0.112709
0.127989
0.024767
-0.261115
-0.105571
0.104952
-0.200622
-0.111723
0.223305
0.062126
0.095043
0.026844
0.163039
-0.040583
-0.027936
-0.177947
0.002107
0.105281
0.018148
0.142834
0.214020
-0.185417
0.108249
0.022724
0.059607
0.020186
-0.151514
0.045268
0.062995
-0.040504
0.150716
-0.047923
0.000857
-0.088551
0.366434
0.035161
-0.166434
0.249490
0.130062
0.125553
0.256615
-0.061292
-0.127210
-0.255496
-0.017052
0.140982
0.042158
-0.032995
-0.051143
-0.107656
0.104870
-0.106050
-0.103552
0.062468
0.062369
-0.100148
0.065163
0.382617
0.224524
-0.057053
-0.019351
-0.117749
0.229344
0.083507
-0.184381
-0.116563
-0.044341
-0.114842
-0.039239
-0.224043
-0.012386
0.010603
0.087563
-0.194290
0.070394
0.187525
-0.038445
-0.108596
0.022431
-0.188688
0.112426
-0.004449
0.047113
0.018602
0.071442
0.056778
0.025886
0.167332
-0.036762
-0.206715
-0.033371
-0.236302
0.224588
0.138525
0.127825
0.135699
0.252319
0.129327
0.176470
-0.049312
-0.111309
0.098098
0.111884
-0.079860
0.004780
-0.016579
0.118478
-0.134235
0.098832
0.170191
0.157442
0.063217
0.038728
0.045810
0.024854
0.176177
-0.042004
0.303000
0.118419
0.051551
-0.363481
0.182281
0.293652
0.014995
-0.041984
-0.125855
0.021947
-0.104150
-0.015853
-0.015379
0.210352
-0.076128
0.029148
0.006355
0.060944
0.096514
-0.022605
0.012500
0.047794
-0.182620
-0.167373
-0.135693
-0.084960
0.214489
0.014823
-0.262831
-0.183202
-0.141113
-0.018505
0.092487
0.015896
0.128984
-0.155213
0.113915
0.001910
-0.246597
-0.070072
-0.310137
-0.060031
0.210069
0.192842
-0.039111
0.106682
0.178901
0.022991
-0.051109
-0.000564
-0.096300
0.117224
0.015494
-0.194802
0.000443
0.036676
-0.004483
-0.004550
-0.097334
0.125008
-0.066236
0.082552
0.156756
0.137688
0.111108
0.102531
-0.070465
0.137577
0.002898
-0.197891
-0.031835
-0.073585
0.192781
0.022999
0.123206
0.150486
0.114037
-0.033904
0.114312
-0.050849
-0.117415
-0.018498
0.091040
-0.183586
0.127329
0.154405
-0.182954
-0.011620
0.248406
0.014218
0.218756
-0.005819
0.133634
-0.060697
-0.166948
-0.234086
-0.093375
-0.139728
-0.015401
0.049354
-0.044314
0.045286
-0.311839
-0.081029
0.032605
0.178455
-0.204651
0.081112
0.119159
0.106065
-0.202400
-0.180432
0.073376
-0.058219
0.124406
0.155785
-0.125823
-0.113566
0.167672
-0.001100
0.054666
-0.037559
-0.088129
0.271344
-0.157485
-0.163420
0.047101
0.010964
0.073952
-0.021764
-0.088793
0.123633
0.050796
0.003841
0.079237
0.149867
-0.099685
0.039313
0.130157
0.065101
0.023155
0.043159
0.154138
0.116302
-0.139285
0.033126
0.089463
-0.167403
0.099171
-0.049298
0.179762
0.024866
-0.117876
0.241749
-0.087627
-0.111293
-0.057279
0.002193
0.049372
-0.270922
0.257333
0.203168
-0.010540
-0.004650
0.021836
0.294512
0.174584
-0.086292
0.024575
-0.173292
-0.293482
-0.139443
0.014217
-0.012579
-0.329110
0.037354
-0.016931
0.195199
-0.021544
-0.179191
0.071314
0.002427
-0.029261
0.180626
-0.081685
-0.129121
0.018188
0.203728
0.157208
-0.094866
-0.039075
-0.035719
-0.146165
-0.084176
0.142509
-0.256511
0.122558
-0.251014
-0.144232
0.000237
0.111770
0.100294
0.092514
-0.009761
0.133192
0.106011
0.163727
-0.124097
-0.247543
-0.035546
-0.261971
-0.120099
-0.083616
-0.136198
-0.027075
-0.222849
0.010713
-0.004567
-0.154156
-0.247971
0.006224
0.042969
0.205251
0.066047
0.066136
0.030557
0.179254
0.037180
-0.112075
0.019723
0.062612
0.085310
-0.100038
-0.004272
0.004990
-0.108839
0.133310
0.088359
-0.012238
-0.066072
0.088406
0.031359
-0.124930
-0.228043
-0.183022
-0.028863
0.004973
-0.122712
0.066775
-0.027862
-0.090185
-0.156855
0.039925
0.050994
-0.068438
-0.081999
-0.023873
-0.119466
0.185381
-0.090700
-0.123466
0.125251
-0.099162
0.048311
0.018885
-0.157866
-0.135263
-0.208279
-0.093213
0.110818
0.075523
-0.074700
-0.073082
-0.011578
-0.099871
-0.153834
0.064810
-0.044592
-0.038404
-0.160957
0.136952
0.097900
0.141251
0.031954
0.200474
-0.088003
-0.253702
-0.157499
-0.023062
-0.122050
-0.004065
0.123228
-0.049583
0.039079
0.208084
-0.020970
-0.101311
-0.163647
-0.109799
-0.064088
0.101135
-0.039019
0.260672
0.065219
0.096806
0.028662
0.106407
-0.069658
-0.127693
-0.087710
0.131154
0.113399
-0.005780
0.042155
0.003498
-0.037764
0.089279
0.165754
0.156138
-0.108615
-0.058567
-0.022357
0.215416
-0.035285
0.101256
0.071439
-0.214298
-0.117926
-0.055821
-0.015037
0.043848
-0.038244
-0.064884
-0.106854
0.118402
-0.069174
0.256392
0.269406
0.154268
-0.017568
-0.018819
-0.159866
0.118922
0.079336
-0.111501
-0.068849
0.147766
0.103153
0.013251
-0.029966
0.133592
0.101576
-0.003083
0.069057
-0.108190
-0.197458
0.150660
-0.073809
0.103607
-0.028525
-0.055559
-0.107275
-0.060770
0.036430
0.233231
-0.211429
0.103792
-0.012841
-0.293259
-0.069199
-0.137917
-0.103482
0.261231
0.009972
-0.115081
0.053061
-0.246125
-0.069868
-0.055180
-0.153162
0.084680
0.102221
-0.131680
0.034484
-0.084910
0.121546
-0.039871
-0.139549
-0.180397
0.069967
0.034049
0.008866
0.088111
-0.000402
-0.094603
0.264233
0.099833
0.227508
-0.061755
-0.186068
0.057248
-0.084085
0.035050
0.078353
-0.088816
-0.042590
-0.099332
0.054965
-0.121915
0.166072
0.061924
-0.124904
0.027537
0.259475
-0.218824
0.173284
-0.158445
-0.227109
-0.205871
0.078710
-0.134798
0.039494
0.265651
0.178519
0.050010
0.067106
-0.046595
-0.179645
-0.125732
-0.117509
-0.068076
-0.085795
-0.119167
-0.026427
0.034563
0.029558
-0.053266
-0.266426
-0.043260
-0.013228
-0.190036
0.309836
-0.268226
-0.071595
0.115173
0.038220
-0.208740
-0.174728
0.178961
0.005992
0.159334
0.195881
0.119530
0.124868
-0.305362
0.135088
-0.380967
-0.017761
-0.255501
0.091316
-0.367070
0.055951
0.025549
-0.029586
-0.074566
0.134468
0.131860
-0.122526
-0.219409
0.146289
0.147169
-0.050554
-0.002331
-0.046388
0.092033
0.015095
0.049370
0.044623
-0.094585
-0.110428
-0.001804
0.145679
0.059298
-0.072412
0.056968
-0.122543
0.103713
0.058773
0.153105
0.011324
0.030342
0.154705
-0.306631
0.006848
0.084134
-0.135912
-0.310596
-0.267729
-0.142142
0.336396
-0.042525
0.233831
-0.112890
-0.095877
-0.190973
0.100866
0.116594
0.070224
0.114987
-0.042796
0.084826
-0.071705
-0.027192
-0.090469
0.099693
-0.279618
0.149113
0.097748
0.062459
-0.065936
-0.099200
-0.091881
0.097825
0.075803
0.066770
-0.095109
0.126802
-0.008585
-0.042382
-0.022887
-0.273790
-0.240759
-0.136514
-0.137402
-0.165647
-0.107917
0.077685
0.033873
-0.196544
0.127774
-0.047909
0.022714
0.090831
0.160362
-0.043173
0.067023
0.138206
0.274068
-0.018471
0.012894
-0.063592
-0.279351
-0.217029
-0.146252
-0.107840
-0.073049
-0.028281
0.064875
-0.136682
0.098274
0.174340
0.003899
-0.047980
0.047626
-0.217196
-0.087310
-0.110488
0.025712
0.034028
-0.124523
-0.117421
-0.093171
0.096157
0.090667
-0.137857
-0.211028
-0.026672
0.028439
0.083933
-0.265928
-0.013905
-0.045339
-0.136533
0.040616
-0.012166
0.005390
-0.033119
-0.108823
0.075742
-0.038196
0.143712
-0.176318
-0.014088
0.379514
-0.125179
0.054755
-0.213383
-0.070850
0.026851
-0.061441
-0.143877
0.075372
-0.041637
-0.182442
-0.027011
-0.201564
-0.157523
0.086523
-0.095435
-0.029461
-0.215255
0.072797
0.043637
-0.190268
0.019524
-0.253163
-0.023144
-0.219395
-0.130303
0.087584
-0.041325
-0.050443
0.195708
-0.014408
-0.076258
0.026513
-0.122970
-0.113356
0.049513
-0.122188
0.039739
0.044781
0.041207
-0.133222
-0.057476
-0.178074
0.081145
0.017257
-0.141752
0.079831
-0.258351
0.080138
-0.104282
-0.077292
-0.040356
0.023159
0.168850
-0.068859
-0.025004
0.200501
0.060444
0.128676
0.021304
0.079352
-0.039798
0.028142
-0.061966
-0.101126
-0.155789
0.087767
0.152073
0.086093
-0.034360
0.029451
0.199461
0.152449
0.048391
-0.103423
-0.245018
0.186526
-0.165665
0.066524
-0.050684
-0.078456
-0.200170
-0.191217
-0.061254
0.286472
0.241578
0.004898
0.031094
0.164133
-0.045153
0.072999
-0.098594
0.215881
-0.054717
-0.240753
0.134697
0.010254
0.090455
0.276464
0.156731
-0.010330
-0.184877
-0.407729
-0.023716
-0.030107
-0.076706
-0.053161
-0.106695
0.112368
0.004049
0.046133
0.011516
0.078333
0.058584
0.087824
0.074819
-0.146960
-0.259913
0.035523
-0.144209
0.062108
-0.230951
0.015073
0.027626
0.044499
0.106134
-0.042594
-0.264812
0.172040
-0.036248
-0.201971
-0.201981
0.127867
0.224534
-0.026822
-0.134568
-0.108308
-0.203116
-0.312162
-0.058273
0.254783
0.068695
-0.255826
-0.089101
-0.233646
0.126438
-0.104578
-0.122511
-0.100984
-0.212617
-0.107421
0.079190
-0.059828
-0.070870
0.040762
0.106705
-0.039924
-0.373080
0.201003
-0.131174
0.183644
-0.293267
-0.024361
-0.048641
0.119339
-0.061297
-0.277375
-0.040264
0.089001
-0.087726
0.101627
0.178684
0.000035
0.282998
-0.072177
0.212226
0.050321
0.193693
0.090818
0.094443
0.063083
-0.029582
-0.048934
0.012335
-0.036659
-0.040046
-0.238640
-0.027124
-0.038962
0.087624
-0.150279
0.027546
0.071822
0.085500
0.127911
-0.107735
0.031431
0.128413
-0.026295
-0.062365
-0.229515
0.017836
-0.351507
-0.108198
-0.096774
-0.091668
0.166085
0.045972
-0.084264
0.071532
-0.110653
0.110728
0.167417
-0.079218
0.006452
0.184876
0.004161
-0.072539
-0.151470
0.048882
-0.123509
-0.143582
-0.043637
0.046364
-0.156191
-0.017540
-0.017524
0.034740
0.070581
-0.393993
0.034626
-0.144262
-0.206495
-0.003676
-0.030203
-0.052269
0.017190
0.204797
0.043224
-0.117792
0.114322
-0.056400
-0.338924
-0.114573
-0.119579
-0.043963
0.066011
0.104663
-0.036174
-0.135864
0.047027
0.229627
0.003393
0.188894
0.026018
-0.086571
-0.159494
-0.177017
-0.332647
-0.247926
-0.137077
0.087847
-0.185051
-0.003832
0.050953
-0.090533
-0.284443
0.038635
-0.114341
-0.041214
0.013606
-0.031772
-0.330598
0.183015
0.075728
-0.047970
0.029464
-0.143076
0.067879
-0.080107
0.015811
-0.194367
0.098640
0.086369
-0.038853
-0.296147
-0.070916
0.176306
0.292818
-0.187496
-0.023018
-0.442619
0.083320
0.087308
-0.169436
0.022475
-0.070940
0.059692
-0.033987
-0.177982
0.096226
0.128273
0.009142
0.196683
0.177645
-0.021195
-0.152429
-0.018854
-0.029191
0.126728
-0.005666
-0.105292
-0.072234
-0.040982
-0.233408
-0.015290
-0.127948
0.165590
-0.179217
0.123261
0.180729
0.206750
0.120624
-0.001029
0.033675
0.309267
0.084528
-0.191968
-0.109957
-0.201582
-0.015739
-0.152244
0.103571
0.039704
0.115898
0.034644
0.011881
0.177104
0.086865
0.200696
0.062115
-0.110006
-0.021107
-0.099553
0.018222
-0.001655
-0.038009
0.003703
0.000221
0.064123
0.174696
-0.058438
-0.007549
0.098518
-0.099450
0.005701
0.068899
-0.090854
-0.009913
0.044681
-0.369881
0.101007
0.124021
-0.037983
-0.162615
0.249437
0.050569
-0.084722
-0.067598
-0.170954
-0.205916
0.079551
-0.250160
-0.086326
-0.023889
0.211515
0.210144
0.135811
-0.091820
0.107705
-0.118896
-0.040422
-0.092228
0.233830
-0.172150
-0.087255
0.156849
-0.181756
-0.228705
0.136515
0.004505
0.028552
-0.132435
-0.040147
-0.097795
0.149352
-0.140386
0.010045
-0.177920
0.034553
-0.131419
0.032651
0.084745
0.041970
-0.019234
-0.187939
-0.033375
-0.098428
-0.071811
-0.055073
0.039472
0.209977
0.044763
-0.072527
-0.214918
0.100297
0.098971
0.006161
0.079494
-0.073970
0.187428
-0.068394
0.053046
0.035890
0.011249
0.151648
-0.011812
0.012222
-0.158854
-0.124082
-0.142095
0.071651
0.177228
-0.159207
0.048457
-0.070110
-0.016942
-0.090475
0.023865
0.046251
-0.048649
0.036224
-0.100164
0.030256
-0.049477
0.037715
0.017976
0.029300
-0.054737
0.190624
-0.007587
-0.023566
-0.022096
0.088898
-0.116373
-0.111034
-0.026496
-0.043711
-0.067762
-0.160761
-0.238400
-0.121366
0.071302
0.035156
-0.153268
0.097260
-0.171709
0.315377
0.092523
0.141643
0.162828
0.217919
0.103825
-0.033625
0.051542
0.152198
0.045657
-0.121587
-0.081323
0.108461
-0.117860
0.059443
0.111791
-0.045694
0.146821
-0.039370
-0.081840
-0.051486
-0.073154
0.056367
0.010844
-0.018416
-0.108977
-0.122399
0.084052
-0.103447
0.009558
-0.099965
0.087877
-0.123529
-0.316512
0.151393
-0.046613
-0.108890
-0.045034
0.013523
0.029755
-0.042400
-0.006695
0.042159
0.155753
0.061943
-0.211276
-0.166924
-0.038272
0.129657
0.090607
0.340289
-0.020602
0.063324
0.196101
-0.116440
-0.246391
-0.054392
0.206134
0.085239
-0.092466
-0.196490
-0.062136
0.183965
0.045324
-0.140087
-0.054774
0.029141
0.069794
0.044311
0.154820
-0.162431
0.150682
-0.048796
-0.224518
-0.307358
0.162775
0.100006
0.226051
-0.041989
-0.137438
-0.046963
0.118474
-0.034227
0.007402
0.141645
0.077054
-0.048916
-0.129263
0.103222
-0.081398
0.068859
-0.142395
0.074733
0.070874
0.131422
-0.068877
0.058528
-0.132084
0.201666
0.095829
-0.158402
0.034919
-0.016009
-0.253776
-0.184527
-0.156391
0.059647
-0.200473
-0.049980
0.140194
0.063293
0.171003
-0.261550
0.213436
-0.060854
0.047723
-0.001548
-0.064610
0.179917
-0.078240
-0.048684
0.154132
-0.022713
0.054832
-0.039424
-0.125689
-0.155731
-0.144266
-0.075097
0.023345
0.254651
-0.022704
0.227198
0.000508
-0.109181
0.035362
-0.215318
-0.003411
-0.149223
-0.134985
0.054205
-0.100010
-0.010852
0.145875
-0.155490
-0.257802
-0.079636
-0.151041
-0.173125
0.041631
0.055276
-0.155475
0.110548
0.117014
-0.037748
0.077622
-0.099361
-0.028094
-0.161972
-0.053359
-0.112530
-0.110854
-0.223711
0.015486
-0.039694
0.105800
-0.246552
-0.180624
0.003747
0.147386
0.065055
0.079881
0.042015
0.236929
-0.029596
-0.075199
-0.414287
0.040790
0.153872
0.036368
0.043230
-0.157054
0.090442
0.033571
0.110165
-0.114483
-0.100928
0.036107
-0.155384
-0.335242
0.092439
0.031518
0.056674
-0.002705
-0.131684
0.048747
-0.065920
-0.119851
0.174126
0.236873
-0.020706
-0.115772
-0.076273
-0.130756
-0.074652
-0.111517
-0.386545
0.104823
-0.169088
-0.078781
0.155667
-0.077610
0.055953
0.125292
-0.194517
-0.026594
-0.035199
0.083986
0.047718
-0.093238
-0.052117
0.107497
-0.183175
0.036477
-0.028943
-0.116443
-0.014308
-0.192353
-0.146357
-0.023960
-0.228227
-0.208661
0.169600
-0.084929
0.123076
0.056854
-0.064832
0.004667
0.148251
-0.014336
-0.069790
-0.088307
0.110704
0.131379
0.193427
0.028608
-0.120230
-0.167376
-0.046365
0.133127
0.221188
0.063650
0.091842
0.077556
0.072833
0.007057
-0.002785
0.019757
0.007819
0.136245
-0.304145
0.029388
-0.132057
-0.085018
0.072229
-0.065036
-0.154393
0.024956
0.076045
0.224280
-0.283564
0.036318
0.025736
0.045668
-0.030246
-0.102573
-0.042416
-0.130009
0.017260
-0.095954
-0.021055
0.010041
0.014225
-0.071544
0.012728
-0.071352
0.196513
0.047550
0.199672
-0.172670
-0.084957
0.143774
-0.047818
-0.000729
0.137764
0.037534
0.141600
-0.162772
0.061975
-0.085567
0.121326
-0.109600
-0.323130
0.263387
-0.130916
-0.133431
0.140359
0.218875
-0.018408
-0.017546
0.018795
-0.088314
-0.018748
-0.131324
0.068242
-0.045911
-0.007926
0.057820
0.109232
0.152248
-0.071400
-0.001702
0.008259
0.154428
-0.010147
-0.043230
-0.041967
0.052117
0.085636
0.222279
-0.065698
-0.040008
-0.118765
0.267478
0.069819
-0.003110
-0.183272
-0.009554
0.066411
0.009191
-0.006362
-0.068432
-0.053261
-0.003817
0.224644
-0.034310
-0.003105
-0.102397
0.150337
-0.073520
0.152258
0.093774
0.011889
0.095259
0.085785
0.162335
0.008169
-0.007594
-0.048209
-0.080078
0.084228
-0.102475
-0.181492
0.118961
0.032923
-0.186525
-0.012844
0.054504
0.097560
-0.061633
0.073277
-0.202805
0.106854
-0.034799
-0.078260
-0.073634
0.105900
0.082879
-0.047993
0.241655
0.007426
0.223167
-0.110315
-0.113062
0.108919
-0.116125
0.057456
0.095988
0.008772
-0.026428
0.054979
0.360848
-0.176979
0.156707
-0.141802
-0.089534
0.112261
-0.036756
-0.070611
0.114662
-0.158671
0.141134
-0.088428
-0.078151
0.057130
0.075111
-0.037840
-0.143835
-0.099787
0.058828
0.123312
-0.030103
-0.056271
0.004948
-0.157725
-0.090297
-0.089005
-0.050110
0.107311
0.074934
-0.263178
0.183113
-0.065177
0.030189
-0.069321
-0.015275
-0.268660
0.104787
-0.188970
-0.084527
0.169672
0.122747
0.118272
0.067734
-0.103787
-0.018225
0.033180
-0.119920
-0.051285
0.261187
0.018093
0.009284
0.232509
0.111416
0.173008
0.073953
-0.183616
0.049201
0.037363
0.074515
-0.023949
0.331560
0.185149
0.366610
-0.061778
0.001366
0.274321
0.189898
0.131469
0.062100
-0.189161
-0.167556
0.000795
0.125867
-0.007713
-0.003287
-0.080379
0.353260
0.117651
-0.161733
0.134290
0.158351
0.100862
0.076952
-0.021605
-0.187988
0.229521
0.065798
0.088759
-0.077843
-0.035485
0.039300
0.014650
-0.211965
-0.076855
-0.040011
0.107479
-0.134722
0.120071
0.032916
-0.013892
0.021515
0.049285
-0.159236
0.132010
0.086153
-0.008732
0.182143
0.104226
-0.083662
0.119413
0.289062
-0.059976
-0.142160
0.061176
0.000648
0.024910
-0.117196
0.054720
-0.244759
0.017434
0.079486
-0.206882
-0.083637
-0.064808
0.043026
0.113436
0.129246
0.121624
0.016840
0.053004
0.049526
-0.180035
-0.106378
0.150190
-0.145065
-0.012008
-0.071368
-0.051133
-0.093496
0.124096
-0.239210
-0.056406
-0.020970
-0.006422
0.274472
-0.131980
0.127219
-0.102925
-0.043369
0.020856
-0.030844
0.067839
0.325888
0.235410
-0.040689
-0.186546
0.330530
0.046423
0.101805
0.048191
-0.139912
0.002775
-0.154906
-0.107755
0.019238
0.029710
-0.003228
-0.118285
-0.066146
-0.090094
0.164766
0.239654
-0.026351
-0.101041
0.070872
0.016491
0.062117
0.064963
0.164428
0.013519
0.018277
-0.101572
-0.096637
0.072641
-0.140455
0.171066
0.029082
0.107645
-0.201465
0.139332
0.094864
-0.044973
0.095965
-0.038538
0.066511
0.028430
-0.110696
-0.068872
0.165063
-0.003788
-0.336703
-0.121231
0.036088
-0.058006
-0.153790
-0.067184
-0.159111
-0.174846
0.029073
0.016620
-0.015051
-0.138104
-0.174335
0.204317
-0.088973
0.100464
-0.135063
-0.074668
-0.041601
-0.211468
-0.160665
0.095743
-0.309816
0.119497
-0.160024
-0.127242
-0.121143
-0.151417
-0.007980
0.255875
-0.244556
-0.313460
-0.166322
-0.044417
-0.265208
0.013983
-0.238004
-0.182542
-0.070998
-0.128735
-0.148067
0.197180
-0.122680
0.172961
-0.092833
0.030378
-0.038143
0.260646
0.118902
0.012462
-0.054639
-0.014818
0.032546
-0.058775
-0.179310
-0.014398
0.148533
-0.022839
0.059412
-0.093374
0.019769
-0.066619
-0.055324
-0.098275
-0.034133
0.201308
0.017567
0.081033
0.195290
-0.048545
0.023287
0.071594
0.006722
-0.120501
0.045513
-0.199877
-0.248953
-0.212132
-0.233580
0.229548
0.193206
-0.005527
-0.093453
0.144078
0.030108
0.008045
0.159359
-0.168576
-0.115501
-0.049505
-0.013943
-0.279818
0.137634
-0.159204
-0.096566
-0.066625
-0.090436
0.166212
-0.200546
-0.149202
0.034811
-0.042481
-0.105745
-0.127639
0.190419
-0.040390
-0.058137
0.063818
0.149975
0.196155
0.243593
-0.070343
0.041471
0.173153
-0.051154
-0.067726
0.128951
-0.041120
-0.075721
-0.148703
-0.034773
0.088921
0.006690
-0.024470
0.086864
-0.038270
-0.129768
0.059741
-0.091472
0.035727
-0.308986
0.139553
0.152190
0.001181
-0.223856
-0.065211
-0.101381
0.049788
0.179954
0.020826
0.021506
-0.227209
0.050625
0.221458
-0.081464
-0.047678
-0.032112
-0.011730
0.035798
-0.050459
-0.005006
0.035144
-0.163094
0.007787
-0.030422
0.118615
0.012553
0.013652
-0.138134
-0.188884
-0.209898
-0.037983
0.040267
-0.024713
-0.077897
-0.128801
0.073165
-0.132068
0.224462
0.007171
0.075823
0.012631
-0.083822
-0.056160
0.170298
0.111737
0.190198
0.061637
0.227312
0.040917
-0.284448
-0.165817
0.001829
-0.110512
-0.060801
-0.100579
0.047547
-0.013371
-0.129202
0.019388
0.096987
0.030101
-0.121550
0.161001
0.149922
-0.181163
0.127599
-0.164576
-0.181614
0.059249
-0.110456
-0.108788
-0.001894
0.037125
-0.082346
-0.137210
0.071933
0.059043
-0.193404
0.010394
-0.103842
-0.072750
-0.082012
-0.051072
0.041680
-0.110083
-0.022864
0.105046
-0.162763
0.034971
-0.228876
-0.027233
0.046399
-0.250751
-0.202742
-0.201936
-0.169682
-0.159711
-0.125745
0.033063
-0.268561
-0.255453
-0.043294
-0.003144
0.028840
0.251018
0.032708
0.023766
-0.192859
-0.116552
-0.103969
-0.182745
-0.245896
-0.309896
-0.157379
-0.231262
-0.057344
0.049753
-0.036096
-0.026964
0.115004
-0.087602
-0.158152
-0.214614
-0.074584
-0.129026
0.077582
0.029854
0.017686
0.187026
0.117799
0.168747
-0.058424
0.083371
0.042244
-0.079306
-0.267880
-0.087528
-0.143381
-0.133975
-0.024252
-0.070562
0.029705
-0.157999
-0.125490
-0.027389
0.034052
-0.102931
0.071456
0.222294
-0.113919
-0.185731
0.362635
0.079125
-0.072830
0.183579
-0.155502
0.205604
0.332497
0.112957
0.141464
0.026400
-0.151199
0.248379
-0.105657
-0.133910
0.073807
-0.188839
-0.154677
0.090332
0.049908
0.165970
0.006225
0.148749
-0.110368
0.070203
0.273793
0.314322
-0.243293
-0.032879
-0.208376
0.153361
-0.207558
0.079959
-0.201757
0.019797
-0.012213
-0.113846
0.148428
-0.027552
-0.086077
0.052406
-0.255848
0.117971
-0.153591
-0.141821
-0.320155
0.018309
0.030861
-0.085200
0.116048
-0.060834
-0.234690
-0.315141
-0.036665
0.403898
-0.387059
0.190352
-0.028415
-0.057534
-0.064726
-0.071633
-0.018097
-0.107944
-0.051467
0.036598
-0.151520
-0.030507
-0.221809
0.118117
-0.092003
0.251104
0.071456
-0.005749
-0.092928
-0.098209
-0.156752
-0.020531
-0.224604
-0.281941
-0.142727
0.052563
-0.002564
0.074517
0.018379
-0.068696
-0.306209
0.050542
0.166573
-0.168488
-0.032450
0.031857
0.107916
-0.161843
-0.083034
0.019504
-0.315014
0.026638
-0.069488
-0.182719
0.092122
-0.094296
-0.048048
-0.199582
-0.154606
-0.030536
-0.107781
0.069905
0.091479
0.203687
-0.194996
0.025768
-0.146730
-0.047008
-0.018369
-0.001745
-0.074522
-0.138085
0.171662
0.076564
0.037128
-0.099107
-0.113043
-0.059972
0.022515
0.131639
0.025927
0.160147
-0.034709
-0.126248
0.031500
0.032051
-0.202534
-0.192398
0.090832
0.024535
0.222874
0.121991
-0.122591
-0.219026
0.263565
0.114571
0.043804
0.171303
-0.023987
0.014497
0.388356
-0.162767
0.056330
-0.196982
-0.064452
-0.279442
-0.023574
-0.099329
0.189287
0.003411
-0.060571
-0.039747
-0.173341
-0.200157
-0.140058
-0.087722
0.206935
0.205346
-0.023950
-0.219563
-0.130785
-0.014404
0.056923
-0.230462
-0.189976
-0.148554
0.236829
-0.303610
0.302036
-0.068072
-0.150837
0.270530
0.142091
0.048825
-0.141814
0.124153
0.162970
0.139455
-0.203310
0.010662
0.274160
-0.183363
-0.189797
-0.054999
-0.106886
-0.114534
0.055964
-0.083457
0.096565
-0.057560
-0.133776
0.123225
0.234061
0.057431
-0.036712
-0.078587
0.233350
0.193222
0.161082
-0.014401
-0.177141
0.078630
-0.031755
0.241436
0.010440
-0.077234
-0.048029
-0.235404
0.000937
-0.130411
-0.110968
-0.150003
-0.214670
-0.028133
-0.126849
0.101677
-0.203563
-0.260171
0.198871
0.049527
-0.224112
-0.047682
0.003425
-0.308071
-0.278892
-0.090389
0.189455
-0.156211
0.011417
0.038650
-0.089801
-0.061252
-0.019986
-0.004566
-0.114140
-0.125435
-0.150128
0.120905
-0.118455
-0.227082
0.035048
-0.092053
-0.281120
0.187234
-0.118537
-0.040953
-0.138606
0.009568
-0.107004
-0.244243
0.158134
0.102259
-0.029795
0.107863
-0.123732
-0.024991
0.196162
0.087629
-0.124946
-0.092856
0.001738
0.005206
-0.083434
-0.003367
0.051396
-0.143250
0.022319
0.285107
-0.013153
-0.039688
-0.080148
0.229308
0.275116
0.241068
-0.079260
0.157056
-0.074012
-0.112943
0.028231
-0.099973
-0.059946
-0.015984
0.044005
-0.059131
0.183114
-0.001113
-0.085652
-0.019678
-0.200106
-0.116741
-0.081886
-0.086439
0.044421
-0.010106
0.150328
-0.223303
0.179503
0.013937
-0.008669
0.253484
-0.096641
-0.114597
-0.110397
0.185200
0.040891
-0.105033
-0.040700
0.010429
0.016754
0.001279
-0.241323
0.020563
0.093599
0.039620
0.102627
-0.182920
0.057727
-0.017096
0.127475
-0.163410
0.088229
0.053863
0.096625
0.212364
0.016473
-0.065906
-0.056599
0.015393
-0.055288
0.054047
0.354620
0.172318
0.000809
0.054664
0.138277
0.141528
0.211135
0.002038
0.171335
-0.010859
-0.027895
-0.137600
0.003415
0.149940
0.277403
-0.125298
-0.165311
-0.005808
-0.129353
0.073480
-0.012020
-0.110029
0.167864
0.177853
0.012533
-0.062506
-0.171460
-0.027360
0.346482
0.025108
0.124125
0.132472
0.019450
-0.010054
-0.013458
-0.164235
-0.115109
-0.118390
0.043989
0.067550
-0.008428
0.288646
-0.163809
0.105601
-0.361690
0.041497
-0.074288
-0.044981
0.082798
0.102926
0.035207
-0.013762
-0.063658
-0.050016
0.278260
-0.106651
0.049115
0.389952
-0.007163
-0.186018
0.016132
0.071092
-0.022336
-0.011954
0.129946
0.124314
0.044594
-0.056326
0.069098
-0.025781
0.203614
0.123214
-0.092877
-0.043087
-0.044311
-0.039668
-0.091580
-0.041854
-0.023445
0.037666
0.034348
-0.038860
0.124400
0.167901
0.127829
0.011319
-0.020992
-0.006656
0.169114
0.204317
-0.025958
-0.020434
0.152624
-0.004304
0.026249
0.148824
-0.188002
0.099529
-0.015506
0.074720
0.076448
0.163880
0.092258
-0.072040
0.144949
0.137246
0.089695
-0.239216
-0.143768
0.079426
0.004792
0.106119
0.255601
-0.063696
-0.107765
0.118827
-0.183633
0.512219
0.061417
0.139693
0.209909
-0.153327
0.013321
-0.154450
-0.006122
-0.065364
-0.089891
0.019722
0.068090
0.014476
-0.025153
-0.037466
-0.059656
-0.127337
-0.244402
0.173547
-0.019212
-0.084968
-0.048569
-0.109503
0.023776
-0.125830
0.100542
-0.117118
-0.030457
0.043826
0.203392
0.123971
-0.221940
-0.061379
0.172576
-0.022180
0.051189
0.120488
0.009228
-0.066694
0.100533
0.081634
0.182360
-0.098259
0.221169
0.035970
-0.243548
-0.035568
-0.050435
0.057620
-0.097325
-0.307490
0.201640
0.094989
0.032232
0.075255
0.029800
-0.007482
-0.107982
0.160064
0.130199
0.082499
0.231926
-0.184405
-0.092924
0.098810
-0.001815
-0.019167
0.088517
0.016014
0.175825
0.155219
-0.125627
-0.012132
-0.092500
-0.058281
0.011512
0.030456
0.064112
0.225886
0.067029
-0.085138
-0.025415
0.037415
0.129295
-0.008269
0.021743
0.021319
0.112632
-0.246333
0.032221
-0.109090
0.158628
0.058468
-0.074201
-0.217221
0.094434
-0.222172
0.188358
0.066029
-0.138852
-0.263595
0.044965
-0.118906
0.099440
-0.228003
0.091281
-0.121526
0.266075
-0.028844
0.122596
-0.025652
-0.200931
0.184206
0.054012
-0.013139
0.017290
-0.072279
0.109219
0.030331
0.148529
0.044077
0.031711
0.104366
-0.156728
0.090293
-0.093582
-0.180920
-0.009380
-0.234573
-0.031610
0.078244
-0.172190
-0.057510
-0.037366
0.066139
0.066614
0.060911
-0.080835
0.230514
-0.022357
0.152669
-0.029494
0.201766
0.032535
-0.019882
0.017233
0.001673
-0.015600
0.080888
0.130935
-0.046232
-0.035082
-0.073146
-0.082456
-0.114393
0.005838
0.124914
0.064479
0.115127
0.200314
0.058025
0.007837
-0.058941
-0.147483
-0.170653
-0.069674
0.035829
0.046815
0.036562
-0.017635
-0.078435
-0.016708
0.076553
-0.011968
-0.204948
-0.056607
-0.094333
0.236740
0.222605
-0.176605
-0.021469
-0.053571
-0.158443
-0.138135
-0.024518
0.066403
0.008371
-0.175789
0.069843
-0.075728
0.157339
0.003099
0.037577
0.088845
-0.137173
-0.143915
-0.176200
-0.077386
-0.126229
-0.063058
0.144503
0.019980
0.017284
-0.180608
0.055555
0.000626
0.075088
0.028720
0.061842
-0.152240
0.006522
-0.142068
0.170431
0.257519
0.134053
-0.100129
-0.097495
-0.179124
-0.089468
-0.065180
-0.070482
0.154876
-0.258503
-0.007376
-0.230664
0.137024
-0.111525
0.073989
0.100999
-0.025473
-0.128639
0.057117
-0.021525
-0.245107
-0.147500
-0.063639
-0.134150
-0.180460
-0.033134
-0.148550
0.116355
-0.158869
0.000539
-0.350620
-0.037689
-0.119442
-0.113576
0.072756
0.014346
-0.018244
-0.192021
0.022544
0.076574
0.190760
0.064874
-0.160146
0.018562
-0.009122
-0.053790
-0.001776
-0.007102
0.088903
-0.060964
0.087284
-0.100534
0.084766
0.090421
-0.144792
0.107658
-0.326402
0.161308
-0.198707
0.056555
-0.333098
0.015502
0.081751
-0.077430
-0.016725
-0.194903
0.106111
-0.034285
0.038472
-0.142775
-0.080452
0.035671
0.060046
-0.102550
-0.029851
0.057799
0.184259
-0.131015
0.130981
-0.057570
0.003799
0.256531
0.154589
0.093974
-0.150247
-0.001943
0.010613
0.023388
0.084687
0.049511
-0.189820
-0.038069
-0.020047
0.018193
-0.070700
0.107348
-0.016227
0.037552
0.020289
-0.177304
-0.104688
0.129403
-0.192222
0.037545
-0.129113
0.081530
-0.024064
-0.341473
0.067062
-0.011372
-0.010272
0.275988
-0.108418
0.062907
-0.078652
-0.169939
-0.045208
-0.199555
0.000709
-0.072722
-0.183938
0.026415
-0.076940
0.004614
0.214264
0.091799
0.154080
-0.163297
-0.237737
-0.057913
-0.305770
-0.168775
-0.159878
-0.104946
-0.038287
-0.101058
-0.069758
0.056760
0.140149
0.117301
-0.017411
-0.021205
-0.232406
0.100269
-0.270202
0.131508
0.080446
-0.044839
-0.243405
-0.099180
-0.279562
-0.146481
-0.036147
-0.141882
-0.116790
-0.186300
-0.236361
0.135096
-0.296545
0.016675
0.181391
-0.129447
0.001464
-0.019312
-0.119557
0.097706
-0.067475
0.123890
-0.097315
-0.019511
-0.044255
0.177798
-0.247062
0.078376
0.161564
0.017298
-0.304739
-0.105357
0.002745
-0.011427
-0.132827
-0.074289
-0.053885
-0.075020
-0.125405
-0.028665
0.008042
0.086938
0.098257
-0.080370
0.025920
0.002750
-0.048423
-0.107332
0.041607
0.081676
-0.186743
0.079042
0.166234
0.080702
0.139904
0.211836
0.093214
0.226445
-0.292266
0.048617
-0.101128
-0.019912
-0.041602
-0.095923
0.031194
-0.023255
0.029292
-0.132952
-0.267994
-0.053883
0.038684
-0.093068
0.040237
-0.004024
-0.070730
-0.111147
-0.008719
-0.138856
-0.131684
-0.117165
-0.042955
0.050584
-0.017453
-0.047534
0.029915
-0.117707
0.000779
-0.087288
0.108228
-0.048233
0.054459
0.221113
0.017721
0.046560
0.035415
-0.268883
-0.084588
-0.222078
-0.134831
0.337336
-0.026025
-0.160091
-0.145018
-0.021525
0.088562
0.061276
0.025161
-0.011582
0.025033
-0.039426
0.015051
-0.061239
-0.102665
0.079644
-0.016762
0.326473
-0.002663
0.157021
0.020245
0.228734
0.241971
0.109939
-0.026024
-0.044114
0.091104
-0.026169
-0.421234
0.153166
0.017759
-0.034846
0.170927
0.052923
-0.071395
0.162679
0.166753
0.023450
-0.036425
-0.094239
-0.069686
0.284420
-0.044017
-0.039204
0.109040
-0.017329
0.024087
-0.094232
-0.109277
0.017710
0.026278
-0.175591
-0.015849
-0.004548
-0.159727
0.163227
0.159430
0.236539
0.093661
0.116718
0.047645
0.043739
-0.040109
-0.116146
-0.103955
0.029768
0.087188
-0.041181
-0.160024
0.009229
-0.172631
-0.009471
-0.031900
-0.004154
-0.125443
-0.073815
-0.032874
0.058298
0.043967
0.226020
0.033587
-0.022433
0.042231
0.002538
-0.014547
0.097906
-0.046988
-0.221231
-0.190073
-0.064996
-0.085542
0.111577
-0.069185
-0.002817
0.027834
0.143647
-0.015717
0.023929
0.042391
-0.112034
-0.023318
0.206733
0.019388
0.015311
0.042217
-0.163278
0.146478
0.019877
0.016298
0.164743
0.104197
-0.054218
-0.032974
0.197276
0.165189
-0.024069
0.156127
0.003239
0.091242
-0.016705
-0.326047
-0.092143
-0.023949
-0.015500
0.096333
-0.031799
-0.048305
-0.129926
0.170955
-0.199706
-0.205267
0.016364
-0.100993
-0.039514
-0.040052
-0.016781
0.049223
0.162059
0.041775
0.014145
-0.072992
-0.039324
-0.050818
0.035707
0.147410
-0.050005
0.048704
-0.017596
-0.003296
0.013532
-0.077721
-0.005148
-0.110018
-0.027347
-0.139488
0.090547
0.037814
-0.075983
-0.055304
-0.006780
-0.102552
0.028438
0.089204
0.004073
-0.024199
-0.050155
-0.114168
0.097740
0.029203
-0.102837
0.032405
-0.081861
-0.168734
-0.006295
0.141188
0.098465
-0.079530
0.247902
0.060899
-0.025057
-0.019341
0.009249
0.003744
0.096599
0.110804
0.006243
0.106297
0.088268
-0.028448
0.122613
-0.063420
0.085657
-0.154071
-0.112644
0.132587
0.067650
0.025806
-0.084729
-0.168556
-0.097471
-0.065058
0.046682
0.009168
0.147427
0.016595
-0.117833
-0.080692
0.076934
-0.026277
-0.163786
-0.182261
-0.058134
-0.012670
0.059653
-0.045209
0.010735
0.325311
0.028231
-0.283542
-0.028081
-0.025473
0.032923
0.108325
-0.103195
0.040019
-0.072697
-0.139049
0.133473
-0.049827
-0.260221
0.081804
0.072398
0.200578
-0.124044
0.104638
0.083953
0.083040
0.214291
-0.105648
0.146515
-0.037897
-0.088863
0.233572
-0.199482
0.173038
-0.212564
-0.006921
0.079467
-0.123842
-0.080417
-0.052584
-0.037079
-0.018258
-0.103098
0.122327
-0.186180
0.117575
0.077066
-0.031648
-0.129998
0.105675
-0.058089
0.232859
-0.173872
-0.046363
0.030149
-0.009576
-0.155557
0.173921
-0.013233
-0.044666
-0.156653
0.101610
0.187638
0.090182
-0.231567
0.136653
-0.065008
0.046413
-0.146753
-0.137812
0.046403
0.214750
0.033327
-0.187815
-0.170059
-0.382273
-0.017332
0.144679
0.000040
-0.013962
-0.095339
0.025821
-0.116624
0.097741
0.113185
-0.088956
-0.008926
0.162207
-0.078925
0.083882
-0.168707
0.117005
-0.240820
0.000475
-0.326400
-0.038379
-0.175140
-0.098053
-0.253251
0.007826
-0.213837
0.009067
0.196632
-0.125620
-0.007640
0.211949
0.132344
-0.181893
-0.028123
0.017122
-0.058834
-0.100163
-0.118163
0.061337
-0.025269
-0.210908
-0.054138
0.105423
0.023641
-0.314832
-0.101712
-0.132193
-0.118273
-0.277607
0.062263
-0.020483
-0.000391
0.019598
-0.006865
-0.215034
-0.315969
0.169705
-0.208663
-0.008024
-0.138825
0.093978
0.017352
0.282353
0.176968
-0.230768
-0.070730
0.007115
0.055751
0.206531
-0.201512
0.022101
0.068992
-0.176242
0.167733
0.045346
-0.027619
0.020266
-0.075631
0.132781
0.093029
0.064112
-0.086215
-0.051604
0.111838
-0.119324
0.000819
0.039367
-0.005606
-0.010078
0.022290
-0.140846
0.116833
-0.083579
-0.112357
-0.012328
0.056644
-0.086869
-0.336489
0.028387
-0.004429
-0.113337
0.018416
-0.137664
-0.018523
-0.066422
-0.054611
-0.033314
0.216492
-0.182929
0.150771
0.029417
-0.055583
-0.053639
0.075102
-0.115841
0.286714
-0.031279
0.075624
-0.107640
-0.051993
0.142226
-0.178869
0.013608
-0.019649
-0.140738
0.000238
0.184842
-0.140771
-0.094043
0.092281
-0.189061
0.037668
-0.456818
-0.058599
-0.223231
0.086254
0.028188
-0.201310
0.000391
0.065478
-0.415450
-0.037883
-0.308663
0.029934
0.056639
0.088124
-0.023664
0.056553
-0.116472
0.097526
-0.153127
0.073764
0.015509
0.135044
0.114240
-0.182472
0.137208
0.031819
-0.149306
-0.107719
-0.034553
0.168129
0.122728
-0.130881
-0.045156
-0.060390
-0.115419
-0.051369
0.026700
-0.039359
-0.193649
0.038700
-0.011981
0.023139
-0.105723
0.016534
-0.008348
-0.154599
0.049785
0.080114
-0.170452
0.058855
0.059083
-0.051584
-0.022040
0.107893
-0.307424
0.010824
-0.110646
-0.031479
0.136000
0.148985
0.211344
-0.038438
-0.169133
0.048310
0.077461
-0.070898
-0.037253
0.008910
-0.084717
-0.103855
-0.002771
-0.055739
0.306535
-0.341365
-0.116142
0.034900
0.142728
0.028060
-0.134712
0.103732
0.014082
-0.223777
0.131547
-0.110710
0.101981
0.098313
-0.034358
0.213371
0.017290
-0.034750
0.255759
-0.041757
0.162692
-0.230633
0.159027
-0.163125
0.006275
-0.037169
0.173608
-0.002733
0.034097
-0.012979
-0.064992
0.088441
0.211929
-0.068073
-0.148023
-0.020319
0.096195
-0.006588
0.132228
-0.148003
-0.061916
-0.095559
-0.071744
-0.204382
-0.088092
-0.166260
-0.111962
0.010979
-0.048176
-0.108826
0.135587
-0.111682
0.040937
-0.116821
0.074273
-0.147863
-0.056812
0.002612
-0.009757
-0.258450
-0.100008
0.218150
-0.235085
0.119199
0.031505
-0.034523
-0.053498
-0.156198
0.068018
-0.195277
0.022021
-0.009961
0.008349
-0.066961
0.042971
-0.194106
0.019551
-0.122459
-0.003649
-0.158534
-0.125867
-0.244611
-0.034622
0.002949
0.163494
0.100563
0.085863
0.090250
0.011979
-0.097678
-0.265877
0.011461
0.140142
0.200279
0.096101
0.182062
0.143446
-0.004840
-0.120055
-0.087023
0.150294
-0.003581
-0.073799
-0.064827
0.055851
-0.186860
0.087556
-0.182193
-0.022803
0.012339
0.095101
0.105833
0.072957
-0.237461
0.016045
0.100280
0.022069
-0.118084
0.067353
-0.059688
-0.075442
0.100640
0.170697
-0.109622
0.020813
-0.219087
-0.055129
0.121534
-0.294110
-0.055412
0.079772
-0.251601
-0.010168
0.128410
0.018695
-0.020588
-0.083851
-0.166579
-0.026088
0.094273
0.041388
-0.081057
-0.029977
-0.232678
-0.174906
-0.085255
-0.133128
-0.140686
-0.029617
-0.001493
-0.026180
-0.050375
0.119174
0.009365
-0.028255
-0.126873
0.068450
-0.046201
-0.145234
0.055067
0.277203
-0.030759
-0.146256
0.040642
0.058381
0.049683
0.017878
-0.090064
0.038282
-0.015695
0.049550
-0.080496
-0.106114
0.231249
-0.260190
-0.038136
0.159390
-0.092787
-0.179619
0.018169
-0.032770
0.055653
0.106981
-0.070192
0.226139
0.043920
-0.114588
-0.204692
0.028788
0.162669
-0.010469
-0.094565
0.053247
-0.025931
0.051780
-0.032836
-0.016390
-0.218187
-0.195787
0.030123
-0.123316
-0.112831
0.130677
0.046259
-0.004195
-0.076507
0.074356
0.074795
-0.014305
-0.276778
0.150617
0.138324
-0.173002
-0.079338
0.005371
0.005177
0.078852
-0.123338
0.073601
-0.356597
0.049515
-0.144558
0.039148
-0.049130
-0.054402
0.120017
-0.273827
0.095057
-0.070845
-0.011439
0.145544
0.101494
-0.019481
-0.217929
-0.251791
0.251883
-0.023530
-0.025143
-0.088214
0.010504
0.251986
0.172339
-0.037292
-0.190663
0.096921
-0.140411
0.242839
0.203293
-0.081377
0.167072
-0.137424
-0.071249
-0.022105
-0.053510
-0.160931
0.125325
-0.164903
0.200724
0.117014
-0.064963
-0.103732
-0.210223
0.178603
0.024369
-0.010156
0.018352
-0.209998
-0.018382
0.201425
-0.038369
-0.150922
-0.267536
-0.119536
-0.161101
-0.133724
0.111100
-0.116657
-0.224320
-0.043708
-0.210920
-0.197947
-0.327074
-0.042024
0.008507
-0.056943
0.009329
-0.012275
0.098569
-0.179598
0.073853
0.274764
0.093525
-0.007714
0.108711
-0.043798
-0.220240
-0.036720
0.036180
0.088416
0.096279
0.037525
0.132950
-0.100254
-0.230147
-0.063349
-0.031054
-0.007876
0.091574
0.080098
-0.177440
-0.066155
-0.331114
-0.023366
-0.168358
-0.243696
0.272717
-0.101192
0.013723
0.022969
0.108471
-0.090612
-0.061055
0.062344
0.072237
-0.300483
0.093379
0.008701
0.220275
0.060883
0.310876
0.206527
-0.088739
-0.140991
-0.327342
-0.005709
-0.047187
-0.268798
0.027561
-0.294866
0.010949
-0.066987
0.163392
-0.037645
-0.061546
-0.004502
-0.038132
-0.043079
0.015559
0.099591
-0.041065
-0.015995
-0.069475
0.063792
-0.102407
0.006745
-0.120806
0.007781
-0.048951
0.018828
-0.031209
-0.039238
0.177060
0.089279
-0.138567
-0.259134
0.088719
-0.215065
0.095302
0.156716
-0.049013
0.097343
0.113445
0.044724
-0.096134
0.017200
-0.069560
-0.340321
-0.042081
0.107186
0.099171
-0.008071
0.049466
-0.042878
0.034341
-0.070450
-0.103363
-0.104138
-0.017495
0.024405
-0.105426
0.014033
0.097509
-0.069582
-0.049153
-0.020817
0.012818
0.024191
-0.263416
-0.077939
0.087082
-0.132305
-0.043908
0.043722
0.044588
-0.027543
-0.136828
-0.273705
0.053029
0.019171
-0.234148
0.008896
0.042557
0.085625
-0.210122
0.071870
0.202932
0.013375
-0.116703
-0.118239
-0.028485
-0.083036
-0.050721
-0.045578
0.129129
0.053510
0.016471
0.060785
0.101714
-0.001203
-0.101045
0.067417
-0.033871
0.105585
-0.165007
-0.332725
-0.008531
-0.047610
-0.289334
0.041187
0.021412
-0.059057
-0.119200
0.095228
-0.070062
-0.165430
-0.100619
-0.093460
0.172555
-0.278624
-0.131888
0.181189
-0.055308
-0.114959
-0.273896
-0.088268
-0.073667
-0.015022
-0.092200
-0.093490
-0.236388
-0.008916
-0.086331
0.011851
0.317220
-0.016164
0.104128
-0.054603
0.000311
-0.063673
-0.035371
0.013591
0.044805
0.005945
-0.001118
-0.089738
0.093176
0.070037
-0.045157
-0.112808
-0.108093
-0.097931
-0.129845
-0.061015
-0.025394
-0.028727
-0.033637
-0.024349
-0.102013
0.129426
0.039321
0.021435
0.212798
0.035311
-0.028251
-0.102198
-0.155829
-0.024603
-0.074134
-0.209649
-0.085822
0.058800
0.209167
-0.229869
0.088187
-0.048159
-0.287444
0.065892
0.120555
0.104965
-0.167358
0.172262
-0.157838
-0.180199
-0.062982
-0.230983
0.021256
-0.039863
-0.062235
0.002488
0.097400
0.126662
-0.047089
0.178883
0.028160
0.092912
0.125256
-0.309336
0.157276
0.197225
0.014196
0.225619
-0.153748
-0.313069
-0.130673
0.163709
0.028683
-0.068279
0.077722
-0.107214
-0.027590
-0.035064
0.188933
-0.133742
-0.185087
-0.274591
0.092631
-0.114433
-0.052769
-0.121303
-0.258990
-0.071813
0.032030
-0.119141
0.134411
-0.092537
-0.056749
0.130932
0.089340
0.084839
-0.110272
-0.088431
0.064240
0.028709
0.020970
0.024299
0.072517
0.129138
-0.289666
0.026220
0.041129
0.174542
0.123881
-0.041857
-0.165455
0.091535
0.013103
-0.185514
-0.000617
-0.174203
0.037350
0.037770
0.027085
-0.148911
-0.091307
0.005948
0.026532
0.072326
0.244241
0.049348
0.091177
-0.064480
-0.074698
0.054824
-0.141073
-0.002757
0.047303
0.078383
0.217223
0.023130
-0.058173
0.120303
0.116383
-0.021036
-0.047479
-0.139393
0.066700
-0.300887
-0.041069
0.140727
0.061255
-0.089206
0.165800
0.133332
-0.045784
-0.003542
-0.212370
-0.015153
0.023149
0.047383
0.089562
-0.112986
0.045121
-0.224849
0.030500
-0.085663
-0.104775
-0.280917
-0.053030
-0.105419
-0.238939
-0.246791
-0.143735
0.065632
0.116518
-0.078527
-0.018209
-0.116619
-0.101930
0.060540
0.055548
0.085222
0.062120
-0.125899
0.207486
0.154039
-0.136043
0.094329
0.113952
-0.018384
-0.043996
-0.014076
0.201492
0.105618
-0.109788
-0.082609
0.115100
-0.220492
0.070564
0.020980
-0.046505
-0.302968
0.042252
-0.115038
-0.114887
0.087618
-0.077862
-0.021446
0.007147
0.004230
-0.014952
0.114654
0.138695
0.027892
0.044845
0.096495
0.016603
-0.101265
-0.221644
-0.032719
-0.085444
-0.032179
0.034406
0.083820
-0.016685
0.145259
0.233248
0.132900
-0.182642
-0.002389
-0.142322
-0.105234
-0.070971
-0.030098
-0.215561
0.025888
-0.156656
0.155535
-0.024918
0.000656
0.031806
-0.146066
-0.005973
0.020709
0.020528
-0.080279
0.111573
0.096950
-0.118505
-0.192772
-0.001105
0.061029
-0.042166
-0.011724
0.159948
-0.047438
0.013364
-0.016315
0.108489
0.262323
-0.114021
0.050041
-0.086596
-0.155209
-0.065022
0.002482
0.072603
-0.344794
-0.130771
0.090029
0.183858
-0.058110
-0.031784
0.147009
0.070103
0.041685
-0.248681
-0.096367
-0.058973
-0.020808
-0.005626
0.113691
-0.025592
-0.010974
0.078945
-0.065086
-0.096594
0.044532
0.147969
0.048343
-0.071473
-0.155896
-0.022138
0.041723
0.167919
-0.113874
-0.155438
0.054231
-0.028901
0.069440
-0.151882
-0.082307
0.114796
0.134342
-0.001133
0.080515
-0.053831
0.092398
-0.101468
-0.009506
-0.163018
-0.136016
0.008123
-0.035413
-0.188491
0.062749
-0.040169
-0.031431
0.046178
0.158986
-0.061711
-0.003303
-0.066832
-0.297444
0.033462
0.088095
-0.136419
-0.020895
-0.084285
-0.130629
-0.033630
-0.243623
0.143311
0.084065
-0.017802
0.095070
-0.105277
-0.133267
0.012437
-0.093796
-0.013956
0.344352
0.096347
0.100836
0.216773
0.025617
-0.173619
-0.088154
-0.032378
0.032677
0.094745
-0.040670
-0.132553
-0.124973
0.044046
0.163375
-0.250544
0.063990
0.045833
-0.022576
-0.153998
0.185754
0.146382
0.143688
-0.323683
-0.138702
0.120102
0.013615
0.006140
0.050545
-0.185652
-0.017355
-0.025427
-0.321406
-0.148181
0.256200
0.186207
-0.133972
0.068659
-0.041097
-0.178558
-0.146558
0.071029
-0.186325
0.060085
-0.138517
0.088936
0.116523
0.060791
-0.068240
0.014553
-0.008077
0.046421
-0.071895
0.020921
-0.013801
-0.238307
-0.126860
-0.168102
-0.059138
-0.022794
0.094605
-0.101324
-0.031204
-0.038030
-0.166342
0.128710
0.070178
-0.106353
0.025574
-0.220866
0.034501
-0.038281
0.103121
-0.073125
-0.106578
0.171263
0.067343
0.237243
-0.076155
-0.004562
-0.134735
0.018699
-0.250659
0.159838
0.029722
-0.031265
-0.101195
-0.013789
-0.234851
-0.076375
0.016173
0.119508
-0.052629
-0.069516
0.074705
-0.171440
-0.051112
0.000585
0.118455
0.141286
-0.029033
-0.069850
-0.044373
-0.006776
-0.077861
-0.051514
0.058733
0.169828
0.134582
0.056195
-0.029938
0.090319
0.101152
0.030821
0.167438
0.071012
-0.031448
-0.127844
0.240162
-0.260886
-0.063118
0.002903
0.083059
0.097140
-0.034438
0.068061
0.053873
0.036197
0.303012
-0.063123
0.017330
0.107078
0.190229
0.015796
0.042812
-0.030321
0.098776
-0.056461
-0.066841
-0.336468
0.076136
-0.086988
-0.027794
0.007951
-0.029056
-0.106339
0.042619
0.060316
0.164412
-0.244879
0.237590
-0.051004
0.132969
0.179495
0.241363
-0.035927
-0.069045
-0.091650
-0.192250
0.029847
0.070747
0.067653
0.040275
-0.140082
0.022145
-0.049254
0.051150
0.016110
-0.234389
-0.026836
-0.192294
-0.114930
-0.109655
-0.032872
0.131343
0.021320
-0.044239
0.111432
0.147777
0.106995
0.016148
0.008407
-0.096545
-0.286902
-0.114942
0.029055
-0.060285
-0.137968
-0.124044
0.225616
0.021224
-0.031152
-0.106476
-0.028189
0.114724
-0.145559
-0.289420
0.066526
-0.146789
-0.032473
0.110935
0.040728
-0.198601
0.128032
-0.090414
-0.074714
-0.042537
-0.002593
-0.080708
-0.186292
-0.204557
0.049908
-0.128540
0.023252
0.012347
0.012140
-0.195509
-0.095967
-0.024476
-0.101642
-0.030182
0.037708
0.145427
0.119236
-0.371250
0.024263
0.014534
-0.142230
-0.105685
0.043853
-0.068930
-0.129349
-0.208395
-0.097034
-0.086007
-0.046529
-0.074774
-0.059235
-0.180012
-0.019631
0.157157
-0.008170
-0.111730
0.241181
-0.065833
0.145238
0.045739
-0.038295
0.000503
-0.260098
0.129909
0.007682
0.078309
0.021582
0.119296
-0.134416
0.110778
0.173597
0.077018
0.142903
-0.322918
-0.154127
0.036414
-0.008864
-0.008370
-0.142603
0.091263
-0.262467
0.090748
-0.064858
0.138586
-0.047214
-0.065303
-0.223689
0.188613
-0.197523
-0.150397
0.076901
-0.066987
-0.012772
0.045204
-0.085039
-0.039464
0.196932
-0.065178
0.206598
-0.159320
0.083351
0.050891
-0.173406
-0.153523
-0.209156
0.187700
-0.084901
0.070936
0.036552
-0.288955
0.020663
-0.074689
-0.197147
-0.081605
-0.071319
0.131193
-0.037643
-0.279548
-0.057838
0.250168
-0.112046
0.048131
0.010024
-0.163522
-0.174000
-0.084082
-0.096232
-0.010932
0.061785
0.003002
-0.020036
-0.074965
-0.021257
-0.120432
-0.201306
0.094430
-0.198849
-0.230807
-0.028186
0.004799
-0.039638
0.099113
0.054147
-0.156966
-0.150451
0.110414
-0.107512
-0.012700
-0.134977
-0.068938
-0.281753
0.000598
0.071066
0.017977
0.017596
-0.049124
-0.137807
0.084355
0.082918
0.067326
-0.088833
-0.013002
0.115035
0.221574
0.071587
-0.043285
0.065213
-0.169508
-0.113272
0.061166
-0.076473
-0.002905
0.087927
-0.213816
-0.044268
0.089635
0.099606
0.056895
-0.000990
-0.161826
0.189435
0.117560
-0.034937
-0.201724
0.112894
-0.057122
0.120092
0.221717
-0.096418
-0.135027
0.002728
0.150975
0.029544
-0.099492
-0.123824
-0.224073
0.115605
0.224712
-0.098642
0.086101
0.049713
0.257155
-0.170951
0.184069
0.024393
0.091086
0.179494
-0.189501
-0.068726
0.094503
-0.048448
0.003998
-0.219695
-0.096900
-0.083421
-0.039961
-0.257052
-0.131735
-0.090697
0.065874
-0.193054
-0.130065
-0.164691
0.249187
0.051848
-0.205341
0.195110
-0.015208
0.220935
0.140625
0.057488
0.121657
-0.220056
0.214257
-0.131058
0.170986
-0.035089
-0.046561
0.036022
-0.127780
0.042847
0.165733
-0.006035
0.078681
0.111891
0.174207
-0.189423
-0.132652
0.184995
0.047622
0.157038
-0.060295
0.083731
0.004579
-0.024934
-0.137127
-0.062736
-0.062493
0.033422
-0.089048
0.290086
-0.002161
0.144704
0.242352
-0.251687
-0.126828
0.114379
-0.056179
-0.002945
0.178613
0.135217
-0.091075
0.009990
0.163814
-0.247029
0.126766
-0.054397
-0.225427
-0.153626
0.162209
-0.144602
-0.054341
-0.078237
-0.111247
-0.121338
0.081614
0.108095
0.094070
0.002588
0.133466
0.235772
0.164464
-0.042316
-0.005992
0.130993
-0.037207
0.111667
-0.013389
-0.099091
-0.089163
-0.074544
-0.041079
-0.036656
-0.134208
-0.114037
-0.127530
0.023181
-0.144560
-0.170949
0.009937
-0.095886
0.070057
0.144294
-0.085892
0.020455
-0.052360
-0.092963
-0.037769
-0.123381
0.207438
-0.085460
-0.015047
0.098865
-0.180889
-0.082308
-0.029152
0.004903
-0.076310
-0.000497
0.084804
-0.167535
0.113775
-0.062415
-0.026416
0.031907
-0.138639
0.180232
0.030813
0.023077
-0.046299
-0.135451
0.006869
-0.108739
0.122098
-0.229379
0.161143
0.126212
0.272063
-0.111910
0.044863
-0.376519
0.061219
0.302990
-0.081533
0.147884
-0.038012
0.003758
-0.035943
0.099303
-0.126189
-0.052551
0.009643
0.067964
0.031575
0.160809
0.011279
-0.038119
-0.151412
0.025818
0.146403
0.026416
-0.094470
0.131380
0.170272
-0.257917
0.239625
-0.154481
0.189027
0.163551
0.100483
0.052360
0.363986
0.166422
-0.086917
-0.105062
-0.030389
-0.211415
-0.106152
0.059090
0.096515
0.025293
0.210805
-0.173273
0.112857
0.097954
0.052502
-0.055277
0.010585
0.117460
-0.103220
-0.109744
0.146209
-0.003580
0.008150
0.099829
-0.032441
-0.218271
0.086965
-0.095276
0.056584
-0.093310
-0.018317
-0.056667
0.011005
0.105931
0.211526
0.070819
-0.113234
0.052147
0.295816
0.013786
-0.161982
-0.017485
0.077704
-0.031556
0.219783
-0.062214
-0.115755
-0.231012
-0.072705
-0.043043
0.046826
0.106533
0.061916
0.272553
-0.283987
0.173122
-0.134418
-0.020447
0.014421
-0.186188
-0.073714
0.005072
-0.165171
0.210093
-0.080499
0.074861
0.089667
-0.053124
0.160499
-0.046445
0.203259
-0.074129
0.398042
0.012804
0.012901
0.049529
0.034829
-0.124764
-0.084078
0.016315
-0.015901
-0.025220
-0.040788
0.009736
0.103115
-0.105673
0.058435
-0.043660
0.142730
-0.096706
-0.032628
0.157181
0.243704
-0.000222
-0.081917
0.016459
0.120974
0.081268
-0.023469
-0.029762
0.106531
0.106473
-0.152735
0.144200
-0.047669
-0.009857
0.012160
-0.205107
-0.081162
-0.100150
-0.081606
-0.115524
0.082195
0.110483
0.179081
-0.091002
-0.229447
0.186977
0.197257
-0.116287
-0.168254
0.165341
0.193529
0.011514
-0.003145
-0.016164
-0.047641
0.304823
0.035968
-0.174283
-0.184271
0.064597
-0.121554
-0.127942
-0.044127
-0.031507
-0.121605
0.011187
-0.025759
-0.028242
0.022013
-0.164394
0.076201
0.072655
-0.071747
0.075062
-0.017453
-0.077746
-0.092744
-0.149244
0.033496
0.012164
0.178706
0.184134
0.091755
0.030759
0.051919
0.079401
0.096503
0.074460
0.170432
0.102063
-0.041563
0.035733
0.047529
-0.026298
-0.123014
-0.103149
0.151842
-0.042701
-0.110020
-0.136985
0.187875
0.052860
-0.089310
0.183933
0.082529
0.090734
0.120169
0.094390
0.135497
-0.023707
-0.231727
-0.074546
-0.026064
-0.076613
-0.181318
0.130747
-0.200016
-0.011382
0.153066
-0.139057
0.007281
0.101202
0.042823
-0.081676
0.003980
-0.125931
0.025651
0.048823
0.136962
-0.095024
-0.102155
-0.026597
0.141639
-0.071754
-0.032192
0.197299
-0.155755
0.013433
0.117492
-0.133900
-0.060233
0.072679
-0.030866
-0.135694
0.018310
-0.145148
-0.300013
0.137195
0.035574
-0.032593
0.174177
-0.120884
0.161996
0.039154
0.106871
0.144572
0.004959
0.110815
0.004637
-0.040593
0.124849
0.196422
0.281672
-0.126996
-0.006546
-0.195203
0.133589
0.039914
-0.026235
-0.242606
-0.273563
-0.274190
-0.022115
-0.153139
-0.096919
0.112964
0.188756
0.072787
0.006434
0.086247
0.074036
-0.008043
-0.136567
0.039866
0.214715
0.116094
0.095322
-0.077640
0.131168
0.108511
0.142885
-0.024903
-0.047534
0.056928
0.211465
0.120670
0.025860
0.075263
0.298850
0.038329
0.106118
0.191092
0.085879
0.266158
-0.031428
-0.067318
-0.262148
0.120427
-0.037894
-0.037322
-0.069765
-0.146753
0.194641
-0.186078
-0.093240
0.142602
0.078191
0.088970
0.190486
-0.328747
0.089792
0.089043
0.074885
0.079595
-0.377157
-0.039069
0.018962
-0.225703
-0.279981
0.004777
-0.101089
-0.081096
0.122849
0.140259
0.116712
0.024472
0.070395
0.194342
-0.160096
-0.034593
-0.121503
0.080655
-0.073609
0.096472
-0.169758
-0.000658
-0.026011
-0.320863
-0.061742
0.277848
-0.284444
0.114614
-0.042215
0.135323
0.093127
-0.067309
-0.108689
-0.056583
0.263404
-0.036943
-0.055783
-0.227539
-0.073655
-0.029074
0.006858
-0.052328
-0.032414
0.085732
0.374910
-0.014614
-0.007606
0.088919
-0.367052
-0.044000
0.049164
0.295175
0.134955
-0.068333
0.101354
0.220366
-0.084233
0.262972
-0.002778
0.120918
-0.170305
-0.268948
-0.060596
0.148537
-0.057402
-0.063358
0.152974
0.158063
0.019347
0.021004
-0.037546
0.314257
-0.134516
0.152402
-0.260413
-0.095156
-0.153110
0.226786
0.044129
-0.105166
-0.122967
-0.032338
-0.106953
0.010767
-0.005804
0.024527
-0.152731
0.083710
-0.080525
0.090747
-0.034415
0.080954
0.014415
-0.097371
-0.010542
0.050311
-0.068970
0.013467
0.166731
0.040774
-0.346118
-0.015631
0.017619
0.140050
0.190164
0.294503
0.152656
0.327252
0.035342
0.064510
-0.031404
-0.040914
-0.302518
-0.044159
-0.023834
0.101159
-0.131405
-0.096324
-0.144022
0.014970
-0.040387
-0.050202
0.008858
-0.361739
0.030973
-0.039371
0.033755
-0.076187
0.037426
-0.422985
-0.109267
-0.019042
0.124023
0.070644
0.045189
-0.018930
0.000101
0.025544
0.054534
0.029791
0.058615
0.128314
0.038664
0.108996
0.159095
-0.128378
-0.005062
0.033232
0.125658
-0.314057
-0.120300
-0.190798
-0.106461
0.005077
-0.193275
-0.138403
-0.057802
-0.278928
-0.014531
0.116393
-0.144793
0.155793
-0.275333
0.000975
-0.042747
0.156039
0.055331
0.173374
-0.081540
-0.030095
-0.202876
0.182597
0.153561
-0.053473
-0.257952
0.016870
0.173196
-0.023177
-0.016190
-0.140764
0.198518
-0.062824
-0.166000
0.055626
0.167518
-0.269368
-0.273218
0.119781
0.088096
-0.093463
0.032457
-0.307955
-0.143191
-0.313259
-0.132028
0.119014
-0.145005
0.100032
-0.135954
-0.180745
0.122513
-0.005812
0.325889
-0.101515
0.160553
-0.135292
-0.272685
-0.183837
-0.133740
0.092793
0.051662
-0.011822
-0.229053
0.149789
0.049774
-0.131763
0.019948
-0.078206
0.039003
0.067545
0.017712
0.017418
0.100410
-0.030320
0.102348
-0.056458
0.091901
-0.239008
-0.001179
0.149907
0.014038
-0.320846
0.153360
0.064639
0.048831
-0.075786
0.101531
0.068793
0.187571
-0.124967
0.121551
-0.125161
-0.054450
-0.140572
-0.067914
0.121594
-0.063461
0.132851
0.128767
-0.249524
0.012914
0.150396
-0.136024
0.141957
0.294452
0.047885
-0.022356
0.279114
-0.054518
-0.016618
0.016093
-0.030118
0.016800
0.043082
0.016250
-0.248454
-0.139331
0.101240
-0.202729
0.017972
0.004642
0.113400
-0.321050
-0.024280
0.088780
-0.104991
-0.039321
0.094010
0.067954
-0.042126
-0.038685
0.152336
-0.139482
0.030758
-0.015105
-0.047600
0.185433
0.069307
-0.236871
0.114451
-0.013109
-0.025336
0.071851
-0.196012
0.286857
0.025520
0.105415
-0.032199
0.210129
0.020684
0.259616
0.122725
-0.095035
-0.114341
0.168372
-0.167443
0.028738
0.013706
-0.348033
-0.054587
-0.099534
0.027220
0.066260
-0.067405
0.025947
0.057838
0.040459
0.036389
-0.005768
-0.187122
0.133619
0.263909
-0.098794
0.069170
-0.024461
0.258774
0.082552
0.207054
-0.192538
0.109611
-0.272585
-0.107376
-0.017429
0.118378
0.223105
-0.158539
0.272874
-0.029624
-0.082203
0.046547
0.095647
0.100991
-0.065333
-0.000453
0.158851
0.054583
-0.000493
0.002960
-0.082443
0.065500
-0.056615
0.080306
0.055069
0.021429
-0.069141
-0.214658
0.077367
0.071963
-0.011940
-0.166477
-0.060089
0.140280
0.084805
-0.025339
-0.059646
-0.157391
0.292766
0.150910
0.041335
0.015485
0.057636
-0.249647
0.075717
-0.060407
-0.106402
-0.005147
0.062078
0.009059
-0.098839
-0.169491
0.037855
0.101181
0.156671
-0.235106
0.196735
-0.052080
0.014438
0.146508
-0.132774
0.040713
0.000675
-0.029211
-0.069037
0.211788
-0.106996
-0.246666
-0.095999
-0.025745
0.119169
0.168506
0.211410
0.175354
0.081130
0.252122
0.045572
0.071766
-0.004630
-0.101345
0.011355
0.215539
0.125483
-0.206857
0.164689
0.024545
-0.173682
-0.161700
0.113493
0.064713
-0.056242
0.036386
0.062435
0.046748
-0.165506
0.006909
-0.086315
-0.107522
-0.039047
-0.120161
0.042649
-0.023939
-0.066813
0.146104
0.011468
-0.301145
-0.080319
-0.087818
-0.067224
0.001362
0.259183
-0.021200
-0.046049
0.140006
0.040778
0.145996
-0.134657
0.220508
-0.124909
-0.050704
0.040576
0.052698
0.054442
-0.051281
-0.131328
-0.151058
0.309805
0.200516
-0.044339
-0.136768
0.014278
-0.280606
0.067249
-0.137190
0.030195
0.030654
-0.104933
0.048037
0.023154
-0.064224
0.070543
0.146718
0.103393
0.286146
0.142957
0.026768
-0.096460
-0.115159
0.161285
0.216160
0.179797
-0.023526
0.006402
0.026615
0.098800
0.086921
-0.117655
0.017315
-0.002348
-0.055371
0.285214
0.384806
-0.168973
-0.118654
-0.149731
-0.094797
-0.180603
0.041971
-0.068577
-0.033814
-0.022622
-0.017773
-0.055170
-0.269878
-0.090633
0.151040
-0.123623
-0.058604
0.157386
-0.084587
-0.201318
-0.070444
0.116315
-0.022349
-0.612928
0.059899
-0.017750
-0.226126
-0.194522
-0.039192
0.044489
-0.226285
0.238374
0.100311
0.072910
0.017042
-0.010691
0.040487
0.183119
0.039528
-0.303975
0.059585
-0.198597
-0.134933
-0.166205
-0.018888
-0.140259
0.154786
-0.014379
-0.158283
-0.050137
-0.124275
-0.126334
0.112597
-0.071587
0.027844
-0.067217
0.066944
-0.056710
-0.129038
0.104479
-0.000587
-0.024592
-0.127787
0.101364
0.055235
-0.207646
-0.089975
0.209458
0.179758
-0.119928
0.109822
-0.028321
0.071452
0.054236
0.167786
-0.053554
0.030488
-0.262828
-0.092554
0.253805
-0.012005
0.136416
0.020247
0.062092
-0.094966
-0.191120
0.135839
-0.050078
-0.017882
-0.113414
-0.048800
-0.035624
0.238798
0.057196
0.123821
0.191393
-0.028772
0.089475
0.085893
-0.001145
-0.051202
-0.139978
-0.184133
0.001456
-0.088902
-0.001436
0.041307
0.186976
0.013050
0.076873
0.019622
0.174606
0.043628
-0.003584
-0.069710
-0.163762
-0.121637
-0.075212
0.004305
-0.174160
0.040593
0.002856
-0.005847
-0.036364
-0.250232
-0.156662
-0.231915
0.035556
-0.001647
0.019709
-0.158073
-0.138970
-0.156248
-0.062738
0.011687
-0.161825
0.042237
-0.054002
-0.074532
0.030999
-0.105302
-0.044365
-0.042694
-0.090526
0.043393
-0.068984
0.077592
0.056796
0.099370
-0.100614
0.118070
0.237659
0.096182
-0.086390
-0.063409
0.033482
0.011257
-0.130578
0.003569
-0.199235
0.038779
0.092048
0.081769
-0.098733
0.075036
-0.305823
-0.055799
-0.157697
0.012759
0.010971
-0.023332
0.086643
-0.096603
-0.130035
-0.008839
-0.237228
0.026679
0.117345
0.087687
-0.133793
0.027725
-0.003214
-0.091759
0.301843
0.045717
-0.152043
0.076351
-0.240860
-0.012858
0.112600
0.129589
0.093405
-0.046862
0.090284
0.209546
-0.021682
-0.186247
0.138686
0.185574
0.044298
0.009290
-0.071447
-0.014012
0.140642
-0.009590
-0.001016
-0.041141
-0.172435
0.244646
-0.224180
0.002503
0.129946
0.107285
-0.007385
0.014876
-0.324187
-0.077867
0.224410
-0.080206
0.193629
0.138959
0.008238
-0.072383
-0.046084
-0.174086
-0.203663
0.081021
-0.223470
0.094189
0.229958
0.009718
0.022961
-0.002634
-0.064064
-0.058386
0.220536
-0.166955
0.220051
0.041250
-0.042917
0.128443
-0.289358
0.032356
0.043629
0.000528
0.012368
-0.127316
-0.153735
0.286202
0.005768
-0.129559
0.030576
0.100007
0.215102
0.028679
-0.052541
-0.009068
-0.072489
0.113238
0.037890
0.052928
0.136553
-0.008548
0.173557
-0.146184
0.024423
0.117851
-0.071239
0.172758
0.122543
-0.125581
-0.000640
-0.077557
0.002806
0.160794
0.014176
0.038321
-0.023014
-0.214228
0.060813
0.169197
-0.083264
0.222194
-0.047248
0.056586
-0.037026
-0.004044
0.159948
0.025459
-0.122936
-0.067971
0.098550
-0.110438
0.039138
-0.057031
0.012097
0.154269
-0.073459
-0.078540
-0.084145
0.049831
0.007639
0.147463
0.037390
-0.068647
-0.019332
-0.097370
-0.062062
0.091974
0.278160
-0.077027
0.004127
-0.033545
0.152035
-0.270829
-0.200065
-0.067892
-0.006002
-0.079144
0.087804
-0.051775
0.024660
-0.098919
0.246941
0.156945
-0.028951
0.032113
0.011880
0.137749
0.072574
-0.019438
0.023999
-0.069894
-0.235251
0.229677
0.057905
-0.030916
-0.073723
-0.033452
-0.068485
0.128635
0.022520
-0.059922
-0.026469
-0.257849
-0.074452
-0.068769
-0.125089
-0.091680
0.048172
-0.045040
0.019619
0.012728
0.176108
-0.132671
-0.025371
0.060782
-0.114013
-0.087459
-0.339346
0.019365
0.089611
-0.155254
0.091844
-0.023199
-0.145077
-0.227816
0.051656
0.001333
0.117378
-0.095698
0.088243
0.009105
-0.105735
-0.038488
-0.167181
0.037163
0.193730
-0.132589
-0.165180
-0.267253
0.027020
0.111094
0.014782
0.058786
-0.032593
-0.129935
0.210336
-0.104920
-0.165899
-0.040543
0.004999
0.012960
-0.123402
0.018349
0.084721
0.024500
-0.034890
-0.113078
-0.004522
-0.043482
-0.079279
0.027192
-0.092207
-0.178632
-0.073795
-0.132923
-0.094801
-0.165207
-0.023774
-0.128596
-0.069353
-0.111929
0.022265
0.116322
0.066952
0.043264
0.195206
0.068635
-0.088307
0.277313
-0.060941
0.155945
0.194274
-0.011953
-0.045932
0.105302
-0.012958
-0.193121
-0.101035
0.053729
-0.053284
0.026072
0.151760
0.021151
-0.128628
0.136127
0.050776
0.078964
-0.119746
0.111137
-0.045927
0.059211
0.120255
0.124418
0.094122
0.006911
-0.076623
0.129714
-0.179907
0.079057
-0.000715
0.170033
0.128817
0.115873
-0.086292
-0.020588
0.227991
-0.076845
0.135005
0.147295
-0.148703
-0.096207
-0.090266
0.065607
-0.161311
0.307965
0.031806
-0.058557
0.182784
0.108580
-0.084007
-0.102459
-0.128337
0.082854
-0.039925
0.194034
-0.214519
0.040747
-0.087124
0.179199
0.037222
0.048954
-0.077502
0.095782
0.008265
-0.242619
-0.182629
0.177533
-0.334563
-0.035989
-0.128260
-0.079642
0.120206
-0.034299
0.026971
0.197440
-0.096775
-0.026425
0.008660
-0.108670
0.003459
0.013446
0.032761
-0.054504
0.108624
0.015045
0.000364
0.035365
0.140188
-0.145254
0.063964
0.125724
0.021050
0.066029
0.050573
0.245069
0.072801
0.137030
0.053473
-0.112853
0.012004
0.072642
-0.020080
0.034717
0.083087
0.085451
0.024408
-0.007489
0.046411
0.106904
-0.068972
0.245259
0.016338
0.025340
0.128879
0.128780
-0.070305
0.129201
0.010707
0.056618
0.082440
-0.007922
-0.057099
0.045655
-0.050688
0.044055
0.036405
0.014957
0.169987
0.194663
-0.027454
-0.199574
0.170656
0.157332
0.043132
-0.031309
-0.009360
0.073572
-0.058286
-0.038075
-0.105499
-0.159724
0.025145
0.081807
-0.094489
-0.024824
0.000173
0.108058
0.088596
-0.065453
0.039210
-0.046619
-0.035334
0.073303
-0.049762
-0.103940
-0.062643
-0.145079
0.070772
0.119879
0.003379
-0.089154
-0.061661
-0.119721
-0.027832
-0.094758
0.041278
0.209659
0.102995
0.097465
0.063347
0.179511
0.047608
-0.008489
-0.046888
-0.218850
0.047082
-0.027141
-0.069439
-0.073432
0.063807
0.107552
-0.073091
-0.116597
0.023322
-0.080581
-0.066853
-0.087175
-0.072235
-0.133304
-0.077307
0.067460
0.160770
-0.244795
-0.070563
0.039923
0.105225
0.032190
-0.175871
-0.117349
-0.062871
0.026382
-0.212977
0.031796
0.050102
-0.163488
-0.059332
0.007617
0.007089
0.043578
-0.130745
0.233356
-0.003654
0.095747
0.006001
-0.161553
0.054919
-0.110432
0.039120
0.165922
-0.210981
0.183123
-0.041196
0.033683
-0.085105
-0.055779
-0.031520
-0.052631
-0.017350
0.116255
0.244967
-0.178639
-0.152140
0.065470
0.029154
-0.078742
0.011567
-0.225567
0.004219
0.036219
-0.152526
0.191482
0.104771
-0.065432
0.010309
-0.073698
0.125387
-0.013626
0.205460
0.095474
0.064775
-0.196750
0.015834
-0.048063
0.068837
0.005999
-0.016349
0.114403
-0.175297
-0.002263
-0.044211
0.106164
0.008169
-0.093836
-0.094820
-0.138346
-0.065533
-0.142547
0.085025
0.005899
0.018254
-0.049809
0.292738
0.103003
-0.052889
-0.002753
-0.045037
-0.128364
0.029828
0.021840
-0.057041
0.030425
0.021875
-0.141013
-0.032981
-0.012277
-0.064307
-0.070918
0.028690
-0.069759
-0.059477
0.247523
0.150924
0.062304
-0.059377
0.082278
-0.133519
0.091297
0.014639
-0.088368
-0.152775
-0.132486
0.183149
-0.033283
-0.036621
0.128270
0.170055
-0.137879
-0.114430
-0.005462
-0.010809
0.136839
-0.042556
0.012698
0.104037
-0.020607
0.044781
0.040090
-0.169196
0.108318
-0.058592
-0.055163
-0.047829
0.101832
0.016188
0.040325
-0.126911
-0.138157
0.154647
-0.126518
0.055184
-0.288157
0.017957
0.065923
-0.042906
-0.083531
0.173547
-0.085647
-0.034391
0.106876
0.025869
0.121983
-0.078818
-0.042679
0.189161
-0.011347
-0.084735
-0.043077
0.016043
-0.017569
-0.043702
0.052085
0.023904
-0.024110
0.127152
-0.057129
-0.112771
-0.071537
0.006210
-0.014206
-0.054445
-0.094214
0.095788
0.138335
-0.058387
-0.050496
-0.049212
-0.071940
-0.228444
0.039760
0.109794
-0.067052
0.029969
-0.102254
0.008078
0.058310
-0.049338
0.188546
-0.199063
-0.046561
-0.105934
-0.079709
-0.049405
0.006388
0.157754
-0.095525
0.085162
-0.033034
-0.137244
0.125742
0.028240
-0.068835
-0.083944
-0.100943
0.030945
0.236751
0.050991
0.169389
0.159955
-0.137982
0.280871
-0.181312
-0.115780
-0.011688
-0.269425
0.092210
0.112628
0.321481
0.012559
0.173268
0.114600
0.024826
0.056975
0.044443
-0.023471
-0.361438
0.169537
0.273674
-0.047796
0.122140
0.079036
0.096839
0.053363
0.075523
-0.085504
-0.009470
-0.137274
0.119554
0.052200
0.308847
-0.029687
-0.253813
-0.025479
0.043041
-0.174286
0.086996
0.078919
-0.123828
0.016745
-0.013018
-0.127494
0.177299
0.020458
0.009882
0.066292
0.093476
-0.189022
0.133127
0.068160
0.145172
-0.020060
0.102338
-0.177801
-0.344045
0.243303
-0.108652
0.112200
-0.038209
0.080740
-0.110908
0.087634
-0.007645
0.126032
0.051910
0.013765
0.085096
0.149999
0.048239
-0.041535
-0.172828
0.031963
0.209833
0.059552
0.023984
0.161499
0.129425
0.213472
0.243022
-0.196000
0.184709
0.148347
-0.098321
-0.173932
-0.104325
0.106198
-0.001005
0.017512
-0.103530
-0.202985
0.091335
0.179405
-0.078716
-0.250050
-0.163880
0.013762
-0.062485
0.025231
-0.197299
-0.000265
-0.027309
-0.084867
-0.159804
0.072632
0.047842
0.048102
-0.013368
0.128985
0.100332
0.126826
0.043112
-0.006838
0.077090
0.017072
0.209477
-0.070335
0.016568
-0.032251
0.075184
-0.001052
0.034297
-0.010226
0.135688
0.106478
0.097312
0.066186
0.155881
-0.224160
-0.067474
0.088137
0.008561
-0.070424
0.227146
-0.096377
0.134597
0.001231
-0.129331
0.209156
-0.086730
0.104327
0.006806
-0.022387
0.067847
-0.100344
-0.178883
0.205151
0.170498
-0.148709
-0.144823
0.086125
-0.101461
0.046082
0.046384
-0.009976
-0.115742
0.087415
0.097277
-0.150032
0.086020
0.188171
0.310176
-0.042085
-0.027023
-0.021497
-0.342770
0.008609
-0.207756
0.014416
-0.035679
0.159036
0.206409
-0.015695
0.001183
0.308650
-0.040024
0.108885
0.040091
-0.014066
-0.083395
-0.074354
0.010411
-0.118224
-0.223472
0.044981
0.045691
0.097284
0.057959
-0.069234
-0.017894
-0.117039
0.067037
-0.071009
0.040031
-0.364792
0.032413
-0.003717
-0.136094
-0.013186
-0.075698
0.028682
0.060224
0.028482
-0.044709
-0.040221
0.160850
-0.030806
0.038516
-0.070024
-0.021329
0.068071
0.007315
0.105560
-0.144554
-0.004055
-0.039792
-0.025717
0.085021
-0.081469
-0.002299
0.171475
0.225626
0.058299
-0.079179
-0.031001
-0.076416
-0.089549
-0.054666
-0.094683
0.275858
-0.241004
0.100759
-0.060757
0.145523
0.116178
-0.035889
0.071543
-0.036141
0.095975
0.115727
-0.035535
-0.015029
0.126693
-0.218896
0.054190
-0.108762
-0.126869
-0.143455
0.042145
-0.022212
0.093783
0.020927
-0.143161
0.001721
-0.015171
0.196412
-0.035602
0.127628
0.036437
0.041069
-0.216443
-0.052142
-0.068720
0.020654
-0.152664
-0.120884
-0.187359
0.020216
-0.188569
-0.029311
0.154311
0.001951
0.101425
-0.254966
0.014975
-0.036956
-0.104646
-0.164221
-0.215461
0.048775
0.201848
-0.173921
0.058614
-0.000798
0.255087
0.053476
-0.052507
-0.074405
-0.245397
-0.039844
-0.142476
-0.061633
-0.159207
-0.078086
0.125705
0.041008
-0.239153
-0.047729
-0.053306
0.065650
0.112270
-0.170802
0.176733
-0.024641
0.070225
0.045159
0.091159
0.094699
0.074494
0.123909
0.018678
0.011255
0.011517
-0.013429
-0.144070
-0.065897
0.004107
-0.020728
-0.039960
0.031866
-0.064286
0.085801
0.057024
-0.234507
-0.016724
-0.013518
-0.103140
-0.039419
0.158498
0.152062
-0.029963
0.157089
0.077829
0.022648
-0.097766
-0.030067
0.068986
0.054286
-0.091930
-0.014104
-0.161317
-0.081493
-0.060605
0.131445
-0.080384
0.191000
-0.058994
-0.047599
-0.104107
-0.333548
0.170492
-0.030401
0.160502
-0.064429
-0.040316
0.011133
-0.108046
0.031821
0.069291
0.008586
-0.116824
0.053456
0.059436
0.060304
0.051480
-0.023586
0.005991
-0.016312
0.021752
-0.214746
0.105080
0.045929
-0.149802
0.102415
-0.108309
-0.033347
-0.282513
0.013888
0.148820
-0.078308
-0.020574
0.040967
-0.058741
-0.131942
-0.004712
0.184006
0.080210
-0.109708
0.110357
-0.304225
0.191601
0.112682
-0.109129
0.050151
0.009055
0.010333
-0.032237
0.026299
-0.098233
0.101532
-0.005860
0.145487
-0.031474
0.159631
-0.028877
0.116704
-0.091700
0.082046
-0.067202
-0.104024
-0.050081
-0.181121
-0.055062
0.103066
0.092429
-0.098250
-0.072713
-0.161916
0.125760
0.209180
0.044141
-0.217308
-0.165124
-0.079673
0.013321
0.105493
0.118670
0.337193
0.097965
-0.045162
0.079501
0.192311
-0.360182
0.125498
0.161917
0.176857
-0.205719
-0.011934
-0.063496
0.049866
0.030502
-0.272775
-0.215031
0.096371
0.000026
-0.006452
-0.026395
0.043097
-0.223973
0.021299
0.003508
-0.099553
-0.106041
-0.126338
-0.071171
-0.150046
-0.124211
0.070049
-0.040311
0.185438
0.140420
0.000545
0.063690
0.228876
-0.037786
-0.150170
-0.065202
0.087116
-0.145507
0.122761
0.337064
-0.117141
-0.070999
-0.080099
0.143461
-0.096870
0.015143
0.011804
-0.032701
-0.055609
0.241296
-0.064336
-0.041931
-0.170085
0.206674
-0.095402
0.068484
0.083790
-0.025923
0.061479
0.007184
-0.025556
0.062435
0.029192
0.080244
-0.136929
-0.134322
-0.088047
-0.136366
0.040399
-0.067608
0.094012
0.107960
0.024747
-0.096620
0.049746
0.054682
0.050867
-0.071088
0.214008
-0.169948
-0.059371
0.044398
0.023834
0.042050
-0.290907
-0.398913
0.161243
0.057438
0.149011
-0.171969
0.028421
0.081040
0.167522
-0.006561
-0.013065
0.061318
0.129697
0.144184
-0.127639
-0.003033
0.040630
-0.287622
-0.161532
-0.089840
0.055337
0.013898
-0.133795
-0.039631
0.213974
0.015537
0.023721
0.086025
0.336865
-0.270410
-0.049254
-0.072634
0.119501
-0.237188
-0.018348
-0.027079
0.053433
-0.081259
-0.118972
0.035383
0.272908
0.039431
-0.078688
-0.036875
0.063910
-0.322413
-0.021589
0.267855
0.025798
-0.025289
-0.034331
-0.044310
-0.047942
0.110691
-0.054272
-0.108378
-0.015216
-0.072718
0.144901
-0.064074
-0.004701
-0.036054
0.039031
-0.152161
0.026971
-0.028250
-0.044765
-0.151666
-0.148010
-0.038281
-0.044541
0.031165
-0.039498
0.024745
0.261662
-0.062492
0.165155
0.062487
0.033153
-0.165810
-0.022280
-0.113596
-0.106262
-0.055234
0.049996
0.009790
-0.155690
-0.143639
-0.181393
-0.059437
-0.185102
-0.005784
-0.161569
-0.030070
0.005284
-0.104888
-0.042269
-0.033040
-0.083991
-0.149995
0.096952
-0.002179
-0.001405
-0.019850
-0.084596
-0.045996
-0.186021
-0.020012
-0.001980
0.098889
-0.105682
0.072549
0.219451
0.131158
-0.066622
-0.149333
-0.063284
0.035785
0.052922
0.005676
-0.001366
-0.105967
-0.076901
-0.018742
0.012714
-0.096007
0.003027
-0.079597
0.139302
0.129106
0.141663
0.108726
0.015730
0.178002
-0.105471
0.106092
-0.230768
0.105475
-0.248746
-0.182765
-0.192229
0.009995
0.038552
-0.029101
-0.034446
0.037608
-0.218760
0.043162
-0.224954
0.024996
-0.078192
0.148125
-0.213052
0.053580
0.222429
-0.246308
-0.207962
-0.068815
0.237973
-0.158910
-0.119326
0.030154
-0.040511
0.008276
-0.013695
0.062585
-0.159988
0.125180
-0.125788
0.096209
-0.099715
0.205170
-0.060909
0.022912
0.020217
0.071430
-0.150632
-0.357021
0.116485
0.076915
0.097430
0.096680
-0.191530
0.068261
0.038721
-0.387749
-0.074052
-0.088954
0.098584
-0.166662
0.191954
-0.063056
-0.003077
-0.042637
0.023143
0.118181
-0.274876
-0.013925
-0.112604
0.010242
-0.226885
-0.063230
0.022877
-0.163398
0.022390
-0.044913
-0.226585
0.183043
-0.022470
-0.066734
-0.102673
-0.036470
0.198181
0.137684
0.193946
0.050158
0.059902
-0.121665
0.037942
-0.046165
0.029591
0.068581
0.022450
0.022618
0.127189
-0.187046
0.325070
-0.106461
0.139637
-0.010775
0.007480
-0.005551
-0.161211
-0.048426
0.053266
-0.052419
0.222619
-0.065240
-0.107235
-0.183706
-0.180646
0.170722
-0.008922
0.123044
-0.155730
0.023174
-0.049225
0.028782
0.016124
-0.112409
0.093055
0.266931
0.009520
-0.001171
0.024789
0.086385
-0.164395
0.428130
0.062448
0.115770
0.018254
-0.027109
-0.071874
0.049750
-0.007926
-0.157169
-0.097721
-0.026992
-0.104612
0.065939
0.366698
0.164813
0.166795
-0.019151
-0.056768
0.059214
-0.283296
0.298354
0.095554
-0.068230
0.000284
-0.025943
0.520936
0.041800
0.015171
-0.015758
0.014286
-0.047700
0.183009
-0.099396
-0.050609
0.045618
0.103491
0.053714
0.134315
0.174180
-0.121588
-0.072226
-0.078330
0.163985
0.248862
0.052373
0.155210
0.243583
-0.052656
-0.115092
-0.006807
-0.037700
0.047420
0.094256
0.020843
-0.013524
-0.284790
-0.029552
0.097397
0.047750
0.040565
-0.069395
-0.015641
-0.057162
0.159183
-0.051933
-0.178184
-0.100907
-0.150127
-0.001543
-0.093406
-0.114396
-0.147309
-0.086057
0.021055
-0.137092
0.112110
0.023383
0.157733
0.087123
0.134858
-0.023144
-0.155644
0.050263
0.077468
-0.023022
-0.059952
0.149046
-0.002173
-0.098170
-0.164913
-0.130212
0.292186
0.099221
0.002589
-0.258265
0.238747
0.095549
0.121622
-0.107275
0.150590
0.067764
0.013931
0.061681
-0.203367
0.143331
-0.199655
-0.170037
-0.097776
-0.163037
0.175875
0.079414
0.005006
-0.005037
0.071891
0.153962
0.082771
-0.034513
0.022489
-0.194545
0.154238
0.120438
-0.193526
0.013210
-0.051813
0.038420
0.084616
0.015721
-0.080357
0.173452
-0.135469
-0.034155
-0.078343
-0.073869
-0.100792
0.057885
0.102943
0.024298
0.067977
0.038202
0.092581
0.111906
0.006493
0.121978
0.017779
0.211153
-0.045073
-0.251111
-0.015643
-0.113561
-0.069066
-0.043286
0.067845
0.094692
0.055443
0.124632
-0.079413
0.066457
-0.013603
-0.020273
-0.129207
0.120748
-0.119431
0.094419
-0.068165
0.112589
-0.089018
0.073921
-0.020334
0.054825
-0.243984
0.069337
0.000803
0.023865
0.218603
-0.066734
0.291496
-0.040104
0.131288
-0.093602
-0.197784
-0.024397
-0.089438
0.090215
0.192135
-0.095430
0.139887
0.078510
0.077296
-0.073323
0.003272
0.020347
0.080383
-0.007775
0.173241
-0.079065
-0.119577
-0.082282
-0.130330
0.079011
0.177715
-0.071471
-0.189829
-0.165583
0.046699
0.079607
-0.179092
0.281031
-0.137794
0.238837
-0.052281
0.205933
0.040750
0.025641
0.064318
0.027640
0.288961
0.132512
-0.025393
-0.022734
0.249341
0.210172
0.203566
0.051674
-0.021474
-0.131136
0.204053
0.027450
0.008803
-0.027205
-0.068477
0.054060
0.004478
-0.136504
-0.028926
-0.063839
0.020906
0.215701
-0.070456
-0.089531
-0.069170
-0.142370
0.031910
0.037934
-0.297600
-0.057107
-0.123612
0.073904
-0.115321
0.072165
0.138844
-0.084222
0.161459
-0.048105
0.083597
0.080992
-0.054644
0.003057
0.036991
0.050615
-0.020788
0.114570
-0.036874
0.074497
-0.011043
0.249807
0.000903
0.265926
0.019329
-0.007210
0.035299
-0.005969
0.143211
0.001674
0.034429
-0.162995
-0.172030
0.021457
-0.019828
-0.075780
-0.039508
0.189812
0.142955
0.079667
-0.071183
0.192405
0.209637
-0.030218
0.060113
0.245230
0.061024
-0.089447
-0.057912
0.165997
0.018698
-0.044916
0.133948
0.183645
-0.041298
-0.082318
-0.073392
0.010612
-0.069425
0.027117
-0.111520
-0.015620
0.063496
0.126087
-0.012779
-0.054822
0.004937
0.045919
0.197643
0.014396
0.061987
0.188382
-0.099342
0.017081
-0.184454
0.087573
0.105941
0.031489
0.234349
0.031810
0.023115
0.039112
-0.068966
0.133631
-0.026634
-0.238010
0.108745
-0.121856
0.034319
-0.065249
-0.058099
0.071686
-0.108479
0.144727
-0.188288
0.052553
0.117731
-0.149208
-0.179726
0.099611
0.010725
0.079491
0.086583
-0.172572
-0.241111
0.089752
0.154711
-0.184050
-0.046602
0.028389
-0.143970
0.084975
-0.038117
-0.136529
-0.011736
-0.050565
0.320140
0.055716
0.069667
-0.030949
0.020782
-0.188869
0.025827
-0.005757
-0.062105
0.047594
-0.060959
-0.015866
0.100812
0.056367
0.005157
0.049832
-0.077611
0.167649
0.033833
-0.023686
-0.013375
-0.060443
-0.017581
-0.154978
-0.011000
-0.147297
-0.012944
-0.028782
-0.249380
0.042613
-0.106560
0.033416
-0.015010
0.032181
0.099030
0.054382
0.037215
0.199060
-0.162122
0.057624
0.073152
-0.039569
-0.101825
0.087852
0.035311
0.143754
0.049687
0.100833
-0.063631
-0.085488
-0.097162
-0.093492
0.012004
-0.095916
-0.094355
-0.060516
0.019061
-0.014292
-0.153191
-0.051581
0.076576
-0.164283
-0.290019
-0.123978
-0.092810
-0.013391
-0.044134
-0.094046
-0.169103
0.092109
-0.006593
-0.008066
-0.101357
-0.137179
0.072071
-0.052019
-0.056495
-0.049450
0.105464
0.003844
-0.132280
-0.122397
0.072030
-0.016709
-0.014829
0.240723
0.067679
0.165787
-0.070903
0.001392
-0.026882
0.021719
0.030440
0.094771
-0.067486
-0.057826
-0.041997
0.203524
0.176462
-0.001621
-0.013441
0.079738
-0.058358
-0.077511
-0.039239
-0.239391
0.012362
-0.226671
-0.072907
0.040436
0.046706
-0.061235
0.002500
0.014661
-0.007792
-0.025929
-0.153060
0.110521
0.040745
0.003248
-0.050575
-0.161437
-0.060114
-0.129589
-0.147524
0.055243
-0.006303
0.114622
-0.210287
-0.009748
-0.013834
0.078145
0.191020
-0.157267
0.089620
0.183425
0.185748
0.080456
-0.074523
0.030129
-0.094536
0.026345
0.318156
-0.098040
0.206501
-0.103246
-0.241579
0.060819
0.139263
0.148900
-0.008552
0.064180
0.048820
-0.179544
-0.144820
0.031509
0.004337
-0.038516
0.126677
0.103529
0.074457
0.127074
-0.018629
0.027415
0.029490
0.004226
0.014810
0.229713
0.124575
0.025448
0.095363
-0.118019
0.055298
-0.133136
-0.008648
0.122030
-0.083412
-0.116736
-0.121673
-0.026260
-0.072898
-0.020600
-0.185828
-0.188357
0.105826
-0.143576
0.027046
0.136067
-0.054213
0.017739
0.093385
0.002096
-0.102687
0.008077
0.077780
0.048677
-0.042061
-0.055258
0.089772
0.181857
-0.008830
-0.045346
0.002035
-0.140577
-0.106071
0.205983
-0.157440
0.021482
-0.038589
-0.175174
0.088571
-0.041178
0.181406
0.140541
-0.079069
0.071602
-0.131460
0.054262
0.061426
0.184967
0.065248
0.051336
0.031634
0.078797
0.177347
0.036390
0.030777
-0.096316
0.189271
-0.005005
0.082547
0.060995
-0.058837
-0.096051
-0.068189
-0.107124
-0.077412
0.015974
0.000904
-0.050099
-0.293198
-0.085824
-0.052457
0.032700
-0.038163
-0.143863
-0.071343
-0.045355
0.101207
-0.045948
-0.061483
-0.030723
-0.122148
-0.059774
0.001734
0.074098
-0.087677
-0.145338
0.154398
0.214622
0.124339
-0.013163
-0.045680
0.033810
-0.161184
0.043926
-0.005677
0.012588
0.010396
-0.033646
-0.108599
-0.115158
0.249331
-0.112642
0.022495
0.040364
-0.071767
-0.120430
0.097326
-0.128642
0.057530
-0.098824
0.051657
-0.015941
-0.095811
0.221392
0.189624
0.059914
-0.068594
-0.161862
-0.007473
-0.234490
-0.017464
-0.004871
0.216161
-0.196026
0.118242
-0.029012
-0.023415
-0.084088
0.086642
-0.031383
-0.006847
-0.305793
0.033881
-0.142747
0.093363
0.088665
0.120714
-0.171865
-0.237433
0.126948
0.241222
-0.088869
0.133266
-0.154559
-0.217113
-0.116968
0.051761
-0.078555
-0.006210
-0.033054
-0.019817
-0.005730
0.104780
-0.130407
0.095008
0.065049
0.078613
-0.319105
-0.142057
-0.363334
-0.100288
-0.054206
-0.053643
0.015805
-0.107083
-0.017888
0.016944
-0.298318
-0.156995
0.131169
-0.048103
-0.027348
0.087302
0.010287
0.008754
-0.064614
0.324372
-0.174640
-0.017458
-0.001553
-0.116868
0.170383
0.056388
-0.239804
0.101322
-0.168689
0.100034
-0.015675
0.056885
-0.050028
0.047970
0.085269
0.023277
0.063419
-0.139666
-0.164587
-0.056179
0.125494
0.046867
-0.072910
-0.019185
0.103356
0.027463
0.124117
-0.114093
-0.092997
0.004074
-0.238797
0.052878
-0.044150
0.018047
0.085767
-0.068825
0.068427
0.164631
-0.039265
0.062698
-0.262261
0.207547
0.018080
0.110811
-0.050628
-0.176787
0.085718
0.115538
-0.074112
0.095978
-0.177647
-0.052851
0.103074
