# Shape: (128,)
0.000448
-0.000510
-0.000134
-0.000318
-0.000066
-0.000858
-0.000489
-0.000168
0.000382
0.000182
-0.000192
0.000304
0.000441
-0.001043
-0.000442
-0.000900
-0.002317
-0.000406
0.000122
-0.000088
0.000379
-0.000245
-0.000408
0.000040
-0.000685
0.001555
-0.001373
-0.000257
-0.003656
-0.000586
0.000493
-0.000575
-0.000179
-0.000563
-0.000774
0.000149
0.000890
0.000059
0.000264
-0.000558
-0.000875
-0.000566
-0.000552
0.000675
-0.000073
-0.000227
-0.000306
-0.000789
-0.001171
-0.000070
-0.000330
-0.000178
0.000419
0.000230
-0.000282
-0.000799
0.000796
0.001909
0.000997
0.000349
0.000499
0.001230
-0.000567
0.000283
-0.000435
-0.000412
0.001839
0.000396
0.000911
0.000161
-0.000032
-0.000160
-0.001177
-0.000805
-0.000250
-0.001508
-0.000266
-0.000212
-0.000000
-0.001718
-0.000017
0.000479
-0.000583
0.000030
0.000455
-0.000902
0.000546
-0.000947
-0.001320
-0.000691
0.000475
0.000531
0.000162
-0.001213
-0.000215
-0.000231
-0.000406
-0.000600
0.000210
-0.000775
-0.000787
0.000156
0.000099
0.000586
-0.000172
-0.000021
-0.000193
-0.000103
0.000683
0.000525
0.000328
-0.000110
0.001006
-0.000219
0.000484
0.000336
0.000749
-0.000242
-0.001284
-0.000771
-0.000250
-0.000087
0.000483
0.000897
0.000151
0.000499
0.000154
0.000256
