# Shape: (128,)
-0.000351
0.000719
-0.000040
-0.000560
0.000081
-0.000267
0.000738
0.000403
0.000188
0.000456
-0.000276
0.000459
0.000676
0.000392
0.000170
0.000443
0.000512
0.000561
0.000052
-0.000287
-0.000093
0.000142
0.000597
0.000855
-0.000052
-0.000214
0.000180
0.000346
-0.000229
-0.000095
0.000181
0.000273
0.000331
0.000411
-0.000353
-0.000347
-0.000587
-0.000147
0.000005
-0.000213
0.000028
0.000673
-0.000258
-0.000095
0.000227
-0.000027
-0.000907
0.000238
0.000866
-0.000058
0.000907
-0.000317
0.000078
0.000325
0.000242
0.000089
0.000060
-0.000469
0.000025
-0.000464
0.000146
-0.000018
-0.000276
-0.000317
0.000179
0.000048
0.000299
0.000808
-0.000012
0.000221
0.000406
0.000642
0.000031
-0.000313
0.000158
0.000133
-0.000118
0.000054
-0.000008
0.000730
-0.000074
-0.000170
0.000479
-0.000676
-0.000296
-0.000102
0.000090
-0.000199
-0.000145
0.000052
-0.000049
-0.000014
0.000172
-0.000134
-0.000134
0.000190
-0.000023
-0.000045
-0.000198
-0.000335
0.000092
0.000042
0.000559
-0.000203
0.000394
-0.000086
-0.000234
0.000215
0.000107
-0.000405
-0.000521
-0.000009
0.000093
0.000011
0.000242
0.000133
0.000117
0.000101
-0.000362
0.000366
-0.000747
0.000562
-0.000402
0.000407
0.000499
0.000559
0.000557
0.000343
