# Shape: (3, 3, 3, 32)
-0.019816
0.078861
0.083252
-0.024596
-0.120830
0.267939
0.060774
-0.257124
0.217950
0.014579
0.060509
0.086157
0.023792
0.053205
-0.137002
0.146765
0.186328
-0.079736
0.175767
-0.154034
-0.273875
0.098433
0.118547
0.302688
0.105040
0.032860
0.005198
0.106824
-0.120714
-0.042543
0.072801
0.117827
-0.060555
-0.007015
0.117028
-0.149803
-0.114227
0.114054
0.157057
-0.027104
-0.130012
0.113791
0.054745
0.004406
-0.096927
0.176928
-0.064359
-0.046246
0.014374
-0.035647
0.077245
0.021598
-0.082107
-0.145882
0.062341
0.232281
0.215670
-0.259347
-0.090435
0.166140
-0.154246
-0.107431
-0.280631
-0.006362
0.020505
0.146388
0.094772
-0.062691
0.197932
0.218093
-0.092374
-0.068165
-0.130056
0.212272
0.099985
0.234981
-0.143701
-0.065492
0.197544
-0.018281
-0.110936
-0.117848
0.069211
-0.057644
0.135340
0.131852
-0.172422
-0.090022
0.098141
-0.207779
0.068275
-0.202972
0.007033
-0.155290
-0.091528
0.028005
0.025798
-0.272114
0.238554
-0.114204
-0.135800
-0.016803
0.015411
0.018119
0.022101
-0.135502
-0.093744
-0.068090
0.288486
0.007640
-0.187080
-0.150693
0.174329
0.235083
-0.189885
-0.026429
0.068810
-0.022136
0.121626
0.236931
0.045955
0.011038
0.033782
-0.180761
0.050598
-0.146487
0.038163
-0.134357
-0.085587
-0.137860
0.149032
-0.131132
0.106553
-0.121451
0.234651
0.165943
-0.023188
-0.150142
-0.035864
0.097758
0.149484
-0.011538
-0.197450
-0.272967
0.145099
-0.251565
-0.111191
-0.097843
0.267203
0.054332
-0.108251
0.148968
0.258635
-0.123118
-0.053975
0.064448
-0.008626
-0.107912
-0.085438
-0.200936
0.158283
0.097547
0.295764
-0.038995
0.034958
-0.027126
-0.041889
0.178451
0.108253
-0.107062
-0.329463
0.033986
0.232299
-0.072853
0.034172
0.005122
-0.139592
-0.048862
0.100371
-0.023354
0.053955
0.088209
-0.092864
0.130104
0.253605
0.066812
0.190013
-0.068837
0.176577
0.140586
0.090980
-0.175532
0.161862
-0.119531
0.129913
-0.124539
-0.072079
0.059481
-0.118555
-0.131868
0.103512
0.166457
0.282921
-0.021904
0.146161
0.090905
0.096635
0.033287
0.135132
0.163964
-0.156334
0.169158
0.058505
0.059912
0.230169
-0.118228
-0.084252
0.017476
-0.031775
-0.123082
0.024084
0.018976
-0.071200
0.250917
-0.121615
-0.188737
0.060571
-0.049779
-0.065826
-0.196011
0.002597
-0.011338
-0.166931
-0.038087
-0.102553
0.097753
0.184356
0.088828
-0.006934
-0.096257
0.011091
0.001415
0.009604
0.067185
0.230933
0.133708
0.189452
0.032801
0.113278
0.008816
0.045609
0.119847
-0.054403
-0.035145
0.125753
0.087430
-0.077922
-0.077192
0.252015
0.097295
0.081613
-0.003485
-0.088412
0.204573
-0.010695
-0.112499
-0.144578
-0.048790
0.084344
-0.094565
0.192563
-0.171908
-0.204391
0.145328
0.079818
0.043116
-0.085018
0.146664
-0.003909
-0.126043
-0.042956
-0.139292
-0.237162
0.101376
-0.058616
0.103242
0.148857
0.064104
0.163246
0.252458
-0.098412
-0.013400
0.017466
0.293490
-0.119041
0.002935
0.220964
0.093692
-0.124126
-0.099491
-0.156867
0.046536
-0.010433
0.484388
-0.044952
0.232330
-0.009386
-0.181828
-0.106339
-0.161074
0.112578
0.130291
-0.093885
-0.049012
-0.254014
-0.058986
-0.023534
0.116685
0.054450
-0.078090
0.094577
0.097135
-0.106073
0.101941
0.046834
0.279348
0.134378
0.218343
0.036941
0.219418
0.060772
0.115611
-0.142435
-0.153319
0.058274
0.054586
0.024177
0.015344
0.041596
-0.120825
-0.031927
-0.146955
-0.064702
0.156446
-0.168552
-0.199146
0.019292
0.097049
0.048881
-0.138241
-0.536062
-0.058978
0.252881
0.355912
0.083713
-0.106069
0.050172
0.029773
0.046530
-0.100169
0.019491
0.191694
-0.071852
0.169938
0.011618
-0.184223
0.138774
0.175246
-0.002249
-0.001746
-0.066837
-0.142905
-0.042386
0.137215
0.167294
-0.058336
0.023461
-0.023916
0.063787
-0.002632
0.237317
-0.079822
-0.017515
-0.107872
-0.103280
-0.055510
0.016939
-0.225613
0.212612
-0.016393
-0.132584
-0.020175
-0.025567
-0.074118
0.058854
-0.146080
0.010682
0.231737
-0.185148
0.341747
0.046716
0.170905
-0.274831
-0.128034
0.048693
0.040449
-0.185629
-0.055345
-0.153481
0.023701
-0.085568
-0.230339
0.029935
0.008682
0.086849
-0.253357
-0.300349
-0.199311
-0.212011
-0.141833
-0.036108
0.076706
0.030447
0.216692
-0.312470
-0.023539
0.139509
0.062044
0.004327
0.146131
-0.177624
-0.085329
0.130587
-0.306916
-0.295222
-0.165672
-0.112649
0.088830
-0.075398
0.016319
-0.353987
0.089035
0.005873
-0.150296
0.227816
0.001708
-0.230786
-0.171328
-0.007286
0.059096
-0.108473
-0.259845
-0.058660
-0.108341
0.049071
-0.078014
-0.178715
-0.047099
0.013355
-0.074627
-0.056282
-0.190983
-0.024198
0.106400
0.003154
-0.054018
-0.133909
-0.079830
0.073746
0.249417
-0.076456
-0.165866
-0.066720
0.103657
-0.171705
-0.056705
0.535890
0.207725
0.103444
-0.177353
0.164671
0.005206
0.116944
-0.012038
0.250539
0.103417
0.055526
0.069687
-0.043740
0.023839
0.153326
-0.325168
-0.010652
0.206091
-0.141058
0.118840
-0.021150
0.035483
-0.027886
0.142828
0.009779
-0.068121
-0.011932
-0.112411
-0.000618
-0.166254
0.305993
-0.187329
-0.135588
0.225728
0.094979
-0.044239
-0.105502
-0.057133
-0.065758
0.207423
-0.202252
-0.057179
-0.172320
-0.105513
0.135393
-0.075472
-0.086666
0.107809
0.121657
0.002527
-0.154115
0.026209
-0.119109
-0.238110
-0.159770
0.174480
-0.027060
-0.151456
-0.103633
-0.049285
-0.281983
0.029938
0.256526
0.023740
0.043948
0.048471
0.010828
0.050909
-0.147394
-0.024558
-0.073161
-0.186510
0.030472
-0.061768
-0.138753
-0.146706
0.158967
-0.270570
-0.082097
-0.087544
-0.092138
-0.255139
-0.085898
-0.032888
0.029200
0.138713
-0.024585
0.222696
-0.247526
0.164739
-0.287594
0.054786
-0.180400
-0.031639
0.105385
0.179143
0.323689
0.284209
0.037926
-0.085978
-0.200068
0.194903
-0.059031
0.205835
0.023868
0.047842
-0.279744
-0.039974
-0.053570
-0.181094
-0.262198
-0.132856
-0.216001
-0.211538
0.245939
-0.015802
-0.222986
0.013661
0.258778
-0.123748
0.167719
-0.168111
-0.174430
-0.004538
-0.100460
-0.046119
0.110180
-0.091382
-0.031904
0.123631
-0.020026
-0.096435
0.066095
-0.039061
-0.104564
0.205598
-0.129360
0.022402
-0.277665
0.229981
0.205732
0.225851
0.055541
-0.115749
-0.233963
-0.225990
-0.028924
0.026261
-0.143136
0.122217
0.095925
-0.081572
0.130188
-0.216770
0.112337
-0.113576
-0.050289
0.077178
0.052821
0.232795
-0.046370
0.005996
-0.209993
0.092322
-0.007188
-0.021962
-0.102949
0.020208
-0.160088
0.050022
-0.071090
-0.017982
-0.128959
0.213001
0.140949
0.011801
-0.077382
-0.204959
-0.183685
0.059739
0.210314
0.249445
-0.029882
-0.036279
0.081230
0.105826
0.141103
0.027623
-0.067725
0.108462
0.297687
0.173891
0.011469
0.006116
-0.010641
0.052010
-0.171580
-0.039858
-0.118036
0.059158
0.209289
-0.042823
0.214812
0.059224
-0.271621
-0.193528
0.034462
-0.379621
0.096378
0.045093
0.206126
0.127207
-0.153421
-0.016787
0.202812
0.142042
0.052674
-0.143701
-0.158332
-0.220921
0.135828
-0.018565
-0.228534
-0.190559
-0.174951
-0.036750
-0.033805
0.235474
-0.250991
-0.029395
-0.168296
0.228612
-0.072669
0.043496
0.113787
0.176115
0.030657
-0.098360
0.076412
-0.007947
-0.099730
-0.025806
0.043120
0.009454
-0.180768
-0.101276
0.208237
-0.043085
-0.046193
0.028632
-0.003147
-0.100225
0.058816
0.218440
-0.182104
-0.061495
0.075998
-0.316775
-0.324935
0.203027
0.040082
0.051064
-0.162556
0.036773
-0.251833
-0.176749
0.093353
-0.153085
-0.105209
-0.085167
0.279674
-0.040423
0.021291
-0.306590
0.073962
-0.114273
0.086926
-0.028500
0.120720
-0.140221
-0.080253
0.131116
0.252482
0.094073
-0.105305
0.156677
-0.240988
0.180727
0.123792
-0.188886
-0.048567
0.292349
0.252145
-0.029513
-0.023042
0.044939
0.236876
-0.154896
0.197141
0.144793
-0.159768
0.108393
-0.085060
-0.255439
-0.113335
-0.086217
0.288317
-0.142467
-0.086838
-0.139531
0.057558
0.249760
-0.005415
-0.246960
-0.025706
-0.223777
0.231314
-0.103983
0.057271
-0.068575
-0.009538
0.080001
-0.049920
-0.011475
0.136125
-0.113814
-0.106519
0.253728
-0.079385
0.077791
0.025357
-0.078890
0.212112
0.129333
-0.172728
-0.085837
-0.136392
0.095132
-0.039770
-0.006905
0.105253
-0.171684
0.103428
0.162656
-0.293067
0.008973
-0.026833
-0.132695
0.089523
0.139836
0.081154
0.009400
-0.186051
-0.212755
0.141133
0.037385
0.160451
-0.018960
-0.134482
0.016346
0.022282
-0.240504
0.094855
-0.167773
0.276791
-0.094301
0.046192
-0.075478
0.089116
-0.006327
0.097902
0.047172
0.073120
0.098266
-0.152506
0.221269
-0.033240
-0.118750
0.154979
-0.027232
0.141117
-0.040941
-0.136470
0.161807
0.131609
0.183264
-0.007501
0.127295
