# Shape: (2048, 2)
0.015677
-0.009220
-0.042757
-0.031977
-0.040527
0.037277
-0.011557
-0.013859
0.003952
0.006646
-0.022521
-0.019065
-0.022346
0.037818
-0.034771
0.011926
0.019209
-0.043136
0.002284
-0.042143
0.032110
0.038459
-0.004132
-0.050266
-0.030259
0.011934
-0.038716
-0.056267
-0.003601
0.040553
0.047503
-0.033211
-0.015106
-0.018736
0.051351
0.017346
-0.010124
-0.072683
0.037798
-0.054258
-0.048198
-0.018164
-0.035574
-0.023300
-0.044743
-0.043111
0.019611
0.007329
-0.004099
0.033741
-0.001271
0.025574
0.011108
0.012036
-0.040228
-0.035195
-0.040957
-0.046864
-0.011164
0.017157
-0.005851
-0.041115
0.014761
0.026642
-0.023007
-0.014340
0.033846
-0.005251
0.041200
-0.000146
0.004040
0.028510
0.022770
0.004041
0.026772
-0.000297
0.032559
0.028703
0.028470
0.014756
0.042933
-0.015273
-0.018202
-0.037305
0.041841
-0.027065
-0.021070
-0.023727
0.044692
-0.033256
-0.056182
0.025047
0.020829
0.011521
0.037596
-0.018247
-0.002673
-0.053120
0.027790
-0.055562
0.039991
0.010358
0.009372
-0.009754
0.001446
-0.025372
-0.014788
-0.062616
0.021736
-0.018789
-0.001545
-0.004829
0.007160
0.036200
0.034975
-0.012178
0.012967
0.021608
-0.007136
-0.019298
-0.003970
0.018985
0.000336
-0.004038
0.026307
0.020503
-0.026645
0.045455
0.007399
0.003269
0.011331
0.046600
0.038494
-0.038407
0.051499
-0.013846
-0.022128
-0.005114
-0.035183
0.009772
-0.060787
0.015886
-0.033413
-0.055572
0.001907
-0.029055
0.012901
-0.041559
0.007802
-0.015841
0.010706
0.049320
0.020668
-0.027375
-0.040873
-0.022108
-0.026112
-0.007632
0.006167
0.039905
0.049223
-0.008114
0.010495
-0.016526
0.027951
0.026395
-0.043697
-0.022421
0.025326
0.039674
-0.009928
0.000971
0.031372
-0.024665
0.038417
0.034218
0.027670
0.013828
-0.002195
-0.012256
0.031775
-0.004742
-0.071643
-0.018483
0.020119
0.056380
-0.029570
-0.021942
0.009816
0.030485
-0.003085
-0.008134
-0.015827
0.024901
-0.013443
-0.000021
-0.010944
0.045064
0.008962
-0.030447
0.011820
-0.020969
-0.029262
0.042762
0.026988
-0.036024
0.030167
0.030443
-0.021713
-0.051023
-0.005482
0.013304
-0.011765
0.013358
0.048073
-0.053665
0.037641
-0.037636
-0.031006
0.023616
0.007723
0.020823
0.046003
0.041675
0.033637
-0.032888
-0.002172
0.013147
0.016718
0.037991
0.047640
-0.050338
0.019364
-0.030548
-0.025369
-0.007379
-0.034526
-0.042091
0.023648
0.026958
-0.071030
-0.000171
0.035849
-0.039802
0.011978
-0.035214
-0.032631
-0.014247
-0.004044
0.036040
0.042338
0.026718
-0.040980
0.007456
-0.065805
-0.016736
0.034813
-0.063427
0.021353
0.022137
0.022813
-0.041911
0.008618
0.020989
0.021301
-0.029698
0.005003
0.048956
0.038473
-0.039935
0.030382
0.021648
0.045284
-0.021775
0.020229
-0.009803
0.044460
0.038861
0.023388
-0.017750
-0.003318
0.011918
0.031683
0.032987
-0.052035
-0.018015
-0.004860
0.028839
-0.003199
-0.002021
-0.018700
0.034172
0.018968
-0.021032
-0.004184
0.051251
-0.033001
-0.024232
0.053922
0.035178
-0.009518
-0.055817
-0.001449
0.001644
0.016797
-0.039918
0.022205
-0.037669
-0.034290
-0.015025
-0.001335
0.052633
0.025507
0.018277
-0.007261
-0.016055
0.003555
-0.053248
-0.026678
0.037346
0.008117
0.037192
-0.006140
-0.034051
-0.015451
0.028461
-0.035434
-0.012880
-0.043185
-0.013299
0.049698
0.013488
0.084371
-0.030782
-0.020151
-0.053545
0.032734
0.020342
-0.003485
0.035347
0.030660
-0.002530
0.023984
0.054897
-0.005568
-0.021602
0.040777
-0.051323
0.036151
-0.011675
0.043137
-0.017024
-0.024601
-0.010617
0.004250
-0.005900
0.030988
-0.022694
-0.064287
-0.021054
-0.092754
0.109629
-0.000109
0.072816
0.036210
-0.003303
0.013840
0.045344
0.016029
0.017575
-0.014304
0.002282
0.000481
0.011459
-0.018747
-0.010280
0.020718
0.013141
0.023774
0.042395
0.014870
-0.005866
0.015754
0.069718
0.029337
-0.005724
0.034885
-0.030586
-0.014479
-0.038471
0.051104
-0.037579
0.003608
-0.053274
-0.019000
-0.020370
-0.053596
0.005173
-0.011315
-0.000625
-0.014230
-0.043043
0.013496
-0.007505
-0.023766
0.008368
0.007922
0.019565
0.027655
0.020805
-0.039473
-0.052573
-0.031059
-0.025379
0.053976
0.002028
-0.010675
0.012466
-0.080607
0.098019
-0.023232
-0.006736
-0.019783
0.037903
-0.001573
-0.036895
0.008409
0.049520
0.031891
0.027148
0.024774
-0.003203
-0.008778
-0.007186
-0.047715
-0.020117
0.019307
0.025103
-0.059288
0.065570
0.032758
0.017833
-0.004252
0.042512
0.017488
-0.035730
-0.014630
-0.019868
-0.027134
0.018204
0.002432
0.026604
0.006114
0.041659
-0.059442
0.039328
-0.045233
-0.006482
0.006949
0.024685
0.019471
0.070023
0.005511
-0.028947
0.024350
-0.063538
-0.131695
0.032669
0.035438
0.023112
-0.032414
-0.033172
0.046458
-0.047196
0.069210
-0.076826
-0.012042
-0.026271
0.015297
0.043701
0.059109
0.033710
0.028471
0.038746
0.087216
-0.011492
-0.014254
0.014415
0.021242
0.049614
0.016406
0.001530
-0.053539
-0.041405
-0.051698
-0.026909
-0.004244
-0.000421
0.016090
0.008345
-0.049818
0.027807
0.046473
0.029283
0.046885
0.018770
0.027386
0.057026
-0.050998
0.024567
-0.068842
-0.005050
-0.046687
-0.001734
-0.011897
-0.030380
-0.035015
-0.017439
-0.031328
0.031242
-0.053246
-0.048140
-0.001069
0.036055
0.015686
-0.043957
-0.030247
-0.012519
-0.025082
0.010233
0.024213
0.059373
-0.015675
-0.032183
0.025792
0.018289
-0.042870
0.001451
-0.054303
0.010069
-0.045758
0.049827
0.043604
-0.009952
0.037793
0.048322
0.020435
-0.018358
0.020067
0.037810
-0.011911
0.010082
-0.001254
0.009080
0.040354
0.008374
0.027849
0.013180
-0.020506
-0.053558
0.040667
0.001828
-0.023186
-0.001522
0.016594
-0.033855
-0.049895
-0.009793
0.021372
0.002265
0.045582
0.001851
0.017457
0.033000
-0.026538
-0.021496
0.029523
-0.048629
-0.043768
0.031222
-0.006731
0.006779
-0.036105
0.054391
-0.000358
0.031996
-0.016647
0.070611
0.022319
0.021062
-0.035677
-0.016381
0.036819
-0.011028
-0.004614
0.005774
0.034093
0.034340
0.024362
-0.001605
0.014916
-0.006233
0.047176
-0.035574
0.045747
-0.062170
-0.032148
0.026112
0.018286
0.057785
0.007979
-0.002122
-0.020064
0.014111
0.023023
0.015473
-0.038570
0.053313
0.000012
0.005207
0.028014
0.046973
0.038038
-0.041260
-0.060328
0.023708
-0.019327
-0.058532
-0.032204
-0.029563
-0.017607
-0.061841
-0.003736
0.037505
0.005460
-0.025269
0.021623
-0.023824
0.000229
-0.001156
-0.043635
0.022552
0.018012
0.046517
-0.000378
0.062362
-0.015919
0.033713
-0.037301
0.026542
-0.032451
-0.034917
-0.051177
0.025932
-0.009096
-0.018425
-0.018458
0.018334
-0.019301
-0.031525
0.009066
0.001879
-0.012799
-0.028738
0.050008
0.026416
-0.037731
0.041458
-0.028061
-0.014529
0.046289
0.009836
-0.012775
-0.008168
0.007564
0.005935
0.021304
-0.020766
0.054025
0.009592
0.035989
0.066309
-0.032409
-0.004932
-0.016141
-0.036241
0.011519
-0.000966
0.019571
0.053920
0.002517
0.056579
0.005514
0.038337
-0.077501
0.054669
0.043792
0.025349
-0.048345
-0.023595
-0.037196
-0.040211
0.040584
0.048417
0.030506
-0.018149
-0.022842
0.052915
0.013801
0.014785
-0.023360
0.076516
-0.060359
0.050770
0.041036
0.000537
-0.010235
0.012369
0.051094
0.049983
0.045785
0.004424
-0.096614
0.016065
-0.045116
-0.039934
-0.028126
-0.024527
-0.057831
0.013443
0.001977
0.029747
-0.009428
-0.035614
-0.023884
-0.052893
-0.005497
0.014387
0.045231
-0.015669
0.022821
-0.006898
-0.031593
-0.033205
-0.028140
0.019420
-0.043830
0.053492
0.015559
-0.029550
0.044357
-0.032041
0.054618
-0.019819
0.036962
0.002316
-0.025779
0.009052
0.023222
0.012358
-0.008280
0.011752
0.041050
0.065389
-0.005539
0.052931
-0.084909
0.036106
0.017533
-0.024379
-0.026900
-0.015818
0.020493
-0.014561
-0.036156
-0.032753
0.023872
0.018354
-0.017944
-0.007063
0.042320
-0.038586
-0.024681
-0.039856
0.019176
0.022136
-0.040336
-0.015098
0.023294
0.034700
-0.007338
0.019184
0.041586
-0.051040
-0.034785
-0.034223
-0.021624
-0.038304
-0.015712
-0.032890
0.054851
0.034221
0.038039
-0.044813
0.048259
-0.045789
0.043925
-0.012848
0.027374
0.031482
-0.055353
0.028578
-0.039318
0.039465
0.010733
0.036291
-0.027628
0.000088
0.058012
0.015502
0.003803
-0.006458
-0.009663
-0.019102
-0.039965
-0.010033
0.006164
-0.010092
-0.005814
-0.026001
-0.068361
0.023141
-0.013057
-0.007988
0.046398
-0.042719
0.013077
-0.009232
0.032452
-0.019711
0.052646
0.031133
0.008499
-0.013129
0.013028
0.034019
-0.002694
0.015718
-0.032724
-0.019571
0.005183
-0.021688
0.006190
-0.037496
0.004178
-0.000629
0.049545
-0.035334
-0.039326
-0.015820
-0.024252
-0.036222
0.048028
-0.005627
0.048055
-0.050490
-0.044837
-0.024057
0.005922
-0.039799
0.011947
-0.001513
-0.037066
-0.021873
-0.033920
-0.005000
0.047662
-0.005879
-0.006978
-0.031922
0.043491
-0.045512
0.026813
0.021590
0.028413
-0.002727
-0.020175
-0.074998
-0.014271
0.014377
0.006810
0.009738
-0.028787
-0.017637
0.071591
0.030981
0.039430
0.025043
0.034952
0.014995
0.017334
-0.028266
0.048301
0.006455
-0.013026
0.035412
0.028329
-0.036728
0.003803
0.014938
-0.025109
-0.015945
0.015126
-0.009751
-0.007887
0.040160
-0.017375
0.013896
-0.049836
-0.004873
-0.039386
0.027596
0.043703
0.048040
0.050106
-0.015123
0.034719
0.037499
0.004948
0.004218
-0.009499
0.004424
0.008416
-0.018816
-0.022161
0.021631
0.018437
0.032639
0.053280
-0.034462
0.031004
0.056110
-0.045244
-0.042125
0.024406
-0.005002
0.035279
0.041780
-0.021470
-0.050883
-0.071611
0.000931
0.035811
-0.048037
0.035228
0.043705
0.064599
0.027494
-0.041429
-0.010642
-0.053441
-0.051123
0.006574
0.022529
0.015682
0.032347
0.032714
-0.045625
0.010906
-0.028469
-0.009783
-0.038018
0.020384
-0.031181
0.007803
0.006491
0.040520
-0.006342
-0.043830
0.025205
0.019038
0.006136
0.001500
-0.058786
-0.006798
0.025330
-0.004179
-0.005435
0.030074
0.013075
-0.017142
-0.029385
0.012331
-0.027254
0.003784
-0.002672
-0.034891
-0.027315
-0.051868
-0.036899
0.014637
-0.030225
-0.034285
0.019953
-0.039062
0.035742
0.025314
0.011425
0.039188
-0.017201
-0.034097
0.019777
0.037768
-0.048337
-0.044350
0.006510
0.052190
-0.006744
0.025181
0.026775
-0.017028
-0.003476
-0.036899
0.024140
0.081317
-0.076477
-0.053552
0.009224
-0.019717
0.027617
0.058922
0.019325
0.011592
0.017511
-0.038989
0.034347
0.038345
0.043876
-0.057294
-0.042003
-0.023370
0.042458
-0.009523
0.055046
-0.041010
0.013283
-0.023006
-0.005855
0.047936
-0.023471
0.027262
0.030515
0.005270
0.035603
-0.038430
0.024325
-0.002707
0.032745
0.017716
0.024584
-0.036847
-0.010523
-0.043719
-0.026362
0.022401
-0.022377
0.024883
0.040088
-0.030074
-0.026645
0.000729
0.044361
0.037871
-0.019624
-0.032691
-0.013895
-0.014718
0.004789
0.030502
-0.030424
-0.023163
-0.018704
0.000651
0.037193
-0.031291
0.022279
-0.015804
-0.050182
-0.027419
-0.030474
-0.022581
-0.020735
-0.046660
0.034583
0.005799
-0.010466
0.027017
0.023405
0.008258
0.040849
0.039160
0.002876
0.044356
0.017683
-0.002245
0.012275
0.030444
0.029228
0.042360
0.027947
0.034723
-0.035972
-0.000817
0.001233
0.030070
0.004072
-0.017032
0.008645
-0.036443
0.054237
0.005996
0.019834
0.009682
-0.023380
0.029987
-0.003831
-0.026869
0.034923
-0.112640
0.016584
-0.038471
0.022472
0.012674
0.066018
0.034033
-0.004980
-0.052596
-0.007485
-0.046457
-0.000224
0.041210
-0.042936
0.055768
0.024801
0.024178
-0.025336
-0.041220
-0.026359
0.014075
0.035452
-0.008034
0.043001
0.034753
0.048195
0.036798
0.009033
-0.034473
-0.032629
-0.026320
0.026274
0.020671
-0.040311
0.007564
0.032781
0.049108
0.026118
0.048085
0.044125
-0.018952
0.040954
0.052095
-0.006543
-0.014691
-0.001254
0.014236
-0.018767
0.037309
0.016216
0.043741
-0.001859
-0.042969
-0.022450
0.030680
0.037072
-0.019315
-0.002002
0.000312
0.014114
0.046944
-0.043245
-0.019254
0.031026
0.031497
0.037592
-0.011680
0.019013
-0.023907
0.015649
0.001474
-0.030540
-0.022888
-0.032445
-0.007108
0.010997
-0.019957
0.064042
0.012061
0.035160
0.003622
0.021461
-0.027040
0.021158
-0.025991
-0.029979
-0.001853
0.021642
-0.008168
-0.004870
0.029543
-0.005966
0.034725
0.004709
-0.005455
-0.014665
-0.061273
0.043977
-0.044403
0.026877
-0.033160
-0.005016
0.031747
-0.040912
-0.044795
-0.017780
0.012075
-0.002939
0.029279
0.006757
-0.014819
-0.007376
-0.046068
0.049326
0.023924
0.024640
0.015448
0.008418
-0.005862
0.014993
0.019080
-0.032070
0.029083
0.031880
0.018744
-0.001612
0.038380
-0.021675
-0.006449
-0.004477
0.028522
0.001436
0.040089
-0.025162
0.020453
0.030537
-0.022343
-0.023281
-0.033984
-0.038825
-0.002541
-0.021482
0.037137
-0.047670
-0.007533
0.029710
0.018144
-0.045316
0.029239
0.012713
0.013948
-0.000751
0.007221
-0.020859
-0.015122
0.032869
0.030422
0.032640
0.059726
0.020504
0.013122
-0.049258
-0.022702
0.007120
0.060634
-0.057560
-0.026397
0.003173
-0.084609
0.044589
0.017694
-0.018017
-0.044819
0.080810
-0.009623
-0.000269
0.000158
-0.042109
-0.019934
0.018400
-0.063613
0.030063
-0.003013
0.003756
0.009080
-0.007685
-0.022797
0.001935
0.016643
0.053616
0.012348
-0.026540
-0.021578
0.004959
-0.006224
0.041791
-0.003924
-0.009943
-0.039326
-0.026775
-0.002834
-0.009635
0.031471
-0.014804
-0.070265
0.074392
0.020606
-0.015021
-0.013294
0.041200
0.058642
0.016425
-0.045917
0.072318
0.015417
0.003364
-0.024847
-0.006291
-0.082934
0.041629
-0.031151
0.004000
-0.009745
-0.032023
0.054867
-0.027691
-0.038238
-0.040200
0.011894
0.004082
0.003384
-0.041880
0.023233
0.015802
0.029540
-0.039359
0.002009
-0.017191
0.011514
-0.004909
-0.043760
0.033772
-0.026500
0.026983
0.057104
-0.032906
0.023385
-0.073298
-0.005289
-0.011594
0.031493
-0.010553
-0.027525
0.020304
0.031171
0.051078
-0.106780
0.077334
-0.056060
0.025863
0.023717
-0.018702
0.012537
0.053556
0.021299
0.044720
-0.035165
0.014162
0.047119
-0.036763
0.046030
0.010547
0.040894
0.051206
0.019791
-0.000207
-0.039696
0.014748
0.026153
-0.036485
-0.079766
0.084863
-0.010384
-0.003160
-0.030671
0.040849
0.034026
0.054076
0.035489
-0.033427
0.019637
-0.026255
0.021698
0.004308
0.060451
-0.018747
0.016721
0.041809
-0.025831
0.022548
0.028590
0.015183
0.004443
0.058465
0.007933
0.002440
-0.033097
0.042701
0.058071
-0.005870
-0.002778
0.003058
0.070388
-0.020038
-0.022958
0.032538
-0.009963
-0.021964
-0.004715
-0.012883
-0.045000
0.008334
0.044111
-0.042956
0.001563
-0.067452
-0.048068
0.062471
-0.009391
0.011992
-0.065214
0.069241
0.039174
-0.008659
-0.058365
0.029384
-0.052194
0.029869
0.012132
-0.011293
-0.021022
-0.033151
0.023918
0.018185
0.068722
-0.078053
-0.045629
0.011645
0.071588
0.010755
-0.020586
0.053386
-0.035794
0.059997
0.004011
0.002306
0.037314
-0.044135
-0.042975
-0.004561
0.022411
-0.086351
-0.014160
0.036418
-0.002942
0.033511
0.020649
0.048076
-0.028972
0.022355
-0.004865
0.029309
-0.025741
-0.058197
-0.010944
-0.054160
-0.033920
0.085015
0.011201
-0.049864
-0.010203
0.036196
-0.010656
-0.019312
-0.018657
-0.009346
-0.014683
0.051987
0.008177
0.004182
-0.038723
0.011831
0.021296
-0.003798
0.046875
-0.046474
-0.028116
-0.013249
0.019903
-0.042076
-0.060253
0.058186
-0.070508
0.076913
-0.045633
0.028360
-0.030638
0.113497
0.056388
-0.015770
-0.008602
0.060251
0.000195
0.034373
-0.016325
0.003020
0.007309
0.038849
-0.049345
0.014008
0.037428
-0.057554
0.049045
-0.011404
-0.065292
0.025983
-0.040583
0.043962
-0.005599
0.021197
0.013555
0.012464
0.019197
0.016411
0.004940
0.027191
0.022548
0.057287
-0.047559
0.041006
-0.015230
-0.047065
0.050142
-0.041850
-0.014923
0.056493
0.007486
0.043064
0.002235
0.046680
0.003992
0.038284
0.058248
-0.051002
-0.023341
0.038105
0.034284
0.019160
-0.026977
-0.048287
-0.056999
0.065282
-0.023726
-0.001733
0.026102
-0.031809
-0.007581
0.020182
0.013803
-0.014741
-0.051735
-0.047705
-0.023182
-0.006562
-0.023117
0.052929
0.003865
0.016936
0.046227
-0.016417
0.014681
-0.026093
0.018892
0.062801
0.034858
0.014232
0.002472
-0.040322
-0.036513
0.036110
0.051888
-0.038430
0.017708
0.034017
-0.007008
-0.034428
-0.021898
-0.047859
-0.000247
-0.002791
0.051987
-0.031232
0.067165
0.024193
0.032643
0.031541
0.057459
-0.037544
0.029072
0.046162
0.028646
0.010634
-0.080133
0.003920
-0.098281
0.057288
0.006411
0.014823
0.059597
-0.002286
-0.037412
0.054208
-0.080585
0.049676
-0.008063
-0.021801
0.071217
-0.042490
-0.004729
0.011178
-0.046133
-0.042773
-0.058387
-0.025922
-0.058195
0.034696
-0.022360
0.007699
-0.041292
-0.031874
-0.007715
-0.001062
0.002730
-0.034728
0.021819
0.003410
0.037507
-0.004870
-0.000760
0.028058
-0.001157
-0.019894
-0.052643
0.009426
-0.047217
0.041097
-0.051364
-0.011240
-0.073660
0.013298
-0.032131
-0.025332
-0.094284
0.054963
0.026854
0.055052
-0.029397
0.000898
0.062987
-0.055826
-0.027260
0.017848
-0.061387
0.021520
0.033476
0.058904
-0.050829
0.046884
0.031187
0.040348
0.041618
-0.025472
0.044854
0.041182
-0.059785
0.074277
0.037990
0.058993
-0.054318
-0.011192
-0.085731
0.073306
0.045013
-0.024870
-0.016073
0.036382
0.063699
0.005440
-0.017247
-0.044088
0.041175
-0.035288
-0.062223
0.070320
0.050554
-0.069278
-0.105271
0.081555
-0.041258
0.036372
-0.027370
-0.031452
0.031441
0.033047
-0.038513
-0.040727
0.056153
-0.045694
-0.030233
0.046200
0.027603
-0.049898
0.013552
0.029262
-0.050376
-0.047281
0.003702
-0.010099
0.038501
0.010065
0.032346
-0.058202
0.005375
0.019654
-0.041934
0.005552
-0.000184
-0.018257
-0.034730
-0.006602
-0.000251
0.040143
-0.062928
0.096504
-0.050277
0.034214
0.011978
0.054772
0.016441
-0.033134
0.028006
-0.029064
0.018880
0.044839
-0.064613
0.012036
-0.080022
-0.000383
-0.061420
0.081152
-0.073940
0.090185
-0.093137
0.031852
-0.043040
0.046641
0.025142
0.005200
-0.015342
0.052595
-0.047578
-0.046873
0.015468
-0.009861
-0.010429
0.001122
0.024136
0.035634
-0.019133
-0.009234
-0.034295
0.034109
-0.032943
0.012198
-0.065525
0.012159
0.052876
0.026058
0.027027
-0.016507
0.045926
0.010343
-0.009675
-0.009984
0.044572
-0.020995
0.039163
0.008392
-0.020117
0.017925
-0.055196
-0.038243
-0.011160
0.040378
0.035120
-0.004936
0.013299
0.056613
0.005954
-0.019720
-0.015437
-0.042742
0.018348
-0.033824
0.020646
-0.028134
-0.051586
-0.015639
0.008109
-0.055284
-0.009959
-0.060490
0.023197
-0.002828
0.044664
-0.023595
0.005834
-0.046728
0.008285
0.053563
0.008946
0.031922
0.002772
0.012584
-0.019698
-0.018317
-0.020190
0.002810
-0.046158
-0.027266
-0.018762
0.052107
0.002795
-0.033576
0.015943
0.001893
0.035183
-0.048958
0.042327
-0.053912
0.067327
0.022596
-0.041134
0.026735
0.060644
-0.028124
0.048386
0.025680
0.044018
-0.041900
-0.048052
-0.015075
-0.029310
-0.030661
-0.034433
0.034322
-0.040707
-0.018002
0.007452
0.008559
-0.012686
0.063617
-0.023027
0.028497
-0.039098
0.020873
0.036821
0.042910
0.003449
0.014007
-0.022399
-0.019987
0.054065
-0.056703
0.050977
-0.049757
0.018818
-0.020042
-0.023282
0.029906
-0.034625
-0.006050
0.001288
-0.006879
-0.021786
0.004948
0.036634
0.011248
-0.015601
-0.008276
0.032032
0.044600
-0.049994
-0.039949
-0.046086
-0.038490
0.041708
-0.027945
-0.020636
-0.050634
0.044244
0.001732
-0.031260
-0.014449
-0.051713
-0.039320
-0.008558
-0.015700
0.010641
0.046543
-0.038904
0.008557
0.052140
0.040323
-0.002552
-0.017445
0.022727
0.006455
0.004963
-0.028523
-0.012434
-0.035743
-0.043729
0.044070
0.036399
0.031252
-0.017933
0.039588
-0.000928
0.038094
-0.001826
-0.049767
-0.007685
-0.062074
-0.033909
0.013335
-0.028823
0.041956
-0.039781
0.046893
0.034132
0.000024
0.015690
0.055050
0.005390
0.032054
-0.011258
0.026737
-0.008431
-0.004710
0.028610
-0.022416
-0.013420
0.033469
0.001668
0.011523
-0.017115
-0.033238
0.003997
0.032009
-0.033823
-0.058447
-0.015693
0.042496
-0.001873
0.004117
-0.025557
0.054707
0.006084
-0.034527
0.011612
-0.002935
0.005682
0.009819
-0.001630
0.003719
0.029707
-0.015877
-0.034162
0.001966
-0.044785
0.057998
-0.050738
-0.046968
0.037972
0.047192
-0.016212
0.009373
0.011660
0.001046
0.052735
-0.044570
-0.029735
-0.024837
-0.043608
-0.010186
0.012413
-0.019980
-0.025394
-0.002592
0.028038
0.007358
-0.003199
0.034421
-0.064616
-0.014293
0.003673
0.005087
-0.066497
0.079899
0.033381
-0.073785
0.062549
0.033033
0.009748
-0.010066
0.013578
0.014006
0.006072
0.034401
0.014018
-0.055444
0.022710
-0.010327
-0.033892
0.028496
-0.021450
-0.044246
0.024487
0.012134
0.031954
0.013638
-0.023659
-0.042183
0.001368
0.022639
0.045335
-0.001284
0.009997
0.002545
0.029794
0.043381
0.024243
-0.046109
0.016375
-0.040218
0.041388
-0.028432
-0.030858
0.035505
-0.018511
-0.005685
-0.020169
-0.006911
-0.018922
-0.057788
0.003966
0.044488
0.045676
-0.002158
-0.018203
0.005617
0.030102
0.025976
-0.013640
-0.008323
-0.022491
-0.018379
0.038590
0.054969
-0.016118
-0.016897
-0.033771
0.049796
-0.047628
-0.018681
-0.016728
-0.056271
-0.054798
-0.011123
-0.014290
0.010447
-0.050805
0.035930
0.052149
0.002746
-0.009940
-0.009894
-0.020181
-0.020629
-0.032739
-0.021660
0.039500
-0.035066
0.051530
-0.049077
0.047105
0.009151
0.048184
0.021419
0.027719
0.044058
0.035660
0.012689
-0.014006
0.056512
-0.010101
-0.049416
0.017273
0.048656
-0.031591
0.008156
0.001585
0.015160
0.032608
0.015797
-0.024863
-0.056088
-0.048722
0.054352
-0.040230
0.001050
-0.015181
-0.004080
-0.026233
0.036740
-0.062167
0.016095
-0.006125
-0.026574
-0.034465
-0.048230
-0.019963
-0.024838
0.027808
0.023831
0.004828
0.039340
0.022117
0.001275
-0.010370
0.064840
-0.069609
0.019311
0.006065
0.003718
-0.021260
0.057261
-0.028426
-0.031122
0.010862
-0.018759
0.021302
0.029538
0.017652
0.035169
-0.029171
0.021244
0.040840
-0.013868
-0.021201
0.008972
-0.013028
0.010191
-0.027063
0.038489
-0.028067
0.031408
0.025094
0.012948
-0.017012
0.032125
-0.013765
0.002946
0.035007
0.006426
0.019594
0.035721
0.018388
0.035897
-0.036255
0.019100
-0.037469
-0.034335
-0.027108
0.011759
0.014680
-0.048067
-0.018760
-0.022523
0.044962
0.023733
0.024779
-0.005153
-0.056987
-0.026252
-0.037472
0.021392
0.050580
0.012294
0.027926
0.020120
0.025392
0.038079
0.053772
0.001394
0.020284
-0.022008
0.029720
0.028141
-0.000215
-0.000180
0.031000
-0.008967
-0.035017
0.069292
0.009325
0.019550
-0.034055
0.017334
-0.013087
-0.012648
0.024348
-0.006239
-0.002853
0.029441
-0.005414
-0.043073
-0.031192
-0.001369
0.048208
-0.055674
0.016853
0.032946
0.017809
0.025935
0.030262
-0.039191
-0.000708
-0.024486
-0.003791
-0.025549
0.036639
0.031196
0.004918
-0.000573
-0.025766
0.047610
0.035686
0.011469
0.037758
-0.040430
0.047056
-0.013559
0.018935
0.038870
-0.021147
0.033716
-0.016578
-0.047694
-0.011090
0.001943
0.016864
-0.050981
0.007285
0.036743
0.048249
-0.047059
0.006251
0.008056
0.050633
0.026876
-0.007113
-0.000718
-0.048412
-0.009925
0.030854
0.000566
0.038664
-0.025140
0.031094
-0.015167
0.028769
-0.041775
0.046935
-0.069918
-0.025916
0.001166
-0.035238
0.000125
-0.039645
0.056090
0.005141
-0.022693
-0.007256
0.001377
-0.012845
-0.036912
0.046879
0.041902
0.052799
-0.050727
0.031873
-0.002731
0.060497
-0.041735
0.006993
0.026955
0.051481
-0.035169
-0.015758
-0.032689
0.066755
-0.023394
0.005484
0.029102
-0.033827
-0.023063
-0.044584
0.042953
-0.021825
0.007160
0.009993
-0.035159
0.006972
-0.048377
-0.024532
0.069718
0.033305
-0.040949
-0.017407
0.048795
0.034047
-0.010744
-0.035373
0.039651
0.075858
-0.063271
0.012473
-0.018245
-0.037021
0.072763
-0.032508
-0.048882
0.005525
0.022338
0.027927
0.038313
-0.014865
-0.026936
-0.013974
0.020017
0.024447
0.059256
0.000593
0.019744
-0.012057
0.029244
-0.061472
0.015617
0.026856
0.048965
-0.020804
-0.037106
-0.027307
0.040792
0.006493
-0.008704
-0.036446
0.028674
0.008738
-0.011350
0.028667
-0.007110
0.005817
-0.049322
0.053392
0.043695
0.018285
-0.041341
0.038857
-0.055895
-0.054185
0.032331
-0.015917
-0.014053
-0.042149
0.033956
-0.008865
0.042912
0.016936
-0.017577
0.034535
0.035616
0.021552
0.041896
-0.013442
0.031389
0.015121
-0.030157
-0.031917
-0.012654
0.018133
0.012056
0.021169
0.011579
-0.018085
0.021299
-0.055653
-0.032570
-0.029334
-0.043003
0.005063
0.051794
0.024779
0.018893
0.005117
-0.030913
-0.029108
0.018628
-0.023793
-0.065414
0.021574
0.043280
0.048676
0.030318
-0.005017
0.062668
-0.022330
0.034396
0.050517
0.018522
0.050223
0.007188
-0.059899
0.029843
0.013437
0.007354
0.016995
-0.063332
-0.028558
0.061407
0.065002
0.035217
-0.005445
0.001800
0.033222
-0.005337
-0.038560
0.032818
-0.032191
0.038180
0.034595
-0.005562
0.029867
-0.031480
0.045743
0.031045
0.066502
-0.069139
-0.012931
0.050314
0.007210
-0.040872
-0.050718
-0.005686
-0.013446
0.027885
-0.013533
0.001198
-0.013458
-0.011648
0.014748
0.011480
-0.070074
0.006686
-0.013523
0.072434
0.042296
0.011530
0.022414
-0.033663
0.050868
0.022240
0.052895
0.014665
-0.033513
-0.007907
0.050076
-0.047749
-0.026416
0.071441
0.033941
-0.029771
-0.058000
0.003413
0.025307
0.027369
-0.028993
0.043520
0.018827
-0.002964
0.028979
0.022680
-0.027126
-0.063053
-0.053294
0.063551
0.031749
-0.008262
0.024156
-0.038106
-0.033110
-0.004735
-0.029440
0.049971
0.015103
0.043269
0.014939
0.033347
-0.059805
0.038289
-0.009992
-0.025181
0.064155
-0.044754
0.015523
0.041917
0.059750
0.004812
0.042366
-0.002039
0.023712
-0.028566
0.068322
-0.007740
0.009423
-0.028454
0.028351
0.041073
0.060841
0.019400
0.020535
-0.063539
0.050535
-0.016444
-0.038100
0.005621
-0.021382
-0.001957
-0.009529
-0.029190
0.016672
-0.009500
0.052600
0.002245
0.018151
-0.005196
-0.013178
-0.002291
-0.008314
0.016877
0.025885
-0.000131
0.053234
-0.046836
0.001407
0.032748
-0.002800
0.024538
0.031407
-0.015177
-0.019187
0.035395
0.015807
-0.024550
-0.053364
0.018266
0.019669
0.025482
0.002478
-0.033686
-0.034097
0.040958
-0.053950
0.056649
-0.014174
-0.003176
-0.028656
-0.012104
-0.023477
-0.002216
0.040182
-0.063903
0.006598
0.032816
-0.062923
0.076470
-0.005225
0.052028
-0.048547
-0.039290
-0.051220
-0.031117
-0.035599
-0.006624
-0.036148
0.055264
-0.028735
-0.004550
0.032390
-0.038770
0.047701
-0.006077
-0.021889
0.037701
-0.032758
-0.060219
-0.017122
-0.043383
-0.043939
-0.011309
0.013011
0.001475
-0.039833
0.029102
-0.012013
0.044715
0.001870
0.040394
-0.026535
-0.063157
-0.035807
-0.037516
-0.029519
-0.020953
-0.029267
0.006897
-0.017140
-0.035679
0.007837
0.029816
0.013803
-0.016145
-0.037300
-0.011047
-0.028324
0.037418
0.040498
-0.007180
-0.000506
-0.039834
0.005268
-0.007212
-0.003860
-0.068239
0.027162
0.017425
-0.044508
0.022757
-0.060431
0.050057
-0.018802
0.039628
0.001610
-0.008411
-0.019472
0.022092
-0.057354
-0.023579
-0.017384
-0.016648
-0.020912
0.019823
-0.034865
-0.047369
0.001622
0.052714
0.025993
0.027009
-0.018079
0.003443
0.036555
-0.014829
-0.029020
-0.019538
0.018969
-0.015579
-0.005495
0.044440
-0.018819
0.073267
-0.032605
0.030409
0.008579
-0.048528
0.035806
0.065110
0.035165
-0.058292
-0.046084
0.071560
-0.011477
0.030762
0.002180
0.043661
-0.015523
-0.003535
0.041406
-0.015043
0.015776
0.062548
-0.035105
0.037099
0.010459
-0.011739
-0.046023
0.000680
0.010245
-0.031203
-0.001625
0.048370
0.011666
0.003946
0.036465
-0.047643
0.006944
0.028084
0.030086
-0.022059
-0.072465
0.071494
-0.050431
0.006723
0.037228
0.004301
-0.021856
-0.021536
-0.009638
-0.082359
-0.029002
-0.024038
-0.024716
0.012020
0.029632
-0.000359
-0.015498
-0.050583
-0.005478
0.007131
-0.040288
0.035255
-0.070943
-0.011304
-0.057377
0.029473
-0.022507
0.019831
-0.005776
0.008689
-0.020857
-0.029911
-0.042607
-0.041192
0.010504
-0.023201
0.014461
-0.027059
-0.047767
0.033087
-0.068313
0.055995
-0.043801
0.033763
0.028314
0.022217
-0.033501
0.048577
0.049328
0.007033
0.013801
-0.010738
-0.026395
-0.025767
0.020627
-0.055959
-0.012085
0.052114
0.033132
-0.037149
-0.016378
0.010520
-0.040658
-0.018693
0.042396
0.015664
0.006991
0.015880
-0.007172
0.009544
-0.030311
-0.062330
-0.008887
0.047713
0.023779
-0.073236
0.004145
-0.008951
-0.031752
0.020689
-0.001920
-0.049874
-0.016183
0.034249
0.020671
-0.009517
-0.017698
-0.010928
0.004416
-0.047866
0.019582
0.020010
0.012826
0.023552
0.056736
-0.039515
0.035223
-0.001016
-0.017233
0.045377
-0.025673
-0.045872
0.026515
-0.011339
0.031021
-0.051317
0.004120
0.009178
0.028746
0.029197
0.017121
0.000476
0.019255
-0.029508
0.028167
-0.036373
-0.031983
-0.037352
-0.051360
-0.035664
-0.031435
-0.036034
0.028699
0.017429
0.006512
-0.031175
0.004549
0.025029
0.028643
0.005459
-0.012497
0.017236
0.014366
-0.029641
0.041209
0.007186
0.021977
0.036529
0.032457
-0.006795
0.026998
-0.005138
0.011042
-0.022504
0.003597
0.005581
0.031790
-0.010337
-0.021393
-0.047301
-0.012844
0.023850
-0.031879
-0.042528
0.039193
0.052422
-0.025531
-0.026077
-0.004678
0.049994
-0.018609
-0.016975
-0.038874
0.036187
-0.020066
-0.041219
0.014001
0.023049
-0.005812
0.014562
0.009675
-0.011148
-0.015660
0.028465
-0.022903
0.055135
-0.043658
0.033507
0.021876
0.024362
-0.035480
0.050207
-0.031979
-0.052807
-0.022520
-0.036436
-0.001987
-0.015268
-0.001260
0.036902
0.032537
0.050402
0.056773
0.021768
0.000853
0.029325
-0.027998
-0.019041
0.023712
0.044154
-0.026638
0.000800
0.027795
0.017728
0.050522
0.004528
0.050985
0.034564
0.023834
-0.034170
0.031481
-0.001877
-0.000472
0.038671
0.019531
0.024444
-0.053164
0.038252
0.007386
-0.038163
0.047006
-0.032124
-0.044208
-0.000816
-0.033199
0.009774
0.061034
-0.020005
0.031333
0.004041
-0.046358
0.005284
-0.038872
-0.030104
-0.000151
-0.051159
-0.029785
0.048641
-0.036546
-0.010885
0.000113
0.002036
0.001239
-0.046156
-0.036455
0.007813
0.030391
0.002085
0.002881
0.014741
0.029974
0.031463
-0.003473
-0.029203
0.001472
0.002053
-0.004314
0.082657
0.058507
0.023301
0.001281
-0.026478
-0.000097
0.018913
0.013160
0.009786
0.019830
0.037034
0.020671
-0.012166
0.020914
0.015068
-0.036654
0.016684
0.009538
0.017072
-0.001082
-0.039259
0.023764
-0.012607
-0.014990
0.028147
0.028067
0.008667
0.013744
-0.052547
0.016817
0.005976
0.048284
0.011474
-0.011548
-0.016093
0.041689
-0.014850
-0.031581
-0.000676
0.014956
-0.020762
0.072665
0.009023
-0.025980
-0.025764
0.036260
0.024178
-0.002046
0.043000
0.050573
0.008872
0.028003
-0.025125
0.006301
-0.012851
0.011937
0.003621
-0.014825
0.021552
0.018287
-0.030077
0.028691
-0.028907
0.002687
-0.012490
-0.042587
0.036573
-0.022083
0.014565
-0.024472
-0.031434
-0.038596
-0.019389
-0.006459
-0.030796
-0.000601
-0.040072
0.003018
0.020002
0.059655
0.002770
-0.047925
0.003327
0.053841
0.001245
0.039814
0.018452
-0.007649
-0.039199
0.003223
-0.042605
-0.051814
-0.022635
0.019031
-0.034709
0.070273
0.025410
-0.023172
0.036555
0.003380
-0.034783
0.018773
-0.013184
0.052448
0.026621
-0.018918
0.040358
0.028674
0.006489
0.018347
-0.015097
-0.011361
0.010200
0.052850
0.011575
0.024658
0.018295
0.047377
0.026410
-0.000418
0.036811
0.012224
0.000613
0.015360
-0.036760
0.041236
-0.001992
0.024160
-0.026568
0.000298
-0.021549
-0.024567
0.000411
0.040683
0.000887
0.040170
0.000862
0.038426
0.007318
0.028447
0.010047
0.019820
-0.028370
-0.014864
0.007072
0.009769
0.012427
0.042856
-0.008743
-0.019820
0.024423
-0.015442
0.032951
0.048406
-0.023718
-0.025212
0.000235
-0.009706
0.007903
0.015786
0.009173
0.036073
-0.025730
0.035623
-0.018517
0.043888
0.031816
-0.019087
-0.044706
0.029363
0.031437
0.041002
-0.022871
-0.018725
0.003952
-0.034185
0.009985
0.033417
-0.020198
-0.005253
-0.003335
-0.022423
0.044294
0.058966
0.017753
-0.044065
-0.047117
-0.025458
0.033305
0.033218
0.012072
0.004232
-0.041624
0.052976
0.039999
0.024756
-0.025363
0.019227
-0.013566
0.034026
0.040940
0.007181
-0.005666
0.001482
0.001639
0.005386
-0.000055
0.022534
0.066245
0.032708
0.026334
-0.010449
0.036596
-0.010555
-0.003907
0.012780
-0.000831
-0.011011
0.045405
0.044709
0.004817
0.001975
0.015645
-0.026829
-0.008636
-0.001453
-0.002385
0.050864
-0.011049
0.025591
0.017501
-0.020201
0.006643
-0.004343
0.011945
0.014363
0.032646
0.022680
-0.011594
-0.028432
-0.033092
-0.025642
-0.043738
0.003629
0.042693
-0.031572
-0.061309
0.028390
0.027553
-0.052161
-0.026865
-0.043025
-0.007557
-0.032514
0.001576
0.024063
-0.021743
-0.014139
-0.000054
0.018380
0.021412
-0.007551
-0.023600
-0.044055
-0.018471
0.019592
-0.040848
-0.013904
-0.001140
-0.023124
-0.036283
0.024734
0.039913
-0.047265
0.046310
0.043768
0.034105
-0.010480
-0.005104
-0.014858
0.008700
-0.005137
-0.004575
0.023176
0.009343
0.029033
0.005456
0.024276
0.008287
-0.049791
-0.002145
-0.033240
-0.014645
-0.004053
-0.011898
0.009503
0.010726
-0.030431
-0.020131
-0.014383
-0.010544
-0.018584
-0.030485
-0.036421
-0.039560
0.038797
-0.061479
0.034337
-0.009698
0.005489
0.004355
-0.040484
-0.031131
-0.038030
-0.018705
-0.022309
-0.021541
-0.052681
0.004966
-0.005095
-0.046401
0.031102
-0.045264
0.000510
-0.024494
-0.024128
-0.021073
0.011746
0.047978
-0.013811
0.047370
-0.030459
-0.014173
-0.009488
0.018591
-0.028159
0.048279
-0.007615
-0.007659
0.029855
0.020879
0.029089
-0.026138
0.015898
-0.051251
-0.069637
0.011209
-0.063437
-0.018712
-0.009505
0.028376
0.007608
-0.009458
-0.028513
0.034189
-0.051478
0.014411
-0.037023
-0.039986
-0.033448
0.026444
0.046813
-0.020767
0.017881
-0.029110
-0.049333
0.069482
-0.022926
0.039686
0.062119
-0.031747
-0.028235
0.030021
0.011462
-0.019899
0.001517
-0.011876
-0.014896
-0.039624
-0.032887
0.025948
0.025561
0.002650
0.026504
-0.021119
-0.016246
0.019107
-0.008945
-0.003948
-0.077181
0.061167
-0.032211
0.012875
-0.055039
0.036795
0.008084
-0.014631
-0.016549
0.042204
0.004526
0.012932
0.008172
-0.041833
0.049028
0.033971
-0.007144
0.011537
0.019797
-0.006159
-0.017678
0.035376
0.014560
-0.055876
0.045396
0.052797
0.004634
0.000883
-0.046209
-0.038006
0.022526
0.049398
0.024253
-0.053487
-0.027578
-0.004343
0.008818
-0.046012
-0.027102
-0.047956
0.025296
0.018458
0.043665
-0.042817
-0.023605
-0.010781
0.050670
-0.003475
-0.007183
-0.044217
0.013585
0.017717
0.014507
0.013214
0.026690
-0.031534
0.031273
-0.023757
0.026516
-0.014903
-0.010324
-0.033648
0.012864
0.036154
-0.000788
-0.043547
0.027339
0.008629
-0.011518
-0.034889
0.019502
0.009674
0.002362
0.034583
0.019146
-0.030291
0.048123
0.043844
0.051708
0.019062
0.029245
0.039219
-0.022768
0.001829
-0.057728
-0.023338
0.050263
-0.018897
-0.044584
-0.047933
-0.016183
0.011800
-0.038891
0.015330
0.058596
-0.024941
-0.021939
0.012712
-0.036753
0.010209
0.012709
-0.004615
-0.006050
-0.013211
0.002970
0.016704
0.000004
-0.047692
0.032840
-0.010434
-0.052647
-0.006905
-0.036716
-0.033889
-0.001881
-0.050812
-0.012135
-0.047701
0.039829
-0.029528
0.042458
-0.020699
-0.003620
0.001490
-0.004089
-0.049017
0.043220
-0.057145
-0.004098
0.034545
0.026054
0.002057
-0.004404
0.005755
-0.016632
0.017799
0.043464
-0.020420
0.051825
-0.016852
-0.021265
-0.061102
-0.006042
-0.001938
0.002116
0.017334
0.039775
0.044891
0.022739
0.005440
-0.049037
0.028817
-0.025534
0.003586
-0.011266
-0.032637
0.044740
-0.021815
-0.054957
-0.036143
-0.052498
-0.027294
0.007395
-0.078014
-0.021564
0.003217
-0.039621
0.044329
0.066255
0.032608
0.010525
0.022992
-0.002416
-0.012976
-0.004123
0.037897
-0.018006
0.025929
0.029670
-0.027823
-0.039679
0.031818
0.035881
0.047832
-0.017633
0.024888
-0.007189
-0.075778
-0.004172
-0.048250
0.050600
-0.050916
0.005360
-0.016670
0.001353
-0.028427
0.012987
-0.045318
-0.017603
0.019113
-0.005206
0.008793
0.010031
-0.020525
0.013708
0.051646
0.013735
0.039672
0.042484
0.005229
-0.024737
-0.009341
0.014168
-0.000138
-0.002865
0.045197
-0.022792
-0.021933
-0.056049
-0.004554
0.044304
-0.029525
-0.045998
-0.036952
-0.006468
0.022193
0.013289
-0.034160
0.029834
-0.000791
-0.048542
-0.042300
-0.006677
-0.026941
0.013692
-0.011627
-0.016365
-0.003020
0.029832
-0.019717
-0.006484
-0.043245
0.029743
0.018366
-0.062154
0.010174
-0.050142
-0.011410
-0.021976
-0.043802
-0.017760
0.000560
0.014028
0.016105
0.018597
-0.008689
-0.024403
0.013397
0.047143
0.000338
-0.048033
0.005161
0.008280
0.059646
0.010714
0.064926
0.007011
0.001953
0.000309
-0.014905
-0.000804
0.012899
0.001873
-0.026034
-0.024520
0.030995
-0.024454
0.026387
-0.002541
-0.040911
0.043999
0.018155
0.020830
0.002165
-0.006408
-0.011721
0.011827
-0.004679
-0.011886
-0.010697
0.015345
0.053278
0.033908
0.021659
0.012789
0.001490
0.002011
-0.052291
0.048377
-0.017795
0.006035
0.029485
-0.034862
0.035577
0.033012
0.044358
0.025412
-0.041981
0.009346
0.030649
-0.023411
-0.018927
0.038537
0.037746
-0.012559
0.042654
-0.000570
0.039390
-0.057174
-0.007489
-0.023964
0.021833
0.003133
0.005753
0.000320
-0.017133
0.011860
-0.014881
0.036878
-0.035855
0.016220
-0.001939
0.042198
-0.017380
-0.035884
-0.046878
0.002030
0.022658
-0.017529
0.014395
0.000410
0.006734
0.047568
-0.042729
0.024196
-0.009158
-0.008150
-0.040250
0.014731
-0.047674
0.044539
-0.063077
-0.025943
0.029184
0.019431
0.038131
0.032507
-0.033961
0.001560
-0.030905
0.021871
0.036171
0.003050
0.017663
0.013575
-0.024846
0.032998
-0.026103
0.033839
-0.013894
0.033853
0.002601
-0.036923
0.023953
-0.014392
-0.032810
-0.048802
0.015381
0.009482
0.036032
-0.021165
-0.041244
-0.004419
-0.053081
0.010996
-0.056794
0.010275
0.025148
0.013113
0.032312
-0.007060
-0.028389
0.019923
0.027393
-0.039016
-0.004499
-0.007442
0.009049
-0.027841
0.042112
-0.006058
0.038655
0.015227
-0.029632
-0.024553
-0.032980
-0.004295
-0.022998
0.033342
-0.009542
-0.026641
-0.002744
-0.037462
-0.041062
0.043016
0.022577
0.001557
0.050627
0.021176
-0.029735
0.050405
-0.051149
0.030932
-0.051227
0.039794
0.010145
-0.003124
-0.031138
0.010449
0.020492
-0.025375
0.021407
0.003755
-0.017873
0.040205
0.035245
-0.024730
0.012951
-0.029114
0.051271
-0.024874
0.032803
-0.027723
-0.024457
0.001757
-0.008134
0.039601
-0.008868
-0.031939
-0.009784
-0.013663
-0.020128
-0.022917
-0.056868
-0.022564
-0.050855
-0.016394
-0.039096
0.024705
0.015366
0.021030
-0.060946
0.012958
-0.044616
0.020403
-0.008690
-0.029744
0.002089
0.045802
-0.029259
0.050073
-0.029045
0.010491
-0.006406
0.040639
-0.024543
-0.000624
-0.045067
0.043676
0.044902
-0.002975
-0.004747
0.045508
0.031358
-0.002161
-0.009245
0.033279
0.051399
0.021247
0.007721
-0.030783
-0.034685
0.037500
0.037411
-0.001766
0.036976
0.038742
0.021198
0.041413
0.052707
0.033924
-0.023121
0.010717
-0.027843
0.020979
-0.016543
-0.017148
-0.027223
0.029415
-0.010728
-0.013039
0.009403
-0.010784
-0.010937
0.059647
-0.027002
0.059875
0.028063
-0.001362
-0.005217
0.029927
0.041601
0.065028
-0.025872
-0.000719
0.007340
0.034159
-0.050950
-0.041174
-0.021047
0.022449
0.000323
0.001773
-0.025574
-0.013459
-0.009558
0.030114
-0.025833
-0.004619
-0.042701
-0.002431
-0.017089
-0.011169
0.006442
-0.023299
-0.058550
-0.006389
-0.024026
-0.025236
-0.029681
0.053246
-0.038271
0.037957
-0.034389
0.032875
-0.031292
-0.035745
-0.033441
0.012200
-0.005100
0.001323
0.039298
0.014211
0.047086
0.051996
0.053231
-0.019391
0.008028
-0.000192
0.054104
-0.050099
-0.043529
0.020847
-0.009356
0.016092
-0.033978
0.034687
-0.024650
0.042742
0.029940
0.042036
0.003107
0.013821
0.034607
-0.001375
0.018620
-0.046684
-0.035147
-0.020677
-0.030943
0.048863
0.020788
0.009673
0.024876
0.021180
-0.010182
-0.001953
0.031500
0.049431
-0.053814
-0.001452
-0.011183
0.001592
-0.039445
-0.027639
-0.034313
-0.015359
-0.013148
0.024489
-0.035661
-0.008813
-0.005616
-0.039289
-0.057996
0.018041
-0.022237
0.009483
-0.007507
0.025364
0.049723
0.010919
0.019919
-0.000621
-0.050871
0.034758
0.026334
0.004098
-0.022686
-0.015439
-0.012648
0.022752
0.063271
-0.004779
-0.047519
-0.026737
-0.022817
-0.041876
-0.016822
-0.004541
0.025081
-0.005261
0.007331
-0.047016
0.013441
0.039990
-0.028776
0.011509
-0.031728
-0.044691
0.041120
0.028627
0.027921
0.049435
0.052917
-0.043831
0.000301
0.004657
0.005348
-0.004015
0.007606
0.056833
0.020038
-0.023511
0.035414
0.044877
0.004643
0.004703
-0.016814
-0.038196
-0.049413
0.008642
0.047176
-0.015505
-0.009883
0.006157
0.000521
-0.017617
-0.088298
0.022520
-0.024816
-0.041157
0.001746
