# Shape: (3, 3, 32, 64)
-0.375504
-0.090344
-0.104271
-0.025232
0.036489
0.065465
0.075443
0.252978
-0.014772
0.019761
0.086035
0.140478
-0.005478
-0.036390
0.105267
-0.081680
0.091212
0.020937
-0.039024
0.010445
0.043465
0.114542
-0.111191
0.040169
0.176255
-0.036934
-0.068331
0.100201
-0.442711
-0.261277
0.286438
0.117177
-0.017562
0.128491
-0.012328
-0.083463
0.089870
0.017259
0.011528
-0.143498
0.055466
0.114095
-0.008347
-0.110071
-0.018499
0.097160
-0.128266
-0.080832
0.009225
0.285717
0.093461
-0.081395
0.061041
0.005073
0.036712
-0.048997
-0.026445
0.138227
0.013679
-0.022731
-0.082753
0.026725
0.061739
-0.084263
-0.092728
-0.117940
0.042846
-0.221015
-0.240834
-0.070774
-0.035862
0.009340
0.171725
0.180722
-0.119919
0.052233
0.100371
-0.199158
-0.081091
0.068063
0.066769
-0.150542
0.114784
-0.069703
-0.115524
-0.129461
0.095033
-0.084225
-0.031732
-0.115317
0.058995
-0.100067
-0.085200
-0.010062
0.154450
-0.082959
-0.186843
0.158717
-0.009024
-0.078774
0.151282
-0.090904
0.008482
0.013071
0.263614
-0.318421
0.023123
-0.012845
-0.048544
0.064305
-0.042955
-0.021843
0.110201
-0.051650
0.182760
-0.001227
-0.071122
-0.000847
-0.030993
0.068226
0.188917
-0.088109
0.128331
-0.166555
0.118517
-0.073276
0.095858
0.166259
-0.018337
-0.121108
-0.040670
-0.292349
0.010549
-0.059995
0.058958
-0.050963
0.007708
-0.130215
-0.136793
0.072659
0.010991
0.059297
-0.045917
0.046703
-0.139591
-0.160089
-0.022107
-0.270970
-0.131928
-0.022472
0.077433
0.111496
0.070357
-0.252993
0.039725
-0.021583
-0.058160
0.001064
-0.007634
-0.087947
-0.009847
0.001519
0.088745
-0.072627
-0.025766
0.098653
0.134395
-0.021217
-0.040078
0.035219
0.107841
0.024009
0.011829
-0.300692
0.050353
0.041613
-0.015294
-0.007925
-0.136420
-0.134267
-0.209410
-0.072399
-0.002622
0.036206
0.043924
-0.080978
-0.012095
-0.086249
0.198358
-0.092604
-0.117517
0.091953
0.112509
-0.142616
-0.063471
0.083203
0.103663
0.212836
-0.302844
-0.052596
-0.116936
-0.027362
-0.280430
-0.053499
-0.004997
0.009450
0.103065
-0.146260
-0.108602
-0.036124
0.128610
-0.173245
-0.059868
0.055866
-0.021837
-0.092079
0.002065
0.018616
-0.098582
0.319405
-0.093170
0.005222
0.022138
0.043433
-0.037865
0.008049
0.011544
-0.031078
0.126714
-0.136392
-0.110749
-0.027031
-0.082810
-0.061682
0.168682
0.133574
-0.022993
-0.029303
-0.300495
0.003708
0.062484
-0.190555
-0.210341
-0.065135
-0.057326
-0.391408
0.155197
-0.090550
0.008665
-0.044520
-0.066548
0.101718
0.016738
0.089197
0.042305
0.000881
-0.044007
0.048806
0.200862
0.079766
0.089404
-0.026958
0.129268
-0.037618
0.008131
-0.119753
0.065802
0.044713
-0.065730
-0.099295
0.028549
0.056102
0.028199
-0.057606
-0.033742
0.012239
-0.044740
0.089263
0.045643
0.106769
-0.044133
0.036845
0.090087
0.118960
-0.015219
0.111853
0.034711
0.026199
0.090977
0.166551
-0.015909
0.159489
-0.008133
0.087880
-0.079272
-0.253548
-0.100046
-0.053097
0.072380
-0.008684
0.017877
0.110229
-0.245472
0.172698
-0.246926
-0.014810
0.121824
0.027930
0.017146
-0.082849
0.176672
-0.183245
-0.060501
0.136492
0.214525
-0.173526
0.251020
0.106433
0.165808
0.004826
-0.095154
0.189594
-0.003504
-0.140892
0.037887
-0.274954
0.218499
-0.000160
0.031114
-0.044274
-0.005854
-0.011794
0.119192
0.091421
-0.086459
-0.053430
-0.107851
0.020640
0.161528
0.103219
-0.050775
-0.159896
0.051259
0.101018
0.011377
-0.047344
-0.168754
-0.027175
-0.048794
-0.069719
0.167548
-0.130686
0.211087
-0.141600
0.014622
-0.057956
0.177415
0.143919
0.175776
-0.106099
-0.133765
0.189220
0.083193
0.152304
0.041745
-0.270010
-0.207282
-0.024950
0.011175
-0.154829
-0.190949
-0.165435
-0.092328
-0.205957
0.029319
-0.004423
-0.109613
0.157395
-0.166951
-0.029096
-0.134172
-0.007398
0.103817
-0.099732
-0.202646
-0.109608
0.019892
-0.052227
-0.089327
-0.137976
-0.051837
-0.079866
-0.092459
-0.072708
-0.040473
0.110413
0.134044
-0.055547
0.187356
-0.174201
0.098883
0.054401
0.139158
0.045129
-0.093337
0.103202
-0.086550
0.093528
-0.173041
-0.211056
-0.069369
-0.017129
-0.170850
0.015113
-0.102978
-0.035610
0.054656
0.056169
0.146637
-0.150047
0.060277
0.054064
-0.019722
-0.077886
-0.016266
-0.020577
0.111591
-0.025758
-0.081449
-0.247916
-0.016993
0.054961
-0.119773
0.073939
-0.186893
-0.076882
-0.121105
0.027639
-0.073891
0.021249
-0.084152
-0.004921
0.050406
-0.108462
0.161030
-0.063148
-0.046597
0.101271
0.012342
0.007259
0.077408
0.118244
0.137187
-0.022335
-0.012702
0.074887
0.100441
-0.053442
-0.245527
-0.002258
-0.307977
0.036180
-0.125604
0.019459
0.132177
-0.157715
-0.058202
0.090447
-0.070000
0.137710
-0.098980
0.061992
-0.113320
0.073073
0.140493
0.088368
-0.037878
0.224930
-0.135141
0.056547
0.018365
0.085514
-0.071650
-0.009400
0.191948
0.026721
-0.096007
0.023574
-0.140699
0.216023
-0.018008
-0.014907
-0.133713
-0.046708
-0.123457
0.133586
-0.125553
0.138943
0.019432
0.061173
-0.000850
-0.051142
0.151056
0.039394
0.071726
0.004867
-0.153760
-0.246055
0.129682
0.161238
0.022379
0.070971
-0.009470
-0.057357
0.078459
0.150995
0.090248
0.156760
0.051948
0.033062
0.156615
0.082002
-0.009441
-0.069221
-0.057437
-0.137310
0.055787
0.008707
0.010739
-0.127159
-0.115162
0.122680
-0.024198
0.180190
0.105799
0.008814
-0.162118
0.090035
0.039009
0.125108
-0.188131
-0.025194
0.061112
0.126515
0.005899
0.149916
-0.064924
0.144205
0.036133
0.135451
0.073987
-0.197494
0.062479
0.050816
0.035919
0.034926
-0.194023
0.189801
-0.222308
-0.089976
-0.136108
-0.162405
-0.012282
-0.030752
0.049610
-0.015188
0.068567
0.113027
0.162227
-0.216263
-0.069744
-0.085717
0.050285
0.011891
0.025033
-0.111017
0.038211
0.020962
0.107582
-0.007528
-0.023199
0.094524
0.090926
0.070623
-0.037242
0.016040
0.059509
-0.064183
-0.096600
-0.180693
-0.028872
0.019192
0.138342
0.063998
0.130910
0.151639
0.023491
-0.066131
-0.259593
0.111355
-0.204128
-0.116360
-0.041156
0.014597
-0.138135
0.123129
-0.168831
0.238276
0.188995
-0.065357
0.287254
0.120644
0.079493
0.003305
-0.226172
-0.084873
0.273357
0.039124
-0.035429
-0.025835
0.041419
0.081860
-0.070216
-0.027017
-0.229238
0.004292
0.104841
0.171617
-0.115564
-0.143188
0.049409
0.072161
-0.024621
-0.031946
0.072670
-0.073923
0.023052
0.007666
-0.096058
-0.042798
-0.083495
0.030418
-0.025971
-0.112578
0.032597
-0.034962
0.093155
-0.020227
0.085779
-0.144128
-0.073225
-0.077268
0.098391
0.014751
-0.067190
0.005866
-0.009469
-0.085284
-0.021778
-0.003658
0.205450
0.121269
-0.036743
0.156854
-0.058737
-0.110852
0.347704
-0.196560
-0.020053
-0.236625
0.049572
-0.087311
-0.056474
0.050357
0.105394
-0.266656
-0.034806
0.060892
-0.256575
-0.015744
0.139428
-0.034919
-0.055737
0.026935
-0.041171
0.004241
0.035650
-0.081242
-0.144683
-0.086372
0.040927
0.208851
-0.066827
-0.043324
-0.109347
0.115972
-0.017506
-0.075346
0.003334
-0.297498
-0.263624
-0.045011
-0.111690
0.160822
-0.064957
0.160339
-0.128322
0.062984
0.160061
0.154386
0.104135
0.008527
-0.033981
-0.081500
-0.053287
0.030697
0.058989
-0.092396
0.006078
0.116645
0.015695
0.075541
0.068846
-0.047243
0.021410
-0.027961
0.105312
0.048181
0.176379
-0.009067
-0.049747
0.184945
-0.153147
0.055573
0.134981
-0.221141
0.009596
-0.099158
-0.137791
0.070360
-0.015412
0.114397
0.043098
-0.037265
-0.037902
0.034833
0.107409
0.131451
0.016805
-0.314139
-0.170419
0.064081
0.082285
-0.098445
0.012866
0.004981
-0.030483
-0.043211
0.044834
-0.050937
0.152566
0.196412
-0.218559
-0.041238
0.071495
0.086971
-0.048834
0.043955
-0.326700
-0.178590
0.017999
-0.056285
0.275219
0.010043
-0.183195
0.003092
0.268806
-0.045011
-0.117012
0.248052
0.100067
0.180592
0.053245
-0.117666
0.237071
0.082532
-0.037292
0.129816
-0.208600
-0.029898
-0.016900
-0.077508
0.084395
-0.063862
-0.115250
0.022259
-0.166237
0.205769
0.059985
0.005139
-0.095888
0.230686
0.039860
-0.034180
0.035100
0.018973
0.013253
0.048703
0.056237
0.010456
0.131992
0.003313
-0.047191
0.055545
-0.115264
-0.220423
0.099433
0.141805
-0.258830
0.020537
-0.051625
-0.149623
0.068048
0.040306
-0.026044
-0.070664
0.034121
0.043375
0.052424
0.076280
0.145484
0.084581
-0.054697
-0.028525
-0.113526
-0.079617
0.061723
-0.033154
0.104081
0.113330
0.143649
-0.002728
-0.085070
-0.076190
0.042789
-0.270947
0.063183
0.095989
0.001328
-0.178654
-0.038112
0.022489
0.074152
0.008377
-0.121108
-0.017317
-0.133045
-0.059469
0.118357
0.073695
-0.055029
-0.061923
0.043961
-0.054732
0.023926
0.161199
-0.011721
0.118971
-0.030561
0.087717
-0.335337
-0.363533
-0.152169
-0.161922
0.038462
0.112864
0.031101
0.007455
0.095842
0.159721
-0.215462
-0.151648
-0.040084
-0.168311
0.057342
0.044508
-0.247752
-0.006559
0.099366
-0.007924
0.174217
-0.224678
-0.060184
0.099923
-0.157127
0.006124
-0.053184
-0.192977
0.062665
-0.098243
-0.159609
-0.071677
-0.109266
0.007708
-0.004032
0.117168
-0.149703
-0.172862
0.004039
-0.109563
-0.211668
-0.050680
-0.208155
0.016556
-0.084297
0.213182
-0.073290
0.039824
0.058527
-0.343784
-0.244380
-0.048265
-0.077059
-0.205684
0.069617
-0.004590
-0.000052
0.233819
0.069780
0.125312
0.073479
0.025621
-0.106692
-0.040304
-0.217477
-0.063025
-0.006572
0.077423
-0.018250
-0.000050
-0.206463
-0.213583
0.002765
-0.173374
-0.140680
-0.052001
-0.040737
-0.061808
-0.031744
0.034502
-0.164289
0.407625
0.008751
-0.004826
0.090789
-0.132444
0.154084
-0.073402
-0.024801
0.272412
-0.033162
0.029032
-0.107913
0.057389
-0.159068
-0.082047
-0.154443
-0.248353
-0.195735
-0.127869
-0.092257
0.073370
0.003456
0.033972
0.153386
0.058475
0.058205
0.190778
-0.007469
-0.185405
0.093698
0.019361
0.041003
0.043139
0.037186
-0.309990
-0.087342
0.018841
-0.129749
-0.111687
0.036350
-0.244132
-0.199138
0.015399
0.074995
0.000468
0.113485
0.093692
-0.100892
0.092294
0.035559
-0.090273
0.018650
0.056048
-0.170300
-0.134664
-0.311576
0.011295
-0.042450
-0.056284
-0.066271
0.050430
-0.249570
-0.047286
0.020803
0.006448
-0.025066
-0.104700
0.136143
-0.000402
0.224944
-0.045021
0.013494
0.114810
-0.022493
0.049039
-0.038943
0.013884
0.087863
-0.080194
0.087736
0.149188
0.071037
0.148084
-0.047010
-0.066174
-0.221515
-0.059014
-0.035954
0.097202
0.080998
-0.200022
-0.055186
0.000577
0.112570
0.106799
-0.128545
-0.078845
-0.384302
-0.026117
0.202824
0.048197
-0.064762
0.141214
0.107780
0.156876
0.095766
0.029662
0.098465
0.017201
-0.099038
-0.037278
-0.020427
-0.207727
-0.107400
0.173090
-0.098643
0.071738
-0.135069
0.046616
0.042979
0.017186
-0.012035
-0.066759
0.109677
-0.074067
0.122670
0.172207
-0.093169
0.096583
0.035585
0.128462
-0.062734
-0.224484
0.026203
0.059064
0.040574
0.148450
-0.085778
-0.017292
-0.081897
0.057011
-0.037578
-0.096411
-0.064269
0.244579
-0.391176
-0.157886
-0.135245
0.011491
-0.072921
-0.004001
-0.076633
-0.116793
0.042795
-0.155096
-0.121534
0.152545
0.000390
-0.016480
0.007461
0.110308
-0.013120
0.139748
0.266477
0.239038
0.012723
-0.319650
0.021524
0.108977
0.025523
-0.047768
-0.084620
-0.039704
0.009473
-0.020693
-0.036645
-0.162321
0.078308
-0.074002
0.190380
-0.067314
0.125020
-0.002727
-0.023387
0.215416
0.077328
-0.372301
-0.159751
0.076946
-0.019799
-0.183325
-0.123338
-0.088028
0.173383
-0.126792
-0.025013
-0.167117
0.231618
-0.030173
0.184649
-0.046068
-0.144121
-0.017568
0.125204
0.012817
0.042465
0.003923
-0.003338
-0.055979
-0.012683
0.048067
0.154536
-0.056360
-0.074841
-0.221990
-0.084933
0.086627
-0.030971
0.144564
-0.029724
0.234985
-0.003456
-0.019552
-0.074485
0.050061
-0.070028
-0.058059
-0.044024
-0.281740
-0.223925
0.208494
-0.067686
-0.020685
0.011959
0.039569
-0.072073
0.136295
0.076106
0.140513
-0.193969
-0.060059
-0.014159
-0.026364
-0.028042
0.052755
-0.228577
-0.152132
0.009830
-0.121926
-0.194616
-0.118324
-0.031176
0.003141
-0.121264
0.028337
-0.199351
0.424916
0.122171
0.135301
-0.104142
-0.107329
-0.071668
-0.135118
-0.100433
0.190233
-0.123837
-0.128256
0.103827
0.077000
0.302033
-0.060728
0.084820
0.284603
-0.016339
0.089160
-0.059226
0.098937
-0.185608
-0.063176
-0.109893
0.213409
0.046402
-0.019643
-0.120617
0.222388
-0.057914
0.105201
-0.176468
-0.051543
-0.066106
0.038242
0.035598
-0.087681
-0.000055
0.296522
-0.018239
0.104111
0.048394
0.118923
0.107614
0.148340
0.007002
0.097941
-0.084374
-0.109971
-0.069235
0.055415
-0.095829
-0.113253
-0.271331
0.175370
0.089650
0.034906
-0.156760
0.038868
-0.085452
-0.077152
-0.072810
0.058323
-0.018790
0.105944
0.051335
-0.082742
-0.150645
-0.081908
0.225005
0.097313
0.017668
-0.000353
0.076471
0.056389
-0.018289
-0.170692
0.032302
-0.046597
0.143888
-0.178824
0.053141
-0.222581
-0.025264
0.083064
-0.004568
0.014826
-0.000931
-0.096319
-0.025425
-0.110529
0.028575
-0.063214
0.003500
0.090145
0.132246
0.194999
-0.022472
-0.062525
-0.009285
0.262341
-0.117581
0.024420
0.006008
-0.138223
-0.143832
0.134145
-0.140998
0.051124
0.090111
0.054344
0.006826
-0.163873
-0.052401
-0.125442
0.101794
0.130164
-0.025149
0.130822
-0.190383
0.079693
0.155948
-0.044588
0.005147
-0.147863
-0.138911
-0.146347
-0.077293
-0.133698
-0.314980
0.108048
-0.164752
0.118275
0.043742
0.063753
-0.020450
0.081606
-0.076843
0.037058
0.038440
0.020469
0.040946
-0.151880
-0.054254
-0.010093
-0.222641
0.016684
-0.161366
-0.062675
0.155644
0.122650
0.010708
0.171944
-0.262158
0.259445
0.097015
0.029176
-0.101363
0.017108
0.007388
0.077661
0.086259
-0.263248
-0.003003
-0.058575
0.275177
-0.126804
0.060102
-0.021319
-0.028363
0.106569
-0.151417
-0.038125
0.181544
0.076742
-0.024511
-0.056243
-0.127062
-0.034944
0.068013
-0.030021
-0.008221
-0.265981
-0.006527
0.050943
-0.050803
-0.008480
-0.109774
-0.130550
0.030220
-0.034629
-0.108350
0.037643
-0.081343
0.032769
0.056174
-0.168511
-0.029568
-0.173878
0.187146
0.010203
-0.118021
-0.007286
0.054844
0.091088
-0.155151
-0.025882
0.073958
0.216596
-0.173779
-0.057193
-0.053322
0.102888
-0.054483
-0.312759
0.041937
0.007397
0.091876
0.109396
-0.009160
0.227977
-0.054709
-0.041588
-0.018689
-0.135165
-0.222067
-0.339150
0.242224
-0.050673
-0.009309
0.141870
-0.139557
0.093916
0.077831
0.175363
0.216410
0.063411
-0.058446
-0.022455
-0.199500
-0.293415
-0.174342
-0.089038
-0.026317
0.042769
0.014300
-0.087212
0.063005
0.091277
-0.226173
-0.182606
0.043341
-0.199667
-0.129726
0.107042
0.082787
0.220213
0.163649
0.049596
-0.037902
-0.165558
0.225042
0.001221
-0.042112
0.137979
-0.086531
0.130670
0.050473
0.038039
0.139241
0.008538
0.097520
-0.126510
-0.010290
-0.279840
-0.128575
-0.028599
0.052664
-0.037143
-0.034933
-0.030616
0.026777
-0.128375
0.107678
0.077781
0.045123
-0.010788
0.156886
0.085465
0.106801
-0.031431
0.026273
0.038107
0.036014
0.090200
-0.018032
-0.233672
-0.031927
0.004988
-0.287914
0.235542
-0.044918
0.004284
0.012194
-0.178705
-0.145575
0.068930
-0.014486
0.067296
0.059683
-0.096559
-0.437127
0.021688
0.132568
-0.139800
-0.021694
0.040937
-0.047222
-0.235938
0.141819
-0.073581
-0.074500
0.186420
-0.051834
-0.030321
0.117121
0.085594
-0.085892
-0.015457
-0.043169
0.218404
0.072670
0.001552
0.069328
-0.061152
-0.069114
-0.190282
-0.043926
-0.200552
0.087125
-0.073696
-0.037611
0.140362
0.081514
0.102043
0.177774
0.065770
0.245147
0.005018
-0.101485
-0.104088
0.105581
0.082353
0.207583
-0.115766
-0.226816
0.115124
-0.342869
-0.118427
0.033862
-0.105129
-0.049246
-0.040731
-0.053554
-0.048040
0.157861
0.178727
-0.053858
-0.080891
-0.097382
-0.133953
0.176246
0.221832
0.030063
-0.022382
-0.164663
-0.088216
0.050092
-0.083119
-0.072025
-0.037384
-0.060464
-0.259350
0.069571
-0.014313
0.168645
0.123271
-0.169335
-0.029978
-0.081240
0.051248
0.031021
0.014406
-0.013305
0.043091
0.015765
-0.172961
0.031409
0.154544
0.122419
0.088001
-0.088269
0.025933
-0.163309
0.079026
0.162633
0.064770
0.206894
0.095508
0.012609
-0.126247
-0.040957
-0.171658
0.008491
-0.187320
-0.052281
-0.072431
0.089479
-0.122460
0.213793
0.118985
0.089841
0.028975
-0.039231
0.007748
0.181563
-0.153755
0.112679
0.262843
0.111108
0.195214
0.197157
0.021522
0.048291
-0.195576
0.015294
-0.069191
0.013588
0.006612
0.150175
0.172052
0.046195
-0.293481
0.042932
0.027385
-0.109527
0.173717
-0.012188
0.069585
0.021024
-0.038382
-0.150528
-0.083083
0.273864
-0.058862
-0.118875
-0.003002
0.104830
0.105743
-0.226661
0.005333
-0.235277
0.132330
0.025773
-0.300461
0.014818
0.002347
-0.005837
-0.122397
0.016381
-0.288706
-0.107700
0.083553
0.193994
-0.206172
0.145366
-0.184245
0.269231
-0.103323
0.004857
0.103860
-0.098396
0.059438
-0.041242
0.209015
-0.037560
-0.141046
-0.002883
0.099918
0.030317
-0.298357
0.119869
-0.152514
-0.134585
0.031711
-0.178437
0.047307
0.057982
-0.168536
0.008248
-0.229852
-0.002997
-0.057683
-0.057013
0.196047
-0.260034
-0.156300
0.114266
0.173196
-0.110670
0.008753
-0.011547
0.055865
0.025313
-0.206778
-0.088416
0.024970
0.140332
0.018738
-0.038989
-0.127034
0.146495
0.059056
-0.019526
-0.138407
-0.191533
0.011810
0.127073
-0.234356
0.017329
-0.030391
-0.140001
-0.117252
0.050695
0.195282
0.037862
0.051625
0.087428
0.159388
0.155482
0.047193
0.041492
-0.070831
0.149871
0.101600
-0.064446
-0.004133
-0.174091
0.166236
0.075206
-0.070694
-0.055688
-0.203612
0.066708
0.042366
-0.216789
-0.062033
-0.047453
0.126237
0.080600
-0.013594
-0.056161
-0.224952
0.093033
0.252735
-0.011941
-0.001773
0.085559
0.064332
0.141153
0.042036
-0.004980
0.010660
-0.131954
-0.147187
-0.094876
-0.083385
-0.055237
0.315269
-0.164647
0.137980
0.200777
-0.113678
-0.189510
-0.032527
0.133276
0.178865
0.070676
0.087364
-0.177476
-0.004336
-0.152827
0.044208
-0.015688
0.100972
-0.085629
0.015952
-0.090523
0.010184
-0.150659
-0.002794
0.065273
-0.171087
-0.029596
0.026334
0.146735
0.040265
-0.180167
-0.017477
0.079438
-0.216064
0.070632
-0.188586
0.058859
-0.296406
0.141105
0.112093
-0.028303
-0.114721
-0.037068
0.218667
0.136355
0.114761
-0.014626
-0.119436
0.068195
-0.201040
0.048199
-0.023255
0.130456
-0.068147
-0.070722
-0.025573
-0.082835
-0.019798
0.040506
0.047598
0.053032
-0.000100
0.093893
0.024156
-0.009513
-0.300330
-0.138656
0.027176
0.006067
-0.074653
0.019085
-0.059629
0.043181
-0.144345
0.077124
0.043612
-0.052055
-0.094483
0.100920
-0.061410
0.098197
-0.124912
0.058877
-0.055448
0.069868
-0.202273
-0.138268
-0.022967
-0.102940
-0.117542
0.008183
0.080217
-0.176158
0.061238
-0.008017
0.162656
-0.070042
0.002758
0.062842
-0.082857
0.165382
0.190990
0.160303
0.168538
0.002463
0.174288
-0.066694
0.093054
-0.003797
0.178420
-0.136690
-0.390670
0.009337
-0.026107
-0.007354
0.056196
0.007661
-0.039963
-0.310880
-0.042538
0.016682
0.118779
-0.047407
-0.103358
0.024262
-0.044404
0.050757
-0.085959
-0.178375
0.031067
0.005511
-0.175736
0.058256
0.077530
0.148719
0.102499
-0.054383
-0.032731
0.104467
-0.049307
0.111305
0.080765
-0.017951
-0.108151
0.094677
-0.042017
-0.107414
0.036745
0.001199
0.060389
0.082186
-0.079794
0.145607
-0.077624
0.022475
-0.151280
-0.068186
-0.187320
0.052268
-0.139215
-0.124247
-0.125089
-0.014572
-0.166026
0.028360
-0.015204
-0.025802
0.043000
-0.169937
0.035008
0.165819
-0.151963
0.153517
-0.054555
0.100906
-0.116608
0.034738
-0.034230
0.086161
-0.088421
-0.262823
-0.094347
0.112430
0.074273
-0.091414
0.149238
-0.018885
-0.199622
-0.240094
0.086530
-0.121404
0.090028
-0.216240
-0.032858
0.149005
0.004571
0.050123
0.096839
-0.073688
0.142571
0.023590
-0.011495
0.213540
-0.115796
-0.082998
0.008437
-0.050924
-0.219333
0.090772
-0.139573
0.002675
0.013922
0.242336
0.062171
0.085354
0.044498
-0.248995
0.182903
0.058240
-0.082444
-0.077339
-0.239458
0.127602
0.237419
0.100080
-0.029351
-0.027325
0.027613
0.232970
0.097781
-0.008437
0.224938
-0.104780
-0.161958
-0.127127
0.061189
-0.048578
-0.036046
-0.043849
-0.025766
-0.085288
-0.036721
0.114515
0.068986
0.058220
-0.043644
-0.085606
-0.058844
-0.028426
-0.171886
-0.093685
0.083897
-0.168419
-0.048120
0.015651
0.012942
-0.307557
0.257628
0.198590
-0.169127
0.053846
0.026052
-0.007938
-0.045015
0.001518
0.080195
-0.045730
0.092209
0.004031
-0.155264
0.068731
0.091902
-0.114835
-0.021860
-0.035820
0.041807
0.065093
0.252935
-0.014174
-0.013605
0.017920
-0.117078
-0.173856
0.058935
0.117912
0.125980
0.005835
0.095660
-0.033560
-0.120859
-0.142919
0.092908
-0.082100
-0.129266
0.181006
-0.025972
0.046577
0.211303
0.066314
-0.019577
-0.075420
0.031509
-0.071023
-0.014604
0.127317
0.083848
0.044795
-0.024249
0.123289
0.131745
0.064802
-0.004841
0.062455
0.276432
0.082379
-0.068864
0.163393
0.025103
0.096663
-0.173261
-0.046571
0.232415
0.046099
-0.005290
-0.074321
0.090905
0.172360
-0.019818
-0.083541
0.108467
0.018321
-0.172636
-0.174339
-0.081162
0.168408
-0.117064
0.008102
-0.042403
0.027768
-0.090325
-0.078942
-0.072691
-0.002672
0.021269
0.106316
0.065508
0.268291
-0.149365
0.025372
-0.190695
0.141606
-0.141496
0.089317
-0.182346
0.128421
0.018017
0.032472
-0.157036
-0.007772
-0.173257
-0.115167
0.066636
-0.067409
-0.263205
-0.085559
0.013467
-0.035150
0.114324
0.114884
-0.065179
-0.028771
0.041919
-0.005795
-0.017949
0.018779
-0.054692
0.146436
-0.088478
0.276746
0.023560
0.008171
-0.078976
0.039403
-0.028645
0.170149
0.014598
0.084162
-0.127049
-0.002133
-0.078857
0.111541
0.193562
-0.237768
-0.263466
-0.075863
-0.106768
0.215530
-0.095984
-0.152437
0.142720
-0.193254
0.286799
-0.164220
0.042659
0.029224
0.097696
0.022292
-0.261256
-0.050895
0.139405
-0.006606
-0.151300
-0.086350
0.013506
0.078635
0.104033
-0.083089
-0.236750
0.217891
-0.137187
0.114867
0.196856
-0.104796
-0.042711
-0.423802
0.149996
0.248900
0.090863
-0.024867
0.035653
0.000331
-0.066370
-0.289876
-0.039696
0.005476
0.013070
-0.136036
-0.125018
-0.050189
-0.033243
-0.068381
-0.100675
0.100760
-0.071819
-0.250849
0.205217
-0.068678
0.084965
-0.117328
0.058855
0.009682
-0.172252
0.038186
0.041168
0.100635
0.009501
0.179254
-0.196032
-0.033109
-0.206014
0.050915
0.112631
-0.397577
-0.022139
-0.076151
-0.050702
-0.211987
-0.112422
-0.010760
-0.079277
0.137062
-0.157667
-0.125951
-0.073721
0.082620
0.116783
-0.150554
-0.113201
-0.110179
0.000745
-0.170710
0.100164
0.015417
0.291835
0.125429
0.079601
-0.074503
0.006974
-0.144946
0.111073
0.137514
-0.104686
-0.056852
-0.309150
0.042451
-0.013546
-0.163298
-0.010345
0.199815
0.119503
0.076507
0.060974
-0.037931
0.053477
0.047232
-0.263295
0.017311
-0.275731
-0.040678
-0.111452
-0.142457
0.089035
-0.091777
0.079220
0.107866
0.122060
0.009483
0.062476
0.076367
-0.000732
0.038825
0.191051
0.204445
0.156808
0.194200
-0.068967
0.061688
-0.156238
-0.089851
-0.521872
-0.173424
0.174311
-0.054869
-0.245720
-0.058634
0.003128
-0.147141
-0.035008
-0.117266
0.088466
0.114726
-0.007549
-0.016197
0.064325
-0.191574
-0.145480
-0.092741
0.102978
-0.009068
-0.026197
-0.068705
0.118474
-0.162117
0.054266
-0.146782
-0.101754
0.001633
-0.010975
-0.029624
-0.178367
0.059050
-0.113903
0.085723
0.253913
-0.090310
0.019237
-0.168742
0.187840
-0.048750
-0.044701
-0.027724
-0.022531
0.051200
-0.222581
0.171766
-0.053124
-0.018800
0.119345
0.179667
0.001947
0.242228
0.125005
0.085936
-0.087768
-0.056509
0.141160
-0.283584
-0.249838
0.079788
-0.366110
0.052624
-0.088620
-0.003591
-0.024477
-0.031385
-0.102974
0.032987
0.043490
0.059924
0.021069
-0.041684
-0.004099
0.187179
0.048515
-0.053528
-0.178594
-0.138246
0.109512
0.018865
-0.080840
-0.029813
-0.032185
0.001730
0.069030
0.024222
0.004553
-0.033643
-0.197242
0.160161
0.002076
0.081805
-0.162285
0.048107
-0.144988
-0.100744
-0.028090
0.122931
-0.034608
-0.004815
-0.176424
-0.091175
0.219962
-0.059797
-0.166079
0.008682
-0.098487
-0.161739
0.182471
-0.017920
0.179682
-0.023601
0.207213
-0.128862
-0.084142
-0.094611
-0.039666
0.039701
-0.124790
-0.198788
-0.186517
0.025854
0.021131
0.180261
0.003715
0.060719
0.113656
-0.046801
0.147871
0.065384
0.071592
0.228954
0.078660
0.050395
-0.131081
-0.143947
-0.035448
0.073111
0.178820
-0.116464
0.205756
0.006290
0.297055
-0.130192
-0.032787
0.097873
-0.068082
0.007034
0.062057
-0.264064
-0.137041
-0.074500
0.042334
0.024700
0.136749
0.050546
0.070145
-0.052883
-0.188773
-0.077377
-0.071099
0.044984
-0.112090
-0.160569
-0.139136
-0.121906
0.113319
0.066778
0.105744
0.004843
-0.057641
-0.229550
0.150926
0.063843
-0.066911
-0.050060
0.198268
0.170604
-0.300116
0.092849
-0.078985
0.099900
-0.001499
0.041126
0.042334
0.037844
0.074769
0.190622
-0.144125
-0.192081
0.012861
0.148063
-0.212804
-0.134484
-0.095706
-0.133931
-0.029892
-0.054944
-0.092392
-0.188120
-0.090821
-0.140655
-0.126068
0.068091
0.074745
-0.009647
-0.048980
-0.191367
0.076835
0.064369
0.167279
0.183268
0.194729
-0.167681
-0.067049
0.023125
0.046897
-0.027926
0.051684
0.077114
-0.017845
-0.176341
0.128294
-0.055955
0.126874
0.045714
0.059540
-0.177396
-0.119282
-0.112247
0.067782
-0.045915
0.115081
-0.105213
0.103229
0.085120
-0.014280
0.231637
0.071948
-0.015351
0.115171
-0.106924
-0.217718
0.027836
0.105018
0.050283
0.107707
0.125016
-0.043191
0.019193
-0.084197
0.074726
0.036866
-0.029325
-0.055927
0.088835
0.015633
-0.089295
-0.267316
0.060853
-0.177818
0.054358
-0.054949
-0.079624
0.009476
-0.241283
0.001847
0.184477
0.121337
0.033098
0.078270
-0.204960
-0.046088
-0.103334
0.132710
-0.052978
0.102483
0.002797
0.182832
0.003281
0.055326
-0.204941
0.112031
0.077570
-0.050173
-0.084972
0.008960
-0.140907
-0.076932
-0.020689
0.178208
-0.103736
0.130665
0.010722
-0.022354
-0.024695
-0.156891
-0.046051
0.010448
0.044548
-0.073081
-0.023023
0.014874
0.138051
0.087338
-0.167150
-0.101472
-0.103565
0.061749
0.045967
-0.031294
0.039582
0.011625
0.080717
-0.027438
-0.132508
0.176865
-0.033489
0.012980
0.104811
-0.140444
-0.068485
-0.006045
-0.059665
-0.210876
-0.029750
-0.116691
0.092069
0.032656
-0.121006
0.243446
-0.049144
0.039109
-0.426047
-0.069623
-0.280605
-0.180035
-0.160118
0.079918
0.116820
-0.027283
-0.210809
-0.021733
0.063518
-0.153706
-0.035185
0.165498
0.226088
0.026082
-0.086912
-0.096297
0.238819
-0.076896
0.000762
-0.004138
-0.053302
0.082050
-0.064283
-0.006735
-0.096329
0.047309
0.210969
0.080485
0.037074
-0.098850
-0.012194
-0.202771
-0.166015
0.043534
-0.069305
0.010469
0.011524
-0.113217
-0.035133
0.080935
-0.084991
0.180447
-0.047621
-0.096660
-0.020208
-0.084037
-0.069935
-0.036950
0.140368
0.133613
0.067750
0.008509
0.030918
-0.056084
-0.130807
0.077869
-0.096383
-0.048488
-0.073935
-0.035162
0.210600
-0.112848
-0.008430
-0.055310
0.011207
-0.084998
0.269242
-0.161615
0.082656
-0.244188
0.002508
0.060022
-0.044772
-0.038806
0.029510
-0.298491
0.391838
0.025584
-0.111535
0.089683
0.124459
-0.020407
-0.088528
0.014692
-0.046646
-0.031260
0.089936
-0.044808
-0.190733
-0.158880
-0.034903
0.234151
-0.059725
0.012305
-0.037917
0.028898
-0.050451
-0.156022
-0.058527
-0.288573
-0.223216
-0.025647
0.022292
0.147373
0.058495
-0.022487
-0.256481
-0.326247
0.153601
-0.247001
0.061250
-0.180726
0.029579
-0.148837
-0.192933
0.145186
-0.142601
0.163690
0.083556
-0.100657
0.018360
-0.005568
0.230106
-0.034778
-0.087799
-0.069262
0.056764
0.147037
0.045230
-0.032214
-0.128904
0.066297
0.051544
0.067816
0.057589
-0.139339
0.066969
-0.080852
-0.052829
0.155077
0.019429
-0.166088
0.018838
0.031393
-0.076249
0.069921
0.236080
0.050306
0.033239
-0.179960
-0.284032
0.044717
0.023995
-0.143365
-0.068671
0.003856
-0.255904
0.021485
0.019349
0.021757
-0.057349
0.231200
-0.080157
-0.043418
0.001120
0.216708
0.054948
0.005522
-0.208576
-0.222216
-0.061294
0.086694
0.166741
-0.211049
-0.087371
-0.027344
0.055027
0.114024
-0.025700
-0.006130
-0.033503
0.316324
0.015472
0.078178
0.017074
0.165881
-0.004096
0.097313
-0.019478
0.020125
0.124569
-0.116056
0.131243
-0.076996
-0.231169
-0.065473
-0.075740
-0.021963
0.008475
-0.133088
-0.051777
0.167645
0.166402
-0.050483
-0.031358
0.004019
0.054089
0.102851
0.057456
0.203219
0.148570
0.062099
-0.026356
0.063507
-0.015075
-0.244173
0.056263
0.244467
-0.161127
-0.309299
-0.056830
-0.035864
-0.089865
0.119527
-0.091789
0.041883
-0.066811
-0.175703
-0.106849
0.140847
0.062924
0.072099
-0.250914
-0.047796
-0.114201
0.116711
0.149185
-0.147014
0.181207
0.007804
0.041622
0.070305
-0.036706
-0.105257
0.087775
-0.061615
-0.029458
0.123299
-0.093454
-0.142364
-0.018232
-0.170531
0.073225
-0.080502
-0.145188
0.085052
-0.253414
0.046620
0.176351
-0.088349
0.109033
-0.022058
-0.047243
-0.056410
-0.009782
-0.049845
-0.102984
-0.081324
-0.061876
0.201316
-0.437778
-0.179973
-0.136691
-0.058178
0.006865
0.193601
-0.035651
0.030503
0.107655
0.024530
-0.262825
-0.039972
-0.113896
-0.068650
-0.042420
0.063438
-0.117187
-0.052186
0.030110
0.058161
0.153553
-0.312777
-0.197583
-0.018164
-0.094055
-0.062562
-0.210486
-0.166034
0.019570
0.118647
-0.076235
-0.106361
0.032600
0.049379
-0.329704
-0.085164
-0.130742
-0.240611
0.018784
0.034299
-0.053681
-0.216409
-0.214046
0.052068
-0.059351
0.173221
-0.113037
-0.058226
0.016363
-0.181099
-0.492453
-0.245619
0.024334
-0.046410
0.160437
-0.077175
-0.586584
-0.027580
0.100746
0.016468
-0.118470
0.056947
-0.102329
-0.027808
-0.254986
-0.016712
-0.077252
-0.117343
0.062551
0.033769
-0.091973
-0.010434
-0.068642
-0.168291
0.003222
0.001065
-0.003247
0.010648
-0.011789
-0.071998
0.038286
-0.005671
0.089157
-0.052895
0.016197
-0.244817
0.161136
-0.104633
-0.052780
0.265867
-0.029798
-0.127994
-0.032864
-0.177911
0.109250
-0.079287
-0.131599
-0.023518
-0.082819
0.069050
-0.190008
0.069425
-0.074466
0.028261
0.166753
0.020687
0.034006
0.097076
0.084291
0.045393
0.015015
0.375263
0.144543
0.091455
-0.077083
-0.194072
-0.070803
-0.078677
-0.129942
-0.087414
-0.058761
-0.219637
-0.166864
0.132104
0.119664
-0.008314
0.068932
-0.123737
0.015447
-0.021172
-0.112140
-0.134312
0.089064
0.013421
-0.147906
-0.133647
-0.314768
0.054411
0.045867
-0.053952
0.023074
-0.070222
-0.302776
0.175529
-0.102782
-0.027608
-0.018079
0.129696
0.059448
-0.261909
0.159753
0.029595
-0.008583
-0.009408
-0.076962
0.163964
0.100224
-0.009730
0.062924
-0.029726
-0.047629
0.170113
-0.064153
-0.054818
0.014102
0.072305
-0.071405
0.132360
-0.090929
-0.001814
0.049467
-0.366952
-0.217722
-0.162932
0.068148
-0.012914
-0.041805
-0.027013
-0.505096
-0.143436
-0.025979
-0.023408
0.237958
0.257207
-0.289685
0.063747
0.220427
-0.042213
-0.169485
0.133586
0.030699
-0.048266
0.011087
-0.148028
-0.038456
0.087421
-0.068612
0.085692
-0.078276
-0.020235
0.165545
0.149127
0.063150
-0.108427
0.119979
0.021106
0.145436
-0.077356
0.214443
-0.153506
0.015328
0.250863
-0.075981
-0.298433
0.003604
0.017557
-0.048691
0.277175
-0.232346
-0.140227
-0.073878
0.120913
0.001983
-0.202023
-0.273087
-0.014278
-0.373522
-0.137382
-0.008146
-0.159677
0.047649
-0.053823
0.010813
-0.029269
-0.052641
-0.221878
-0.148290
0.134319
-0.189169
-0.153052
0.090998
0.168209
-0.064074
0.031103
0.122983
0.133240
0.131553
-0.365503
0.055577
0.115832
-0.022195
0.026187
0.101452
-0.036885
-0.029841
-0.020162
-0.101410
-0.216395
-0.063351
-0.252816
0.119396
0.034879
0.115183
0.033275
-0.102580
0.114132
0.064310
-0.473439
-0.065234
0.048354
0.143397
-0.069771
0.013178
0.001375
0.061495
-0.040120
-0.060561
0.145103
0.081291
0.186744
0.084762
-0.179598
0.002965
-0.047648
0.184582
0.142877
-0.040500
0.021317
-0.073478
0.011870
-0.124754
0.034105
0.150408
-0.099412
0.039094
-0.198914
-0.065935
0.053110
-0.049569
0.092026
-0.056637
0.142870
0.007779
-0.006229
-0.020428
0.085645
-0.079909
0.164427
-0.195833
-0.103501
-0.135755
0.075199
-0.102421
0.076553
0.096543
0.072007
-0.083457
0.170817
0.161865
0.111122
-0.196499
0.080215
-0.115970
0.024428
-0.019839
0.181103
-0.118330
0.038778
-0.017429
-0.001308
-0.095018
-0.263753
0.071352
-0.033819
-0.043686
0.038833
-0.101635
0.230776
0.113441
0.084297
0.007100
-0.252974
-0.092504
-0.106433
-0.094354
0.087321
-0.151838
-0.107830
0.088170
0.199269
0.149202
-0.011832
0.054559
0.277139
-0.146336
-0.058702
-0.000938
0.124421
-0.033780
0.060927
-0.097797
0.143304
0.016211
0.000551
-0.124719
0.078751
0.016742
0.156507
-0.067361
-0.056714
-0.151278
0.021776
-0.052341
-0.011799
0.200855
0.049884
-0.332856
-0.071177
0.140852
0.022227
-0.038564
0.133498
0.032047
0.108503
-0.035289
0.003223
-0.036499
0.142091
-0.087719
0.005784
-0.258331
0.058730
-0.039602
0.111947
0.165992
0.165877
-0.052911
0.062522
0.089536
0.045165
0.093158
0.037926
-0.029641
0.043323
-0.175988
-0.243669
0.251748
0.230413
0.015404
0.045365
0.183048
0.021796
0.180955
-0.082921
0.178656
-0.110032
0.048195
-0.305068
-0.045876
-0.215707
0.073962
0.044968
-0.037586
-0.084963
-0.088269
-0.074775
-0.027685
0.115180
0.140884
-0.041116
-0.034688
-0.032698
-0.064669
0.094250
0.089827
0.067962
0.041130
0.144786
-0.050831
-0.106292
0.018205
0.063761
-0.206600
-0.033782
0.013765
-0.078774
0.112247
0.001061
-0.069818
-0.023533
0.038577
-0.011492
0.057598
0.158662
0.027436
0.019437
0.075685
0.041665
-0.019369
-0.047333
-0.071638
-0.066318
-0.198825
-0.087009
-0.017482
0.011112
-0.142504
0.106557
-0.128980
0.209975
0.012857
0.122350
-0.085843
0.052730
0.064061
-0.171055
0.047622
0.031659
0.019096
-0.287960
-0.020539
0.023692
-0.361339
-0.081248
-0.090900
-0.184514
0.149023
0.155054
0.143862
0.096046
-0.087062
-0.052336
-0.010294
-0.010257
-0.016915
0.099779
0.165538
0.085812
0.043901
-0.017451
-0.075562
-0.027394
0.284579
-0.137560
0.018483
0.053763
-0.079419
0.093641
0.002727
-0.080496
0.021312
0.017987
-0.158316
-0.141390
-0.370600
-0.128701
0.090778
0.159690
0.038479
0.055300
0.000456
-0.113914
0.052975
0.002655
0.091310
-0.064157
-0.023138
-0.107863
-0.121952
-0.043689
-0.052741
0.012900
-0.010023
-0.013794
-0.036579
0.025633
0.027802
0.093839
-0.079763
0.040161
-0.018664
0.184523
-0.078441
-0.108567
0.098884
0.256398
-0.211776
0.010841
0.006341
0.040770
0.087402
-0.166116
0.010961
-0.016609
0.132449
0.054989
0.054620
0.176373
0.108398
0.077307
0.048063
-0.090190
-0.145220
-0.293808
0.094293
-0.044883
0.102758
0.043807
-0.313824
-0.034177
0.140051
-0.114767
0.034672
0.022030
-0.112108
0.139668
-0.168718
-0.231373
-0.238645
-0.129639
-0.024689
-0.050424
-0.001573
-0.127575
0.185946
-0.016004
-0.061780
-0.199374
0.144199
-0.005601
-0.002169
-0.035744
0.185181
-0.020570
0.086307
0.041940
-0.056164
-0.321903
0.147175
0.107104
0.025293
0.085852
0.029534
0.133891
0.042103
-0.114658
0.159897
-0.239900
0.116077
-0.195139
-0.086935
-0.118227
-0.103959
-0.028117
-0.182587
-0.007921
-0.033679
0.026920
-0.039948
0.105238
0.152369
-0.072849
0.011641
-0.072434
0.115424
0.025884
0.022083
0.013092
-0.060750
0.141946
0.069272
-0.159805
0.113342
0.049765
-0.185476
-0.016474
-0.016037
0.190381
0.049816
-0.112115
0.162017
-0.150264
-0.087829
0.004772
0.151619
0.085784
-0.040272
-0.076406
-0.222196
-0.112469
0.030666
-0.186226
0.061880
-0.111750
-0.235229
0.051477
0.019212
0.066204
-0.033874
0.093608
-0.087049
0.093808
0.020039
0.179402
-0.085159
-0.061610
0.161640
0.133192
-0.207205
-0.096991
0.089842
-0.419854
-0.037261
-0.341152
-0.023236
-0.063513
-0.000822
-0.130854
0.048006
0.251180
-0.020359
-0.078590
0.066415
0.001997
0.246024
-0.078820
-0.050681
-0.076797
0.013331
0.197353
0.011667
-0.100903
-0.126875
0.106354
0.044435
-0.071020
0.098870
-0.179279
-0.179616
-0.027903
0.023775
0.033765
0.096860
-0.058724
-0.007134
0.118966
-0.005114
0.039414
0.136242
0.179695
0.147377
-0.097054
-0.001283
-0.033623
-0.040762
-0.139070
-0.031475
-0.168701
-0.298795
0.111018
-0.008150
0.127154
-0.228378
0.254782
-0.046609
-0.041588
-0.108339
0.038719
0.153213
-0.077181
-0.346877
-0.157404
-0.072831
-0.137288
0.118385
0.121707
0.021789
0.039429
-0.169593
0.067955
-0.065042
-0.072133
-0.029526
-0.188592
-0.035080
-0.005933
-0.032152
-0.011238
-0.155582
-0.102530
-0.182659
-0.025067
0.049714
0.007460
-0.033113
0.031573
0.206744
-0.065946
0.113880
0.016421
-0.038215
0.057796
0.130714
-0.156596
-0.039675
0.299110
0.011562
0.098759
0.131223
-0.076735
-0.202303
-0.137199
-0.059202
-0.071042
-0.041893
0.035151
-0.015485
-0.006746
0.117089
-0.246711
0.123924
0.194529
-0.061962
0.120414
0.105849
0.172852
0.016906
0.135128
-0.205071
0.019157
0.143014
-0.027611
-0.076439
0.018352
-0.095691
-0.015149
-0.018954
-0.003029
-0.119433
0.362040
-0.072309
-0.013485
0.055032
0.207288
-0.051451
-0.030820
0.107521
-0.403303
0.046554
0.028956
0.057230
-0.141713
0.042434
-0.182227
0.066580
0.051958
-0.169324
0.050963
-0.216899
0.078353
0.193803
0.086265
-0.020056
-0.218922
0.063523
0.188645
0.136397
-0.355306
0.146136
-0.061594
0.235351
0.138765
0.039759
-0.086591
0.135331
-0.296805
-0.068139
-0.332274
-0.048775
-0.025432
0.038611
0.217427
-0.180915
-0.235206
0.078447
0.065053
-0.177686
0.019924
-0.112841
0.005658
0.011859
-0.145844
0.010073
0.051018
0.194419
-0.083261
-0.138645
-0.057916
0.217489
0.096660
0.007545
-0.013743
0.087078
-0.241328
0.260202
-0.297630
-0.017494
0.029094
0.029091
-0.097404
0.031556
-0.038387
-0.112460
-0.167746
-0.008204
0.154982
0.109418
0.030236
0.059695
-0.290237
-0.048446
0.029022
0.125727
-0.022893
-0.095487
0.123081
0.108387
-0.051838
0.075951
-0.033596
-0.197741
-0.101276
0.169272
-0.064084
0.131775
0.078904
-0.055110
0.000009
-0.018870
-0.006730
0.007475
0.109719
0.020062
-0.005432
0.165847
0.051757
0.107544
0.010973
-0.094390
-0.018267
-0.296066
-0.114224
-0.124655
0.087414
-0.132387
0.165550
-0.292824
0.135195
0.125576
-0.026615
-0.356311
-0.137451
0.179816
0.155641
0.135198
0.101597
-0.095301
0.054512
-0.196209
0.000875
-0.093903
0.111533
0.080107
-0.086359
0.138211
-0.113688
0.130064
0.018989
0.070989
-0.068871
0.049506
0.036753
0.159779
-0.064065
-0.165228
0.048649
-0.031625
-0.064487
-0.078430
-0.118699
-0.113275
-0.352523
0.093265
0.174408
-0.060729
-0.158744
-0.052752
0.290099
0.204114
-0.092984
-0.171378
-0.040540
0.081098
-0.163188
0.133030
-0.108902
-0.033408
0.080036
0.017825
-0.127578
-0.005554
-0.004912
0.080138
-0.075461
0.183699
0.082832
0.025649
-0.049801
0.121477
-0.204498
0.005337
0.170288
-0.012002
0.100010
0.176995
-0.075018
0.070718
-0.069657
0.126138
0.021202
0.098338
0.039487
0.118978
-0.163054
-0.070424
-0.271529
-0.006523
0.000271
0.056845
-0.149025
-0.020262
-0.077941
-0.076052
-0.175795
-0.138357
-0.089039
-0.135398
-0.025189
-0.101435
0.164295
-0.064300
0.113715
-0.200006
-0.013197
0.054618
-0.015118
0.061609
0.220343
0.013756
0.091034
-0.301397
0.051490
-0.038231
0.059826
-0.163881
-0.123173
0.028006
-0.048292
0.022629
0.296543
-0.028293
-0.017372
0.072115
0.000145
0.076336
-0.017375
0.004575
-0.011996
0.052919
-0.224190
0.133688
-0.127883
-0.017071
0.051909
0.044671
-0.085780
0.081803
0.129221
-0.022077
0.072385
-0.179404
-0.063856
0.035282
0.048185
0.070874
-0.099960
-0.037696
0.229464
0.003726
0.125614
0.085804
0.010649
0.009528
-0.004859
0.126457
-0.248802
0.022708
-0.109566
0.016174
-0.042325
0.069265
0.083350
0.052868
0.010901
-0.314299
-0.043766
0.056415
-0.267598
0.011994
0.202027
-0.181759
-0.049437
-0.069851
0.085842
0.106140
0.034308
0.277956
0.075286
0.183616
0.100452
-0.119510
-0.149426
-0.090170
-0.086873
-0.157293
-0.014207
0.131558
0.077710
-0.057179
0.212049
0.097415
-0.128975
-0.308345
0.105106
-0.193107
0.090100
-0.194608
0.209303
0.068306
-0.208670
0.195443
0.101172
-0.005133
0.164510
0.165298
-0.068740
0.031604
0.104599
0.054048
0.069871
-0.057926
-0.240179
0.021913
0.141543
-0.002441
-0.127721
0.132472
0.107615
0.083294
-0.058130
-0.090853
0.216068
0.005688
0.000245
0.004195
-0.280382
-0.024434
-0.019455
-0.020932
0.014611
-0.194377
-0.124014
0.114575
0.025889
0.074777
0.171176
-0.248742
-0.004923
0.026980
-0.020412
0.188543
0.094202
0.047880
0.005338
-0.177118
0.072688
0.122041
-0.048608
-0.112297
-0.065454
-0.129209
-0.003276
0.065965
-0.122212
-0.113820
-0.100104
-0.083127
0.032038
0.127213
-0.021667
-0.272555
0.038352
-0.017597
0.107461
0.049930
0.117482
-0.137825
-0.010749
0.059190
0.102361
-0.010408
0.250187
-0.031691
-0.279308
-0.118546
-0.062333
-0.066491
-0.036767
-0.045565
0.147573
-0.013918
0.181535
0.114389
0.104240
-0.294942
-0.234815
-0.137740
-0.090602
-0.062818
-0.044469
-0.005952
0.130862
0.004797
-0.226448
-0.071625
0.166979
0.323781
-0.074856
0.179266
0.140427
-0.027395
0.041534
0.170670
-0.020379
-0.134984
-0.181746
-0.271565
-0.102292
0.075798
0.085827
0.045047
0.059105
0.144180
0.104000
0.144954
0.075761
0.051074
0.328141
-0.057800
-0.181613
0.123784
0.060683
0.153771
-0.081071
-0.074195
0.033984
0.081987
0.104038
-0.024246
0.016950
-0.085168
0.011249
0.009360
0.185102
0.070312
0.055180
-0.217088
-0.155949
0.166198
0.075383
0.040524
0.015883
-0.044684
0.031319
-0.107902
-0.112441
0.056471
0.073106
0.016229
0.177746
0.013210
-0.120535
0.038937
-0.011321
-0.014252
0.153351
0.114314
-0.161521
0.145416
0.157295
-0.040834
-0.012359
0.164544
-0.043075
0.005113
0.086441
-0.094054
-0.239800
-0.354588
-0.012846
-0.037026
0.030278
0.195958
-0.087974
0.051668
0.201324
-0.003848
-0.181795
-0.048363
-0.144488
0.195076
-0.029430
0.141339
0.089509
0.082716
-0.097175
0.073199
-0.136076
0.133246
-0.150907
0.056878
-0.026681
0.042302
-0.089011
0.080925
0.241052
-0.057540
-0.282473
-0.016303
0.047381
0.170581
0.023571
-0.123946
0.163186
0.076359
0.174001
0.076809
0.133849
-0.104293
0.171578
-0.047422
-0.214448
-0.115057
0.028149
-0.072650
-0.167281
0.113967
0.230356
-0.017477
0.188048
0.000849
-0.008628
0.055413
-0.169501
0.063521
-0.090982
-0.002061
0.037434
-0.274501
0.199113
0.066028
0.122939
-0.092655
-0.106449
-0.042442
-0.001065
0.010578
-0.148168
-0.042716
-0.155738
0.057867
0.184172
-0.031867
-0.033712
0.145555
0.002915
0.094472
-0.110812
-0.296701
0.136301
-0.088030
0.047343
-0.048590
0.135138
0.021751
-0.139542
-0.015895
0.168018
0.146386
0.025159
0.100688
-0.145381
0.002425
0.069719
-0.074721
-0.131379
-0.311944
-0.065196
0.126851
-0.090811
0.039007
-0.230981
-0.008959
-0.045134
-0.169467
0.015572
-0.294743
0.039091
0.124098
0.041907
-0.080822
-0.105620
-0.021910
0.126576
-0.034589
0.145347
-0.032591
0.265978
0.203503
0.171686
0.012530
0.004531
-0.300114
0.108218
0.091551
-0.083054
0.088351
-0.421523
0.083468
0.096641
0.020760
-0.003352
0.119225
0.100911
0.175878
0.056737
0.023880
0.254644
-0.021949
-0.065296
0.093328
-0.130659
-0.107498
-0.001624
-0.222900
-0.012557
-0.175804
0.083923
0.184261
-0.053646
0.123902
0.032403
0.123364
0.010183
0.048223
0.031947
-0.135046
-0.087555
-0.036773
-0.081269
-0.033764
-0.329443
-0.022555
-0.168667
-0.062256
0.191000
0.129945
-0.196302
0.108413
0.009194
-0.113033
0.163791
0.018457
-0.120492
-0.025264
0.034615
-0.148774
0.047437
-0.141452
-0.223993
-0.144926
-0.014683
0.036463
-0.095241
-0.152032
0.113306
-0.093148
-0.205119
0.016441
-0.050824
0.076056
0.013665
-0.068800
0.054711
0.136088
-0.290256
0.051133
-0.034426
-0.159070
-0.135443
0.081278
0.158598
-0.081259
-0.052129
0.018862
-0.116512
0.082885
-0.027256
-0.032577
-0.137866
-0.080721
0.077205
0.184325
0.059645
-0.024698
0.100079
-0.025920
-0.023997
0.009354
-0.145192
-0.277835
-0.023607
0.094516
-0.093873
0.122227
-0.116945
-0.055636
-0.079771
0.178212
0.083505
0.093014
-0.030575
0.138278
0.096908
-0.183836
0.035474
0.097969
-0.091227
-0.002641
-0.103489
-0.163214
0.154019
-0.077069
-0.088017
-0.188354
-0.168494
0.045611
-0.114816
0.035670
-0.004190
0.051197
-0.117377
0.077723
0.025400
0.067561
0.001342
0.039190
0.039376
-0.009196
-0.137104
-0.018636
0.005466
-0.077955
0.087214
-0.065385
0.134210
-0.030913
0.009636
-0.009489
-0.081007
0.014058
0.097739
0.036115
-0.029742
0.101816
0.188725
-0.080415
-0.018771
-0.183907
0.051716
-0.011340
0.111341
0.033086
-0.126811
0.067650
0.149302
0.281431
0.101372
0.059775
0.069860
0.061328
-0.005012
0.084209
0.047990
0.160516
0.094614
0.073855
-0.238889
-0.160027
0.041584
-0.144144
0.039004
-0.049373
-0.038345
-0.062000
0.203035
0.026413
-0.022101
-0.094317
-0.104427
0.124455
0.071767
0.097378
-0.056897
-0.013703
-0.009239
-0.020397
0.173855
0.055823
0.145431
-0.037965
0.006962
0.005819
-0.096362
-0.085054
-0.151784
-0.113381
0.204505
0.106628
0.100428
-0.020621
0.104798
0.134730
-0.111073
-0.174296
-0.080458
0.085029
-0.027611
0.007559
0.178738
0.090288
0.035795
-0.066639
0.040871
0.225771
0.079626
-0.099403
-0.124207
0.025500
-0.051704
0.161872
-0.112754
-0.100767
-0.044548
0.228495
-0.291353
-0.217369
-0.020334
0.091913
0.195700
0.221677
0.073947
0.048150
0.054596
0.028784
-0.091822
-0.008822
-0.223314
-0.076905
-0.101266
0.049512
-0.007606
-0.031349
-0.168780
0.269934
0.098983
-0.121293
-0.113742
-0.110445
-0.110013
0.087787
0.056538
0.055743
-0.059141
-0.158542
0.150999
-0.091610
0.027808
-0.050601
0.110997
-0.141517
-0.050295
-0.063665
0.148142
-0.087767
-0.005535
-0.290071
0.031311
-0.021788
-0.043641
0.183738
-0.029680
-0.033174
-0.023507
-0.129342
-0.165838
-0.170552
0.075148
-0.073581
0.206297
-0.028318
-0.070727
0.025931
-0.072967
-0.120886
-0.051862
0.027778
-0.102214
0.117180
-0.153294
-0.200056
-0.213932
0.050116
-0.036666
0.220522
0.061376
-0.296471
0.108380
-0.082411
-0.104001
0.226712
0.004625
-0.041517
0.014513
-0.167860
-0.064787
-0.191107
0.108726
0.133002
0.012193
-0.072757
-0.004081
-0.110122
0.029617
-0.105184
0.000435
0.058288
-0.307960
-0.151672
0.235573
-0.191106
0.034511
0.109595
0.068641
-0.108146
0.073160
0.034816
-0.063719
-0.018913
-0.013138
-0.061956
-0.150655
0.052014
-0.192883
0.011431
-0.225653
0.039333
-0.086793
-0.181567
-0.133848
-0.084742
0.007988
-0.005790
-0.019550
-0.065089
0.215052
0.103154
-0.082442
-0.192003
0.084001
0.041953
-0.009235
0.082843
-0.223849
-0.157353
-0.150640
0.182345
-0.229091
0.187867
-0.184268
0.081926
0.259552
-0.131047
0.126675
-0.035041
-0.124415
-0.516180
0.055698
-0.039839
-0.134418
-0.052367
0.226768
0.105751
0.033830
0.051705
-0.228314
0.271161
0.083784
-0.019526
0.135887
0.271388
-0.126693
0.002020
-0.084416
-0.001119
-0.100959
0.024659
0.095878
-0.035114
0.069475
-0.165769
-0.158104
0.115070
-0.116889
0.100254
-0.101692
0.008232
-0.298346
0.054262
-0.361224
0.005807
-0.040939
0.136122
0.059034
0.067401
-0.057734
0.031059
0.157331
0.005171
0.108048
0.017075
-0.085701
-0.065904
-0.107471
-0.023626
0.055715
0.080062
0.147150
-0.041985
-0.073329
0.135429
-0.117830
0.026710
0.153186
-0.167400
0.077595
-0.061626
-0.170009
0.194101
-0.001095
-0.231250
-0.131466
0.038461
-0.083509
0.282008
-0.024829
-0.078890
-0.236762
-0.003466
-0.046337
-0.060344
-0.163958
-0.161103
-0.179940
0.277793
-0.082161
-0.017619
0.096911
0.048816
-0.160287
-0.052911
0.080259
-0.143346
-0.006088
-0.082446
-0.033216
-0.043053
-0.152857
-0.139825
0.197244
0.086149
0.049017
0.010120
0.045719
-0.068198
-0.182926
-0.038768
-0.255770
-0.204835
0.036719
0.022659
0.074070
-0.078876
-0.124972
-0.567759
-0.262693
0.150955
-0.227577
0.178796
-0.016204
0.068576
0.044942
-0.039202
0.004833
-0.085908
-0.004864
0.004363
0.099989
-0.055726
0.016710
0.120068
0.065248
0.021182
0.069698
-0.044468
0.045252
0.044395
0.068472
-0.096159
-0.107754
0.029477
-0.013822
0.168975
-0.020030
-0.079197
-0.072295
-0.018368
0.024231
-0.028480
-0.180799
0.088686
0.030428
-0.042445
0.006246
0.080279
-0.243035
0.069921
-0.090554
0.041623
-0.093345
-0.011803
-0.060018
0.000042
-0.098825
-0.158436
0.079755
-0.025409
0.114274
0.132390
0.127068
-0.097750
-0.159109
-0.065766
0.092473
0.188734
-0.172891
-0.077365
-0.024623
-0.071230
0.344105
0.067139
-0.267271
0.021003
0.064533
0.139721
-0.045771
-0.152148
0.065459
-0.160790
0.218888
0.055684
0.161513
-0.096382
0.083865
-0.002377
-0.118695
0.031682
-0.004138
0.085919
-0.020522
-0.089612
-0.141325
-0.194402
-0.226181
0.066724
-0.044904
0.024737
-0.117219
-0.042848
0.131279
0.173913
-0.153754
-0.056087
-0.070470
-0.211165
-0.098818
0.017118
0.082941
0.075454
-0.174632
-0.042107
-0.024600
-0.076091
-0.194233
0.094697
0.268236
-0.087950
-0.047517
0.041049
0.020151
0.023443
-0.016563
-0.034585
-0.111341
-0.058693
-0.059862
-0.052229
0.236518
0.006097
0.087894
-0.187976
-0.071155
-0.188127
0.154800
0.138945
-0.161381
0.136502
0.083316
0.050140
0.112052
-0.204042
-0.099967
0.114141
0.113646
-0.106438
-0.023320
-0.170283
-0.037480
-0.124826
-0.211545
0.162024
-0.000661
-0.034312
0.181270
-0.006663
-0.139562
-0.005264
-0.174672
0.189184
-0.013163
0.023307
-0.129903
-0.118734
-0.147321
-0.159576
0.028198
-0.008493
0.142601
-0.208240
0.136430
-0.229529
-0.132773
-0.030931
-0.014760
-0.029157
0.119144
0.057825
0.130192
-0.005213
-0.060421
-0.182946
-0.019938
-0.124987
0.112552
0.181973
0.065161
0.124288
-0.193944
-0.032974
-0.118381
-0.194676
-0.008702
-0.109971
-0.067006
-0.034651
0.037213
0.019028
0.083547
-0.038826
-0.052143
0.022148
0.065233
0.046690
-0.154252
-0.167812
-0.145197
0.156723
0.119671
0.221737
-0.043267
-0.023342
0.033939
-0.104313
0.043419
-0.005391
-0.051895
-0.146018
0.090817
-0.032939
-0.384676
-0.131684
0.004248
0.124903
-0.042055
-0.296881
-0.309929
0.111095
0.071738
-0.109818
0.019374
-0.114401
0.052133
-0.169525
-0.148615
-0.149019
0.038727
0.026053
-0.067715
-0.244518
0.132789
-0.058171
-0.015195
0.182093
-0.094001
0.116553
-0.039590
0.149655
-0.115560
0.259314
-0.206284
0.068939
-0.012735
0.074854
0.048933
-0.021836
-0.058545
-0.021784
0.261726
0.100819
-0.195071
-0.064092
0.052895
0.151776
0.071388
-0.012210
0.016830
0.108586
0.053670
-0.027957
-0.030781
-0.070256
0.026964
-0.004242
-0.045848
-0.222580
0.041552
-0.097983
0.156222
0.003507
0.169678
0.008782
-0.016670
-0.047589
0.057617
-0.077894
-0.193414
0.023561
0.026304
0.083111
-0.133397
-0.148246
0.277064
0.005954
0.247998
0.054182
-0.110847
0.059071
-0.024891
0.170011
-0.166729
-0.051620
-0.047171
-0.015290
0.117124
0.095542
0.074465
0.113658
0.063837
0.030771
-0.181713
-0.145586
-0.006215
-0.180760
0.005579
-0.046648
0.117470
-0.038480
-0.137437
0.121175
0.022356
0.021276
-0.095095
-0.045099
0.028869
0.021304
-0.159591
0.044164
-0.008099
-0.029013
0.050295
0.153533
-0.113225
-0.032598
0.022454
0.052653
0.180608
0.175464
0.044535
-0.021974
-0.200186
-0.295106
-0.342866
-0.024408
-0.140746
-0.198378
-0.073697
0.135149
-0.164800
-0.097667
-0.072235
0.234004
0.186658
-0.330487
-0.063416
0.165815
-0.171231
-0.078006
-0.106833
0.058289
0.007489
0.009033
-0.008118
0.055836
0.041866
-0.101251
-0.097183
-0.064472
0.083471
0.209234
0.061828
0.208878
-0.225173
0.077550
0.088639
0.139638
-0.066721
0.309450
-0.247894
-0.114511
0.110889
-0.009379
0.038329
-0.060070
-0.058506
-0.092825
0.229464
-0.353397
-0.337202
-0.127576
-0.009002
0.026508
-0.097293
-0.175164
0.069865
-0.114289
0.017505
-0.116713
-0.284462
-0.132324
-0.127497
-0.173502
-0.062275
-0.065764
-0.231236
0.002737
0.099689
0.093248
-0.157443
0.025970
0.149289
0.123217
-0.009629
0.126122
-0.029221
-0.004225
-0.161156
0.079308
0.134155
0.007481
-0.057423
0.002667
-0.036837
-0.069026
-0.131749
0.099213
0.152945
-0.030502
0.062883
0.239528
-0.006480
0.003537
0.000848
0.037075
-0.009343
0.004145
-0.209999
-0.091713
0.092691
0.192646
0.035813
0.040319
0.140358
0.127919
-0.165605
-0.023141
0.026342
0.070205
0.202086
-0.108723
0.095795
0.070342
-0.150034
0.139222
0.027361
0.061924
0.099943
-0.011778
-0.051085
-0.122388
-0.005078
-0.014627
-0.095804
0.120907
0.023358
0.137578
-0.083967
-0.205220
0.105512
-0.024568
0.096790
0.113088
0.012515
0.002916
-0.050793
0.014701
-0.033166
-0.208630
-0.039939
0.113811
-0.060671
-0.211906
-0.044902
0.111805
-0.097533
-0.141608
0.146751
0.072768
0.024501
-0.073643
0.243937
0.039176
-0.121159
-0.004339
0.079950
0.025419
0.193489
-0.083785
0.082397
0.039863
-0.148640
0.029030
-0.048457
-0.005545
-0.004099
0.023908
-0.005714
0.097214
-0.029958
-0.141162
-0.112623
-0.002864
-0.140515
0.025868
0.134666
-0.060777
-0.078820
0.066662
0.104209
0.152794
-0.030361
0.034946
0.040220
0.242399
-0.128704
0.058687
0.150709
0.066746
0.109788
0.190807
0.019378
-0.050836
0.010520
-0.164317
-0.023086
0.025408
-0.000687
-0.110724
-0.051457
0.054980
-0.056649
-0.074763
0.010661
0.133153
0.011206
-0.226161
-0.217309
0.190911
-0.074765
0.077398
0.079914
0.145298
0.038304
-0.081446
0.080813
0.070177
0.140353
-0.029739
-0.138235
-0.219774
-0.081405
0.108478
0.112108
0.223527
0.105583
-0.010028
0.016055
0.131681
-0.106928
0.186744
-0.105451
-0.031334
0.082284
-0.374658
-0.040349
0.057496
0.069815
-0.015256
0.082136
-0.006855
-0.129043
-0.037179
-0.063264
-0.023698
-0.013062
-0.060619
-0.345953
0.007381
-0.191075
0.131358
0.100321
-0.056691
-0.131764
-0.062407
0.169718
-0.070951
0.022370
0.020400
-0.070832
-0.055308
0.021108
-0.108318
0.104617
0.129140
-0.002680
-0.137640
-0.063629
-0.013954
-0.217138
-0.017943
0.015888
-0.143120
0.074247
-0.017952
-0.127075
-0.035887
-0.152890
0.269671
0.016304
0.185826
0.050757
0.043509
0.150780
0.121940
-0.089909
-0.063483
0.000416
-0.039533
-0.021639
-0.088084
-0.050428
-0.142222
-0.036270
-0.175274
0.172899
-0.113464
0.001411
-0.080305
0.113765
0.072950
0.018906
-0.073665
-0.006391
-0.014760
-0.198288
-0.172887
-0.090971
0.204327
-0.199363
-0.143733
0.057915
-0.231786
-0.060440
-0.347499
-0.058330
-0.011871
-0.017771
0.012267
0.113954
-0.035820
-0.108869
0.010549
0.086120
-0.003928
0.102226
0.069167
0.089086
0.054889
-0.129157
0.064843
-0.194896
-0.082527
-0.178656
0.013581
-0.027880
-0.064137
0.147147
0.110876
0.082216
-0.040728
0.007861
-0.080679
-0.132605
-0.100599
-0.162870
0.126353
0.035933
-0.057609
0.057422
-0.069811
-0.067319
-0.040442
-0.047306
-0.103790
-0.062853
-0.034761
0.047830
-0.100351
0.107349
0.003761
0.094796
-0.153793
-0.084751
0.000433
0.107147
-0.006431
0.031275
0.016883
0.055574
-0.060013
0.201671
-0.047194
-0.004747
0.142500
0.064523
-0.002956
-0.187484
0.111944
-0.145293
0.164178
-0.000293
0.125608
-0.089766
0.037751
-0.010454
-0.025554
0.113894
0.092439
-0.062719
-0.077535
0.057849
0.277850
-0.176068
-0.075193
0.040157
0.202682
0.106977
-0.239029
-0.172132
0.141931
-0.030982
-0.020938
-0.129179
-0.013875
0.122228
-0.198263
-0.028495
-0.193125
-0.156772
0.073979
-0.078200
-0.046080
-0.038209
0.011820
0.038929
0.108764
-0.173116
0.078668
-0.069531
0.154252
-0.202800
0.174052
-0.247247
0.095033
0.018614
-0.044208
0.084996
0.004657
-0.052495
-0.016218
0.112519
-0.090355
-0.087232
-0.148601
-0.351782
0.080462
-0.033908
-0.023675
-0.218567
0.042100
-0.097078
-0.082439
0.084013
-0.057066
-0.083743
0.070273
0.088220
0.029432
0.087479
0.103755
-0.036287
-0.042355
-0.189559
-0.065610
-0.021321
-0.066810
-0.130696
-0.031147
-0.083372
-0.109009
-0.180580
0.020784
0.014011
-0.005527
-0.116357
-0.106359
0.183755
-0.032328
-0.102638
0.064180
0.049344
0.057515
-0.069174
0.143646
-0.126736
0.031560
-0.079094
0.096789
0.037374
0.045839
-0.093701
0.078538
-0.083668
0.102608
0.097944
-0.101585
0.082959
0.197104
0.219205
0.059361
-0.085845
0.044039
0.092079
-0.032562
-0.065487
0.171510
-0.051031
-0.199170
0.004592
0.106929
-0.318386
0.069902
-0.283287
0.026503
-0.036565
-0.166962
0.041017
-0.036248
0.048675
0.000650
0.077016
-0.084601
0.066417
0.193211
-0.034515
-0.049369
-0.080589
-0.233280
0.150676
0.080300
-0.093402
-0.180393
-0.008038
0.047775
-0.031970
0.013442
0.119580
-0.197500
0.008441
-0.010036
0.097426
-0.042516
-0.148851
0.104086
-0.016302
0.086662
0.041143
-0.015985
0.022436
0.223706
-0.039643
0.148668
0.023063
-0.086054
0.080971
-0.134074
-0.243951
-0.171655
0.073513
-0.177647
0.064752
-0.004034
0.066028
-0.027510
-0.044458
0.006191
0.108256
-0.007202
0.062395
-0.222431
-0.178878
0.008601
-0.341624
0.016048
0.084311
0.048158
0.050586
-0.130517
0.071361
-0.234772
0.022953
-0.039862
-0.064552
-0.035839
0.097052
0.041406
-0.072537
0.051039
-0.009956
0.004789
-0.036868
0.103891
-0.035092
-0.079886
-0.099702
0.076548
0.042825
-0.011188
0.005194
-0.013292
-0.099014
0.038357
-0.110428
0.044994
0.180443
-0.100055
-0.029555
0.204851
-0.018226
-0.099913
-0.119444
0.048301
-0.182676
0.010990
-0.029629
-0.016246
-0.198239
0.144264
-0.221042
0.045899
-0.134397
-0.009687
0.147187
-0.037589
0.199813
0.071594
0.048556
-0.114761
0.011222
-0.048127
0.024356
0.086155
-0.165911
-0.194979
0.025894
0.061494
-0.053601
-0.119174
0.205203
-0.106801
0.087635
-0.000003
0.223006
-0.045994
-0.018715
0.094196
-0.330837
0.094911
-0.072218
-0.031993
0.135937
-0.072435
-0.097955
-0.002576
0.088275
-0.040677
0.127102
-0.090281
0.073190
0.285416
0.179639
-0.013859
-0.063413
0.136495
0.082425
0.048820
-0.186006
0.082663
0.097396
0.107149
0.021530
0.084810
0.003582
-0.019086
-0.316679
-0.132096
-0.207309
-0.046514
0.032543
0.096298
0.098746
-0.064420
-0.144190
0.090442
0.063165
-0.089290
-0.020035
-0.066227
0.010874
-0.054559
-0.042166
0.026538
-0.062118
0.121583
-0.108703
0.025775
-0.035778
0.176614
0.051675
-0.038035
-0.009162
-0.150089
-0.102497
-0.049613
-0.349452
-0.027783
0.113123
0.051979
0.058165
0.062787
-0.066162
-0.229383
0.209784
-0.045275
-0.079228
0.060798
0.066068
-0.115179
-0.156512
0.047101
0.074136
0.104387
0.042244
-0.100751
0.094928
0.143456
-0.172033
-0.017604
0.082013
-0.080669
-0.143699
0.092669
0.083724
0.134675
-0.043887
0.204720
-0.022302
0.232808
-0.010159
0.077986
-0.075607
-0.019278
-0.059320
0.167216
0.047147
0.136085
-0.090953
-0.153815
-0.065660
-0.259965
0.043056
-0.270430
0.133454
0.074265
0.065928
-0.220212
0.190563
0.166551
-0.160196
-0.186871
-0.084858
0.175600
0.100038
-0.070517
-0.020254
-0.173857
-0.002992
-0.125498
-0.009596
-0.051810
0.177763
-0.148357
-0.066783
0.111491
-0.083751
0.167220
-0.106792
0.046898
-0.088801
0.140638
0.075933
-0.002306
0.017323
-0.005867
0.100063
0.010438
-0.101850
0.001240
0.046369
-0.266239
-0.372514
0.035628
0.134591
-0.109575
0.101977
-0.048342
0.171383
0.125203
-0.094708
0.010792
0.153886
0.064258
-0.216255
0.174153
0.046915
0.083192
0.053949
-0.101109
-0.116757
-0.014977
-0.027369
0.096294
-0.090628
0.101709
0.026732
-0.104454
-0.017966
0.213484
-0.143912
0.016174
0.028697
0.084129
0.026871
0.122480
-0.092453
0.024767
-0.040677
0.003458
-0.092065
-0.079449
-0.001355
0.016219
-0.162843
0.015553
-0.059948
-0.153910
-0.011559
0.027000
0.077517
0.239389
0.087710
0.040260
-0.003242
-0.006541
-0.114091
-0.048852
-0.042506
-0.180198
0.128603
-0.031221
-0.126389
-0.177006
-0.080475
-0.186405
0.003465
-0.009258
0.047602
-0.177995
0.085428
-0.041619
-0.070608
-0.020654
-0.013238
-0.121487
-0.075526
0.173880
-0.020750
0.124903
0.107654
-0.078620
-0.222066
0.173220
-0.087328
0.005906
0.096016
-0.037150
-0.177171
0.139631
-0.070225
0.017379
-0.136635
-0.009726
0.009597
0.005156
0.180367
-0.234409
0.063127
0.031991
0.154316
0.126525
0.036188
0.158908
0.222579
0.075484
-0.061860
0.036631
0.213073
0.064321
0.295675
0.007746
0.089034
-0.118772
0.055740
-0.070424
-0.107871
0.020238
0.020746
-0.145761
0.103440
0.070340
0.037899
0.048220
-0.087174
0.016378
0.037079
-0.023635
-0.196894
0.046497
-0.029970
0.030564
0.001587
-0.067887
0.058514
-0.000667
0.045032
0.095272
0.111923
0.046629
-0.138429
0.033545
-0.157410
-0.077720
-0.118910
-0.117197
0.092697
-0.028003
-0.038290
-0.016545
0.108028
-0.025977
0.009774
-0.260564
0.055996
-0.136258
0.167438
-0.093491
0.069081
0.021266
-0.352066
0.127529
0.085076
0.105826
0.099068
0.191179
-0.255620
-0.165511
0.036853
0.070925
0.193788
-0.170892
0.014449
0.093401
0.124650
-0.136034
-0.042230
-0.045242
0.212405
-0.057207
-0.009540
0.034435
0.233707
0.024592
0.033455
0.091552
-0.068654
0.044153
-0.097457
-0.007252
-0.010067
-0.185050
-0.395470
0.145806
-0.212231
-0.010329
0.251341
-0.178784
0.052015
-0.016827
0.021414
0.284839
0.013463
-0.018887
-0.001524
-0.253670
0.032656
0.077958
-0.022582
-0.036550
-0.121132
-0.152019
0.154186
-0.032015
-0.144535
-0.139804
-0.172072
0.016887
0.093760
-0.019917
0.007367
-0.101545
0.068708
-0.084403
-0.015497
0.072613
-0.053974
-0.096505
-0.129788
-0.105803
-0.004938
0.045564
0.049272
-0.034969
0.132375
0.040564
0.018260
-0.195125
0.058065
-0.005123
0.022275
0.035233
-0.181712
0.096812
0.141586
0.093235
0.048257
-0.264970
-0.041637
0.035410
-0.172247
-0.052898
-0.127895
-0.032818
-0.095354
0.237925
0.122388
-0.332068
-0.049093
0.129204
-0.146458
0.119681
0.146762
0.185728
-0.037609
0.062846
0.161411
0.145654
-0.207971
-0.019216
0.019620
-0.093199
-0.001360
-0.085421
-0.077131
-0.256074
0.059510
-0.084917
-0.081581
0.026703
-0.103940
0.185157
-0.037579
0.080156
-0.109546
-0.117244
0.111902
-0.060943
0.006486
-0.200058
0.001702
0.184388
-0.066012
-0.082218
-0.040927
0.083826
-0.237351
-0.179184
-0.014235
0.073839
0.038077
0.107339
0.035430
0.143538
0.097647
0.227409
-0.052643
-0.041485
0.040143
0.076147
0.003569
0.014719
0.196802
-0.058848
-0.179969
0.146321
0.020288
-0.069433
-0.141441
0.047966
-0.113645
-0.111400
0.083290
0.061851
-0.236553
-0.053014
-0.155253
0.165578
-0.244717
0.370640
0.041459
-0.034432
0.060057
0.120015
-0.088635
-0.148354
0.072157
-0.242574
0.104173
0.013367
-0.026278
-0.044181
-0.087311
-0.055510
-0.151404
-0.176339
-0.014973
-0.137502
0.058665
-0.160578
0.079978
0.015216
-0.152528
-0.169109
0.075014
0.083233
0.125397
0.211591
-0.314382
0.012102
-0.128191
-0.080226
-0.034732
0.007238
-0.065229
0.002639
-0.055159
0.015219
0.049618
0.142054
0.020406
-0.139002
-0.144317
-0.356528
-0.158738
0.069205
-0.199059
-0.114485
-0.072436
0.120510
0.014728
0.030844
0.033603
-0.042116
0.143001
-0.030313
0.037311
-0.036230
-0.187499
0.105493
0.083464
0.014077
-0.036395
0.020711
0.110340
0.146861
0.243280
0.254987
0.172438
0.100058
-0.111945
0.212473
-0.357301
0.033648
-0.242929
-0.065066
-0.050338
-0.101660
-0.122764
-0.222437
-0.315240
-0.109387
-0.107989
0.235963
-0.062476
-0.001138
-0.084008
0.027562
-0.108013
0.270173
-0.043522
0.036138
-0.102945
-0.220854
0.080142
-0.013247
0.335017
-0.307919
0.075601
-0.004954
-0.068510
-0.270624
-0.149747
0.212390
-0.003215
-0.008471
-0.148555
-0.230788
-0.088527
-0.111739
-0.131616
0.130787
0.057781
-0.166728
0.016924
0.085673
0.084904
0.013955
0.329520
-0.225559
0.121272
0.088928
0.072127
-0.119699
0.065075
-0.032403
-0.106531
0.146770
0.071109
0.010416
0.070561
-0.007069
0.052984
0.040998
0.146209
-0.102985
0.045021
-0.329797
0.055682
0.059059
0.064480
-0.215860
0.117387
-0.030427
-0.261020
0.123564
-0.075797
0.051706
-0.364251
0.054881
0.127652
0.099421
-0.009379
0.270845
0.123137
-0.002979
0.184451
0.222632
0.108832
-0.139547
0.081782
-0.089158
-0.015870
-0.220246
0.048419
-0.042154
0.042604
-0.491063
-0.240312
-0.085101
0.039339
0.184727
-0.077779
0.010834
-0.000017
0.154194
0.063158
-0.055071
-0.022310
-0.126776
-0.065523
0.223030
0.004483
-0.054519
0.072608
0.205092
-0.038775
-0.128572
-0.011155
-0.105356
0.246387
0.032659
0.173132
0.028356
-0.186782
-0.054954
0.048984
-0.075697
0.055880
-0.098203
0.131481
-0.358148
0.304454
-0.293142
0.000664
0.269179
0.148825
0.234672
-0.196976
0.031503
-0.059828
-0.105981
-0.023857
0.171318
-0.212710
0.146235
-0.180329
0.014742
0.002215
-0.054073
0.156629
-0.471767
-0.104493
0.090775
-0.117358
-0.086030
-0.008986
-0.031529
-0.047269
0.067206
-0.039836
-0.010303
0.044181
-0.139490
-0.090509
0.072871
-0.061097
-0.004449
0.081321
0.173966
0.012970
0.035013
-0.110886
0.082479
0.148497
0.116845
-0.029849
-0.022814
-0.016195
0.025236
-0.139034
0.153474
0.048696
-0.127221
0.041934
0.024162
0.031877
-0.033482
-0.076095
-0.127662
0.214743
-0.101337
-0.158335
0.230356
-0.298869
-0.216461
-0.062033
0.060628
-0.120899
-0.264654
-0.111282
-0.113234
-0.430527
0.111105
-0.058744
0.051692
0.028742
-0.329663
0.046257
-0.187654
-0.129580
-0.051463
-0.203206
0.013126
-0.351197
-0.061607
-0.243615
-0.318629
-0.009815
-0.055987
-0.096227
-0.226512
0.226642
-0.137075
0.162989
0.100514
0.079277
-0.166773
-0.284299
-0.127315
0.036382
0.201547
-0.093608
-0.172626
-0.104327
-0.021521
-0.008946
-0.122888
-0.382232
-0.104968
0.044031
-0.181063
0.046005
-0.169108
-0.138955
0.025612
0.035138
0.061647
0.149727
0.029912
0.179546
0.079382
0.212734
0.044150
0.032417
0.122286
-0.021879
0.013333
-0.480541
0.078026
-0.274986
-0.154857
-0.084343
-0.115046
-0.077959
-0.223134
-0.134187
-0.270494
0.009504
0.015588
-0.207083
0.028431
-0.130552
0.005166
0.023126
0.120073
-0.038108
-0.044716
0.036767
-0.065961
0.100065
0.053940
-0.154961
-0.234723
0.105655
0.092352
0.036700
-0.263527
0.046880
-0.304923
-0.055468
-0.193921
0.073459
0.085036
-0.289799
0.026699
-0.071189
0.032542
0.068568
-0.182782
-0.153452
-0.223868
0.056825
0.261284
0.187922
-0.245952
0.283086
0.065446
-0.059052
-0.235581
-0.049838
0.101508
-0.099005
0.255834
0.077765
0.013050
0.046787
-0.102836
0.199167
-0.010526
0.074697
-0.075851
0.061380
-0.071256
0.054507
-0.302334
0.087736
-0.064614
0.004308
0.101043
-0.046491
0.011747
0.059376
-0.025944
-0.125645
0.071416
-0.267401
0.081052
0.047651
0.072321
0.064337
0.060842
-0.176973
-0.120706
0.122257
-0.105223
0.089252
-0.124556
-0.042404
0.049755
0.068342
-0.168990
-0.132000
-0.070646
-0.201014
-0.208153
-0.086243
0.010376
-0.123148
-0.068240
-0.208712
0.120497
0.234406
-0.028707
0.129663
-0.220621
0.180304
-0.026400
0.180363
-0.210758
0.004112
0.078709
0.097065
-0.264423
0.131243
-0.126475
0.000004
0.047750
0.071403
-0.042618
-0.207679
-0.167370
0.027028
0.122303
0.187201
-0.165584
0.032081
-0.365984
-0.121912
-0.018870
0.095938
-0.012192
0.047575
0.113571
-0.158920
-0.133044
0.086465
0.062472
-0.267532
-0.104665
-0.078221
-0.023714
-0.045937
0.078274
0.077747
-0.101505
0.134937
-0.035216
0.007965
-0.126627
-0.030329
0.137412
-0.079509
0.098177
-0.047725
0.129896
0.044352
-0.053527
-0.090888
0.048583
0.178536
0.170010
-0.006307
0.083256
0.049048
0.072619
-0.116673
-0.319711
0.055233
0.057105
-0.308726
-0.116453
-0.085787
-0.168000
-0.129071
-0.038930
0.229562
-0.005279
-0.119514
0.219642
0.194594
0.059235
0.031249
-0.129466
-0.093839
-0.060810
-0.086615
-0.041594
-0.044583
0.004250
0.020604
-0.131516
-0.052627
0.008124
0.261132
0.009786
-0.104667
-0.074798
0.074644
-0.042898
-0.002780
-0.139943
-0.100870
-0.265791
0.040841
-0.039497
0.053202
0.078101
-0.120589
-0.187616
0.132601
-0.116458
-0.171168
-0.024675
-0.105039
-0.029279
-0.098838
0.075680
-0.142314
0.106712
0.042733
-0.022624
0.103294
-0.103702
0.075594
0.081902
-0.063284
-0.026751
0.028430
0.188676
-0.069266
-0.014982
0.152390
0.010713
-0.044645
0.051935
-0.049868
0.042244
-0.121573
0.009033
-0.020709
-0.088225
0.045486
0.290039
-0.166176
-0.047100
0.087595
-0.293131
-0.018475
-0.182567
0.095619
-0.024524
0.121336
-0.060400
-0.076692
0.004283
0.002462
-0.224181
-0.006158
-0.010803
0.151104
-0.008464
-0.029944
-0.267110
0.069460
-0.091311
0.033801
0.001186
-0.193350
-0.338764
-0.082309
-0.111766
0.016645
-0.073567
0.010842
-0.331251
0.110267
0.045111
0.047065
-0.066132
0.094767
0.091747
-0.025444
-0.123588
0.054894
0.033510
0.055491
-0.054179
-0.151215
-0.091945
0.023131
-0.094458
0.083638
0.018527
0.042161
0.133555
-0.126937
0.000699
0.213142
0.009836
0.104428
-0.029230
-0.011080
-0.013915
-0.148062
-0.006964
0.049741
-0.239483
0.067586
0.015200
0.111881
0.050524
0.094556
-0.029931
0.118821
-0.143052
-0.049095
0.108780
-0.210139
-0.271547
0.010326
0.078735
0.014464
-0.257224
0.051938
-0.205591
-0.237534
0.145616
-0.091792
-0.001564
0.102746
-0.185863
-0.036821
-0.016945
-0.047228
0.088338
-0.009254
-0.340659
-0.113820
-0.066084
-0.057091
0.198051
0.049122
-0.153760
0.031551
0.005967
-0.052695
0.036243
0.079466
0.242278
-0.037875
0.084415
-0.077613
0.080278
0.029156
-0.207241
-0.055671
-0.282367
-0.192454
0.008423
0.046741
0.161108
-0.042724
0.016048
0.063483
-0.208659
0.037268
0.097120
-0.134401
-0.232044
0.232422
0.140006
-0.119861
-0.026474
0.010476
0.062535
0.080222
0.047687
0.029790
-0.192341
0.071828
-0.146495
0.042521
-0.120498
-0.171331
0.077639
0.020875
-0.374608
-0.130181
-0.129130
-0.127616
-0.113246
0.049971
-0.138705
0.109214
0.186873
-0.002484
0.026283
-0.133922
0.032468
-0.057037
0.008515
-0.004321
0.033957
-0.124316
-0.051734
-0.005940
0.060159
-0.065642
-0.084101
-0.079341
-0.134447
-0.056342
-0.025995
0.035067
-0.031783
-0.052057
-0.063732
-0.084203
0.103210
0.024444
-0.023642
-0.068763
0.064805
-0.169659
-0.096444
-0.098813
-0.282681
0.154937
-0.015993
-0.013901
0.035460
-0.141232
0.055911
0.060821
0.041966
-0.000924
0.008793
0.001206
-0.279213
-0.045844
-0.162018
-0.135405
0.021713
0.063910
0.172661
0.027964
0.044949
0.031734
-0.227383
-0.051676
0.014127
-0.206180
-0.004162
-0.038136
-0.306735
0.148901
0.009530
0.006518
0.152483
0.057768
0.091693
-0.019865
-0.108985
-0.086250
-0.063291
0.100441
0.086685
-0.039708
-0.104581
0.012017
0.021532
-0.174427
-0.092277
-0.006905
0.055272
-0.245165
-0.135527
-0.314030
-0.362178
-0.064400
-0.118912
0.025446
0.062649
0.143322
-0.167767
-0.335475
0.134576
-0.285540
-0.123653
-0.109010
-0.043863
-0.177944
-0.197869
0.152453
-0.055040
0.137840
0.012711
-0.030192
0.207081
0.046810
-0.058975
0.074630
-0.023042
0.043206
-0.092685
0.011927
-0.070512
0.167388
0.214044
-0.301459
0.115990
-0.305119
-0.050695
0.032511
-0.057099
-0.138971
-0.332577
0.148913
-0.391478
0.300945
-0.007894
-0.002554
-0.061992
0.042338
-0.009038
0.016336
-0.030131
-0.109587
0.136833
-0.172515
-0.167243
0.089504
-0.164330
0.016185
0.034667
-0.049451
-0.128309
0.068603
0.019187
-0.000484
0.252667
0.055572
-0.226188
-0.181310
-0.366050
-0.004459
0.059514
-0.175061
-0.001888
-0.271432
0.052299
0.045394
-0.030269
-0.179436
-0.040323
-0.063379
0.035241
0.006085
0.023577
-0.025915
-0.105496
0.058596
-0.072479
0.207040
0.023433
0.126763
0.128797
0.059999
0.137731
0.256490
0.151605
-0.097645
0.013245
-0.387959
-0.027895
-0.114910
0.011624
0.005163
-0.277968
0.045245
-0.292565
-0.102873
-0.055955
-0.013086
0.025420
-0.273697
0.063653
0.012072
0.113543
0.044852
0.345387
-0.103961
0.088907
-0.062141
-0.071815
-0.116427
0.018770
0.060426
0.025262
-0.215592
-0.171890
0.205944
-0.233664
0.024495
-0.347789
-0.331379
0.001738
0.144888
-0.156402
-0.207530
0.180547
-0.030815
-0.039970
-0.019213
-0.045404
-0.109330
-0.306068
-0.081740
0.164796
0.095687
-0.154365
0.277691
0.000750
0.195463
0.006048
-0.042666
0.165544
0.103776
-0.004092
-0.079633
0.026577
-0.076347
-0.252014
0.159340
-0.052261
0.201223
0.092622
0.038848
0.086505
0.034061
-0.236910
-0.155188
0.161081
-0.078550
0.083481
0.184705
-0.352390
0.105939
0.120601
-0.049662
-0.005566
-0.216221
-0.012445
-0.059901
-0.022994
-0.032381
-0.112159
-0.174540
0.079509
-0.018332
0.051365
-0.115656
0.014331
0.039023
-0.379572
0.025125
-0.235968
-0.004734
0.013347
0.230763
0.005822
-0.085095
0.056693
-0.040467
-0.285450
0.097072
-0.197823
-0.023131
0.043058
-0.126818
0.003446
0.069370
-0.019307
0.064452
0.068440
-0.380313
0.062866
-0.000098
-0.021546
-0.065708
-0.179953
0.051494
0.024152
0.171680
-0.141823
0.116940
0.028261
-0.254392
0.053743
0.224328
-0.003605
0.170380
-0.050542
-0.064817
0.163838
-0.073800
0.076087
0.062642
-0.020366
-0.069243
-0.119535
0.043481
-0.044640
-0.162953
0.028011
0.166420
0.122387
-0.270015
-0.088383
-0.020877
0.006140
-0.003905
0.152479
0.024495
-0.133875
-0.061209
0.116170
-0.036599
-0.058571
0.181874
0.061261
-0.260036
-0.090207
-0.102390
-0.321606
-0.036374
-0.212351
-0.016722
-0.011828
0.065313
-0.004517
-0.238176
-0.050624
-0.119769
-0.103241
-0.031477
-0.073965
-0.410173
-0.021302
0.192473
-0.021880
0.057965
-0.058970
0.083805
-0.003697
0.248841
0.075918
0.240634
0.000440
-0.151939
-0.109053
0.066616
0.044371
0.130633
0.027673
-0.244929
0.000624
-0.359910
-0.233109
0.049979
-0.042181
-0.049441
-0.228500
-0.068897
-0.353223
0.237240
0.018832
-0.034598
0.085140
-0.065763
-0.042809
-0.022588
0.035480
-0.103148
0.017267
-0.060591
-0.052434
-0.089379
0.015697
-0.003416
0.172864
0.185624
-0.149555
0.037264
-0.314424
0.111208
-0.208417
-0.120646
-0.335506
0.080662
-0.012419
0.040440
-0.018649
-0.111899
0.017999
-0.122186
-0.070302
-0.251890
-0.358224
-0.025772
0.216517
0.019055
0.076368
0.103488
-0.201625
0.222958
-0.072309
0.081385
0.201941
0.096870
0.057996
0.023242
0.038687
-0.322326
-0.268443
-0.027786
-0.011002
0.053289
-0.034994
-0.061928
-0.129454
0.034267
-0.305382
0.080438
0.036748
-0.020078
-0.065864
0.072399
-0.254268
0.039816
0.057017
-0.135021
-0.082960
-0.246336
0.062272
-0.036121
-0.089294
0.119044
0.108410
0.044050
0.077728
-0.029132
0.030071
-0.039883
-0.271809
0.017078
0.084412
0.007942
0.015847
0.073369
0.055686
0.013157
0.093489
-0.093111
-0.002461
-0.098903
-0.255843
0.132392
-0.084854
0.238355
0.010145
0.004664
-0.017141
0.013630
0.113102
0.206803
-0.009596
0.158289
0.151042
-0.098578
-0.077496
0.114185
-0.262719
0.103927
0.161978
0.036736
-0.044059
-0.036030
0.063018
0.005425
-0.032345
0.117101
-0.013030
0.247909
-0.237451
0.003847
-0.002083
0.017336
-0.006450
0.165306
-0.062543
-0.633622
0.130263
-0.036823
-0.323993
-0.065008
0.139131
-0.002682
0.144437
-0.005857
0.016018
0.254074
0.019557
-0.065052
0.036461
0.086403
-0.003897
-0.165238
0.036017
-0.052848
-0.215769
0.010668
-0.069999
0.025903
0.122737
0.140508
-0.040393
0.050015
-0.138604
0.184198
0.137466
-0.110026
-0.099335
0.024728
0.178904
-0.000514
0.028900
-0.110044
-0.021709
0.045963
0.186068
-0.270303
0.169552
0.016586
-0.148292
0.066775
-0.260872
-0.167849
0.230742
0.017130
-0.010790
0.223121
-0.076099
0.137733
0.100341
0.060728
0.083479
-0.250046
0.110666
-0.135661
0.013955
-0.111781
-0.090634
-0.035304
-0.082920
0.002788
0.068219
-0.189234
0.017153
-0.165003
0.068547
-0.081526
-0.125684
-0.133398
0.142763
-0.125233
0.102225
-0.053539
0.054861
-0.244728
-0.240203
0.051966
0.172438
-0.136353
-0.368484
0.164556
-0.129039
-0.003556
-0.251750
-0.258233
-0.289218
0.036435
0.028665
0.120507
0.037165
0.118037
-0.044042
-0.072661
0.165606
-0.158241
-0.216453
-0.474829
0.099392
-0.073589
-0.126466
0.115773
-0.094027
0.174660
0.154191
-0.088964
0.168367
0.098723
-0.013670
-0.006697
-0.072839
-0.124066
-0.070710
-0.048179
-0.036673
0.002709
0.022547
-0.143344
0.110047
0.155744
-0.412308
-0.115314
0.121322
-0.154221
-0.176398
0.114445
-0.206647
0.034103
0.185238
-0.029792
-0.202094
-0.078912
0.110958
-0.032206
-0.055757
0.059440
-0.122011
0.072064
0.012925
0.149094
0.096199
-0.101578
-0.022198
0.029608
0.079644
0.021889
-0.087359
-0.091419
-0.152683
-0.024863
-0.139276
-0.150423
0.172799
-0.171119
-0.059693
-0.000564
0.073190
0.136969
0.024609
-0.093884
-0.018204
0.042323
0.151003
-0.083298
-0.011779
0.162196
0.084328
-0.255009
0.031954
0.007139
-0.295474
0.203992
-0.014915
0.134159
0.024713
-0.045526
-0.035502
0.115659
-0.194897
-0.109884
0.014512
0.083555
-0.453745
0.070002
-0.045859
0.154243
-0.031979
-0.055538
-0.078456
-0.495930
0.228698
0.025361
-0.249434
-0.039500
-0.013145
-0.022349
-0.038413
-0.238093
0.000462
0.040393
-0.017587
0.167395
-0.142231
0.033332
-0.089883
-0.047891
-0.266653
0.008284
0.076959
0.026201
0.221225
-0.001273
0.156620
0.100944
0.045765
-0.037230
0.015055
-0.114689
-0.074838
0.060915
0.041734
-0.126991
-0.054996
-0.102711
0.235758
-0.081002
0.059126
0.036444
-0.153739
0.172233
0.006854
-0.354885
-0.134763
0.095357
-0.233176
0.085082
0.051579
0.147282
-0.068243
0.071978
-0.031125
0.184918
-0.065546
0.041008
0.179676
-0.127126
-0.138615
-0.144506
0.001829
-0.093765
-0.072459
-0.074887
-0.174607
-0.412394
0.121870
-0.099755
0.038243
0.000294
-0.134571
-0.004507
-0.248295
-0.100793
0.160323
-0.052965
0.025493
-0.036679
0.121147
0.024713
0.046463
-0.075302
0.184591
-0.041207
0.067326
-0.022953
-0.209523
-0.009128
0.112640
0.156373
0.028575
0.027782
-0.203169
-0.194758
0.076283
-0.077972
-0.385517
-0.143292
-0.132410
-0.027898
-0.034623
0.110352
-0.011054
0.090029
0.142562
-0.002558
-0.029769
0.125885
0.175566
-0.262305
-0.000325
-0.004462
0.064126
0.238890
0.215379
0.189934
-0.044475
-0.197734
-0.033155
0.026903
-0.036095
-0.009743
0.087438
0.011988
0.033161
0.038722
0.050494
0.106756
-0.063393
0.042406
-0.021802
-0.075900
0.065104
-0.102242
-0.277406
0.098450
-0.041720
-0.039495
-0.066697
-0.012422
-0.055999
-0.045385
-0.129892
0.108233
-0.089806
-0.029828
0.096085
-0.198432
0.009319
0.003414
-0.039776
0.018740
-0.004901
-0.080159
-0.091159
0.027625
0.148440
-0.171397
0.175625
-0.087999
0.099783
-0.034025
-0.356143
0.132020
-0.075066
-0.084443
-0.089784
-0.033497
-0.035026
-0.085721
0.088488
0.281722
-0.000137
-0.035945
0.155407
0.228952
-0.049813
0.149848
-0.079853
0.054065
0.101712
-0.059809
-0.045964
-0.178362
-0.119905
-0.024285
0.087716
0.263712
-0.170231
0.062375
-0.035037
0.112550
-0.114144
0.010815
0.026321
0.151859
-0.034774
-0.141109
-0.110807
0.033128
0.044913
-0.046353
-0.068697
-0.007524
0.093628
0.107746
-0.007712
0.134830
-0.085894
-0.008120
-0.182941
0.141987
0.064144
0.014447
0.048914
-0.056081
0.035052
0.047911
0.042621
-0.050188
0.026177
0.015645
-0.021425
0.159932
0.148266
0.086481
-0.000059
0.032167
-0.086062
0.024508
0.139990
0.102065
0.080918
0.163261
-0.046648
-0.238844
0.004404
0.041469
-0.355058
0.108727
0.092475
0.122594
-0.181692
-0.002388
-0.089250
0.046757
0.094257
0.030609
-0.066364
0.118226
0.004800
0.021874
-0.052597
-0.044372
-0.144895
-0.034314
-0.135558
-0.374353
0.223222
-0.054936
-0.065650
0.175038
-0.168948
0.021286
0.088888
0.089279
0.047491
0.084195
0.169244
0.110032
-0.071994
0.219402
0.015659
-0.037353
0.069853
0.011925
-0.023309
0.048999
-0.028321
0.022613
-0.101063
-0.092108
-0.125413
0.156768
0.137099
-0.104182
-0.146322
-0.087514
0.191126
0.094166
-0.292507
0.071680
-0.105078
-0.082247
0.001675
-0.156099
0.028696
-0.178884
0.153546
0.186028
-0.105162
-0.092688
-0.059713
0.107215
0.185709
0.101913
-0.058820
-0.126041
-0.125863
0.033597
0.084632
-0.098218
0.086160
0.051067
-0.121460
0.024428
-0.074979
0.179578
0.031451
0.064001
-0.048174
-0.009629
0.086730
-0.043382
-0.028582
-0.211281
-0.283451
0.015675
-0.114232
-0.004339
0.114129
0.010354
-0.108389
-0.004395
0.186495
0.106124
-0.239919
-0.014512
0.010793
-0.170240
-0.019270
0.191782
-0.071108
0.049780
-0.163862
-0.178728
-0.131159
-0.021090
0.051249
0.017603
-0.119650
0.039916
-0.085916
0.114090
-0.056692
0.039734
-0.123276
-0.088192
0.135792
0.039836
-0.007290
0.140556
0.183014
0.089979
-0.008584
0.052948
-0.106066
0.262966
-0.030492
0.068267
0.070152
-0.001529
-0.063630
0.056941
-0.150393
0.082794
-0.055862
0.153722
-0.372663
0.059491
-0.248069
-0.006504
0.100434
0.104503
0.153505
-0.370399
0.067084
0.198298
-0.118597
-0.022659
0.233545
-0.240279
0.088332
-0.194165
-0.002273
0.133953
0.028946
-0.071270
-0.031303
-0.228344
0.047019
0.227888
0.040120
-0.138998
0.140129
-0.103378
0.130762
0.086579
-0.080670
-0.052127
0.086873
-0.046885
-0.114978
-0.031092
0.112912
-0.195883
-0.057705
-0.145965
0.210105
0.071812
-0.022585
-0.055757
-0.021972
0.019616
-0.124527
-0.071406
-0.113907
-0.132510
-0.079810
-0.084776
0.164110
-0.279656
0.046498
-0.059981
0.105470
0.057689
0.061733
0.215634
0.177749
-0.217313
0.112524
-0.300475
0.165872
-0.157979
-0.034640
-0.041676
-0.197507
-0.118697
-0.177433
0.010097
-0.270638
-0.035393
0.181819
-0.076337
0.086985
-0.147507
0.228002
0.131269
0.200876
-0.185932
-0.021361
-0.004785
0.101157
-0.039713
0.084477
0.119150
-0.210881
0.066357
-0.192793
-0.129689
0.063680
-0.027731
0.150611
0.017551
-0.204040
-0.049134
0.011507
0.237360
-0.163803
-0.013835
-0.090493
-0.067916
0.129385
0.104132
-0.105967
-0.073096
0.132086
0.002749
0.127786
0.134971
-0.061609
0.186688
-0.061348
-0.151527
-0.164334
-0.054728
-0.105740
0.104358
0.041223
0.029176
0.147449
0.268006
0.149922
-0.246909
-0.026128
-0.058313
-0.110423
0.085616
0.006537
-0.230923
-0.192384
0.114725
0.033771
-0.114849
0.143699
0.151831
-0.173437
-0.166917
0.054606
-0.237212
0.224464
0.016261
0.072891
0.024767
0.079356
0.136242
-0.006720
-0.095789
0.084181
0.104222
-0.083775
0.027279
-0.326856
-0.042222
-0.067555
-0.237531
-0.188107
-0.184018
0.056044
0.207680
0.116170
0.083333
-0.294607
0.003040
0.208069
0.009444
0.151718
-0.038612
-0.254733
0.019402
0.111841
0.087160
-0.105887
-0.023138
-0.082018
-0.000869
0.036749
-0.028737
0.097299
-0.092306
-0.185520
0.118173
-0.032009
0.025080
-0.060043
0.093414
-0.094863
0.089597
-0.058725
0.165742
-0.056652
0.181463
0.055833
-0.200755
0.143091
0.072018
0.155352
-0.001360
0.125495
-0.248549
-0.055729
0.186525
-0.046669
-0.111948
0.026020
0.026956
0.066609
0.055309
0.073625
0.077353
0.105265
-0.090053
-0.203254
-0.082424
0.083705
-0.054088
0.048897
0.051557
0.100784
0.042355
0.116724
-0.019457
0.104377
0.004330
0.233861
0.159238
0.116535
-0.021371
0.196283
-0.215875
0.249724
-0.037719
-0.086180
-0.191519
-0.040279
-0.096052
0.009687
0.119478
-0.037612
-0.379937
-0.017339
-0.121125
0.024320
-0.312802
0.251400
0.030381
0.164528
0.226077
0.041854
0.215375
0.030288
0.042877
-0.081342
-0.108863
0.115451
-0.058764
-0.075558
-0.091191
0.007120
-0.142250
0.060104
-0.011468
0.003539
-0.062786
-0.079291
0.067713
-0.023446
0.106545
-0.158546
0.060843
0.074483
0.075960
0.008932
-0.481159
0.011482
-0.134712
-0.196110
-0.204547
-0.158691
0.072594
-0.189732
0.198116
-0.161688
0.028849
0.222166
0.066852
-0.060878
-0.506907
-0.190234
-0.121877
0.086894
-0.002279
-0.153186
-0.001865
0.022392
0.021788
-0.013860
0.114298
0.233756
-0.003368
0.065251
0.075965
-0.199690
-0.001313
-0.225343
0.036318
0.100104
0.026528
-0.100527
0.031752
0.056150
0.154051
-0.005101
0.110421
-0.043630
-0.340793
0.007359
-0.208219
-0.169983
-0.239013
-0.026751
-0.011693
-0.046096
-0.119216
-0.261805
0.002260
-0.203933
-0.112295
-0.157000
-0.173537
0.107833
-0.265319
-0.180652
-0.003552
0.108993
-0.012095
0.197661
-0.154046
-0.041200
-0.214325
-0.209861
0.190765
-0.468351
0.187829
-0.018131
0.035338
-0.202671
-0.272862
0.178124
-0.009495
0.050266
-0.091072
0.015217
-0.064042
-0.041790
0.178599
-0.055076
0.132481
-0.146208
0.036523
-0.141847
0.116804
-0.028699
0.289180
0.074142
0.146779
0.043277
0.004819
-0.117580
0.147029
0.186033
-0.067722
0.000752
-0.174458
0.143553
0.044058
0.025008
0.013358
-0.069030
-0.092105
0.175626
-0.041576
-0.152963
0.056825
0.014452
-0.063865
-0.090947
-0.039975
0.066746
-0.103551
-0.153554
0.163749
-0.074365
-0.289750
0.227412
0.046285
0.089153
-0.019555
0.017009
0.124543
0.013531
-0.033826
-0.026271
-0.039179
-0.081596
0.033585
-0.214193
-0.054225
-0.195722
-0.046616
-0.341585
0.052707
-0.469208
-0.319328
-0.196178
0.188264
0.136477
0.103014
-0.104708
-0.074178
0.078367
0.068092
-0.088934
-0.216731
-0.409585
-0.141650
-0.059199
0.046720
-0.092432
-0.060333
-0.033228
0.062880
-0.138973
-0.138350
-0.314623
0.248857
0.021804
-0.160267
-0.045294
-0.369419
0.095828
-0.121403
0.062918
-0.039492
0.007903
0.074368
-0.322988
0.132925
0.107476
-0.127727
-0.016420
0.175401
0.247105
-0.360916
0.013932
-0.043166
-0.279902
-0.106831
-0.183781
0.153915
0.107603
-0.102074
-0.035130
-0.136691
-0.040677
-0.031819
-0.468437
-0.313928
-0.043024
-0.206503
-0.096868
-0.010194
-0.045577
-0.018590
-0.070564
-0.040891
-0.164368
-0.085381
-0.082955
0.061282
-0.037659
0.001400
0.230702
0.246720
0.063949
0.034000
-0.019172
-0.098698
0.097841
0.092766
0.007668
-0.064096
0.016693
0.124658
0.070090
0.018704
-0.000137
-0.005301
0.063630
-0.100597
-0.048263
-0.355421
-0.090188
-0.127432
0.048553
0.103133
-0.093877
-0.270487
0.229347
-0.067812
-0.151457
0.023496
0.062883
-0.079914
-0.244107
-0.101959
-0.065347
-0.090994
0.009985
0.010358
-0.324977
-0.068018
-0.193000
-0.146338
-0.049986
-0.088384
-0.060450
-0.201436
-0.033236
-0.202811
0.029685
-0.348575
-0.321199
-0.143640
-0.062565
0.171593
-0.226385
0.121695
-0.106783
0.036380
0.134764
0.157392
-0.078162
-0.506282
-0.017399
0.089679
0.264292
0.031007
-0.059098
0.174580
0.054209
0.086899
-0.254441
-0.311728
-0.005800
0.066015
-0.124627
-0.008770
-0.523743
-0.129779
-0.010871
-0.091412
0.165602
0.124985
-0.129227
0.002008
0.000821
0.082968
-0.076807
-0.081818
-0.003430
-0.392083
-0.103447
-0.067542
-0.329916
-0.175324
0.245602
0.014077
0.133735
-0.288773
-0.268484
-0.024435
-0.090138
-0.343645
0.008605
-0.122813
0.087681
-0.162454
-0.059038
0.137640
0.109987
-0.177659
-0.026500
0.072533
-0.126858
0.078227
-0.006773
-0.108669
-0.169181
-0.018796
-0.089591
-0.169646
-0.119252
-0.083094
-0.147184
-0.047680
-0.214203
0.002469
-0.065354
-0.155353
0.028392
-0.041864
-0.170136
-0.183339
-0.075017
-0.234264
-0.171271
0.175607
-0.007355
0.109317
0.071993
0.259013
0.030577
0.097788
-0.175702
-0.127197
-0.036086
-0.054386
0.006753
-0.130494
-0.193108
0.033718
-0.003642
0.080460
0.039627
0.036936
0.100239
0.094501
-0.082678
0.149878
-0.275162
-0.028298
-0.012566
0.190798
0.169269
-0.276090
0.094470
0.125704
-0.092966
-0.153590
0.262993
-0.185803
0.004623
0.057816
0.062311
0.000972
0.132914
0.063771
-0.141935
-0.039422
0.006639
0.084988
-0.104442
-0.112231
0.011472
-0.038200
-0.101248
-0.223800
0.005008
-0.100481
-0.113115
0.090700
0.029334
0.013400
-0.135279
-0.169937
0.066244
0.068876
0.034893
-0.135610
-0.264485
0.091489
-0.041534
0.124099
-0.061874
0.103956
0.037414
0.055973
-0.350443
-0.046119
-0.104337
-0.046302
0.116269
-0.331990
-0.083843
-0.260874
-0.216970
0.037422
0.113497
0.198874
0.112217
0.096191
-0.020456
0.001611
-0.085071
-0.015429
-0.118943
0.057510
0.112740
-0.231065
0.038276
0.106598
-0.089635
-0.149410
-0.043411
-0.084940
0.049585
-0.000222
0.120445
-0.251614
0.113409
0.061755
-0.139308
-0.124294
-0.163046
-0.095832
-0.000367
-0.078872
0.060109
-0.021306
-0.007024
0.094504
-0.107251
-0.072212
0.231017
0.034522
0.154514
-0.023152
0.031036
0.092483
-0.053821
0.022084
-0.347225
0.071267
-0.036257
-0.098449
-0.230534
0.143688
-0.016233
0.033390
-0.067498
0.029271
0.030104
-0.232798
0.025951
0.121161
0.233975
-0.075067
0.045771
0.093188
-0.105569
0.089387
-0.019833
-0.048699
0.133522
0.049746
-0.014658
-0.027650
0.006321
0.215493
0.028307
-0.209398
0.135049
0.076037
-0.003943
-0.028289
-0.089796
-0.132868
-0.269879
0.179706
0.039202
0.068179
0.103732
-0.060548
-0.018682
0.145865
-0.044391
-0.019895
0.113383
-0.079613
0.036752
0.022924
0.097731
-0.036423
0.244554
0.080788
0.065405
0.089400
-0.129024
0.181077
-0.121387
0.061043
-0.159121
0.101845
-0.129647
-0.074385
-0.181906
0.177382
-0.039783
0.008536
-0.020206
-0.068835
0.039422
-0.249086
-0.042489
-0.016469
-0.030391
-0.294551
0.146827
-0.205970
0.698518
0.063776
-0.046171
0.043132
-0.025173
0.049104
-0.045482
0.114483
0.096413
-0.093901
0.017678
0.077869
-0.362496
-0.109346
-0.062729
0.077271
0.115932
-0.081859
0.029388
0.044445
-0.128426
-0.104742
-0.069138
-0.169039
-0.332949
0.051281
-0.061216
-0.136313
-0.025606
-0.135695
-0.653952
-0.084825
0.045013
-0.201865
-0.114108
0.107840
-0.028435
-0.110335
-0.064845
0.096538
0.050306
0.104485
0.001936
-0.221400
0.016172
-0.014597
0.035951
0.181244
0.097567
0.092516
-0.016816
-0.027368
0.076424
0.164506
-0.027969
0.012354
-0.016480
0.017111
0.175560
-0.054153
-0.010398
-0.026178
-0.039713
0.038243
-0.045775
-0.141682
0.021516
0.041157
-0.060944
0.279962
-0.330277
-0.245948
0.132398
-0.154493
-0.428564
-0.318573
0.150460
-0.152609
-0.297628
0.007702
-0.160036
-0.212070
0.083607
-0.012808
-0.335163
-0.013465
0.035647
0.004663
-0.091676
0.071291
0.034569
-0.109039
-0.172325
0.006808
0.027043
0.226669
0.056460
0.057320
-0.093307
-0.057702
-0.040834
0.047945
0.046108
-0.313130
0.017296
0.017222
-0.006037
0.099893
0.052052
0.223356
-0.100478
0.137917
0.053563
-0.163291
0.151507
-0.092501
-0.032804
0.003099
0.030869
-0.073490
-0.088025
-0.035169
-0.049086
-0.175424
-0.094629
0.173761
0.189001
-0.014099
-0.067893
-0.010575
-0.044040
0.135278
0.003320
0.363665
-0.189280
-0.004722
0.007854
0.011731
-0.019726
-0.114037
0.069929
-0.089799
-0.217085
-0.296974
-0.034018
0.095079
-0.094262
0.076689
-0.055840
0.098310
0.100264
-0.094150
-0.204567
-0.111658
-0.001945
-0.247074
-0.158625
-0.008621
-0.026891
-0.061550
0.071503
-0.137875
0.198888
-0.095554
-0.169254
-0.154959
-0.035402
-0.100720
0.010429
0.100117
-0.028222
0.021442
-0.059937
-0.107678
-0.008502
-0.142305
-0.230834
-0.180685
0.051518
-0.059865
-0.125799
0.048143
-0.080383
0.008015
-0.018197
-0.163414
-0.164717
-0.111306
0.009345
-0.016351
-0.087476
-0.126681
-0.063753
-0.037983
-0.273052
-0.099180
-0.085167
-0.046253
-0.067783
0.093625
0.072948
-0.081976
-0.052603
-0.166263
-0.258345
-0.073654
-0.021852
-0.150945
-0.081551
-0.026796
-0.096491
0.038002
-0.040497
-0.150173
0.219922
0.083707
-0.174141
-0.230997
-0.094833
-0.214526
0.100281
0.145437
-0.049545
-0.081730
-0.093111
-0.125440
0.037726
-0.215630
-0.233778
-0.034816
-0.002924
-0.334856
-0.143054
-0.065042
-0.281533
-0.099896
-0.070121
0.088073
0.024819
0.052385
-0.329573
-0.289529
0.151817
-0.403157
-0.327174
0.003459
-0.026984
-0.099120
-0.025899
0.096141
-0.624777
-0.130413
0.009599
-0.297428
0.012174
-0.126939
-0.004655
0.023233
-0.050918
0.205332
-0.020483
-0.025521
-0.008194
0.015245
0.175761
-0.172135
-0.058775
-0.427192
0.077195
-0.031956
0.066342
-0.181263
-0.062540
0.044776
-0.059659
-0.191206
-0.027316
0.037950
-0.137794
0.022296
0.062914
0.043436
0.093602
-0.173670
0.203030
-0.315027
-0.169418
-0.036352
-0.221057
-0.111241
-0.292664
0.096028
-0.192574
0.337957
-0.031078
0.016627
0.114872
0.179320
0.097982
-0.371245
0.016172
-0.020788
0.038036
-0.068850
0.060638
0.211741
0.036011
-0.077802
-0.077948
-0.087654
0.019960
0.117819
0.045284
-0.025600
-0.148812
0.059840
-0.144531
0.084274
0.115238
0.136724
0.037496
0.067842
0.030344
0.146318
-0.121020
-0.035966
-0.034389
-0.380856
-0.083540
-0.050019
-0.432689
-0.231196
-0.001889
0.010060
-0.123256
-0.010067
-0.362622
0.009862
-0.088993
-0.126215
-0.092862
-0.164308
0.074718
-0.078865
-0.022205
0.152341
0.104128
-0.146599
-0.109795
0.098862
-0.048865
-0.045935
0.060710
0.003884
-0.081324
-0.130992
-0.112425
-0.242499
-0.121201
-0.019542
-0.202673
-0.177621
-0.096409
0.139649
0.007928
0.023860
-0.025937
-0.147076
-0.357638
-0.104003
-0.130499
-0.339836
-0.453208
0.030236
0.131405
0.005699
-0.037461
0.129763
-0.311536
0.015027
-0.018502
-0.222503
-0.005254
0.056952
0.089993
-0.124082
-0.088475
-0.261361
-0.043160
0.100593
0.029737
0.228723
0.128623
0.077316
0.201863
-0.074788
-0.046196
0.035889
0.194358
0.331199
0.089835
-0.055789
0.018123
-0.177019
0.038676
0.027578
0.086871
-0.122790
0.066255
-0.129377
0.034409
0.045916
-0.321317
-0.265590
-0.045549
0.040257
0.049338
-0.132535
-0.091275
-0.211221
-0.389207
-0.238835
-0.144024
-0.151822
0.126329
0.147356
0.082139
-0.041059
0.017235
0.062346
-0.197497
0.052455
-0.556397
-0.172404
0.228788
-0.073095
-0.156768
0.046495
-0.089378
0.065512
0.004072
-0.375004
-0.004622
0.013640
-0.004964
0.017579
-0.129150
-0.098886
-0.085162
0.038265
0.060239
-0.187934
-0.048292
-0.406934
-0.101494
0.397546
-0.053109
0.001482
-0.008393
-0.338322
0.209328
0.014727
-0.022322
0.071345
0.107606
-0.125900
-0.012577
0.087559
-0.015041
-0.073770
0.066862
0.235715
0.023825
-0.241347
-0.233028
-0.072894
0.043610
-0.132495
0.071874
-0.068344
-0.048587
-0.037686
0.043211
0.080972
-0.107368
0.123791
0.028290
-0.371742
0.044895
-0.017103
-0.081030
-0.114052
-0.224910
0.010429
0.051167
0.036802
-0.037992
-0.180441
-0.026481
-0.180042
-0.117328
0.113783
0.089877
-0.083588
-0.126695
0.040004
-0.199451
-0.023544
-0.036442
-0.070229
-0.078661
0.259641
0.010343
0.111537
-0.175539
0.055683
-0.171987
0.000309
0.148821
0.019168
0.027225
0.107768
-0.055018
-0.204454
-0.204434
-0.159073
0.048387
-0.139724
-0.121211
0.113201
-0.100727
-0.051612
-0.010407
-0.055359
0.091285
-0.129469
-0.175743
-0.026668
0.203368
-0.117774
-0.147832
-0.084176
-0.045848
-0.069605
0.134229
0.063536
0.146459
0.245513
-0.331775
-0.090755
-0.244736
0.167444
-0.134986
-0.196144
-0.139839
-0.064073
-0.031399
0.057825
-0.177142
-0.278898
-0.058539
-0.105294
-0.057880
-0.119312
-0.380023
-0.071294
0.169171
-0.075725
0.116583
0.078054
-0.473004
0.025579
-0.040734
-0.167482
0.035488
0.079447
0.054650
-0.086433
-0.233532
-0.153277
-0.386148
0.032815
0.148536
0.074821
-0.232106
0.008341
-0.119653
0.118298
0.075133
0.196405
0.103326
0.022631
0.047576
-0.017951
0.012284
-0.070207
0.038132
-0.065356
-0.066552
-0.258071
0.029732
0.104306
0.105426
0.107477
-0.014149
-0.073709
0.067441
-0.099238
-0.015910
-0.067660
-0.356904
0.014264
0.114858
-0.116984
0.024001
-0.043700
-0.130920
-0.133109
-0.061503
-0.053024
0.021274
0.021386
-0.158120
0.124821
-0.078152
0.020192
-0.150373
-0.079578
0.062787
0.186817
-0.051858
0.018142
0.060176
0.031607
0.069046
0.149318
-0.403216
0.105857
-0.032761
0.025324
0.032093
-0.255573
0.141808
-0.188515
0.141315
0.078328
-0.015182
-0.017580
0.081476
0.135202
0.022426
-0.024301
-0.030029
0.022512
-0.156551
-0.018202
0.030525
-0.417413
-0.051119
0.162380
-0.537866
0.074439
0.124574
0.048596
-0.008242
-0.060095
0.061372
0.171474
0.049587
-0.028070
-0.033053
0.195358
-0.055299
-0.266637
0.015178
-0.113950
-0.158498
0.058294
-0.178961
-0.202913
0.052286
0.161206
0.045475
0.020231
-0.106665
0.114113
0.040901
-0.103098
-0.112005
0.040342
0.330500
-0.035845
-0.096777
0.139990
-0.136494
0.043175
0.319917
-0.158895
0.169276
0.112447
-0.254541
0.210814
-0.106875
-0.126218
-0.167804
-0.014511
0.020879
0.118428
-0.206293
-0.010315
-0.059128
0.067187
0.124260
-0.176242
-0.087949
-0.243555
0.159814
0.063785
0.089774
0.006654
0.005466
-0.054851
-0.017826
0.013526
-0.009174
-0.176960
-0.063085
0.144806
-0.010881
-0.174148
0.029275
-0.106532
0.127340
-0.004366
-0.016076
-0.472852
-0.222961
0.072612
0.181679
0.056252
-0.564462
-0.176302
-0.186624
0.003606
-0.195124
-0.180621
-0.233999
-0.002954
0.222704
0.050619
0.159829
0.037700
-0.017010
-0.123868
0.071266
-0.373541
-0.369963
-0.414660
0.164928
-0.057254
-0.095044
-0.074981
-0.533898
-0.039610
0.028769
-0.300501
0.103628
0.111441
-0.031924
0.023614
-0.225253
-0.123518
-0.220183
-0.221094
0.073938
-0.119240
-0.222384
-0.056504
-0.068924
-0.061731
0.032866
-0.181956
0.140574
-0.110491
-0.107069
0.083992
-0.066612
-0.274473
0.103451
-0.028477
-0.123747
0.065881
0.017292
0.042409
0.049758
-0.034938
-0.036088
0.026273
-0.328472
-0.244190
-0.057443
-0.129099
-0.177807
0.044086
-0.013281
0.006032
-0.051197
0.020267
-0.133335
-0.051372
0.094278
-0.056993
0.081878
-0.036938
0.003228
-0.011637
0.125777
0.137234
-0.199152
-0.094256
-0.007102
0.072359
0.053672
-0.030010
0.116117
0.116799
0.088053
-0.041487
-0.160144
0.083528
0.066249
0.097287
0.041864
-0.218976
0.017872
-0.268934
-0.051896
0.040220
-0.207012
-0.308042
0.049875
0.014561
-0.260174
-0.066714
0.079979
-0.085058
-0.090708
0.098877
-0.019114
-0.176408
0.136988
0.067162
-0.587313
-0.019841
0.023284
0.103255
-0.065348
-0.053772
0.139712
-0.125392
0.227133
0.084126
-0.240362
0.034337
-0.158778
-0.288431
-0.390338
0.102457
0.046392
0.050879
0.138176
-0.024588
-0.108607
0.191049
0.072048
-0.054525
0.050996
-0.193582
0.183184
0.291730
0.077167
-0.047179
-0.098889
0.009292
0.205442
0.012996
0.051887
0.073245
0.115915
0.038118
0.109170
-0.027891
-0.086227
0.117932
0.176468
0.220402
0.035247
-0.055995
0.055285
0.065408
-0.099681
0.234951
-0.226579
-0.213919
0.102084
-0.041079
-0.060026
-0.156455
0.045767
-0.207670
-0.214373
-0.135597
0.002431
-0.104662
0.088959
-0.047907
-0.334727
0.179907
0.120222
0.001193
0.001582
0.106871
0.160738
-0.180179
-0.343951
-0.133922
-0.037510
0.004362
0.065424
0.006396
-0.005502
-0.011175
-0.075099
0.000143
-0.212495
-0.047513
0.165698
0.009227
-0.039153
-0.136200
-0.067437
-0.058678
0.063777
-0.201784
-0.403623
-0.000963
-0.060695
-0.039815
0.058863
0.165580
0.091962
-0.045215
0.229554
-0.020870
-0.078280
0.018204
-0.005920
-0.243119
-0.135348
0.067061
0.025747
0.093487
0.206422
-0.048294
-0.283658
-0.064698
-0.097343
0.028433
0.085890
-0.027071
0.011668
-0.173073
0.057889
0.151828
0.118518
0.190219
-0.100539
0.008534
0.131406
-0.011966
-0.032816
-0.048006
-0.034130
0.148797
-0.130473
-0.111161
0.016963
0.084292
-0.033818
-0.107972
0.054829
0.162247
-0.003068
0.110783
0.058480
-0.058516
0.091895
0.062975
0.076688
0.022541
0.234331
-0.166938
0.041257
0.100510
-0.057829
-0.029855
0.111972
0.031138
-0.244099
0.047164
-0.396560
0.069244
-0.185190
0.006520
-0.251348
0.186748
0.141409
-0.204228
-0.091017
0.172073
0.072331
-0.313600
0.184985
0.257904
0.206797
0.071818
0.076873
0.077364
0.059264
-0.156658
-0.063568
-0.153121
-0.142801
0.125282
0.083308
0.117838
-0.071965
-0.078796
0.044037
0.073687
-0.184056
0.017315
-0.049144
0.077016
-0.118766
-0.084989
-0.124512
0.038478
0.074127
-0.029086
-0.030965
-0.023438
0.229513
0.010605
0.017598
0.036375
-0.152223
-0.144940
-0.185866
0.036847
0.116613
0.064704
0.168121
-0.137383
-0.090109
-0.101078
-0.110660
-0.116985
-0.187295
0.034656
0.076153
0.279031
0.051043
-0.167868
-0.156647
0.030402
0.069677
0.101931
-0.091387
0.052872
0.162404
0.164787
0.109028
-0.001615
-0.300314
0.147922
0.018413
0.015663
0.167027
0.104957
-0.046516
-0.059795
-0.084972
0.074727
-0.070157
-0.176576
0.013604
-0.003758
0.139967
-0.000455
0.032659
-0.172418
-0.217832
-0.041860
-0.109487
-0.228170
0.056947
0.110452
-0.305892
-0.011054
-0.165391
0.045922
0.081553
0.142530
-0.081561
-0.083449
0.175833
0.108512
0.000808
0.163699
0.087850
-0.040684
0.056452
-0.003807
-0.086055
-0.035945
-0.065004
-0.026011
0.083919
-0.071559
-0.021915
0.167425
-0.076479
-0.169535
-0.020386
-0.050668
0.042203
-0.023073
-0.167271
-0.116526
0.029421
0.042345
0.047896
-0.106057
0.065491
-0.269379
0.066671
0.017612
-0.092100
-0.030489
-0.040124
0.127690
0.278085
-0.020717
0.282529
-0.066624
-0.006788
0.028360
0.054408
0.064400
0.231480
0.063881
0.034971
-0.076726
0.189587
0.104759
0.002426
-0.008571
0.086077
0.070654
0.113933
-0.058587
0.021687
-0.165986
0.003309
0.096633
0.180325
0.088513
0.122237
-0.124601
-0.081112
0.070414
0.062987
0.118304
-0.286265
-0.103245
-0.238092
-0.077042
-0.112834
-0.104101
-0.012841
0.030477
-0.297973
-0.150567
-0.194734
0.197652
0.121742
0.110094
-0.086842
-0.136664
0.135340
0.069666
-0.035109
-0.144685
-0.299647
-0.216802
-0.074149
-0.173926
-0.083901
-0.025836
-0.030799
0.173193
-0.271194
0.034239
-0.304504
0.275896
-0.089517
-0.191376
0.009742
-0.060347
0.096922
0.054374
0.089912
0.238536
0.011113
0.107216
-0.122930
-0.113536
0.096069
0.008956
0.021312
0.115571
0.228210
-0.474921
0.130709
0.124555
-0.186184
0.062672
0.023641
-0.003135
-0.085919
0.112658
0.072951
0.116021
-0.182970
-0.004563
0.019783
0.004471
-0.053785
-0.060735
0.067897
0.102494
0.024364
0.159520
0.024463
-0.072871
0.097174
0.133075
0.014825
-0.433441
0.061325
-0.007133
0.076729
-0.006302
-0.029484
-0.124176
0.120597
-0.031134
-0.270880
0.057638
0.081945
0.024145
0.159956
0.162658
-0.326845
-0.048339
-0.130889
-0.043649
0.138738
-0.103076
0.107176
0.257528
0.119832
0.211236
-0.008374
0.066222
0.142754
-0.171993
-0.102450
-0.150856
0.044790
-0.001741
-0.047153
0.132696
-0.071244
-0.002045
-0.129085
0.175310
-0.130631
-0.137204
0.072480
-0.059485
0.138867
-0.308564
0.030155
0.138059
0.212765
-0.087006
0.116312
-0.153469
0.020605
0.038737
-0.047830
0.051298
-0.399319
-0.000955
-0.062699
0.176403
-0.163919
-0.215537
0.128561
-0.065803
-0.047243
-0.048982
0.103026
0.196481
-0.190345
0.080868
0.108043
-0.054811
-0.075381
0.059686
-0.117142
0.119153
0.036381
-0.297149
0.299395
0.187102
-0.007646
0.165793
-0.286579
0.006104
0.011047
-0.070907
0.056778
0.038724
-0.000004
0.181347
-0.084683
0.182921
0.127978
-0.233748
-0.066697
-0.025759
-0.356262
-0.066257
0.153240
-0.316259
-0.241008
-0.040526
-0.008568
0.098970
0.140871
0.135209
-0.275370
-0.143487
-0.009763
0.092913
0.011179
0.044822
0.035113
-0.130624
0.010267
-0.019087
-0.006485
-0.057097
-0.025789
0.004258
0.034580
-0.140408
-0.080248
-0.226769
-0.007480
-0.250486
-0.079202
0.144159
0.117506
0.159019
-0.270019
0.021269
-0.360713
-0.067566
-0.126458
-0.039123
0.092808
-0.056820
-0.045738
-0.182925
-0.057054
0.095143
0.311097
-0.126923
-0.121569
-0.043942
0.013886
-0.085200
0.051938
-0.283927
-0.238542
-0.120205
-0.163055
0.089261
0.230088
0.080513
-0.039184
0.076295
0.138741
0.031366
0.042132
0.166041
0.180693
-0.003133
0.047289
0.061422
0.195000
-0.090328
0.043808
-0.170371
-0.143441
0.137913
-0.117700
0.161893
-0.007668
-0.026405
-0.192906
-0.146565
-0.040195
-0.022120
0.044438
0.024505
-0.202863
-0.145314
0.126565
-0.082583
0.016086
0.063251
0.038146
-0.048359
0.022095
0.005499
0.177524
0.124243
0.028668
0.147739
0.052265
-0.022288
0.233170
-0.083773
0.339269
0.010224
-0.017027
-0.252273
0.034533
0.246114
0.137073
0.195391
0.087143
-0.156164
0.079572
0.031317
-0.195747
-0.262027
-0.067812
0.085504
0.110360
0.098307
0.024451
0.033248
0.031534
0.095762
0.053081
-0.269159
0.000656
0.126972
-0.026889
-0.103514
0.175265
-0.159507
0.185046
-0.142795
-0.075135
-0.171046
0.022714
0.134546
-0.146473
0.064057
0.008746
0.056682
-0.179460
-0.049561
-0.092765
-0.223785
0.117691
0.047279
0.037554
-0.114287
-0.122688
0.117312
0.045351
0.091922
0.006373
0.126092
0.142464
0.098583
0.172060
-0.247163
-0.037388
0.070976
0.213280
-0.000067
0.109247
0.166471
0.101967
0.143750
0.053210
0.084859
0.173770
-0.195583
0.086329
-0.023920
0.049567
0.073264
-0.356838
0.071557
0.018315
-0.071300
-0.127850
-0.033831
-0.181487
-0.024918
-0.206255
-0.232722
-0.234324
-0.288009
-0.091619
0.282613
-0.186358
-0.153959
-0.058369
0.074202
0.182015
0.166190
0.008190
0.228354
-0.233775
-0.077850
-0.110514
-0.137841
0.138161
-0.056793
-0.170156
-0.165918
0.004289
0.088850
-0.072418
-0.156464
-0.083627
0.000149
-0.265318
-0.011922
-0.230827
0.183939
0.067284
0.032627
-0.066860
-0.203252
0.011952
-0.077473
-0.215749
0.026517
-0.025082
-0.060651
0.011447
0.244819
-0.174735
0.051545
-0.024635
0.122788
-0.044692
0.207151
-0.204078
0.318712
0.086191
0.106020
0.032844
-0.016331
-0.076274
0.157139
0.170368
-0.025248
-0.019277
-0.337954
0.093239
0.072065
0.131120
0.078352
0.027040
0.157650
0.095264
-0.031497
-0.086945
0.164971
0.049457
-0.043138
0.039031
-0.058843
-0.039408
0.087633
-0.378861
-0.008408
-0.079286
-0.059290
0.234544
-0.121476
0.121865
0.058940
-0.051717
-0.001287
